1009 64
941 0.0066182744 -0.74119586 -0.36161584 0.08628696 0.5662495 0.9855501 -0.44459867 1.2507415 -0.70541483 -0.4639153 0.15734085 -0.9821738 -0.8923856 -1.2155701 1.1705871 -0.60620344 0.014698904 1.2736409 -0.56586486 -1.5607282 -0.72851604 -0.829031 0.02904174 0.48867342 0.06748786 0.38759616 1.3588378 -0.9571666 1.4650482 -0.01042414 -0.032044336 -0.49971074 1.1273273 -0.34147716 -0.5869531 -0.06833398 -0.52857226 0.9586259 -0.18455869 1.1584467 -0.0494786 0.16216767 -0.13604854 -0.04309249 -0.06681179 1.6996933 1.3720989 0.22552443 0.5340602 -0.021873366 0.22337802 0.5009575 -0.98712575 0.55876267 0.9115079 -1.0651113 -0.05043057 -0.13689947 0.5382726 -0.39831033 0.2328331 -1.006307 0.24694195 -0.20331888
705 -1.1951079 -2.277631 -0.74223375 -0.6491378 -1.0996431 -0.12783462 0.31473663 -0.26241574 -0.082957774 -0.052383732 0.32926592 0.60027736 0.84546447 0.6217715 0.2952252 0.8972781 -0.0008165841 0.09272445 -0.21909526 0.076505736 -1.1471419 0.4762289 -0.28797197 0.97726154 0.38831425 -1.2727076 1.0770931 0.08306465 -0.63431257 -0.3919438 -0.5570102 -0.9520214 0.901722 -0.20968185 0.7020111 -0.26338908 0.2917117 -0.23346592 0.50220627 1.2697551 -0.2728706 0.39369136 0.2844198 0.37223193 0.012887618 0.92483574 -0.5150276 1.0711483 1.0641395 -0.93033016 0.37988907 0.42123437 0.74468946 0.8811207 -0.40968478 -0.1952271 0.088759795 1.1437087 0.53951925 1.1832405 -0.53076047 0.18562305 0.20420147 0.9752521
179 0.41014627 0.6743297 -0.49623445 -0.5013058 -0.74715185 -0.9368125 -1.525988 0.5853001 0.712373 0.52800834 -0.9510733 -0.42991844 0.49590036 -0.55315536 -0.15677102 0.2046427 1.1274205 -0.6561734 0.36352026 1.5533983 -0.21894823 0.07212327 -0.620412 0.41336626 0.65284246 0.1532407 -0.34238675 0.73729795 -0.5050291 1.0283122 -0.8924898 0.53558934 -0.44207227 0.20800121 -0.26561874 -1.0892106 -0.2652529 -0.26027662 -0.3510162 0.15891957 0.1930813 -0.041887295 -0.8615897 -1.0055313 -0.5626632 -1.8628538 0.27881876 -0.2806521 -1.3019011 -0.82506394 0.18480447 -0.6730706 -0.20829366 1.474283 -0.90377903 1.3629735 0.462216 -0.36412555 0.007008422 0.33462352 0.29615474 -0.7121194 -0.41591135 0.4057227
849 0.20925277 -0.56681126 -0.015590188 0.115019105 0.2128134 0.84710336 0.28266925 0.23815934 -0.3688788 0.30519238 -0.6664451 0.7648131 0.120827004 -0.3169038 0.7507629 -0.15299757 0.027288131 0.47390082 -0.11804892 -0.617224 -0.71935964 0.13884425 0.38218993 0.009350861 0.27451667 0.03170082 0.14118584 -0.45932475 -0.31233972 0.17879485 0.07270094 0.12665306 1.0487356 -1.6740552 0.37226674 -0.5337834 0.3312971 0.19819538 0.48926875 1.0945837 -0.121207744 1.2023712 0.50806165 -0.25484207 0.7595044 1.6497152 0.7524249 0.9721914 0.48401925 0.34914473 -0.48345116 0.32062975 0.3143985 -0.00042445114 0.4924713 -0.6356199 -0.3316984 0.6657078 -0.16104944 0.5446286 -1.1237752 -0.01119583 -0.2851891 0.360329
896 -0.077413194 -1.047888 -0.11301151 0.4585552 -1.4898428 0.60159993 0.24611932 -0.20544964 -0.018271873 0.22823898 -1.2149197 0.70521176 0.32948887 -0.24001436 0.42243955 -0.013641666 -0.17796698 -0.396519 -0.65830654 -1.0501597 0.8073967 -0.9962255 -0.63076043 0.6851758 0.8201255 -0.9361311 0.06171485 0.7208224 -0.48660046 -0.57603604 -0.13354354 -0.94279176 0.82756144 0.5048402 0.06885732 -0.9966049 0.2061633 0.93930644 0.726609 -0.18566072 0.29802436 1.6330265 0.17242831 -1.0778503 0.42337346 1.8133733 -0.37051508 1.5622753 -0.40845096 -0.26678255 -0.29564065 -0.5244049 -0.23181644 -0.5666761 0.107368656 -0.826736 0.54180235 0.88153523 -0.027166568 -0.0003712792 -1.0947711 -0.785379 0.11086336 0.44162396
774 1.4647106 0.25821728 0.66108537 -0.054937005 -0.9886837 -0.097855106 0.97620904 -0.47539824 0.28534007 -0.48924416 0.14177662 0.8781127 -0.33960322 0.029066298 0.8661095 -0.20907786 -0.5831544 0.7643689 0.021489812 -0.14998326 -0.7881763 -0.49096584 0.65483636 -0.6488744 -0.58984363 -0.39133507 -0.0024092267 0.08531433 0.2802828 -0.49489227 0.23682399 0.22698757 -0.405351 0.09882606 0.49548 0.5807344 0.33632436 1.0686291 1.0306357 -0.060625184 -1.4680345 1.1787777 -0.91820884 0.111186914 0.7031219 1.6322435 0.42028898 0.42090234 0.62976426 -0.10965665 0.13303648 -0.16522339 0.5438205 -0.30614048 0.59015924 -1.148286 -0.1016469 -0.090040945 0.09332464 -0.24770194 0.08162636 0.525283 -0.17169961 2.325572
764 1.0875142 -1.569283 0.12861611 -1.2081752 0.28731114 0.06291043 0.84149724 0.26921135 -0.652571 0.5090253 0.31612706 -0.57916284 0.005852104 -0.03763675 -0.3012443 -0.49194866 -0.6973564 0.40783763 -0.18915741 0.027831461 -0.33467057 -0.41774207 0.4781908 0.4852037 -0.66060865 -0.42639548 -0.31649515 -0.06854182 0.20696875 -1.1841185 0.29909468 -1.3466243 0.35243672 -0.6306885 0.3260331 -0.78145605 0.583949 -0.21026206 0.18625683 0.7843701 -0.9953539 1.4403797 -0.40257776 -0.4643097 0.4628683 0.90505993 1.0586354 0.7778958 -0.1512541 -0.27898797 -0.5170205 -0.44204926 -1.0592021 0.096425526 1.7632792 -0.68065655 0.09196187 0.67631406 -0.68208116 0.35567984 0.3715379 0.09180613 1.1352241 1.7338302
245 0.13229387 0.6221096 -0.4538833 1.097216 0.4769071 0.17709382 -0.25514922 0.37928864 -0.03775977 0.5744052 0.3971452 -2.6053472 -0.23826993 0.070477135 -0.0111135375 -1.1637161 0.4253052 0.6734857 1.2861209 0.55285174 -0.33395717 0.5272909 -0.6716243 -0.401228 -0.10481495 0.5007322 -1.7336806 -0.72486854 0.17864516 -0.15539567 -0.5043229 0.55400175 0.3451973 -1.0822668 0.80975336 0.27860618 -0.43527594 0.6136282 -1.8652825 -0.7587422 0.92943054 0.087528795 0.23861554 0.2047399 -0.008096178 -1.2423797 0.039419502 -0.35489023 -1.2011979 0.71353513 -0.12350802 0.22253421 -0.06214991 0.19649465 0.1308314 0.41639182 -0.41253206 0.59100443 -0.59718585 0.3189343 0.3526927 0.6344711 -0.07937844 1.2466855
581 0.24254611 -0.20379947 1.0768121 0.38310954 -0.7423538 0.41177082 0.23121937 0.9211302 -0.4080647 -0.42436242 -0.5645453 -0.06972375 0.3627857 0.15145609 -0.46196306 1.1231005 -0.5486354 0.45664653 -0.7331806 -1.090607 -0.90746826 0.33566818 0.30676466 -0.09355036 0.20933941 0.21879642 -0.099185236 -0.17319638 0.7339054 1.210794 0.17268223 0.020683425 0.7651875 0.34779367 0.96972394 -0.21577947 -0.78059626 0.008812159 0.11563292 1.3869584 -0.8631403 0.5521568 0.8869488 0.065822154 1.4686248 1.6687831 0.30343774 0.5284753 0.6456529 -0.5092887 -0.5642018 -0.04511866 0.63474864 -0.6728069 0.62205714 -0.29000443 0.073300004 -0.31611216 1.1446234 -0.21871084 -0.6866562 1.1435528 0.098580465 -0.07496675
465 0.17699821 0.8991493 -0.5435867 -0.11431344 -0.4328848 -0.5626513 -0.6714774 0.3701568 0.7057422 0.95132315 -0.09755157 -0.74590856 -1.4493219 0.3083572 0.14605956 0.354384 -0.08255689 0.54745823 -0.77477187 0.13128519 -0.17902485 -0.040972415 -0.33260736 -0.21258716 1.1291724 -0.34577388 -0.5314247 -0.23363404 2.0207345 2.3249588 -2.1163006 0.4674304 -0.8178276 0.21187286 0.42153043 0.95055544 -0.6122572 -0.5311619 -0.82873 -0.9474155 0.5820524 -1.0209575 -0.49399635 0.34358358 -1.0137298 -0.31725326 -0.37732878 -0.61009175 0.11517226 0.043297235 0.6210602 0.84188217 -0.6509055 1.6919347 -0.29014683 0.7292887 -0.29027656 0.6519212 0.36420962 0.07483643 1.9711342 -0.7872582 0.1658904 0.90921515
690 -0.62812746 -0.09678907 0.7628153 1.3759882 -0.4775395 0.16962461 0.659023 0.76401365 -1.4174004 0.35231364 -0.49215686 -0.3151324 -0.7311406 0.36530957 0.52758265 0.01994277 0.67306006 1.2473602 -1.0715742 -0.57689315 -0.06963474 0.26922894 0.26269475 0.43548205 -0.21640883 -0.92115873 0.8678667 -0.65220654 0.47581217 -0.23060976 -0.19205192 -0.16364191 1.824661 -0.39618748 -0.3870536 -0.14541079 0.66641444 0.22152127 0.4294136 -0.20160669 -0.3788187 1.469524 -0.29694706 0.62239844 0.93015975 0.8853996 -0.19645564 0.5819598 0.8766594 0.04019237 -0.026367063 -0.33158186 0.22026202 -0.37134713 1.1273946 -0.5143352 -0.6405408 1.8959289 0.3402209 0.5872628 -0.7542947 -0.3826609 1.3509052 0.16075708
102 0.012089056 0.55831325 -1.3876542 -0.5626176 -0.60767233 -0.4829188 -0.24180219 0.14779834 0.5355974 -0.2418287 0.109681144 -0.46490207 0.32120416 0.1867369 -0.019059597 -1.083193 0.38068086 -0.12931025 0.0569815 0.09493818 1.0284312 1.2017337 -0.8145867 -1.3128062 0.6690641 0.6352009 -0.2845972 -0.19424377 0.28778845 1.7211848 0.66033155 0.5762053 -0.37277284 0.5092253 -0.39841253 0.027414072 -0.18021043 -0.2448042 -0.10635399 -0.3845989 0.24871676 -0.18979608 0.67136085 -0.6087928 -0.04096336 -1.2466083 -0.014182132 -0.804656 -1.5113684 1.0869067 -0.46322888 0.40789512 -1.514423 0.33379707 -1.2506334 0.69138986 0.53331244 -0.19958676 -0.2421239 -0.2173765 -0.10173957 0.0024101648 -0.30179814 0.9084578
487 -0.1841881 0.7439859 1.5954891 0.41529644 -0.35701233 0.27108476 -0.41552243 -0.03814482 0.2399539 0.27567837 0.8152315 0.17585805 0.1736044 -0.647754 -0.042613238 0.15306325 0.26122832 0.63939136 1.0828301 0.13189653 0.0047050514 1.2376885 -0.7108137 -0.20481575 0.11756683 1.2494687 -0.58418804 -0.116708584 0.14875884 1.0104522 0.021969564 0.79142106 -1.196643 0.38054734 0.39261112 0.116242334 0.29431078 0.2652167 -0.2464805 -0.64176226 0.12461585 -0.42884222 0.9163867 0.019518508 -1.8136897 -1.2164081 1.172384 -0.21467769 -0.9122611 -0.017232558 -0.8193489 -1.1239023 -0.24133404 -0.026555007 -0.6461437 1.0900506 0.79136616 -0.13741736 -0.65117013 0.48801738 0.22446607 -0.2970617 0.13819759 0.23546891
798 0.6306085 -0.6856747 0.13991797 -0.35795274 -0.35778242 0.7806256 -1.0195533 -0.10236606 0.9337223 0.3895246 -0.2151717 -0.090148136 -0.4387003 -0.7732898 0.8866266 0.35830653 -0.4090979 0.06739946 0.79548067 -0.9338846 -1.192367 0.16745292 -0.12426289 -0.23534188 -0.25503692 -0.29595676 1.7925624 0.012413312 -0.20038784 -0.49609244 -0.31212768 -0.61339974 0.69089913 -0.17624983 -0.25618535 0.65632516 0.3016902 -0.3270933 0.28571 -0.43513185 -0.422641 1.3747164 -0.7533821 0.0875855 1.0129532 1.2255077 0.6897671 0.5213875 1.390368 -0.41261843 -0.60482174 -0.37343153 -0.057238117 -1.1280853 -0.4102093 -1.0896263 0.37814388 0.37882772 1.6345012 0.3730876 -0.09630115 0.7176121 0.57183146 0.4375202
650 1.4214972 -0.38775957 0.080181144 -1.2354578 -0.6834948 0.23667207 -0.14925092 0.23734476 -0.26716676 -0.6080422 -0.5693833 -1.0791639 -0.3730642 -0.5438477 0.5800498 0.32738793 -0.5576251 0.34267697 0.059638143 -1.0743434 -1.2422832 1.1920273 0.62648964 -0.10272044 0.95281035 -1.1122196 0.070721656 -0.026333204 0.580955 -0.5059222 0.8087853 -0.27421692 0.42071712 -0.71990687 0.46267682 0.82765555 0.25850233 0.8732486 1.0138077 0.3620996 -0.62521124 -0.14615609 -0.2212975 0.6533213 0.39324313 1.5820813 0.3795612 0.24499965 1.0499784 0.6431819 0.76728034 -0.8094844 0.5747935 -1.1792729 -0.15914503 -0.5025982 -0.3625631 -0.04382747 0.91174537 -0.60058546 -0.37884143 0.20543094 0.8164379 0.3866423
598 0.009506637 -0.5775248 -0.024474185 -0.47313938 -0.6506162 0.22838438 -0.6054187 0.66537154 0.03638597 -0.4077115 -0.035377815 0.090780675 -0.053507783 -0.021830618 -0.688645 0.41700265 0.0075956513 0.23821047 0.024585059 -1.1038325 -1.5838432 0.04837765 -0.114203304 0.97490925 -0.15839233 -0.26878163 0.42453223 -1.6364774 0.9483155 0.15311262 0.085144326 -0.120989025 1.8499218 -0.9365188 -0.23494448 -0.75113624 0.2045551 -0.33273655 0.20443805 0.2427357 -1.2568902 0.6580109 0.93807554 -0.2844599 0.6091226 0.26518604 1.1599774 -0.20613243 0.74958646 -0.73088515 0.62434006 0.2044888 0.45504946 0.34384403 0.14928421 -0.6102547 0.83911407 0.85843724 1.3495092 -0.4073676 -0.8924121 0.10152109 0.4647419 -0.025266346
499 0.6732398 0.4325832 -1.2892016 0.93116194 0.36354837 -0.12608388 -0.22562353 1.1301807 0.5800087 -0.2350712 -0.4299928 -0.7933676 0.008802672 0.54733044 -0.15776815 -1.6296662 -0.37065816 -0.37211823 1.2906435 1.3383607 -0.28606883 0.9338694 0.08876678 -0.23554154 0.78026086 0.64323837 0.43416357 0.5701521 0.5261173 0.76276016 -0.84682685 -0.06606349 -0.083684735 0.7914763 0.14542605 -0.59915435 -1.494662 -0.37976378 -0.80134124 -0.3726546 -0.06537862 -0.8289649 -0.7246162 -0.011411412 -1.068621 -1.1991562 -1.2963357 -0.22103848 -0.79633147 0.9108284 -1.115355 -0.3273094 -0.80210125 0.5564433 0.39711457 -0.1397098 0.69861084 -0.57127327 -0.08850389 1.3232114 0.06312476 -1.2533758 0.89392525 0.2714001
157 -0.25325713 0.4650718 -0.08993133 0.442572 0.49356455 0.036016967 1.1919347 1.2872502 0.8313456 1.1854056 0.5517932 -1.0548459 1.0745189 -0.74856776 0.19096218 -0.45692754 0.62229437 -0.34744412 0.6929385 1.1778165 0.7239682 -0.35809305 0.35158226 0.38794592 1.026296 0.97433776 -0.5267955 -0.21217035 -0.30622733 1.0484552 0.32394987 1.4411893 -1.7313308 0.6833977 0.3417302 -0.112998135 0.41676468 0.63314277 -1.6623293 -0.15030545 0.2287132 0.065268196 -0.8740104 -0.10918862 0.6252555 -0.38388947 0.28472084 -0.22059423 -0.5552774 -0.21528457 -0.004697425 0.19223489 -0.6164904 0.7339238 -0.5315934 0.57626337 0.14734301 -0.22154884 -0.20205513 -0.17926273 -0.12052743 -0.44348457 -0.17889138 -1.1558443
433 0.030405845 0.18432829 0.5464927 -0.10018745 0.6412769 0.44570082 0.8754778 0.3014239 -0.012928703 0.7071882 -0.9465648 -1.0443407 0.47806102 1.1319097 -0.17856382 0.48249537 -0.21965283 0.44672662 0.20724408 0.27551463 0.1315948 0.07614353 -1.5139458 -1.01984 0.88082284 -0.044531815 -0.43262562 0.32650164 -0.23022078 0.9500604 0.3386793 1.6166292 0.23692009 0.29539368 -1.0878737 -0.15551162 -1.1768873 0.21151042 -0.61669415 -0.61234564 0.79951465 -1.1202929 -0.14380866 -1.0295405 -0.7973673 -0.633249 -0.56484205 0.28279334 -1.0839587 -0.13304466 0.28481293 1.0471814 0.38002148 1.6957126 -0.26824418 0.58810353 0.15970701 -0.31295884 -0.5974372 0.09393687 1.1700407 0.38660455 0.24214853 0.6660958
132 0.41499305 1.3349748 -0.18824555 0.3383631 0.040599804 0.25119132 0.60520196 -0.14418426 1.2447661 -0.21933131 0.21421379 -0.55669063 0.73006785 0.11771348 -0.67633474 0.71503335 0.49096495 -0.21415067 0.23024978 1.4964155 0.6224113 1.0296701 -0.1763782 -0.7797078 -0.17395265 2.2167332 -0.20389205 0.8501725 0.042924996 0.01895121 -0.21200462 1.6761537 -0.7290127 -0.11341531 0.22292225 0.25170067 -0.0013220778 -0.29357493 -0.21380207 -1.1747797 0.5350487 -0.58919024 0.36714113 -0.89395493 -0.08071605 -0.23003216 -0.41970906 0.15554115 -0.36969078 0.1838973 -0.36182937 -0.79437304 -0.031145368 0.15121622 0.9287196 0.31728992 0.809048 1.4581846 0.48627824 0.34781083 0.16772807 -0.3593845 0.6619837 -0.17837486
584 1.5973121 -0.62702113 -0.49946404 -0.7296681 0.22415145 -1.1351019 1.4429905 -0.117028385 -0.92465633 -0.030744186 0.36363104 -0.11891808 -1.0605313 0.119351566 0.9675344 0.5159713 0.21600667 0.8942366 0.25402382 -1.2231746 -0.77845174 -0.563199 0.4912667 0.47870234 -0.31068987 0.048429478 0.75090814 1.3575938 1.1937037 -0.49773985 0.2592213 -1.6370943 0.3197223 0.4845415 -0.0021561445 -0.97516286 0.20419976 -0.03645372 1.0189054 0.69549274 0.25440487 0.86122364 0.90979284 0.28942114 0.60876304 1.263805 0.36324653 0.33537534 0.6022391 -0.3689003 -0.61723214 -0.40067843 -0.6303599 -0.3082937 -0.42959172 -1.0752928 0.77667964 0.114713535 -0.10862202 0.2745652 0.7932595 0.13909294 -0.20064327 0.37152696
779 0.8745759 -1.4414862 1.2528497 -0.94842 0.7398157 0.006270392 -0.6345154 -1.3012601 -0.0021437039 -0.26064926 0.44558197 -0.7021907 0.8812269 -0.15218902 1.2797555 0.88280386 -0.34666166 -0.3757008 -0.18528274 -0.031804156 -1.0667386 -0.7652851 0.037084904 -0.339779 -0.21649007 0.65887934 1.1789827 0.49577612 0.88428116 -0.44787017 -0.1420661 -1.351023 1.4812812 0.27962235 -0.46207732 0.96118134 0.9660513 0.3507161 0.7334171 1.0048841 -0.21868865 -0.58121115 0.032878526 -0.40155217 0.03304565 2.411651 0.92961735 0.8871669 -0.45737553 -0.8426277 -0.30341443 -0.47760943 0.94242734 -0.5455224 0.97655183 -0.3328931 -0.28173319 1.243178 -0.40320328 -0.31828982 0.79402447 0.4789602 -1.2730606 1.6897169
224 0.08949516 1.763976 -0.18857093 0.367085 1.0020016 -1.312485 0.6249789 0.26359937 0.4055574 0.80705905 -0.46214077 -0.473714 0.71138924 -0.6671154 0.41574785 0.91132194 -0.14388014 0.755821 1.4505697 0.87055296 0.25018296 -0.19755632 -0.18980789 -0.3507405 1.2070217 0.3580267 -0.7518736 0.5821832 0.7167911 1.6090623 0.079555966 1.7671946 -0.6046624 0.16987859 0.5972733 1.0146973 -0.8467937 1.1312076 -0.5914586 0.050056987 -0.0114752 -0.5599149 0.20244293 -0.33592114 -0.53016675 -0.8467716 -0.5556395 -0.7500425 -0.21044438 -0.020509154 0.14508615 -0.15854271 0.44724327 -1.1372664 0.19746467 0.39989778 0.14785187 0.051262267 0.21157329 0.7779207 0.4502652 -0.17254142 1.0014645 -0.6633244
4 -0.26539546 0.6774494 -0.6349316 0.34690315 -0.7250826 -0.55903906 0.58533704 -0.99845403 0.21957083 0.8302767 0.19043258 -0.27523437 -0.34161606 0.12494142 0.16869909 -0.24068448 -0.32623643 0.8686043 0.05192674 1.0533328 -0.0052896678 -0.14056282 -0.22896007 0.06485333 0.6890584 0.14952938 -0.9471226 0.261947 -0.044018254 1.0592258 -0.13480777 0.8217928 -0.6860373 -0.7554215 -0.12990762 1.4669125 -1.48806 -0.29642445 -0.9500586 -0.24106097 0.4785683 0.5391468 0.33789113 -0.42711475 -0.7855023 -1.6588026 0.055147365 -1.1957431 -0.87642235 -0.45151737 -0.0998636 -1.427535 -1.2354606 -0.31993625 0.9106201 0.4587621 0.3152934 0.28694677 0.061314043 0.06652513 1.0018368 0.32890815 -1.3769032 0.88964266
804 -0.5186092 -0.8976993 0.5262905 -0.78658086 -1.0474198 0.39319763 0.54703796 0.40823337 -0.33244336 -0.033354934 -0.24576493 -0.73786724 -0.25892842 -0.42916977 0.37596524 0.9234355 0.30802724 -1.082717 -0.17172801 -1.0105505 -0.32271138 -0.002762074 -0.07261987 1.6459103 0.68558043 -0.43346676 0.42065147 -0.0035109865 -0.15631959 -0.45393246 0.006575564 -1.1076347 0.6533312 -0.7557246 -0.4705957 -0.14844754 -0.37706828 0.15572314 0.9879932 0.72906744 -0.6999252 0.07672778 -0.5901301 1.0835865 0.08440513 0.8213158 1.0246247 0.23447941 0.9863587 -0.5998705 0.6627497 -1.0184839 0.79547495 -0.83907384 0.26885742 0.1465935 0.5145811 0.094545364 0.3871992 -1.1711843 0.8070114 -0.51235455 -0.038888995 1.1517414
523 1.9161931 -0.26656464 -1.0365893 -0.6785102 -0.5782214 -0.615094 0.339507 0.3632893 -0.7724838 0.14106794 -0.34120592 -0.46343493 -1.0601492 -0.08899992 0.8105567 0.50265497 -1.1403255 0.56270415 -0.33359352 0.0069831735 -2.006501 -0.6776082 0.7339569 -0.32483545 -0.6747475 -0.5907531 0.78260297 -1.0310868 -0.4223066 -0.61386037 0.14754942 -0.24800958 0.8957847 0.0257603 -0.6080319 -0.52546245 -0.66018075 -0.67173123 0.23616073 0.7626695 -1.0759058 0.2207394 -0.21249342 1.0768515 0.26187435 1.1565603 -0.19988891 0.75323075 0.6541582 -0.72798425 0.5339682 0.15005742 0.09087636 -0.72935396 -0.032408077 0.38697523 -0.0074622775 0.39040527 2.011417 0.5349257 0.7225489 -0.18846431 0.28667128 0.9883791
220 -1.0678129 -0.15440845 0.18136872 0.1668647 0.2676575 0.04107507 0.50280917 0.058472853 0.030999761 0.15695785 0.57097054 -0.7899659 0.066755004 -0.5425587 0.20464955 0.80506426 0.7535184 -0.56969094 1.5894319 0.84031296 -0.124188736 0.13073081 0.3352358 -1.143089 0.79970866 1.7552522 -0.5979962 0.5994508 -0.89174837 -0.1277329 0.07406613 0.29836002 0.013991672 -0.3387401 -1.1308991 0.48600602 0.039004173 -0.89761245 0.7314249 -1.3856025 0.40936148 0.32143292 0.27544808 -0.5557724 -1.114043 -1.4401199 -0.92006457 -0.95630264 -0.74475795 0.11426553 -0.8364587 0.79556894 0.5345946 0.0909712 -0.3132449 0.6743707 0.171789 0.84203076 -0.1366198 0.24507749 0.70234793 0.78899324 0.9387243 -0.3361514
344 -0.24714315 0.68280405 0.5047297 0.5105708 -0.49426603 -1.0501969 -0.316574 0.7689998 -0.5744689 -0.036597863 0.09000575 0.35641798 -0.3907981 0.021039847 1.0675443 0.5054847 -0.3154623 -0.7885864 0.40057528 1.0690247 0.04934117 0.60407466 -0.19510172 -0.111316055 0.916627 0.24463855 -0.62754345 0.51193213 -0.7140112 1.497678 0.19847758 1.0756865 0.1400978 -0.5009275 0.14882824 0.018964563 0.34977844 -0.26852572 -0.25640884 -0.98023623 0.7459923 0.31948864 0.88619834 1.1027242 -0.2853119 -0.6426197 0.17300346 -0.36510688 -1.0066429 0.72453254 0.18208495 0.5401798 0.73226124 1.0811055 -0.8043607 1.5382868 0.0958847 -0.28462797 -1.2535733 0.41583657 0.13574924 0.3550216 1.142657 -0.44189575
230 0.032148354 0.045050107 -0.56644636 1.0120566 0.03415725 -0.20315175 -0.33311838 -0.6795436 0.4011537 -0.08048686 0.6239973 -1.1755995 0.07092524 -0.1554637 0.27213967 -0.66074216 -0.039384004 -0.03964016 0.46265066 0.45222032 -0.0626535 -0.9037132 0.16197649 -0.027008586 1.3410549 0.9812011 -0.7243995 0.9661542 0.17537929 0.767056 0.10688728 1.481034 -0.6288728 1.1880553 -0.107512 0.3509855 0.35500985 0.41759342 -0.31386724 -0.31098083 0.590646 -0.68607956 0.9620141 0.4215835 -0.62532395 -1.0763221 0.28307137 -0.41933292 -1.3431339 -0.090938464 0.12874043 0.4604932 1.0074782 1.5489056 0.006416823 0.30691126 -0.3776508 0.2885888 -0.25339442 -1.117869 -0.1999053 -0.49619147 -0.19170617 -0.31463784
383 0.15300979 0.04258653 0.3965204 0.10037859 -0.31515807 -0.8852378 0.971947 -0.6999596 -0.10517304 0.11015673 -0.23034324 -0.6058191 0.103231214 -0.6821595 0.31691694 -0.20575371 0.11624999 -0.093117245 0.8170156 1.0273156 0.2123235 0.10952117 0.8197764 0.032366984 0.7245101 0.5312763 -0.42017072 0.16200836 0.69619274 0.36045325 -1.3140118 0.85974234 -0.5435286 -0.8083683 -0.97696584 0.48622444 -1.0411512 -0.5472279 -0.21718517 -0.5878787 0.634122 -1.0997801 -0.0531012 -0.2736053 -0.4292161 -0.85969347 0.2615104 -0.123201095 -1.134495 0.91427636 -0.399312 0.12883514 -0.26755285 1.8336394 -0.016944608 0.0644708 -0.22445314 0.14611213 -1.207224 -0.4174622 0.7633187 -0.42580792 0.5686503 -1.1661842
785 0.68553066 -1.2207965 -0.027062107 -0.8938379 -0.29143667 -0.23560634 0.9382412 -0.18748145 0.0681188 0.10223714 -0.4998296 0.43306005 -0.29172385 -0.6134264 -0.86558306 0.9711365 0.78073806 0.42907554 -0.84484375 -1.1249855 -0.7187162 -0.57202315 -0.67752266 -1.064914 0.5414158 -0.79179585 0.91920024 -0.5022836 -0.8451208 0.5517127 -0.2489151 0.35323524 0.11338474 0.16369264 -0.6068483 -0.20160313 -0.02811106 0.7580933 -0.9935559 0.5471994 0.350311 1.590619 -0.5607602 -0.47888833 1.6448537 0.790261 0.860167 0.2114698 1.0868875 -0.2023118 0.2407304 -0.90554243 0.50928307 -1.0767037 0.2458137 -1.0930103 -0.11012442 -0.38324177 0.15311037 0.2174963 -0.11749573 -0.5101036 1.0186597 0.9869498
645 -0.43584895 -0.7472151 0.19934332 -0.39063776 -0.7493919 -0.7580792 1.0418522 1.5716094 0.20967312 -0.23929065 -0.38263708 1.1057897 0.2043713 -1.2666452 -0.37410644 0.5528916 -0.6483966 0.07709723 0.19370784 -0.6988871 -1.2263355 0.18031187 0.20357254 0.38293517 0.11027509 -0.14015837 0.033994116 0.6365376 -0.5723857 0.1628769 0.83893967 -0.30481339 0.57782423 -0.5855164 -1.3693799 -1.0968755 -0.21429867 1.742438 -0.1059317 0.5106035 -0.53757787 0.81143534 -0.54209864 0.94972515 0.20224133 0.49138653 1.0944496 0.46292743 0.783373 -0.955335 -0.55224025 -0.32766518 0.045274943 -0.34288144 -0.88768846 -1.2341897 0.251128 1.287015 0.27236786 -0.7429072 0.8602399 -0.009944271 -0.3726767 0.6643072
427 -0.026015662 0.72007436 0.9587645 -0.029383736 -0.15031175 0.41614714 0.39384863 -0.50131947 0.26771575 0.7299354 0.26197445 -0.42490283 0.5076763 0.35237917 2.065663 -0.3944489 1.058596 0.106622584 0.20159926 1.6703128 0.18049338 1.0612462 -1.1697665 -0.04816954 1.2647302 0.777258 -0.7518623 0.014062174 0.3553532 0.558615 -0.37032142 0.028394712 -0.26159078 0.8936219 0.7945943 0.40325502 0.5896188 0.02099578 -2.3527096e-05 -2.2391114 1.619607 -0.2374838 0.43104863 -0.18465881 -0.5528953 0.38715857 0.03841205 -1.1168529 -0.13464695 -0.19888386 -0.4382391 -0.59469634 -0.13717438 0.8124603 -0.56137234 0.87271816 0.0065858355 0.049600724 -0.20259702 -0.7621122 -0.40299854 0.18730757 -0.3040066 -1.4675971
883 0.7071035 -0.6649126 -0.37674895 0.7204056 0.10497189 0.7270521 1.6672776 0.5534376 -0.37188524 0.4500024 0.48329583 -0.49533716 0.9084248 -1.043517 0.94258755 -0.53687614 0.14702173 0.29517058 -0.22964345 -0.2738601 -0.88584536 0.01180544 0.6937629 -0.36136666 -0.23373291 -1.1912212 1.0752151 0.029157143 -0.8129521 -0.29420224 -0.62712514 -0.3193432 1.187651 -1.3599234 0.25878277 -0.5684199 0.4715705 0.4521571 -0.75659186 0.7374489 0.23842598 0.6157919 0.43360046 1.0143646 -0.9331243 1.4761492 0.7003973 0.37981004 1.1521391 -0.9458883 -0.0697115 -0.25171718 -0.40313658 -0.27165046 0.5499095 -0.29688823 -0.0220051 0.0073395423 0.6972379 -0.57362074 -0.27437255 0.31629 0.038983066 0.25725532
56 0.18689266 1.0566018 0.4462719 0.20937969 -0.38333344 0.65711325 -0.21606006 0.4238102 -0.094465844 0.42182758 1.1331441 -0.8211005 -0.57275146 1.0017186 0.50358653 0.049800005 0.61035204 -0.069625296 0.13091484 0.8526394 -0.037904955 0.0023792936 0.0677239 0.58194023 1.1599262 1.4626981 0.5047586 0.2602935 0.21642867 0.756328 0.112346046 1.7102298 -0.22871524 1.4807223 -1.1626074 -0.359055 0.6141693 -0.4010063 0.6936358 -0.5557594 0.42426875 -1.6979538 -0.29175887 -0.42378798 0.28175372 -0.47352386 -0.8250109 -1.8320419 -0.6200187 1.3434671 -0.018586397 -0.748836 0.23701161 -0.33871424 -0.48489034 0.23365018 0.80642885 -0.63104707 -0.23996992 -1.0133829 0.29292575 -0.4329662 0.32051426 -1.0410985
889 0.03932742 -1.2100275 0.13746433 -0.53681004 -0.9244747 0.0139251165 0.19263765 0.029029647 -0.2885919 -0.9971854 -0.10990789 0.4134336 0.5922851 0.7208494 1.1782655 0.03914954 -0.87542206 0.7066277 -0.49460074 -0.2916143 -0.2947855 0.09674022 -0.26690027 0.55419755 0.25475213 -0.37363455 1.147309 -1.1033202 0.5432357 -0.8345119 -0.016689148 -0.100536965 0.18929924 0.48310444 0.296438 -0.01769066 -0.30580932 0.414868 1.1610221 0.22530669 -0.28021136 -0.19153258 -0.08819504 0.4228849 0.17056173 0.6942599 0.87007654 0.90118957 0.40008652 -0.23602755 -1.2823235 0.6873479 0.326823 -0.8096241 0.47042206 -1.0926937 -0.6192 -0.15389672 0.41619858 -0.6666236 -0.77027136 -0.94948524 -0.84000605 0.8641564
11 -0.80571204 0.3758154 -0.7266034 0.91019624 -0.5672719 -0.21916527 -0.27333367 -0.3764831 0.77771574 1.1536548 0.29747066 -1.4260094 0.26738146 -0.81651855 0.09304643 0.6492304 0.81854725 -0.6577422 0.15898018 0.7038911 -0.15911588 0.25729385 0.4059331 -0.12547226 1.0039182 -0.13691959 -0.5934406 0.25506434 0.43344942 0.42948 0.035550673 1.1702892 -0.65179205 -0.64094543 -0.40339643 -0.3175428 1.5197612 -0.25452703 -0.5291614 -0.7066073 0.7551715 -0.4975825 0.08331384 -0.4416285 0.7288829 -0.9481576 0.6746609 -0.08079136 0.36012456 0.2306828 0.20442864 -0.39798874 -0.37708667 1.5188222 0.2890008 1.8068391 0.31270874 -0.020970121 0.24032602 -0.12740287 1.2176508 -1.23688 0.35021928 -0.6959324
861 1.4557631 -0.95165116 -0.59405744 0.110493384 -0.0013404627 1.2630755 0.21425545 -0.05187694 -0.74963313 0.57431126 -0.8434328 -0.093341425 0.068290934 -0.7092079 0.5427999 0.22426933 -0.14915217 0.01556374 -0.08379437 -1.1536618 -0.41012675 -0.5610575 0.43437898 -0.29494897 0.65247583 -0.9854793 1.3157537 -0.25269872 -1.4235829 0.94322073 -0.13213319 -0.6203934 0.90170157 0.8175869 -0.06613641 -0.8038458 0.37677103 -0.6450984 -0.16446854 0.08077975 0.08409319 0.8285141 0.3804712 0.7275441 -0.4821057 1.2849019 0.16688614 0.064800076 0.20327473 -0.540496 -0.9526 -0.95604366 -0.35792938 -0.35690945 1.0916021 -1.8244001 -0.36506122 -0.9735575 0.24197945 -1.5324193 -0.23084933 0.32945594 0.6578719 -0.026534688
481 0.4746819 1.7930977 0.687008 1.0249168 -0.17605515 -0.55445856 -0.4084063 -0.16940388 -0.19645181 -0.6312319 1.0293583 -0.6042933 0.12635446 -0.95003104 -0.07206581 -0.28428426 -0.22318965 0.22034593 0.89558774 0.1061742 0.8683328 0.32358405 0.17625259 -0.48340547 -0.07079202 0.8162081 0.32116342 0.8823463 -0.57279074 0.8453533 -0.41416097 1.1622746 -0.68128896 0.22161177 0.10758399 0.12648389 0.064803675 -0.6891755 -0.6709 -1.3002133 0.88932556 0.40186733 1.6312786 -0.033360593 0.34166536 -0.60644525 -0.5631898 -0.532472 -0.02921277 0.19243051 -0.6327765 -0.1701438 0.13847883 0.51080465 -0.4056289 1.0817354 0.77574897 -0.150981 -0.20628232 -0.66762406 0.699822 -0.32087788 1.3775457 -0.32322675
601 -0.74154806 -0.8456523 -0.65121955 -0.2261928 -0.7713817 0.99514526 0.8221175 0.010290672 -0.6831013 -1.0515298 -0.0043136193 -0.10669129 0.5906934 -1.2863115 0.37750185 -0.3858051 -1.3728088 0.38424516 -0.19207051 -0.8452065 -0.07577032 0.02870999 -0.36354983 -0.28294486 0.43335426 0.13798673 -0.86292255 -0.6461888 0.6438632 0.65842587 0.07740761 -0.975308 0.6886852 -1.0988166 -0.5805014 -0.5474153 0.4191186 0.46030435 0.2570857 0.18246105 -0.25992724 0.4383304 0.485056 0.20885542 0.074937016 1.0215213 0.65890056 -0.21951179 0.6161823 -1.9969155 -1.2290641 0.37637997 -0.1908369 -0.47136092 0.84442526 -1.5945244 -0.036871087 0.16220658 1.0734655 -0.6724213 -0.5220725 0.07135215 0.5703408 -0.35767224
482 -0.116967216 0.591632 -0.012652067 0.8415692 1.0267007 -0.82184607 -0.8701694 0.07804679 0.4078631 -0.049953114 0.6576981 -0.86847657 -0.10330069 0.72573876 0.0408341 -0.10108856 0.4271 -0.055888455 0.74135417 1.6923591 -0.3717944 0.26016805 -0.85510373 1.0825512 0.07404876 0.36746845 -0.17687915 0.023367653 0.1663261 0.5764699 0.7535242 -0.32937568 -0.22055508 -0.01936647 0.81438655 0.2560579 1.0565635 -0.43509403 -0.80656385 -0.91457796 0.87371314 0.06788489 -0.44534406 -1.0380404 0.28168786 -0.053730674 1.7619299 -0.9060551 -1.3167928 0.29118997 -0.068288766 0.32599875 0.41642871 1.5739362 -0.26101372 0.69836235 0.57309616 -0.715405 -0.5629585 -0.17406298 0.64312345 -0.8450813 0.23345649 -0.32669392
434 -0.6722663 0.9095931 0.62120956 0.6178244 0.707938 -0.3921307 0.6903375 -0.16206959 0.51702857 0.7744549 0.74217534 0.048583418 0.9996688 -0.3782957 1.0263903 0.18788393 -0.4657193 0.63678133 0.20296405 -0.3433206 0.6656484 1.0978683 0.7777635 -0.73187476 0.071710944 1.5101067 0.38908854 0.5778064 0.3387813 0.5714456 -0.98349315 0.2579754 -1.3583943 0.34399232 -0.57544535 0.19145349 0.33022997 -0.03409265 0.41260555 -1.2278214 0.44814435 0.04797382 -0.7919397 -0.16106346 -0.15572348 -1.1642298 0.894119 -0.5685358 -1.6325654 0.28921863 0.16350132 0.36473855 -1.1304504 -0.026235176 0.016066028 0.8525653 -0.025843415 0.48638883 -0.3631209 0.639784 -0.0031550897 -0.010387915 0.83935827 0.33220342
994 0.96858233 -0.7319515 -0.5898298 0.7939606 0.17162082 0.06663398 1.5034366 0.11950164 0.4980731 0.49181002 -0.124030665 0.15815648 0.37879974 -0.6755888 0.33579352 0.34233284 0.35117492 0.41746035 0.3616044 0.17119712 -0.26895657 0.068164565 0.2613583 -1.0889025 0.20175824 -0.033147335 0.4830179 -1.1963353 0.027664712 -0.7472069 0.8747407 -0.8211629 1.8829798 -1.4643937 -0.03292061 0.68693674 -0.025119111 -0.09578845 0.27836737 0.3890867 -0.1653445 1.0829579 -0.558768 0.86079425 0.27765784 1.1708658 0.79010886 1.0477666 0.7908799 -1.4200505 0.6880029 0.41344318 0.22094949 -0.05746757 0.9693483 -1.0999656 -0.4812527 -0.090981856 0.5873813 -0.57270616 0.5651175 0.3933187 0.08088418 0.94949305
963 0.33117184 -1.0368048 0.21342002 -0.12477024 -0.13364942 -0.14027327 0.78838694 0.7914823 -0.99107265 -0.01823596 -1.7282113 0.75675464 -0.7813903 -1.4090898 1.3724922 -0.26073554 -0.49306002 0.88392705 0.53521127 -1.6655619 -0.15710892 0.26592222 0.6372927 0.15943937 -0.7183324 -0.47269335 0.9678916 0.3643328 -0.8126052 0.86796314 -0.15313323 -0.36835495 -0.008927643 -0.41092294 -0.41390657 -0.5596744 -0.7925419 1.0481712 1.0283382 0.96114343 -1.5381415 1.263188 0.22989269 0.63452333 0.3212544 -0.08249654 0.24778478 -0.047781125 0.29437384 -0.3158468 0.01974598 0.74724996 -0.28125894 -0.29202574 0.14806917 -0.5323962 0.26814038 -0.54649514 -0.19683954 0.27024376 -0.062404506 -0.5501242 -0.7517919 0.21910362
156 0.953492 1.6872389 -1.0364574 0.54452413 -0.66637003 0.3738176 0.1690592 -0.21186669 -0.27533108 -0.9038791 -0.01355578 -0.56224877 0.106349796 -0.6081013 0.9520259 0.80676705 0.17999707 -0.5538779 0.50284535 1.3840475 0.37734053 0.35289478 -1.0102137 -0.6921928 0.6265291 -0.42487806 0.14893915 0.49950624 -0.74800396 1.7418514 0.000102855876 0.40447032 -0.93859243 -1.1375175 -0.13741954 0.99177873 0.0043714764 -0.12785956 -0.63883674 -0.6391 0.34765902 -0.46126688 -1.9224181 -0.97452754 -0.32398513 0.34880245 0.26070333 -0.1799501 -0.5196799 0.71399844 0.0077219233 0.67382586 -0.07926428 0.5793231 -0.67313546 2.2892947 0.8589302 -0.9365384 -1.2428409 -0.27577165 -0.4063706 -0.9065739 -0.42707017 -1.1265008
944 0.7959662 -0.70404327 -0.046580095 -0.9680665 -0.19511023 0.54599893 1.1706133 0.56124705 -1.3843142 -0.44822782 -0.40699297 0.14568761 0.01789252 0.09207798 0.33627087 -0.2056045 -0.6325113 -0.08497749 -0.22230767 0.2459696 -1.4781448 0.0077469903 -0.70742244 0.8505067 -0.3505126 -0.22698656 1.1387782 0.034580987 0.62998563 -0.6473434 -0.22068971 -0.6043139 -0.15059118 -0.1925195 -0.44099024 -0.27614877 -0.34005758 0.110356055 0.9667408 1.3275946 -0.19416603 0.6722147 -0.48478276 -0.43613315 -1.3450167 1.172243 0.17980696 0.5535966 0.8142208 -0.44081283 0.2303523 -0.57619524 0.43723372 0.20234819 -0.5300254 0.23456599 -1.1659356 0.43001777 0.7420062 -0.78464293 -0.33405426 -1.1919804 -0.4449612 1.1493199
661 0.7612007 -2.0788622 -0.26142883 -0.679598 -0.43084556 0.43382403 -0.003212934 0.13286726 -0.41013828 -0.8933083 0.23715764 0.3398147 0.12559731 -0.2652533 0.6187233 0.490071 -0.073133394 -0.3452902 0.32747853 -0.4282402 0.41743347 -0.053840358 0.36448622 1.000517 -0.23987243 -0.3716158 0.62099326 -0.4848239 0.13680774 -0.30282766 -0.5832403 0.22247012 1.3654389 -1.2700423 1.4317687 -0.46285322 0.39292228 0.42777887 0.03164748 1.0553851 -0.097329326 1.1871419 -0.7529351 -1.0778753 -0.5825621 0.97981733 0.24851738 0.1331856 0.18493293 -0.35664773 0.16352709 -0.035363898 -1.1806047 -0.5463062 0.48551783 -1.617992 0.82533973 -0.58273476 -0.20732938 -0.7152175 -0.53056675 1.1905329 0.33210844 0.5655713
938 0.2375725 -1.4592345 0.085388966 0.51633507 -0.3426189 0.53377265 0.05792833 -0.11646711 -0.98971635 -0.26668933 0.013296281 -0.8941849 -0.9310189 0.46385074 -0.44202417 0.5044074 0.08078921 -0.44658145 -0.29648554 -1.1779404 -0.119582735 -0.18294491 -0.403858 0.3976479 -0.3565077 -0.48194873 0.6195559 -0.8204011 -0.8620574 -0.1712313 0.17087387 -0.59312093 0.9509067 -0.4207377 -0.33868405 -0.46781173 0.07041396 0.2757664 0.08459347 -0.07416821 -0.8948283 1.8062897 -0.5343675 -0.1108937 0.5388911 1.6961479 0.81279624 0.17091696 0.15374699 -1.3631349 -0.031113744 0.0023366616 -0.51020896 0.14009652 0.254436 0.6928088 0.2285095 0.58545256 -0.4723437 -0.35828298 -1.4304125 -0.33017254 -0.29615733 0.159423
708 0.79340637 -0.35909948 0.37265146 -0.8635892 0.38562614 -0.70507103 0.48755413 -0.04463063 -0.6526822 0.24427174 -0.052112516 0.91339743 0.0032496226 0.35993993 0.30343702 -0.039702334 0.53286034 0.5002273 -0.1094872 -0.7569013 0.022314334 -0.875387 0.96197087 -0.015775964 0.13449544 0.20194018 1.31063 -1.272135 0.4433992 -0.5654785 -0.6267361 0.46120176 0.79588616 0.17237 -0.046859935 -0.17079356 0.5505111 -0.27096564 0.055837344 2.53451 -1.1085018 0.795203 0.6170282 -1.4855868 0.17651397 0.6881159 0.20707484 1.5597332 0.5460433 0.10091297 -0.51754546 -0.12920648 0.8658751 -0.023628188 0.075320415 -0.39988413 1.4060242 0.18418121 0.22523424 0.016965581 -0.5515874 -1.1383607 0.07037733 0.5012982
999 0.6137326 -0.282186 0.21364337 -0.2992086 -0.66945535 0.62748885 0.33997446 0.43037316 -0.042371936 -0.3336943 -0.6321515 -0.2726754 -0.106381856 0.3785945 -0.033165973 -0.5780535 -0.24529022 1.7713883 -0.3863241 -0.24462427 -0.0393379 0.565689 0.9254664 0.39519125 -0.10486401 -0.28093505 1.0533541 -0.27254888 0.3656929 -1.4033173 0.37925044 -0.524701 -0.5731109 -1.0446175 0.8966712 -0.011308979 0.34292933 1.197689 0.11701969 0.74266005 -0.4491001 0.7186788 0.31763342 -0.5293976 0.63247615 1.7877585 0.29890335 -0.37712765 -0.00825138 -0.94481444 0.30081517 -0.9834698 0.7272598 0.1135108 0.75805557 -0.8518783 -0.07033411 -0.78422827 0.2266286 -0.50786424 -1.0774516 -0.14797409 -0.90962726 0.12713644
556 1.1656368 -1.6569464 0.64214545 -0.74027467 -0.1790701 -0.025042199 0.6356178 0.03991083 -0.6615672 0.1139199 -0.25762144 -0.1034949 -0.0050481143 -0.69781846 0.4416839 -0.18585539 0.06696775 0.56550497 -0.4439216 -0.94489545 -0.59752756 -0.2026576 0.54970443 0.49597606 0.9199464 -0.2980924 0.07461931 -0.6261842 -0.75178784 -0.13033009 0.4550443 -1.189357 0.9563704 -0.6795236 0.5239405 -0.442545 0.016115695 -0.26820305 0.73435926 0.62274987 -0.22756454 -0.85430604 -0.32329825 -1.8333304 0.98368746 1.0098419 0.24544838 0.76133394 0.17327228 -0.37792563 -0.21956627 -0.16178028 0.52449596 -1.5981582 -0.5139864 -0.054910094 -1.2663238 0.24145187 0.12638599 0.54198927 -0.1907713 0.15260267 -0.5869237 1.0170612
879 0.47677538 0.45798215 0.42078596 -1.9455475 -0.70978147 -0.41311178 0.8442406 -0.56901777 -0.64098805 -0.024048133 -0.37296763 0.32725763 0.930422 0.45834413 0.5702718 0.5111115 -0.31845048 1.9134914 -0.49107236 -0.34414783 -0.7376232 -0.8615043 1.789887 1.1404499 -1.2670765 0.52505994 1.6268773 0.1866223 0.30659705 -1.0177569 -0.35427484 -0.54104704 0.3200363 0.27650115 0.51610315 -0.07451097 0.1665416 2.0805678 0.8169302 0.23163658 0.07912827 -0.9241553 0.5394341 -0.4559541 0.18724872 0.7138822 -0.19090433 1.417834 0.371426 -1.2544857 -0.88840276 -0.5960844 0.4214983 0.674235 0.20291066 0.08860287 -0.56809497 0.8288207 0.6064271 -0.6907273 -0.61691004 -0.64554304 0.3379355 1.1094667
609 0.40483505 -1.9232038 -0.92562586 -1.2745609 0.16539754 0.254159 0.6459657 0.43116087 0.25828773 -0.18880099 -1.068237 0.09875431 0.015465338 -0.5100258 0.7219175 0.90720385 -0.11461233 0.5023421 0.02403413 -0.26371425 -0.7040063 -1.6841862 0.23880611 1.058771 0.7608314 -1.1596673 0.9882909 -0.5125266 0.44755486 -0.54868495 0.5532828 -1.3142028 0.9885048 -0.2268777 0.18565086 -0.33875188 0.50561744 0.16611111 1.082214 0.45056403 0.449699 0.5799753 0.0048330454 -1.240379 0.48842418 0.6473541 -0.17919135 -0.30270228 -0.15290417 0.34475285 0.068220966 -0.004692413 0.77393544 0.45561874 -0.24850078 -1.5244297 0.6448694 -0.6436143 0.11926861 -0.12790722 0.012402459 -0.35379925 -1.1170112 0.4595916
263 0.3229737 -0.5963578 0.83411765 1.2990657 0.31841585 0.34202328 -0.4874871 -0.5859004 0.1450683 -0.0086685 0.5408644 -0.31570995 -0.83005065 0.049477704 0.13295051 0.43225628 -0.15691873 0.7590523 0.5335345 1.4484329 0.9895427 -0.43536958 -0.79940575 -0.25956446 0.5041414 -0.4269207 0.48856026 -0.2677692 0.8547226 0.6900984 0.6734944 2.3060243 -0.4515512 -0.011431184 -0.22100338 -0.025368879 -0.32594627 -0.09743919 -0.24498633 0.58845633 1.9985812 -1.0681854 0.33871138 -0.1265602 0.11589519 -1.610495 -0.2691384 1.112937 -1.111362 -0.47738284 -0.93351996 0.3001351 -0.7376705 0.62502235 -0.34446728 0.85110337 0.6284703 0.109409235 -0.06731157 0.89130837 0.6442886 0.44023785 0.018226327 0.15785927
440 -0.7939849 0.16947953 0.0097045945 -0.3819597 0.14236881 0.38661537 -0.8701534 0.061082803 -0.0204777 -0.025518047 -1.1389658 -1.4504 -1.0631036 -0.36559594 0.14947651 -0.32131338 -0.54661834 0.37637326 0.5566609 1.9932679 0.23158382 0.34328765 -0.5998615 -0.7845454 -0.15203625 0.06459606 0.18276517 0.16504607 0.8940153 0.13689287 0.15710708 1.6154794 0.16716069 -0.014298142 0.023498762 0.794891 0.112041675 -0.10658606 -0.46764946 -0.85456115 0.72166365 -0.85203236 1.3556509 -0.5757207 -0.9690015 -1.5997552 -0.010917224 -0.8115693 -1.0576137 0.05950663 -0.6623648 -0.25924125 -0.32777977 0.5724137 -0.6353289 0.42701137 -0.594005 -0.2192139 0.613134 -0.9553353 0.4456667 -0.757438 0.22075227 0.7670989
18 -0.96255046 0.5469644 0.1619505 -0.3408242 -0.24779108 -0.017000733 -0.2786046 0.100264184 0.18426661 1.5015498 0.8166143 -2.23321 -0.23845512 -0.48255473 -0.058571875 -0.40696162 -0.1035382 -1.1075712 -0.2919044 1.5306895 1.0748721 0.8991594 0.79176646 1.3057458 0.4059534 1.2973589 0.03086562 -0.78605175 0.115953095 0.35474735 0.2944112 0.8549736 -0.22508106 0.23238121 1.7332697 0.4202435 0.07404045 -0.07858982 -0.59626997 -0.88410354 0.55801666 -0.55705565 0.41161698 0.30128068 0.057766605 -0.6674159 -0.23759642 -1.2638166 -1.1098393 0.34666184 -0.029718513 -0.44308954 0.35906947 -0.07895819 -0.38610905 0.5004162 -0.039120603 0.1935578 -0.36390597 -0.53111845 0.032013834 0.48764375 -0.13593762 0.28181437
50 -0.6034002 0.8546281 0.21896574 0.9917957 -0.14007016 0.13360456 1.1775544 -0.35545552 0.5736621 0.4073474 0.7377015 -1.4718654 0.4896725 -1.2561169 1.3604158 0.16801246 -0.4875196 0.86699015 -0.13533692 1.1230786 0.09779998 0.72631925 -0.24155654 -0.35383943 -0.0402516 0.82456976 -0.4662531 0.2444169 0.11335762 0.58223075 1.5537909 1.1626773 -1.0355157 -0.33948404 -0.52259636 -0.6566639 -1.3936213 -0.11225985 -0.3927881 -0.43038088 0.381419 -0.08298786 -0.07573501 -0.6657385 0.35717288 -1.3305752 0.13429256 -0.3362666 -0.8898208 1.19881 0.21514833 -0.4260522 1.122868 0.3554087 0.4864821 0.3029311 0.11809346 -0.2911666 0.11783036 0.28253615 0.64092374 0.75633085 -0.51123226 -0.04298671
877 0.017890219 -0.9156866 -1.0755963 0.124312945 0.32795936 0.88193166 0.72127783 -0.15366691 -1.11652 -0.68382543 -0.69152004 -0.112593986 -0.12220558 -0.8532981 0.796046 -0.16339137 0.21945548 0.47244 -0.2770272 -0.22368494 -0.34757507 -0.2738239 -0.1159986 -0.32522005 0.48921797 -0.5928076 0.4632015 -0.28019938 0.2434579 0.5081102 -0.56653 -0.8467789 0.5417561 -0.34489545 0.5706564 -0.32756707 -0.2054882 0.79282016 0.42621472 0.9846093 -0.41502383 1.2028792 0.6225011 0.34349325 0.8319559 1.4628216 0.0881349 0.051766526 0.3480422 -0.5396991 0.3815362 0.7693104 -0.79381746 -0.38783494 0.46817836 -0.25857753 -0.18049459 0.2641213 0.3772689 0.34576535 -0.8235572 -1.6211622 -1.94037 0.6486358
505 0.49298763 -1.106267 -0.7887595 0.05089803 0.07090973 1.3720974 1.3161706 -0.14280868 -1.434333 0.59659445 -0.25821853 0.009414151 -0.21023504 1.2398151 0.16772768 -0.25113896 0.3215547 0.7136865 -0.25260288 -0.8147559 -0.5265902 0.07084445 -0.53868836 0.86402 0.27953932 0.45546016 0.65196216 -0.06509755 -0.59668005 0.3097965 0.6179799 -0.30142644 0.79769117 -0.53975827 0.6415718 0.08452848 0.043719128 1.2994577 0.10898738 1.8522683 -0.59656227 -0.05634646 -0.0075320886 -0.52739763 1.2068487 1.3500618 -0.112223074 0.09139065 1.2755584 0.41508132 -0.11925389 -1.3468559 0.7775217 0.021389823 0.661514 -0.39700857 -0.050508726 -0.06877434 0.023238309 -0.37857533 -0.20927669 0.19141345 0.23108277 -0.35673836
130 -0.50762135 0.51231927 -0.43968076 1.2684238 -0.48887834 -0.5321414 0.19378841 -0.026789332 0.6691056 0.3788746 0.5502379 -0.35039508 -0.079620555 1.0076658 0.9847239 0.24782908 0.93770045 0.83692956 0.5963231 0.42634252 0.9631343 0.14943571 -0.73279566 0.90669936 0.9761298 0.84793055 -0.34475932 0.31010452 0.031240558 0.4360435 -0.17917433 1.4520751 0.25202066 -0.16834716 0.15645304 -0.107103705 -0.6284555 0.3416537 -0.1529426 -0.9940516 -0.19864132 -0.16479097 0.31275907 -0.49797928 -0.4904437 -1.8538212 1.4240123 -0.36077276 0.33943164 0.4680163 -0.42714587 0.6458193 -0.076096535 0.37296164 -0.17559521 1.2481941 -0.049826715 0.4168431 0.2574685 1.6187353 0.2556274 0.63210946 0.15023175 -0.46550548
403 -0.0760588 -0.32973352 0.23954356 0.9191684 0.8756777 -0.5866958 -0.4849001 0.25787842 0.08684272 0.20943414 -0.2788561 -1.2414637 -0.46943888 -0.38659802 0.30173463 0.78245646 0.7949671 0.14008953 1.6398717 1.1682284 0.554338 -0.37525046 -0.5433107 -0.0858553 -0.36482173 0.4099043 -0.55350053 0.7975075 -0.22909886 1.0626519 0.5548184 1.3215648 -0.28837952 0.6290335 -0.15647025 1.0603138 -0.4497673 0.034297124 -0.35401222 -0.3405303 -0.10382908 -0.8800572 -0.053447697 -0.89598703 -0.50814444 -1.2868682 0.13277936 -0.75293106 -0.17088506 -0.5507403 -0.6008535 0.40248272 -0.11049233 0.23779458 -0.7588197 1.2283332 -0.7638863 0.2126501 0.25651443 -1.0593911 0.5662457 -0.32253554 0.58464843 0.28440756
958 -0.8843461 -1.2160419 -0.12502289 0.34255612 -0.6457538 -0.25827914 -0.43259382 0.50779706 0.5532541 0.50607854 -1.3401585 0.05245854 -0.51557803 -0.2336855 1.1134397 -0.32843742 0.9308053 0.74724466 0.13096187 -1.7545061 0.4501854 -0.98626214 1.2196175 0.9171634 -0.32914218 -0.4233241 0.7983724 0.43940064 0.7140153 -0.34153825 -0.5082602 -1.103525 0.5908561 -0.2470143 0.038956355 -1.180095 -0.097541325 1.012258 0.23255026 0.53700376 -0.099646606 0.77965045 0.45260647 -0.6828526 1.1338834 0.6200745 1.3351165 1.4039204 -0.16245635 -0.19695057 -0.61198175 0.59902245 0.9022304 -0.11202321 1.2586184 -0.7437372 0.44284028 0.6505361 -0.45719376 -1.5704348 -0.38172805 0.9853643 -0.096588105 0.22341025
927 -0.29057243 -0.51150036 1.881266 -1.1370873 -0.45719704 0.43444487 0.61935973 0.27040225 -0.44792122 0.93166316 -0.55411977 -0.6215383 0.29694578 0.36684808 -0.04806007 0.07362349 0.42918712 0.85561574 0.34850585 -0.17535292 -0.03321026 0.22529055 1.1964248 0.03805166 -0.5237308 -0.65470326 1.0231299 -0.28321004 0.81334746 -0.70115733 0.26676455 -0.46579638 -0.17314236 -0.33990172 -0.054737452 -0.2957507 1.1586511 1.3155895 0.023751516 -0.11250145 -1.5244594 1.4980284 0.6374299 0.49918398 -0.011340343 0.7820941 0.43950346 1.0268189 0.56513757 0.13863483 -0.3119778 -0.45776653 -1.0586228 -0.73395896 -0.42644882 -1.0519979 -0.20307413 0.5479579 0.62465465 -0.20017265 -0.594011 -1.5315024 0.11138391 0.8345769
461 0.31541216 0.62969524 0.64816326 0.12335307 0.13885036 -1.0843632 -0.33506227 -0.45429105 -0.40650567 -0.29125196 -0.22763456 0.67993855 0.44959515 0.5626161 -0.14503114 -0.38570306 0.045252055 -0.33363393 1.1788764 0.5198563 0.77333796 0.48998284 -1.1515508 -1.4346622 0.48882464 0.70165986 -0.10807626 0.9728225 0.56759256 0.5189176 0.5362064 1.4273858 -0.6284249 1.0533463 0.017121308 -0.52651626 -0.8065161 0.6329485 0.22226882 -1.5354244 0.19778581 -1.1555169 -0.277553 -0.9596811 0.7260113 -0.2716242 0.8589564 0.07403187 -1.6086816 0.55782837 0.16029947 -0.0152354585 0.38343456 0.85447234 -0.52648157 -0.37847763 0.6724984 -0.08691486 -0.26859626 -1.4832836 1.4239466 -0.8538287 0.49673197 -0.05396257
860 0.93123394 0.64552075 0.09503057 0.42006654 -1.0742471 -0.5277493 0.850575 1.0113425 0.29813388 -0.2606525 -0.5225311 -1.2529252 -0.60137004 0.09438214 0.20547941 0.6108736 0.27713257 0.31009182 -0.014864742 -0.5117368 1.1158643 0.6283059 -0.010495219 0.2370033 -0.45516 -0.17595738 0.90771496 -0.7262849 0.14488764 -1.1593941 0.49924397 -0.91582793 0.2852375 -0.41611058 0.09248918 -0.013434227 0.43925807 0.505913 1.3166094 0.24903396 -0.44011784 1.6268855 -0.803783 0.026487488 0.20901725 1.7594807 0.31189063 1.1668777 1.0911088 -1.14778 0.5994745 0.6572407 -0.8192294 -0.6920829 0.26019153 -0.63095754 -0.98717797 -0.3948419 -0.30083668 -0.44708508 -0.53820086 -0.5627626 -0.20310049 1.1361524
921 0.07975007 0.61520433 -0.2407921 -0.3480449 -0.555156 1.02389 0.6360622 -0.2966368 -1.2915913 0.6928832 -0.03658339 0.3925803 0.7726214 0.3671556 0.07124869 0.8198595 -0.36784118 -0.8096253 -0.86086905 -1.7125244 -0.67968214 0.20139296 -0.6950712 0.5343603 -0.09944937 0.34949186 0.8891461 -0.5644472 -0.44903284 -0.30539092 0.15941069 -0.32576665 0.9773238 0.700139 0.55944526 -0.68875813 -1.5024385 1.009212 0.674913 -0.055508792 -1.4717374 1.5839485 0.551373 0.839967 0.997883 0.5796554 1.4535292 -0.3986728 -0.23582882 -0.7212086 -0.06290272 -0.014547161 0.29049155 0.072327696 -0.50486845 -1.001578 -0.04625987 0.99677736 0.9973205 -0.88532203 -0.49894276 0.10908914 0.087600164 0.43781036
680 1.5129148 -0.13990684 1.2460198 -0.27120048 -1.224762 0.06513912 0.036747254 0.4576857 -0.102000445 -0.33136648 -0.1354096 -0.6305553 -0.055402983 0.2961392 0.38752243 0.2652795 -0.05760804 0.85146385 -0.54729664 -0.81771207 -0.54437643 -0.6860411 -0.06625473 0.062474415 -0.386131 -0.031617343 0.5419012 0.009271855 -0.5111497 -0.07171593 -0.54421514 -0.7944856 0.44642666 -1.6239326 0.5276595 0.63512754 0.65822786 0.789136 1.138619 0.40247184 -0.1352783 0.8344243 -0.6865929 0.561694 -1.0585155 0.7810892 0.26256812 0.18032014 0.6012842 0.089904286 -0.28916788 -0.3906414 -0.148887 0.44119295 -0.11850641 -1.6270596 -0.18640378 -0.08448793 -0.042383004 0.15471992 -0.82631075 -0.2443188 0.03910941 1.1771331
120 -1.4384779 0.9588358 -0.24237177 -0.6348955 -1.1359851 -0.7358371 -0.669131 0.14681579 -0.13861923 0.6148724 0.53824306 -0.96691054 0.5430345 -0.49238014 -0.8237827 -0.47086698 -0.30587107 -0.65810317 1.7749106 1.3004203 0.9775652 0.9406876 -0.36437544 1.1003513 0.3336534 -0.015457117 0.617873 0.62230057 -0.3227459 1.2932299 0.37038857 -0.47602007 -0.83892894 0.08820635 0.7359263 1.4003286 0.671183 -0.91810006 0.489355 -1.3089225 1.0792825 -0.9713152 -0.4567142 -0.6591013 -0.030328002 -0.7504068 1.117775 0.53167266 -1.0480449 0.6202165 0.31706274 -0.15937246 0.61949134 0.5807524 1.200374 0.554759 0.33912876 0.0032580707 0.49241444 0.14358898 0.010628492 0.29783064 0.36712524 -0.31081098
813 0.5675821 -1.6318196 -1.0553604 -0.085809804 -0.08303177 -0.15092129 0.3929988 1.6296626 -0.5917252 -0.54457086 -0.042104848 -0.62843865 -0.14877245 0.17169595 -0.14903124 1.5104464 0.20090902 0.5098854 -0.99545187 -0.8263475 -0.36295137 0.6864008 0.1334871 -1.0193471 0.66389346 -0.9407882 0.72560894 -0.65866 0.1831991 -0.41043454 0.07140166 -1.1960487 0.6423307 -0.05805914 -1.1821007 -0.2177956 -0.46558642 1.0871027 0.7889303 1.7337401 0.62602717 -0.068417385 0.32519493 -0.8491852 0.45218766 1.2756045 -0.06718816 0.84408915 0.48716414 -0.18127294 -0.12742673 0.7286908 0.41726595 -1.0331099 -0.07110684 0.4207641 0.45310557 -0.36487964 -0.22967766 0.17060675 -0.7913872 0.24615751 -0.7238476 0.41386962
643 0.8079887 -0.8755061 0.24650607 0.20699447 -0.32958382 1.1240857 0.3977713 0.15285397 -0.9787053 -0.46940216 1.2676604 0.079048626 1.249487 0.14004764 0.7075193 0.52300376 -0.53602135 0.14950535 -0.9872512 0.34099984 -1.0476038 -0.06741546 -0.29607207 1.2916354 -0.10192326 -0.86949056 0.6306689 0.24084146 -0.48256168 -1.0050997 0.18076548 0.017179202 1.4004041 -0.13106468 0.04529055 -0.067171104 -0.018332366 0.7381449 1.4223942 0.43131417 -1.2426697 0.24712886 -0.47781873 0.13250384 0.46552786 0.90953463 0.5217733 -0.28788626 -1.0794624 -0.6492667 0.41782618 -0.25471088 -0.11613088 -2.2235088 0.611033 -0.4564979 0.2265179 -0.4570662 0.68062544 -0.299396 0.09958404 -0.92999256 -0.22579552 0.3144373
86 -0.89332944 0.44895455 -0.45384592 -0.39975077 -0.025040764 0.26277986 0.22232693 -0.4565902 1.157214 1.1369455 -0.3647461 -0.14866334 -0.5064797 -0.3031443 0.55381423 1.1646757 1.261336 -0.5592312 0.6870208 0.57729375 0.48887134 0.8360285 1.0693351 -0.44565612 1.1362892 -0.26354718 0.32347876 -0.07097605 0.07864188 1.4803829 -0.24352837 -0.03258192 -0.5983175 -0.41582486 -0.28490925 -0.25550163 0.45488 -0.5474677 -1.515179 -0.98788625 0.9498762 -1.6674699 -0.633953 -0.47762546 0.23012374 -0.3087347 -0.34076706 -1.1274214 -1.7587636 0.07301267 -0.59165776 0.92983377 -0.72912943 0.011058923 -0.25985894 -0.124755435 -0.51026523 0.4516763 -0.14280069 0.1308988 0.95386887 -0.3851998 -0.16303554 0.23000626
547 0.78787494 0.1538072 -0.5494146 0.34459075 -0.4455776 0.467459 0.12686354 0.5831426 -0.72095823 -1.0518315 0.11958805 0.06756269 -0.8220744 0.29334825 0.9613546 -0.71990365 -0.044348218 -0.094084464 -0.79427856 -0.6603718 -0.48373976 0.20977533 0.8016563 0.21709575 -0.048466433 -0.32749444 0.3677779 -0.8112658 -0.036630966 0.62494624 0.30998337 -0.08795463 0.8753401 -0.22646822 -0.08153513 -1.0392833 0.36396703 1.3502722 0.39254943 -0.11469759 -1.071377 1.3458773 0.1177967 0.5262839 0.22816151 1.7712265 -0.17134401 -0.38371995 0.57183254 -0.90786827 0.15695062 0.62457126 0.5368628 -0.31553468 0.09276005 -1.0991744 0.30952135 0.7829997 -0.5752581 -0.7507034 -0.2039104 0.55414635 0.19091853 0.12500611
442 -0.07682753 0.3324229 -0.3235144 0.3421886 -0.25906578 -0.4582538 -0.38681513 -0.2839594 -0.43428707 -0.07712308 0.3688216 -1.1810014 0.16243456 1.6496876 0.12605812 -0.4842059 0.40977275 -0.2251444 0.8387176 0.42346737 -0.14830899 0.2149464 0.48978567 0.50215065 0.4998067 0.11865653 -0.6073226 0.5327811 -0.17897186 1.1833557 -1.0065635 0.1252471 -1.2796016 -0.025717948 0.6430167 0.023138978 -0.84147424 -0.7277192 -0.546474 -0.18332225 0.56384593 0.19490527 0.007199251 -1.1236753 0.39574847 -1.0934204 -1.0745115 0.055048876 -0.40580094 0.91916335 -0.14418404 1.7782608 0.3669214 -0.52177936 -0.7293116 0.57137364 0.4123713 0.9717317 -0.7811031 -0.09059973 1.5626411 -0.88433385 -0.34185606 -0.5435509
93 -0.22947504 0.8104632 -1.0351813 1.1249741 0.64013 0.42963305 -0.3402449 0.25127512 0.0881581 -0.21989597 -0.017210945 -1.2554126 -0.35659054 -0.29748997 0.27319968 0.9464492 -0.6715177 0.37375656 -0.29212314 1.048955 0.34007996 0.3898247 0.094573274 -0.23885737 1.0093807 1.139972 -0.8517673 0.63475895 0.37378946 0.44936493 -0.3240039 1.1606554 -0.882382 -0.4444184 0.07510154 0.864028 0.94710124 0.1111885 -0.37447405 -0.4877902 1.5344114 0.5376447 0.4738115 0.20824033 -0.27398115 -0.6294847 -0.79195184 -1.0300078 -1.1970844 -0.059741274 0.32998312 0.027487382 0.087402254 0.5890597 -1.088462 -0.29626706 -0.5255002 -0.06862599 -0.51879644 0.47559747 0.25233722 -0.020552251 -0.17699821 0.8097365
810 -0.18235773 -1.1944176 0.21587539 -0.48268247 -0.54956204 0.3436515 0.042243257 0.13461716 -0.7386775 -0.3977469 0.45696107 -0.06950742 -0.48248112 0.20481887 -0.7218449 0.67764705 0.113752104 0.6806072 -0.31190702 -1.7540766 -0.84677035 -1.1265856 -0.35346928 0.59532434 -0.30095822 -0.40629452 0.4584332 0.007270351 -0.23526697 -0.15995169 -0.544057 0.83438593 0.90848374 -0.7076262 0.71339834 -0.12891471 0.9468002 0.54667795 0.7213148 0.1965555 -0.93728137 0.37776414 -0.048962973 0.0028222792 1.053798 1.2372334 -0.10057465 0.7335132 -0.22230166 -0.65577334 -0.821423 0.32621706 0.07093038 0.5374808 0.7020834 0.011037214 0.040583894 -0.092625014 0.30768642 -1.0494317 0.42487383 0.19369513 0.7540099 0.52934676
261 0.18036088 -0.13235152 -0.06575106 0.20236167 0.085775174 -0.16938534 -1.3311396 -0.7012788 -0.32088327 1.2788267 -0.11209967 -0.8709015 0.3746249 -0.012552721 0.52600235 -0.37667614 -0.94519126 -0.66917 1.046487 0.33359328 -1.4088598 0.26892912 -1.2036786 -0.81948376 0.13953497 0.53080475 0.47029027 -0.02071436 -0.124032535 0.6386801 -0.15479155 0.6476619 -1.1449406 0.7465528 0.62459785 -0.5125156 -0.02332214 -0.5053775 -1.7333484 -0.31496823 0.8513833 -0.17054354 0.0092214 -0.44900495 -0.3497512 -0.67842907 -0.5645208 -0.75206244 -1.0498686 0.13401684 -0.50370884 -0.285583 -0.86895055 0.16582267 -0.632028 0.80781347 -0.27171755 0.5802639 0.22432174 0.53447753 1.2951901 -0.69486594 -0.03301046 -0.050042994
833 1.397061 -0.6634303 0.0026425675 -0.96957314 0.14750166 0.08019816 0.13379475 -0.24773651 -0.5190291 -0.031591516 -0.24964593 -0.6176272 -0.46330547 -0.6548203 0.79758316 0.110782474 0.80010647 0.82249856 -0.8534519 -1.5205958 -0.8483981 0.19839983 -0.43938896 0.25767535 -0.10466579 0.60957825 0.89477086 0.22857475 -0.24884868 -0.8402604 0.09967486 -0.8454008 0.7728199 -0.7238091 1.1572349 0.76219964 0.4143842 0.46900442 0.68464756 0.4565096 -0.47865215 0.74502444 -0.2448515 -1.9667652 0.41356194 0.56558007 0.13591257 0.02809734 0.41468394 -0.046711627 0.19616199 0.03623197 0.21092607 -1.0519316 0.03307968 -0.4377402 0.5586295 0.010948745 1.5380025 0.14707492 -1.2363372 0.46311495 0.3191819 0.73591006
906 0.28045812 -0.63482296 -0.03153495 -0.36628965 -0.56465244 0.081028394 -0.30118093 0.014987749 -0.2250895 0.0452287 -0.025304494 0.71697277 0.07780474 -0.26068425 -0.10614936 0.7016599 -0.8375235 0.14393604 -0.14905798 -0.5430352 -0.6416368 -0.31119087 0.6741074 0.20760618 -0.23431249 -0.8551077 0.89037204 -2.0227256 0.46173707 0.07934019 -0.7493968 0.8237746 -0.007984212 -0.9401002 0.8497711 0.295478 -0.45916036 -0.37296957 0.83917487 0.7767215 -0.76758504 1.101285 0.51369727 0.30288982 0.17922385 0.2785654 -0.037374347 1.0754781 0.5968008 -0.36060068 -0.31082013 0.29913035 0.51808923 -0.87009776 0.77526885 -1.2727294 -0.4418126 0.4578535 -0.55837363 -0.6782385 -0.6698003 -1.7219416 0.020842815 1.2592263
231 -0.41010693 -0.13326544 -0.34830967 0.68380696 0.08876736 -0.28944948 0.59111625 0.21667689 0.96144515 1.5490375 0.49771002 -0.60904825 -1.3960961 -0.32348335 0.36718085 1.2094842 -0.21415058 1.6729369 0.33843246 1.4012933 -0.388261 1.5691026 -0.34793326 0.4636324 -0.33447242 0.66484207 -0.14411862 0.3144546 -0.41228056 0.7865218 0.4747862 0.4716848 -0.7732856 -0.38594374 -0.12448984 0.3475423 -0.14674151 -0.045945637 -0.58960265 -0.8134365 1.2669723 -1.1103711 -1.1122415 0.036785517 -0.29638258 -0.35451004 -0.7352409 0.18115598 -1.1089482 -0.27801183 -0.017253617 0.72672373 1.3198035 -0.07233428 -0.24167193 1.1745665 -0.3181358 -0.22849284 -0.18655924 -0.13204166 0.06233023 0.18784638 0.41380095 -1.2794739
816 1.4600772 -0.9812138 0.13849927 -0.9939007 -0.3543739 0.81895137 0.22888736 1.0161096 0.14283262 0.22139288 -0.05952831 -0.27201268 0.258894 0.3007544 0.18810758 -0.44827658 1.0998645 0.44406828 -1.5006375 -1.0377218 0.43258145 0.40338326 0.37392753 0.26545656 1.3934433 -0.41410258 0.45587707 0.37906986 0.0075416984 -0.5928818 0.3440825 0.0656014 -0.090583414 -0.46786568 -0.398419 -0.62650913 0.35640782 1.1303041 1.3005621 0.4134442 -1.406841 0.9913968 -0.11091018 -0.115656294 0.2052174 0.97352254 1.1623425 -1.4148875 1.6613706 -0.9184968 -0.08893442 0.59290814 -0.68269193 0.14505254 1.3730978 0.43579713 -1.2152921 0.14410363 0.12182541 -0.098209366 -0.5602704 -0.6606185 0.90306175 0.081225194
608 0.7395837 0.19304675 0.8664071 -0.35272738 -0.33601308 -0.11416195 -0.23362456 0.36120468 -0.30811256 -0.21719296 0.74315804 0.30946892 -0.36537573 -1.4544348 -0.51405805 0.16972145 -0.24674942 -0.30234826 -0.7881192 -1.6068131 -0.7991878 0.5786289 0.2433115 0.030512245 0.22802521 -1.675256 1.2033406 -0.505762 0.6275752 0.17099069 -0.16653615 -0.25666472 0.58565736 -0.35059866 -0.08720083 -1.1478709 0.8704838 0.28812602 0.8280675 0.2510132 -0.051657517 1.2162504 0.67898375 -0.80728555 0.3695663 1.4971247 0.7911635 -0.1486185 0.80027705 -0.2314715 -0.36921945 -0.328861 0.80106646 1.0824407 0.9531096 -0.621079 0.2515141 0.70701486 -0.056023356 0.6164597 0.5855302 -1.3368213 -0.26814613 0.40640292
665 0.25511897 -0.31417903 0.9893668 -0.3153639 -0.91790444 0.08985757 0.8691837 -0.11726651 0.30242753 0.8335447 0.13236059 0.22442882 -0.77520853 -0.03643964 0.021437783 0.6175465 1.3013395 0.4203516 -1.0337864 -0.15990296 -1.0580575 -0.075700685 0.63440686 0.19200015 -0.7396262 0.29335347 -0.15989943 -0.3847186 0.94565654 0.098289244 -1.1672667 0.17298482 0.78466207 -0.5028692 0.06621824 -0.4654335 0.02843525 0.89109993 -0.09944219 1.1949404 -1.0373185 2.0395694 0.86200523 0.28740206 0.0023772866 0.65333307 0.9967511 0.093650416 0.53590906 -0.77118397 -0.08065268 1.3369166 -0.0349836 -0.12674494 0.08401099 -1.455642 1.0322114 -0.88982654 1.136822 -0.034296546 -0.22345904 -0.51557875 0.32910693 0.2680088
914 1.0003263 -1.5634263 0.7354553 -0.12022967 -0.5977396 0.55604166 1.5831498 -0.5416719 -0.4232817 0.5393989 0.19249599 0.12535132 0.65178335 0.006815523 0.6532198 -0.6330187 -0.6539077 0.28621495 -0.41592827 -0.040604737 0.40954304 -0.6255982 0.15184586 -0.34103712 -1.1463137 -0.6073577 0.60457677 -0.6404348 -0.83119386 -0.48240277 -0.42946008 -0.26766014 0.2667946 -0.98069054 0.18591893 -0.04649025 0.5748344 0.027571093 0.21581563 0.29542702 -0.52224493 1.4760742 1.1784635 0.59443325 0.54480696 0.53550154 0.7442749 -0.19306038 0.012795595 -1.0486964 -0.032930326 -1.4797171 0.8964361 -0.16914138 0.13084736 -1.1844846 0.6882725 -0.07648005 -0.28263962 -1.1665052 -0.6306896 0.108380966 -0.23473208 0.06474436
687 0.6336733 -1.4580208 -0.3539909 0.1590201 -0.5361254 -0.07080555 0.06903993 1.0141838 -0.737088 0.41906804 -0.60246336 -0.10627807 -0.71253455 -1.1385216 0.25999135 0.44817245 0.053427972 1.073868 -2.0457568 -0.9855227 -0.3331537 0.7515322 1.2513074 1.1635047 -0.29883057 -0.16539642 1.4698478 -0.88323283 -0.4358396 -0.010772751 -0.14480846 0.32303265 0.4540229 -0.26687345 0.5707807 0.49001276 -0.7029915 -0.041217994 0.4118463 -0.1065794 -0.6024278 -0.21310468 0.93131703 0.996165 0.08407341 1.967413 -0.017148219 0.23007777 0.7993052 -0.61502945 -0.69275635 0.37615928 -0.17246637 -0.006301558 0.13549832 0.16917107 0.82052803 0.12532914 0.35396653 0.33423588 -0.5537231 -0.16521783 -0.45109984 -0.24348585
5 -0.8830638 1.4256669 0.08103348 0.8594405 -1.0837445 0.050482973 0.4900627 0.037772503 -0.372209 0.5606466 -0.7404227 -0.38573307 0.33078367 -1.6000472 -0.2341161 0.2308779 0.017618993 -0.836225 0.28747088 1.628485 1.1427085 1.098574 -1.3264295 0.15509707 0.9928794 0.12168895 -0.4100481 0.5004822 -0.05844196 -0.44294173 0.33117303 0.5948591 -0.11444636 -0.3841509 -0.6161183 0.41975176 0.47542706 0.08849801 0.60913795 -0.37349725 0.8436416 0.00398723 0.22338557 -0.3093037 0.3097984 -1.1153901 0.31767637 -1.3640331 -1.4915608 -0.119050905 0.36954337 0.78362215 0.2459829 0.6264939 0.40432134 0.48698017 0.1495765 0.13159224 -0.008861988 0.83456385 1.4166723 1.0599071 0.13222481 -0.1793576
365 -0.73234653 0.16726077 -0.19214933 1.0308288 -0.4678088 -0.8356705 0.03881326 0.5940776 0.18365432 -0.17465807 1.8780361 -0.5710926 0.2957417 1.1512358 -0.2405758 -0.9326596 -0.60925776 -0.5976535 -0.3766144 1.2577935 0.21153049 1.158606 -0.021682113 0.41525075 0.28279427 0.010813493 0.0641212 0.30233496 -0.5646901 0.13877888 -0.5475216 0.7253255 -0.0947842 -0.38199553 0.28381002 -0.2731837 -0.063290365 -0.29277998 -0.32474077 -1.4157537 -1.2865778 0.18518479 -0.6105695 -1.1012037 0.31978747 -0.5362435 -0.49006838 -0.1908627 -1.9753575 0.4754378 -0.71164787 -0.79517543 0.96883005 1.2590755 -0.7366799 1.4699019 0.7242797 0.26116088 -0.729699 -0.08907155 0.05380184 0.2730892 0.68112314 -1.4943879
296 -0.16149093 0.22530885 -0.6107206 0.95926833 0.58516306 0.7078378 -0.5428451 -0.40920508 0.7652586 0.2365843 0.84363043 -0.72368413 -0.30569145 0.19640796 -0.19473986 1.8479317 0.103435226 -1.0465435 0.8112461 0.64307153 0.64361894 0.9836132 0.7412467 -0.893281 0.5270016 -0.3577618 -0.65072805 -0.13362636 -0.33897838 1.4421713 0.4952776 1.3112459 0.34385273 -0.3976111 -0.49324632 0.7804347 -0.74130386 1.109524 -0.1381751 0.4186688 0.96307236 -0.09037635 1.4938276 -1.0080119 -1.2143142 -0.027131109 -0.3525651 -1.856789 -1.3303671 -0.10128196 -0.4255195 0.23010582 0.111416265 0.071769506 -1.4615058 0.5978635 -0.16746975 -0.6699583 -0.5039867 0.44625714 0.48415327 0.21228202 0.23540267 -0.31413373
587 -0.08732326 -0.25024712 -0.4388599 -0.789021 -1.5718393 -0.23301812 0.4597795 -0.08974163 -1.3256782 0.4883274 -0.66120684 -0.1909776 0.38263124 -0.6025173 -0.3183199 -0.67328435 -0.008577529 1.0889952 -1.1558238 0.31262964 0.05974033 0.3418201 0.39420485 0.88608855 0.50236064 -1.64281 0.27503097 -0.35579684 0.8156437 -0.32933363 -0.28834566 -0.11068137 0.33630884 -0.8004678 0.63931215 -0.0578301 1.4442873 0.78731674 0.44434208 0.999032 -0.05444297 1.1641916 -0.1694334 0.14010963 1.1164732 0.58987176 -0.07347811 -0.23984088 1.2474829 -0.24880053 -0.55381495 -0.14714345 -1.0962961 -0.6569646 -0.2066906 -1.4004767 -0.3594713 -0.017079659 0.34015706 -0.55520326 0.17336561 -0.098105244 0.6514065 0.5592931
235 0.67999357 1.135387 1.1568003 0.59409577 -0.2623034 -0.8385943 -0.20920166 1.3113025 -0.80995536 0.070621245 -0.026131148 -0.8550464 0.35475707 -0.65604866 0.7148241 -0.183981 0.3706293 0.2563829 1.2715434 1.3472801 -0.07193543 0.08712612 -0.17969371 -0.52803713 0.18135801 -0.1046804 -0.2660059 -1.4210997 0.06673996 1.204717 -0.35445333 0.69966245 -0.32483897 0.54314506 -1.1092054 -0.4029409 -0.7731897 -0.02978061 -1.0213397 -0.64993143 0.09645398 -0.8025227 -0.35665512 -0.14456028 -0.11278417 -1.8031183 -1.372491 -0.2825779 -1.3290564 0.37738258 -0.035940614 0.18629143 0.052190438 0.30056545 -0.14294745 -0.09911382 0.46463695 -0.5674209 -0.5128586 0.7233864 0.13160637 -1.1571052 -0.39808428 0.07671998
590 0.8685299 -2.3666456 -0.07835395 0.57691395 -1.4085312 1.0149988 0.44896013 1.6068211 -0.0536662 -0.24452576 0.608049 -0.23587324 0.06545631 -0.39667308 0.88223237 0.89406914 0.526412 0.4480617 1.3069537 -0.11174031 0.1390233 -0.32368731 0.02912361 -0.16718028 -1.2042414 -0.20779799 -1.015795 0.0522971 -1.1580637 -1.220084 0.6959453 -0.90599847 1.705039 -0.7720248 0.9354264 -0.99592423 0.57325965 -0.4720077 0.777844 0.05799367 -0.96346 0.97968936 -0.7197986 -0.543208 0.5559932 -0.18841866 -0.4458414 0.43766913 0.954809 -1.1096507 -0.512785 -1.514758 0.35126925 -0.631288 0.14697014 -0.8935078 0.67002696 -0.8210994 1.0291982 -0.0349113 -0.31815767 -1.0111293 0.24408731 0.13431793
234 0.3635895 0.98771244 -0.0056790486 0.5375823 0.27596307 -1.1944712 0.24268202 -0.20170559 0.19622421 0.36116114 1.207596 -0.45898187 0.30517957 -0.0805407 -0.75542367 0.115978695 0.36934596 0.8272046 0.23882747 -0.233952 -1.0273993 0.97142214 -0.56775695 -0.36031044 1.0937904 -1.1234808 0.3742241 0.611271 -0.36096025 0.9650106 -0.579963 0.791395 -0.6037237 1.6108253 0.5406873 -0.91988206 -0.27677196 1.1294254 -0.05712422 -1.9913003 1.0525177 -0.4791623 -0.5023404 0.45512718 -1.9081638 -1.1443404 0.18619592 -0.9937051 -1.7664151 0.23702513 -0.558431 -0.06338541 -0.7269631 0.9085815 -0.36698157 0.42305028 0.15158035 0.023315798 0.92809266 -0.50114167 0.34154958 -0.06162641 -0.21093519 0.08694966
20 1.1435647 1.1078967 -1.0184282 0.9207229 -0.19613391 0.04540997 0.48903129 -0.61602587 -0.68323857 0.2905481 -0.06520279 -0.4216362 0.22695999 0.25381204 0.38340303 1.3418589 -1.1021829 0.5494313 0.8464769 0.03889139 1.3407954 0.850257 -0.5209809 -0.5853854 0.38719708 0.88157874 -0.017009102 0.89698225 -0.14424214 0.63289 0.07681942 0.30414736 0.040722184 -0.31532615 -0.616056 0.49516058 -0.52537405 -0.13833396 -0.85796446 -0.9405514 0.70874286 -0.061749153 -0.024630602 -0.22614051 -0.33763117 -1.6262295 -0.37274125 -0.9336431 0.53435546 0.3645033 -0.011418297 -0.17223309 -0.7874335 1.4837457 0.79541475 1.1269548 0.294412 0.28204805 -0.006302302 0.6415394 1.67948 0.14666004 0.53198457 0.2595008
458 -0.1292851 0.35290778 -1.0130228 0.06836489 0.27331287 -0.5608938 -0.075773105 0.91373616 -0.42527285 0.07486143 -0.2580676 -0.17646925 0.39347783 -0.16705492 0.61141485 0.64743966 0.905029 -0.1496163 0.48944032 1.3049401 0.5259874 0.643389 1.1321019 0.47780368 1.0498844 -0.26138094 -0.3421961 0.19268157 0.40110332 0.13282572 -0.6601491 0.4738763 -1.0514721 -0.20941108 0.2673343 0.38758513 -0.90172 0.6884738 -0.2891277 -1.3007025 0.9478642 0.3830391 0.4107854 0.20821172 0.076665625 -1.40249 0.23289266 0.83754426 -1.0363224 0.86632645 -0.2726743 0.6782004 0.32518962 1.1996552 -0.372891 0.94046336 0.50531495 -0.6702026 -1.0004066 1.2536781 0.4549103 -1.304058 0.78712815 -0.28288898
471 -0.094000824 0.46096703 0.23711117 1.3432655 -0.114648014 -0.51362723 -0.8886516 0.9932896 -0.103556626 -0.2003105 1.2621644 -0.5783496 0.3864904 0.33707455 -0.13170408 0.4671555 0.06521872 -0.14950153 -0.21716714 0.860654 -0.015151097 -0.08224352 -0.61703765 0.3261069 0.78217983 0.7551226 -0.34307554 -0.36602217 0.5935312 0.6723102 -0.85102594 1.6468047 -2.103836 0.5510602 0.35588065 0.30410525 0.40078953 -0.33234742 -1.3776826 0.22085819 1.4560795 0.40485394 -0.51432437 0.5714155 0.6066318 -0.78311014 -0.29108182 -0.11249949 -0.4197213 0.030667558 -0.48874864 -1.0354934 0.57951564 -0.4585821 0.21992636 1.4182088 0.19037387 1.3612795 -0.026330406 0.44022742 1.0307786 0.52313673 0.066145174 0.3708334
788 1.3430399 -0.42016608 0.32102925 -0.07169659 -0.50620633 0.83586437 0.8468224 0.5291041 -0.87255555 -0.07323357 -0.23098911 0.43646824 0.4600935 -0.3895862 0.034244467 0.9983041 -0.11554955 -0.0076554334 0.86046284 -1.0839144 -2.0538979 -0.75313485 -0.7358596 0.75207216 0.42345387 -1.3665162 0.37052682 0.5697022 0.3535592 0.33940467 0.50754595 -0.5954119 0.53723043 -0.34410343 1.193711 -0.010871072 -0.19548756 -0.6079895 -0.13765594 0.25254044 -1.2546545 0.67502654 -0.20009917 0.35424045 -0.014607274 -0.03494191 0.6616071 0.40165865 0.83650976 -0.77128667 -0.5132996 0.16709521 0.14923331 -0.16128057 0.37595674 -0.21198845 0.8465101 0.6163922 0.07561315 0.104247674 -1.3830788 -0.061622325 -1.1278113 1.3006853
22 0.8409139 1.0075736 -0.82741636 0.08329288 -0.26909128 0.16515222 -0.49417365 0.8025009 -0.07231652 0.12400738 -1.0174279 -0.5184307 -0.54159355 0.8664536 -0.50772494 -0.3809846 0.2638676 -0.15570396 0.64429146 1.2865258 0.39207286 0.6509371 0.31915244 0.33909515 -0.308465 0.65076977 -0.00053993915 0.5510387 0.6392657 0.40130273 -0.014314262 0.6190671 -1.4708269 -0.07783221 -0.026634824 0.96800065 0.058023065 -0.22099856 -1.0227743 -0.5538722 1.391385 0.67464787 0.3576921 -0.57786983 -1.1665063 -0.22065632 -0.23921569 0.24836111 -1.6665418 0.14154613 0.27394107 0.4097354 0.41528592 1.214779 0.6549914 0.6891431 -0.0952678 1.3928752 -0.8802945 0.083422475 0.19698136 0.22545451 0.08964521 0.17508875
891 0.5783848 -0.5341961 -0.79406273 -0.014099058 -0.9343767 0.33185396 0.1862704 -0.122373484 0.0030834756 -0.18343502 0.19953959 0.17498893 0.8601004 -0.675066 -0.5360725 -0.2384835 -0.0360567 0.6685823 -0.9890829 -0.77660036 -0.93485934 0.038501453 -0.38724676 0.6104492 0.6015762 0.8030985 0.8538177 0.46582285 0.7387023 -1.0385507 0.18811762 -0.32137856 1.1791403 0.36271062 -0.43925452 0.20079291 -0.651241 0.48094675 1.1778616 0.09715441 -0.5583426 1.6309254 0.64945656 0.7950687 1.0257387 0.7764084 0.21644485 0.46657676 0.13864148 -2.229285 -0.21513642 -0.47612202 0.84324074 -0.8510555 0.6582779 -0.19371511 0.111241244 0.24239588 0.20352481 -0.700931 0.19648175 0.80707484 0.7783401 -0.45542789
388 -0.8707634 -0.3888476 0.43634814 0.8075106 0.2925937 -0.25975218 -0.17642717 0.124035776 0.873598 1.2690319 0.3793681 -1.0595822 0.8624907 0.43852976 0.27642348 0.3453224 0.9364151 0.36779863 0.729284 0.25369263 0.22244151 0.9900365 -0.04502327 -0.34057802 0.44705606 0.86818653 0.093658574 0.42492276 0.82937783 0.6514812 -0.72027135 0.74888146 -2.3804817 0.18004818 0.5930186 0.17500837 -0.08787989 0.44083473 0.42773712 -0.1749477 0.61799055 -0.18370342 -0.22129552 0.56113255 -0.4503897 -1.1207144 -0.2924509 -0.026804196 -0.9584055 0.08215575 -0.026392162 -1.1112536 -1.2960232 0.08540182 -0.38000146 0.542068 0.6813692 -0.06871574 0.25296354 1.6329435 0.17960618 0.7802869 -0.36603895 0.754317
679 0.37425816 -0.46721798 -0.45440695 -0.9587235 -1.571266 0.58346456 1.2474738 1.1591438 -0.6505948 0.10376081 -0.5648253 0.7172052 0.19467004 0.8339239 0.06452629 -0.2375106 0.17890963 -0.48919418 -0.9575789 -0.83365536 -0.005810684 -1.5265892 -0.37224752 -0.17952846 0.2524092 -0.32955074 1.5342703 -0.3117867 -0.16578858 0.1773622 0.68696105 -0.457053 0.25371653 -0.23178577 -1.1932247e-05 -0.7038386 -0.5163822 0.6841167 1.2876854 -0.011723515 -0.5737197 0.58355355 0.3710263 -0.18225951 0.24704072 0.2439042 -0.00953577 0.9468112 0.79988563 0.70127046 0.11426055 0.22500503 0.055837337 -0.4588738 -0.44601092 -0.07215926 1.0065467 -0.31957006 1.2952766 -0.4795745 0.3670114 -0.38052604 -0.14497466 1.472704
591 -0.7999921 -0.5263074 -0.42370072 -1.6347787 -0.30482596 -0.45866415 0.13692525 0.6861095 -0.73117095 -1.2881744 0.115498684 -0.51635087 0.15735507 -1.0640427 0.1251969 0.06454646 0.48116615 -0.4423653 -0.6651494 -0.5987953 -0.4191911 -0.47554833 -1.0184894 1.1196706 0.47111604 -0.38244364 0.13751316 -0.43417543 -0.4000839 0.55064887 -0.17014067 0.4314252 0.7553328 -0.21411388 0.29262444 0.4741389 -0.22247228 1.0791721 0.348345 0.56767565 -1.1649382 1.1321535 1.485771 -0.67930275 1.403457 0.20347396 0.5470325 -0.45907423 1.2749221 -1.8982545 -0.5952773 1.0452436 0.53649426 -0.18481003 -0.66104484 -1.3169776 -0.09902787 -0.076043904 -0.21579613 -0.2788673 -0.8158601 -0.093376026 -0.033342324 0.762231
901 0.06300448 -1.2748766 0.02124333 -0.59630346 -0.40302292 0.11663606 0.40138876 0.46295795 -0.6496792 0.5994818 -1.297696 0.89988285 -0.34827006 -0.70092523 0.08327349 0.68993026 -0.6704558 -0.31998047 -0.17754632 0.12656318 -1.6584976 0.6842322 0.39541453 1.4370612 0.5158049 -0.46702042 0.6428582 0.6775501 -0.24612877 -0.27086493 -1.4673948 -0.21911299 1.0726032 -0.081002355 0.778451 -0.59864384 -0.7217474 1.6108034 0.4228756 0.81284726 -0.48900345 0.69630355 -0.75626636 1.413402 0.12420487 0.60442597 0.08396773 0.6723013 0.56706876 -0.5560576 0.012523863 0.62343323 0.08167153 -0.16937117 0.47112533 -0.13973427 0.3510879 0.6572277 0.23452069 -0.3100227 0.061469477 -0.11987843 -0.20669231 0.08714921
610 -0.31999207 -0.7371391 -0.48710614 0.45461237 -0.39469036 1.0275974 -0.010713014 0.91348857 0.23656718 -0.515917 -1.5049182 -0.40005094 0.7658011 -1.8801546 -0.46660694 -0.5265942 0.78204906 -0.1588561 0.30188924 -0.824148 0.411407 -0.4944557 0.49471012 -0.27445725 0.702713 0.21786284 0.9011493 -0.30897656 -0.02679748 0.4781589 -0.5560763 -0.7757318 1.8771437 -0.8719432 0.77661407 -0.6484009 -0.29977727 0.7471595 0.2371022 1.4027567 -0.75983214 0.62537855 -0.69720656 1.3567632 -0.43780145 0.3651873 0.7344398 0.79123056 0.46269792 1.0442852 0.36055675 -1.4271026 0.6921843 -0.6762492 -0.82840985 -1.0864105 0.09548182 0.6767179 0.19034131 -0.98429066 -0.37140223 -1.5094202 -0.065412804 1.175707
923 0.8859362 -2.1025538 0.038036678 -0.7318844 1.0534377 0.5002438 0.44542405 0.6262795 -0.4400184 0.030749055 -0.95780545 0.009993656 -0.6420974 -0.5537386 1.0754776 0.2387699 -0.58701 -0.5458157 -0.6175113 -1.4052966 -0.86184996 -0.21239717 0.743019 0.14638613 -0.37123188 0.32027343 0.6988065 -0.66647655 -1.0246848 -0.27525777 0.4728475 -0.5796165 0.47806337 -0.15120709 -0.27168044 -0.37067038 -0.09144643 0.5400534 -0.22768472 0.7342921 0.03792717 1.1885235 1.1230195 -0.7987275 0.81319237 0.19043048 0.10646668 0.47444403 0.09275974 0.39416477 -0.29441482 -0.5697493 0.80527455 -1.5204445 0.117907375 -1.0882185 -0.3772564 0.18357682 -0.6574668 -0.40302548 1.0570958 -0.4471132 1.051913 1.0417479
594 0.22072494 -0.8642574 0.15910862 -0.32373646 -1.553889 0.4575027 -0.2386832 -0.00476364 -0.14737841 -0.5219465 -0.83536816 -0.512549 1.0064548 -1.2115251 0.73436624 -0.10095125 0.9419623 0.54122186 -0.41715413 -1.1880412 0.27957094 1.2157273 -0.95351696 0.7912474 -0.9657799 -0.86734265 -0.03745935 -0.17395566 -0.19247523 0.13983044 0.69356114 0.40331253 0.599655 -0.38192725 -0.017956417 -1.2373132 0.74038404 0.6969159 -0.35585448 0.6842451 -1.2745863 -0.08372182 1.2339369 0.38917914 1.348628 0.8610153 0.20416069 -0.3488422 0.07853116 -0.8343148 -0.47027874 0.16190277 0.9487274 -1.2536066 0.7945883 -1.1302259 0.17788835 0.9349009 0.6480646 -0.057200454 -0.3856396 0.64974743 0.32605714 0.072634466
817 0.19463699 -0.7045491 0.87600476 -0.4499708 -1.1594054 -0.2851952 0.15413666 -0.61688024 -0.53618556 1.0087703 -0.7913121 0.6240554 0.9408936 0.038146168 0.67502683 0.30553228 -1.2137437 -0.19588545 -0.52240604 -0.012147162 -0.8386653 -0.14718376 0.6959684 -0.09291282 -0.5555174 -1.448232 1.2795155 -0.47304106 0.6926722 -1.1589239 -0.19467458 -0.22810216 -0.36647636 -0.8971796 0.95612127 -0.27674645 0.33065546 0.46777532 1.6716129 0.41919777 -0.72569114 0.58085686 0.11832404 0.9354774 0.99930674 0.9042554 -0.44962242 -0.14517811 -0.35974613 -0.6989856 -0.28927985 0.33523557 0.9612244 1.2111535 -0.802186 -0.75496614 0.3437019 0.19041798 0.8932971 0.20834482 -1.1612495 0.5827164 0.14770037 0.7022405
546 1.4738238 -1.1165167 0.8642661 0.35730818 -0.90826935 0.049023658 -0.3782243 -0.1411119 -0.044215195 -0.33679202 0.69691336 0.4484196 -0.22992142 0.16500732 1.3615181 -0.77406144 -0.59247124 0.67741185 0.27696726 -0.15827167 -0.8241788 0.5439523 0.04483977 -0.22972202 0.077884436 -0.39189768 -0.1266295 0.16296998 -0.45623487 0.4116093 -0.6097257 -0.42046106 1.9184085 -0.62010616 -0.6819905 -1.1939636 0.31606 1.1134709 1.0692345 0.5452065 -0.71999365 -0.13924582 0.2536599 0.07410683 0.63495296 0.16006005 1.1066495 0.92357737 0.3347282 -0.47016028 0.9606532 0.082981735 -0.44582695 -0.7279143 1.540298 -1.2767917 -0.56137353 0.045800872 0.3745127 -1.004636 -1.8353704 0.48136815 0.051929593 0.190377
595 1.0243956 -1.5529954 -1.534578 0.47320968 -0.9577391 -0.64677316 0.3785112 -0.46861574 -0.71087986 -0.66284436 -0.46766654 -0.6193177 -0.47091585 0.54892987 0.009620251 1.0207669 -0.82188195 -0.22884738 -0.5323329 -0.77194935 -0.67446274 -0.82897335 0.18542708 0.21239544 0.35946906 -0.41146806 0.77747554 0.30627635 0.5204651 0.8481414 -0.29821053 -1.1948656 1.228143 0.6649839 -1.4191324 -1.0921484 0.384156 0.21016075 -0.105071194 0.5717976 -0.2450546 0.09431386 0.24405551 0.5246537 0.5805911 -0.12782942 -0.17189275 0.7822872 1.4612714 -0.3045091 -1.1919842 -0.038508844 1.3674753 -1.1457025 0.2042577 -0.8443663 0.17925513 0.73167413 -0.8149091 -1.0889137 -0.7300479 -0.18874207 0.39619607 0.24374653
731 0.021623204 -0.9195492 0.033360664 0.05834662 0.45656928 0.23208661 1.3262751 -0.051194835 -0.6495406 -0.87266093 -1.0082148 0.14669806 0.24201213 -0.415028 0.9225424 -0.1322713 -0.09952322 0.58302957 -0.01588236 0.18801543 -0.7630089 -0.2971699 -0.20249848 0.27092183 -0.17721684 -0.83814853 1.1590738 0.22643016 0.12780759 0.40134245 0.16433302 -1.3507583 0.551687 -0.352249 1.1845932 0.2597767 0.10385835 -0.19914055 0.18817738 0.2991861 -0.3626168 0.9944665 0.20051795 0.52021456 -0.09284623 0.5316111 0.7114299 1.2935249 1.3286391 -1.0881453 0.28050652 0.764473 0.24379966 -0.5211439 0.29013023 -0.27066368 0.70486313 0.44528997 0.520873 -0.71778256 0.051500246 0.59967965 1.4053446 0.32707813
704 -0.24808933 -0.8103683 -0.5803691 -0.18408813 -0.38890588 -0.46102807 0.39457837 0.41413236 -0.14158516 -0.15351608 -0.62008125 -0.068908565 -0.9916677 0.035022635 0.10053557 0.5287344 -0.64188343 0.33006662 -0.12733425 -0.4727143 -0.43251252 -0.23608695 0.005235537 0.014044703 -1.3350285 -0.34611267 0.33112147 -0.5670585 0.6992544 -0.11720564 0.0146136535 -0.5750031 0.7192008 -1.1986341 0.062404636 0.26542673 0.48542884 -0.044790808 0.6733792 0.63066 -0.18326902 1.3258892 0.6283022 -0.83921754 0.56533045 1.4250965 0.98390734 -0.13311851 0.38609043 -0.8205721 -0.22511385 0.46257707 -0.10999642 -1.0271921 -0.26100346 -1.2221282 0.45456827 0.35402092 -0.22076474 -0.92442346 0.12362864 0.6283866 0.3632114 0.044173524
974 0.67724586 0.41014585 0.41225925 -0.42569315 0.75494885 -0.1674689 1.4847939 0.16746712 -0.5385897 1.0407882 -0.3102105 0.40516466 -1.2004392 0.32476044 -0.22400247 0.44457477 -0.41387996 0.8050043 -0.5823673 -0.6605078 -0.5525375 0.28218174 0.19738352 0.66044396 -0.63004565 -0.64476943 0.6022702 -1.3861073 0.7960074 0.3694195 -0.67827916 -0.6941422 1.0961069 -0.9911654 -0.8907012 -0.1473811 1.2719556 -0.55563074 0.10221949 1.3053418 -1.6577424 -0.011288547 0.26570562 -0.7846864 0.66153556 1.4895806 0.34347135 0.6946149 0.8195557 -1.1294622 -0.2999638 0.9218427 0.5141691 0.51448107 0.017811362 0.2741645 0.9886254 0.09032138 0.21557805 -0.588971 0.8125942 -0.110113345 0.29541165 0.7981526
717 0.7390284 1.0657276 -0.93892884 0.48767966 -0.12766941 0.7236676 0.20677103 -0.4698089 -0.13016672 -0.26892653 0.34466025 2.0017881 0.18519163 -0.15893456 0.9676285 -0.2414701 -0.3763351 1.7080747 -0.32237393 -0.49716783 -0.92373013 0.349485 0.9418344 0.41026583 0.5231752 0.4482635 1.0427257 -1.1800463 -0.6208919 -0.07356944 0.55601424 -1.0440392 0.876399 -0.13678959 0.45541087 -0.88789374 -0.40360337 0.24434315 0.7247169 0.7730658 -0.98433274 0.4985545 -0.47631112 0.9334582 0.34796712 0.82203645 0.19034724 -0.3699383 0.21754885 -0.54705703 -0.10789207 -0.20978954 0.117575884 -0.53787446 1.251078 -0.8614259 -0.29931906 1.0553939 -0.08980779 -0.5795724 -0.75322676 -0.73178834 0.802614 0.8080154
539 1.2252101 -1.0910429 -0.12749141 0.55644697 -1.3487993 0.636699 -0.29768905 0.42789397 -1.2672863 -0.7093375 -0.23660767 1.6910257 0.28642005 -1.108949 0.4128945 -0.20499466 -1.2354065 0.47085005 0.33354315 -0.4694326 -1.184635 0.10955302 -0.029522832 1.2674487 -0.35010725 0.06858835 1.3348899 0.329033 0.4797295 -0.7492027 0.358672 -0.8945276 1.1613638 -0.3563361 -0.5341256 0.50583297 -0.30386424 1.3221275 -0.22504264 -0.84563607 -1.6536815 -0.23911035 -0.030578285 -0.909653 0.86750734 1.1757641 -1.3149394 0.248855 0.23213822 -0.652216 -0.28220695 -0.8173668 0.09720408 -0.8742467 0.45308623 0.04055478 0.54786193 -0.06580865 0.48663053 0.33602455 -0.32901162 -0.2953429 1.3007377 -0.35832447
575 0.64088815 -0.019021498 0.13117091 0.6699724 -0.74636173 1.1147954 0.26427636 1.0078089 0.13334696 -0.5178477 1.0921302 0.23415598 -0.71868104 -0.13557005 -1.1512539 1.2381287 0.64400345 1.111027 -0.6689074 -0.56358135 -0.66728693 -0.8724656 0.43282095 -0.44407243 0.32967398 -0.50604004 -0.495092 -0.42384818 -1.0570385 0.4200086 -0.5428297 -0.9091354 0.14512284 -0.043366216 0.29314625 -0.23178522 0.098205 -0.5359632 1.0249205 0.7995248 -0.76511556 0.38898057 0.102627985 0.71542734 -0.35732982 1.9640474 1.0312482 0.53322595 0.5584143 -1.1244757 -0.15775032 0.67536694 0.14742628 -0.0132042635 -0.29485714 -0.8152023 -0.10549643 1.0388261 0.04644775 -0.14999016 -0.78211474 -0.6761305 1.1832261 0.5556069
258 -0.61105734 0.22478396 -0.6630699 0.6260762 -0.69308704 -0.068929374 0.44376037 0.28153744 0.6802931 0.04358186 0.38407972 -1.3987384 0.1364466 -0.28338423 0.030617492 0.4551207 -0.32151812 0.938018 1.7865881 0.21812673 0.37475348 0.7224994 0.37942135 0.70326924 0.05101417 0.07159015 -1.029978 0.060996775 0.05131847 0.6314311 -0.44244328 0.9047358 -1.1836991 0.20960829 -1.2095686 -0.26726016 0.5302285 -0.3882134 -1.0707723 -0.76324546 0.35153303 -0.4794197 -0.027057422 0.629191 0.024519507 -1.2567623 0.08448174 -0.9240301 -0.29935086 0.14429602 0.20427345 0.14117114 0.30127364 -0.19143555 -0.6313274 0.47349194 0.62239814 0.035604075 -1.1767999 0.4056169 0.3923772 0.7951081 0.38729906 0.1298756
70 -0.14493962 -0.3193295 0.7663613 0.9959771 0.11084863 0.987566 -0.34804428 -0.43522617 -0.20821267 0.59244984 -0.4444315 -0.045824584 -0.47165996 0.4617788 0.12702818 0.14164078 0.22539492 -0.083282664 1.4720777 0.5574431 -0.09069379 0.060018037 0.34311557 -0.81418866 0.9326754 -0.91769046 -0.2535406 0.27620104 0.9408227 0.9409656 -0.82638687 0.8448075 -1.445552 -1.0899334 0.77440065 1.058099 -0.8644522 -1.429545 -0.84877825 -0.8548882 0.07110156 0.11795581 0.06611382 -1.1811565 0.29758653 -0.50854933 0.76570004 -0.12857823 -1.676617 1.6226516 1.0828519 -0.46057302 1.0764784 0.97817653 -0.19562352 0.89944065 -0.22863808 -0.058778804 1.0801357 0.19649267 0.4874726 0.794498 0.6231928 -0.67299956
862 0.81163144 -1.7906656 0.08768352 0.18980578 -0.1352636 -0.21241315 -0.8641777 0.10899596 0.40010542 0.079563156 0.04289562 0.2558035 -0.65566826 -0.5752754 1.320998 0.75712496 0.2135828 -0.35306868 -0.2131923 -0.5610715 -0.2125436 0.39985242 0.519765 0.6008294 0.6097693 -0.09814329 0.13254486 -0.61972505 1.0008675 -0.252703 0.042187188 -0.28589416 1.472203 -1.0631924 -0.24646853 -0.056481466 -0.808994 0.6616003 0.1666832 0.13287216 -2.248918 1.3608854 0.17047152 -0.16802719 0.40029797 1.1229731 0.6620833 1.344194 0.71340495 -1.1739533 -0.13153732 0.4259333 0.7849731 -0.4971389 0.01750925 0.5790947 0.43604434 0.3966793 0.55002815 -0.26020643 -0.74590325 0.2843441 -0.065091126 -0.6977507
789 1.654058 -0.8458016 -0.10728558 -0.158043 0.15950717 0.06388289 0.6386263 -0.36212552 -0.0794761 -1.1482399 -0.20942861 0.27285022 0.20128606 0.7472499 -0.39178455 -0.1486152 0.33987406 1.1179503 -0.4266231 -1.4904654 -0.04577381 0.944644 0.086084865 -0.39608946 0.51870495 -0.5402319 0.5619666 -1.0539541 -0.3005175 -0.6607716 0.011958526 -1.5512959 -0.3197768 -0.15518712 0.56827486 -0.040916413 0.8023739 1.163624 0.73417306 0.718065 -0.055666678 0.99347025 0.931818 -0.07185284 -0.70813066 0.69322354 0.47997376 -0.49862725 0.24389265 0.18650524 -0.5924403 0.5500749 0.29607445 0.004577272 0.19031483 -1.2689625 0.7502042 -0.2111999 -0.22335796 0.24626242 -1.2781521 0.5011827 0.039015245 1.572915
171 -0.44994932 0.6484313 0.014804997 0.91103023 0.6744419 -0.45242584 -0.4008747 0.16158238 0.70758164 -0.49521935 -1.5655137 -0.5550194 0.35087466 -0.36573964 -0.16741817 -0.36483228 0.4429571 0.36364713 1.2402327 1.3973627 0.49729893 0.15555008 -0.23932302 0.6059142 0.66233075 0.82707864 0.16839692 0.044176053 0.0015776844 0.428007 -1.2380434 -0.055222563 -0.674876 0.07129423 -0.92252165 0.5450018 -0.5658566 -0.15463834 -0.31427336 -0.54989964 1.0186917 -1.8994849 -1.247337 -0.29634404 0.5686223 -0.22895482 1.02653 -0.5490854 -0.7698133 -0.9100634 0.53485787 1.6347579 1.0224278 0.65048313 -0.56755835 1.0520265 0.30634868 0.42068827 -0.043782268 -0.6985575 0.86670274 -0.50272673 0.11882882 -0.5393062
54 -0.18274775 0.5784375 -0.06940655 0.28458938 -0.50905097 -0.23933575 0.9293192 -0.043906327 -0.3340026 1.0364563 0.48715422 -0.62756497 -0.056632716 -0.9345189 -1.0028434 0.7362532 -0.6926535 0.5661037 -0.11822832 1.3076123 0.75401723 0.44588298 -0.2250006 0.16015097 -0.058996487 0.7924492 -0.101774596 0.49434876 -0.5501556 0.9124224 -0.76717675 0.4211982 -0.06059828 -0.0232919 -0.28804442 0.20087919 -0.522043 -0.5146805 -0.5835267 -0.39041355 1.228376 -0.694586 -0.447973 -0.040106695 -0.11299685 -0.45409805 -0.42044848 -0.11692171 -1.9696901 -0.41077742 0.15797004 -0.102209814 -0.31937364 -0.5017146 -0.6599437 1.5561258 -0.22674814 -0.15156026 0.107833035 -0.2091071 0.5466617 -1.2675596 0.474559 -0.97975534
51 1.2756093 -0.03801446 -0.6903173 1.4791356 0.09444941 -0.4672049 -1.0900942 -1.0425574 1.1483859 0.7368676 0.587315 -0.6204307 0.1805773 0.13871574 -0.23116733 -0.1295244 -0.059429437 -0.49357644 0.53354543 0.663553 0.010682503 -0.32300514 -0.24117395 0.4732422 0.89257187 1.4359119 -0.9732101 -0.53322977 -0.22864886 0.9581094 0.15111639 0.598716 -0.82280475 0.21134214 -0.61587596 -0.39573687 -0.08734417 0.19372734 -0.38868788 -1.2685881 0.900619 -0.29110533 -0.5558455 -0.8583395 0.6144005 0.13311866 -0.13061772 -0.5155249 -0.52764297 -0.060754392 0.07597181 -0.016385367 -0.66228783 -0.652552 -0.5597846 0.54806274 1.473057 -0.08265567 -0.715437 0.82483774 0.4712259 0.10458577 0.67076963 -0.61043596
983 0.12985434 -1.3411248 -0.44315508 -0.19980733 -0.53353786 -0.49932986 0.18783964 -0.108407095 -0.95158535 0.70850754 -0.96786535 -0.46431598 -0.33565512 0.1687065 0.7003733 -0.35386565 -0.5104449 0.14015977 1.2008023 -0.74812484 -0.8008798 -0.1501078 0.4912648 1.0162436 -0.05973792 -1.3160901 0.054133207 -1.3184681 0.23549415 -0.2359856 0.60428655 0.19694194 1.2007786 -0.2705855 0.05644053 0.70547473 -0.99029875 0.5999052 -0.5530234 0.7669805 -1.2687105 1.4575061 -0.2527102 1.4559776 1.3702413 1.0877981 0.24322861 0.82982194 0.7833284 0.1918465 -1.3880653 0.53427696 0.42765898 -0.23747103 0.5777475 -0.7990749 0.38841727 -1.1078751 1.2340294 -0.14829886 0.14904954 0.3942109 1.0029656 -0.30683285
262 0.12383549 -0.47603276 0.6254642 0.8037169 0.2832843 0.20154007 0.38618013 0.05382556 0.19736335 0.016140068 0.35382786 -0.75190735 -0.59909177 -0.11281868 -0.59494394 -1.3686656 0.56274456 -0.6075128 1.2577718 0.14068757 1.3603215 0.079359114 -0.34458983 -0.3468634 0.51453733 1.3582114 -0.19476268 0.036392633 0.3684692 -0.11042918 -0.96968764 0.80394167 -0.73836493 -0.033680227 -0.3468696 1.001087 -0.2433592 -0.5454527 0.12161092 -1.1973389 -0.37224224 -1.08706 0.69087154 -0.44369128 0.25743854 -1.0314316 -0.18211217 -0.27029252 -0.6608135 0.2857199 -0.17987657 -0.0016709925 0.09592189 0.5853877 -0.6262038 0.67969614 0.60533124 1.4388845 -1.1352028 1.036964 0.7973174 1.1254829 1.2339616 0.75083727
324 -1.0347583 0.34640333 -0.5751967 -0.90243214 0.32901144 -0.78678226 0.099034026 -0.7694539 -0.2997291 0.66838586 0.748571 -0.35966578 -0.039095253 -0.0046358793 1.3121734 0.478326 1.3430872 -0.76725435 1.4267383 1.5781068 -0.25416458 1.2467856 -0.25857887 0.10694238 1.2434286 1.0476459 0.48624602 -0.6609561 0.39578778 0.81603 0.13412361 1.3610208 -0.8252796 1.0498972 -0.6206677 -0.10993168 0.11884666 -1.0043687 0.5008922 0.6192125 1.3480684 0.22415619 -0.72960055 -0.4949776 -0.86267745 -0.8205777 -0.53991085 -1.0730935 0.4437374 -0.16882873 -0.063528836 0.13055944 -0.6663679 0.94052035 0.7546735 0.6927822 -0.18913178 0.795056 0.46139747 1.362716 -0.19432671 -0.08684191 -0.4447931 -0.6272729
47 -0.43073317 1.0110577 0.2714272 0.43750915 -0.13704494 -1.0142026 1.2301389 0.1055393 0.47685984 -0.43221653 0.36588338 -1.59783 0.94894 0.3571782 0.27569768 -0.24007408 0.0122613 -0.18728457 -0.18637264 1.6919593 1.5123618 0.47939909 -0.032899898 -0.16489215 0.97031176 0.5987932 -0.7843113 0.006370745 -0.6093839 0.120710954 -0.08739841 0.23094621 -1.1955311 0.9703968 -0.13838597 0.9169366 -0.8210206 0.12749685 -0.019070711 -0.08030787 1.1679218 -0.17172812 0.35186088 0.42903516 -0.34213868 0.49671924 -0.5769746 -0.096022755 -1.2962661 0.31101528 0.25656548 0.3430173 -1.57824 0.59314984 -0.5128371 -0.92641973 0.38523322 0.18838376 -0.1869195 1.0679301 0.83295643 -0.70013756 1.1332011 -0.36401337
44 0.7078348 0.57739866 0.79146105 -0.21493588 0.06415009 0.27286604 0.1628444 -0.48272985 -0.06632588 0.83508927 -0.006397304 -1.9626111 1.708582 1.1481303 -0.1324553 -0.04193512 0.1358558 0.5302594 -0.1573205 1.2195958 0.79632294 -0.13365598 -0.9848058 -0.33617586 0.9812109 -0.27403936 -0.1146722 0.95652777 0.08261217 0.061982602 -0.07428883 0.15639287 -0.1784494 -0.0025341453 -0.029614482 0.3028528 -0.8353515 -0.8947353 -0.5944062 -0.24850988 0.6307909 -0.45159447 0.565293 -1.4751248 -0.5177165 0.17729856 0.2789019 -0.77157307 -0.93525916 1.1919198 1.1717967 -0.47185752 -0.5301641 1.136305 -0.017954394 0.6007552 1.1536897 -0.94065595 -0.42832667 1.1226448 0.6822412 -0.04951928 1.2138947 -0.036509477
773 0.17213978 -1.6933303 0.08413189 -0.5629658 0.48127067 -0.012594651 -0.092095524 0.7021159 0.6488829 -0.22441095 -0.3331615 0.06810639 -1.3459141 0.21414584 0.048325576 -1.1283584 0.7032852 -0.41438296 -0.8160181 0.059684534 -0.53176063 0.03258395 -0.6173311 -0.18630923 -0.6739543 -0.33029127 1.5913094 0.24489768 0.37049326 -0.9283455 -0.6820036 0.25218698 0.4764061 -0.13467254 0.16783524 -0.5320687 -0.3412091 1.0329747 0.7943173 0.33039832 -1.2663914 0.6353728 -0.7742392 0.72394896 1.3712416 1.7530848 0.99176234 0.31601295 0.051536854 -0.28735155 -0.8291369 -1.3979449 0.59626776 0.5411488 -0.78502095 -0.5722873 0.5802163 0.20274231 0.021253329 -0.4615646 0.13131985 -0.755485 -0.06901807 1.4495031
270 -0.62649053 1.1140754 -0.06835682 1.4024137 -0.20198275 -0.69926715 0.10350309 0.37967795 0.0741947 2.1964097 0.42882535 -1.8998317 -0.8847701 -0.833067 -0.2534378 -0.83972114 -0.9828212 -0.11366907 0.70675117 -0.06921422 -0.74902505 0.4123912 0.55208164 -1.3953555 0.2891119 0.1676033 0.30714765 0.2985636 0.1882219 -0.39684886 -0.51063544 0.16329326 -0.64113337 -0.6086913 0.087353736 -0.2949921 -0.42202875 -0.5551795 -0.33411005 -0.2569329 1.0724516 -1.4282346 0.78392076 -0.23154671 0.6815671 -0.45887884 0.12090869 0.23742655 -1.9298826 0.6341581 0.030018771 0.2659206 -0.5936016 -0.46183714 -0.89672303 1.624352 0.041311834 -0.16106248 -0.16378462 -0.9954042 0.54581654 -0.39186427 -0.79186124 -0.3113547
542 0.8720287 -1.1041979 1.2050254 -0.22000377 -0.3172656 0.5963798 0.33497912 0.9205659 -1.2560326 -0.49757856 0.45054814 0.073753215 0.34707338 0.39779142 0.038959105 -0.08933273 0.55473024 0.31695887 -0.3194671 -1.050605 -0.80367833 -0.7404341 0.55512494 0.16289787 0.41196916 0.017167574 0.59519863 -0.2784607 -0.6264594 -0.16441144 -0.75923055 -0.5688658 0.77681494 0.03257779 0.092361845 -1.5370282 0.6528522 -0.35041633 0.47894967 0.3168037 -0.5845801 1.3689686 -0.4422109 -0.94602066 -0.26807696 2.1261404 0.23096485 0.3935231 0.7452678 0.02856338 -0.6606968 -0.29020903 0.5440697 0.23070891 0.58256793 0.99034756 -0.17937571 -1.0640813 -0.25703984 -0.28307667 0.19436136 0.033527337 0.077119954 0.5406322
181 -0.865464 0.9577256 0.6765981 0.6183353 0.52276266 0.052252177 0.610251 0.72904485 -0.13724889 0.62592465 -0.13391717 -1.9036087 -1.3231162 -0.38882986 0.4164255 0.29377326 0.9508955 0.36782885 0.17494331 0.47629547 0.23395532 0.6124754 0.016757969 -0.17220834 1.2698016 1.5944412 -0.38103393 0.24998517 0.89162004 -0.26748335 -0.5499647 -0.5093379 -0.28330648 -0.29782754 0.79484224 -0.043941453 -0.73755836 -0.24872768 -0.987398 0.59727806 0.13191642 -0.66326225 -0.35674992 -1.140315 0.76005334 -1.4275894 -0.50266016 -0.38113105 -0.67839926 0.7381135 0.32924157 0.43955624 -0.34487814 1.0082464 -0.3260876 1.7642305 -0.22989488 0.32111916 -0.74344516 0.96589696 -0.00545121 0.45010862 0.87582403 0.28747785
401 0.7920223 0.34567443 -0.56466347 1.2813673 -0.5449089 0.8266346 -0.585684 0.49859837 1.0552412 -0.14722419 -0.04364819 -2.4678462 -0.6027446 -0.57412946 0.7333756 -0.41543606 0.31968153 0.2211073 1.6356126 0.5614485 0.5291132 -0.41285104 -0.23922698 -0.4877849 -1.0542994 -0.14632122 0.1452007 -0.0344463 0.34719253 0.48777232 -0.41208923 0.6225237 -0.46769083 0.05753064 -0.12654865 0.3891206 1.2472209 -0.72748864 -0.056754317 -0.4179272 0.54025847 -1.1127526 0.6832855 -0.5116894 -0.3819244 -1.1468412 0.44560683 -0.59521884 -1.0431826 0.5497982 0.7442048 0.48946425 -0.28485805 0.67825913 -0.029265821 0.5765324 0.1501634 -0.07376165 -0.1927394 -0.12570748 0.12534745 0.24056077 0.19302668 -0.5695771
881 -0.22889893 0.33454725 0.47424722 -0.5046223 -0.6505702 -1.2559458 0.50305885 1.1803813 0.36998063 -0.19681308 -0.21044877 1.2924331 0.8102914 0.46992275 -0.24851596 -0.045542393 -0.19039 0.13780262 -0.015694087 -0.456078 -0.93895805 0.3374573 -0.9475619 0.09971352 0.5063947 -0.44865096 0.067359984 0.30290538 -0.16026512 -0.7237677 -0.57195556 -0.999339 0.5464668 0.20807323 0.25999534 -0.4001318 0.19220832 1.3495966 0.86850053 1.9602649 -0.8744239 -0.5778392 0.35033762 0.27144268 1.2736957 2.1833029 0.81007236 -0.069691494 -0.42157277 1.0496207 -0.81919926 0.07481437 -1.3656071 -0.5669639 -0.09324213 -1.118944 -0.22126672 1.2810048 0.85175437 -0.17459948 -1.0691068 -0.13712217 1.3805001 0.6719171
675 0.6715959 -1.0238181 0.53896445 0.65405154 0.22663102 -0.2987333 0.37005922 -0.39264268 0.09249783 -0.7129101 -0.9667442 -0.41096902 0.07949882 -1.0471414 0.74191135 0.42474434 1.0865698 0.13515635 0.70485145 -1.1566006 -0.5538013 -1.17905 -0.44020495 0.075806476 0.7737802 -0.3531247 -0.8499928 -0.089207955 -0.070494056 -0.27595562 -0.00867938 -0.9137293 0.76431984 -0.29730654 0.17727306 -0.579045 -0.08992793 0.5398372 1.7980484 1.4663041 -1.3930167 0.24138297 1.0098491 -0.29330218 -0.343174 0.94122833 -0.34629345 -0.44567266 0.90865093 -1.5268424 -0.44138172 0.68270487 0.9210506 -0.11509614 -0.3386415 -0.35558006 0.5107488 0.009215376 1.1968285 0.3075151 -0.2902674 -0.43986636 0.377723 0.027118266
405 -0.9059344 1.1117772 -0.36219943 0.027015757 0.056746252 -0.5070084 0.14405955 -0.1131954 0.6529562 0.76015645 0.24469402 -0.54646176 0.36545694 0.14999501 0.37526372 -0.23444243 0.23657957 0.4723595 -0.13503492 0.83215207 -0.093114674 -0.042976532 -0.8056742 -0.17051663 0.8725042 1.0071133 -0.63584715 0.14498791 -0.846279 1.2211784 -0.42953658 0.4236699 -0.98049825 0.38042518 -0.37027496 1.2443013 0.842383 -0.61115104 0.5563897 -1.2361939 0.32958797 -0.47458908 0.13798322 -0.7522293 0.025347915 -0.79055065 0.12823011 -0.37679225 -1.4574163 -1.1709251 0.24692439 -0.39175606 -0.6227702 0.8576148 -0.07571542 0.05374059 0.009726318 -0.3045004 -0.67588097 -0.47920403 0.3463574 0.62195545 0.10365187 0.30698258
933 1.1250476 -1.0013906 -0.43729007 -0.95806557 0.28631324 0.77523226 0.84325635 -0.035118684 0.40452287 -0.6343855 -0.84129363 -0.85510546 0.14954463 -0.34405422 0.27072155 0.30885878 0.0021651224 -0.30774647 0.45559487 -0.45558062 0.6641367 -0.4648677 -0.12444639 -0.21158917 0.23823409 -0.5523672 1.196234 -0.887189 -0.24495003 -0.53219414 1.1396806 -0.29857925 0.58507293 -0.855294 0.69498706 -1.4600872 0.4635189 0.18852699 0.59968585 0.5248264 -0.8390657 0.8077226 0.8925288 0.31758285 0.85102373 0.6910208 0.7349399 -0.16812348 1.0719801 -0.71691406 1.0946507 0.7047544 -0.5316764 -0.5183026 0.14033 -0.3901009 0.32093513 0.40591922 0.21113124 -0.57320815 -0.31294256 0.9577939 0.19417278 0.8739826
144 0.57242656 -0.12697057 1.1812127 0.11939481 -0.15159272 -0.5660486 0.29685497 -0.8851847 1.1710479 0.58043355 0.55675286 -0.85604084 -0.6550341 0.017133178 0.16030076 0.15808603 -0.35834605 0.009440759 1.4665817 0.6546598 -0.19514877 0.35982051 -0.28715867 -1.0696251 -0.21979769 0.7013846 -0.15987837 0.54144657 0.27290174 0.054299004 -0.472539 -0.15291129 -1.207133 -0.32660407 -0.353219 0.5732719 -0.13659829 -0.5002578 0.90199184 -0.6537745 1.002643 -0.596182 0.45722193 -0.6460229 -1.4027551 -1.5463033 -0.9318836 -1.2628486 -0.53437907 0.13203941 -0.7400038 -0.26270297 0.7410627 0.6862432 -0.18733439 0.8892126 0.22738548 0.09690259 0.48883843 -0.5515913 -0.1411823 0.104408406 0.55467063 -0.0028760927
31 -0.6728475 0.28029424 -1.5870758 0.1025852 -0.27447 0.2276504 -0.31403214 0.23152119 0.11022019 -0.18058689 0.24175483 -0.7641723 0.2803481 0.008603156 -0.02183395 0.010190027 0.032126628 -0.015396237 1.0247729 0.048826013 1.2262589 0.63032734 0.18754753 -0.66844016 0.8040146 1.4057602 -0.45860898 0.06263692 -0.9835978 -0.2535751 0.43293828 0.55640864 -0.04558546 -0.8423881 0.6151934 -0.83037364 -0.6547057 0.15870601 -0.3184598 -0.35629147 0.7218218 -0.45633066 1.0998038 -0.5822408 -1.2802224 -1.4315975 -0.8960127 -0.5392501 -1.0245254 1.3311259 -0.64720047 -0.44618672 0.8625174 0.8096815 -0.9127215 0.4655882 0.9236137 1.0696776 0.3718636 0.19765562 0.42173553 0.09714164 -0.12349934 0.20269822
232 0.3008546 0.34695497 0.5169837 1.7977161 -0.3646735 -0.82649016 -1.3750594 0.05874272 0.6735642 -0.10173035 -0.5510935 -0.6988999 -0.8513241 -0.25852397 -0.4922287 0.4104801 -0.7474692 -0.50234365 0.5052063 0.47137764 0.40907288 1.1137717 -0.1784314 0.023509907 1.4378738 1.2029896 0.06458797 1.1441803 0.030135697 0.80282825 -0.8720907 0.34603637 -1.3571974 0.6068812 0.03923422 0.7809479 -0.76446486 -0.11924828 -0.75141484 -0.41812932 0.8364004 -0.12297366 -0.071227394 -0.5777628 0.0984671 0.6159077 -1.2146573 -1.258549 -0.5012507 1.0708023 -0.6324777 0.75830436 0.5507971 -0.5461295 0.36717898 0.7287395 -0.14988172 -1.1981274 -0.30948833 0.2443735 0.6875245 0.78084266 0.31986246 0.10987867
777 -0.35196787 -0.61848027 0.804293 0.1837466 -1.3999177 -0.9151044 0.22174779 1.1122916 -0.95644134 -1.0662111 -0.6986158 -0.53565484 -0.50264484 -1.1994994 -0.63289917 -0.13432187 0.94110537 0.95582974 -0.1526012 -0.7653283 -1.0818663 -0.5533025 -0.13637173 0.124479495 0.18311483 -0.5671977 -0.32236898 -0.67392886 0.3427215 -0.14603002 -0.42813307 -0.6586293 -0.34885082 -0.26892814 -0.21718891 -0.037788186 0.115374774 0.81596303 0.2788029 0.95687634 -0.88386303 -0.27991438 0.36388525 -0.45632735 0.77256507 1.1399145 0.19092996 1.3182172 0.6238175 0.75937015 -0.52228713 -0.77538264 -0.2551059 -0.6963989 -0.295144 -0.70690465 0.10882051 0.5236439 0.86781925 -0.55798024 -0.56737405 -0.063624606 0.26457125 0.66792434
755 0.30593824 -2.159588 0.12994997 0.38626352 0.91635734 0.18814693 0.98488986 0.6441941 0.033012796 -1.2911403 -0.86608523 -0.3392985 -0.905566 -0.6012166 1.188074 -0.14495409 -0.21668138 0.23631087 0.5256505 -1.4271928 -0.1352743 -0.44303894 0.17726004 0.003646654 0.21321113 0.25343886 2.191079 -0.77347237 0.6141001 -1.0687245 0.4899157 0.57056427 -0.51591086 -0.34802413 -0.32546437 0.09307584 0.8742059 -0.2711898 0.80510896 0.6741925 -0.5475427 -0.81553715 0.9523243 1.125679 0.4704152 1.1429884 -0.7651847 -0.028803406 1.363243 -0.074514605 -0.1608312 -0.34375474 -0.39651227 -0.5096967 -0.2730596 -1.6387177 0.4403338 0.1378374 -0.635307 -1.0614278 -0.16798913 -1.2010792 0.17661425 0.76120853
937 -0.20296028 -0.5041018 -0.46748075 0.077006236 -1.4657291 0.66520697 -0.17880814 -0.20396766 -1.2896942 -0.79130197 0.8138773 0.7423254 -0.88537586 0.30271226 0.4997383 -0.28243572 0.028163817 0.43232355 -1.367051 -0.20910594 -0.26311013 -0.9870126 -0.0408848 0.7250349 0.39489877 0.71686965 0.72898 0.95345485 0.20799391 -0.46612924 0.78720105 -0.28332236 0.4790307 -0.642615 -0.6612356 1.0752244 0.50662535 -0.12968259 0.6560637 0.85458916 -0.62693244 1.3555312 0.79743606 -0.5229802 0.50951403 1.5911237 0.9018591 -0.3813756 -0.00040512808 -1.4965218 -0.9291292 -0.1607499 0.606708 -0.1956262 0.80177534 -0.16380493 0.34789214 0.78946245 -0.526745 -0.41589484 -1.1982604 0.18939811 -0.07021426 -0.3497103
