1001 64
29 0.14296056 -0.14750339 -0.011313477 -0.06280081 -0.3161539 0.14687182 -0.14927268 -0.16006203 -0.29302338 0.14541882 0.36604673 0.06500024 -0.34943435 0.14224817 -0.011067727 0.21919626 0.0007706104 -0.24099097 0.5491325 0.33533394 0.06462937 -0.5192609 0.18167107 -0.069928244 -0.41033748 -0.012698109 0.014115054 0.12565248 0.355259 -0.06344712 -0.07539556 0.36825007 -0.03563515 -0.3220618 0.12769257 -0.3408702 0.20887461 -0.038692124 0.07673409 0.3792981 0.12477161 -0.3406511 -0.2636827 -0.16918993 -0.64638495 -0.28351983 0.12231709 0.13247846 -0.30035496 0.26409093 0.02355364 -0.1786727 -0.1601227 0.09453481 -0.17688034 0.10626623 0.23168157 0.38761917 0.04378756 -0.10912043 0.40702635 0.077428974 -0.2613433 -0.25961378
459 0.18392515 -0.07635023 -0.118700296 -0.10257118 -0.2582528 0.18643047 -0.24089254 -0.18458624 -0.15371783 0.060684808 0.4086675 -0.046475794 -0.28609967 0.10237579 -0.006837971 0.23149236 0.10111144 -0.24237299 0.50696236 0.37655166 0.07912103 -0.37770107 0.21528591 -0.09075602 -0.38183713 -0.093967885 -0.15679796 0.017297275 0.22801909 -0.012306301 -0.107849985 0.42043325 0.0057830596 -0.3521471 0.04740758 -0.23212172 0.24449772 -0.17162484 0.0143456375 0.36726704 0.12806357 -0.3445713 -0.22344184 -0.25011903 -0.6553358 -0.28128624 0.16799347 0.11148986 -0.3236358 0.2264092 -0.016161336 -0.21389857 -0.10904749 0.087664835 -0.11931956 0.045713007 0.20896693 0.38095376 -0.036330722 -0.031349234 0.5470004 0.13737929 -0.3072289 -0.3049159
626 -0.3031851 0.06135803 -0.03992765 -0.36085606 0.15689783 0.3007395 -0.73451775 -0.5418235 0.27828163 -0.025128905 -0.34306195 0.040695526 -0.12566377 -0.16523074 0.30915743 -0.17996119 0.024364145 0.18960945 0.3757959 -0.05969297 0.70176876 -0.19868132 0.09617129 -0.23191659 0.19220799 0.11672177 0.43952942 0.24697033 0.11067149 -0.13683197 0.12353926 0.2306058 -0.24696796 0.009907275 -0.30381918 0.2556742 -0.229736 -0.1300478 -0.10721053 0.091993816 -0.15918264 -0.11582909 -0.030307269 0.042334028 0.07831139 -0.23655841 -0.2394475 0.060878664 -0.001457956 0.21937235 -0.047438923 -0.04793178 0.30876657 0.41740316 0.10061778 0.29674098 0.018676179 -0.3097823 -0.04954643 0.059546337 -0.060781084 0.27892834 0.08951498 -0.059032537
976 -0.296902 0.04621951 -0.13315958 -0.35643384 0.2311862 0.23160942 -0.70093256 -0.55403227 0.31571463 -0.012795703 -0.3806329 -0.04713365 -0.19186634 -0.14411443 0.17673877 -0.2968471 0.03665274 0.19703382 0.35077086 0.008008586 0.660303 -0.2326251 0.209947 -0.24607521 0.15890443 0.115872644 0.4545637 0.25074255 0.0024029007 -0.16572775 0.12377985 0.06976922 -0.32442614 -0.06810942 -0.30867982 0.25695246 -0.18516701 -0.09602168 -0.06454641 0.21537806 -0.16790193 -0.18278575 -0.046755318 0.019611422 0.14119627 -0.20614424 -0.3281004 0.05347349 0.008418177 0.3297598 -0.03036965 0.006318079 0.20014772 0.41757512 0.11102957 0.28585476 -0.04620396 -0.22560644 -0.16061266 -0.028359188 0.058372643 0.29599193 0.07857664 0.07276954
276 0.2713561 -0.040190507 -0.078626305 -0.018564694 -0.3157808 0.2117796 -0.19647543 -0.2071219 -0.24128018 0.1270542 0.34027445 -0.014156745 -0.37799737 0.09273455 -0.092760906 0.25579566 0.0021496702 -0.19113925 0.4991727 0.22171241 0.11096314 -0.46713138 0.21751194 -0.17560235 -0.50749654 -0.1717222 -0.09687967 0.074188806 0.302792 -0.17209828 -0.15775819 0.30472922 0.009220076 -0.26443088 0.14627688 -0.24477555 0.20810828 -0.12639828 0.07663811 0.30542597 0.13419986 -0.32582346 -0.19293061 -0.1583589 -0.6073056 -0.30664927 0.12880495 0.14387289 -0.2740656 0.24563624 0.06022362 -0.19809654 -0.14948061 0.00883921 -0.1522421 0.0037087398 0.24036314 0.34813568 -0.057536554 -0.07782958 0.58557165 0.13120127 -0.28882945 -0.26253897
402 0.26040548 -0.038769618 -0.08186458 -0.07949627 -0.2935863 0.26339886 -0.20148394 -0.21793415 -0.29924834 0.020776736 0.42120332 -0.05687422 -0.40987688 0.15090266 -0.059073497 0.26298386 0.02821547 -0.18453002 0.44836465 0.30848283 0.13918853 -0.41562033 0.13419941 -0.12550464 -0.41654304 -0.15696111 -0.14729863 0.05410088 0.23728697 -0.045586538 -0.19306721 0.26061794 -0.043275468 -0.20151547 0.16022247 -0.27688488 0.19151728 -0.13940006 0.09113553 0.2673399 0.1728454 -0.35560894 -0.14621167 -0.25730386 -0.6288761 -0.35412678 0.12948436 0.12763931 -0.34204346 0.20877536 -0.01804931 -0.26168376 -0.13202307 0.029630411 -0.07012759 0.14684649 0.21045253 0.37316644 -0.03123387 -0.094770975 0.5322114 0.13764457 -0.24091235 -0.32998097
318 0.27440086 -0.12644662 0.048833594 -0.01628284 -0.37150118 0.2354046 -0.20023558 -0.22786327 -0.09205293 0.07782634 0.41089433 -0.021947652 -0.45084372 0.124154426 0.02191315 0.19512817 0.11766539 -0.21108526 0.55347455 0.28068265 0.08092261 -0.3760642 0.20377865 -0.15864474 -0.49798435 -0.09112007 -0.14804801 -0.03643812 0.28384772 0.038705293 -0.17421566 0.34225842 -0.06333902 -0.2440051 0.120561615 -0.25432214 0.17617269 -0.1491325 0.017835192 0.32759058 0.16071662 -0.31604823 -0.14930378 -0.11737782 -0.59458953 -0.3136391 0.12127134 0.091141075 -0.44448772 0.23085408 0.011969989 -0.10738351 -0.14655018 0.06948878 -0.029067304 0.05887771 0.24888378 0.36799416 -0.07890486 -0.071798384 0.5516391 0.10121068 -0.27543944 -0.33234987
543 -0.42223796 -0.011195406 -0.06445343 -0.2355423 0.26571366 0.27315608 -0.6915784 -0.4598965 0.15499865 0.052397784 -0.30371752 0.072656095 -0.1997628 -0.15526257 0.34257108 -0.3219639 0.047703356 0.10735722 0.3496301 -0.19296518 0.67855215 -0.11361521 0.1480367 -0.23935968 0.17260107 0.09201712 0.4853813 0.22551106 0.09065131 -0.15511839 0.09598203 0.23194198 -0.29718557 -0.007485763 -0.2646524 0.25523037 -0.27446952 -0.071309574 -0.06062173 0.20515727 -0.12404929 -0.1450423 0.07688275 -0.0129668405 0.106047735 -0.28913975 -0.28446954 0.10810013 0.099252485 0.28908736 -0.06883383 -0.121593215 0.3044497 0.48279428 0.10615758 0.22065294 0.010163927 -0.3025394 -0.07172067 -0.031651404 -0.048692618 0.25586116 -0.02859142 -0.047692534
529 -0.4193862 0.024743063 -0.15060587 -0.32104084 0.19027048 0.18470754 -0.7213248 -0.49604562 0.24874997 0.012636348 -0.30550715 0.013136301 -0.14339074 -0.0808471 0.25028652 -0.18270619 0.076593615 0.20078015 0.3303761 -0.20821148 0.67182297 -0.14050972 0.16553298 -0.262918 0.07691879 0.21997845 0.42566526 0.31688216 0.05558494 -0.04533456 0.20224375 0.16026115 -0.1717188 0.05950209 -0.29288903 0.27040437 -0.21642265 -0.04221813 -0.057453908 0.19505271 -0.1577907 -0.19469424 -0.0010797001 -0.029165456 0.10010548 -0.23183139 -0.32355618 0.109302774 0.010110161 0.2969081 0.006397902 -0.051732074 0.376907 0.42463335 0.05357913 0.30007407 -0.019981412 -0.3606495 -0.06188004 0.019881615 -0.036115352 0.28919312 -0.04328999 -0.073893994
578 -0.2860812 0.11234394 -0.090687804 -0.28269526 0.1021352 0.29254213 -0.7873568 -0.5331439 0.28824866 -0.021365596 -0.3440297 0.028178062 -0.2099502 -0.1281331 0.30849752 -0.20500156 -0.029711304 0.20347837 0.27117682 -0.13221022 0.59205955 -0.22773148 0.00830796 -0.19708246 0.121578105 0.13368995 0.42454273 0.28497028 0.12872797 -0.041935425 0.049239967 0.14830288 -0.19216648 -0.036684074 -0.2108279 0.304289 -0.19266094 -0.23226151 -0.10079541 0.31650013 -0.07456291 -0.21821158 -0.0024442384 -0.021973843 0.16294782 -0.30570164 -0.3131473 0.1468882 0.08768891 0.21420328 -0.040529877 -0.085995704 0.377451 0.42002943 0.12443939 0.28150553 -0.09646898 -0.27221757 -0.1747466 0.07341418 -0.05328726 0.28861696 0.15140137 -0.040679157
786 -0.38504767 0.005854733 -0.21451771 -0.29572076 0.23485874 0.2328291 -0.73296523 -0.46050882 0.28903717 0.104236975 -0.36707318 0.04332238 -0.19794942 -0.05246419 0.2605955 -0.27261674 0.0710622 0.18045667 0.35688505 -0.046464603 0.6318923 -0.22760804 0.10930209 -0.22321482 0.11267445 0.04059277 0.48662984 0.19259867 0.052329008 -0.030018518 0.08524547 0.15390508 -0.23934232 -0.045070436 -0.24989559 0.23416132 -0.20649865 -0.11439057 -0.058423523 0.17255834 -0.08530803 -0.12851359 -0.0058209975 0.110222824 0.16064116 -0.25154987 -0.31618938 0.10750067 0.018552866 0.28412104 -0.007623013 -0.004412278 0.35090655 0.45119524 0.20819668 0.28356934 -0.14269221 -0.37567472 -0.15796608 -0.04832662 0.061516456 0.25898173 0.0313359 -0.0016741288
484 0.22370031 -0.07259574 -0.056363292 -0.09626932 -0.32711175 0.20311338 -0.14977176 -0.18623692 -0.22379188 0.034206368 0.39518335 0.012992123 -0.3776446 0.11171085 0.0024059191 0.33210197 0.12773032 -0.19798242 0.6083062 0.41265354 0.020903392 -0.4101996 0.14811106 -0.13327278 -0.46783912 -0.08007185 -0.115943015 0.12922993 0.14856267 0.026807146 -0.09041663 0.356221 0.0849331 -0.2823567 0.19053753 -0.20978051 0.14708191 -0.09684982 0.03645957 0.3861886 0.09783234 -0.30671293 -0.07711012 -0.29946145 -0.59212863 -0.31712914 0.12712505 0.14496168 -0.3067763 0.17764673 0.043057002 -0.13276057 -0.10641443 0.027418006 -0.024959063 0.111948974 0.149578 0.40625882 -0.018145576 -0.03988719 0.56002283 0.2053934 -0.27239904 -0.2587879
391 0.21765183 -0.12878127 -0.10104762 0.022057824 -0.27627417 0.15728122 -0.23034497 -0.2595 -0.19229344 0.049653307 0.4535483 0.06049934 -0.3671946 0.11499856 -0.04065873 0.17905886 -0.025697447 -0.28193727 0.5300435 0.35825998 0.06686644 -0.47543657 0.1535433 -0.060079083 -0.36936447 -0.12163024 -0.1884721 0.06210132 0.2527432 0.0073352363 -0.06617069 0.36000547 0.02031961 -0.25834018 0.14378448 -0.15934469 0.17828064 -0.13980797 0.05208634 0.3175305 0.15885794 -0.34652317 -0.2185647 -0.19320035 -0.6403149 -0.26045454 0.12835747 0.23794718 -0.2507461 0.29206812 0.04562467 -0.17638859 -0.049305703 0.113911994 -0.13956055 0.054301694 0.27690485 0.32922152 -0.09276295 -0.033775005 0.55535394 0.14603704 -0.2984415 -0.29937896
739 -0.3811558 0.05623157 -0.11034244 -0.31225023 0.15493537 0.27108338 -0.74849033 -0.45866004 0.18230322 0.052599587 -0.27525333 0.047647614 -0.21899886 -0.07538505 0.34080172 -0.20771326 -0.0018222756 0.18545468 0.30724043 -0.14791355 0.66079456 -0.12886377 0.009331471 -0.2349211 0.115691155 0.061023705 0.44252926 0.2714888 0.016921261 0.030754186 0.08354166 0.20763722 -0.19783384 -0.063020706 -0.2497135 0.2545645 -0.29352576 -0.15786621 -0.08534366 0.13847491 -0.17152195 -0.26260763 0.0033535925 -0.05791316 0.20175122 -0.28947443 -0.30168128 0.15493415 0.023409288 0.29195133 -0.08437483 -0.025026126 0.38418868 0.44823936 0.14298569 0.27528417 -0.14583215 -0.37024516 -0.13055508 -0.005697583 0.00316385 0.22704075 -0.014288565 0.033367522
359 0.20625865 -0.08391231 -0.048317887 -0.04130525 -0.317305 0.27174273 -0.17032664 -0.22958718 -0.24196063 0.07588831 0.4167158 0.059424166 -0.3158115 0.009392263 -0.023084106 0.13192512 0.038501337 -0.18181893 0.50868875 0.43457362 0.029613715 -0.4530647 0.21631564 -0.10131433 -0.38927302 -0.041908376 -0.07225054 0.026034785 0.25742486 -0.06915604 -0.05673258 0.30723315 -0.046881497 -0.32314324 0.1376175 -0.23358728 0.22743714 -0.056471184 0.1960549 0.30163452 0.23194934 -0.34239388 -0.21245877 -0.16291428 -0.74445176 -0.3339431 0.13204789 0.21945891 -0.4439594 0.24781667 -0.092876256 -0.1296139 -0.032038353 0.061596174 -0.25839394 0.06805978 0.1270429 0.36549965 -0.09798318 -0.1351289 0.43275234 0.16654007 -0.29363593 -0.18120943
231 0.1794273 -0.047079746 -0.08281972 -0.0631373 -0.31250793 0.23594578 -0.24805109 -0.10451689 -0.21704085 0.1069928 0.43994245 -0.0025062372 -0.35405955 0.13318259 -0.06625033 0.2735121 0.11372601 -0.18843937 0.52847344 0.3469573 0.027968997 -0.41100645 0.18794335 -0.095498815 -0.41696936 -0.070418164 -0.14658573 0.013465019 0.25331268 -0.048256963 -0.17623922 0.30610102 -0.06863472 -0.31289485 0.15440519 -0.29339218 0.22684625 -0.15434563 0.046643127 0.36708355 0.094292335 -0.31622675 -0.13586989 -0.19097728 -0.60818577 -0.32938477 0.10264905 0.07464952 -0.28704977 0.3446122 -0.044679515 -0.19542809 -0.118117705 0.105512075 -0.12690279 0.043737646 0.2620691 0.38970855 -0.053193916 -0.02299435 0.50568444 0.16075543 -0.25066146 -0.23583505
603 -0.3727887 0.0094965175 -0.16430941 -0.3143951 0.15232836 0.24646953 -0.7370102 -0.4339818 0.26456356 -0.0014840064 -0.3987756 -0.0075526014 -0.19768398 -0.123676784 0.2676288 -0.23694724 -0.012395496 0.2095135 0.32779905 -0.08686152 0.64117134 -0.20661257 0.14764255 -0.2187175 0.1598278 0.058986496 0.41781163 0.25711894 0.061395824 -0.1627135 0.1365274 0.0329507 -0.33200672 -0.040447377 -0.27754366 0.2284844 -0.15095405 -0.025234286 -0.085351124 0.17081544 -0.15975922 -0.25593594 0.018738806 -0.01603638 0.0601983 -0.26866746 -0.25693008 -0.0014367719 -0.04537928 0.23091497 0.02200254 0.08645946 0.3645956 0.5277911 0.15943156 0.31292924 -0.029816553 -0.31701744 -0.123157404 -0.0068983254 0.051390823 0.2937825 0.06941804 0.037555777
749 -0.40391293 0.065624304 -0.06820652 -0.33898264 0.16172172 0.3101376 -0.76602936 -0.43702722 0.2366381 -0.046584416 -0.27285632 -0.011412201 -0.15231626 -0.15192978 0.30649498 -0.2639085 0.018954469 0.1040658 0.32339063 -0.16419223 0.675256 -0.25102353 0.16037008 -0.15021795 0.14447507 0.1311019 0.42493087 0.28105235 -0.028454503 -0.097075984 0.08951559 0.112652354 -0.23630257 0.031114366 -0.23846859 0.26121837 -0.26128557 -0.121132046 -0.084554374 0.17080863 -0.08890063 -0.23262332 -0.020008255 -0.076595396 0.19445549 -0.28544432 -0.2974747 0.023428379 0.045479104 0.25172997 -0.019736683 -0.0947786 0.29951757 0.40339547 0.13096915 0.35675976 0.0036836981 -0.38721675 -0.09697169 0.07299122 0.029898373 0.19104086 0.001353665 -0.05310436
646 -0.39380628 0.051807586 -0.097868174 -0.34720257 0.22511736 0.36652604 -0.7500663 -0.5761429 0.24398218 0.004521441 -0.37411907 0.06684047 -0.17716676 0.0011496858 0.26450068 -0.1766325 0.031136625 0.13646056 0.2532066 -0.0842322 0.72815466 -0.16700394 0.029146727 -0.30315614 0.043411393 0.17149661 0.4451027 0.21641305 0.016325286 -0.14627151 0.07828956 0.08408802 -0.2361025 -0.023139726 -0.24576718 0.29590082 -0.17492524 -0.15178634 -0.13235164 0.17272623 -0.14561759 -0.20474665 0.012606755 0.04473831 0.16533805 -0.21774289 -0.33106515 0.11367168 0.0573821 0.25749406 -0.078947976 -0.026264936 0.2150474 0.2919687 0.10126978 0.28241268 -0.03920906 -0.3095597 -0.1309197 0.108140476 -0.055343304 0.30912587 -0.0029455782 -0.08481925
405 0.2012479 -0.07891658 -0.055521376 -0.08683615 -0.2809707 0.16549416 -0.25552803 -0.19457659 -0.24733078 0.13740543 0.4655741 0.1063823 -0.3504932 0.19209507 -0.012982388 0.28634927 0.1362234 -0.22546566 0.52178884 0.36560583 -0.0020902765 -0.35175613 0.16681585 -0.13051389 -0.41316602 -0.06770898 -0.0924194 0.08309175 0.39274722 -0.15272754 -0.20320405 0.36441514 0.056577712 -0.19798099 0.12689567 -0.25471738 0.16955264 -0.035463817 -0.015057112 0.35294712 0.1256749 -0.25536937 -0.22043467 -0.15848525 -0.59812284 -0.31829128 0.12186712 0.10551945 -0.28428245 0.35461903 -0.057157114 -0.12821355 -0.0033609283 0.0046988907 -0.08634883 0.009185677 0.20629066 0.42118752 -0.10508344 -0.004601949 0.5676864 0.14403352 -0.24229598 -0.3113525
633 -0.29256383 -0.039568312 -0.14864413 -0.26009375 0.094307095 0.32558075 -0.75683475 -0.60456806 0.2162994 0.0054413886 -0.38138297 0.05781679 -0.22545668 -0.107376404 0.34163553 -0.23630439 -0.0010730476 0.21921279 0.27500764 -0.18917355 0.6210955 -0.13976322 0.060520638 -0.22495015 0.15862986 0.16292474 0.44042477 0.19044116 -0.007944758 -0.027257727 0.11489149 0.12507519 -0.22955216 0.09613388 -0.24248317 0.23553519 -0.21299358 -0.1631155 -0.021067452 0.25931394 -0.15524943 -0.1986609 -0.008382115 -0.024403023 0.17397639 -0.2924174 -0.42188743 0.17797425 0.106326655 0.33864754 -0.118045874 -0.058097 0.2797313 0.3576678 0.059018876 0.2704287 -0.057950538 -0.31019443 -0.09027099 -0.037081502 0.13234967 0.18473978 -0.02347231 0.045763545
93 0.21160229 -0.022035912 -0.028838785 -0.11160462 -0.3316907 0.19154973 -0.1346286 -0.2312234 -0.2575912 0.045639418 0.48067868 0.03425217 -0.4506907 0.14697415 -0.043689884 0.28759855 0.11952044 -0.28025186 0.50872546 0.28725 0.16697496 -0.4438715 0.24766196 -0.06571209 -0.35730585 -0.033244 -0.18218212 0.06363298 0.2537255 -0.08627699 -0.19509408 0.17727718 0.013122439 -0.26116574 0.20395395 -0.266523 0.17340815 -0.14714389 0.075307764 0.3502415 0.084400475 -0.2425588 -0.17787682 -0.20987219 -0.6096918 -0.2685423 0.15379183 0.14043449 -0.38311437 0.33594584 0.008846649 -0.35000166 0.057281807 0.088412665 -0.076535806 0.10593613 0.2242577 0.382906 -0.02516689 -0.110909246 0.47811115 0.12113227 -0.23053263 -0.27592218
745 -0.44275063 0.018866638 -0.16818686 -0.27531236 0.16680478 0.25948283 -0.7876335 -0.5168441 0.2518398 0.0036151514 -0.31991476 0.049904246 -0.24599151 -0.06470271 0.28015822 -0.23351574 -0.03953265 0.19046445 0.36319515 -0.1553426 0.601527 -0.19543934 0.061338004 -0.21612084 0.07161774 0.08022967 0.43948674 0.24760546 0.051374663 -0.1069075 0.01748916 0.119276345 -0.22048524 -0.04576999 -0.29836142 0.24626218 -0.26481506 -0.13608538 -0.14575744 0.195199 -0.14351422 -0.25996512 -0.06525594 0.026053276 0.17502515 -0.2612051 -0.3282803 0.05890574 0.055872295 0.27454415 -0.11402687 -0.013913547 0.25707144 0.41653454 0.210727 0.3334281 -0.0878243 -0.2844379 -0.033465236 0.057106495 0.026917245 0.200158 0.042543557 0.044413496
264 0.17414613 -0.034445725 -0.018449796 0.013296572 -0.3421928 0.16644138 -0.22760935 -0.13512725 -0.1923251 0.03912928 0.52382445 -0.027456421 -0.27023336 0.1989699 -0.078495994 0.28136972 0.105849676 -0.24552901 0.5757853 0.28613135 0.15577519 -0.4422194 0.18194649 -0.17912817 -0.37211573 -0.12037509 -0.17727828 0.030073557 0.22996323 -0.15146664 -0.18242435 0.3069827 0.026643952 -0.3402868 0.16462635 -0.24176481 0.08013111 -0.123318486 0.055713736 0.35099965 0.13500494 -0.35385254 -0.2468719 -0.23740725 -0.4916363 -0.40438536 0.24706618 0.18596533 -0.18571883 0.283929 -0.057210356 -0.19107069 -0.08733534 0.04447129 -0.09790184 0.06631424 0.30391905 0.30869913 -0.07913193 0.02788582 0.53986114 0.21674211 -0.24744974 -0.36401036
76 0.09982116 -0.010109217 -0.08702599 -0.17026608 -0.24399349 0.19619797 -0.13441224 -0.15830974 -0.2777572 0.0142616285 0.4369168 -0.018508809 -0.40039134 0.22447008 -0.09795681 0.27486396 0.12630749 -0.29391718 0.53337777 0.29129168 0.042866703 -0.45640036 0.1456369 -0.10608539 -0.36737967 -0.121198066 -0.13020892 0.07417868 0.263326 -0.046350546 -0.0427847 0.30688506 0.053239297 -0.27194422 0.1136003 -0.26763722 0.14851373 -0.042869035 0.13639405 0.37440485 0.12786604 -0.33325893 -0.22130851 -0.3131966 -0.5670836 -0.35368252 0.08711683 0.19040546 -0.2714322 0.31697068 0.037215076 -0.23634554 -0.008032349 0.11086966 -0.11739358 0.104133725 0.20836087 0.39603767 -0.034487978 -0.05588884 0.57264465 0.17536929 -0.23099594 -0.24843493
227 0.2440406 -0.10193997 -0.03898833 -0.099756114 -0.27430332 0.10232263 -0.16020122 -0.27081966 -0.12003308 0.068866715 0.4218403 0.038588777 -0.30459747 0.14032961 -0.09641491 0.2206078 -0.027029738 -0.17612515 0.5513618 0.2934364 0.06188995 -0.4312102 0.13449156 -0.14160846 -0.39208147 -0.15664886 -0.10770566 0.0046897386 0.23634538 -0.020140488 -0.18138763 0.36564478 -0.012273682 -0.19263938 0.1387602 -0.31312108 0.2081162 0.00757486 0.1384622 0.4132611 0.107262686 -0.32050934 -0.29270563 -0.25488028 -0.6263283 -0.36034045 0.17571141 0.17629695 -0.18318863 0.36072868 -0.0019925134 -0.09643941 -0.050066274 0.048206992 -0.15344357 0.116023585 0.33114785 0.3157779 -0.01136998 -0.01945059 0.51117015 0.17881818 -0.3201824 -0.32285273
790 -0.34992987 0.14689398 -0.15938699 -0.29054117 0.19906709 0.24202232 -0.7731285 -0.61084014 0.2531035 0.02700342 -0.3446196 0.007762382 -0.129912 -0.11061524 0.23636718 -0.17832641 0.020187397 0.17439044 0.32458532 -0.19329233 0.62836003 -0.2332856 0.07144971 -0.2999793 0.016727494 0.08594276 0.49463633 0.22083594 0.13430901 -0.10214717 0.12950292 0.1299786 -0.13350575 0.0021927736 -0.24423735 0.30695504 -0.17835322 -0.13822334 -0.12001152 0.18386646 -0.12371214 -0.18428554 -0.09704752 0.052036986 0.21541636 -0.25465477 -0.33434346 -0.00034712895 0.034731798 0.26457673 0.037903976 -0.025852775 0.3379721 0.39301607 0.057865236 0.29127195 -0.1384387 -0.21712185 -0.11543042 0.064629525 0.037447736 0.33979154 0.062493693 -0.04654292
284 0.22913413 -0.09290141 -0.01453125 -0.16062781 -0.28079495 0.18394059 -0.18574272 -0.102657914 -0.23447901 0.07217589 0.41743365 0.053070217 -0.38860983 0.09255827 -0.003785108 0.28450534 0.09574011 -0.21940394 0.56585324 0.31545466 0.12867096 -0.36408615 0.21781394 -0.10002676 -0.39509165 -0.1527636 -0.11234277 0.06122474 0.23630132 -0.011562106 -0.089016154 0.31884062 0.026955465 -0.23048614 0.25497139 -0.2712403 0.23364225 -0.06843998 0.028455691 0.41866773 0.16220409 -0.24395165 -0.27755114 -0.2579659 -0.55331266 -0.34211847 0.1583307 0.15632 -0.24020028 0.3318919 -0.00878297 -0.18436246 -0.05212399 0.0118946135 -0.077302076 0.0071116053 0.2961375 0.33182833 -0.0759891 -0.03429772 0.5839067 0.1947925 -0.24436438 -0.2632958
975 -0.354988 -0.04845723 -0.105859526 -0.2645158 0.24402864 0.30389443 -0.79960585 -0.43604267 0.34830502 0.07175887 -0.36138833 0.0054397015 -0.18313387 -0.09421069 0.24486095 -0.24860789 0.053518943 0.20426518 0.29345992 -0.12262579 0.65438014 -0.14977495 0.08625771 -0.16768816 0.12875825 0.1190876 0.46412212 0.32115582 0.012411707 -0.1013756 0.05531578 0.20291194 -0.19797692 -0.042609807 -0.2507505 0.27553406 -0.2094317 -0.071292125 -0.10871342 0.29018417 -0.18364349 -0.2477392 -0.0005829893 -0.007380934 0.1742289 -0.17694575 -0.23540944 0.106024474 0.056062702 0.3220614 -0.040308855 -0.085857466 0.29724494 0.44870624 0.118881024 0.32115108 -0.019753527 -0.2766444 -0.13206589 0.061400145 0.046059337 0.18320511 0.0041734977 -0.018487733
654 -0.37602806 0.077231035 -0.08096362 -0.33084133 0.22749376 0.23389982 -0.71478486 -0.51716465 0.35910612 0.05188457 -0.35554484 0.0068377415 -0.12723972 -0.09109007 0.28598416 -0.20723839 0.021020632 0.21782205 0.28455493 -0.10050284 0.60234135 -0.19294688 0.060260095 -0.25585157 0.07379517 0.1192809 0.46410522 0.27633846 0.09835493 -0.075868554 0.14066423 0.15972751 -0.17326158 -0.024867438 -0.2591297 0.29581052 -0.13691065 -0.12201078 -0.03310106 0.2787825 -0.11421725 -0.20528036 -0.019768521 0.034466457 0.14806359 -0.23973343 -0.32103235 0.12382352 -0.006085356 0.30555287 -0.008241434 0.01972047 0.3648123 0.3974517 0.111334406 0.2499124 -0.054263514 -0.3099041 -0.1561406 0.046140574 0.012750645 0.38284284 -0.015498008 -0.11352336
111 0.14392623 -0.069412 -0.09999094 -0.0568728 -0.2948861 0.17147653 -0.21193108 -0.115488485 -0.2038833 0.08998947 0.41243175 -0.031878237 -0.39560887 0.042480752 -0.03558592 0.20663466 0.07634396 -0.16156586 0.5431412 0.31993243 0.04188537 -0.43231115 0.17151286 -0.18217292 -0.4406766 -0.17900623 -0.20910117 0.028362779 0.24127062 -0.00834545 -0.1255269 0.3844256 -0.020419028 -0.24518585 0.09783592 -0.26292652 0.16471387 0.005224372 0.07890599 0.3429879 0.14895716 -0.45021272 -0.14957339 -0.22863604 -0.5745826 -0.33451727 0.2102905 0.16655685 -0.29161236 0.24466349 0.00029675273 -0.18900658 -0.11498635 0.1562083 -0.14585459 0.08636875 0.27194196 0.38826573 -0.04013669 -0.090123065 0.5327025 0.11139316 -0.28133586 -0.29244888
248 0.19239661 -0.053355552 -0.021391481 -0.081738785 -0.2809025 0.19428088 -0.25979242 -0.14983939 -0.222076 0.09261619 0.45380285 0.041872624 -0.3626932 0.12583041 -0.03946107 0.25559202 0.04566934 -0.20788103 0.585927 0.34114856 0.03753578 -0.41158554 0.12389733 -0.0885079 -0.44437087 -0.08753692 -0.15035053 0.04460556 0.26528138 -0.029273963 -0.1278854 0.35777852 -0.029637052 -0.27538288 0.036055956 -0.22035936 0.20113221 -0.09545952 0.014292025 0.37004513 0.14850393 -0.3437713 -0.17698337 -0.22352394 -0.5932229 -0.3104345 0.032128245 0.18235263 -0.3169351 0.24221471 -0.011601524 -0.15735199 -0.115976386 0.038612567 -0.0755262 0.09604 0.26986516 0.3839704 -0.039849468 -0.027477974 0.52326137 0.12401372 -0.2763516 -0.25253096
7 0.16733721 -0.053868603 -0.160133 -0.033229113 -0.2088448 0.19900711 -0.15530075 -0.12612686 -0.29469374 0.14845869 0.40867937 -0.006278116 -0.48366302 0.14570585 -0.0362727 0.20590135 0.07664468 -0.23241787 0.5090654 0.2871104 0.06831267 -0.43503416 0.12645765 -0.11271989 -0.4901696 -0.060886443 -0.044875838 0.14894001 0.28914785 -0.124566905 -0.008055892 0.35799542 -0.0053099045 -0.29308063 0.139786 -0.24460375 0.26907295 -0.03105992 0.07806216 0.31927297 0.22122501 -0.3463139 -0.2168583 -0.28244284 -0.6959589 -0.33295184 0.1440198 0.21294019 -0.28941986 0.22007056 0.0021067152 -0.1786695 -0.13558912 0.14945534 -0.12342424 0.030935597 0.1844804 0.31472132 0.03928761 -0.101699635 0.48846206 0.14153443 -0.22180694 -0.23557055
572 -0.39891994 -0.030462863 -0.12786573 -0.3057782 0.15253985 0.20589499 -0.72819513 -0.50518256 0.2843188 -0.034431376 -0.29860607 -0.003758973 -0.21202031 -0.110204086 0.29708454 -0.24999903 -0.03461732 0.1769464 0.30726504 -0.09102032 0.699477 -0.20861684 0.25491023 -0.25291845 0.12897663 0.15146703 0.36792234 0.25079054 -0.035345048 -0.04103544 0.16556863 0.197536 -0.13541389 -0.074749984 -0.20001447 0.26135477 -0.23988655 -0.12633464 -0.10915265 0.20066264 -0.17311597 -0.23404409 0.036427896 0.015701152 0.111811996 -0.20599738 -0.31481808 0.00018291871 0.040144905 0.34265703 0.031404205 0.080217555 0.2885315 0.41123274 0.09265583 0.36256054 -0.084022366 -0.36233783 -0.11640705 0.03395378 0.0013556328 0.30154747 -0.062444985 -0.033279214
218 0.21437906 -0.04191584 -0.072985575 -0.006819401 -0.25240362 0.1851324 -0.21673411 -0.13199423 -0.2503119 0.085140385 0.4261827 0.056764513 -0.37983993 0.13277224 0.039314575 0.2445164 0.07523515 -0.23430155 0.5522974 0.3046659 0.04774045 -0.4787002 0.10622428 -0.0996635 -0.3743667 -0.14262186 -0.10673059 0.1449313 0.3025912 -0.0798279 -0.15336527 0.30706975 -0.013505906 -0.2599757 0.069081515 -0.25898197 0.15587544 -0.08794601 0.095795825 0.30470937 0.15323539 -0.26076 -0.20585662 -0.19688816 -0.63487077 -0.2700271 0.07901997 0.1292455 -0.3243121 0.26254797 0.0142343 -0.15843552 -0.12053898 0.03902984 -0.1299754 0.041396905 0.31337956 0.3881102 -0.012295747 -0.022591528 0.597383 0.24156746 -0.29712006 -0.30633363
475 0.27266148 -0.0071354257 0.06092429 -0.12132346 -0.37131867 0.2967335 -0.16328157 -0.23346013 -0.22565934 0.14156349 0.41135153 0.0020878294 -0.34365055 0.10464607 -0.09341208 0.23088792 0.0057899584 -0.22996433 0.4947345 0.29576746 0.12261398 -0.4593177 0.116660744 -0.074513495 -0.43778095 -0.09841868 -0.13882692 0.073906876 0.2579981 -0.12925585 -0.089690454 0.34475675 0.02904122 -0.24320276 0.22890104 -0.23524907 0.17418925 -0.077642605 0.0009997835 0.33044925 0.09888229 -0.33960542 -0.21527275 -0.27629417 -0.6040869 -0.36625218 0.13822296 0.15088183 -0.31798112 0.23260273 -0.05065283 -0.17550309 -0.07469555 0.049273517 -0.050875086 0.07331952 0.21807939 0.32921442 -0.03494407 -0.08660046 0.5494566 0.19299383 -0.16848049 -0.3019495
919 -0.37108487 0.08442116 -0.13011476 -0.30013517 0.24506937 0.30030963 -0.6991903 -0.5274198 0.21365298 0.043733045 -0.36432156 0.0502053 -0.19016999 -0.08815579 0.32736853 -0.22029753 0.092126116 0.16144983 0.4020086 -0.1515124 0.5766024 -0.16555576 0.10765643 -0.17884788 0.10720167 0.073042095 0.4530821 0.20390931 0.074045934 -0.15482356 0.0897159 0.14749184 -0.282023 -0.010240613 -0.2925556 0.31044015 -0.18466109 -0.084512204 -0.11590378 0.20620848 -0.14669776 -0.15702023 -0.014084712 0.030843036 0.091693886 -0.26339054 -0.30084065 0.06700912 0.030151868 0.25346738 -0.03305183 0.050560184 0.29706252 0.45280802 0.12834802 0.30274126 -0.05460958 -0.36575016 -0.039146446 0.004577795 -0.011431739 0.2838692 0.05727505 -0.006312477
798 -0.35986906 0.03626892 -0.1197115 -0.3211047 0.24942426 0.27049038 -0.7208358 -0.49729267 0.25906107 0.0060337926 -0.34831527 0.0062525007 -0.2152769 -0.09805892 0.22264697 -0.22602908 0.04718571 0.22039819 0.3088337 -0.16267265 0.5704287 -0.18278044 0.09003376 -0.29504284 0.033261344 0.24666008 0.5077517 0.28936344 0.097212195 -0.12822346 0.1592462 0.19793525 -0.16590099 -0.08463012 -0.21866433 0.30388469 -0.16051042 -0.045639556 -0.08216312 0.3065681 -0.16201252 -0.1526665 0.030686058 0.052484486 0.15414903 -0.31317788 -0.25654122 0.021981644 0.022194602 0.2813026 0.022744164 -0.01719026 0.30712643 0.46434128 0.13152266 0.26118264 -0.009214677 -0.31078255 -0.06956106 -0.008820044 -0.037991192 0.29351693 0.050128616 0.03894749
734 -0.39917487 0.1053329 -0.08498994 -0.39844182 0.094242685 0.27813846 -0.7136881 -0.5255647 0.3116881 0.0414257 -0.38229364 0.00011573469 -0.17317353 -0.11819772 0.24551617 -0.20158751 0.032301627 0.13709375 0.3323151 -0.024866363 0.66737235 -0.12843017 0.10231455 -0.21834621 0.086188406 0.13073264 0.4516258 0.29700404 0.026796576 -0.029272323 0.09353282 0.2488139 -0.21536927 -0.054621328 -0.25189358 0.275734 -0.13436082 -0.16174755 -0.12309925 0.2205692 -0.17369439 -0.20241365 -0.040792774 0.065390594 0.13530749 -0.2780338 -0.19026797 -0.004123069 -0.025875203 0.16570567 0.07310252 -0.023491893 0.31823874 0.45182246 0.13095565 0.37034428 -0.122468084 -0.3454741 -0.20837201 -0.06718829 -0.008797926 0.313161 0.04637949 -0.00057996745
771 -0.32180512 0.12189625 -0.10471712 -0.28547114 0.18436082 0.29212895 -0.7442551 -0.54974943 0.2544363 -0.020873995 -0.40106225 -0.028686669 -0.17899495 -0.110403076 0.20523159 -0.2417908 -0.0017652875 0.2609275 0.28973296 -0.07792553 0.6597167 -0.17155792 0.13617328 -0.27197137 0.11652043 0.10285085 0.47226214 0.28398058 -0.033935577 -0.057582103 0.033268828 0.051881257 -0.2515048 0.04805632 -0.34210074 0.21071865 -0.21132462 -0.07576878 -0.08782113 0.13961518 -0.08245361 -0.24644625 -0.063388646 0.02140453 0.13176864 -0.36554626 -0.29674402 0.08539957 0.0532301 0.27665496 -0.10782895 0.05265773 0.35781202 0.35292587 0.11969463 0.25785238 -0.026584765 -0.32678297 -0.05630173 0.043580417 0.04745458 0.24877198 0.0093360115 0.00867544
126 0.20604578 -0.088186495 -0.022066444 -0.026873073 -0.36776343 0.1862844 -0.21815883 -0.041135974 -0.21300223 0.053224266 0.3538695 0.057949048 -0.3711832 0.09810122 -0.044102866 0.1839263 0.08707567 -0.29265904 0.568347 0.38867798 0.12726039 -0.42440382 0.13447872 -0.18943314 -0.37945652 -0.00930786 -0.083415315 0.04937048 0.269678 -0.034525473 -0.080596186 0.348381 -0.04278922 -0.36053672 0.11497967 -0.20357327 0.23056912 -0.08470228 0.06454745 0.30074543 0.24305768 -0.37277368 -0.23898043 -0.23194909 -0.6811844 -0.2720543 0.13739456 0.20958856 -0.37432283 0.25390038 0.027407685 -0.090283275 -0.08228601 0.091449566 -0.12594908 0.03219692 0.20461127 0.3914473 -0.030758418 -0.08026617 0.46236315 0.14233337 -0.23869847 -0.24904814
204 0.24230112 -0.11134185 -0.010816519 -0.12691595 -0.2773359 0.17762344 -0.19884846 -0.14029093 -0.1963998 0.011390404 0.37701824 0.05530042 -0.37141818 0.14009011 -0.05693658 0.19738126 0.05981185 -0.22031324 0.5839235 0.30978048 0.08840439 -0.4130823 0.18493146 -0.1228952 -0.43291944 0.009695881 -0.18805975 0.092902616 0.27242216 0.03903157 -0.11911671 0.28294298 0.02451122 -0.35704303 0.15268736 -0.2711953 0.18770263 -0.18720473 0.024017526 0.3285242 0.09762884 -0.351427 -0.0998445 -0.26133072 -0.64440143 -0.27376845 0.087937005 0.076542124 -0.2869907 0.30504745 0.01347918 -0.2177042 -0.1823296 0.107561216 -0.11178044 0.059788354 0.21542573 0.4228495 -0.0120217055 -0.013363698 0.55031645 0.11891189 -0.1828255 -0.28056368
569 -0.29901424 -0.047147334 -0.05211517 -0.34021005 0.17600429 0.2972335 -0.7364007 -0.5414409 0.3788489 0.028980542 -0.3062227 0.016950661 -0.18214333 -0.16241421 0.23181732 -0.26628372 -0.03796262 0.23620152 0.2871881 -0.06612849 0.7067236 -0.14747345 0.23114024 -0.23267414 0.22919619 0.16314632 0.3907405 0.16197868 -0.0008189365 -0.11463865 0.12554626 0.1007978 -0.22019677 0.050719302 -0.2752681 0.22296722 -0.2684778 -0.14803705 -0.003912124 0.18994471 -0.10892249 -0.19547467 0.07669612 -0.070982195 0.08212638 -0.23076697 -0.30138484 0.065478735 0.021020588 0.37134483 0.016188936 -0.013459006 0.25370845 0.45868072 0.09983224 0.2563947 0.0032366365 -0.37981334 -0.1417137 0.05111951 0.044096343 0.21960175 -0.0074862894 -0.008545856
959 -0.3037447 0.12615916 -0.16710396 -0.32669178 0.14702561 0.2586063 -0.71132606 -0.5519013 0.25534743 -0.08594488 -0.37191835 0.01957259 -0.24738845 -0.025948139 0.27207878 -0.23468874 -0.03154231 0.22983621 0.2790922 -0.025313407 0.6763066 -0.1768223 0.20133972 -0.29941267 0.09653302 0.15863825 0.44332308 0.2501376 0.0816444 -0.09283612 0.08739955 0.13340251 -0.2852742 -0.032496955 -0.13828531 0.36800468 -0.17153582 -0.16501373 -0.070884906 0.15574618 -0.13354723 -0.23559792 0.11269242 0.00096161827 0.18177103 -0.35377213 -0.31332716 0.09489254 0.082771026 0.27823877 -0.031561334 0.04652896 0.22885126 0.38471475 0.069417305 0.27804774 -0.08443489 -0.3146782 -0.12363847 0.07475512 0.045738507 0.3108632 0.03996961 0.032369096
584 -0.3476098 0.09866351 -0.013547108 -0.35404503 0.17355412 0.2898933 -0.7874212 -0.5127094 0.17116627 -0.024655929 -0.31039745 -0.06750804 -0.17658103 -0.08272192 0.28896886 -0.24016607 0.017365724 0.117515996 0.2621637 -0.20305695 0.6283371 -0.1962021 0.092884935 -0.21830854 0.15511377 0.14844973 0.48587042 0.22714613 0.021128133 -0.073839605 -0.0029805286 0.08798066 -0.2782673 -0.02290039 -0.27352235 0.26744354 -0.20626552 -0.16333668 -0.20883493 0.25212374 -0.11682268 -0.22859308 0.0102403425 0.0051539666 0.17135526 -0.32849663 -0.22989714 0.07296857 -0.029790929 0.2793392 -0.020621635 -0.07032223 0.249915 0.4746035 0.07882576 0.31798777 -0.014501756 -0.35044092 -0.03626801 0.020973004 -0.01782177 0.25861514 0.07689631 0.056866176
530 -0.37230346 -0.013453753 -0.103570364 -0.32047218 0.26482722 0.283737 -0.66280985 -0.49166706 0.23293544 -0.02371163 -0.3421243 0.003410509 -0.20555294 -0.108036585 0.28937945 -0.17613123 0.049505554 0.15406469 0.25899035 -0.07683077 0.65915823 -0.13479935 0.02075039 -0.2618341 0.07435825 0.14183506 0.45447204 0.3078783 -0.008988942 -0.08277724 0.12138669 0.19023123 -0.1986639 -0.0031424146 -0.3127501 0.25853273 -0.30409935 -0.14146781 -0.10285352 0.21909676 -0.19433539 -0.22952154 0.04217584 -0.036564734 0.15039127 -0.29793805 -0.3644088 0.06588551 0.051862743 0.30216628 -0.018773708 -0.05811861 0.27765545 0.47130677 0.03402241 0.31252506 -0.057240255 -0.2763616 -0.087304965 0.04069747 -0.05782834 0.2738448 -0.01353628 0.0029457582
504 -0.33806983 0.0495631 -0.10999276 -0.29720286 0.22444573 0.24921665 -0.7133957 -0.5303641 0.2401497 -0.00904349 -0.32950115 0.076313876 -0.16713539 -0.14727345 0.34320545 -0.23408276 0.086600825 0.16141002 0.34809828 -0.084573686 0.65005094 -0.16885695 0.09848478 -0.24062231 0.07496871 0.15767191 0.48958784 0.23190312 0.07682452 -0.059609517 0.054428324 0.11401709 -0.20816816 0.008276146 -0.30998883 0.2907637 -0.20607755 -0.09047158 -0.03364761 0.1367132 -0.1311744 -0.23218904 0.04106864 0.077333525 0.10721549 -0.24043235 -0.27638528 0.08480493 0.026142098 0.3083451 -0.059940163 0.010240739 0.33367884 0.39944038 0.06410544 0.34060228 -0.029960537 -0.35394627 -0.109705314 0.0032610686 0.039237957 0.3209875 0.034266435 -0.058669377
439 0.21411745 -0.10751133 0.02377974 -0.05813056 -0.30853269 0.1225871 -0.14590934 -0.22104801 -0.24670374 0.037449125 0.38956252 0.052958906 -0.336581 0.13081278 0.057149034 0.21061487 0.103162915 -0.25303397 0.56048757 0.30363235 0.1684658 -0.49118415 0.10381473 -0.08082526 -0.44822747 -0.04157007 -0.111172475 0.04642715 0.29007572 -0.052291278 -0.11184064 0.3127951 -0.036543906 -0.28207454 0.08096499 -0.28715023 0.21352856 -0.079742394 -0.011804974 0.41087943 0.112895764 -0.25785014 -0.255104 -0.23261125 -0.5488445 -0.29339567 0.092998736 0.18189907 -0.35415387 0.26597074 -0.052376106 -0.24350679 -0.13227656 0.008648421 -0.07417242 0.04276804 0.26589683 0.39994568 0.030895593 -0.079451695 0.51348764 0.16096278 -0.26349363 -0.2910247
599 -0.33654296 0.086213656 -0.15677656 -0.3680814 0.15237792 0.24438323 -0.68979794 -0.53608763 0.2702278 -0.0017261214 -0.35842562 0.012999866 -0.20936188 -0.101396695 0.24939197 -0.29104066 0.05469582 0.15736917 0.33778247 -0.048879314 0.64213777 -0.20934074 0.18885194 -0.20240109 0.18306239 0.108520195 0.4456746 0.21946214 -0.0042945356 -0.041041642 0.08436832 0.17710121 -0.27518293 -0.032946657 -0.25274122 0.2165049 -0.21212696 -0.15337181 -0.007804589 0.13521798 -0.14467861 -0.20540234 0.017653799 -0.011022703 0.14539537 -0.28539604 -0.33096424 0.097708754 0.014773205 0.2696046 -0.08069889 -0.018751802 0.21774502 0.4916747 0.12785326 0.27344313 -0.10952712 -0.39359513 -0.13332206 -0.03641066 0.061479513 0.2742262 0.029713398 0.019052213
274 0.15946433 -0.010619795 -0.06702125 -0.09365267 -0.23901871 0.22195484 -0.1771303 -0.17759262 -0.22910927 0.13437387 0.5123005 -0.0014997617 -0.42539683 0.13939066 0.027633652 0.22375256 0.058349088 -0.29161796 0.52661955 0.33880463 0.11922212 -0.4410752 0.101203755 -0.116960905 -0.387004 -0.044305846 -0.1477768 0.038105045 0.24491201 -0.1290811 -0.09899449 0.26841784 -0.104811914 -0.30390006 0.124813735 -0.28875738 0.24162471 -0.10913281 0.16255103 0.24618235 0.16026805 -0.38269398 -0.18422104 -0.20956914 -0.7120967 -0.2229679 0.09160309 0.12895209 -0.34857047 0.28596878 0.006096656 -0.26128367 -0.119462244 0.118811086 -0.08227431 0.036184773 0.22306517 0.38408732 0.03117695 -0.104544125 0.4261461 0.105786264 -0.2674269 -0.22165178
132 0.20542245 -0.07486915 -0.030480204 -0.12068065 -0.38551843 0.19872788 -0.16703115 -0.23204625 -0.17147276 0.09605051 0.45090976 0.08991695 -0.38817787 0.09329064 -0.10043972 0.23067601 0.08423586 -0.26945007 0.5549848 0.31969225 0.11203323 -0.37418914 0.2331181 -0.14714071 -0.3109648 -0.15448792 -0.19332471 0.031133272 0.23702255 -0.050040998 -0.16040607 0.2951157 -0.016108498 -0.18777624 0.092033744 -0.26574057 0.16732796 -0.09559613 0.10518176 0.3108342 0.11558387 -0.35057208 -0.26414344 -0.18172508 -0.6188236 -0.34144354 0.14724669 0.14144425 -0.2932187 0.32112312 0.02093149 -0.12606587 -0.016598828 0.05784015 -0.18633296 0.1008412 0.25918368 0.36488053 -0.042264234 -0.05324522 0.5514286 0.16020909 -0.3096185 -0.2557
718 -0.22919814 0.12742594 -0.13049963 -0.3331962 0.13142407 0.2806907 -0.68838733 -0.5774767 0.25377482 -0.062018614 -0.4010489 0.0006338234 -0.16510724 -0.11230358 0.24674259 -0.21260427 -0.103243686 0.2763526 0.2604754 -0.066034734 0.6307775 -0.22226277 0.11330073 -0.27073184 0.19075446 0.118111566 0.44828048 0.15520734 0.010499746 -0.11940164 0.07087264 0.049118873 -0.31101575 -0.05609257 -0.33058628 0.29137623 -0.18411121 -0.2531548 -0.02951215 0.15229854 -0.15094852 -0.26968205 0.0681483 0.026336676 0.1559645 -0.30608845 -0.37618658 0.17467481 -0.009290144 0.22829083 -0.09944744 -0.084955946 0.23391461 0.43343684 0.1259472 0.25871897 -0.044548545 -0.35408702 -0.14309028 0.03623561 0.08463087 0.30665016 0.04103538 0.01782596
119 0.17561726 -0.049165733 0.0027272762 -0.15524179 -0.20493788 0.22837277 -0.28227332 -0.11758561 -0.20196582 -0.01882818 0.35301232 -0.022507329 -0.38259357 0.085076556 -0.014812381 0.23893687 0.14158474 -0.19975352 0.5232153 0.3797076 0.032609634 -0.39822087 0.2334739 -0.14143445 -0.459196 -0.121920355 -0.20204122 0.05182661 0.27915326 0.04561535 -0.13594626 0.33173382 -0.0049743983 -0.23729642 0.15211624 -0.25234404 0.21291196 -0.1228339 0.048246086 0.36283422 0.07001859 -0.29892337 -0.16972958 -0.32504198 -0.5904889 -0.22664656 0.11498239 0.07341971 -0.35420397 0.30245265 0.039609328 -0.12454994 -0.1019251 0.068367906 -0.16808106 0.018714633 0.24280426 0.43441862 -0.07246766 -0.0629622 0.5679311 0.14470474 -0.2525832 -0.36315143
823 -0.38299045 0.04239694 -0.10094856 -0.3115895 0.2071325 0.20290065 -0.7426357 -0.54398316 0.25304532 -0.059115652 -0.30534685 0.039699975 -0.18673502 -0.12563738 0.25897756 -0.276345 -0.053421866 0.13507687 0.26594284 -0.07396552 0.64926153 -0.15927587 0.09140717 -0.24970263 0.15949492 0.12598747 0.41527382 0.19181949 0.06553238 -0.14710502 0.12233059 0.09864358 -0.16234888 0.017009972 -0.26101732 0.33643663 -0.1725245 -0.14349511 -0.07654277 0.23414335 -0.1327319 -0.2595509 -0.049949925 0.054243084 0.09992863 -0.30911285 -0.3777573 0.024513638 0.017427176 0.32927996 0.041447174 -0.008557964 0.3438927 0.41210264 0.06425509 0.29553518 0.00095394603 -0.2887337 -0.09590945 0.037762124 0.030999318 0.27811304 0.08012493 0.03880416
279 0.20790634 -0.10951626 -0.01272304 -0.06671 -0.27751777 0.14971165 -0.15020807 -0.14186715 -0.28024927 0.04867159 0.44569343 0.047289275 -0.38416764 0.09619205 -0.05726293 0.2819072 0.16508381 -0.1811129 0.5604194 0.34035808 0.15999933 -0.5093363 0.189626 -0.1416638 -0.33608568 -0.038023442 -0.09758188 0.08395692 0.25626191 -0.022923889 -0.1661973 0.2851699 0.051669974 -0.30300474 0.2298219 -0.23888569 0.0939624 -0.023442788 0.0652984 0.38112915 0.1725994 -0.2395609 -0.18312976 -0.20361015 -0.6478593 -0.3549189 0.123267025 0.19832392 -0.2808598 0.3371406 -0.029971493 -0.22034341 -0.061663397 0.0027451706 -0.14559752 0.1671669 0.24462578 0.3438681 -0.029224379 -0.05137979 0.47485694 0.1393218 -0.2303016 -0.2825303
474 0.20845911 -0.112402804 -0.019085646 -0.06530031 -0.268696 0.20649059 -0.20581552 -0.12712543 -0.3323011 0.01586517 0.4571717 0.020543654 -0.39160693 0.15554845 -0.0057309032 0.29164997 0.07936733 -0.17271556 0.56809425 0.2686382 0.120524436 -0.5332124 0.15938753 -0.11985368 -0.54070866 -0.13240133 -0.06806445 0.05696635 0.2134099 -0.033471905 -0.20647974 0.22945389 0.029832223 -0.19414982 0.13634953 -0.2693951 0.110217445 -0.06939011 0.0551774 0.36128417 0.16466165 -0.25921935 -0.20254336 -0.24828953 -0.54100144 -0.28829318 0.12859143 0.1996847 -0.2120991 0.3125875 -0.02843147 -0.26425666 -0.06245038 0.033683512 -0.09073903 0.06524432 0.27173948 0.39857975 0.027275909 -0.06597605 0.50979185 0.14988866 -0.3260339 -0.23525676
757 -0.34331936 -0.009249506 -0.04982287 -0.3063305 0.23192188 0.29349267 -0.753787 -0.54656196 0.2661874 -0.07563145 -0.32047087 0.05018625 -0.13540666 -0.059507556 0.31950057 -0.20970152 0.053873356 0.23437408 0.3919679 -0.11904972 0.58564985 -0.13794537 0.1510793 -0.3007915 0.092180476 0.19060409 0.44283676 0.14047657 0.039550703 -0.06693314 0.16821444 0.12054041 -0.15294869 0.13755718 -0.3451414 0.3326228 -0.23513764 -0.13125564 -0.0884616 0.15083942 -0.13260843 -0.104371846 0.005424811 -0.028176876 0.100764535 -0.3183034 -0.38466445 0.013646966 -0.036406834 0.27592623 0.065727666 0.039992124 0.24287134 0.41425788 0.094352104 0.28837532 -0.018625744 -0.33117145 -0.07008109 0.03944809 0.09089094 0.29951948 0.055864442 0.049581636
265 0.24246095 -0.056317113 -0.10224198 -0.009764374 -0.29961026 0.20376395 -0.16526309 -0.23499161 -0.17971006 0.11484766 0.37367067 0.05285639 -0.35085326 0.13069099 -0.056921735 0.23008671 -0.01882576 -0.26431626 0.4922185 0.2661655 0.06616577 -0.5302421 0.087016374 -0.0633017 -0.35595503 -0.10316366 -0.17681238 0.08140385 0.27161035 -0.109606825 -0.07924269 0.42395034 0.024180207 -0.30631578 0.13668257 -0.21353585 0.22596164 -0.07857228 0.038061135 0.34138367 0.07786108 -0.33087388 -0.15337521 -0.22637548 -0.56320244 -0.2937196 0.07096994 0.25745073 -0.2755333 0.34948036 0.0015818569 -0.22647479 -0.13568911 0.102702305 -0.14873752 0.14734845 0.329024 0.36849594 -0.047608458 -0.013528071 0.60806936 0.09203659 -0.17397733 -0.30466676
305 0.15524243 -0.03785707 -0.06056534 -0.12998599 -0.23440379 0.14662583 -0.13257654 -0.105543524 -0.3117788 0.07924745 0.4084411 -0.06505268 -0.3779538 0.19850938 -0.13345253 0.3087967 0.11743491 -0.19112965 0.6319961 0.30755648 0.16636808 -0.43641844 0.2412519 -0.19872591 -0.4312562 -0.033999424 -0.13842532 0.1627992 0.2444035 -0.074714825 -0.111689374 0.2822881 0.06388007 -0.2850506 0.14342467 -0.2350711 0.19985625 -0.09301113 0.0853704 0.37987334 0.15047969 -0.2727015 -0.20767942 -0.2722582 -0.59212303 -0.33052585 0.14054257 0.15072854 -0.3394216 0.25200742 0.024299115 -0.29584992 -0.10412223 0.02281318 -0.1614628 0.09721572 0.20549951 0.33612812 0.06294714 -0.048184395 0.45443374 0.19601269 -0.21470182 -0.26654524
338 0.26531413 -0.053082965 -0.053674944 -0.068417504 -0.2943715 0.21594931 -0.10154501 -0.19765481 -0.15739314 0.111925796 0.37001583 0.06445355 -0.32141894 -0.0358789 -0.123360544 0.18452276 0.028960865 -0.17606296 0.47119588 0.32795432 0.0059817224 -0.4701659 0.080238 -0.123000644 -0.3773154 -0.12611872 -0.104368865 0.0037591078 0.31883425 -0.005506982 -0.09557526 0.41201967 -0.08386594 -0.31617236 0.008485377 -0.334604 0.2589701 -0.027670305 0.108628646 0.36772797 0.14184846 -0.31891418 -0.18458481 -0.18016501 -0.7068085 -0.30334267 0.085602 0.2088968 -0.403143 0.24702577 0.12972377 -0.19095321 -0.15543318 0.14732283 -0.18751356 0.16924399 0.27535796 0.38456506 -0.01237418 -0.10657049 0.46817607 0.11121652 -0.24872969 -0.26300365
592 -0.36086398 0.006451467 -0.09303725 -0.3290661 0.1676853 0.2576579 -0.70622617 -0.44272742 0.25678256 0.031259246 -0.36278498 -0.013901398 -0.1281057 -0.12646395 0.25281727 -0.2602243 0.029690064 0.1129558 0.35363454 -0.14048764 0.6481963 -0.15205306 0.09450558 -0.27810147 0.23973018 0.15000287 0.51269525 0.30107784 0.015364049 -0.1642855 0.09749637 0.13375884 -0.26706868 -0.052232277 -0.27645618 0.25165257 -0.2318706 -0.032804955 -0.07396876 0.16861278 -0.12995052 -0.18341954 0.02351777 -0.04205745 0.16838507 -0.2549639 -0.26236477 0.101240575 0.06001795 0.37790206 0.033700746 -0.05931206 0.3136259 0.4668833 0.06765336 0.18422998 -0.055690717 -0.3134601 -0.09171433 0.06302704 0.04663749 0.29304245 -0.001396428 -0.038756836
169 0.13649333 -0.10968676 -0.007085667 -0.014151096 -0.25143304 0.20121433 -0.2072416 -0.15830417 -0.2274168 0.08647851 0.35354647 -0.030765962 -0.46174324 0.13346373 -0.064094506 0.19827169 0.03263151 -0.24966383 0.52371806 0.34578037 0.056457553 -0.41663465 0.15425433 -0.11894323 -0.41451064 -0.05805415 -0.10118617 0.08040163 0.20040224 -0.09369476 -0.07316806 0.34127605 0.066007555 -0.26048872 0.17733799 -0.21674535 0.1272451 -0.06694843 0.13961908 0.2948593 0.15512274 -0.42500886 -0.1114065 -0.25962675 -0.7084761 -0.3419778 0.16764933 0.08238905 -0.38333547 0.21038295 -0.011308235 -0.19793938 -0.1409604 0.12192639 -0.16164313 0.11621071 0.15688315 0.38134333 0.008116397 -0.07831572 0.52740765 0.12514919 -0.3127436 -0.24834183
690 -0.37861475 0.03883887 -0.15805791 -0.34652367 0.1654069 0.24723282 -0.74139524 -0.51817536 0.25853834 0.040926285 -0.36218786 -0.006808099 -0.22760226 -0.078578494 0.25317514 -0.2428055 0.03314215 0.15931255 0.2546606 -0.08005404 0.6006784 -0.09277279 0.14516823 -0.22940083 0.12517308 0.11668757 0.36758268 0.27879396 0.042469174 -0.029165663 0.17028935 0.19148035 -0.23936217 0.016135363 -0.25883287 0.27133983 -0.2283614 -0.22707807 -0.103718914 0.23413886 -0.17373885 -0.21625681 0.009973834 -0.033680107 0.15365641 -0.26744163 -0.24141899 0.15134437 0.030098278 0.33179379 0.004948273 -0.040386364 0.33393398 0.46581852 0.11490255 0.26943257 -0.020031191 -0.34461814 -0.11310132 -0.048647255 -0.075652964 0.31147793 -0.010636026 -0.032008514
531 -0.30446127 -0.06008856 -0.13059843 -0.26749662 0.19179478 0.31070653 -0.6622704 -0.5278664 0.21005028 0.00395623 -0.37159365 0.003526103 -0.23462637 -0.099083304 0.242656 -0.31037614 -0.009015126 0.19384277 0.26891783 -0.08745428 0.6654983 -0.23151831 0.1892386 -0.22052401 0.13496493 0.14707413 0.48107335 0.14536954 0.028524235 -0.0972116 0.15366763 0.16004428 -0.25145727 -0.027623096 -0.23788108 0.24241665 -0.28897855 -0.101069584 -0.08639103 0.2288257 -0.19488505 -0.1837222 0.013808709 0.06640512 0.18018349 -0.2990214 -0.42028823 0.17667955 0.06379708 0.37750125 0.0035187216 -0.05530619 0.23991539 0.43194395 0.07073789 0.23060475 -0.051059764 -0.35945684 -0.07957127 0.05649629 0.13716713 0.22802286 0.03443253 0.002763505
955 -0.35194385 0.07954779 -0.14008154 -0.39622366 0.11130138 0.22753796 -0.7608469 -0.4435187 0.2998954 0.03396711 -0.4030437 -0.008824246 -0.14520378 -0.16059674 0.17675483 -0.24689856 -0.034174822 0.11299876 0.33488038 -0.058532972 0.6810948 -0.09111353 0.1789818 -0.21864158 0.20886622 0.12533379 0.42632884 0.3069722 0.08065684 -0.09270093 0.18034148 0.2913993 -0.33469194 -0.054614358 -0.23539273 0.26070893 -0.15595585 -0.12503897 -0.08865425 0.2373062 -0.10532278 -0.16808832 0.009188889 -0.0053853528 0.1431114 -0.2715672 -0.20484732 0.058153324 0.03970959 0.20647712 0.026921429 -0.057386536 0.30572468 0.4977501 0.11103967 0.27195698 -0.06948013 -0.28044385 -0.10338781 0.030947523 0.027297236 0.3560263 -0.036543075 0.08593104
363 0.20129319 -0.030126218 0.0022218274 -0.06078208 -0.41922316 0.22569333 -0.22095214 -0.20838709 -0.18627816 0.09286247 0.4096145 0.1029502 -0.3181072 0.14498478 -0.07003852 0.31240383 0.062059846 -0.19969408 0.5654755 0.24547932 0.012962151 -0.3642176 0.16663195 -0.10467926 -0.3467133 -0.026768439 -0.15204841 0.028391058 0.25735644 -0.158159 -0.081531405 0.3375419 -0.026018072 -0.3336726 0.07510755 -0.24861471 0.1847589 -0.022527754 0.0050220443 0.3309398 0.20814388 -0.34043157 -0.24209918 -0.20274957 -0.5788402 -0.4205426 0.07356211 0.20648143 -0.362141 0.21098812 -0.08715018 -0.2179231 -0.20002617 0.07834796 -0.015086234 0.12129073 0.24667762 0.409235 -0.120567 -0.050409313 0.53959197 0.14360386 -0.23347093 -0.27568313
491 0.220405 -0.1051312 0.006198714 -0.11454785 -0.21522397 0.24105954 -0.23375063 -0.117742404 -0.19143726 0.01702853 0.4769508 0.029206425 -0.3930016 0.070312046 0.0034927328 0.22730798 0.05409594 -0.13839981 0.51515293 0.33351174 0.014365477 -0.50163054 0.23199897 -0.0840031 -0.39591968 -0.1528481 -0.09463787 0.014678042 0.26954204 -0.09319382 -0.14211003 0.3483309 0.01863387 -0.240152 0.1506884 -0.2818059 0.14846213 0.045114867 0.09960086 0.2970589 0.20957853 -0.24862547 -0.17964345 -0.21143489 -0.6387875 -0.37600002 0.15225673 0.21165378 -0.3116672 0.26457554 0.054101072 -0.23823674 -0.0036406694 0.062254075 -0.124887615 0.094787195 0.27520272 0.28465885 -0.080257624 -0.12959509 0.51373583 0.2032785 -0.30483347 -0.31971896
614 -0.3856709 -0.02548079 -0.10402804 -0.32194996 0.15190354 0.1826439 -0.8037087 -0.5348967 0.27079368 0.074437365 -0.34892505 0.02187471 -0.14243563 -0.16205409 0.2952249 -0.2730227 -0.012276608 0.18685417 0.38290665 -0.12753764 0.53724366 -0.18177895 0.0371879 -0.17117187 0.13759303 0.017582003 0.4027365 0.2863531 0.069676556 -0.07807354 0.13646814 0.15911055 -0.21277958 -0.09797775 -0.32072973 0.29681432 -0.16301487 -0.134344 -0.10003568 0.27120513 -0.12458391 -0.23948956 0.02204777 -0.050724093 0.17581017 -0.18613952 -0.30820906 0.012236629 0.068102725 0.31728214 -0.03153693 -0.05455708 0.30364057 0.37797147 0.15630043 0.35721725 0.0033508835 -0.30936226 -0.1600974 0.015507782 -0.012365879 0.29150218 0.08774806 -0.069221675
620 -0.3553025 0.08576403 -0.10710475 -0.35452485 0.17971532 0.20499082 -0.7211827 -0.5387783 0.31251583 0.044188336 -0.29869786 -0.0106312195 -0.18036097 -0.072573625 0.2570273 -0.21609604 0.03045885 0.15946724 0.29372376 -0.13443802 0.6229718 -0.13758889 0.13981502 -0.2733901 0.1125948 0.13354538 0.38744816 0.3782617 0.036702614 -0.08700403 0.17333731 0.23374368 -0.14455947 -0.03329582 -0.2327661 0.27067775 -0.12532686 -0.19361763 -0.12758747 0.2542018 -0.15854795 -0.2549567 0.033305325 0.02044236 0.17116043 -0.1664739 -0.26928693 0.097935125 0.02711644 0.23585072 0.034118045 -0.0032788927 0.330597 0.47048903 0.13399167 0.29900682 -0.06773503 -0.34496412 -0.15247032 0.042662144 -0.0742121 0.36838177 0.1107843 -0.07027402
343 0.24987014 -0.0793032 -0.028179836 -0.086444855 -0.26319462 0.13010874 -0.1897159 -0.22644122 -0.24361181 0.082133695 0.40769705 0.096495725 -0.3484417 0.12994803 -0.09962451 0.17058012 0.024585342 -0.17859432 0.6127231 0.28385198 0.09231008 -0.47957304 0.17519379 -0.13113384 -0.47177237 -0.119219944 -0.12268013 0.07675565 0.21791847 -0.06384899 -0.12079717 0.26174033 -0.0016039519 -0.24317296 0.114646405 -0.33299348 0.21825501 -0.024131486 0.13064694 0.40925777 0.13598606 -0.28306654 -0.25062865 -0.22680645 -0.63512903 -0.2713941 0.14651044 0.15320417 -0.30750036 0.2736424 -0.07146848 -0.14361647 -0.11814997 0.06836201 -0.22722772 0.062775485 0.25866577 0.32894576 0.010474058 -0.07043573 0.45722717 0.15617658 -0.28291467 -0.2616536
77 0.23389748 -0.13224465 -0.08894494 -0.06501444 -0.23964314 0.1607782 -0.25311494 -0.17244183 -0.23450181 0.02140629 0.38849074 0.058975775 -0.32146758 -0.007507305 -0.016100595 0.06557122 -0.030788539 -0.22433202 0.50395775 0.41184896 0.06450004 -0.47236422 0.14761667 -0.08493702 -0.3304537 -0.12006325 -0.14741035 -0.035208173 0.32328546 0.0122405365 -0.13715383 0.36666662 -0.052762885 -0.30918998 0.0794586 -0.26749867 0.21755557 -0.06961223 0.111598626 0.23176599 0.15077163 -0.36557847 -0.18318678 -0.20420918 -0.7740914 -0.28740397 0.13597813 0.21740794 -0.3764953 0.19531712 0.022572843 -0.15736108 -0.05334479 0.15472347 -0.30045956 0.11457336 0.27248788 0.34598753 0.011524781 -0.0677192 0.5262814 0.093561985 -0.19568719 -0.28253868
548 -0.34161624 0.031954274 -0.12902445 -0.3337726 0.18212058 0.21908163 -0.7133438 -0.53979 0.2669433 0.040334452 -0.3435662 0.05702973 -0.17557053 -0.112101495 0.32866347 -0.25173724 0.054817185 0.14960697 0.2679183 -0.1881222 0.5945092 -0.07520619 0.038803868 -0.26711527 0.21344034 0.11083122 0.44287345 0.16796629 0.04889019 -0.07790285 0.10431311 0.16400729 -0.24712229 0.041324683 -0.3007713 0.28630862 -0.26040062 -0.15443937 -0.08402969 0.19416714 -0.117799394 -0.22803362 0.028875683 -0.09147994 0.088360555 -0.2869204 -0.27934712 0.11865638 0.026872903 0.32952645 -0.049537525 -0.10802861 0.29748368 0.4992073 0.14067517 0.26401928 0.0015444919 -0.31296533 -0.05795909 -0.0027134554 0.011364364 0.26682192 0.026349228 0.013278495
526 -0.34190863 -0.01738592 -0.13335985 -0.3366219 0.28343847 0.24841085 -0.71144354 -0.602223 0.20939304 -0.021801556 -0.37723047 0.01519519 -0.18577681 -0.15115003 0.29117918 -0.28911868 0.014471276 0.17412366 0.3106161 -0.12634261 0.6268682 -0.18772933 0.18121232 -0.30189422 0.09111032 0.24443714 0.44756618 0.20801942 -0.029868275 -0.06778563 0.06956807 0.15059446 -0.24884321 0.012136747 -0.23837528 0.32694185 -0.13132776 -0.14554133 -0.040019456 0.20250131 -0.12755635 -0.18097259 0.053031363 -0.040682305 0.16490538 -0.28855297 -0.344294 0.11066514 0.035917327 0.2980231 -0.068731315 -0.046378568 0.26077867 0.36133188 0.13726462 0.23541242 -0.06782495 -0.25503457 -0.0036678019 -0.026662018 0.011552385 0.30853227 0.008973541 -0.02092003
902 -0.27920237 0.050161112 -0.09598924 -0.2954977 0.15289286 0.32910925 -0.7100992 -0.55245924 0.28465146 0.02165048 -0.32181633 0.032069717 -0.11567129 -0.16642806 0.23669049 -0.22141235 0.018377816 0.21426457 0.35192415 -0.13521323 0.6540512 -0.24058214 0.12907247 -0.18104802 0.14638561 0.17146759 0.43620902 0.24342392 -0.011655853 -0.14263248 0.13156737 0.1466667 -0.15743302 0.043119367 -0.31452763 0.23448855 -0.20713495 -0.17899823 -0.083395064 0.15746604 -0.077667035 -0.20993279 -0.014991081 -0.09687618 0.17499207 -0.27071115 -0.37604898 0.15513207 0.056695532 0.29031417 -0.016368339 -0.023674604 0.30342957 0.42139593 0.11484772 0.31115922 0.019768544 -0.2887204 -0.16500229 0.11352519 0.031521603 0.25571737 0.12590009 -0.08198288
576 -0.3914235 0.05854161 -0.13170499 -0.30953902 0.19012044 0.29707342 -0.7977814 -0.5575146 0.26283038 -0.018222066 -0.33831 -0.029719654 -0.13288987 -0.10715412 0.24978848 -0.17495027 -0.008597628 0.2657053 0.32509273 -0.085703716 0.59106785 -0.18967149 0.15020153 -0.1921233 0.00460639 0.10285646 0.40889624 0.2871003 0.034955986 0.024078758 0.085203506 0.11895745 -0.16891064 0.02769226 -0.28173643 0.27403894 -0.27574182 -0.11606325 -0.20231158 0.33035412 -0.20203198 -0.24098578 0.018376987 -0.026592065 0.06660033 -0.13975741 -0.25918174 0.03354412 0.0064139324 0.2522781 -0.0049377633 0.012476972 0.3287143 0.4066014 0.14249513 0.4200873 -0.08880289 -0.344788 -0.18962891 -0.1004188 0.029669184 0.19466653 0.046134584 0.052182358
110 0.21126652 -0.1481542 -0.016519144 -0.01940108 -0.30591485 0.115166284 -0.22894983 -0.1809188 -0.21314077 0.08077626 0.36002347 -0.03455997 -0.30493006 0.10460273 -0.049479596 0.22450018 0.10673452 -0.17292629 0.5243331 0.3661054 0.032026887 -0.4328752 0.28913325 -0.16075689 -0.37996176 -0.1595074 -0.1315068 0.0030759564 0.30398 -0.033446625 -0.1632997 0.3150508 -0.019160789 -0.2945178 0.14419962 -0.2531987 0.12769298 -0.1787024 0.1049558 0.32098183 0.14552125 -0.31008947 -0.22132166 -0.21092686 -0.5947647 -0.41194913 0.19920386 0.12465209 -0.36415872 0.28195843 0.0015900143 -0.22011049 -0.05491681 0.030294023 -0.13321431 0.14294757 0.25298756 0.372906 -0.023821406 -0.07494006 0.48751786 0.15159498 -0.2591859 -0.32142144
345 0.32937196 -0.14821982 -0.013829944 -0.0031106689 -0.32792562 0.07513633 -0.2162855 -0.23021026 -0.17085442 0.071998194 0.40999225 0.07521686 -0.31928918 0.0997263 -0.078967966 0.23183306 0.0345741 -0.17794614 0.52264297 0.26306862 0.1330022 -0.49163163 0.13376342 0.018732248 -0.4246431 -0.07427423 -0.08591514 0.045453284 0.24782132 -0.04158128 -0.0441696 0.33877772 0.03197933 -0.24771257 0.22432834 -0.16356388 0.13677956 -0.09004521 0.02038723 0.34459448 0.11884257 -0.357186 -0.221961 -0.20395325 -0.66652966 -0.34069458 0.15992092 0.20973669 -0.26512745 0.23934957 0.043915827 -0.2870142 -0.20795348 0.052986566 -0.027414862 0.2027018 0.27491328 0.35314915 0.038216945 -0.033529732 0.552958 0.16210392 -0.25575128 -0.29307446
778 -0.42543584 -0.028191384 -0.11087768 -0.33643615 0.280568 0.27533525 -0.7627786 -0.51464087 0.1656261 0.019095397 -0.35227305 0.029340984 -0.22206019 0.06521328 0.25268146 -0.25406736 0.09038569 0.14350156 0.30726933 -0.11311267 0.6457261 -0.20547454 0.111754544 -0.18388364 0.003490387 0.16977243 0.5317499 0.18100218 0.0140563445 -0.08246799 0.0938954 0.078552365 -0.23053405 -0.030741038 -0.21560322 0.21131541 -0.24614847 -0.08176952 -0.15865919 0.27314028 -0.18538356 -0.12667802 -0.04188722 0.115517974 0.14372914 -0.32186922 -0.2895645 0.09036038 0.05770777 0.2852607 0.03526482 0.059764337 0.29531145 0.3899083 0.20041811 0.27100202 -0.09479878 -0.32176113 -0.14957078 0.0344836 -0.0038847688 0.26371688 -0.036523167 -0.025666004
893 -0.31970057 0.06373501 -0.14393744 -0.28478128 0.13918236 0.2532538 -0.78881913 -0.57732743 0.21670264 0.03277591 -0.39760998 0.072204284 -0.17069228 -0.14271669 0.2861154 -0.24439502 0.048884597 0.1380567 0.34264648 -0.13113071 0.5770674 -0.14880289 0.032629326 -0.1896363 0.09796125 0.100301534 0.4810847 0.17066799 0.042393282 -0.07803299 0.07629019 0.18659377 -0.33174112 -0.016881539 -0.29674307 0.26116642 -0.15576886 -0.14323425 -0.16728906 0.21705337 -0.16033973 -0.19161358 0.057797257 0.073928826 0.105189584 -0.33346736 -0.26394537 0.05321801 0.06573638 0.19443698 -0.046685543 -0.064831726 0.2962711 0.46520397 0.21905634 0.3316296 0.012556184 -0.295689 -0.055428416 -0.048062053 0.012793209 0.24092902 0.08249583 -0.004622171
575 -0.37989014 0.07741143 -0.14772885 -0.31546587 0.07602858 0.3122054 -0.7544314 -0.4765591 0.21077135 0.036040407 -0.337608 0.028410671 -0.21641096 -0.13334045 0.25480542 -0.27619433 0.02456116 0.18217766 0.32465684 -0.20191853 0.6716108 -0.1709651 0.0825593 -0.1603752 0.1797384 0.029893717 0.4492536 0.33529457 -0.0055564586 -0.090419084 0.14414178 0.20953916 -0.26968488 -0.03695992 -0.23161717 0.29987416 -0.1342673 -0.17200151 -0.13501744 0.28991747 -0.08550977 -0.18317504 -0.04237896 -0.01755835 0.1515993 -0.24781854 -0.31026608 0.09339186 0.06712295 0.2519517 -0.11967254 -0.028190516 0.3267692 0.37467405 0.18134575 0.3003991 -0.04893499 -0.2793735 -0.16089578 -0.011294042 -0.036253605 0.20111336 0.06722475 -0.041560564
286 0.28176373 -0.063717276 -0.04960982 -0.025960922 -0.30569494 0.22259963 -0.1533212 -0.24609768 -0.2593491 0.05889971 0.43273884 0.09505003 -0.4772877 0.14096168 -0.08598244 0.24519514 -0.016489133 -0.22780865 0.5021845 0.28701398 0.07017408 -0.49027923 0.12233839 -0.14274004 -0.3988851 -0.120076574 -0.13384968 0.06910682 0.2371977 -0.083075 -0.11360557 0.34429526 0.022473821 -0.19116113 0.17695515 -0.27631143 0.19042107 -0.05780034 0.07830265 0.3126761 0.20282213 -0.32465976 -0.19142322 -0.23883775 -0.6136202 -0.30632555 0.078401335 0.14264807 -0.29530865 0.32729205 0.008305215 -0.17631608 -0.09071498 0.035203487 -0.12847625 0.089983426 0.21586297 0.34375188 -0.010141299 -0.033643954 0.5339306 0.089875296 -0.21428606 -0.25076663
388 0.119594075 -0.011132036 -0.018829588 -0.13001871 -0.27645275 0.17476463 -0.2423742 -0.11800028 -0.20395654 0.050769053 0.535399 0.047971625 -0.3583462 0.10601065 -0.036124703 0.25968 0.07288924 -0.27971044 0.57918835 0.34532216 0.061188266 -0.40156478 0.12982501 -0.07922189 -0.40832284 -0.05360613 -0.13792114 0.060827907 0.25758046 -0.10923636 -0.057276975 0.33533332 0.030199846 -0.20017229 0.15172128 -0.27364442 0.19262646 -0.00014104365 -0.0023956948 0.39723593 0.16907793 -0.33795288 -0.19215776 -0.2351432 -0.5960677 -0.3278148 0.22106941 0.19410521 -0.24083021 0.25146997 0.05415708 -0.28648123 -0.06691595 0.055009827 0.012665194 0.050297003 0.26080468 0.3492903 0.020415185 0.008577008 0.53836244 0.13964652 -0.28125578 -0.21880075
832 -0.28805125 0.07753662 -0.11959301 -0.30221474 0.17663094 0.34923488 -0.6181203 -0.5763576 0.28624642 -0.025008427 -0.33191094 -0.014534275 -0.21497232 -0.11093982 0.33262366 -0.2469184 0.01864336 0.15457027 0.22809516 -0.15830849 0.76619416 -0.13981895 0.18567985 -0.18551151 0.1812763 0.17089096 0.4737749 0.24840839 0.023055833 -0.0924372 0.10039478 0.17977619 -0.19212171 0.073633894 -0.18627295 0.21780825 -0.22053508 -0.07227618 -0.05751124 0.25198144 -0.15693663 -0.23835345 0.0460326 0.007653055 0.04755667 -0.23202005 -0.3425381 0.08625159 0.043821268 0.27083704 0.0073809796 0.021852342 0.3272958 0.42556554 0.054156646 0.3071423 -0.080879726 -0.31011114 -0.09128961 -0.046914693 -0.024258915 0.32245073 -0.0132992575 -0.016339872
144 0.17459509 -0.11692039 0.020798067 0.020384971 -0.31795537 0.22481965 -0.17639385 -0.13669978 -0.27427533 0.14460099 0.44427142 -0.0075791175 -0.32838157 0.12572336 0.015622233 0.20411788 0.030021288 -0.3408661 0.5699671 0.40941808 0.09164622 -0.43274578 0.20180804 -0.07100464 -0.39968446 -0.10318921 -0.14945133 0.024932416 0.35409355 -0.0011018587 -0.140869 0.40839013 -0.075249754 -0.2537108 0.092474736 -0.24097589 0.18385614 -0.12549649 0.012529626 0.30612916 0.19463328 -0.4164238 -0.21281463 -0.17614207 -0.5297364 -0.3247151 0.107693 0.14936745 -0.3099939 0.22342125 0.028835526 -0.14563619 -0.029571062 0.04949366 -0.16929421 0.055731002 0.24103269 0.28159285 -0.076948956 -0.010134449 0.48022878 0.15471926 -0.301081 -0.32851428
549 -0.3654047 -0.021263149 -0.052104533 -0.30927607 0.1274781 0.2696476 -0.7446549 -0.48342982 0.22597548 0.012660429 -0.2513486 0.033192497 -0.18711296 -0.14285755 0.28479007 -0.24149849 -0.029647795 0.21827424 0.3278732 -0.25157866 0.67590153 -0.17387804 0.11430071 -0.19864969 0.17217456 0.1352484 0.42738134 0.20976494 0.056908116 -0.10438315 0.080425754 0.23214611 -0.26574823 0.03767337 -0.18295576 0.256057 -0.21860531 -0.12615216 -0.12239786 0.18309353 -0.061042905 -0.2544621 0.10263997 -0.070243515 0.20550016 -0.31087637 -0.26132637 0.08782127 0.016176468 0.21396956 -0.02199236 0.034900367 0.3807084 0.48613876 0.09672483 0.31910592 -0.023715476 -0.30314377 -0.0297473 0.059804384 -0.0417204 0.2580214 0.039840627 -0.0024920192
415 0.17486125 -0.07389393 -0.03341573 -0.040336303 -0.23980689 0.19445255 -0.27301705 -0.12445432 -0.20971048 0.08364445 0.47042948 0.027444758 -0.36950663 0.111163855 -0.05095915 0.14227395 0.10297897 -0.28266773 0.52926016 0.3866803 0.08249581 -0.5024279 0.16106388 -0.07186476 -0.3847992 -0.12852927 -0.12650073 0.0192657 0.28810462 -0.0750532 -0.05692952 0.32331425 -0.09364261 -0.24147138 0.016466288 -0.22350504 0.22397165 -0.12474889 0.12419764 0.29508868 0.22783327 -0.36532673 -0.23124485 -0.13339502 -0.6936587 -0.2589155 0.14245729 0.16836947 -0.37413862 0.35393554 0.010159291 -0.14794801 -0.022875713 -0.0067751105 -0.16790642 0.03051677 0.28059816 0.24543245 -0.008698012 -0.07627454 0.5407642 0.17028491 -0.22990766 -0.2749874
222 0.22596848 -0.014693018 -0.078724295 -0.07138491 -0.28607652 0.1848574 -0.22237088 -0.142933 -0.25253454 0.05709068 0.4411079 0.08684197 -0.37060827 0.13349926 -0.11705788 0.2711318 0.13176857 -0.18346137 0.52309 0.3080266 0.10810226 -0.42158383 0.16232917 -0.1010677 -0.43120858 -0.16042446 -0.1737573 0.09428579 0.21964292 -0.004189814 -0.09456353 0.27602318 0.019538855 -0.25350463 0.13661711 -0.23084286 0.14041089 -0.16350658 0.054745793 0.378244 0.114008844 -0.306533 -0.18561177 -0.2454056 -0.6403256 -0.30702564 0.084349185 0.1227556 -0.24040498 0.3193652 -0.05637917 -0.20299998 -0.120008804 0.02153017 -0.12658496 0.11786046 0.2573318 0.3884211 -0.03262494 -0.08450788 0.5271083 0.19827074 -0.22019255 -0.29698458
675 -0.3160788 0.06300862 -0.067360006 -0.31601053 0.16311459 0.26479065 -0.7174299 -0.54342103 0.26871017 0.019494444 -0.32223213 0.033358943 -0.1828322 -0.14241442 0.34536165 -0.28744063 0.0355664 0.19461206 0.27070922 -0.1260482 0.6771672 -0.06951069 0.12652932 -0.23994231 0.15052521 0.1335392 0.4690721 0.1987213 0.018281978 -0.06496426 0.043895643 0.1763057 -0.22296825 0.08515642 -0.21616828 0.23381066 -0.2397718 -0.101961814 -0.061207246 0.20324823 -0.11428579 -0.21109696 0.06173649 -0.037038565 0.08358003 -0.25355476 -0.303047 0.1255574 -0.013511936 0.29097098 -0.053689364 -0.04278017 0.2983477 0.5580395 0.12543704 0.29518697 -0.06194933 -0.29012313 0.00033646176 0.02980418 0.03785508 0.26953572 -0.004433152 0.041009713
101 0.1881589 -0.052315757 0.011506298 -0.018090412 -0.36838767 0.1891117 -0.10322385 -0.19872616 -0.17697172 0.1701294 0.3974763 -0.018599385 -0.4089331 0.14941506 -0.15114973 0.2565167 0.056270964 -0.2882649 0.51778346 0.3490565 0.18864769 -0.40554187 0.20760633 -0.11583484 -0.4134298 -0.0055078003 -0.17200719 0.0661288 0.34873465 -0.14849871 -0.15334494 0.36058334 -0.08007006 -0.34268734 0.17333809 -0.24789174 0.19572459 -0.14413698 0.05118331 0.29619774 0.11671718 -0.32000902 -0.21986987 -0.14742799 -0.60252154 -0.38427314 0.12095284 0.14867781 -0.30659983 0.25125524 0.018903932 -0.21940066 -0.043991953 0.026212603 -0.13748674 0.082942896 0.27423793 0.24879763 -0.019034743 -0.08228545 0.44891748 0.10424643 -0.246197 -0.32224113
211 0.20889117 -0.08635944 0.032294843 -0.05115295 -0.38869578 0.18770923 -0.2002938 -0.2624275 -0.23306206 0.13130186 0.35974306 0.03951339 -0.33910564 0.19210495 -0.17465732 0.16201605 -0.050099835 -0.33402798 0.43239334 0.31383592 0.054740075 -0.38448855 0.17585446 -0.067209214 -0.33739075 -0.03813646 -0.078221336 0.13879102 0.35759404 -0.14501816 -0.12905195 0.4232812 -0.04240104 -0.32247552 0.12478002 -0.24239768 0.26848614 -0.15700765 0.047906306 0.2618599 0.15804993 -0.35346425 -0.26889497 -0.14025967 -0.59292656 -0.33441368 0.09643609 0.11615831 -0.35887673 0.30676314 -0.036334552 -0.17720445 -0.1113974 0.117561 -0.1558435 0.07211648 0.28619155 0.33747694 -0.051092178 -0.04381621 0.53524864 0.110431135 -0.27662656 -0.35716343
470 0.18257146 -0.09077508 -0.026007853 -0.12857485 -0.30790803 0.21296698 -0.23387112 -0.17480619 -0.17462839 0.02824989 0.39648858 0.048513588 -0.34963137 0.063789256 -0.052793164 0.18710019 0.072337516 -0.20360161 0.5362317 0.40443859 0.08030279 -0.4582546 0.23481244 -0.06345406 -0.41512987 -0.11714099 -0.23017614 0.0036682612 0.23619068 -0.011138518 -0.13818161 0.3264517 -0.018615328 -0.24426681 0.11201984 -0.2865933 0.17756268 -0.0730571 0.0068051997 0.3497504 0.12883265 -0.33206758 -0.20954274 -0.25110522 -0.53770214 -0.40661165 0.20054089 0.15045904 -0.3513525 0.20794457 -0.07642617 -0.17946401 -0.054314934 0.03742759 -0.110180706 0.029831044 0.23184371 0.38480702 -0.07917127 -0.022265285 0.543614 0.12193111 -0.22323771 -0.2982485
287 0.21971282 -0.07318555 -0.015953107 -0.03985839 -0.30395436 0.1722695 -0.15828563 -0.27319565 -0.2670515 0.1247626 0.45007527 0.013577461 -0.3453849 0.059443526 0.036629017 0.19558199 -0.040887948 -0.24393748 0.5837385 0.32566965 0.099825546 -0.437073 0.15364924 -0.02967278 -0.39580932 -0.082469 -0.16982706 0.04745618 0.22274753 -0.04375373 -0.10749282 0.37878755 0.007579044 -0.3250522 0.18552816 -0.2844684 0.14902027 -0.07584919 0.06801643 0.42151973 0.15546334 -0.41547668 -0.23942822 -0.22476055 -0.57256603 -0.30577084 0.07861385 0.24872248 -0.24663001 0.20590499 -0.03704286 -0.1839136 -0.1300019 0.08830617 -0.18424465 0.08602411 0.2607061 0.32750022 0.04868244 -0.0026950939 0.47212458 0.08195363 -0.2991787 -0.25000778
828 -0.37911117 0.012390398 -0.0970877 -0.24912307 0.23154643 0.30199817 -0.8094143 -0.54994535 0.1401979 0.064119674 -0.32272232 0.07830221 -0.21374181 -0.06685954 0.3249598 -0.2289978 0.086712226 0.181132 0.29616585 -0.17561151 0.6133507 -0.17661163 0.04774551 -0.294281 0.08138697 0.09126179 0.44417244 0.19404688 0.15095991 -0.10375737 0.097620085 0.09153002 -0.19456567 -0.04276664 -0.23696323 0.23733245 -0.24217185 -0.118241735 -0.16442005 0.13846882 -0.15138373 -0.28142548 -0.024703734 0.022458069 0.08239476 -0.31803623 -0.32154712 0.023559172 0.035403077 0.29581496 -0.001278881 0.1108616 0.34699503 0.39607882 0.12713699 0.325929 -0.10320474 -0.2313472 -0.17261654 -0.03454661 -0.042566366 0.24959025 0.08913581 0.091668
263 0.3006579 -0.119727485 -0.007537564 -0.0874203 -0.3440434 0.17995219 -0.25808814 -0.23717852 -0.16780847 0.07484056 0.34595025 0.017432863 -0.33107972 0.07910315 -0.17321384 0.25289834 0.07233632 -0.10841411 0.4859651 0.28114396 0.08499334 -0.418677 0.2343156 -0.10079209 -0.43097374 0.002863244 -0.1529455 0.0044034333 0.22056335 0.0067692925 -0.08709884 0.3426328 0.08425878 -0.38264343 0.09283244 -0.3034915 0.21865313 -0.15247145 -0.0111407675 0.32535696 0.10551661 -0.33475956 -0.15513422 -0.20800027 -0.6253607 -0.40795034 0.1672401 0.07880901 -0.3703834 0.27414834 -0.025827534 -0.25965172 -0.21005943 0.08998996 -0.048336126 0.13810784 0.28934565 0.38055986 0.0043627587 -0.08674579 0.4623342 0.11206452 -0.17153582 -0.37009192
498 0.15306027 -0.091102205 -0.039782725 -0.04237888 -0.34107795 0.13914517 -0.21773855 -0.14336208 -0.17670052 0.05634493 0.50074923 0.025337951 -0.39532563 0.15228513 -0.09780889 0.30190948 0.16415656 -0.33056644 0.6112354 0.37508014 0.07625181 -0.4228268 0.25667492 -0.103110306 -0.49087828 -0.0071013505 -0.14069359 -0.008929604 0.20671919 -0.081387684 -0.2066799 0.31038114 0.041596793 -0.35951054 0.16478275 -0.2230853 0.12878536 -0.203091 -0.07789137 0.31741372 0.118584216 -0.3053462 -0.19352365 -0.20522206 -0.54972386 -0.2638989 -0.005646458 0.13212192 -0.29169068 0.23895401 -0.024204692 -0.23889612 -0.07743011 0.0929198 -0.123541474 0.056036085 0.3154197 0.30858132 0.016619388 -0.0061290367 0.46772897 0.23870566 -0.26856598 -0.19742155
82 0.23873015 -0.05452536 -0.049788248 -0.05574956 -0.3112168 0.20387234 -0.17827371 -0.20779227 -0.22817993 0.0800739 0.39524534 0.034285706 -0.38833246 0.17598632 -0.10238632 0.25023162 0.075075306 -0.23049316 0.49957472 0.30530602 0.07758919 -0.44524717 0.168196 -0.12540154 -0.4468739 -0.06615958 -0.1729868 0.06473711 0.28612843 -0.08727705 -0.06666635 0.36277318 0.04553249 -0.2809818 0.082245745 -0.26352617 0.19904286 -0.10069054 0.052081563 0.35102934 0.1822992 -0.30611953 -0.2179554 -0.24754408 -0.5629651 -0.37793568 0.14757797 0.09487032 -0.3381408 0.24681562 -0.007767047 -0.24372791 -0.09596504 0.064798355 -0.106824875 0.10211903 0.22402672 0.33033732 0.03392349 -0.08231133 0.47200724 0.133294 -0.27071476 -0.29033098
8 0.24868254 -0.093537144 -0.06342689 -0.02783652 -0.2917647 0.23779494 -0.16520505 -0.1716449 -0.24194504 0.002066634 0.38322136 0.14524503 -0.34008902 0.07402621 -0.120967686 0.28919345 0.05355397 -0.2376524 0.5540761 0.36326733 0.11317365 -0.47137746 0.15859723 -0.08300278 -0.38923723 -0.02873342 -0.12727737 0.05517465 0.35172454 -0.057940226 -0.15848619 0.31628177 -0.04644453 -0.3412102 0.026558466 -0.26286042 0.21501283 -0.06232224 0.005541961 0.2891759 0.16335799 -0.28493932 -0.18075004 -0.15370938 -0.6436576 -0.28796524 0.049372014 0.14878134 -0.25697502 0.23704454 0.011110598 -0.30006328 -0.079623766 0.07460843 -0.1649406 0.13769889 0.21106963 0.4169762 -0.010724798 -0.034765415 0.5177576 0.1253857 -0.2049583 -0.2826398
395 0.24605887 -0.082186304 0.04662304 -0.037272695 -0.3166865 0.18955885 -0.2035363 -0.20767488 -0.18923534 0.07052653 0.37646225 -0.0200921 -0.3641565 0.06087968 -0.11665114 0.25431973 0.012295018 -0.1848767 0.59463173 0.31316197 0.1217713 -0.39837223 0.11442781 -0.16155383 -0.405599 -0.13320313 -0.12536804 0.038880665 0.24754937 0.0056511285 -0.13008735 0.31412452 0.09619323 -0.3232471 0.1830278 -0.2871667 0.21276626 -0.1236696 0.019075207 0.32755297 0.13457252 -0.37769312 -0.17119442 -0.26067945 -0.5904954 -0.35307622 0.11708451 0.17580293 -0.26386565 0.22508577 0.012685572 -0.15568854 -0.11578159 0.062664114 -0.22468223 0.015896792 0.23486838 0.33360258 -0.010519891 0.052659143 0.5732518 0.16252962 -0.25135234 -0.24807632
611 -0.39560694 0.10329698 -0.07093154 -0.27719298 0.12490399 0.32486886 -0.8093031 -0.45045474 0.26484653 -0.002228747 -0.3147387 -0.010175713 -0.18533008 -0.054068763 0.20184292 -0.2337726 0.019648137 0.21280003 0.34888968 -0.18520135 0.69146776 -0.21366143 0.12894714 -0.22438514 0.14630789 0.18160588 0.47266856 0.28628758 0.030951558 -0.04315413 0.050646506 0.23437299 -0.10390815 0.043949403 -0.17801481 0.26298735 -0.25692368 -0.10339572 -0.17538558 0.17598955 -0.15404637 -0.19835773 -0.08463097 0.025274165 0.11985543 -0.32995152 -0.23398308 0.04114669 0.04673108 0.18425615 0.026377032 -0.015683297 0.31444857 0.4217461 0.12614535 0.3397013 -0.08449994 -0.3069171 -0.16510221 0.019265033 0.042063892 0.22373341 0.09512217 -0.010954138
845 -0.36034924 -0.117211685 -0.071992375 -0.21612956 0.24946424 0.26103556 -0.78148794 -0.54714006 0.24518311 0.012310191 -0.3853343 0.026818113 -0.21973202 -0.09683305 0.31454092 -0.22292934 -0.03866684 0.24121852 0.3041657 -0.17267165 0.65877676 -0.1687795 0.17015584 -0.26631072 0.13978618 0.093612015 0.40300313 0.28136685 0.10556556 -0.13732392 0.18999146 0.1807381 -0.18113749 0.039027203 -0.28320205 0.23019384 -0.23427673 -0.05942919 -0.021268962 0.19553746 -0.1605113 -0.17369725 -0.028244736 0.014468734 0.17152838 -0.32875985 -0.3209376 0.07068351 0.14135577 0.24145919 -0.06571196 -0.00025589298 0.26354638 0.41695377 0.10235323 0.26050058 0.033805735 -0.21817379 -0.1514661 0.1078219 0.051361248 0.23706236 0.0380175 -0.0810752
685 -0.30782312 0.060608953 -0.09449656 -0.308137 0.11715369 0.27988893 -0.76937324 -0.5076896 0.22404172 -0.07158307 -0.3322226 0.009726593 -0.15112463 -0.08254465 0.31976193 -0.25317246 -0.0035173153 0.13799617 0.2374974 -0.18693061 0.6622714 -0.138124 0.08438349 -0.20064102 0.11768769 0.1088224 0.44167227 0.20294066 0.06601954 -0.107935674 0.08382233 0.05274104 -0.291908 -0.00891326 -0.2759759 0.19045646 -0.2776002 -0.21360569 -0.07734404 0.29722235 -0.075611845 -0.31006196 0.11809891 -0.089697435 0.2012431 -0.27734628 -0.32055378 0.14566506 0.11225875 0.28727522 -0.12524658 -0.040863976 0.30651826 0.4291056 0.049837023 0.31686 0.044104114 -0.32190007 -0.03911892 0.09649972 -0.047430985 0.25933784 0.006959331 0.047427874
579 -0.40942138 0.00551799 -0.12700129 -0.24148408 0.22123508 0.25619262 -0.7061832 -0.63837683 0.24500442 0.045000017 -0.3946248 0.015819658 -0.17313005 -0.109114684 0.3389588 -0.21001558 0.11569139 0.2147143 0.31455413 -0.12994124 0.62467575 -0.10048806 0.069417305 -0.2776 0.05778196 0.23251 0.4414717 0.24857073 0.09154949 -0.1275048 0.0014016641 0.1416612 -0.21917836 0.045147404 -0.30477327 0.30352554 -0.2260457 -0.121613346 -0.08738822 0.17384605 -0.10693788 -0.23685282 0.015715871 -0.058737613 0.122417405 -0.30066904 -0.3251154 0.07480093 0.04822029 0.28962594 -0.02375272 -0.0044515794 0.338389 0.3652891 0.07251191 0.24916632 -0.010111788 -0.24435583 -0.043850005 -0.058160942 -0.03022803 0.23522525 -0.017825617 0.00796835
247 0.19071357 -0.13491611 0.0248342 -0.053030357 -0.32769272 0.12565465 -0.15528934 -0.0938059 -0.29228726 0.07964712 0.46785533 0.035373136 -0.3348638 0.12899917 0.02532434 0.23495813 0.08049401 -0.23997319 0.49328443 0.3249815 0.16611852 -0.4845222 0.20526221 -0.09014467 -0.39885372 -0.03719578 -0.08995281 0.030210307 0.30110604 -0.14957099 -0.09206334 0.2583177 0.06346667 -0.24559048 0.25906715 -0.23314041 0.081163116 -0.10093268 0.031261083 0.29019174 0.17610836 -0.4349432 -0.24472839 -0.23650518 -0.6140853 -0.34078306 0.13695899 0.27997687 -0.31942704 0.27225977 0.029582888 -0.31325868 -0.062685736 0.0736956 -0.09620174 0.06622622 0.25603473 0.40462366 -0.068928115 -0.106350005 0.44347093 0.20940289 -0.25743866 -0.20793198
438 0.12830196 -0.052110046 -0.050929222 -0.103863515 -0.32623103 0.25422215 -0.20523919 -0.26214033 -0.11166866 0.0551888 0.48236775 -0.09622738 -0.34957716 0.16297816 -0.07425948 0.24797562 0.078112595 -0.24018049 0.5260993 0.3583191 0.05271818 -0.3728332 0.20882826 -0.06211028 -0.41823655 -0.06700726 -0.25245798 -0.005493788 0.20562431 -0.038588442 -0.14316402 0.37745214 -0.018047024 -0.2777231 0.122331396 -0.23268749 0.20702752 -0.14309403 0.08781525 0.29869547 0.092097424 -0.37705976 -0.073518574 -0.25371775 -0.5844418 -0.4060771 0.14784117 0.07207977 -0.3458171 0.2247855 0.010800419 -0.09421969 -0.018409887 0.12113607 -0.13151808 0.042996395 0.26619112 0.33221063 -0.07043624 -0.09902775 0.5513673 0.100297526 -0.28145912 -0.36303893
688 -0.45607027 0.051400557 -0.16612174 -0.33958548 0.22227797 0.24033068 -0.80825084 -0.5398376 0.25277856 0.014498153 -0.3937576 0.0008411058 -0.16664857 -0.0918729 0.3074888 -0.23805082 0.0052240323 0.14676097 0.2472648 -0.08428957 0.6101659 -0.14581998 0.11801971 -0.21297945 0.07173494 0.066023834 0.38585678 0.20340672 0.06063977 -0.0220369 0.05454921 0.096923485 -0.29959324 -0.07742339 -0.2235192 0.25657427 -0.20793536 -0.162245 -0.10977804 0.2952614 -0.14477216 -0.3181804 -0.036481213 -0.030383656 0.15956594 -0.28289557 -0.30884877 0.097876206 0.019444345 0.22422 -0.1257337 -0.061239813 0.27651742 0.40553093 0.0979376 0.29936478 -0.036326434 -0.3056333 -0.10295579 -0.016459372 0.032093544 0.24726848 -0.01616797 0.03567651
971 -0.36092675 0.051705036 -0.1225 -0.35756886 0.15806992 0.35362986 -0.7451175 -0.5160129 0.29432255 0.012958943 -0.38144454 -0.021049593 -0.20819178 -0.11864612 0.21770494 -0.27310687 0.06611436 0.12845938 0.26452973 -0.1399194 0.6291185 -0.15933058 0.09779589 -0.20491679 0.18306215 0.088499606 0.44860777 0.17181142 0.0625528 -0.17580378 0.12393702 0.077174336 -0.22209966 0.035817847 -0.29974377 0.270995 -0.19913808 -0.10895692 -0.045575988 0.1961248 -0.14421958 -0.25684944 -0.049759105 0.018366205 0.10880016 -0.23447396 -0.32410464 0.1255665 -0.017840605 0.36183757 0.029281765 -0.0055172825 0.3302595 0.3818149 0.14007302 0.28115726 0.016900908 -0.2847661 -0.1329125 0.031892303 0.0635377 0.26316094 0.03467879 -0.018231295
65 0.1886414 0.02714076 -0.07475844 -0.06292662 -0.2214184 0.13675967 -0.17534606 -0.23264249 -0.21272151 0.06662725 0.3893702 -0.0056583197 -0.39305466 0.18251374 -0.03565163 0.2368159 0.013431742 -0.23869257 0.5506493 0.29679328 0.053951167 -0.29955465 0.14987041 -0.036207248 -0.46423244 -0.10985609 -0.1739697 0.09850576 0.26974618 -0.05721182 -0.09564279 0.3560361 0.036576435 -0.2943782 0.18886255 -0.21298623 0.20246542 -0.09878725 0.023514198 0.4240023 0.07161628 -0.32868022 -0.12918587 -0.2569612 -0.630917 -0.40297946 0.10356583 0.15964942 -0.2751148 0.22603525 -0.03770043 -0.15115638 -0.1560175 0.04993304 -0.08286431 0.03442032 0.1704294 0.45143974 -0.09638153 -0.027412256 0.64150745 0.18196943 -0.26045492 -0.23585293
313 0.19275294 -0.03424179 -0.098924 -0.10624533 -0.242935 0.16754575 -0.21749403 -0.19031465 -0.2271554 0.032997932 0.37066174 0.08300673 -0.37250304 0.15113507 -0.041069847 0.21214941 0.11088972 -0.25312388 0.5518714 0.25596434 0.017199105 -0.38388255 0.19026668 -0.23779021 -0.37557414 -0.06557357 -0.20512345 0.00944823 0.2636213 -0.034289803 -0.13397363 0.2622522 0.033359896 -0.289362 0.09530595 -0.30312073 0.22179063 -0.1108317 0.13364244 0.30596492 0.17476708 -0.32308975 -0.22969416 -0.33014446 -0.5973499 -0.28183258 0.16058388 0.11206272 -0.4362901 0.34184873 0.030920677 -0.18349817 -0.08709812 0.1525478 -0.08289408 0.11899214 0.23590945 0.47694647 0.083498396 -0.0331764 0.4964751 0.15579195 -0.24587812 -0.22997619
95 0.14981937 -0.13625276 -0.048476137 -0.10387193 -0.3499511 0.11406996 -0.14429356 -0.13898158 -0.31484947 0.028267417 0.39590132 -0.02122975 -0.36237118 0.20073187 -0.062227115 0.30511168 0.04781739 -0.3221558 0.56143016 0.32365608 0.16987897 -0.474155 0.2191114 -0.11837895 -0.32487985 -0.05078743 -0.079890504 0.11252816 0.2900932 -0.0312023 -0.1067513 0.32966524 -0.03871012 -0.15247594 0.20819691 -0.34027514 0.16648243 -0.13491163 0.09273032 0.30698904 0.08807264 -0.31276426 -0.3098337 -0.23649132 -0.55633503 -0.30877605 0.057048235 0.11446039 -0.31437346 0.2639613 0.030830866 -0.30025947 -0.11266863 0.11197643 -0.11093284 0.044334535 0.28054368 0.39992633 0.070873074 0.002406783 0.45664194 0.18208826 -0.29738048 -0.22180738
200 0.20520498 -0.08660416 -0.026942784 -0.1794869 -0.2795519 0.26507917 -0.22580291 -0.18519786 -0.27157992 0.07286881 0.48414767 0.046779044 -0.4234734 0.11404783 -0.052790467 0.27204153 0.095013954 -0.1798711 0.50863606 0.37438187 0.05117428 -0.45031244 0.21113133 -0.11088509 -0.48842523 -0.043996327 -0.13749622 0.071390174 0.26480207 -0.02575911 -0.106533095 0.29651535 -0.04586929 -0.22094867 0.16396582 -0.24422684 0.22065593 -0.07774906 0.0430404 0.36129883 0.10193392 -0.23171741 -0.2033113 -0.24643485 -0.6509466 -0.23004906 0.13990203 0.09876766 -0.23760416 0.27348804 -0.0016678022 -0.27610475 -0.0035002672 0.09754733 -0.1717085 0.091145284 0.16039808 0.37635228 0.029749691 -0.06824076 0.47949576 0.12679876 -0.2520699 -0.21149486
980 -0.2831703 0.055047978 -0.14635031 -0.27464497 0.14595905 0.31120232 -0.7412998 -0.46823663 0.2910282 -0.04391423 -0.3717592 0.0021803295 -0.31896746 -0.12953416 0.23143956 -0.26439145 0.0117953485 0.17814444 0.3724615 -0.1797644 0.6178097 -0.17343824 0.21055064 -0.28684857 0.1959968 0.15398249 0.4299853 0.29993322 0.03578821 -0.116666526 0.12992753 0.15322016 -0.18101248 0.011098544 -0.2514211 0.2848748 -0.1832653 -0.097356565 -0.10831567 0.11273286 -0.16095223 -0.24507129 0.13149858 -0.11987362 0.13992055 -0.36514094 -0.246245 0.013822615 0.059383072 0.2590027 -0.014151477 -0.07200456 0.33501735 0.41579324 0.14732298 0.2791057 0.057047565 -0.29024994 -0.10662619 0.015041124 -0.0072621354 0.26565856 0.09364251 0.019911345
735 -0.40498444 0.05979997 -0.15873763 -0.28600165 0.15006223 0.25191692 -0.6578684 -0.47555637 0.26798075 0.052416783 -0.3251173 0.042172838 -0.1062825 -0.1335121 0.26807162 -0.30822814 0.090058185 0.19249351 0.35811362 -0.14364903 0.6917896 -0.13791631 0.1202641 -0.20040232 0.09617004 0.14665912 0.4750744 0.31598225 0.101283535 -0.019140879 0.19556233 0.21640328 -0.21683379 0.015570544 -0.19421127 0.2299381 -0.17634596 -0.12701686 -0.004295858 0.19262731 -0.07131782 -0.18109974 0.01858653 1.886046e-05 0.0902465 -0.28608775 -0.28274503 0.14499718 0.0736571 0.2876873 -0.055068154 0.041294113 0.3669378 0.49998862 0.07309829 0.2692207 -0.063937105 -0.36514887 -0.11955903 0.03324322 -0.022688005 0.33461845 -0.043911766 -0.042248845
929 -0.2421431 -0.01655048 -0.028544921 -0.3643697 0.24032906 0.31142068 -0.7400783 -0.55556625 0.32927924 -0.0038514598 -0.36529797 0.025716366 -0.15980786 -0.15462765 0.26953626 -0.24825 -0.013837682 0.15664406 0.25662646 -0.16584371 0.5969867 -0.17648505 0.11649035 -0.22917984 0.050295833 0.15185717 0.49176452 0.21606825 0.039778493 -0.22532624 0.18723203 0.11335083 -0.22821558 -0.086533755 -0.28611463 0.2227048 -0.21786404 -0.20190744 -0.068454765 0.23089202 -0.14064054 -0.21630856 0.01124709 0.06522526 0.1211783 -0.22031818 -0.31065062 0.019036306 0.035265684 0.36842686 0.11575804 -0.049487498 0.24825552 0.4477728 0.14764476 0.33280888 -0.037206344 -0.25245768 -0.13175742 0.10128291 0.11192334 0.2689164 0.040888336 0.0322536
533 -0.38005584 0.12907939 -0.2125615 -0.3638422 0.18999267 0.27876672 -0.70797163 -0.5661346 0.26072836 0.039079897 -0.4004394 0.00596136 -0.21855474 -0.0961068 0.28548968 -0.15561932 -0.0072235647 0.14424129 0.28506413 -0.15893905 0.6051646 -0.13299815 0.14140679 -0.18629557 0.14886294 0.03587443 0.4157951 0.18423712 0.06339727 -0.1250992 0.08891046 0.16241553 -0.2963183 0.03706639 -0.20480411 0.25863636 -0.21709108 -0.13058975 -0.09505981 0.2206507 -0.17750697 -0.25149512 0.040453956 -0.07122143 0.061997175 -0.23684615 -0.32873243 0.08193909 0.034902174 0.27213863 -0.035324916 0.01476873 0.3544196 0.5322796 0.12600696 0.20298289 -0.04083472 -0.34149423 -0.0758192 -0.023716347 -0.08327942 0.2653216 -0.039726064 -0.062221102
69 0.34575412 -0.120930076 -0.043510087 -0.05849275 -0.372181 0.16309282 -0.20841008 -0.20219518 -0.2256036 0.10563383 0.35537937 0.1300733 -0.39003035 0.08140164 -0.04889752 0.16200519 -0.0137131885 -0.23001722 0.5340836 0.24155729 0.15302686 -0.4285791 0.17266366 -0.06038328 -0.45546713 -0.097074695 -0.090206936 0.068783015 0.25940856 0.013189542 -0.10549458 0.33314204 -0.026859732 -0.24193513 0.0720139 -0.2879459 0.18871696 -0.11174589 0.0031548569 0.33630088 0.21017468 -0.34475994 -0.27559978 -0.23005992 -0.66533774 -0.22907466 0.16720377 0.15562992 -0.31633452 0.31661946 -0.031512354 -0.25462243 -0.1437359 0.018668272 -0.052058104 0.1833473 0.19667463 0.37805307 0.0077645965 -0.13578673 0.49432677 0.08862137 -0.20755963 -0.25543052
49 0.2771056 -0.04761776 -0.06699842 -0.028300203 -0.31348193 0.21959098 -0.23820275 -0.21182662 -0.1451111 0.10800412 0.42833143 0.051196694 -0.39189014 0.119997874 -0.07359272 0.2439584 0.0482742 -0.15271938 0.5154305 0.258208 0.055942267 -0.40026864 0.15202439 -0.13218543 -0.5307739 -0.07983982 -0.16049112 -0.0066342303 0.20405358 -0.0043350854 -0.01739281 0.3532931 -0.007962197 -0.23697668 0.057924498 -0.2212753 0.19560422 -0.08764028 0.026618639 0.3380917 0.18488716 -0.41313425 -0.22809169 -0.2611631 -0.6100724 -0.32419986 0.18016395 0.17910555 -0.2665764 0.25644907 0.03092045 -0.16031982 -0.13101201 0.0906093 -0.08661497 0.15031375 0.19510795 0.40396318 0.0008056126 -0.11649826 0.55493766 0.08879422 -0.25069147 -0.2811698
867 -0.3914152 0.045983665 -0.13088234 -0.2994471 0.19093041 0.32925564 -0.72352695 -0.63435745 0.20474459 -0.12592039 -0.30631137 0.0058459667 -0.17509268 -0.064877324 0.30803096 -0.18400992 -0.015308973 0.18410577 0.282838 -0.11642709 0.62867767 -0.12311276 0.11862984 -0.240252 0.06178897 0.17896743 0.49541885 0.21253583 -0.008414141 -0.034884296 0.11771882 0.19450486 -0.20243058 0.013263629 -0.2659591 0.22044817 -0.2739808 -0.1237301 -0.094223924 0.1486418 -0.20607933 -0.22569174 -0.03278968 0.018451348 0.123980105 -0.21407811 -0.35023463 0.0799213 0.010989975 0.27972466 -0.00031443356 0.028677206 0.24175265 0.3994502 0.03533729 0.36854398 -0.095519826 -0.3007052 -0.17383322 0.03169488 -0.0014290934 0.29553786 -0.06848772 0.017870493
949 -0.37253344 0.09037143 -0.05078256 -0.2915059 0.21921039 0.26278397 -0.7261564 -0.49215156 0.26933435 0.07046817 -0.23741524 -0.036911737 -0.1414806 -0.07356276 0.25840005 -0.23130685 -0.003250213 0.24133247 0.34914905 -0.1454418 0.67893475 -0.19433835 0.17703535 -0.20490903 0.17056024 0.13229382 0.47920445 0.28270453 0.08080232 -0.045811296 0.08518658 0.21418193 -0.1468421 0.006923795 -0.23960197 0.22939146 -0.31149498 -0.060642887 -0.067399435 0.1361923 -0.12303518 -0.1590774 -0.050982613 0.00591058 0.08628563 -0.27707916 -0.30172482 0.11347187 0.003328431 0.2654436 0.05152423 -0.048620682 0.35212368 0.43893832 0.13845617 0.28793612 -0.057474334 -0.37461403 -0.15164171 0.07554066 0.037891902 0.27739576 0.08822528 -0.1416139
763 -0.348001 0.08349998 -0.10317616 -0.3743225 0.2057499 0.22593285 -0.7341741 -0.5250025 0.29064563 0.06172691 -0.38833272 0.01453871 -0.2715073 -0.13242114 0.22172147 -0.22657105 0.08916974 0.1486749 0.37612742 -0.121794626 0.5828556 -0.08789982 0.10542592 -0.22562684 0.18911922 0.12968178 0.4729718 0.2527695 0.09625512 -0.031890366 0.1119662 0.21155597 -0.2668751 -0.040140983 -0.27835503 0.3082244 -0.15429343 -0.07263512 -0.023913473 0.2549851 -0.06524021 -0.09511422 0.024975317 -0.020369535 0.08043073 -0.32142326 -0.2772584 0.05223466 0.06841699 0.2717068 -0.04316847 -0.06496771 0.32531488 0.440256 0.092790514 0.21660551 -0.036962308 -0.3495032 -0.048135757 0.03897695 0.021480754 0.32291627 0.07726548 -0.050799828
677 -0.34101588 0.08464495 -0.04610406 -0.23838711 0.13569322 0.33902743 -0.7382709 -0.63036036 0.18675393 0.010431726 -0.24068744 0.039586358 -0.13815239 -0.1149728 0.33125433 -0.21086283 -0.017936556 0.18875459 0.2978104 -0.20785111 0.67378 -0.15122803 0.058277473 -0.17374542 0.18573892 0.11002838 0.45242143 0.2322939 0.082621075 -0.10257983 0.035766628 0.13087268 -0.22666797 0.041524827 -0.19988455 0.29427302 -0.31113762 -0.12562366 -0.14070252 0.20131542 -0.020392185 -0.23554549 -0.016705409 -0.07591757 0.093848 -0.31453162 -0.3536013 0.15209663 -0.022259286 0.2500535 -0.094799556 -0.09304102 0.2916777 0.4338859 0.100648224 0.32686058 0.024613619 -0.36921448 -0.104495645 0.053040072 0.020855512 0.15741466 0.068056986 0.0130086
364 0.19988568 -0.08289377 0.021588005 -0.1245566 -0.30510524 0.26815015 -0.21187916 -0.12432277 -0.18425922 0.09911529 0.40817937 0.017885612 -0.32572615 0.002759038 -0.054893307 0.21460111 0.14785394 -0.14749987 0.568016 0.34421426 0.06705405 -0.43649867 0.26105157 -0.14456818 -0.40625092 -0.14838608 -0.19837412 -0.018647447 0.18387689 0.0602101 -0.1478045 0.34518766 0.04944657 -0.17319465 0.1296082 -0.28338584 0.1874335 -0.097773015 0.048368003 0.384354 0.15768044 -0.39644918 -0.2375644 -0.29908296 -0.61679024 -0.35634547 0.11606363 0.122305326 -0.3727833 0.20618334 0.027418202 -0.092517845 -0.105188705 0.11059957 -0.14090954 0.17071481 0.24809821 0.3598458 -0.09010191 -0.04494218 0.52545923 0.17530116 -0.18926394 -0.2504062
259 0.15021712 -0.100206524 -0.0047909543 -0.057365853 -0.27218387 0.12772928 -0.18956865 -0.17218836 -0.26098698 0.070213966 0.48883885 -0.019760137 -0.38694015 0.09012482 -0.027846655 0.25508267 0.13418171 -0.25480992 0.5525677 0.39387053 0.08230469 -0.49969837 0.18038523 -0.08168085 -0.3402956 -0.078422524 -0.16118817 0.08767241 0.2684532 -0.080795124 -0.13383333 0.3302464 -0.0051611774 -0.28838903 0.16141583 -0.27209133 0.19321617 -0.110559724 0.008971234 0.33423495 0.18112226 -0.34211227 -0.22538258 -0.27514654 -0.546496 -0.31375736 0.058222745 0.1564415 -0.3028658 0.29621258 -0.08764788 -0.11378573 -0.075348705 0.024532044 -0.17684852 0.13441357 0.27293056 0.31420398 -0.02008379 -0.011586728 0.5023226 0.13237585 -0.21840109 -0.2837716
397 0.18105762 -0.15851577 0.058134153 -0.09372187 -0.35092986 0.15722896 -0.18507923 -0.118522085 -0.28617686 0.09258757 0.41514662 0.058059324 -0.2897197 0.08467998 -0.047272574 0.23753242 0.11294365 -0.2740774 0.47109768 0.31164283 0.045254868 -0.43791878 0.23505056 -0.08567032 -0.45522964 -0.019041674 -0.025301635 0.09094423 0.30155772 -0.05372064 -0.103443526 0.32180208 -0.034105316 -0.2572156 0.17614554 -0.32885155 0.15742026 -0.10607361 0.04027047 0.34418032 0.13610801 -0.36972752 -0.20988253 -0.26234522 -0.61021775 -0.31977352 0.07987088 0.1912667 -0.2362575 0.3383102 0.012416452 -0.12217797 -0.05255448 0.050226867 -0.12187468 0.062102024 0.27043182 0.41388455 -0.013766445 -0.08619792 0.577875 0.12010604 -0.22797437 -0.22315152
192 0.26274496 -0.022841727 0.009963674 -0.07412778 -0.28880206 0.2132103 -0.18763386 -0.14179276 -0.25060117 0.048426453 0.4377807 -0.033572648 -0.39478177 0.1558602 -0.0813244 0.20685154 0.07816858 -0.19428237 0.5208256 0.26661518 0.07966729 -0.43165854 0.13837601 -0.020297162 -0.3372341 -0.16084535 -0.1302074 0.034865648 0.26066378 0.040152714 -0.12793641 0.26984125 -0.077339 -0.29023176 0.13175331 -0.27561232 0.19548063 -0.06001825 0.032677732 0.37210214 0.077740975 -0.27302167 -0.24048147 -0.2844847 -0.5928987 -0.3032826 0.121228 0.22480851 -0.25448537 0.34603903 -0.01483777 -0.17900936 -0.045531213 0.04256497 -0.17778035 0.107649714 0.26098958 0.41776058 -0.061989736 -0.03143224 0.59249043 0.159719 -0.28118423 -0.29882723
773 -0.28824505 0.0028193553 -0.13387862 -0.32462245 0.21923357 0.27147686 -0.75649214 -0.57472616 0.38621604 -0.028992083 -0.42809916 0.0038885807 -0.12927803 -0.1833577 0.28203076 -0.2135155 -0.0023663274 0.13804424 0.26100114 -0.12188454 0.55718136 -0.15604727 0.068940826 -0.23824124 0.08357018 0.10347728 0.47494102 0.22194597 0.012053569 -0.08665669 0.10530908 0.08545898 -0.27777937 0.01445261 -0.33496606 0.2566226 -0.1860064 -0.12285755 -0.07326649 0.32087815 -0.030822795 -0.28302965 -0.026171964 -0.016849415 0.15957086 -0.19269304 -0.31357118 0.06547212 0.060050387 0.30265984 -0.0057690386 -0.02960704 0.35691914 0.41214567 0.07192085 0.27569526 -0.05130032 -0.26329383 -0.105087936 0.045286637 0.052015882 0.30929223 -0.03587359 -0.014107471
4 0.20107305 -0.097546846 -0.014823847 -0.114942364 -0.23340885 0.23408744 -0.17767127 -0.22399245 -0.22664174 0.15093309 0.41302657 -0.022496996 -0.33384058 0.16018824 -0.03426154 0.19186863 0.07408108 -0.2882686 0.4803579 0.34279838 0.040649425 -0.39671862 0.23211555 -0.04533843 -0.4149479 -0.07561677 -0.13467641 0.068862766 0.28797168 -0.028367134 -0.071935184 0.298075 0.022277975 -0.2721647 0.12995504 -0.3317587 0.23782086 -0.08395905 0.039280884 0.3235369 0.11168582 -0.30144924 -0.21435553 -0.16921133 -0.61250186 -0.37685946 0.17669718 0.13693587 -0.33156627 0.30133563 -0.09112861 -0.23720844 -0.049586195 0.055587403 -0.06226761 0.048805453 0.24063954 0.3708385 -0.03903885 -0.068641946 0.5185254 0.19324231 -0.25725833 -0.3287113
242 0.21784031 -0.040941704 -0.057719197 -0.06514655 -0.33792737 0.24894656 -0.20366296 -0.18284467 -0.18849608 0.14291182 0.43576652 0.08423057 -0.42546943 0.068439804 -0.090902604 0.22934 0.035844833 -0.23527004 0.504294 0.28302127 0.09062829 -0.47857165 0.1327929 -0.02032295 -0.36113873 -0.0561693 -0.12678817 0.02986477 0.26582322 -0.065860935 -0.08358623 0.36563674 0.02245494 -0.21078202 0.09312479 -0.31671488 0.14914729 -0.03447217 0.011297939 0.2958942 0.10176232 -0.38743657 -0.23043934 -0.21539856 -0.7015645 -0.31962714 0.059123036 0.17763749 -0.33641586 0.264668 0.017413225 -0.30672857 -0.08916131 0.100038536 -0.20882943 0.2117303 0.21728504 0.34287608 -0.07853489 -0.08754095 0.45633695 0.09610573 -0.26401046 -0.20026568
188 0.17416373 -0.11696168 -0.012152174 -0.07048771 -0.3712574 0.20006552 -0.17596176 -0.2405611 -0.18419965 0.06806213 0.39530367 0.06556626 -0.4082135 0.09968126 -0.09454145 0.25651628 0.05478643 -0.21221578 0.42766142 0.3372646 0.0792871 -0.52472603 0.17461887 -0.11587943 -0.42470643 -0.06490669 -0.07582081 0.026782386 0.34169653 -0.14555553 -0.15341935 0.31386214 0.03970567 -0.17174688 0.16627671 -0.28099078 0.079131685 -0.012901965 0.045719776 0.2337016 0.15904355 -0.32139263 -0.19843695 -0.12059351 -0.57782775 -0.3339762 0.16834341 0.23137006 -0.3524301 0.2766823 0.027132431 -0.2636679 -0.117350385 0.084551044 -0.071758546 0.097351134 0.3024766 0.36868107 -0.14173552 -0.09298364 0.54715234 0.15225053 -0.25050017 -0.34270704
245 0.19187292 -0.081964076 -0.04237483 -0.10161553 -0.385253 0.11539747 -0.20983575 -0.22714157 -0.25110728 0.08636766 0.45720592 0.04097725 -0.33016852 0.12489609 -0.07127702 0.28375837 0.06174704 -0.22556466 0.51113534 0.32139227 0.06478004 -0.5067298 0.19730523 -0.08316395 -0.44140393 -0.042227186 -0.058437113 0.16078506 0.29596207 -0.09160245 -0.12562205 0.34261212 0.048078317 -0.14801686 0.15317294 -0.24156797 0.08944233 -0.07342019 -0.013833669 0.3646932 0.141877 -0.31710866 -0.23048341 -0.16565356 -0.6107755 -0.27406815 0.058700506 0.16231278 -0.26025048 0.2982481 -0.012117026 -0.22150385 -0.10004407 0.1073206 -0.01766954 0.043437824 0.32396528 0.3901216 0.022045828 0.019478288 0.53212607 0.123662464 -0.30227044 -0.28357494
946 -0.377412 0.069439046 -0.04659252 -0.36557028 0.1769313 0.33446455 -0.6987314 -0.49052742 0.2235973 0.019276012 -0.30861285 -0.0018712373 -0.123793386 -0.09346224 0.2528629 -0.20877561 -0.037784304 0.20623234 0.3416009 -0.12508994 0.65810335 -0.28277385 0.1298049 -0.22276473 0.0836735 0.1652307 0.5266512 0.20552431 -0.0040546986 -0.14012906 0.09613976 0.1125052 -0.20714957 -0.020313531 -0.19707263 0.21368772 -0.21941997 -0.16310953 -0.082881235 0.15786977 -0.19993848 -0.22381638 -0.023893517 0.11473779 0.15664694 -0.30069065 -0.28706232 0.07149736 -0.015227821 0.29975653 0.04343814 0.03386126 0.29825112 0.43951458 0.18551877 0.3009618 -0.096334845 -0.29932362 -0.16631766 0.01869814 -0.008038868 0.28018698 0.008649021 0.017468777
544 -0.4171599 -0.036887858 -0.15811811 -0.24941629 0.21396415 0.18523821 -0.7741117 -0.4302065 0.2565195 0.090375006 -0.32624745 0.031115692 -0.23060745 -0.11524659 0.18111734 -0.2695847 0.04358298 0.19436932 0.3236696 -0.15412626 0.70667267 -0.23483562 0.05038232 -0.23248619 0.13612044 0.10840884 0.4049309 0.37027428 0.094275214 -0.08758471 0.14149627 0.22173603 -0.2167318 -0.10940749 -0.19521907 0.30697456 -0.20143382 -0.03246903 -0.04625818 0.16966867 -0.14341849 -0.18561773 -0.01636422 0.0013511204 0.20754775 -0.35467544 -0.31381544 0.10075259 0.032916617 0.30281642 -0.025601225 -0.023873733 0.35278973 0.38324177 0.11822878 0.2295747 0.013847045 -0.28828698 -0.12020985 0.09139927 0.049746167 0.28802 0.067494385 -0.06190871
275 0.20864245 -0.06344626 -0.01460127 -0.00018200398 -0.3334916 0.15350235 -0.23374881 -0.14601184 -0.30472052 0.0035717352 0.37825748 -0.015375118 -0.32370052 0.16298367 -0.0009020158 0.19874434 0.069532014 -0.14898442 0.5574074 0.34572485 0.049161736 -0.4580009 0.1947843 -0.11721026 -0.48878336 -0.0071762684 -0.056147747 0.058576923 0.30262056 -0.03639971 -0.10558315 0.42154276 0.037243698 -0.2635379 0.18715487 -0.22394039 0.11683119 -0.15821533 -0.035200432 0.3701595 0.15050234 -0.3613001 -0.19314721 -0.20656058 -0.6032111 -0.30519545 0.09545595 0.092345044 -0.33107337 0.21987663 0.00917328 -0.13443677 -0.22565655 0.067756124 -0.009286284 0.12797184 0.31848878 0.34376454 -0.02413728 -0.042131774 0.51690996 0.18079467 -0.25197974 -0.2921801
615 -0.28130928 0.07034808 -0.081997454 -0.3787338 0.13761154 0.27147374 -0.67097163 -0.532161 0.20066197 -0.10002809 -0.3393026 0.044577286 -0.14677353 -0.13246676 0.28756317 -0.20746754 0.017970156 0.19231223 0.2912365 -0.10309165 0.6810406 -0.17437245 0.19077456 -0.286182 0.19792342 0.17289282 0.41077593 0.15200539 -0.006963049 -0.10648531 0.07792821 0.07064917 -0.30099687 0.0087510925 -0.32235828 0.24905919 -0.2560349 -0.17324248 -0.017014362 0.18079795 -0.120951906 -0.2547329 0.13912071 -0.025429359 0.08789155 -0.31569585 -0.31013379 0.1717624 -0.014021846 0.30921006 -0.121345684 -0.030024769 0.26173183 0.49864537 0.016300293 0.26584724 -0.09602331 -0.39479122 -0.068015285 -0.016649198 -0.000676435 0.31763604 -0.018875614 0.070171334
220 0.17883404 -0.039471634 -0.059127603 -0.09277814 -0.22675301 0.31018367 -0.2494595 -0.20550162 -0.2746518 0.041658614 0.47622225 0.028588321 -0.38933185 0.081107736 -0.0005792754 0.1442023 0.042144936 -0.25236496 0.4609778 0.3223184 0.033125915 -0.46647352 0.2000147 -0.013385311 -0.36263773 -0.19368966 -0.22055036 0.021224577 0.26180428 -0.0956086 -0.16957125 0.2826411 -0.00040258322 -0.291957 0.13285944 -0.2842 0.19197251 -0.08602295 0.09223176 0.31975076 0.14605395 -0.3370147 -0.24781354 -0.23561077 -0.5881465 -0.35038233 0.17536975 0.14766248 -0.36561936 0.3176275 -0.07969317 -0.20058167 0.049947657 0.13306561 -0.15478428 0.005041189 0.28291866 0.3571203 -0.086996496 -0.06287668 0.47296438 0.11977413 -0.2715919 -0.30050465
