5908 64
3008 -9.065911 -5.358627 -3.0778093 -2.09957 -0.57352406 -6.824058 10.588601 -1.1488653 0.15835986 4.907786 2.7923932 -13.641562 8.011771 4.6372275 3.8521721 -5.3526697 4.957969 -10.066523 1.3068215 -2.2367675 5.3879247 -3.191955 -1.8474098 1.1568332 -2.0248847 -0.1799317 -3.1001992 -1.4071198 -5.0879188 -7.508167 1.6605148 -1.8256303 1.6726594 6.78055 0.98613954 4.96187 -3.6906354 4.0204835 2.7935026 1.3608427 1.0659964 -5.247085 -2.0209272 1.8437992 -1.6659418 4.2860355 0.44442877 2.8719277 -1.8421534 7.150598 3.629973 -3.4973915 7.7481227 -10.776719 0.9979786 3.7493646 1.9232527 -9.718346 4.6797533 4.07978 -3.697102 0.7570494 8.808532 -2.7090714
1864 -0.6760957 8.710228 4.895992 2.9507782 0.34740332 0.9898061 5.3409166 1.8266963 -1.0062472 0.657961 -0.29246342 0.17505263 0.75308895 -4.0545063 -1.8020476 -0.19250606 -8.204042 2.7745001 11.404888 5.6893706 -4.0713778 3.6696951 4.4986067 6.5162063 -3.4620597 -3.6803153 9.164287 -10.204011 0.90403944 3.6210241 2.9229867 0.5230297 0.14388825 0.10696895 -5.228697 -8.40203 17.548664 -7.180545 -4.2609196 4.6347756 -5.165721 -11.496453 -6.133926 -1.5075945 -1.7001913 2.6609652 -2.4776378 -6.8499856 -1.7615361 5.0303607 7.259609 1.4827148 6.195693 6.4070034 7.3877153 -7.017762 4.709658 -0.6983343 0.4285305 3.9581573 -1.2675256 2.253153 5.023047 -2.412106
5800 5.28238 1.905955 2.3119423 -0.16562039 3.1896272 -1.5058343 -6.1886415 -0.13413104 -3.18006 1.3181937 -6.1316123 6.0691204 -3.3358436 3.8921876 -11.155914 -10.798017 -6.401609 -4.6089597 -5.137126 6.327589 6.3158636 -4.075941 -1.6541778 -4.661845 9.221856 1.950756 -1.334733 -4.459481 -6.2137218 2.374965 9.24054 3.0447576 -13.814058 -11.087777 6.541643 10.012991 -4.602221 -0.5954971 -9.580971 1.9767281 -3.0448496 -10.2778425 1.8003141 -2.6576047 3.755954 -11.958144 4.41581 -2.9673257 -4.634116 -3.4981248 -8.817079 4.429848 -4.9655256 -4.926591 9.914014 4.5637417 1.449997 -0.54554856 6.1647954 -1.2583228 -0.33954978 -2.8197882 -3.6072671 -1.4767647
4874 -4.0235043 -0.035333578 1.4015477 4.4519525 7.5325346 3.6709938 1.1935676 5.1533356 1.587682 -1.4712952 0.63103426 7.906068 -6.310527 -3.3565466 5.421371 -4.83857 -4.837251 4.2433376 8.861356 4.590109 -5.6175494 8.433666 -3.682475 -3.4651735 -5.3628607 -4.197039 2.047532 -2.2726579 -0.451278 8.302798 12.1086645 3.2593744 2.4981666 -2.054948 -7.5110097 -11.711375 7.8472385 -5.8101683 -1.2537161 0.3197901 -0.7264698 -3.4833317 -2.4798565 -1.6138177 -7.9003177 -1.6078184 -2.7480562 -12.924604 -6.324471 1.7845242 3.4281108 -0.6117796 13.09716 5.108166 4.724559 -4.5715384 1.4240276 -1.937743 1.2673326 2.5377717 -0.6516042 4.629911 3.1330166 6.105182
3576 0.9622498 1.3054794 0.4739347 7.06341 1.3097942 1.1734372 10.994982 0.53660077 2.655179 5.8022423 -5.521908 6.445615 2.7863474 -1.8348655 -5.119894 -1.9621247 -7.623102 6.883562 2.5750363 4.3903694 -5.663734 2.5805213 0.41259927 3.41499 -9.668523 1.8547035 3.8135874 -12.688093 -1.1855375 -0.4543513 13.2861185 9.927613 -1.6215118 -4.9840684 2.0168693 -6.8574715 13.90802 -2.6662266 -2.2684574 3.7528095 -0.55876523 1.1420891 -10.021726 -4.993424 -9.317471 -2.9526658 -3.2735562 -8.782029 -2.6121423 -4.0068474 -4.1456084 0.6700561 5.170987 0.68665326 3.4662874 1.2591492 5.361724 1.915214 0.039162576 -3.383181 -3.3254015 2.0459595 4.58039 4.353602
112 -12.328622 0.7533742 -0.78691924 -2.6881998 -2.8397038 3.830348 -7.886799 -9.380515 2.994839 -7.1006885 0.9905895 4.116571 0.45676985 0.92371786 -6.2014275 2.158002 -7.705997 -1.0552508 1.0442821 -2.5626419 4.301264 -2.8915536 9.850987 3.9137456 -7.628462 7.579473 7.4349146 9.3904705 5.7754946 0.58652806 1.573501 -2.800163 -3.7339954 6.232024 0.26617745 5.295597 -8.912709 1.51191 4.6985235 -3.8335025 8.167888 -0.4040379 -8.191596 1.1403285 -1.4468212 -0.507754 7.5131803 -7.9528933 2.068749 2.1197727 -6.211428 7.6554656 -3.8866124 2.045807 -3.275865 -3.482771 -5.8214455 -8.739213 0.03200734 7.716151 -3.8752272 -5.5732894 -1.957389 0.99865884
191 -5.2109895 11.206006 -1.5654825 7.8823276 2.2941473 -8.672126 0.28918007 -8.337123 4.3064003 -3.855169 -9.551514 -0.69813395 -2.0016513 -11.28693 -2.289229 -0.016242735 0.96083033 -4.1867585 5.3266973 -1.3521577 2.9737124 -1.1936324 2.6547406 -7.231568 2.3920403 -1.3512025 -6.6868043 -4.7415733 -3.9397423 0.10515906 4.1488905 1.721556 0.721908 3.547857 -4.4367313 4.315466 4.933536 -1.49959 5.5405664 5.8446355 -5.9804263 2.3985572 9.152326 3.1116908 9.218311 -4.2198844 -1.0522362 -6.676363 11.783235 -4.2199397 10.206541 8.001199 -5.5203476 7.4639935 -5.6711664 1.5945638 -4.9049506 4.1350594 -3.6260004 0.6089269 0.86771435 -5.6496596 6.7868094 6.1641173
5416 9.479484 -0.15190922 1.8840269 4.150126 -1.3946649 -0.7543317 1.7312866 -2.3609579 -0.99267787 2.6651502 1.030099 4.152848 -4.198454 4.231126 6.3217473 -3.1916192 1.3914306 -4.530089 -9.824441 6.1727557 -3.3870413 -0.38766336 4.964687 -0.6598685 -5.3405337 -7.6982102 -5.727642 5.464532 8.201912 1.4627252 -2.510328 7.4885764 0.12963696 0.9957033 -2.9872673 1.2385334 0.5721696 3.731351 4.516697 4.090933 6.9219685 -4.831222 0.5729074 -0.43775716 -0.33182883 5.1519976 3.0900736 3.09074 3.1793835 -6.015199 -0.70212483 7.1283517 1.9934031 4.998935 1.1447539 -2.7485049 0.5078613 1.5981303 -4.1321764 -1.3223165 1.7408465 0.5969886 7.64223 0.25401965
4602 2.096295 0.5310918 -3.7457645 7.9381413 -3.3779862 -4.502066 0.36849582 5.1840353 -1.4652306 -1.2289084 2.3086557 3.4304283 -0.21756846 1.3049587 5.835552 0.9846727 2.3322303 -1.1221739 -0.19766048 12.048991 -7.121544 0.17263643 2.3973773 -2.4350932 -8.241348 -7.2985563 2.598617 -1.7868572 9.671796 1.7423269 8.4234085 9.69623 3.205103 -0.6977901 -9.338058 -5.55597 5.6240506 2.5974665 1.6687725 -0.28069773 10.334335 -3.444884 3.6415884 7.1861815 -2.3711133 -0.81231755 3.8167233 6.193553 0.45919612 -1.5541352 -3.2041402 2.5643137 3.6338794 5.526112 3.7532122 -4.856225 1.3150362 2.7958739 -1.6010158 -2.1757174 -1.7048304 0.005027112 1.17115 0.9715126
1374 -13.35431 0.9547837 -1.1189703 -6.324974 -1.3015918 1.399999 -5.3032064 -7.874585 4.462176 -4.721786 1.1834581 9.155307 -2.6419597 -1.586274 -4.134192 4.140203 -7.3730154 -1.6356099 1.4322093 0.5123595 2.3447144 -6.4249125 6.6509614 3.270654 -5.848945 11.314072 6.8740945 7.0775547 3.2281816 2.124509 0.30917713 -1.7816862 -2.625704 5.971416 3.686919 2.4624383 -7.1942844 1.6250081 4.0310435 -3.4785903 9.816407 -0.5927782 -6.3698707 -4.559511 3.1492524 -5.986968 5.505322 -6.067579 1.7107853 1.804487 -7.275449 8.306726 1.8294394 0.29529953 -5.148323 -1.9031333 -2.7532094 -5.0725274 2.3704069 6.1087284 -2.7760756 -5.595808 -1.4590743 -0.3657312
1595 6.6160917 -0.62445277 1.6030269 5.2486725 -2.6018198 3.1006641 0.6952193 -1.6877724 -1.2956959 4.404833 1.4353664 2.8033571 -3.7086294 4.629476 5.09526 -1.7492892 -0.69611543 -2.3534632 -10.541389 6.6468034 -0.49244195 -0.53617555 6.8880258 -1.6360222 -3.598922 -7.2865825 -5.9518147 6.1074553 7.0298367 3.5577767 -0.8778101 7.3903246 -0.22996894 -1.1603562 -4.3493834 1.873086 0.90846574 3.6112459 4.0214314 5.010075 7.5001087 -5.6984005 0.14909193 -1.0244852 -0.18827845 7.3819275 3.6853664 2.9128807 3.2228122 -6.527974 -1.9162196 5.7516274 5.290354 4.1440554 1.6826998 -2.3040771 0.36736637 -0.2922514 -4.6080375 -2.7024646 0.8648342 -0.13606906 6.087782 -0.38903373
1474 7.5334096 5.9247694 -2.3637524 -1.6246028 0.04396825 1.9103483 2.1872938 -0.9006469 -2.9237847 2.023561 -4.26474 3.8194938 -1.6974508 5.2712235 3.7643402 3.0918224 0.9220678 3.2860153 -10.200447 11.60881 1.6753949 1.0208633 3.7888544 -4.6653748 -7.754342 1.2293965 -7.883535 -0.9586355 8.053426 -0.6201981 -8.460479 4.5328317 -1.0985787 -5.7962503 -2.2874844 -2.9979641 8.985638 -3.884871 0.9652571 5.2161813 1.1447034 -7.1505814 4.048909 3.983308 6.562106 3.5268106 -4.6384997 1.9406141 0.82768273 -5.377445 0.7161358 7.8011837 9.72697 1.8467156 -2.4064558 4.808157 1.244831 -2.7169454 4.104175 -3.0731354 9.322062 0.48146272 9.565571 1.8332331
2218 -5.791086 -3.8556519 -0.94866705 -7.0060782 0.94155693 5.1315694 -3.2850945 -8.20347 -1.4054683 -6.1767154 5.877412 7.1713457 1.183338 -5.2272143 0.13687462 9.280577 -1.1666034 3.9838836 -9.706003 -2.9381974 -2.9802036 -5.0746236 6.374088 7.4204273 -10.713304 2.668084 3.2450733 -0.35285392 3.0876343 2.6910954 -4.0495615 -6.3760104 -1.4470129 5.4822483 3.149329 10.036722 -9.730436 0.97843635 -1.2242907 -4.0462856 3.0597978 4.233611 -1.0869281 -2.5158696 -1.1253084 0.4549569 -5.5607376 -8.826193 0.19954447 3.9736261 -4.9108305 8.207392 -2.823463 -1.7730914 -1.2829862 -6.9304953 3.7072265 -11.262405 0.22088373 11.991864 -4.4979944 -2.3249207 3.9315443 -8.317296
4032 1.2112842 5.1038303 -1.3004035 1.7131772 2.198113 -2.5177672 1.9537956 7.906115 -2.1755543 -0.5779991 -2.6825619 8.435004 -3.18355 -0.44067645 -0.38409975 -2.7772593 -3.5652907 0.094890885 -6.9692698 1.4987015 -4.4852962 -1.2686143 2.217481 -2.961895 -12.963697 -5.018403 -1.818795 -0.76121914 11.135254 -0.0012381691 2.3099763 4.2119875 1.55074 -2.2032795 -5.7610517 -8.140883 2.3286593 2.7163134 0.23844491 4.298606 10.69794 2.057531 4.2909646 2.4672453 -2.944284 -1.7628521 7.074266 9.924271 8.263338 0.30869502 3.6405427 2.699836 -0.38590735 -1.0754875 5.048052 -1.1358379 -1.0027288 -3.0117965 0.014873158 -8.589021 2.0659409 -0.15493858 5.273876 -4.550598
4081 1.3369697 8.834895 -1.4519973 2.0573084 1.4979845 -3.8400345 4.5072536 8.363349 -1.4753345 -2.261424 -2.0585012 6.656029 -3.3753297 -1.3273236 -0.82877403 -4.2578416 -4.1597667 0.20513636 -7.319384 2.602991 -3.277458 -1.2437294 4.824589 -2.5638068 -13.785113 -4.6649055 0.3064723 -3.0385575 11.666687 -1.8170831 3.4376016 3.9599812 0.6069414 -2.8414416 -6.556346 -7.774022 4.280517 2.9833252 0.45767263 4.6711664 10.619373 1.3245679 3.8903825 0.46467656 -0.6833119 -1.3863156 7.0239983 8.8295355 7.9785004 2.0255601 4.5376935 2.5228376 -0.24849676 0.509931 6.026092 -1.6864563 0.09111036 -2.0915546 0.49096835 -9.000141 1.1845778 0.084567025 5.1863055 -6.40847
2698 2.4746237 7.3406734 -0.37311393 0.10662619 5.5080743 2.1822472 -8.144308 -3.3132203 3.7785072 -1.2719089 0.23312436 3.0817654 -3.7813106 -2.7673264 -1.8785175 -6.812564 6.382965 0.8513683 2.404975 -5.8750224 6.8049603 -4.3908415 -4.901784 16.942495 1.2256693 7.7681656 2.8845608 4.6256523 -7.7380285 -3.9232914 0.24559435 -4.780324 2.9286525 -6.884818 -6.374009 -0.8424348 -6.718978 0.82627827 3.075112 -0.47286743 -5.8246946 -2.2200391 -2.993472 5.7541227 5.5605145 6.944256 0.13341053 6.1639853 1.5028541 3.94232 0.17264682 9.439974 4.948329 0.90340656 -0.3588098 -0.15512156 -5.3336463 6.234442 2.0393932 -0.5363939 -0.07637875 2.0631242 -2.0895815 -6.2473683
5644 -1.4742218 -6.8619437 0.70540744 3.5195231 0.84444934 -1.4864311 -3.3181124 -7.6734886 -1.455514 -1.3715345 8.120347 -0.39386678 -4.2011795 -2.8924909 1.7494415 3.3292923 2.3525057 2.4977524 1.8381183 5.875493 -1.9736764 1.0358136 1.7097207 5.4328413 -2.871405 10.017943 10.107459 2.987101 -5.6208615 0.961658 -5.712996 -1.4869025 -4.349263 -1.730737 0.92520005 9.937879 -2.0881567 -5.079935 6.697879 -3.4673219 -13.687925 -3.0692163 -4.6542187 2.5422728 -11.07196 0.6222925 -3.2538414 1.7137579 5.9243445 0.19353956 -7.937884 11.130881 -0.4483141 6.7448354 -3.4068315 -0.5836128 -9.439155 -4.284917 2.7787492 2.0890493 -3.0372972 -6.5301423 -4.0076685 -2.1683178
4395 2.630321 -0.15381427 -7.5203924 -0.4504892 7.3694777 1.3791866 0.19147004 4.7594867 6.8838 6.397285 1.9021711 -2.0677443 -3.4965508 0.83964217 -5.851791 6.7622356 4.0506067 -3.4681473 -6.414626 -2.1773787 6.8101993 1.2291083 0.50201136 3.672776 4.516154 -5.4492817 -5.4963193 -4.813275 -0.08135402 3.086242 2.2999415 -10.919705 -6.2317653 3.795502 11.584295 -2.9127285 -4.6491146 7.745818 3.354305 -10.557286 -7.1655235 -8.911563 -0.11988501 2.4708462 2.5814176 -0.8756705 -9.52515 -2.2075748 -4.888906 -0.44418904 6.949844 -7.497991 4.837888 5.0369296 -4.9681153 2.5081906 0.82054514 3.8249698 -5.3580127 0.85137415 -14.67504 -5.905248 -5.0035777 8.104262
175 -1.3551368 2.6906767 -0.15859586 2.7196877 4.3183565 0.021074036 2.5188875 5.1083775 3.7185936 4.0638423 -1.0907372 4.315255 1.9783388 -9.045638 -1.4100792 -2.9434924 1.2993991 -0.6300528 8.8799515 -0.53482413 -5.645446 4.636536 -0.5962033 -1.867014 -4.055862 -2.423219 -0.5902131 -4.6203513 0.8443994 9.121982 11.606147 3.2647765 -0.9337554 -0.7459953 -8.840869 -6.853419 12.449971 -1.4300319 0.9785835 -4.597673 2.0209248 -5.560772 -4.9817786 3.3698754 -5.251181 4.5169463 0.72917473 -3.1732283 -0.4301081 4.2376056 -4.6329703 -4.4255753 2.3222027 -1.9977483 2.340818 -3.6135294 -0.22093138 4.709426 4.791252 5.1828876 0.565136 6.059441 4.1490297 4.885843
4972 2.9053729 -0.9375034 -2.454999 5.43693 -4.090004 -3.0057864 -2.293496 2.6504076 -2.0751712 -0.17009382 0.6096395 -1.212228 -0.80408466 3.6938326 6.0508327 -0.73752743 2.6443071 -2.8966436 -6.6841087 6.7872834 -2.7383242 -2.4120321 3.9524884 -4.553089 -4.7002697 -6.1056695 0.82235664 1.2504821 6.0400825 0.09780685 0.7935067 7.017418 0.9115126 -0.19167651 -1.4096667 -0.09658926 -1.8361214 2.8960767 4.874436 2.7938418 7.90939 -3.8854907 2.7392142 4.9073243 -0.33805153 0.5371894 0.42844188 4.7879834 -2.6541686 -4.411839 -0.39393646 7.018471 7.7472835 3.895664 1.1019716 0.04716998 1.314097 0.9199838 -3.4631844 -4.399452 0.7388194 -1.2770038 1.3391378 1.8752604
5066 3.5296116 7.7644453 -3.3595908 4.0008664 -1.5856963 2.325438 6.483203 1.8550103 5.729465 -3.303823 -1.8524421 -7.461548 6.7683053 -2.5811763 -6.8169103 -1.2986405 -5.561196 3.2849977 7.249941 7.3521657 5.271503 6.2541637 2.9153712 -0.27635354 -6.236659 -2.3272574 4.734359 -12.750736 -0.5405265 3.2621193 -4.206018 -4.0289392 4.030164 -0.23027132 -0.92928576 -0.56153333 11.012265 -5.6036134 -3.3068976 13.28914 -7.300041 -7.824684 -3.1473677 -2.9298568 7.2267685 3.1634164 0.83873177 -8.556468 9.174468 5.3172107 15.752093 5.399875 -2.311857 6.224927 3.563282 -6.0956097 5.02789 -4.7466187 -1.1137922 0.6544244 1.5014019 3.125301 3.7644308 -6.600841
3617 -5.405034 3.1873236 -3.967305 3.0101957 1.4247994 1.6800966 -1.2912732 7.428693 -0.25607187 1.5087938 3.401896 6.387619 5.8626986 -8.008251 -4.261279 -2.8094747 -0.8362925 0.88788176 8.49761 4.166571 -6.597656 2.7140155 2.6599097 -2.0998533 -4.8646865 -3.8046503 4.2498302 -2.4436731 -2.7888684 7.4105334 9.814453 -0.16968012 -0.87021345 2.7558084 -6.4216137 -6.938266 9.1207485 -4.955251 4.401617 -2.4111793 4.474519 -4.461174 -8.400526 0.17264828 -8.163653 0.5248705 1.1312739 -5.7563543 -1.1053787 -0.5004019 -5.2549458 -1.0022229 0.5080074 -4.9477587 2.5172648 -6.251007 -0.74110144 2.701063 5.4416986 -0.76023555 -0.8791584 4.7595277 2.8072276 7.388203
5882 4.06903 1.3566997 -5.6519365 5.893796 3.3159976 2.1577642 4.0355797 -0.6380859 0.8151154 -1.4212853 1.9629213 7.9826207 5.370304 -1.947613 -3.4217482 -0.44772077 -3.243607 4.9161844 5.1598816 2.762248 -6.865702 1.3654748 -5.4974155 1.9072694 -8.723258 -4.543653 -0.71347356 -8.921451 0.4771104 2.3319535 5.386913 -1.444207 -3.0086637 3.2083051 4.2370486 -6.6473083 9.69625 -0.78758514 -2.9102492 -6.72331 5.386041 -0.6441785 -4.370472 3.3012352 -10.041228 -0.5712829 -6.5915728 -5.842992 1.7460265 -3.3535748 2.209749 -1.1161692 4.3134513 3.0052247 7.108979 -0.86936384 0.75016993 8.680925 2.6877332 -0.009766738 -0.5316209 4.6360903 6.02865 1.2262988
1414 5.2878757 2.556908 1.5794269 5.9713564 -1.239151 -2.9384534 0.8652493 0.44894183 -2.4290428 1.7972988 0.49224675 2.6622179 -3.7228122 4.851692 0.84997964 -1.6567774 1.9610211 -3.2045379 -8.786204 6.1693325 -3.3162951 -0.75028646 8.858466 -4.762956 -1.1321216 -3.7596292 1.1076753 3.7645204 4.464573 1.1278251 -0.6320644 6.8380647 0.3194304 1.8536266 -3.5998127 -0.6349171 -0.75024086 2.7916467 4.552126 3.1980739 5.8681207 -2.2649126 -0.9981988 3.2541904 -0.82912284 3.668499 1.4054457 4.6307836 2.007903 -5.3901978 -0.99456453 4.020982 5.049395 3.0359514 3.692237 -0.7222176 0.12910295 1.9637334 -2.7602975 -6.0647993 2.0138602 0.7050468 2.335243 -2.4042397
2900 3.5683308 9.4274845 1.270951 -0.8318194 -4.0227056 -3.8728325 -7.6046314 -3.1756597 -2.3293319 -2.319461 2.0827355 -4.049849 5.2123294 -0.91728634 2.173396 -5.5049787 -1.360183 -1.428714 -12.450499 1.2477324 -1.3005409 -3.3767376 -8.362682 0.8680154 11.375705 -3.115837 -8.448377 4.4359994 0.22248688 6.415848 2.8203921 8.105974 -3.490936 -7.9694014 9.09956 14.073613 6.43678 1.3788632 -10.607027 11.661936 7.2698236 -4.1743097 1.9879359 2.4089768 6.9296513 -10.234429 -2.7767618 -10.351403 3.0133483 6.618361 2.5706298 0.31413156 0.8391258 -2.131229 11.485046 6.4819536 -5.111633 7.5567255 9.8125725 -5.2197757 3.5433762 4.7621813 -2.4002962 0.2726963
3680 1.5241036 1.682223 -2.1161356 0.18677074 -1.7649693 3.2678666 3.8651435 7.8328347 1.9235098 -1.6557885 -2.288755 4.3518343 2.8115506 -2.205895 -0.98314106 -1.195423 -3.1007216 4.290713 12.599426 7.1463876 -4.863544 0.42180547 -0.5591572 5.6140866 -10.696947 -0.8285113 -1.374783 -12.021114 -1.3016062 6.6386786 4.9514956 -0.7311786 3.5861158 -2.633149 -1.9398476 -2.6158104 11.845515 -8.965954 0.6324252 1.4165951 -0.6794014 -6.396288 -7.360675 -2.4654133 1.0673661 6.907667 6.6638412 -5.657421 -3.0783598 3.0531876 3.25736 1.11537 -0.6856972 -3.0701995 5.6603537 -1.6177902 -1.9965085 -2.262084 3.439157 0.055725478 0.336942 1.3922763 -0.3478242 -2.7373986
2386 4.404791 2.1608405 1.454129 -3.7059028 3.464882 -2.4975326 -1.0889068 1.9285561 0.7788047 8.846003 5.269911 -1.2419538 -6.538945 -1.0459996 0.65322876 -2.6250837 -3.6720817 -3.7122521 0.1751931 -3.086636 -0.3367924 1.2823515 -0.120940655 1.4073464 3.0389845 -0.733646 1.4000049 -4.146206 -5.8634615 1.644363 -2.716866 -1.5959651 3.880315 1.3916147 1.6208163 -0.29547247 -1.6470711 -5.8836055 1.0978553 -5.9229846 2.61504 9.611074 1.1034133 -5.2705703 3.5754404 -4.0511255 0.30960873 2.7735863 0.057456974 3.6281822 -1.0446668 -0.8690573 -3.451728 1.8993376 -1.321562 0.39767313 0.7232079 -0.96773094 -3.7094924 0.42667127 4.651148 0.44519037 8.769419 -5.448774
1324 6.337695 0.9480427 -0.9391724 -5.369509 -0.3597205 -0.97851014 6.692891 -2.9234762 -1.4905865 10.560646 -0.25262207 0.53209746 -4.3565507 0.820987 -1.9498951 -5.169988 -4.8204713 -1.1991018 -3.2512128 4.8588996 2.921415 -1.3436099 8.026074 -1.0368476 1.9881083 -1.1488696 1.1156906 -4.9589815 2.6598332 2.4132526 -4.99663 -2.1494367 3.2300253 10.162075 4.1849604 2.9847808 3.118884 -7.08084 -0.3847269 2.3073409 2.931281 9.13537 2.905862 -10.15802 0.83149767 -8.922235 -3.9259193 1.3207539 -0.055167943 2.6533914 -4.4201374 -0.2364563 -1.0935482 5.043193 -3.8102381 1.8222501 -7.527368 3.752346 1.200459 4.1365323 5.087521 0.9020391 5.859885 -7.706295
726 5.1221776 -0.38079706 -0.7139079 -0.89164793 -3.7376897 1.8279737 2.6051173 0.45218027 -2.5528893 3.8592556 -2.09048 5.390727 -2.5621107 0.8874797 6.631314 -2.1937413 2.03299 -4.167108 -7.878992 7.386824 -1.4056656 -2.0040228 4.7878084 -4.2469745 -6.7618647 -1.8070898 -2.7463717 3.1768532 0.96591955 0.41788912 -2.7895997 6.603795 -0.15240937 -1.7800057 0.15820053 -3.0800288 -1.9085389 -3.0235207 0.86306804 4.0273757 5.6096964 -1.6824577 5.8801417 5.841441 -4.08843 2.1137617 -0.12502412 3.702597 -0.81498957 -0.53877115 -0.6737849 7.753156 4.9967737 2.1804185 -0.9861011 2.9920685 0.82349586 -0.034441266 -0.75865805 -2.3189127 3.867779 4.745922 1.4116889 1.0076838
147 4.575935 1.4244461 2.0174568 -4.513588 2.4938543 -2.404405 -0.36524588 1.7237588 1.3965888 7.6012135 5.0612683 -0.37249053 -5.2800927 -0.84622234 1.2025127 -2.8204298 -3.0651684 -5.1187243 -0.06606317 -2.7288408 -0.76251006 -0.3878522 1.5143955 1.4188719 3.1851594 -2.2932026 1.6718987 -4.502979 -6.0117164 2.2546563 -3.3467848 -1.7664611 3.7266734 0.8801265 0.5086136 -1.2086475 -2.7970781 -6.5306306 1.8123121 -4.501963 2.1287026 8.651917 -0.24463676 -3.7684486 3.4453244 -1.9013836 0.033453632 2.2305005 -1.045985 0.26276037 -2.0575361 -1.5050964 -2.4140704 2.7123044 -1.5422511 0.030394014 0.18609203 -0.051565308 -3.62491 1.811601 4.9254627 -0.16001035 9.649938 -4.4844036
5072 2.0537171 -4.6030874 -0.9125014 7.490227 -1.2007381 -3.8632972 2.5082674 5.7859735 -7.774657 -2.2686887 -2.3759592 3.098382 2.9830852 0.81134784 3.039708 1.1619135 -2.029094 6.192086 -5.4431176 6.6932273 -1.2632437 -2.0197341 3.0036652 -4.2891693 -10.554074 -4.492862 -0.7465197 2.827989 2.9420753 1.4594058 -1.5291541 5.15661 -3.2009978 1.7397332 -3.53886 -3.58273 6.385573 -1.3642229 2.6626806 -0.9514979 6.9994917 -7.088523 6.4017773 -0.8352102 2.1936016 0.66927665 4.0589166 5.9481034 6.843868 1.644739 -0.8846344 3.282749 3.8050077 1.8610992 1.6885784 -0.08071652 2.3145254 4.836963 -1.0171515 -1.8879839 5.2120733 1.0026765 -0.46265477 -4.4246497
3833 3.9338534 -10.166888 1.1794956 -5.6707125 4.5329995 -3.6105738 -5.2120504 -6.905523 -0.8113583 5.1082897 2.5761788 -0.90246636 -1.3366189 -6.4760714 2.7780585 4.4213142 -0.041341253 -2.702628 0.864945 -4.8078303 0.25175846 -0.3942382 3.6956027 3.3903966 -10.392828 10.595903 7.8191147 2.0020132 -1.8036063 1.909009 -5.421585 -4.6889567 0.65024346 2.1866167 2.5258691 11.326373 0.66607004 2.3052142 2.0459647 -1.8214147 0.100542866 -3.363333 -8.306302 -2.0210557 -8.825012 1.6193507 0.114287674 2.8096256 1.3162774 -3.1941583 -3.182095 8.351336 -7.5408826 4.10725 2.352473 -0.26517713 -6.5279098 -6.3368335 1.4460267 7.3702145 10.566596 3.4819467 -9.180944 -1.9063636
277 -0.71061367 1.3311934 3.7328014 1.4093351 0.2333989 -3.3290868 2.1518462 7.179179 -3.732432 0.6333995 1.6659855 2.8658445 3.069952 -5.955944 -1.9763123 -1.7727747 -1.9435897 5.5071826 7.2944107 1.6113937 -13.254791 2.2715032 1.0979128 0.5944284 -4.9496517 -2.0880017 -3.9817708 -8.57199 1.4405895 5.8709455 9.1644535 -1.2106035 3.3376431 3.0836253 -6.057761 -2.981436 8.758255 0.24658282 2.3320558 -7.3642735 0.14136758 -6.981685 -6.8707886 1.6430935 -3.33338 -2.2628477 1.5170006 -2.5876381 -1.6076634 3.6708338 -1.9252621 -1.9467046 3.2044344 2.9324114 7.737153 0.08575871 0.6689457 5.7990766 3.8073676 1.2138516 2.8179786 4.5372767 0.6981214 4.0145235
4622 0.868353 4.952786 -1.042127 7.333906 -0.44173557 -1.8977387 -2.367949 -0.7918984 0.35831076 5.027503 -1.526682 2.7604017 -1.2036704 4.098688 -2.5502572 0.62301475 2.2990339 3.0436099 -9.010515 6.2318974 3.1062021 3.2860425 1.8217512 -6.657852 -2.4282856 -2.5401545 -0.44234785 5.1621294 0.7991665 5.412631 -1.812372 1.5450474 -1.2630758 -2.0379317 -4.870594 -5.2158937 2.952395 1.2861397 6.0093675 3.7583382 11.376051 -1.001988 6.4232297 5.123217 -0.18589222 -3.466021 4.205694 5.282466 2.499409 -5.7902126 6.0578833 3.4722133 6.6278415 -1.6645463 -1.968237 4.9802203 -1.942977 -1.481564 -1.2804873 -1.4035631 0.40040773 -6.4479494 8.165161 -7.0632443
5726 3.8311956 0.6854353 1.2886654 6.408059 -3.4499378 0.56405234 -0.6240047 1.3049227 -3.2887993 2.7964756 -2.4094589 1.5373206 -2.1018777 3.1058645 4.4165487 -0.80087614 1.9274627 -1.7010319 -6.0903525 5.21323 -0.86104965 0.21969919 9.009522 -1.5779718 -4.3036976 -5.8177032 1.7209654 1.9732327 5.9622293 -0.20856851 -0.87009025 6.7115088 1.40381 1.563104 0.42273352 -0.12170804 0.08674244 2.836965 4.6663003 2.1839747 8.744151 -1.2312831 1.0063131 3.440212 0.0515287 0.76887894 0.22362024 4.758361 2.9537015 -0.90468335 -1.3144552 3.746587 3.98928 3.014877 3.555534 0.13178651 -2.3428304 2.5723326 -2.5305347 -6.574814 -1.328002 -0.8485445 -0.018414464 -1.4313945
5867 3.9698002 0.90240663 2.494778 -4.5671277 1.9481001 -2.3481746 -1.0010068 0.47151026 1.2139764 8.692771 4.8901906 -0.39268824 -4.513197 -1.222208 1.0302941 -3.230555 -2.8026237 -4.9446692 -0.15818256 -3.5409546 -1.5364119 0.3504097 1.2660917 0.23690876 4.292478 -2.4365392 1.9410368 -4.893657 -6.004697 2.121056 -3.1043942 -1.8111411 3.7658265 2.005041 2.3121316 -1.3064373 -2.3569686 -5.9688487 2.8465245 -5.3217273 1.8734945 8.59496 -0.9050986 -4.536735 2.5100648 -2.363623 -1.0182973 1.3841671 -0.8657183 1.8506372 -1.1014116 -1.2883162 -3.4833622 1.4584293 -1.2287166 2.2096477 2.3508043 -0.9235737 -1.5455464 1.7491207 4.0075574 1.0389329 8.813951 -5.411755
2059 8.315755 -2.2565346 -3.3691914 8.599993 0.20743701 -4.4805813 7.0082088 7.137747 6.5223737 -5.2014275 -1.3374045 10.95323 -0.88591826 3.404732 -0.014473387 -1.5864887 3.9098623 0.96339566 -5.5916896 7.9309726 -3.441875 6.897411 1.5577413 -8.294883 -3.6494365 -6.7091417 -1.920971 -0.18375091 6.4338794 4.607431 2.6086307 -0.03259672 3.6089618 -6.5504355 -6.2347775 -6.1897664 6.3461757 -3.5538182 2.9291012 -2.7697806 7.867888 0.4363817 0.1891214 1.3636395 -2.064649 -0.84422493 4.865088 12.591416 1.5092661 0.38123336 5.0470185 4.2360854 -3.824142 2.0306377 5.396393 -3.5187485 -1.1675793 -1.5356745 4.0909896 -1.6672722 2.4167635 0.7411835 5.5417366 -2.8725536
5871 2.989395 2.0666559 4.019553 6.084184 -2.8718927 -4.649821 0.7423964 0.2818872 -1.0343372 3.0041049 0.4112658 1.7172093 -4.306817 3.7415137 0.8601306 -0.73581827 2.8804593 -4.8603516 -9.269395 6.2443624 -4.0241966 -0.74666786 8.723354 -4.337351 -2.1892624 -3.8640637 0.48673967 4.1129155 3.9978764 1.1056274 0.4040845 6.601764 -1.2178135 1.9014053 -3.6682358 -1.8929952 -1.6689402 2.445034 3.5521994 4.643086 3.3603399 -0.6764305 -0.65062886 2.0621552 -0.12900653 4.8040085 0.17291148 4.7293134 2.744335 -4.048073 -2.2886474 4.0037613 5.6433253 2.9352827 3.943131 -0.81304586 -0.55610883 3.4864178 -2.7884934 -6.02526 3.5393262 -0.97213274 2.8760588 -2.5891712
1651 4.189269 0.088902704 1.3681291 6.3645024 -2.285368 0.03638504 -0.9551081 1.5786085 -4.002469 1.6600654 -3.0575747 0.6452734 -1.6375003 3.2464075 5.098959 -0.19821559 1.0418936 -0.52461946 -6.6267014 6.5403957 -1.1023041 1.2409383 7.908724 -2.915505 -3.8153453 -5.840661 1.0243192 1.7200499 5.4557033 -1.8838704 -0.4065253 6.0089517 2.3604963 1.619618 -0.90138525 0.9325792 -0.13283642 2.6643167 5.9511566 2.3182995 8.330253 -0.4369234 -0.49334925 4.131433 -0.7387545 0.6007448 0.4721618 4.1257734 3.7311878 -0.8880366 -1.939291 3.3013284 4.628946 3.897487 3.754839 0.45850408 -2.0459812 2.511345 -4.1144133 -5.822337 -0.9257757 -0.5101103 -0.63824886 -2.2392812
3099 -7.5681634 -5.538643 -3.106789 -1.8207386 3.7879906 11.950889 -3.4852467 3.7870538 -8.726866 -2.036168 -7.246869 -8.042894 -1.4130485 -2.084849 -1.3197639 -3.5784109 -2.4216318 -6.383339 -5.622379 3.5016906 -4.3431406 0.25258854 -11.322086 2.3636277 1.8410575 -3.908324 3.6027284 2.4012725 -8.912871 -1.1532152 0.25200403 2.9791129 5.8436675 4.629767 3.528999 3.4185574 2.378485 4.7005177 -4.570558 -2.2988384 -2.1207151 2.5244546 0.022217019 0.27398 10.794464 -1.8654637 -1.3319497 4.814026 -1.3652658 -8.886111 5.1441126 -4.8666573 -0.5637086 5.055915 -5.2654715 -4.985142 0.40520096 -1.2791512 2.0095816 -6.0147557 2.6111827 -4.826679 -10.51325 2.2920043
2770 4.8967047 -0.19856562 -1.4815466 4.4064555 -1.4622339 -0.7344241 2.5400355 -0.00029204987 -4.1506724 2.4621658 -2.2347977 -0.66046077 -1.8258036 2.6488135 1.1460245 -2.8025818 0.29691637 -1.4297835 -4.119803 4.194957 0.5716569 -0.65845406 7.164996 -3.2997363 -7.431424 -5.31846 0.7370069 4.2093096 5.0577073 1.1980971 1.9163367 7.0695887 -0.44988266 -1.0179057 -3.4037008 -1.3083421 -0.060758125 1.6398076 0.8105139 0.10343208 7.9712386 -0.8896545 5.381733 2.1314597 -1.4745916 -0.08151336 3.3653035 6.7767544 2.6892219 0.56226206 -2.5149953 5.199171 4.090782 0.10503885 2.0403936 1.721009 1.2027297 -1.2985107 -4.079222 -3.2005472 3.0663843 -1.967392 -0.33589682 -0.47976342
630 0.7172831 5.245816 1.8301597 -1.4562107 -0.93127084 -0.1971325 -5.1677256 1.764835 -0.6214949 -0.63757825 -3.7876804 5.6801972 -1.899514 -1.3503356 -2.600867 -5.4602404 4.907645 1.3547474 4.226927 -6.713416 3.1121798 1.4217674 -2.592873 15.409727 0.57677454 3.0541682 1.6313274 0.31381145 -5.533143 0.4073904 -0.4974491 -0.93831646 4.5404773 -2.7743201 -5.736529 3.8294842 -1.2194054 3.553298 3.6556504 -1.0665307 -3.300529 -3.5244458 -2.8367162 5.166272 8.236652 5.1727285 1.0008414 3.0231202 -0.98644066 4.9346867 -0.8219184 2.1659985 5.255767 -1.8664774 1.9453198 -0.51983726 -0.5238684 7.8950343 -3.0944266 2.5514212 2.1706078 5.4911494 -3.9278314 -3.7651362
4459 2.4965243 2.3144455 3.2622445 2.1207592 4.1430416 -4.0765657 -0.06391651 8.561383 -3.6151962 3.5082526 0.14578107 4.2130938 10.512321 -11.649351 0.25181675 2.235436 -1.3580725 3.8463545 6.1999745 1.8313379 -9.666034 5.179464 0.521286 -2.4185574 -5.9958677 -6.15596 -1.6274239 -5.597042 1.8760133 6.5865035 4.981674 -0.33729395 0.87492573 -0.16485825 -6.952026 -1.7831287 11.888665 0.6768667 2.5486312 -3.9740617 5.2640505 -3.6883137 -7.7407246 3.8128984 -8.698634 -0.4157586 -1.1279576 -3.5656905 -1.1601932 3.9127474 -5.0486517 -1.1167562 8.397408 0.07537806 2.4418762 0.016256697 -0.27354562 1.3479073 1.7665308 -3.923519 1.9932038 1.0029606 1.7690091 1.0413598
5855 -1.2744583 -1.0133376 -0.5694469 -1.860742 0.97197217 9.279977 2.8393664 -2.530739 -7.4926276 -3.929108 5.749411 -0.9065861 2.0076246 5.493883 4.725911 -6.2832227 1.3046452 1.3058164 0.9369932 -0.98002845 -6.302671 0.3000445 -6.4197435 -4.4471335 0.13694529 -0.8711915 1.7266036 2.0242894 -7.6006675 1.9727219 -1.2053572 2.3751092 -4.516114 2.2166708 -0.8664736 -0.6407507 2.5330465 3.8791027 -0.7344246 1.0964345 -4.497811 3.7121353 -2.2180936 0.75653607 14.275542 -5.8251863 -1.1496366 2.830203 -3.1649597 -2.0861542 0.63194567 1.7064034 -4.4894047 -0.14912938 -0.66499925 -3.8216522 -3.8426747 -2.132588 0.5699189 0.089003325 -1.5388943 -1.6783143 -6.7437844 6.0024414
3387 6.5931277 10.816842 -3.667303 3.670452 -0.5432497 2.9454343 6.9218335 -2.794168 2.1695516 -8.185598 -0.32805866 -0.11661932 1.2193818 -8.102617 -6.4861994 -5.792179 -3.037446 8.371922 -3.4896784 2.6816137 3.178445 4.414344 0.58729905 -3.457498 -0.1634922 -2.9645622 2.8018847 -6.35783 -2.7790976 -6.601393 3.2406566 -4.8496456 -0.6263864 -7.4687333 -1.8538002 2.2954137 3.810196 -2.4984124 6.682283 6.4038563 -4.6050487 -11.308861 -1.6719409 -5.913394 2.4562411 -0.815116 1.7505238 8.120694 -3.3751745 -2.3606036 2.0837495 -1.5532784 -2.1199868 9.157086 -7.8493776 -4.6727223 -2.22658 -1.0416477 5.417929 -4.6760826 -7.8394847 -2.3444211 6.8588123 -5.651778
1625 -10.644008 -0.62890714 -1.9835148 0.9628433 1.9348385 0.4492615 -3.2795696 -7.9867244 2.1609135 0.31792122 2.4365945 2.039474 2.4715185 0.12084854 -0.5032131 9.937089 -4.4577627 -2.7759922 -1.9224805 0.5446993 -2.4011042 -6.213783 2.341646 3.0275517 -5.0711975 4.080731 3.1636202 -0.34297335 5.7629404 -2.0831761 1.5472931 0.56370324 -2.8530588 9.320745 2.2392118 8.332208 -6.7574253 4.4552417 2.5721238 -4.5099797 5.003804 -3.6878238 -7.6108484 2.3387997 4.691049 2.0353737 -0.71452874 -8.402483 -2.2770119 3.214852 -5.703241 2.9304209 -5.148716 1.4256545 -5.2807884 -7.442228 1.408356 -2.772748 -1.6106156 7.1130714 -0.9632426 -0.91746414 -2.8494074 -3.272564
1965 -7.9282117 -0.6491821 6.1723576 -2.7877042 3.828697 5.3523993 4.0707746 4.537851 -0.6679766 -3.611957 -5.146419 5.068821 -1.9493958 -1.0016657 -5.4286637 -3.0573533 -1.3409778 -0.5726012 -4.560731 -3.8129685 -3.4232848 4.345964 -3.4351842 -6.048534 -0.022046844 -1.3234025 -2.3786566 3.7686732 0.15167806 0.09127558 -3.377934 -3.2735322 13.393996 0.69569504 4.973949 1.8732358 -3.325475 -1.5590187 -1.6096425 -5.256183 -2.0434372 -3.780496 -1.9526832 -7.6531825 1.714809 -2.8125281 0.58599526 4.215925 -6.0841694 -7.1634464 8.287305 -7.33506 -6.3365326 3.2353632 -2.1949615 -0.9964328 2.5390904 1.0421537 -0.6056778 -3.3218389 -2.3170137 -2.7263963 2.6850653 3.3731291
641 6.039819 2.0900187 0.50740623 -4.8520517 0.81909245 -1.7568668 -0.8185295 0.5315199 1.4209431 6.532846 5.7866945 -0.6667668 -6.095574 -1.04036 0.75111693 -0.7198275 -0.7100798 -3.9460027 1.9222063 -3.224244 0.635656 0.6598113 -0.6952593 -0.1538338 2.8605444 -1.3070405 1.4055928 -4.5203466 -7.6173553 2.661183 -4.758625 -2.7133303 3.9581773 1.7187192 -0.5785031 -0.6960464 -3.386695 -5.754504 -0.5554788 -4.526655 0.65011275 8.671232 -0.7557748 -4.2427764 2.7523313 -1.3283825 1.1924114 1.491676 0.57054496 0.7842007 -4.3070884 -0.9727395 -2.0142703 2.516896 -0.44067815 1.3203102 0.8379881 -1.1145338 -2.750941 1.600764 3.991368 2.9617858 11.342697 -4.7586837
2760 -4.0050764 -12.206105 -3.519694 1.8829001 1.5200878 -6.879065 -7.6835794 -3.6802344 3.4482932 -1.5617328 3.0118546 -4.9091816 -4.8497396 -0.15570733 0.07018479 -1.7900095 0.9739337 1.5464793 0.7459021 0.54231626 -2.3805509 -0.46526727 -1.2303896 -3.003095 -3.599893 8.527712 8.904742 1.0754639 5.2224607 -1.9374942 -5.398884 2.7531245 2.689071 0.05315808 -0.6177103 10.616477 0.7050001 -3.0142822 0.19969133 2.9036663 -8.399565 -3.9483633 -5.1036453 -2.973362 -7.836825 1.4519124 -5.465321 3.3949764 -0.81816274 0.6934259 -1.173788 6.764353 -1.7987703 4.081971 -1.2364013 1.7793074 -10.59325 -5.7255216 6.8364406 6.968174 -2.1162424 -4.3537583 -7.3799176 2.0866277
98 -1.176185 -2.3513756 5.6076115e-05 3.4530256 1.8522183 8.405841 1.7063369 1.5738095 -7.5449576 -5.0904055 3.934954 -0.5695699 3.180654 6.0146093 -1.953763 -3.8279483 -3.2973464 -4.465072 -1.4994155 -0.04232948 -6.604807 3.4256246 -3.0634959 1.3394351 1.8186783 -5.905619 -0.03826827 -0.5771883 -4.857855 0.16558497 -0.6360822 0.68618107 1.4055345 -2.7651217 -4.044628 -1.6622854 2.23295 10.095396 -1.091671 1.7556202 -1.4328142 1.0867888 -3.1871874 1.3167138 5.582857 -3.866 1.0501525 2.429878 -2.1686072 0.66992366 3.354759 1.0751718 -3.7359698 1.7100431 -1.994123 -2.8542466 -2.4093676 -3.8379686 4.5017695 1.5421045 1.4683948 -4.1374063 -4.069429 5.5887656
192 -1.9826151 -7.4504776 2.573562 5.592036 -2.380766 -2.9262986 -4.3896375 -0.27515575 6.7202225 -2.7059968 7.196744 2.6720603 -5.2148848 -0.79256636 -2.8771815 4.455538 1.379164 3.2539253 -1.0276153 -1.4014693 -2.6339045 2.2117486 -0.29736367 -2.2799382 -3.064465 12.222364 8.599365 -0.38354427 2.3759587 3.1723356 -10.492216 1.2292483 0.3443634 5.2983584 2.8670337 6.973975 -6.4863997 -1.2552435 3.1196518 -5.471184 -7.61357 -0.8395513 -3.5119548 0.5301524 -3.4388938 -1.5058049 -1.4094734 1.982466 -2.288836 3.4590764 -3.0555413 5.060401 -7.387341 7.2233386 2.199628 -4.8051953 -6.527125 -5.4656434 2.1497886 10.704645 9.579144 -0.2825858 -2.8583791 -0.5919532
2027 -5.059683 -3.587181 -6.196238 -0.8358439 2.083082 -2.8660572 3.304719 -4.724188 -3.450759 6.0692534 4.057977 -10.794474 1.8875431 0.34976223 5.525393 -4.4616413 8.818162 -4.39408 6.9581122 4.504722 8.395371 -0.6973195 1.5721897 -1.4523054 -0.4446651 -0.61097115 -5.6810427 1.6546906 -0.7642053 -5.8706093 5.6759615 1.2662238 -3.50039 7.796484 2.982111 4.094424 0.52473426 0.7574266 3.2422032 0.32525 -0.750875 1.4658334 -0.7244575 -0.7738928 -2.9406571 3.3287683 5.2061787 -0.89992255 -5.2660646 0.99679816 1.3347733 -0.102112025 2.2862031 -7.5161834 -4.203683 3.267215 3.6796112 -3.5297348 4.339344 1.6063039 -5.4478154 -1.113702 -0.9829674 -0.94873255
4299 -6.9269686 -5.6484013 -3.839432 0.39474455 -3.2338078 -1.7604913 9.193078 -6.7289915 0.07473919 2.746834 4.178596 -4.2424946 6.1829615 -1.6660345 4.1305923 -5.0406528 5.053825 -3.1312964 0.68375283 0.07913966 6.7556214 -5.7600846 -3.4683526 -1.7647549 -0.13478231 -3.2495422 -1.216763 3.9218645 -1.9857852 0.5106003 4.6874375 -1.5530697 -1.9525034 8.342579 2.5481825 3.0325084 -4.307315 2.7597907 -0.36404783 -0.68490595 -2.4294565 3.02119 -1.6871657 -4.159707 -1.9909402 6.543676 2.283844 8.584716 -10.096632 2.3680613 5.6331725 -4.5238047 3.561511 -3.5045385 1.5765384 -0.9092198 3.1045768 -1.4716351 3.9544475 0.0497314 -0.66815865 -3.178296 4.061528 -0.20222089
1707 3.628634 1.8932672 3.1178138 -3.813694 1.1752728 -2.8548803 -1.0248115 -0.1885037 0.676884 8.050933 4.3984294 -1.1417766 -4.1643863 -1.308899 1.920855 -4.054015 -3.9487278 -3.4827816 -0.26624882 -3.903188 -2.5082834 -0.2105723 0.616133 0.8024735 4.1756725 -1.3049289 2.2978635 -3.4505444 -6.046296 1.0747881 -1.4702816 -2.5508366 4.0941367 0.19948554 1.6313667 -0.8887331 -2.2169907 -4.2565155 3.010913 -3.7085283 1.2472754 9.608733 0.19085248 -6.1050334 2.7112355 -2.8624845 -1.5488476 1.5397056 -0.8112818 0.07120189 -0.6921274 -1.2830789 -2.3647654 1.2655044 -1.6502194 1.2519419 0.20869595 -1.2779487 -1.4451932 2.2961893 2.8849373 0.80348027 9.575647 -5.878347
1952 4.8715534 0.53486216 -0.041936934 1.8242959 0.06272984 -6.867255 -2.150738 2.940003 -2.0026708 -2.5431912 -0.17803068 1.5685062 0.38194036 0.22468276 -4.269836 -0.0126618855 -5.0790553 4.7289515 -0.18567708 1.8218743 -2.9098186 6.0090127 -6.752641 -0.99031013 -0.8787509 -3.060901 -6.6626487 0.0059413994 2.433628 -1.8884343 -0.3105025 0.27356368 5.260803 -2.8114257 -1.5550134 1.3221716 5.922992 -2.3234394 4.436904 -3.3663704 4.562762 3.8608098 -9.227626 8.342435 -4.9008927 -5.5575404 4.898556 -4.735153 14.026193 3.3028202 0.5293823 -3.4544783 2.3667693 7.424275 4.959058 5.89462 1.4560616 -4.2094145 0.49098778 0.42984405 0.3042691 3.4920952 -2.6041687 0.54765826
3048 0.9896583 -0.9264847 3.877002 -5.5986195 -2.498477 -1.4883306 -12.97629 -2.7071667 3.5620396 1.7515671 -5.857656 -0.3498632 -5.473916 -1.3531368 4.726289 4.1456895 -4.8257937 6.2038603 1.3025703 -2.5747201 -2.3599713 1.1317147 -4.589375 4.746676 5.104787 -0.6608539 -1.1424465 1.044387 8.353013 -8.753236 -4.5598965 7.232029 -5.4097257 7.289146 3.6717362 1.8659742 8.622207 4.7888227 -3.7638078 3.6743734 -7.981692 4.243582 5.2876916 0.39395356 -0.62520635 0.9717701 2.9645202 -5.3062634 7.702028 0.454633 1.4170203 -9.007665 6.2713304 -8.858461 2.6006343 4.708454 1.4755514 0.77844733 -3.9079392 7.316408 7.5543604 0.5184139 -2.6649432 -3.5121841
3068 -6.6551576 -5.7673373 -4.0332007 0.48974213 -3.3375332 -1.1070707 8.693471 -6.990961 0.23326494 2.4955072 4.547103 -4.4614186 5.40414 -1.8998193 3.4142714 -4.978234 5.0910735 -2.8845074 0.4688505 -0.22997497 6.885993 -5.4082704 -3.8316603 -1.1585203 -0.68621397 -3.908687 -1.2105598 4.1335363 -1.8082113 -0.38314068 5.0282497 -1.5645409 -1.9529045 8.257 2.9843972 2.9533305 -4.149305 2.9164252 -0.26086637 -1.0817746 -2.8397217 3.546675 -1.9152762 -4.04124 -1.9174037 6.375344 2.324333 8.53467 -10.242566 2.416287 5.656927 -5.017413 3.4459918 -3.3880432 1.7319669 -0.60296464 2.7373295 -1.014213 4.2809925 0.31096178 -0.77258104 -3.4568589 4.174117 -0.20244971
837 7.7442718 -2.4076557 -1.1112235 1.6965084 -0.1552389 -0.5686105 1.948161 1.6278536 0.88755566 6.4941792 -4.146803 2.5829422 -0.43209216 1.7618539 4.5307355 4.373993 4.61929 -4.667167 -3.125758 4.049845 -1.4776708 -1.5484216 4.971805 -2.0565052 -6.654629 -2.3555548 -2.2635794 1.7837876 1.5678843 0.7641934 -0.5275574 7.907557 -1.8550713 -0.025227396 2.396664 -0.8862868 0.75025314 -3.4766183 0.3677429 4.955274 4.7771783 -4.365813 7.8382964 4.558761 -2.7939842 0.13515334 0.3965553 5.0518265 -1.5762204 -1.9293537 2.928522 4.5471582 5.328008 2.8579574 -1.865156 3.7197669 0.7978807 -1.2003542 0.19544305 -3.3765156 3.5779498 1.7094707 0.5392397 0.67066646
5085 -2.2850187 -1.6778034 1.8502836 -0.96372443 2.6750376 1.344063 -1.5279286 -14.678003 1.2603949 -3.6695313 2.4467216 -7.679973 -0.10284726 -7.362732 0.8230827 11.011453 -2.4817111 -0.15388094 -6.140566 4.4981346 5.4388404 -2.6021256 3.2854588 5.9277415 -3.99244 7.3516264 6.095721 3.249616 5.5819716 -2.0031013 2.2582679 -1.140485 1.1292549 1.9242052 1.0789421 -4.0509486 -6.191945 -3.2353022 -5.7543592 -2.9615777 -5.980607 -1.6835226 -6.8163595 3.472471 -6.512979 -7.9690595 -0.51088226 -1.5892689 -1.9927887 0.08563548 2.2585638 10.571151 -5.66016 0.25430208 1.019985 3.7455168 -11.588409 -8.118466 3.8070827 -1.1133903 -2.5138056 -8.124689 -7.095632 -3.5472882
3281 3.2860258 0.009702409 -1.8417565 2.9726007 -3.9819121 -2.5747616 1.0700827 -1.2327981 -2.4823155 1.1423918 -1.4764367 0.52842677 0.050662093 -0.48774388 4.685389 -1.1488209 3.630542 -0.5498611 -5.8699327 7.476132 -1.7177373 -0.6364607 1.556703 -4.2657967 -4.260851 -2.2150168 1.9391881 -0.00044872903 4.949864 -0.72327834 -0.41055045 4.3292704 -3.499892 1.377467 -2.2523763 -2.4533474 -2.0624537 2.8998468 0.26380914 1.8855625 9.119662 -1.6172664 2.9772959 1.9496299 -1.4936861 3.9195325 -1.3378931 4.461845 1.9089428 -0.33155766 -1.8107405 5.835426 5.66664 4.3317757 0.02998509 0.10500521 -0.095058344 3.9556239 -4.76402 -5.9924436 3.8185713 1.0742865 1.0755222 -2.9257302
5708 -7.779009 3.0522377 -2.8556056 -5.4441094 -0.4338794 -4.0551553 8.832753 0.42190307 -1.5730977 13.932676 5.122326 -5.776983 7.661135 0.32523113 6.2646694 -1.521143 5.9310484 -0.24244681 8.684526 -0.6668813 3.1834238 -4.135242 -5.36293 -0.1594603 -3.3561802 3.1181731 1.7839223 -1.3642714 -3.191671 -8.091915 0.45777988 -0.15545818 2.5035586 7.289365 1.6807678 9.10922 -1.2386918 4.929406 2.1335986 2.9759839 -5.081133 -3.0836923 -0.7509865 2.1610332 -0.10984139 -0.6509984 4.906544 3.314776 -0.3898751 -0.118630625 0.8982251 -2.1521306 5.617165 -5.276807 -0.8678193 4.534942 0.87635124 -5.2442565 0.3534555 2.620048 -1.3822926 -4.396528 3.3184063 -3.8291633
5797 5.6159415 -0.3443702 0.6943721 -1.3558115 -3.1587248 0.016134713 3.0557172 2.7281418 1.3496176 3.0370913 -3.3274295 1.483992 -0.771787 5.342519 3.5469773 -2.8767931 1.501331 1.4514582 -7.3869915 3.4001756 -1.6083716 0.5563246 3.679489 -4.2179933 -7.605672 -4.7906804 2.552133 8.247089 1.8496418 1.820662 3.303299 3.380978 2.5451157 -0.25160077 -2.701689 -2.7043586 -2.4494903 -1.969165 2.1918612 2.8872929 6.191796 -4.527968 1.4244994 5.301249 2.3835046 0.60873616 4.692236 1.7064619 -0.4157334 -2.394796 1.7308425 4.8216114 1.4351652 1.6685588 0.71552277 2.006834 -1.9182842 0.2100692 -1.9349312 -4.8606052 4.5141973 -0.21049425 3.7026467 2.9299145
4878 2.3374012 1.5113807 1.0794314 5.090771 -2.370811 -1.7465091 -0.64883107 0.9384072 -4.2523246 0.6315971 0.42924672 -0.2589874 -1.9283713 3.3177068 5.5221715 -3.1795661 1.1029639 -0.41883412 -8.47072 2.1279306 2.9623156 1.0845947 4.1520767 -2.7226532 -8.232617 -3.0412006 3.0793324 3.7587495 3.962509 0.6074567 1.3269476 3.8830686 0.33674675 1.4779176 -4.473738 -3.3164852 -0.66682184 2.0041602 3.062351 3.2599204 9.28446 -1.9011518 1.896637 3.820462 -1.4160259 -0.008755536 1.8186225 4.2422485 0.08115173 -2.0638251 1.5165616 4.01281 0.6734334 1.7436466 0.15719934 2.3312283 -0.1352709 2.8414292 -6.78531 -4.1970043 1.7076261 -0.945833 1.2546524 -2.1792104
210 2.657089 1.6345015 -0.5275684 1.4992919 -2.2181647 -0.116309345 0.46302062 1.1697999 -5.1716094 -2.8097603 -1.2690166 3.2417622 -1.4865453 1.7947326 2.9809098 -1.3906105 0.76956654 -1.2049254 -5.1489882 5.8655796 -0.6610646 0.5397783 5.644984 -5.0730457 -5.71138 -4.6721377 2.7828808 -0.46629792 3.9843976 2.390826 0.0965364 6.994438 0.35819677 2.6251972 -2.8897734 -2.8512838 0.47103202 5.7682323 0.2509285 1.6400956 7.3538933 -1.6208141 1.6535078 2.2215707 -1.6707296 4.0365615 -0.45659772 2.4562461 0.08025207 -1.2197541 1.848928 3.704637 5.9102983 -0.2696934 1.301478 2.2411332 -0.6006362 1.8590183 -3.250498 -4.1297736 2.9424896 -0.3477686 2.076193 -1.4046719
1159 -2.7648401 -11.975768 1.036135 0.3011167 6.566536 -4.8785524 -5.7575617 -4.9095902 1.0785398 0.27392265 4.956603 -5.025907 -4.9368877 -7.275141 -3.8551126 4.7902822 0.3060228 -3.368887 2.7325094 2.4772766 2.0658407 -1.6570796 2.7034066 -0.8152066 -2.3248484 7.8604226 6.319066 2.044106 5.904973 -0.52874684 -2.8188107 0.88247985 -3.7973726 0.35080603 2.2733476 8.04751 0.6139105 6.8296323 5.7784038 2.0277364 -2.5145009 -1.1349846 -5.833129 -1.1035246 -6.2509923 3.7758315 -2.9200616 -1.5363683 -0.62953144 -1.0155087 3.227932 7.8297906 -3.6697652 5.7618937 -2.349963 -3.1699624 -10.702274 -4.2598577 6.712552 5.0829406 1.1176951 0.14827673 -6.925233 -2.0708916
1003 -1.7789307 8.431368 -5.059542 1.8107266 1.8797309 0.3556134 8.208883 -2.5786417 -1.9437692 -0.31951466 -2.8224835 -0.7810804 1.7761202 -6.5994325 -11.049595 -4.186987 -1.0187385 7.3639984 -6.803583 -2.360126 6.1976023 6.2208824 -3.1668682 -5.434602 5.72992 -2.2159166 -2.776345 0.7673198 7.6134143 5.28509 -3.9666567 13.942784 0.43860117 1.4047208 2.7538476 4.8428617 -0.080385834 -3.8129704 -0.96860296 3.2124038 1.4945339 -8.152732 -0.71086174 2.6911516 1.6108054 -2.8745499 -2.7252676 0.03613073 -1.4674225 -1.5671108 -1.824385 2.2073557 4.831579 -5.858517 -6.3965034 -1.4070123 -1.3628325 10.801702 10.592243 -2.6760662 0.21463794 -5.874257 8.166968 0.8674079
2437 -5.1907644 -7.9357657 4.737217 -4.505633 -0.8311444 5.834079 2.3675473 -11.44656 4.9173546 -4.6566505 -4.767222 -2.6564348 2.57753 -4.4055986 0.57738817 11.126857 3.4513729 4.0897083 -1.7913339 0.27193266 5.3456683 1.5283852 1.1157964 2.1990218 -5.3605704 5.4507957 1.3060672 4.361377 5.9022217 -4.77218 4.904898 0.9415457 -6.114134 -2.9359677 -1.6635673 4.456343 -4.5603657 -6.4592147 -8.961037 -6.5097513 -6.746139 -9.623738 -4.820682 7.288463 -4.4332814 0.6132744 -0.938934 -0.4194878 4.5566955 -2.4233198 4.367661 8.076196 1.8581204 0.095112406 -3.9149816 -0.55037045 -7.4913526 -7.157443 6.091295 6.729056 1.7439845 -7.626073 -9.412756 2.58264
4406 3.2018678 1.5553852 -2.2522886 2.816649 4.214583 -1.4045364 6.929632 5.8797836 -1.9659536 -0.82275623 -0.15826787 12.096868 4.047915 1.9466839 1.3127762 1.15092 3.758173 2.7209048 0.30314863 3.4096117 -6.522452 1.5694002 4.2128577 -1.618677 -10.887132 -5.881094 0.7126206 2.01868 5.700034 3.4025629 4.745039 3.6028838 5.708392 -5.214609 -6.3082094 -2.2449384 4.0543895 -2.1870875 3.5273108 -4.4192595 9.01465 -4.8050838 0.44424844 5.3670125 0.20298818 -1.8993951 6.064846 10.454381 5.426733 2.9422586 -0.7472844 -2.3534117 2.5735312 0.97896224 6.0791535 -2.8178682 1.1783844 -2.1432617 -2.6023343 -2.9724286 0.69600725 -1.078774 2.9392915 -0.70872474
4160 7.2261887 1.8970628 -0.65022975 1.2696333 1.5680083 0.41898987 -0.34701666 5.6301646 -5.912284 3.1298149 -1.1897746 -1.5597094 -1.1802099 5.2623816 1.6710516 -0.85107654 3.0435703 0.6021233 -7.0562053 4.282403 -0.51921743 -0.737752 4.550265 -0.65573275 -6.0852013 -4.670284 1.7578439 5.0781627 1.2084818 2.2219048 3.969426 5.0462656 -1.061104 0.43393847 -1.1928203 -5.1384044 -0.52604204 0.32265726 2.1330912 3.7297547 6.087606 -3.1638339 -1.7057296 2.8932934 -0.050683867 -0.6137096 6.5808153 5.214337 2.0160608 0.92354023 4.0428476 2.5405135 4.8042216 2.5903356 1.5293627 -0.30716673 -4.7085714 0.21828535 0.73443884 0.2926 2.4665585 0.048495956 5.6527796 0.9892197
2111 4.3699856 1.5435748 1.8877985 -3.0772128 2.7499084 0.38418055 -0.6013671 1.6542498 -1.2229255 6.1707654 2.2880824 -1.1104177 -5.321771 -4.269258 2.8005311 -3.1003134 -0.9223276 -4.1351213 1.8403571 -3.1596403 -0.0926399 -0.068322845 -0.4181907 2.135603 3.5438113 -2.0797708 0.7971692 -3.2930255 -5.696346 1.2951007 -2.4920042 -1.7439798 3.0995317 0.9907495 0.013508591 0.71806693 -2.9306483 -5.701127 1.7548769 -3.7958272 3.1277096 7.889165 0.4992525 -4.9279585 2.6719851 -1.86038 -0.55222774 1.7463328 -0.24361107 2.2335663 -2.6898642 -2.2134337 -4.9935203 2.7163582 -0.4260813 2.724661 1.6248515 -2.363016 -4.086908 1.7526213 4.744071 -0.96827173 8.376416 -3.9191337
1371 1.8006333 1.6564972 1.2632504 5.904715 -3.317021 0.120549224 1.1305381 2.060803 -1.4446523 0.97470534 -2.3050184 1.1936836 0.15710658 2.647513 2.8227062 -2.2368214 3.0240574 0.8851089 -7.6195188 5.527947 -0.48054928 1.7039881 6.814513 -3.5977955 -3.0982523 -1.9868052 2.5670552 0.8805886 3.8880963 0.49368763 -0.67179406 3.0357003 0.082988285 0.39898977 -1.810439 -2.603148 -2.8397863 4.4339 1.9021688 1.209838 8.646674 -2.3140237 2.174099 2.3281221 -1.7174562 2.6638672 -1.2133554 2.6869802 1.4184434 -2.7155817 -0.13756533 6.299785 4.289772 3.0127487 3.8874063 0.10099907 -0.75829875 3.3078294 -3.7828422 -5.665218 -0.9288629 -0.73947495 1.5209478 -1.9734113
1199 3.7200654 7.491442 1.1355721 -4.0929475 0.44178212 -2.4575562 -19.993677 -2.091705 -2.9622867 -5.740455 -2.8328004 -1.2797363 -1.8887186 1.4862891 1.8057209 -1.4814702 -4.0045877 3.7304904 1.0541415 -2.0974722 -0.058737148 2.7599714 -0.57307875 1.7092831 4.489043 -3.9676478 -1.3601613 3.4931586 2.8865917 -0.9738019 -4.020782 1.2504576 2.4464154 9.033026 1.9069866 7.879551 6.7713146 -0.31816664 -2.109036 1.7525058 -7.7386007 8.30508 -3.1963487 -0.36505824 -4.158595 5.127874 4.0522556 0.42964968 -3.9091356 2.3819845 4.10968 -11.597967 6.149711 -7.8640194 -3.8984866 -3.0246062 -0.054529186 -3.268788 -6.367246 1.7491604 0.89954525 -6.0385046 1.6141156 4.1274495
5538 1.1141007 2.4592206 -6.6254144 -6.558274 -1.3147454 -1.2338179 -2.2659273 -0.32118174 0.28567123 4.5397344 1.0864387 -2.4246726 1.1372637 -1.0318558 3.004273 6.3579955 -6.614511 -2.7453551 -4.313898 -3.5074594 0.48273715 1.4644269 -0.58577734 4.8924637 -1.7439494 1.0604889 0.91092014 -1.3705503 1.9393122 7.5585136 -2.3044798 -4.703654 -3.7987528 1.5358914 -1.9594363 -1.1020073 -2.047066 0.2702085 -2.551502 -3.7171862 -3.7342122 -2.2074788 5.8914604 1.1294984 1.2537967 -0.50241154 0.18509276 -0.7181924 -4.729275 -2.0119002 -0.34047323 -6.6681976 -3.9126496 2.5599415 -3.7541318 2.6005456 2.2383823 3.8476665 -2.6522567 2.0643828 -1.4906563 2.0024014 -0.73899066 2.6106176
2060 1.3744498 0.7401078 -6.2477646 -6.082883 2.9607878 -1.8859911 -0.84909755 0.523235 2.910137 2.0774565 1.222214 -3.8569975 -4.5325065 0.35521615 -0.33987796 2.1703172 -1.3710538 1.013638 1.0610367 -3.6758907 1.740668 1.275828 -1.1370398 7.3204446 -2.572536 0.0010001396 -1.7562635 -0.66736007 1.7625624 8.135039 -2.4462101 -3.4721453 -2.1044116 0.67884207 -0.64751077 -0.9961118 -2.8189673 2.911986 -1.2270215 -2.5463672 -3.7733767 -2.6835246 7.7015834 1.7466252 0.3785828 0.7111093 -1.4580077 -1.5764416 -2.9973955 -3.0343091 -2.1325572 -5.3185115 -2.8875158 2.2361786 -3.415748 3.0506785 3.0042763 1.0664003 -4.172964 2.0466108 0.027025206 3.2278197 0.7086751 2.3273933
598 5.9670863 -3.4899755 0.45742372 10.316093 2.2763028 -3.1024485 6.119618 -0.036267612 -1.0647991 -0.8722001 3.368059 5.9260006 -1.8882 -0.57623196 -5.828086 0.75232226 2.7879832 3.2628567 5.52749 -0.2983521 -3.6233175 1.4640046 -1.9073168 5.4841557 -7.1447225 0.75435525 -1.4996806 -6.5460086 -1.9198394 3.1776216 10.859047 2.61345 3.1924224 1.367983 -2.5696964 -6.67685 5.869746 -4.5599327 -2.3244903 8.894276 3.317505 5.8707066 -2.702681 -3.5970566 -3.940268 -4.323388 -8.715785 -5.0292554 -5.9914336 4.3903627 -2.9752173 3.4515781 5.8783407 6.932009 3.9530284 0.047630977 -2.4556303 5.2868114 2.5438507 -5.0456104 0.33232266 -0.44588464 4.261114 3.8447149
5584 0.5270067 -0.82352823 -8.038395 -6.2365685 1.1111302 2.2317145 -2.609095 3.7692518 -0.015232324 -0.5306897 1.4516792 -6.5972695 -7.500632 3.048234 3.782449 0.5136941 -3.5870404 -0.7407958 -2.6984878 -1.2339844 0.5478583 -0.07052699 -0.6998405 5.257143 -2.3366177 0.15710218 -0.6238077 -2.441166 1.9005203 8.077274 -1.5107394 -3.6840603 -0.7601518 0.6638861 0.42499182 -1.8445376 -0.07482172 4.9017158 0.15224154 -2.1059635 -5.4310703 -0.60383075 5.999974 2.7186644 3.8718586 0.5155767 -3.0133226 -0.46452263 -1.2068526 -4.948951 -3.07095 -5.683168 -1.028555 1.8121303 -0.8371615 6.0505924 3.4714646 2.9977012 0.017015725 3.8741229 -2.5829265 0.21844216 -1.3578471 2.5830119
2306 -5.1376376 -3.9296846 1.850172 -0.17846987 -9.010592 -0.11736515 -12.681207 -7.6903405 8.688948 2.3121297 -4.676789 -1.2761303 1.3856906 4.2519784 3.6512244 -2.1877344 -7.932037 7.1733785 0.9013435 1.3567926 0.47524118 1.2538694 -4.1132264 3.3149867 9.47792 -5.8086433 1.5297093 4.0109406 -4.3482304 -2.9570327 -9.164339 1.5552654 -6.976851 -6.2965555 -0.30312473 0.49038017 3.777225 -2.131719 -1.079451 0.81058574 -0.13126796 4.945296 -1.868258 4.1813254 -0.61640835 -2.4732609 2.6711962 5.3089323 8.924122 2.456706 1.5383586 -6.531249 -2.628307 -10.74566 7.2383275 4.282928 6.2442417 1.7651995 -9.089627 1.0697604 1.0255375 -0.6145614 7.326325 9.148995
5412 7.785698 -1.9559077 -0.26426634 -0.8606185 0.72037834 -1.0454794 -12.076739 -0.8265703 6.1108637 -1.8639493 -2.0203846 3.3574133 -1.3012881 -2.614154 3.0620537 -0.098992705 -8.208166 -1.6338934 -1.5977906 -2.08775 1.2682159 3.6088283 3.510547 4.4711547 0.4016461 -1.1030818 -4.110884 10.0751505 5.447107 -0.089796916 0.66273236 0.47858965 -7.5491743 5.4113545 4.132913 5.968281 7.377783 2.9283254 -1.3232021 8.654124 -9.902908 6.6757207 5.5115466 -0.7052147 1.4913877 2.0503244 2.503946 2.538221 -1.7907281 -0.10773413 -0.49511996 -3.3419633 4.659316 -14.76501 0.5304013 -11.0443125 -3.6224554 -0.7260032 -5.7137055 3.5372903 -1.2805523 -3.3495615 0.8509133 0.14718015
5118 3.1419325 9.514103 0.4203056 1.9838197 2.0091722 0.6278481 4.4689083 -1.6100034 0.16496626 2.6063647 -2.0455527 -4.437732 1.3771476 5.8824286 -7.5725513 -5.2635145 -6.868914 10.513119 -2.785085 8.971646 2.6514554 0.8636157 8.65009 4.0199704 -5.701298 -1.1497818 -4.084316 -7.7345347 -1.980861 -8.770241 5.043616 -7.6193085 -2.1978624 -0.9260857 -7.7058554 -6.184022 14.830832 -9.217401 -0.24460027 0.5726574 -2.9378126 -2.5572164 0.11513085 -3.800687 4.7679024 4.495115 -11.5116005 -2.4774575 -0.55310446 2.6724179 4.2876997 -1.2064143 7.166797 1.0224894 -0.75832605 -3.2487192 0.329196 -1.8714929 6.206846 -3.6899858 -2.2187607 1.9151746 1.7229311 -0.8304874
2624 -5.8135004 1.3039467 -0.35831738 2.0622587 -1.1987011 2.8278024 -9.239825 -5.1155887 4.488257 -0.9745131 2.5575247 -0.5590008 -0.21394043 0.31515953 -2.814602 7.3047504 -0.48459527 -0.566824 -1.2286685 -1.2250746 -2.190606 -7.081575 4.410625 2.3795664 -5.184496 5.4260554 1.090705 0.30488512 3.8884673 -0.7844391 -2.55205 1.7339562 -1.9270669 8.41132 2.4625523 2.7628343 -5.7920637 0.35152504 -0.17001584 -5.851621 2.5722902 0.38449544 -7.76433 0.16875774 4.9283442 0.81316817 -0.7392772 -7.235683 -2.8723772 -1.1194829 -6.3710814 3.8625054 -2.4543705 -1.7836307 -3.1324034 0.24996583 -1.2543887 -6.9126263 0.48024642 2.6762478 1.9958819 2.0752432 -0.48413992 -3.1026926
5643 3.072422 -4.374482 -0.5064726 0.70986336 1.4093335 -2.038099 4.6222425 2.0637918 -1.5689393 -0.46906087 3.6694832 7.0391784 4.6493406 0.22978736 0.27123216 -0.6982781 -1.040782 4.1244173 2.9399655 3.7799933 -3.4844754 1.7213308 -0.4825365 -0.8070044 -3.1602082 -7.2744966 1.5624455 -3.4176164 3.5473528 2.6897788 11.450856 -2.2868197 1.0093809 2.07194 2.4962044 -0.5710577 12.151 -4.3015347 -2.6658876 2.6371403 0.45440707 -3.3418517 -4.2287855 3.3231342 -13.878171 3.6831915 -4.3346033 -4.622107 0.29901907 -0.9363221 -0.27388197 0.6640364 5.34762 -1.8694005 0.9993572 -6.7306814 1.9331958 4.031493 2.041941 -1.4723307 1.3773232 3.6319351 5.09665 -0.009313316
1333 -1.5117247 -6.3896365 1.1848794 -2.194695 0.20126985 -4.7546167 -5.8508825 -3.0489328 3.54973 0.69603926 1.880576 -3.8076606 -3.2250304 -2.074728 -2.857274 4.7447786 4.3261127 -0.40367877 -2.404204 2.6666462 1.9514724 3.7658205 4.018719 -2.7392323 -7.6070786 7.514395 11.297071 1.7737355 -2.7782621 2.6248293 -5.916208 4.9246583 -6.435747 2.6322908 0.37948388 3.9493394 1.3169031 -1.0636872 1.7532805 1.7442033 -7.8662667 -6.202113 0.4412164 0.4862534 -5.8759155 3.9329817 -3.7045767 6.4939036 1.4565055 0.85697633 -1.4131279 1.296322 -3.2767143 5.9879856 1.2745719 -4.240668 -8.551972 -8.627541 4.137162 3.198152 0.9275701 0.98034865 -2.8461592 4.0483036
2088 -0.3698653 2.8569286 -0.656055 0.87917995 0.5555569 0.08370029 -7.300505 -0.9434599 -2.5474725 -1.4154222 0.07925085 4.528058 -1.4464213 -1.5235652 -5.3454976 -0.8297933 2.5008018 -0.04160429 4.360393 -2.7353082 5.4275236 -1.377975 -4.5756564 8.802226 5.200062 2.447878 -2.0291858 0.7634394 -2.1653376 1.7743059 -0.99112016 -3.402557 2.8875666 1.1402738 -5.019965 2.4228504 -3.3509858 4.718126 3.707397 -0.32027844 -6.6838927 -2.419705 0.108671285 7.359863 7.5878644 3.6723294 0.27755335 6.496145 0.07947429 6.683723 -0.9243773 4.3465915 1.2353709 -0.82906777 -0.43435422 -0.50504994 -3.5439131 6.1245327 -0.41280922 -1.0223846 1.6743875 3.397428 -0.11877213 -3.8415146
4735 0.56594324 -1.1101035 -2.0856125 -1.4406265 -9.703692 -0.8459911 -1.1042172 6.652445 -3.856822 6.3160896 0.7100143 1.3954283 0.43102255 -4.7647185 0.35601634 1.8234046 -2.8338182 2.421386 -4.4520807 4.042153 2.7636094 -0.87522095 -5.168204 -1.8859905 0.3999777 4.1043067 0.064210676 -1.8905371 -0.44161415 -3.0545404 -0.8771441 -3.678803 4.343193 -0.41908857 -0.1462907 1.9794604 -2.841186 -3.0927744 2.1967006 -1.6194148 -7.529531 8.867632 3.293359 1.140303 -1.2250028 1.5200193 4.783721 -4.3233533 -0.49493286 4.851425 1.2142258 4.4329367 1.2438815 -2.7482996 -0.54670095 -2.804747 -1.3392942 2.246546 2.3459733 0.18336125 -2.879773 -2.9963815 -2.3827267 5.023653
3595 -2.2772977 -3.8537548 -8.061252 -7.1669254 1.82797 2.6631563 -4.1076665 1.975413 1.8977032 -2.1362777 4.0861373 -5.7903123 -7.804564 1.3591862 3.4015887 2.7594397 -5.297441 -1.6143682 -4.4661145 -2.072879 0.24812707 -3.1642778 1.4831179 7.6253276 -4.7602224 1.8697739 2.0972452 -1.9938271 0.25111416 8.155048 -0.27965084 -3.9810915 -0.10449746 2.0896645 1.5570326 -0.85611254 -0.9850125 5.2840776 0.24392083 -2.1603584 -5.175777 -0.743609 4.8758354 4.454146 1.8261516 0.012570063 -1.6333216 -0.29721215 -0.40812898 -4.9212565 -3.7274158 -2.244509 -4.036332 2.2844782 -0.25662708 5.2226963 2.7213688 2.7372599 0.22932187 6.1073523 0.06563799 -0.820217 -2.9997053 1.17956
4274 -4.8004856 0.6955617 -0.100105755 4.8949494 0.20072259 2.5526152 1.9255385 -1.4764453 1.0457535 3.3783457 0.0028610514 5.3904357 -2.1840656 -4.695169 -1.1117908 -4.7020354 -1.4184266 0.48779112 4.0482974 2.0165088 -4.2025213 6.5779486 -1.6434815 -0.95405537 1.7719982 -5.1078343 -0.04951345 1.3435634 -0.92434496 0.10129217 5.2353578 2.6684382 3.237558 -2.9121065 -9.808482 -5.361123 4.53652 -6.3294754 -3.1806967 1.178787 -4.1342854 -2.3540432 -2.0083134 -3.5275233 -7.320843 4.249231 2.2045555 -5.262499 -3.0358071 3.8721142 3.6217885 -4.693464 6.0641403 7.34572 4.6482987 0.10237546 -1.3970115 0.62797 1.7521315 8.372095 -4.2744303 1.7756582 1.0611984 1.3376285
3541 4.8568287 -0.8056906 -0.69091964 -2.61313 -0.548522 -4.420195 0.6386407 0.38801172 -2.1696072 2.6740801 3.9754663 2.8641386 -4.8249397 -5.7984433 3.4297652 1.4182105 -4.817733 -4.2309747 1.0710294 -3.0103405 0.05103389 -1.533836 -1.6754707 -1.2223749 4.4768033 -1.3731908 0.4930703 -2.435432 -2.8012161 -0.5643052 -2.0395823 0.004617001 1.1816756 1.5244288 3.364051 -3.7987392 -1.8974016 -2.6617656 2.3896692 -3.847126 4.9481807 7.4598145 0.43801153 -5.5043983 3.9699478 -2.3593714 -2.8863664 0.10020393 -3.016564 0.09935362 -2.4759355 0.18280223 -1.5999409 1.3881803 -4.5290127 2.1228623 -1.3007036 3.1726494 -5.217865 2.1840296 4.606089 4.5018787 7.412989 -4.9593534
4877 -0.2690392 -3.6562102 -1.7999016 -3.9592164 5.870898 7.96586 -3.1552968 -4.3139815 5.6780024 -2.2813928 7.2955294 -3.5911431 3.2479918 -11.819319 1.7515936 -0.34027973 2.8367305 -2.367957 -2.1355975 -3.0407774 -0.5649332 -0.3332392 2.9352367 -2.5223048 -3.953428 5.6088595 5.632849 -0.015358129 0.84623754 -3.3372514 0.95689833 4.096934 -6.840956 0.6313718 5.705699 4.3124046 -6.368349 -6.8122125 3.7085145 -8.044656 -5.1616454 1.3198438 -5.937046 2.3511302 -7.0950184 -1.8279586 1.034915 -1.1645291 3.2863197 -1.0676914 -1.5678285 8.487787 -2.7575884 1.7660004 4.188464 2.6128678 -7.539017 -2.0830927 3.519688 -1.1933551 2.3658288 0.44272792 -1.330756 -1.5882282
1201 -3.0704353 -9.21007 -0.029814791 1.210843 3.5803332 9.451844 -6.8116527 -4.8822384 0.21561663 -2.9961772 -2.8481312 2.9358885 -0.6798892 -1.3024483 -3.1909692 6.314752 2.321074 -3.6135135 1.0312864 1.2895843 0.49797004 6.263324 5.783781 3.2622948 1.560335 9.180518 10.402081 2.749705 3.301207 -0.63892406 3.6006427 0.2805053 0.123887405 0.55138075 -8.856977 8.910597 -11.342722 -7.4089017 9.01339 -3.4880128 -3.4442105 -2.6638207 -0.28721973 -0.09759085 -4.5974884 0.96206146 -0.08846815 -3.5030642 0.772813 1.590699 -4.449672 5.203025 -7.592319 -0.4618084 0.27355832 2.0812318 3.1197233 -9.168422 1.3667284 8.437805 0.09146553 -7.5461698 2.0497317 -0.6499896
2153 5.018149 1.8901188 -3.138716 3.443759 5.6641617 1.3558289 4.0066395 -2.9933221 1.6041994 3.5807161 -1.4534829 2.9386582 2.289584 3.0136256 -2.849784 -0.07967221 0.49184492 -0.51927865 -1.8734133 -0.34654257 -5.923689 -2.75502 3.3629081 -5.1480656 -6.303822 4.0155444 -1.7972542 3.1818624 7.0386004 -6.3730025 8.348312 5.2902093 5.349155 -2.2301557 0.069963075 -3.20683 5.9966626 -1.8998674 -6.931462 -3.2488322 3.2418168 1.8483182 5.551919 1.8087292 4.1912956 -4.69734 3.5161264 4.3850617 3.631245 7.6120687 -0.06433671 0.71868324 3.9732258 2.1275485 1.4734896 -6.6078606 -3.941022 3.0728397 2.3305259 1.0531197 2.874273 12.102243 -0.3717081 -0.9546722
1581 0.8969646 0.97842026 -4.752776 1.6269839 1.8034165 0.9780878 3.1310472 5.6616354 3.6640124 -2.0002353 1.0571069 9.729363 4.87839 -1.4441073 0.6578128 4.076873 -1.9309336 2.6482658 4.2710834 2.9952748 -9.739941 -2.5433707 -0.43334925 1.7632561 -2.5905788 -3.2034087 -2.4035287 0.7242938 1.6407859 4.208297 16.231188 -1.365649 1.7496692 1.5045866 0.6785024 -4.0855436 6.894369 -8.749417 -3.4397871 6.125516 -1.2411301 -1.9598291 -3.8475807 3.6187117 -6.8237343 -1.2374338 -4.1610236 -0.43830597 1.2849417 -1.2294942 -4.3121805 -2.0043578 4.555757 2.9324603 3.1610646 -0.19707009 -1.7594461 -2.1516256 1.0417728 -5.8036747 2.4025376 1.6488674 0.6189122 2.049562
787 -2.826234 9.002618 0.38446978 2.416057 0.18592094 -1.2298574 1.3161873 -7.7026305 -2.100943 -4.6659417 0.07491199 -1.7140845 -3.5357468 -4.3150315 -1.6686083 -1.6865085 2.0367167 -3.4559214 5.6395936 -0.5967139 0.93679714 0.3248647 6.34234 -3.7183788 0.55832976 2.5867994 -3.4681587 -9.26759 -1.8351632 0.22941053 -3.5357308 0.49762797 -0.97986907 2.1301787 2.1953764 4.997891 5.9508033 -3.1156948 3.5171 4.735665 -2.3675876 -3.2363465 0.63188595 -1.2553723 2.7974553 0.53956574 1.6032667 -7.400904 8.674844 0.5425638 12.09166 2.667663 -4.307276 3.4059873 -5.0173616 -2.5306578 6.0909 4.592634 -1.0647247 2.1750073 -0.3197746 2.8799932 -1.7296212 3.1347122
1429 -1.130373 -0.3023579 -3.6320722 -4.425386 -0.2686504 -1.354647 0.53469473 1.2512863 0.2619473 5.8352237 0.97737205 -4.117526 -0.9837185 0.9870299 2.9661021 5.1711116 -3.7071815 0.41090474 -3.0639904 -3.0389385 2.2353933 0.015062944 0.8809077 4.8482695 -3.4094057 0.25440478 -1.4161131 -3.6656861 0.4015592 6.0241985 0.17224282 -5.4749227 -3.6470902 1.6925784 -3.0388641 1.4335506 -2.8841715 0.4189637 -1.0511597 -3.8272052 -3.7116377 -0.4075004 5.688181 1.5559379 2.5529013 -0.74563867 -2.785363 -1.9114317 -2.8698287 -1.8486147 -1.4255259 -6.793572 -2.7784107 3.6143978 -1.6470547 4.2865458 1.557746 1.8038826 -3.1730387 1.6092542 -2.6769004 1.4248657 -1.529031 0.90332097
3987 -2.1912541 9.719233 0.070128135 1.5858786 -1.2302946 -0.5180068 1.6439997 -7.0001826 -3.0138237 -5.805781 0.6180281 -2.1329722 -4.030862 -5.6049848 -2.4602091 -1.2946545 2.210611 -2.720903 6.7189035 0.040582005 0.54070616 0.38967547 5.1169734 -3.4423926 0.58154577 1.3638704 -3.1134524 -9.936961 -1.8454809 0.6571538 -2.9503286 0.84449226 -1.8349425 2.0072987 1.48877 4.91889 6.5321684 -3.0288522 3.5570757 4.1591616 -3.1833057 -2.6183345 0.026026927 -0.9901529 2.8970313 1.2936505 1.6766071 -6.3578014 7.696469 0.5398923 10.874114 2.6696062 -4.4127793 3.662857 -5.4323826 -3.119124 5.7486305 4.8299327 -3.2873006 3.279938 0.2528005 3.006176 -1.3797464 3.1937695
1456 -0.20763695 -1.0076469 -8.094236 -6.678763 1.0506269 1.8775084 -2.9677563 4.1635256 -0.90729916 -1.5054486 1.2808601 -6.3914294 -7.6112757 2.4717784 4.489022 -0.22922498 -4.444838 -0.8307829 -3.058551 -1.466689 0.12119773 -0.7320059 -1.0234064 5.8139534 -2.7288654 -0.4767871 -0.2480175 -2.0773768 1.5974782 8.036488 -0.5105106 -3.3925564 -0.78822404 0.5494599 0.49381354 -1.0883138 0.33759674 5.6658764 -1.0642202 -1.7808 -5.5620427 -0.7277791 5.5905766 3.477616 3.7798212 0.72265434 -1.5457511 -0.5901482 -0.9696408 -4.5861325 -3.4790955 -4.638888 -1.6890769 2.7833986 -0.73366094 5.9188757 3.8002813 4.0235744 0.59595084 4.0089912 -1.6961695 0.55620456 -1.2645702 2.1079879
2851 3.303472 5.117466 3.2952049 -2.47647 -2.6839027 -3.9722533 -14.584866 0.54230183 -0.4962981 -3.3549411 0.23255287 -4.0861444 -0.48894066 -3.4280808 -6.4616585 5.9869366 -2.12964 -1.5990314 -5.669987 -0.10404993 2.441145 0.9403435 -6.691796 8.367764 7.5267105 -8.534312 -0.49146757 7.165387 1.3116442 -4.190922 3.8504977 3.5689192 1.5665164 8.642147 3.4188874 6.3584337 6.5790496 1.9792732 -4.8267894 -3.035506 -6.68745 1.677449 1.1378386 -8.424647 -1.2087965 1.5316086 -0.72315454 0.81385773 2.3010852 5.353661 2.0072682 -7.6313705 4.8071136 -5.9293013 -0.021312123 -8.77082 5.220697 -3.6350164 -11.047732 1.0351391 0.9463719 -5.0966434 -2.5859852 5.608754
1641 1.8967285 1.0234904 -0.62428486 5.051677 -1.3431365 -3.3011625 -1.5440896 -0.7357736 -3.461884 -0.86907595 -1.101199 3.3199072 -0.7340876 1.5787704 1.5852755 -2.8492076 3.299844 -0.3586877 -2.7091844 6.6639905 -0.7011712 -2.3439832 5.640906 -6.7416224 -2.7772772 -2.2729874 3.9423378 -0.31805807 4.25588 0.2958724 0.1872534 3.874111 -0.43006143 1.3338819 0.7190102 -0.73620135 -0.8523682 5.0073533 -0.35855713 0.8399516 10.591562 -3.1753752 -0.73119104 1.9067478 -0.43511903 5.1533613 -1.3485507 3.6638854 0.5967606 -1.0974448 2.1091003 4.0269656 4.8601174 2.0883467 3.87818 -0.0001178292 0.13826412 0.9510432 -7.2606697 -6.6249337 1.1933969 -0.39601648 3.6104748 -2.4792337
18 -4.1120462 10.579437 1.7449377 5.113172 2.1936278 0.57806623 0.8895639 -9.089388 4.657862 -2.8343022 -8.588559 4.536107 4.2202735 -2.7942882 1.9848677 3.9671197 -3.2736304 -2.176686 -3.4835443 0.58934355 7.344047 -0.07572926 2.0120072 -3.5920656 1.0193876 -2.051105 -1.507188 -1.308982 -8.693628 -0.70386714 8.759893 -0.57504374 -7.94697 -12.06692 -0.71385485 7.61561 4.2034235 1.5061758 6.952543 8.743089 3.0789318 1.1826754 7.625553 -1.9309494 4.0455737 -6.6255245 -1.5939095 -0.6961825 0.47019333 -2.4347746 0.11814598 2.6071684 4.95697 2.1760955 -9.398998 3.9297047 2.6753 4.856462 0.9627839 -4.206492 10.164458 -6.8550854 1.3876165 1.7203991
3094 1.5766131 -0.46053547 9.39582 0.1936116 -1.7980548 1.6897081 -2.615284 -1.3863653 -11.540243 2.910615 -11.682295 2.9487472 1.6443223 1.7128371 1.5521702 -2.4470687 -1.1815469 -5.231522 -11.326896 5.5718837 -6.9575377 3.4790225 3.8880627 -2.99012 -9.051035 -9.06717 -5.0836935 7.4520497 9.000765 1.7188902 0.65966284 4.743941 7.2099686 5.18026 0.9449916 2.7043107 -8.05867 1.1683757 -1.7403169 -4.0156274 2.2172792 0.7389719 2.1349056 -2.4814398 1.2221211 6.9133215 2.3402236 8.345255 -5.0019712 -2.5515132 4.8972225 -3.1725912 5.104493 12.350279 -0.7452056 2.0970445 7.459406 6.948063 0.20088165 -15.671376 -0.7147041 -6.955298 4.145052 -1.9615643
2366 -5.5401196 -8.543888 1.8770667 -2.869088 1.8837911 -0.94172347 -5.106276 -6.5240793 0.35585126 -0.20725453 6.6667476 -7.7503357 1.9957972 -3.2766263 -0.0043193907 2.8161674 -6.136615 6.6099367 -8.2662945 -3.199709 0.16837151 0.5974943 2.556003 -2.3777018 -5.9805293 7.3635015 12.835807 4.5266566 -3.8376677 -7.444495 1.7048953 -0.19466212 -2.4310126 -0.34546152 -6.078544 5.511221 -6.185308 1.2588296 -5.5171027 -6.232757 -2.120823 0.7867137 -5.661977 1.96093 -7.9372473 -1.7795736 -2.3865643 -5.183426 2.9991775 -3.6098757 0.14629008 5.1408687 -0.018846616 5.099222 0.7578147 -4.5083237 -3.9759316 2.1218517 4.7371016 7.961334 7.805178 6.1615334 5.4577055 4.318894
5093 0.5451098 -2.7687218 -0.29529992 1.4935594 1.3253963 6.3503823 1.760626 -0.014267627 -1.7333858 0.44422632 2.1796234 1.9558526 -0.33059675 3.7014863 -0.40197548 -3.7455738 0.7210046 -1.7884709 1.4837064 -3.1681285 -7.111931 2.2921152 -1.8689593 -0.5667066 7.477411 -4.747029 -2.2412555 1.3839115 -8.448577 1.5958362 -5.409574 -0.46810502 -1.8616724 0.6198811 2.1076221 -1.2952318 2.2703362 6.5305567 -1.889888 -1.6144062 -1.6840377 -1.8774667 0.057007436 -0.47492227 7.6127853 -2.0321403 -1.2643597 -0.16340874 -0.17988645 -1.7178642 1.9390662 1.8923446 0.52017814 2.9594097 -2.3372855 -1.594187 -1.6664274 -9.5712805 1.5784029 0.7564363 -0.67167115 -2.4112463 -5.343617 5.2590866
873 -0.6076074 -1.6251012 -6.3039355 -4.5727253 0.8745333 -1.6950326 0.69052625 0.7229054 1.0714169 5.6006813 1.0217711 -2.3831446 -0.4405501 -1.5050195 0.42112824 5.4244237 -4.5234017 -0.915612 0.55524504 -2.3178537 1.3666961 1.8755783 -2.3869557 8.046324 -3.4482763 -2.5936933 -0.15937851 -3.9388883 1.5742693 6.2140102 3.3354611 -6.3571863 -1.1308767 1.1682074 -2.7231953 -0.41006395 0.02620387 2.1532345 -0.8840191 -2.4743416 -3.2933288 -1.7850511 5.7418537 0.8445576 0.27329987 -1.167551 -1.6780939 -2.5806596 -3.1062686 -3.861466 -0.9901407 -6.5550613 -3.2257707 2.9707289 0.36190873 2.9422417 1.0535908 2.8529084 -1.6169877 1.6193472 -2.4926848 2.129553 0.54126763 -0.6794765
519 -3.9185116 -0.26853472 7.7046494 -3.5924146 -3.2437172 2.497461 2.299664 0.37490276 -1.4669825 -2.3548121 -7.8815427 0.60470814 -1.304516 -5.759358 0.36831704 -7.0253882 -3.2404726 1.5593572 -1.8967294 -0.2191317 -0.3488055 1.8298334 -7.6479487 -3.0115724 -3.5581849 2.3908439 -2.4349504 3.5043056 -0.29105306 -1.745088 -0.80622494 -2.6762583 0.5038406 1.1892859 4.671269 4.587242 -1.078675 -4.1196885 -0.59592384 -7.8127804 -5.38511 -1.6978716 -1.6772839 -4.9702187 3.9003086 3.597897 1.6859728 1.4891001 -6.728412 -4.057866 2.570413 -3.3229613 -0.4139803 5.820788 -3.5780745 -2.454821 7.3609586 -0.07127544 -5.5240545 -6.5931664 -1.9596676 1.7323072 -0.028971996 -0.3931286
2815 1.0246542 1.3055643 -8.251516 -5.5921583 -0.7688818 -3.409323 -1.1965239 -2.1273053 -0.72337544 2.3981915 5.5629926 -1.6898415 -5.7655973 -0.22868966 0.14691758 0.23255283 -2.2597136 -2.2157536 0.38533762 0.17620742 1.1771333 -2.412777 0.6879777 3.9523656 0.51477325 -4.032814 -2.3411007 -1.8958542 1.5909607 5.6394835 -1.4363347 -5.164354 1.4432862 -0.03761114 -2.7146451 -2.6757326 -4.1396675 6.35753 -4.5394278 -3.672633 -6.297464 -2.1694663 4.5319424 -0.61612236 2.9694688 -4.2405486 1.9340358 0.69270945 -7.3012323 -4.8811626 -2.0963671 -3.6826532 -1.7913456 4.1881695 -3.836662 6.131136 -0.8072059 3.0047505 -3.7278125 2.4047043 2.3998024 4.244673 1.1597457 2.6657112
2041 4.6133103 3.9533067 0.37748513 2.2884614 -0.36762834 -2.290124 -3.5296614 5.3192472 -2.2764041 -1.1691115 -4.906682 -1.5906621 -1.5794152 5.826255 2.82713 0.23535313 3.1914916 -2.394144 -5.6766267 6.113615 2.3138618 0.9433696 4.4707465 -3.2948546 -4.772071 -9.878041 3.4577246 2.866636 4.7519746 3.8414428 0.20645565 5.526388 -0.7659904 -4.341215 -2.578415 -1.4635826 0.10511926 0.22889411 4.4925127 0.46277872 4.340547 -2.6035042 3.415073 2.0116796 -2.807871 2.8795469 -0.9415811 3.3213365 1.513494 -1.0343062 -2.0043359 4.6612024 3.286235 0.8813936 -0.4329293 -2.0239646 -3.4470067 -0.5371034 -2.6846857 -1.8097706 0.08481391 1.0230783 1.2670574 2.1181912
5166 3.802156 -3.1457248 -4.607915 0.1096508 -5.2852483 0.022382662 0.6331756 3.4757526 -4.9587793 5.3144684 -2.7280314 -0.9777366 -2.9524584 -7.5750637 -1.2867591 -0.4939176 -2.7153525 2.3999171 -5.12605 -1.3941473 -0.58158195 -0.44441986 -1.2190461 -5.1417756 -1.5588431 4.3428974 -1.5503442 -1.3751028 -4.9005275 -2.4461079 -2.1848261 -2.1153824 2.5478907 -2.3958554 0.007465925 2.2545075 -2.5762177 -0.5064152 -0.33583167 -0.8984936 -6.0070333 4.8938484 0.4589213 -0.72819537 2.1380014 6.021957 2.5210927 2.2911522 -1.2745385 8.210596 -1.3998858 4.061418 3.8962083 -2.4789019 -1.6932629 -2.7085626 3.9773376 0.428975 0.6810617 0.35757077 -1.6339865 -1.4458013 -5.072044 5.9177356
1091 0.7914015 6.220356 0.43373114 4.5853906 -1.8165164 -4.938712 10.624576 2.036175 -0.7434634 1.1818229 0.91714334 5.6685734 -0.34518412 -2.5731702 -4.0880423 -1.09633 -6.509039 4.0536075 -0.0018542386 2.2315042 -1.9311879 6.804005 2.9437256 6.2275443 -10.195022 -2.6632836 -5.832435 -2.183827 -6.144526 -4.4493184 11.4507065 -2.5741398 -1.3458152 0.40271166 -4.646654 -0.246722 8.386832 -4.113172 -3.670029 2.2094727 4.274152 0.38387704 -4.2382903 -0.6843857 -3.4764946 1.507478 -5.60927 -5.9388523 -2.568677 0.91511965 2.7496243 -3.3758392 4.8999043 0.018389033 -0.4584027 -5.962103 4.4012594 -2.5556881 1.2613499 -0.21711004 0.37596363 1.7061832 -2.9164934 -0.9215177
724 3.216566 -0.61524975 -2.5786514 -0.29912102 1.4973141 6.1476307 -0.4567391 -0.0606877 -7.176048 -4.9452834 5.4535313 -2.214442 1.1371208 5.6405816 -0.68808633 -2.3299634 -0.7411969 -2.9759116 -1.1363955 0.37610626 -4.541713 3.0669684 -1.6217215 -1.5410548 -0.9849246 -4.3163605 0.8619719 2.1167905 -7.087227 2.5164385 -0.3751315 2.616262 -1.309884 -2.0150127 0.004108335 -1.8120652 0.10122584 6.7979813 -0.06925142 0.8097283 -1.422551 2.1804872 -2.0690868 0.81531286 7.3983974 -4.3026714 1.0105022 3.657431 -2.8726296 0.3633409 1.3191539 -0.46318626 -1.962845 -1.1852912 -2.9554834 0.14900517 -0.9687066 -1.3908321 4.690833 0.5051942 -1.3531622 -3.2344449 -6.682745 4.060017
1340 -1.6747806 -0.25694972 -4.5940766 -5.7844915 2.1898954 -3.7803357 3.4024756 1.3267125 -1.790974 2.7271078 3.3242912 -5.1503987 -4.692506 2.6558938 0.807533 2.1274607 -1.7734505 -3.2467983 -0.13449961 -3.1952002 1.6442487 -2.719392 -0.83262396 6.300271 -3.5048385 -3.4051547 -1.5609109 0.9316884 -0.6594018 4.7285843 -1.0302261 -3.6290145 -1.2056708 2.867239 -2.2404642 -1.118847 -4.43156 4.605807 0.37348154 -2.124185 -4.676755 -3.1511571 5.2507024 2.5576794 2.2654805 -0.20099336 -0.90110123 -0.613976 -4.9937644 -2.0525253 -3.8460627 -3.8998897 0.2012794 1.7527944 -3.6894011 3.5266933 3.4850755 1.0404837 -2.5047789 3.0416641 0.9257971 3.315527 1.6913619 0.75208735
4253 -0.84810674 -3.14977 5.991165 -1.1439162 4.62429 10.490508 -2.7452033 -1.1241096 -11.445044 -5.0688586 1.9996418 -4.2236195 4.091328 3.288439 0.7681288 -6.00768 -2.9245255 -3.658159 -4.9887633 0.98269844 -5.8095865 3.355376 -0.4515626 0.24030767 1.0141964 -4.5734534 -4.9246984 0.023209952 -4.6048455 -2.441507 -3.5295458 -1.8546746 -0.7597094 -1.9031541 -1.381212 -3.0160303 1.3796465 5.078164 -3.4217205 -3.0675719 -2.0271971 3.3286507 2.7454731 3.024369 4.1359315 -5.7503543 1.9701138 -0.73920935 -4.041391 -1.7072116 3.8389614 -0.81349134 0.27125633 -0.19678988 -7.900952 -1.1495204 1.6519749 -2.0716572 -1.9288263 -2.5017128 -2.133985 -2.0553973 -3.2219849 0.40079015
3460 1.4622855 4.016604 1.7890116 3.969672 -1.4777032 -4.685783 -0.1566228 1.2200216 -4.396423 -3.0115469 2.275094 10.641758 -1.3165765 -0.4730227 -4.1034775 1.1872162 -2.4990654 3.6228182 2.2023263 3.1978455 -4.6758394 5.8539433 0.653469 4.586805 -11.029567 -0.9514005 -2.4082885 -4.5657935 -4.0093226 1.8836303 7.347536 2.9212408 1.7490126 -1.2789192 -3.0644352 -7.718357 1.5944383 -5.019664 -7.117224 -0.95373327 0.2306704 -0.25680146 -6.5547285 6.905458 -9.986976 0.4879376 -1.5675675 -6.395603 5.085164 -4.8046155 4.2523174 -1.3147916 3.0756512 1.5582372 1.648909 0.33927795 1.9626622 6.4634495 -0.96959245 -3.9079502 -1.1683555 1.7931763 -2.3468254 2.3790321
2180 0.76147485 -1.0718201 -4.505327 2.7771626 0.036661915 -2.526444 3.9859405 4.793068 -2.118223 3.5908039 -2.098397 4.492117 -0.2339273 5.4227576 -1.9429005 -7.2673984 -7.5018253 1.9464806 8.399778 -0.36663848 -1.5716453 0.83137226 4.7844253 0.21610627 -0.8483614 4.1369433 0.36262548 -6.75809 2.7528827 0.008282481 -3.6149318 -7.4534845 2.391671 -0.69308364 -2.2953627 -1.7322531 2.4242241 -7.9095607 2.7180893 1.9126219 -1.2591758 -1.8082639 -1.9264606 -6.56718 -3.2059124 5.335237 2.6850426 -2.0148404 1.8367444 2.797265 -1.4157151 1.0131245 -5.720809 -0.22085688 -5.4762783 3.4866624 0.056920752 1.3461108 -5.43498 4.65485 1.4998735 -3.579881 0.14509581 -1.3991815
1836 -7.5146155 0.49300492 3.903123 -8.072608 6.165218 0.24989656 4.8350883 -4.663444 8.027819 12.062917 -5.053683 -7.7299747 4.25532 1.4942548 -4.272833 -5.597837 5.475731 -3.5285068 0.11804155 4.740203 0.6701872 1.3054397 -3.764894 -2.3068242 5.15631 -4.542346 -2.1210377 7.94821 -1.8921555 -3.4066548 -5.1185865 -1.3082147 2.8164046 3.4938538 0.9387784 6.6671824 -7.0667014 0.54322404 9.650654 -1.7485154 2.5987134 -3.4814687 -1.7918588 4.204287 -5.5788593 6.524084 -7.5330634 5.491639 -2.8862495 -2.7619498 2.5866628 -12.307475 4.0496407 -6.866367 2.4873128 0.08794836 13.1835985 -8.047113 4.889767 -2.7440295 -6.829524 0.2689792 1.9401512 -0.9854712
1961 -9.752743 -3.0014477 -1.8264631 -4.1018414 -3.590005 0.90720206 -0.21435227 -0.38241634 3.4767606 4.5923843 -0.28750268 2.0623672 3.6073923 2.6093483 -1.7280256 2.4493947 -3.1961703 2.515145 1.4172587 1.4277333 1.3715297 -2.270044 -3.5761535 -2.3655076 7.100483 -2.3307385 4.971822 4.6483593 1.3638854 0.1706739 -9.357123 -0.5508793 -1.2279625 -13.170441 1.3788407 4.6150007 3.8394651 -1.943078 2.864483 3.7771864 7.313441 -2.3157296 -1.4020253 -0.89007246 1.1219487 0.06904135 -1.3467854 2.4645402 -0.96352077 8.3518095 0.8194536 -1.1043237 2.4762232 -0.11586429 3.3853695 2.4345374 -0.5098608 5.857079 -0.69502276 0.6386893 9.311416 3.9517992 2.585227 8.870988
4962 -4.0410476 0.6827707 -1.1318944 3.7128973 -1.5503718 -0.55158085 5.785855 2.9846733 -0.7428219 2.9910836 2.1223476 2.2128026 -1.2567042 -10.8228655 4.678331 2.6435132 -9.64516 2.8984387 5.768931 3.6230395 -4.2478805 7.8933682 -2.986246 1.6802065 -5.61208 -3.566647 -0.56004065 -0.65305144 -2.0813398 4.805925 5.450992 1.5190678 0.8105449 3.1192727 -4.8586 -4.624215 7.462711 -1.8065135 3.2055473 3.2095683 3.909164 -2.502495 -2.4727767 2.0021672 -0.8583304 -2.1219451 -0.3465813 -4.031438 -6.899609 2.593511 6.441971 -4.026358 -0.8112254 -1.3145229 2.6628094 -6.604525 3.9549692 -2.8055003 -4.622157 1.3088397 -1.1515125 3.0217404 1.0558959 1.3874538
617 -0.33514473 1.5027882 5.204686 12.221542 5.175108 -4.3489666 4.2030764 1.5531062 2.4210527 3.5722728 0.55624115 -0.023807157 0.6846999 -1.5377402 2.1620836 0.5376615 -3.2148707 1.0057588 6.7386756 2.7804313 -5.6375656 -7.9749565 -6.842586 0.10656764 -2.4271162 -2.3458734 4.477824 -2.5957057 -1.8851697 3.133865 8.2681675 3.1165159 1.4489735 0.56399035 -1.1222626 -5.820415 8.564385 -2.8717053 3.8011434 1.5644972 -1.2546033 -3.528134 -8.4146185 5.1223946 -3.582512 1.8575045 -5.299324 -3.7039864 -4.5126987 3.9780905 0.8241511 -2.0225835 -2.5606115 3.5035155 2.988278 -6.184843 2.6841116 -4.1622825 4.4686823 2.7863846 3.9690363 4.377815 2.3518903 1.5612397
92 -1.479456 0.79856145 0.44854102 -0.9154589 0.37958503 0.9264187 -6.1978292 -0.3819246 -4.3665447 -0.281311 -3.2527828 3.4143016 -4.8475122 -0.5020817 -2.6371286 -0.28540412 2.0265055 0.60281205 2.1765244 -5.6404934 7.3489513 0.5688468 -2.8461936 10.505287 1.989479 4.96496 0.11286057 -0.10986656 -0.52101654 -0.22183992 -1.5865915 -0.72157705 0.017631283 -1.6022406 -2.5266907 0.43376154 -0.58685404 4.128411 6.4128284 -3.312604 -5.9218698 -0.1470439 -0.9207904 5.144576 6.5855026 2.5438044 -0.43125445 5.07203 -2.1212971 2.9506133 1.1204467 6.1556673 3.3536847 -0.2503496 1.6112037 1.1759278 0.8173788 2.3531754 1.6391219 -0.7289905 -0.23128432 7.243077 -1.6148521 -1.3747088
5808 4.263949 2.5890546 0.9338348 1.9308165 -1.8352908 -2.9780166 0.65202826 -0.44303977 -6.5261316 2.159812 -2.8233335 0.7116223 -0.33667135 2.8922148 4.0066867 2.6940024 -0.44989964 -0.36981744 -5.374934 5.1596565 -1.2975912 -1.562481 5.601895 -2.0171454 -6.6575084 -3.5146713 1.4803171 1.5046531 1.4280691 2.7587337 0.9474101 0.18904448 1.0048506 1.3320156 -0.4833886 -1.9890218 -0.68927723 2.5276442 2.777197 3.1656382 5.799791 -3.512224 0.19488998 3.9295943 -0.5822868 -0.2004009 6.6313305 7.558974 0.56689054 -1.6639887 -2.440434 4.275441 3.016343 3.212475 2.5312307 -1.0933014 -0.7663396 4.5805526 -2.35162 -2.4490218 -0.8216644 -2.5608413 1.7345172 -4.241129
5524 2.2898815 -0.15224604 -2.0906184 3.1331735 2.7517955 1.6199119 2.4623513 -4.258263 -0.5453028 5.969875 1.1044977 2.4102857 0.058399294 6.9593573 -0.28875178 0.92599034 3.2372015 0.867202 -3.3357248 4.055871 -3.6392648 -5.46031 0.45726433 -3.4892683 -4.938405 1.2334939 -2.6696472 0.44210336 6.9722495 -2.3887088 4.699951 4.2703476 2.035454 -2.2405 0.56368774 2.130345 5.7523427 -0.32908684 -3.9709637 -3.6514785 3.2702703 2.0105195 8.863333 -1.354617 -0.7704578 -3.004985 3.1553502 6.447101 7.219193 7.2851453 3.0854805 1.8921075 2.316842 1.8082007 -0.66721934 -4.6566935 1.1916177 1.3307341 0.2969439 1.4329863 -1.6847401 6.528312 2.139084 -0.16100964
2725 -1.3701909 1.1859374 5.0449457 1.2846193 1.5426378 -2.228498 3.1408732 5.164037 4.1097827 2.191268 5.2236896 8.360227 -1.733572 -0.92771 -1.4983678 4.6821856 -6.199991 1.6069312 5.16263 -2.5231733 -2.3285496 -0.21939959 0.22904688 0.40445933 -1.8726112 -5.9865737 -5.370196 -7.2524195 -1.573765 2.1997018 3.7713237 0.5131347 1.0431441 3.940613 -3.937314 -3.1135514 6.7577395 4.676823 2.3548162 1.4487495 0.09056218 -4.7409062 -6.003809 -2.7794712 -1.8818312 2.181991 0.13295737 -5.21784 -4.3974404 2.2742548 1.2460216 -0.521189 4.478456 -0.3213505 6.0449033 -4.372751 -4.246271 -1.0731137 2.2021575 -3.1720498 -3.813467 3.200215 0.38166618 4.200351
1144 -4.6292696 2.0676303 4.24996 4.1534815 -4.5878177 5.526811 -4.048956 -2.8906288 1.2029679 -0.9343632 -4.084282 -2.8596923 -2.8815665 0.37884375 -3.711182 3.9452214 -1.7057159 -1.3560628 -0.13199097 -1.536647 0.502427 4.6373267 3.1721563 1.9808733 -0.39617005 -0.2972965 -4.932384 -6.5854607 0.24254708 0.8609266 1.9499485 -4.734548 -0.048353788 -1.9163293 -0.4671107 -2.2211246 3.651535 0.5935904 -0.46174896 3.1178114 0.43078893 2.3030078 2.343021 -1.927052 -2.653893 1.624328 -3.760379 -0.14827049 -1.6203939 1.0062644 -5.4735236 0.5318461 -2.8659708 1.3064548 1.8039782 -2.4433565 1.1235213 -0.4450366 5.0866866 -1.54201 1.8544201 6.0844765 -1.786414 0.21763246
709 -0.69164217 -10.390884 -2.1494093 -3.447209 2.8060505 -4.3643126 -7.1677947 -2.150946 -1.9680568 -1.9045049 4.126545 -3.8369868 -3.6772912 1.3897253 0.8417636 -0.10859612 3.7105322 1.5083779 -2.0932534 1.7227557 0.6546864 0.580982 3.7205381 -0.875206 -1.6665305 6.241794 9.633266 0.31341347 2.3272662 2.0544083 -4.685943 1.9812645 -0.6988372 1.8200221 1.715103 6.720373 0.041395325 -2.215655 0.9295689 -2.4303448 -7.3337326 -3.364552 -5.8131413 -2.6402776 -6.4043307 3.9755065 -1.2737285 0.6024571 2.325345 2.4468198 -1.5539997 2.6244051 -0.82584697 7.6425424 -1.4650009 -2.3989465 -7.4965873 -4.188774 4.654918 4.456515 1.8152723 2.437772 -9.340321 3.19653
1127 2.7061946 1.4739971 -1.0729418 5.108183 -2.92972 -0.4345611 -1.4596019 -1.0155611 -2.6270564 0.7585432 -1.7903391 0.010591404 0.21744116 2.572106 2.6887145 -0.50708336 1.0640715 -2.2203426 -5.790093 1.979937 3.4425943 -0.19266886 5.792705 -4.170004 -6.598187 -4.3125415 0.85371614 2.4318879 5.2016706 -1.4467785 2.6912029 4.730283 -1.0654795 0.93516165 -1.7461656 -3.1875703 0.25285175 -2.3890858 2.8540268 5.4774656 7.98873 -0.11057096 2.4911113 1.8065988 -2.3126235 2.7432015 2.8214352 4.1767373 1.2494935 -1.3465189 -0.64725983 2.9421873 1.256923 0.827487 3.8820405 3.3745298 0.536805 1.4874345 -6.771908 -4.029007 1.6323631 -1.4474297 0.9778983 -2.8794804
3270 -1.4368316 -0.7305891 0.33109584 6.857458 0.80236006 -0.17763889 4.1400676 4.2501984 0.5458809 0.06165624 0.74454 -0.49881825 -2.526714 -1.7150241 2.2232811 1.8319181 -11.935335 2.6678195 5.115473 1.1700181 -4.8142715 7.2956243 -4.144006 -0.2461207 -5.2010016 -1.2763718 -0.59127384 -2.8115366 -4.0618405 2.8511987 5.9312806 3.965922 -2.379115 4.648581 -6.463299 -2.6088176 6.0068274 -4.033738 3.3515506 0.68138874 1.8875253 -3.4248803 -1.8503388 5.3928638 -5.773456 0.64287925 -3.2884166 -0.19612889 -9.707099 0.56261367 2.2647998 0.17821105 2.3745608 -3.4317405 3.2438042 -8.294217 1.6015662 0.39571404 -2.1185012 -1.5471168 -1.2836943 7.038845 4.637935 0.81482935
4974 2.19917 2.873058 2.9553318 2.912302 3.562657 -5.2356844 0.6014205 3.1033664 -5.6892514 -5.2053156 -1.541988 2.0642323 4.834544 5.5945034 2.775687 2.5468745 -2.4347458 1.6755997 0.4967661 5.2112083 -6.0939474 4.089405 -4.4261823 -3.0335042 -3.6494815 2.193164 -9.105182 0.42466062 -0.073408164 -2.9490557 2.8090923 -4.077597 -1.8666097 -1.8457445 -3.5050128 -0.85033876 5.4566975 -5.696367 8.260205 1.4741257 2.299086 1.2538978 -4.64441 3.4448116 -3.242887 -4.812906 2.3083937 -1.8574482 7.2151666 1.0839151 -4.3560886 -2.3961623 5.994652 7.5960298 2.9539692 4.7096934 2.2047193 -2.446701 -3.859226 3.9529006 -0.28068107 5.839438 -1.428512 -6.828972
4829 -2.353945 -0.54515725 -1.2215711 -2.5851264 0.98690724 1.6792109 -6.3260746 -4.1989045 3.682209 0.944672 1.3717933 -3.0369194 -0.042282924 1.0489107 -2.5594966 3.8959205 -4.860504 -0.37047774 4.835569 3.944713 1.875401 -2.7103066 -3.3238633 -5.1047053 4.3559422 -1.7802725 4.4235206 6.104682 3.9937663 -0.9340903 -4.2029915 -3.6379087 -8.41602 -13.573647 1.0902725 2.4491804 2.2680967 -2.142271 7.7849073 4.0628185 5.4947834 -0.2805912 -3.8812509 -1.9806455 1.08759 1.3471384 -0.42708254 3.0226119 0.07468983 8.188651 -1.6832979 -0.25495356 0.42103326 0.23460859 3.1959286 1.2534614 0.39993608 1.2819985 -3.2757144 -2.3125675 2.1754131 0.27439675 6.6403327 7.564049
5699 0.032208215 -6.6619205 3.5158772 -2.2713583 -5.763138 -4.973304 12.30069 -2.3012671 5.8582263 2.8204803 0.8618037 -2.885945 4.6736894 -0.46638036 0.50691336 -2.8807013 3.4665883 -1.9948682 11.29634 -0.07668234 2.3101225 -1.5765431 1.3702247 -2.6656008 -0.63174564 1.4415792 -1.5565716 -1.7254264 2.5590403 -6.3103986 -1.8286259 -2.8864288 -4.0666213 3.92383 1.6458076 3.551899 -5.804755 4.0336704 1.6278548 -1.5460492 0.8067076 1.6272632 2.1299372 7.976709 1.1087418 2.308486 5.235499 -3.6588776 -2.4697084 -1.5545985 -0.9304843 -3.3640683 2.1402917 -1.1529479 1.085212 0.023838285 3.8571854 -1.5451887 1.2995565 -0.44124025 -2.2354643 -2.0409403 4.1540003 0.47922057
3363 5.506628 -1.7048727 1.2635721 -0.20862636 -4.1608562 3.0277245 0.39133143 1.0390288 -0.66268235 1.5267997 -2.3376517 3.068679 -2.3393636 0.69297487 1.3048333 2.0272171 1.4034572 -2.918051 -6.3959413 6.3448753 -2.8060985 3.7104914 4.0208306 -1.091968 -5.731922 -0.38423172 -2.4879766 1.0475024 0.9533052 1.3558687 -1.9618695 6.0121145 2.2710016 -2.2679205 3.9233232 -5.2087116 -0.1538608 -1.8337685 4.38296 6.0635004 5.1032615 -3.8420255 7.3771772 7.630517 -4.14777 0.7783539 0.55855113 4.0829797 -0.74445343 -0.9318989 -2.6418939 4.7968535 2.7099984 2.9100776 -0.7559237 2.8665106 3.449579 1.7327145 -0.3203315 -0.28626382 1.7746669 3.3373687 0.7655755 -3.6834002
3726 5.04944 5.260034 2.8511028 -0.6590219 -1.8090981 3.6947157 1.080658 0.6641633 4.8193135 -0.047849692 3.3406734 1.8992062 -5.7923555 -3.4337146 -0.28155595 -2.2708144 6.606734 -3.524689 -2.9097147 -10.31215 4.3497505 -1.7350776 -0.28436574 8.706768 0.7965743 1.2404207 2.5687258 -1.9833643 -6.736465 -1.4388986 -2.8894587 3.4990911 6.147865 -6.8626986 -5.75087 6.4883857 3.6830478 0.9108512 -3.1944003 1.6427857 7.879289 4.295403 1.9379218 -1.7291719 -2.3734517 0.7337425 3.1842 -0.702228 -5.375942 -1.5174773 0.9063439 -5.0244155 0.30642983 0.47411913 0.4104195 1.4548187 -2.3617594 1.6976284 -0.31819564 6.8705997 -4.237243 0.3787166 -1.1447831 0.83667564
1400 6.2254305 -1.1085693 -0.30596235 1.3499216 -0.7771473 1.0073425 2.7311754 -1.5968761 -2.2152286 2.4314427 -3.4926674 2.8117507 4.2995615 1.4441051 2.3029592 4.0033364 0.26396334 0.5944277 -4.2819743 3.648099 -2.414146 1.7711773 5.405898 -4.05759 -4.808431 -2.8194504 1.7587535 3.5692875 3.6068866 -1.1456299 -1.2779392 6.6609483 4.283053 -2.5346339 -3.186046 -3.2178857 -2.5325632 0.7456274 0.84215546 5.9343767 6.3111196 -4.2700195 5.839289 2.5454328 -0.9279771 -0.16985562 0.4716098 1.627853 0.6563026 -1.0470833 1.2378951 -0.7698268 5.615549 1.6646175 3.4234538 0.95090115 0.025956878 2.2035766 1.7343452 -1.6719254 1.6627209 1.8425802 3.856405 2.0949814
2515 5.16421 -0.8352472 2.1214216 1.5790782 -3.9520028 -3.2782118 -5.1821003 3.0550075 -1.2966361 0.8187174 0.779417 -1.986839 0.629683 4.8899994 2.3493843 0.16165039 1.4415215 -1.8323038 -8.271611 5.290754 -3.055383 -2.8175995 6.128511 -2.7591445 -3.5838373 -7.037767 1.2558002 -1.2277752 2.089763 -2.0420403 2.3143907 5.7117405 1.867626 -0.17402661 -1.0350529 1.5514623 1.8103423 1.5321434 2.8670022 -0.7871517 7.916645 -2.7209308 2.5854852 -0.50992894 0.47953448 2.6068223 -0.3544605 5.862527 -1.242247 -3.2157118 1.7987915 3.931002 7.289413 2.5480282 2.7961082 -0.37279472 1.330951 0.72121745 -3.1605575 0.28591543 -0.08315895 -2.8556106 0.47361976 -1.1339571
3950 -4.424696 1.4170463 1.4217677 1.3525509 -2.29929 0.32457203 -3.3938377 -5.1200314 6.1752152 2.5449333 -2.870412 -3.1176846 0.9902266 1.6871592 -0.36786962 -1.2871621 -4.8743463 2.0264525 2.2610574 3.8890314 -0.94747657 -4.817905 -0.79100835 1.1856157 7.585291 -1.9353538 4.2616477 1.6592871 -2.1294942 -3.4802523 -7.70712 -1.5135422 -3.2507353 -9.206519 -0.43802667 3.374553 2.1733506 -0.85882103 0.62123847 -1.295733 2.8336728 3.089231 -7.5826516 3.118322 -1.734391 -0.7193317 -0.3866709 5.6916127 1.6556482 7.658422 -0.3578262 -2.1647236 -1.9904405 0.20779656 4.4216332 0.37123328 3.3519344 5.225981 -2.520218 -2.5599065 5.709521 2.1766055 4.1972594 11.669529
516 8.378214 -0.44558558 1.7171766 0.23744373 0.83940077 -0.26937553 -0.9203477 0.41397336 -0.7440105 2.1466053 -2.1909204 0.36237887 -0.3575542 2.8550785 3.3219018 -2.2361393 2.4656913 1.9478521 -5.508111 2.174558 -4.0388813 3.3834043 5.1641116 -5.889185 -9.063154 -3.052569 -0.50336367 1.1892685 2.4894414 0.7895305 0.09338775 4.199927 -0.4393831 0.6074973 -2.312826 0.01161573 -0.9498259 -0.11093548 0.6158789 3.6052802 4.0042005 -0.5487315 7.1198435 4.3543606 -1.6400458 2.22022 -0.24284682 0.50905645 -0.014860748 -2.5171335 -3.0812132 2.6666777 0.96254814 0.23679863 1.3865657 1.8190688 -0.053719908 -1.999677 1.8421378 -2.7537036 1.7007097 -1.088771 4.357132 -2.5591586
5905 -2.7987895 7.2159014 -0.15127042 -4.095188 0.46574107 -1.4256506 2.7981198 -2.8362658 -0.8936195 1.7087402 -1.0147917 -4.1676507 -6.047635 -1.5301306 -0.40824026 -2.94903 -2.6095722 7.5512342 -0.9839823 -2.287617 -1.2030774 9.0807295 -6.539306 1.0653957 3.2620227 -0.39254636 -2.8131542 -4.785519 5.229377 1.1260933 -7.350453 2.689502 -4.6836658 0.61343074 -2.099066 -0.36474437 -2.733651 -6.174688 0.6320823 5.4134216 0.8488899 -5.181262 -4.843762 7.8223634 1.4460007 -0.999901 -1.1031169 0.6026558 1.0046142 -3.39285 -0.97833294 0.87201434 -0.97235036 -5.917273 -4.1653814 -7.155036 5.382555 1.9885916 7.9551363 -0.34806958 4.6696033 -4.4507766 0.32647005 -0.90517414
4753 -5.7347813 -1.4179741 2.5208685 4.1415377 2.1344895 4.4219017 -4.473712 -7.1811047 3.2340574 -5.555397 0.824961 3.8323646 1.4346213 3.4464495 0.11567766 11.295015 1.1761866 -3.163487 1.8535894 -0.38664103 -0.7474173 -5.737203 5.2535324 3.0131702 0.017363297 4.258806 10.779224 3.8620722 2.923491 -0.5689912 -2.9083967 1.911319 2.1214967 5.3510184 3.9029691 3.5876381 -1.2561585 -2.8337228 -3.981886 -3.2206247 3.6562347 -1.5822234 -3.6535268 4.017395 -1.8920842 -3.3455923 -4.0347195 -4.27287 -4.9537106 0.43790552 -3.7967923 1.070885 -8.977537 -4.153536 -0.35974634 1.1659963 -1.6623251 -3.965325 3.917808 5.2364826 1.017466 -2.0730178 1.2585561 -3.824451
5082 2.7818809 -0.028591426 -1.0835954 -0.0027015784 -8.417264 -1.0498916 1.7567838 6.603298 -2.9331243 5.249085 -1.9061134 3.753021 2.9840968 -4.348766 -1.6038609 0.1947766 -2.3387716 0.32852894 -3.7379673 2.8959146 -0.73295814 -0.49987337 -5.3830204 -0.27907136 0.09929136 3.4967587 0.42850146 -1.7467614 0.10872274 -4.288132 -3.627254 -4.543473 2.1296916 0.121949464 0.12347176 2.296433 -3.7721286 -0.66798306 2.1180773 -1.4680091 -7.520858 6.9113183 2.31318 2.8304963 -1.6649919 0.65360254 0.19395456 -3.7412224 -1.3638673 7.6590805 0.64649135 2.4369195 1.5875258 -3.1866333 -2.044281 -1.5550942 -1.8582286 1.1440638 2.589725 0.3195158 -3.7561507 -3.7276251 -1.29472 5.4830904
3537 -4.254998 0.7450081 1.5059683 -0.20198518 -3.2979202 3.3540938 1.534755 -6.9142156 5.6501665 1.2961583 -4.003308 -1.1044439 1.737182 3.1450183 -4.0579114 0.8790374 -7.800432 1.5373424 0.052449726 0.74969983 0.94826883 -4.0538335 -4.1735377 -0.019593077 5.3328085 -3.6698625 1.4423628 6.5315886 -1.2840462 -0.42798316 -7.361141 -5.7875767 -6.6709223 -9.215874 -0.77188563 -1.1439921 -0.5880288 -3.6366806 1.6821357 3.9641075 1.0521866 2.7692583 -4.2456646 3.594044 -2.9850743 -2.3149087 -0.8177027 -2.0446901 5.461446 2.0390294 -1.3638338 -1.3349662 -0.5056453 -3.4260821 0.8484514 2.6206944 -2.063844 5.495421 -2.2919004 0.98084366 1.959623 4.8880115 3.2052085 3.594621
3793 2.6814137 -0.19383918 -2.4918203 -1.3573692 1.1772009 -3.3560426 0.74266577 3.1642761 0.3983327 -2.995405 -0.79198074 4.1867075 -2.2925582 4.3075395 5.436002 2.5324914 3.1115692 -3.7509668 -4.049903 2.910758 -0.80821466 -0.3919171 3.907228 -3.9134457 -4.117043 -6.586825 0.775724 6.4700484 4.151232 -0.8196277 2.1571314 5.2214284 -0.06392159 1.649255 3.577945 0.09635583 4.439846 1.4199506 -3.2052703 1.3011862 9.519229 -3.0630834 3.1279266 3.6502593 -1.4068482 0.1570799 -4.3833575 3.0562627 1.8002207 -3.1333015 -2.8596907 4.113065 1.1446407 2.724885 0.35287046 3.42661 3.9396915 1.2041641 0.90218735 -0.7403482 0.6231514 2.071728 7.619497 0.4713008
4585 -5.6489725 2.7168086 -0.80155224 -4.7213573 2.885506 -13.740331 4.437154 -1.2757714 4.7305803 -2.4997082 1.5165482 3.6803184 1.4530085 11.841229 -6.838277 1.3349977 -0.271457 4.4496837 -7.3435736 7.326882 10.507966 6.565013 -1.556431 -3.1790442 -0.70011425 3.5711296 -5.06554 -3.652972 -3.7087867 3.2878237 -2.6902242 1.2555192 -5.9194627 -10.549039 -5.942252 -1.9382422 12.140468 -3.8292537 4.551224 2.575166 3.9104772 1.63358 -0.19794478 -5.9253125 5.3977795 -1.7592416 1.6733245 1.9011496 1.240726 -4.743778 11.172079 -2.4664183 7.487376 -2.7750976 -1.0540798 6.0891824 0.07634023 -3.245332 5.0541596 1.9360698 0.024880111 -2.7882175 8.460353 -2.6100996
2612 -4.1696324 -2.3158996 9.388146 -6.628446 1.9025611 0.7761131 4.1150637 -0.9483539 -1.0783653 -3.4899604 -3.0427327 -3.2428243 -0.12811834 -3.2751818 4.106248 -4.6985383 -1.9248204 -6.2805552 2.8734877 -0.124211945 -2.3203225 4.82252 -3.7125857 -0.26339787 -2.581239 -0.54344046 -4.706884 4.4477873 -1.8893394 -1.9771811 -1.0942352 -1.0526594 6.8976803 1.1567615 6.516477 1.5345969 -1.3293717 -0.59212244 -0.6693634 -4.615605 -1.531171 -2.1212935 -2.4557343 -3.8214266 0.27919278 -0.82960606 0.38266027 2.9155595 -7.0671678 -3.0734785 5.5199523 -6.0037923 -1.6676226 3.9205048 -1.7857442 -0.6834456 4.9713707 2.9974763 -2.7000268 -1.9620271 -3.619422 0.94457126 3.859327 2.3410387
5489 0.7677677 1.2612265 -6.9390674 4.7884264 2.4291434 -1.534479 3.0862925 -5.8369656 -0.89101774 0.84534 1.0083569 5.750937 1.8890629 6.372188 0.65871596 0.51015234 2.8565385 0.57055026 -2.292022 4.6466117 -2.7748244 -2.243746 3.9748225 -3.8536394 -6.0338383 0.25092715 -0.30695385 1.4866171 5.165837 -2.510765 4.185872 3.9758708 3.7991176 -2.9596465 0.58363146 -0.91204506 2.9069655 1.283202 -4.8337135 -4.344145 -0.4980032 0.29829207 5.6412053 1.6624587 -1.0311825 -4.105665 1.3205401 5.941986 8.926796 6.9235573 0.7863178 -1.8054888 3.069094 0.40397057 1.9701083 -5.727083 -2.9700634 2.050675 2.5675783 -0.74294645 -3.3787699 7.484457 0.7095964 5.594683
5099 -5.3924465 -1.8989677 -1.112775 2.221596 1.1375751 3.5248725 -12.842037 -2.7774973 3.4269686 0.8402341 6.1280665 -3.9254813 -0.20096186 2.1295583 -2.1948874 9.100688 -3.2494323 -3.2904744 1.6226577 -0.7125269 4.8451004 -1.797161 3.4534383 -1.834035 -5.590015 9.785714 4.679344 3.6851983 5.492338 -1.116744 -3.3715658 -1.2817854 -0.61053026 -1.0677501 -0.61133 1.1165966 -3.0670023 -2.0416095 -4.5026054 -6.0467277 6.348226 5.143392 -4.605622 -1.8925192 4.1684947 -4.291585 -2.419202 -5.2843146 3.7719293 3.3940573 -3.5691395 5.2315807 -0.11352464 -0.09976524 -2.759097 2.7862687 -0.27026978 -4.668512 0.19089638 3.3546138 -2.0180159 0.007511226 -1.6051993 -0.9316441
5638 3.2535758 1.6381812 -1.1065567 -0.87146544 -1.3813941 -0.4336948 4.370255 -1.0657749 -2.1979742 -1.4192127 -3.0506108 0.95852566 0.030956741 4.9523754 6.651554 -2.5303469 2.2527716 -1.6555425 -4.71579 3.0754344 -1.470617 -3.2301664 3.8545399 -5.3112435 -5.6095843 0.63600206 1.4227252 0.102712676 5.5304613 2.5241618 1.9938297 3.0417945 -1.1991552 -0.66887975 1.4601759 -2.9006066 -1.2360045 3.933585 -1.4082472 1.4504075 6.0303903 -4.7503533 4.020668 0.19785175 -1.8327097 2.1176653 -1.5832809 5.8460894 1.8066735 -0.7535144 -2.0444005 2.6661978 7.2728853 0.50217485 -0.18255681 0.7247303 -4.4165816 0.4767384 -2.3367057 -3.078917 5.2017965 3.5286212 1.9761864 -0.16318388
1263 0.22371456 0.014506874 -3.107503 -3.3309138 0.5385815 0.004337362 -1.7769501 1.76976 3.087089 3.0501838 -1.7667347 -2.8427732 0.024833884 1.3450755 1.7885114 4.9539504 -3.1246707 1.4454291 -1.8102709 -3.7109466 0.62733996 0.7567708 -2.407368 2.2363768 -6.036095 1.0650764 -1.4680275 -5.477444 1.624277 6.107679 -0.7307088 -4.9468536 -3.601929 -0.8676159 -1.1963814 0.18765861 -3.9407535 2.1233954 -2.9543283 -2.470518 -0.9435886 -3.7422154 5.275822 -0.78109014 0.57746583 0.29346603 -2.7306528 -1.3561972 -3.115792 -0.6429561 1.1145 -5.3189526 -5.17281 1.1377556 -5.6209364 4.2870793 5.523255 4.657062 -3.7395978 1.3740963 -0.87064326 1.7916821 -2.6768785 2.2807121
3719 1.4772415 7.932515 -1.7547364 -2.9106495 -5.7506523 6.145773 0.1559383 -1.6589895 1.2747715 -6.8057914 2.9130483 -1.1394074 -2.1538365 -3.6696558 -3.6433427 4.369146 -0.37455848 8.796385 6.6299777 7.2767925 -2.3479555 0.66981936 -3.8150816 1.1200871 -0.81296116 -2.3540654 2.4983845 -8.828117 3.1703887 -2.1273708 -2.304898 2.1838496 -1.7860894 -3.5183804 -1.1675123 0.023249408 15.19692 -4.233518 -3.9358275 3.9139016 -3.0950842 -7.7628922 -6.3460336 -5.470728 4.433968 1.8714794 -1.1928009 1.0032264 -3.179049 2.0210156 7.747652 3.0057023 -1.6467513 0.68725574 -1.9415748 -1.0190172 1.2800137 1.2240362 -8.09982 2.9831493 2.7313974 4.1261964 4.3851914 0.6882306
5768 8.857642 3.0445135 2.9555287 1.0400679 5.3713126 4.130542 -11.766798 1.2283187 5.632935 1.9865993 -6.0832253 -1.3783739 0.22525041 2.9841495 2.1370428 0.39863306 -7.1257267 -0.40039986 -2.8872566 -4.1182823 8.660323 4.2586374 -6.9979997 0.7500315 3.573968 0.7114203 -1.5281051 -1.6571656 0.45382628 -4.6428475 -0.09582152 2.3013442 -2.6626945 4.7901564 4.177093 1.7370576 3.1113389 9.228894 -3.0073013 -4.913477 -1.1469706 0.5249292 3.5954251 -3.416989 -0.60131127 -2.215264 -1.5560421 -2.926246 2.3991172 0.98309857 4.828768 -2.7997434 3.9510849 -10.087909 4.740591 0.505035 2.0009887 -2.7355335 -0.525458 4.419852 -0.8247289 1.9826231 2.344644 -0.31800747
1075 3.5560772 -1.8993734 2.919817 2.8072162 4.71715 0.34069937 -4.6337557 -2.0433102 6.581926 -1.6685313 4.2876296 -4.6319695 0.766377 -2.5088606 -3.7305188 -0.6024279 -5.8220706 -5.5630393 -3.4839656 -5.036087 0.5262237 -0.8095928 2.0027268 -0.75787854 -9.258745 3.8285909 6.9472914 4.837738 3.8988094 -0.6562314 -0.16452831 2.8750417 -3.2033992 -5.917829 0.72610354 4.414954 -8.388236 -3.3086004 3.0530827 -4.4435053 -3.2900305 -2.5847325 3.0101943 -1.2818189 -9.280809 3.8549485 -7.249815 0.9500628 2.6247888 -0.10072616 -6.0897517 5.0672507 1.4837803 0.36803275 0.0020286958 -1.1770799 -8.250505 -1.891637 2.9052966 1.684659 4.2004523 -5.344068 -2.3408768 -1.6865367
4482 -1.2038143 1.9605033 0.8623539 7.238494 -3.045836 4.562681 -3.273813 -3.938347 2.935381 -1.7666365 -1.9580063 -3.135259 -3.0668564 -1.3509456 -1.6515378 1.6242746 -1.7150013 -0.68425995 2.0676174 0.004518247 -0.7326656 4.8883 0.74984735 1.1038506 -1.0108063 7.312399 -3.4046896 -2.4393048 1.6816102 -0.3726063 0.57324904 -0.14424512 1.5119004 -0.16107605 1.6544312 -2.910017 0.67836314 3.192973 0.17268649 1.0395314 -1.4124178 2.4561856 -1.1804355 -5.510178 -2.5109966 -0.34894246 1.0451143 3.2042325 0.27025983 0.5082457 -6.5337796 1.864299 -2.338281 1.4954172 0.4525251 -3.935569 -3.1571238 2.0686243 4.9097986 0.4943284 4.5890155 5.45454 -2.9345095 1.6929055
5346 -0.17126845 0.40735298 0.4191718 0.9892081 0.9014547 2.2996042 4.7650924 0.30281344 2.9628417 -0.93699867 1.941284 9.320757 0.6773518 -3.5593681 -0.84982544 1.2238444 -2.0903413 -1.9287444 4.9852433 -0.79670113 -8.73051 -4.048325 2.0750017 -0.19494206 -2.9730072 -4.494908 -1.8698452 -9.405356 -3.830704 2.1655467 6.955168 -2.8532581 0.3766982 -0.50470376 -2.037169 -4.3960032 7.5034738 -1.6528505 1.1786562 -0.7177188 -2.7149403 -0.14442798 -4.1161075 -0.23257454 -4.8577456 -0.25208372 3.511281 -0.37577838 -3.7943516 1.1792866 1.0039244 -0.48666614 3.9553537 -2.710857 10.581446 0.92227674 0.641107 -0.6797244 0.297372 0.30730402 1.9923666 0.4083791 -0.9114624 2.0080848
