1003 64
77 0.3967781 0.1314639 -0.29903626 -0.32309544 0.035852388 0.57291055 0.34421584 0.27292472 0.19461021 0.2616636 0.2875012 0.3939316 0.2403804 0.2153094 0.27775523 -0.15406919 -0.02168888 0.27579007 -0.084587395 -0.071803585 -0.22066276 -0.37062633 0.0636027 -0.12234046 0.32405385 0.5190464 -0.005017871 0.57117873 0.077309325 -0.10727104 0.08819379 0.059305985 -0.030071758 -0.09425775 -0.058307007 0.0031163553 -0.2782824 0.08735905 -0.22682117 -0.1688083 0.07871205 -0.10694973 -0.53514445 -0.24672931 -0.13344228 -0.48605618 0.19693209 -0.1854989 0.169078 0.5070647 -0.36638537 -0.01236995 -0.07433691 -0.13258918 0.1794934 0.2663415 0.07360537 -0.08017168 -0.012403625 0.35740283 -0.17125836 -0.16301657 0.18570173 0.15891923
632 0.1938093 -0.06734013 -0.2774771 -0.012594584 -0.32464015 -0.23936819 -0.0015343431 -0.26111776 0.16332377 -0.11771981 0.14388871 -0.018918745 -0.038548335 0.042005464 0.27263212 -0.27736777 -0.12352482 0.2299879 0.6120392 0.40198377 0.088454016 0.028772455 0.45007172 0.0063125547 -0.016099209 0.42536217 0.082045786 -0.2679329 0.12633155 -0.06504885 -0.46668968 -0.1883213 0.35687283 0.033293657 0.40327895 -0.12782879 0.35410112 0.052523848 -0.2544136 0.20728324 0.05764413 -0.15275551 0.088292204 -0.036494613 0.49092248 -0.094506666 0.08664152 -0.13028786 0.012982438 -0.1376028 -0.009995071 -0.37347406 0.1528947 -0.1905658 0.2423269 0.30184922 0.13401432 -0.11560267 0.19944242 -0.23125127 0.32908976 -0.5316236 0.22139366 0.33590615
803 0.27378538 -0.048454758 -0.34989285 0.009857905 -0.32217658 -0.4371275 -0.02764463 -0.19678903 0.14885725 -0.034360938 0.09780365 -0.0014326648 -0.063310914 -0.015627034 0.31376305 -0.42593625 -0.2754322 0.33131188 0.44485688 0.3371631 0.035716202 0.05493715 0.36051637 0.14812292 -0.024701767 0.55992377 -0.012981261 -0.05843208 0.2072167 -0.12131516 -0.3308601 -0.10309915 0.27470475 0.0008420935 0.40602753 -0.02850787 0.39322343 0.078559354 -0.30987373 0.34375814 -0.024644095 -0.28405157 0.1070868 -0.1700881 0.5619938 -0.10087894 0.13485144 -0.13193566 0.00016179754 -0.19860579 0.032641765 -0.32892954 0.15964907 -0.15989299 0.18137684 0.24851419 0.17579657 -0.16628456 0.20698549 -0.0715013 0.3476232 -0.50110817 0.31802243 0.26702476
981 0.19108772 -0.034872964 -0.23291652 -0.0004355432 -0.3467975 -0.39765492 0.0049509685 -0.2719325 0.10052614 -0.11550762 0.22226201 -0.09979565 -0.047507696 -0.07213473 0.29159603 -0.29226837 -0.29274234 0.26241696 0.44082883 0.38274196 0.08710188 0.003685431 0.38946566 -0.07277026 0.044418618 0.40173936 0.08925467 -0.3465975 0.07502273 0.011217206 -0.3790524 -0.25498575 0.38938463 0.12775567 0.34178862 -0.1250472 0.35876426 -0.0046156663 -0.2597469 0.25965083 0.0844508 -0.24491103 -0.012704684 -0.013006859 0.5585655 -0.15718257 0.13514896 -0.10952167 0.11556099 -0.13156717 -0.053753957 -0.46704257 0.017711567 -0.1835622 0.20800133 0.23328432 0.076621756 -0.040571857 0.18233491 -0.29077354 0.349057 -0.47140166 0.2463246 0.19050011
106 0.41148323 0.1081521 -0.28795868 -0.31357947 -0.023123994 0.7243024 0.39500117 0.15118983 0.18580028 0.23715362 0.2764586 0.38499835 0.2302133 0.083407 0.3125125 -0.122753076 -0.055687502 0.28338245 0.05339619 0.06913674 -0.104581326 -0.34284073 0.096783854 -0.12978414 0.41367897 0.36124074 0.06103091 0.3872109 -0.006044621 -0.042759407 0.28318584 0.047333047 0.0154418405 0.13772652 -0.1452122 -0.037799507 -0.28898442 0.16003762 -0.3247654 -0.3181813 0.07998311 -0.065363504 -0.47516057 0.03222332 -0.05629259 -0.55393225 0.1479514 -0.061859705 0.17167313 0.5158378 -0.29725036 -0.14488147 -0.22500618 -0.08271251 0.21363562 0.19803204 -0.07594139 -0.12906809 0.01925325 0.21004987 0.011838212 -0.10486511 -0.040853627 0.032620363
972 0.13593172 -0.057878695 -0.280895 -0.0066296495 -0.3424248 -0.41398987 0.0063822144 -0.12382119 0.12336458 -0.12640198 0.17897277 -0.015152354 -0.08523125 -0.033718545 0.32509324 -0.2839614 -0.20496476 0.2518679 0.53222597 0.43165994 0.08348247 -0.024922805 0.4130124 -0.07375635 0.0058990167 0.42852414 0.030267714 -0.27999195 0.10109936 -0.07775607 -0.42145133 -0.263696 0.3639483 0.14362091 0.333991 -0.13810632 0.3869754 -0.0354434 -0.2686913 0.2553701 0.03767025 -0.18129574 0.06854935 -0.11927525 0.4724141 -0.1846036 0.15447466 -0.044510286 0.040226836 -0.11561209 -0.02112445 -0.43076172 0.10338533 -0.07704977 0.20645651 0.19939783 0.045408107 -0.15300511 0.22179379 -0.3152106 0.27465793 -0.5080791 0.3034347 0.2723274
674 0.17314479 -0.15720978 -0.25168028 -0.013517197 -0.288617 -0.31152725 0.0024510692 -0.27224612 0.20212792 -0.1401995 0.12372823 -0.006667364 -0.025517771 0.043873854 0.25639012 -0.31723604 -0.21769887 0.26026538 0.47626048 0.4094365 0.118824884 0.0015954197 0.35895228 0.00070758816 -0.004096839 0.5117255 0.012988795 -0.26003793 0.17491175 -0.016063457 -0.29450142 -0.30223852 0.4419238 0.0936404 0.34224164 -0.08812626 0.32443455 0.024327056 -0.32514876 0.2977322 0.08163469 -0.30241328 0.07142417 0.00058469386 0.52253145 -0.12731361 0.15805906 -0.10178413 0.08794499 -0.1853126 0.036981367 -0.40321377 0.13678633 -0.19356899 0.22006904 0.23371123 0.09092838 -0.16017213 0.19507857 -0.16818145 0.34896538 -0.5425586 0.2600314 0.20240207
775 0.13917217 -0.054132354 -0.3295179 -0.039581947 -0.32393736 -0.38745937 0.046951625 -0.15526775 0.1513192 -0.097160794 0.12986448 0.03896871 0.031300046 -0.009490963 0.30268005 -0.3304969 -0.300767 0.19113816 0.5895555 0.31838584 0.088000365 -0.010765083 0.28461957 -0.016194735 0.072901614 0.47825566 0.04003275 -0.280481 0.14934394 -0.058802955 -0.4825044 -0.24571964 0.3625208 0.075732954 0.3828359 -0.03948653 0.27944922 0.17034371 -0.3132593 0.28655142 0.047846433 -0.19656786 0.023953827 -0.16271952 0.54728067 -0.11131303 0.10085975 -0.24977276 0.058632243 -0.16550913 0.004281737 -0.36297762 0.08706162 -0.18938753 0.23731188 0.12040556 0.2469935 -0.08717778 0.2343515 -0.19383359 0.33823204 -0.50635123 0.20506051 0.19346896
630 0.22979754 -0.0636062 -0.28330386 -0.02492288 -0.27959993 -0.37898028 -0.04152869 -0.17910787 0.07956688 -0.06702284 0.18554646 -0.038410813 0.05748387 0.034468606 0.25800756 -0.13160764 -0.2540284 0.2726504 0.5277117 0.34499285 -0.02213363 -0.0499328 0.4113478 -0.08734732 0.04207319 0.40130615 -0.057042047 -0.30837965 0.1441891 -0.058735043 -0.36725628 -0.31649238 0.35026827 0.053251583 0.36967683 -0.121746324 0.3015677 0.05023923 -0.20350005 0.27368414 0.10144906 -0.1329263 0.014074763 -0.15081203 0.61408067 -0.112400964 0.12562568 -0.26202685 0.043200627 -0.14512852 -0.06872751 -0.5263785 0.08935773 -0.20727415 0.17425105 0.15802084 0.20399022 -0.037743103 0.20875397 -0.26528218 0.43380928 -0.55117416 0.18820472 0.20304067
395 0.4549602 0.11334515 -0.29667553 -0.27054587 -0.092495866 0.667973 0.37052292 0.17349787 0.17205673 0.18851605 0.26402512 0.43681005 0.19216347 0.19041063 0.37743846 -0.07954847 -0.039430432 0.16091745 -0.026300903 -0.047359567 -0.2637544 -0.35947067 0.06529286 -0.17316915 0.41281012 0.24426875 0.05970963 0.31302994 -0.077903405 -0.1849282 0.19850133 0.013980749 -0.02251623 0.12940022 -0.14326441 -0.13030258 -0.31077006 0.058456633 -0.34563646 -0.25380442 0.05390715 -0.06605795 -0.44002616 -0.01401403 0.04911976 -0.54360104 0.16519004 0.09134039 0.19594 0.5930415 -0.33082104 -0.18556234 -0.2825107 -0.0053569353 0.30899224 0.19675544 -0.14744729 -0.14383379 -0.021636732 0.0780777 0.0056389635 -0.026184374 0.033492092 0.022691427
268 0.4303159 0.1456789 -0.277089 -0.3039808 -0.046828944 0.63373095 0.37660167 0.13717775 0.20460841 0.20872211 0.37274116 0.2733392 0.23717447 0.17893994 0.33896506 -0.05499237 -0.08559121 0.25341684 -0.052785072 0.071426064 -0.1646058 -0.42038417 0.123734236 -0.21128178 0.4699051 0.33796397 0.046815716 0.4008408 0.02698774 -0.049852032 0.15856539 0.0023962997 -0.004268835 0.1087114 -0.12208456 -0.072148606 -0.31522435 0.102675565 -0.14841887 -0.25499165 0.10040896 -0.036120057 -0.49321643 -0.023457544 0.038858566 -0.54833233 0.147566 0.06496394 0.16095848 0.5489321 -0.35335562 -0.15582098 -0.17796706 0.021298703 0.3148039 0.16164875 -0.13118717 -0.10414447 -0.037839644 0.24393384 0.04666806 -0.059687495 -0.017091658 0.016725212
9 0.48306742 0.12772833 -0.22188628 -0.29696736 -0.040736333 0.5121008 0.3926098 0.16741462 0.13427563 0.16305114 0.2594514 0.3705536 0.26978374 0.1999096 0.3520945 -0.13233316 -0.075918175 0.1771209 -0.034108754 0.005782939 -0.26618615 -0.46051073 0.13631444 -0.12780584 0.47411874 0.34528014 0.08486342 0.41877618 -0.10803731 -0.06551877 0.21806052 -0.024226984 -0.08003339 0.1280886 -0.18293007 -0.14673847 -0.43344373 0.00822752 -0.21654396 -0.24620968 0.063524276 -0.079063445 -0.40555212 -0.08475947 0.011163323 -0.51755774 0.27095583 -0.030049857 0.15185347 0.540899 -0.39099115 -0.16970217 -0.23831056 -0.062711984 0.2849881 0.18842466 -0.10057169 -0.082970284 -0.059554506 0.0800922 -0.017163184 -0.0674569 0.17409691 0.043020956
1 0.20017518 0.6092646 0.082144 -0.3772617 -0.15855698 0.58736986 0.50258636 0.16845639 -0.057474043 -0.6009183 0.6454158 0.22887 0.10363581 -0.16088462 0.2970556 0.44235778 -0.4297762 -0.32588053 -0.24130489 0.46928367 -0.034195572 -0.31170318 -0.0014076519 -1.1605996 0.70404506 -0.0012455073 0.10037096 -0.50337875 -0.5002203 0.2972342 -0.11982697 -0.44018072 0.25911704 0.9899734 -0.8267398 -0.29292545 -0.25496358 -0.43541688 -0.12965403 -0.6061311 0.21497457 0.12604408 -0.72597533 0.5178031 0.29885927 -1.0507826 0.079718806 0.65478915 0.4801523 0.96559983 -0.5223587 -0.80178636 -0.6383616 0.47283593 0.54775476 0.5275176 -0.7897886 0.29582867 -0.20605008 -0.80893475 -0.15423943 0.049761996 -0.19781211 -0.36587256
931 0.20108561 -0.08295779 -0.2678411 0.057062335 -0.31419706 -0.28406867 0.059208028 -0.20568207 0.15954177 -0.16002427 0.07867341 0.0020456202 -0.11300377 0.03046034 0.2991715 -0.3383456 -0.26114038 0.20255426 0.529705 0.3993142 0.08180088 0.013788517 0.36650193 0.01983491 -0.049616504 0.5147316 0.07125043 -0.258399 0.14018393 -0.0020029526 -0.31646973 -0.28757405 0.37473294 0.092804484 0.41133058 -0.13007428 0.34988648 0.11296749 -0.27454346 0.2693181 0.07674299 -0.26698217 -0.0076560397 -0.094966635 0.49160472 -0.17578703 0.06602928 -0.13645047 0.08423643 -0.12343876 0.042354826 -0.43007463 0.1224764 -0.17664514 0.16543597 0.1589612 0.18546961 -0.12190057 0.20035675 -0.14285696 0.40388802 -0.5176008 0.27955282 0.27399912
785 0.1004963 -0.11426489 -0.1813534 -0.047216836 -0.1732572 -0.3420681 -0.010644883 -0.2830387 0.088691816 -0.08304146 0.22531252 -0.07059128 0.06321611 -0.014878041 0.25438318 -0.28581852 -0.24822004 0.26367486 0.47750703 0.41430476 0.08146513 0.02986538 0.45208445 -0.111304626 0.12779406 0.45450583 0.06199448 -0.35441995 0.092519455 -0.13229415 -0.34284446 -0.29684156 0.3562078 0.06778638 0.32859337 -0.07746004 0.36088434 0.00633198 -0.23822568 0.24261706 -0.019417102 -0.26878712 0.050235447 -0.09527477 0.5558224 -0.13849927 0.15755033 -0.07604822 0.067013375 -0.07633221 -0.06058013 -0.50848335 0.16517876 -0.13989373 0.19879255 0.16981818 0.12915498 -0.07237135 0.23860654 -0.3044916 0.39641508 -0.4845806 0.30933803 0.22657803
466 0.41170856 0.19162183 -0.32346126 -0.30332312 -0.114664 0.6887216 0.3833468 0.18131177 0.20445362 0.14046296 0.27749577 0.42483747 0.17305164 0.09575188 0.32435217 -0.027591338 -0.021276155 0.112542085 -0.010477186 0.08360821 -0.15939617 -0.2885644 0.0954512 -0.22537974 0.41192293 0.3754111 0.05672347 0.31067368 -0.035423584 -0.02080459 0.14596106 0.07144188 -0.022638561 0.07377726 -0.17164168 -0.050729346 -0.2940124 0.038802017 -0.29691628 -0.25425148 0.057340458 -0.03425744 -0.43165505 -0.056046315 -0.028353829 -0.580418 0.2315344 -0.083937064 0.15170407 0.5841871 -0.27962726 -0.14707626 -0.28834152 0.019567959 0.33360833 0.26153085 -0.12859012 -0.06608881 -0.056261454 0.14946818 -0.038303245 -0.120175734 0.058392815 0.09306044
843 0.27288207 -0.10321252 -0.18779662 -0.08733435 -0.25793344 -0.32869107 -0.063738905 -0.2971084 0.1711847 -0.044739556 0.1352029 0.015780762 -0.022502907 0.008537833 0.2583799 -0.36615208 -0.17314805 0.25491145 0.52459276 0.35086387 0.077637896 -0.011325193 0.36826995 0.084872566 0.0368347 0.515841 0.06646942 -0.116884105 0.19589375 -0.08015081 -0.34711817 -0.20828375 0.38108957 -0.028378677 0.3598691 -0.08954551 0.35193345 0.044622254 -0.29133222 0.33124587 0.11677691 -0.22380495 0.055041663 -0.08018176 0.5142304 -0.052342825 0.14687213 -0.19001183 0.037375156 -0.27126914 0.026598971 -0.40829632 0.13433442 -0.28846377 0.20246546 0.21860944 0.1891165 -0.14262316 0.24637337 -0.18789195 0.33655858 -0.47187367 0.34534374 0.2992978
894 0.15171686 -0.014780782 -0.33232877 0.017349819 -0.35066167 -0.24184555 0.035382472 -0.235679 0.09347863 -0.19091779 0.1977978 0.0017933092 -0.051124033 -0.0053045903 0.28905675 -0.23112339 -0.13910876 0.26254925 0.63544035 0.3768831 0.0013889842 -0.047571037 0.4401945 0.004722755 0.082130715 0.37767306 -0.006427319 -0.33351395 0.10196382 -0.013235142 -0.4323441 -0.2732936 0.47655174 0.0024371117 0.36926883 -0.12468311 0.3021158 0.0762395 -0.27405217 0.20342682 0.12596588 -0.11484499 0.12654072 -0.03977014 0.54239696 -0.06295245 0.10989236 -0.16841373 0.15442097 -0.14443387 -0.0027914904 -0.3553889 0.13769516 -0.19504574 0.13030168 0.2668982 0.12702954 -0.070438765 0.16721703 -0.30978397 0.38870445 -0.5442034 0.18658662 0.212263
313 0.44844583 0.15734376 -0.22212052 -0.23661146 0.025136258 0.5935405 0.3595348 0.21111591 0.21233766 0.17233714 0.28136057 0.40844566 0.23099692 0.2088948 0.30870143 -0.09972337 -0.04890626 0.18171166 -0.061009597 0.016669488 -0.22438094 -0.35054576 0.042916004 -0.148848 0.36853564 0.3785876 0.04608783 0.53383017 0.0009240321 -0.038401634 0.22904743 0.048441008 0.04372418 0.070449434 -0.064893186 -0.08831001 -0.35230696 0.07599262 -0.20702088 -0.17022564 0.06369206 -0.14457415 -0.46315765 -0.1556057 0.07305857 -0.58312905 0.22239229 -0.087732844 0.17606702 0.5535658 -0.37704945 -0.12225015 -0.20118272 -0.0946389 0.20841652 0.18977799 -0.08141863 -0.09760962 -0.035521008 0.17976959 -0.025368916 -0.09221131 0.026351932 0.05453041
325 0.4160096 0.17407882 -0.22744426 -0.32703355 -0.013507671 0.6616002 0.36669737 0.26060152 0.2889839 0.13340144 0.26259425 0.46267766 0.112086296 0.12017614 0.33009407 -0.058384422 -0.13796297 0.059887983 -0.1157543 0.08718195 -0.26814815 -0.36727384 0.09319916 -0.25612473 0.43242562 0.29456508 0.0043483544 0.36095208 -0.031792022 -0.14939831 0.05464674 0.12062815 0.07492736 0.09597887 -0.09040893 -0.050434493 -0.26008356 0.10417505 -0.24697402 -0.21327275 0.014508544 0.03510136 -0.46221152 -0.1038558 -0.027571565 -0.6357803 0.18511043 0.0032683285 0.27205983 0.52475494 -0.3474395 -0.039160267 -0.25252542 -0.056871366 0.36996356 0.27456 -0.078475915 -0.060618713 -0.012623009 0.0948824 0.049608655 -0.14851066 -0.030571561 0.01025111
611 0.1471713 -0.04149688 -0.27583343 0.08637573 -0.34224293 -0.34047872 0.0053736516 -0.12610948 0.042560957 -0.04686546 0.16655411 0.0055974834 0.014715795 0.05231987 0.2076926 -0.22118531 -0.30238894 0.26374978 0.59348524 0.31516057 0.13703866 -0.05640067 0.37045652 -0.04154675 -0.01110688 0.43172634 0.10147031 -0.24620858 0.13193971 -0.058272827 -0.49064672 -0.20968206 0.36865908 0.068421826 0.36625034 -0.094304524 0.26435 0.12987325 -0.28055373 0.27353024 0.05859307 -0.16689658 0.10507982 -0.13839103 0.5663807 -0.16558479 0.116172925 -0.17155117 0.060943056 -0.19594453 -0.05469937 -0.37997603 0.038098633 -0.20255195 0.2442078 0.20239486 0.22413655 -0.13074626 0.104679585 -0.2294135 0.34920043 -0.6007339 0.21644738 0.30436912
362 0.47265673 0.19478999 -0.2503102 -0.2960328 0.012561347 0.56452334 0.3366573 0.13032474 0.25094354 0.24827817 0.27470323 0.26154432 0.23067828 0.20039551 0.32100543 -0.17648743 -0.049435884 0.14214309 0.024073975 0.016710902 -0.23244019 -0.32984772 0.09724209 -0.14693582 0.4068756 0.4393734 0.03700222 0.4008948 -0.016593518 -0.031608302 0.14010385 0.021753358 -0.04324775 0.08915392 -0.18476236 -0.10951158 -0.34717593 0.12700185 -0.12825955 -0.28439477 0.14603798 -0.025369516 -0.4479371 -0.11907057 -0.049453948 -0.6352469 0.31992483 0.028082171 0.1627896 0.5922615 -0.34631607 -0.13069849 -0.141251 -0.06558842 0.28467065 0.19950154 -0.13133244 -0.023902923 0.0077432645 0.22989379 0.07148528 -0.18757145 0.0026928773 -0.014722898
236 0.42378998 0.17822719 -0.25467536 -0.38016206 -0.087384626 0.6445797 0.29296276 0.21302968 0.1587578 0.08806229 0.27465445 0.32227746 0.20045604 0.11103096 0.18973063 -0.04367339 -0.10557447 0.104886614 -0.07297396 0.0068184566 -0.16481234 -0.3771143 0.048723567 -0.15115212 0.3847154 0.38289824 -0.003030052 0.43341228 -0.02954239 -0.020514857 0.09683411 -0.022680031 -0.0070445896 0.24534748 -0.11301315 -0.11402412 -0.35708755 0.05081798 -0.27462584 -0.34931117 0.08063342 -0.075769745 -0.5175692 -0.08679317 -0.009382164 -0.62507147 0.13210285 -0.0052810023 0.1929197 0.58250433 -0.37383983 -0.19982933 -0.13580471 0.062275242 0.3538336 0.23289175 -0.09829929 -0.077074856 -0.06068795 0.1270495 -0.032102596 -0.13410755 -0.05034888 0.027443303
65 0.3616675 0.16818172 -0.35835457 -0.32328445 0.002468656 0.56088597 0.3945771 0.21925691 0.17817053 0.21318452 0.35769057 0.3604491 0.21041788 0.16119146 0.39326355 -0.108404376 -0.13228814 0.13077717 -0.120238476 0.038407862 -0.20827541 -0.3337672 -0.021546287 -0.22089042 0.480166 0.38338196 0.07527428 0.3671924 0.09189454 -0.035374023 0.19751602 0.18252881 -0.027548045 0.08361685 -0.1314749 -0.0034432563 -0.26644877 0.17353134 -0.20190166 -0.29041377 0.15961914 -0.092012785 -0.48107412 0.011535608 -0.005720186 -0.4759171 0.20062032 -0.031399675 0.17479381 0.48435768 -0.4122596 -0.17607541 -0.15418842 -0.012257836 0.34721902 0.26157132 -0.07422387 -0.041584257 -0.11764891 0.16575524 -0.032692164 -0.061820325 0.047891065 0.13626993
532 0.10968719 -0.077847205 -0.25861824 -0.14418337 -0.29316008 -0.3665074 -0.005368001 -0.25838974 0.068478815 -0.08713056 0.15726762 -0.028721798 -0.019117093 0.029504826 0.24267133 -0.27965143 -0.24734123 0.28428063 0.5017725 0.39955148 0.1448045 -0.038792294 0.3762098 0.015723031 0.09537165 0.5048714 0.061995357 -0.19298366 0.168124 0.007365847 -0.3560593 -0.36165076 0.43792513 0.03708795 0.4161476 -0.004493688 0.33972833 0.1319769 -0.21398795 0.20208102 0.10031971 -0.2460117 0.030612238 -0.13503239 0.529019 -0.114587165 0.098012805 -0.13514791 0.062324185 -0.19261788 -0.015445661 -0.4370989 0.079546794 -0.20419961 0.15471663 0.12607487 0.2065748 -0.11535578 0.22527212 -0.19722876 0.32885712 -0.5538727 0.2558178 0.23290473
403 0.503396 0.1366184 -0.28036055 -0.23797517 -0.05625367 0.5964335 0.36706498 0.19778626 0.19651549 0.18015504 0.2895411 0.43356135 0.2310213 0.188322 0.3534017 -0.051493134 -0.021981798 0.2297478 -0.061226383 0.041696087 -0.24078362 -0.3220644 0.12285908 -0.115317956 0.41996393 0.37989506 0.022914724 0.45662272 -0.022379901 -0.17835857 0.19901702 0.03008097 0.018159848 0.08143999 -0.13056113 -0.0413855 -0.32750046 0.09529933 -0.23838852 -0.27172807 0.06944746 -0.04489081 -0.4275267 -0.061545067 -0.06415691 -0.47772866 0.20014295 -0.054686375 0.12257405 0.56025165 -0.350549 -0.16374443 -0.20525865 -0.057726867 0.2761563 0.18811621 0.0013542293 -0.08877941 -0.061471343 0.25121906 0.04567896 -0.11358996 0.043403074 0.038575817
290 0.41052678 0.19423525 -0.30200872 -0.36756086 0.044135775 0.60888374 0.35798013 0.24294117 0.09922786 0.16739088 0.3066159 0.3648293 0.15172215 0.1611211 0.3237173 -0.024283458 -0.00996066 0.15052797 -0.05618365 0.053851508 -0.17161842 -0.35275972 0.07209967 -0.27451706 0.31425112 0.36311883 0.0051700906 0.5049171 0.049883064 -0.09697562 0.2266267 0.08750168 -0.002161786 0.074234754 -0.1092743 -0.026589602 -0.275595 0.10158939 -0.23543546 -0.22355273 0.10822291 -0.050373122 -0.5101396 -0.08165271 0.02188703 -0.53999704 0.18854433 -0.07039393 0.15205222 0.52695304 -0.33859336 -0.1272415 -0.20510237 -0.13647202 0.2681708 0.30075487 -0.08138164 -0.15024307 -0.053198025 0.1590268 -0.10298432 -0.14204371 0.016129712 0.20222422
560 0.22146252 -0.059330862 -0.29369494 0.048735265 -0.3263334 -0.28610826 0.010490836 -0.07349813 0.0843308 -0.17105727 0.18613671 -0.06530181 -0.018222304 0.006782448 0.33727655 -0.21681514 -0.28484076 0.21413669 0.59161645 0.38744795 0.101335876 0.0407905 0.33078867 -0.04299077 -0.0036402172 0.37521952 0.038082376 -0.278192 0.097846545 -0.13690808 -0.44988352 -0.26632333 0.26571932 0.14332414 0.4072472 -0.1527512 0.34011972 -0.045949034 -0.34920853 0.23023283 0.040273782 -0.16081505 0.072024606 -0.12822993 0.52389175 -0.13968651 0.025646793 -0.03414375 0.054367345 -0.14694782 0.022202041 -0.5082801 0.08460542 -0.15478598 0.18912196 0.24988776 0.06916608 -0.025618989 0.18516745 -0.29992056 0.37165198 -0.5143151 0.29878154 0.18820594
107 0.44744286 0.099832945 -0.27141243 -0.27617684 0.08857702 0.64279115 0.3375371 0.2563395 0.19608079 0.1987403 0.23910968 0.38177642 0.17375071 0.13018905 0.30722535 -0.17307274 -0.09674203 0.1534483 -0.033428345 -0.0089835655 -0.21825352 -0.3086936 0.018203752 -0.19307204 0.41169062 0.38678628 0.01033487 0.48223382 0.09351825 -0.16335614 0.15764576 0.15787221 -0.014167268 -0.018209733 -0.19722015 -0.072379224 -0.38543114 0.102942914 -0.34811455 -0.23545565 0.09438975 -0.09776896 -0.43649358 -0.02650087 -0.018486088 -0.45055953 0.25631547 -0.208959 0.010464117 0.5044631 -0.3704672 -0.14556809 -0.20301595 -0.058151934 0.2499331 0.25175068 -0.03483761 -0.09084551 -0.04863286 0.28143188 0.031250577 -0.19616967 0.1011928 0.09036228
905 0.22509848 -0.09723723 -0.3150391 0.05848739 -0.27472165 -0.3342073 0.03818569 -0.15947813 0.080594376 -0.072381854 0.17191158 -0.020410415 0.03323293 -0.05359938 0.31467515 -0.37225527 -0.18697411 0.18646678 0.63631135 0.45870996 0.113474295 0.06789288 0.40441957 -0.02529845 0.06042817 0.32787183 -0.007166269 -0.26195368 0.0434723 -0.16637938 -0.3545716 -0.1781364 0.28908977 0.013192795 0.31011853 -0.17330188 0.35452595 -0.016479786 -0.19599432 0.25010246 -0.025137074 -0.25901482 0.14076719 -0.12052334 0.5110561 -0.17525308 0.08093257 -0.18519062 0.04981123 -0.11878461 -0.07434398 -0.46320587 0.15976489 -0.15356475 0.16424446 0.24836926 0.08405077 -0.09333602 0.18022221 -0.30233395 0.37536642 -0.5756445 0.22946925 0.28295338
61 0.4482723 0.13366917 -0.28386232 -0.34871775 -0.026757976 0.6448715 0.35616574 0.23867753 0.14193113 0.23248151 0.34799418 0.37258303 0.16996646 0.25776917 0.2826856 -0.04385401 0.008940469 0.19211304 -0.11099897 0.026392505 -0.2227843 -0.30641076 0.084076084 -0.14513528 0.3440151 0.4773537 0.038151957 0.44266808 0.019405669 -0.103845544 0.15727809 -0.0049105077 -0.093046986 0.019024346 0.012273507 -0.036353186 -0.28950453 0.11573841 -0.34373704 -0.2247667 -0.027961705 -0.021280285 -0.40902725 -0.1402961 -0.10103653 -0.54277366 0.22681244 -0.04652777 0.1337083 0.5456054 -0.2852878 -0.1551554 -0.21594037 -0.057925634 0.32527578 0.23890202 0.012449489 -0.08612481 -0.0058452007 0.21926379 -0.047841143 -0.09989611 0.15935548 0.1047916
786 0.145895 -0.010656916 -0.29537144 0.026075492 -0.2614768 -0.3145657 -0.038122218 -0.28182602 0.11972692 -0.17224537 0.16711499 0.046406824 -0.10222185 0.0958071 0.30376902 -0.2998874 -0.25598967 0.22935742 0.5299997 0.345812 0.0353074 -0.030392649 0.3733955 -0.03711616 0.09604099 0.44429913 -0.02579626 -0.319628 0.15035097 -0.032808524 -0.36580396 -0.32798985 0.36245507 0.036851868 0.33288887 -0.03346479 0.3269037 0.011399728 -0.31735456 0.25978333 0.023915414 -0.13425945 0.012000478 -0.07993444 0.57605547 -0.07287854 0.11472461 -0.048534848 0.07750077 -0.1732735 -0.005442531 -0.4031108 0.16132928 -0.09762533 0.2560885 0.35174388 0.10655464 -0.0913278 0.19984399 -0.20726453 0.37120128 -0.531894 0.20741269 0.29102284
178 0.45936647 0.15431125 -0.25181288 -0.2517324 -0.053439762 0.62500215 0.39243057 0.3087851 0.17099428 0.13108297 0.3226054 0.53253025 0.15249023 0.17571577 0.25604576 -0.13681486 -0.046171837 0.18962735 -0.044288 -0.010107113 -0.22728656 -0.29060698 0.05116405 -0.25361955 0.3826205 0.38663048 -0.028574144 0.39026922 -0.03463608 -0.15190871 0.10482167 0.029667707 0.01676768 -0.014297477 -0.09287953 -0.031814005 -0.3005737 0.15577568 -0.29912293 -0.29570544 -0.005445213 -0.058882236 -0.41006285 -0.084097534 -0.022746459 -0.5609506 0.209276 -0.014482386 0.14113261 0.5216385 -0.3649329 -0.10431704 -0.20685922 -0.04893566 0.27306736 0.25249723 -0.17218286 -0.05737569 -0.009579197 0.15393898 -0.017166998 -0.08491272 0.048191093 0.0148425875
505 0.0828162 0.446287 0.20607041 -0.00911317 -0.44565058 -0.47785908 0.11422663 -0.39103493 -0.36930746 -0.99552417 0.5309487 -0.20294715 -0.25916958 -0.32322645 0.23848678 0.34271315 -0.8530221 -0.36753297 0.38572842 0.87496954 0.3490538 0.11874271 0.40893522 -1.2984306 0.32623833 0.005945683 0.15886486 -1.2459179 -0.5864583 0.45127493 -0.7412645 -0.85285735 0.67525333 1.1891341 -0.42157212 -0.4642294 0.3888406 -0.6270864 -0.13721848 -0.21335861 0.29557455 -0.032209262 -0.32260478 0.51210606 0.872935 -0.7398344 0.034358945 0.7261512 0.37528053 0.36680764 -0.22357918 -1.1881092 -0.4215996 0.43360817 0.53758943 0.5743122 -0.7622393 0.33712158 -0.030021599 -1.4447514 0.23711953 -0.3579662 -0.17475678 -0.16647209
604 0.22089972 -0.13768189 -0.26357508 -0.082687035 -0.24769542 -0.35583138 -0.06726804 -0.2207248 0.07541022 -0.079273015 0.1568283 -0.060787182 -0.039020818 0.037931513 0.35971087 -0.26666602 -0.15210125 0.31050277 0.60155815 0.39808378 0.05859102 0.032772623 0.36766058 0.026167039 -0.027824694 0.50132203 0.019799469 -0.15900424 0.12971626 -0.06033913 -0.38758257 -0.1829994 0.36959177 -0.052412413 0.33007944 -0.04384962 0.36790624 0.109267555 -0.26325095 0.2585503 0.0921266 -0.29186055 0.022994896 -0.10954387 0.536841 -0.07140188 0.17869882 -0.054925308 0.006976893 -0.13695303 0.0280807 -0.43461242 0.121909 -0.18724696 0.24341057 0.17685933 0.16346459 -0.18427804 0.19148111 -0.20516697 0.26740396 -0.5483272 0.28294885 0.24045159
370 0.4981745 0.19196759 -0.25750753 -0.33725637 0.04890032 0.59372264 0.35618702 0.2738034 0.19339995 0.16650051 0.35426882 0.36511904 0.25577083 0.13808471 0.28087637 -0.08987411 -0.0038486414 0.18167974 0.022828165 -0.017352035 -0.21181495 -0.35439724 0.010207501 -0.11115812 0.40145868 0.4152043 0.10048007 0.44924214 0.025067752 -0.00094998255 0.23671094 0.09822948 -0.024044603 0.0659703 -0.13917716 -0.03736833 -0.29128042 0.07425462 -0.16406955 -0.30023298 -0.00021643733 -0.15848584 -0.3442275 -0.11037761 0.019637335 -0.6376074 0.12318758 -0.04768043 0.10064421 0.5652933 -0.31456572 -0.038533363 -0.22972624 -0.02918334 0.27113807 0.19132514 -0.096778266 -0.11892559 0.0063501173 0.20212531 0.0960431 -0.21175523 0.032044806 0.12269825
224 0.43149775 0.10901047 -0.3415014 -0.35023743 -0.035271626 0.6795965 0.3895496 0.21580583 0.12792887 0.25808245 0.33700922 0.40527034 0.13723041 0.17691466 0.3486164 -0.062330354 -0.049125105 0.14571473 -0.07018707 0.018100638 -0.20068084 -0.35326114 0.07015979 -0.14683208 0.38240343 0.3169766 0.05063729 0.36396003 -0.02514851 -0.11831903 0.21104553 0.051785197 -0.019686416 0.015058109 -0.123705745 -0.012155692 -0.27990845 0.09666316 -0.31107986 -0.27372125 0.034811936 -0.10626389 -0.40583205 -0.14046532 0.020630307 -0.4776629 0.1963473 -0.107815616 0.11491652 0.5624441 -0.33887678 -0.105484866 -0.26349157 -0.05956059 0.27585617 0.21868373 -0.15394871 -0.11004922 -0.09591057 0.19239278 0.07792101 0.009703102 0.061780166 0.18220648
306 0.46794003 0.13415416 -0.26915732 -0.27941084 -0.015929878 0.66197485 0.30137226 0.24386592 0.1975317 0.22253193 0.23273027 0.55159837 0.21036929 0.21899036 0.33609936 -0.17207688 0.02519951 0.24626607 -0.014351323 -0.020723654 -0.23037922 -0.37182263 0.085093245 -0.035356455 0.39303628 0.39099815 0.011484728 0.53908896 0.043522187 -0.18529993 0.19543733 0.06087778 -0.06925664 -0.021985969 -0.024277061 0.034985002 -0.25891015 0.19477087 -0.30953124 -0.19871986 0.017087951 -0.039913177 -0.41107264 0.014538581 -0.07555991 -0.5160782 0.20885247 -0.079823025 0.1612249 0.48146555 -0.27540216 -0.10035798 -0.18449713 -0.087464355 0.2940934 0.19566312 -0.02693301 -0.10774292 0.048583835 0.25832376 0.017372059 -0.17953704 0.06798992 0.0727242
467 0.4776889 0.14172567 -0.39369044 -0.27216867 -0.09275716 0.64152884 0.44346887 0.14417078 0.17757516 0.22408281 0.35569456 0.37566257 0.18697073 0.14826655 0.327475 -0.06740469 0.0030222896 0.24892382 -0.014622538 0.03521169 -0.21136709 -0.43176743 0.12410383 -0.11409726 0.43285108 0.37203205 0.06798693 0.3630812 0.031250864 -0.11641655 0.11655802 0.06417957 -0.090122096 0.006258396 -0.055118166 -0.011375239 -0.26654056 0.10999191 -0.17215887 -0.23884529 0.017716091 -0.07769373 -0.42124927 -0.00019631226 -0.07586011 -0.49707863 0.23111963 -0.007940444 0.22000015 0.5319097 -0.32930598 -0.17066981 -0.1972246 -0.06899416 0.31438583 0.16968332 -0.14776623 -0.083244294 -0.1497167 0.23397842 -0.014255156 -0.06069893 0.036442544 0.07027038
285 0.51073265 0.16286556 -0.24767035 -0.31845954 -0.032245867 0.62703526 0.30641586 0.23689896 0.12615484 0.2456267 0.26857167 0.48461327 0.2037281 0.21789119 0.28025666 -0.1251457 0.11614856 0.23944844 -0.019216077 -0.060678206 -0.27728587 -0.38293368 0.1844353 -0.06372782 0.35220578 0.3901304 0.053424418 0.5381832 -0.040629357 -0.18816085 0.13980427 -0.024498275 -0.01391746 0.031902347 -0.09247095 -0.008617926 -0.32531136 0.109811775 -0.22169474 -0.22675896 0.020866212 -0.11586754 -0.32117808 -0.19935255 -0.05892528 -0.56274784 0.17089814 -0.08658332 0.14054368 0.6055072 -0.3291292 -0.023995368 -0.15264462 -0.1170813 0.14675803 0.13065645 -0.07619958 -0.07780115 0.0032433781 0.2824915 -0.003314878 -0.15932605 0.101414226 0.14678264
906 0.17592178 -0.10547902 -0.28572065 0.04875286 -0.28386578 -0.290923 0.013203804 -0.1831687 0.051212788 -0.09343683 0.07752191 0.038794357 -0.044037968 0.038307942 0.28748047 -0.33606088 -0.18609007 0.30147427 0.5632959 0.34862357 0.063543394 0.021425536 0.34517956 0.17844349 -0.025626278 0.4579443 -0.02417388 -0.072198264 0.19279437 -0.030584026 -0.42508468 -0.22524549 0.4145782 -0.025734764 0.35363793 -0.09088691 0.39208472 0.14898656 -0.28451136 0.2664176 0.028966619 -0.16216709 0.040483646 -0.1662948 0.5924416 -0.15795794 0.18633214 -0.1610838 0.08483199 -0.15417755 0.09296316 -0.49731186 0.20266825 -0.18456006 0.20645024 0.18099795 0.22801419 -0.08977635 0.16296941 -0.13480894 0.3291325 -0.5036315 0.22271597 0.27018127
283 0.393316 0.16697113 -0.3408715 -0.30982298 -0.06010246 0.558816 0.28547633 0.16478144 0.19036911 0.14357965 0.33375794 0.41161448 0.15638356 0.15531868 0.28132448 -0.068278044 -0.09769663 0.22540516 -0.10627606 0.028771453 -0.2189746 -0.29918957 0.011195867 -0.27424768 0.37562984 0.40607426 0.04680593 0.41092205 0.034753338 -0.1308719 0.082126014 0.05632518 -0.009898795 0.06996965 -0.12875783 -0.043716982 -0.37825486 0.05276884 -0.22999355 -0.3137791 0.11643894 -0.08710167 -0.44576663 0.00501709 -0.0035490522 -0.5657884 0.21884865 0.018059973 0.16363214 0.5952909 -0.35062176 -0.1780114 -0.23386641 -0.053256787 0.28680974 0.28284374 -0.02679456 -0.042796515 -0.041301206 0.21941201 -0.007998763 -0.095626146 -0.019692145 0.16469228
582 0.14317523 -0.039322987 -0.16615629 -0.015183837 -0.24434936 -0.31940496 0.06652414 -0.20370893 0.10582309 -0.19409089 0.15302734 0.040762406 -0.017345125 0.02129655 0.2997563 -0.2588388 -0.31120914 0.21575925 0.5063447 0.42930168 0.15109244 -0.0152087575 0.38420388 0.0062337127 0.028508812 0.3977289 -0.017550645 -0.38032544 0.099995 0.041942503 -0.4182962 -0.38133296 0.40090677 0.089566015 0.25027785 -0.071608074 0.4059088 0.014373198 -0.26960874 0.28430086 0.05183576 -0.15205602 0.02564068 -0.0066609746 0.5676935 -0.17259239 0.15267634 -0.007948181 0.14252158 -0.107821375 0.008180148 -0.57126695 0.1035965 -0.12098957 0.16486417 0.32843903 0.07194702 -0.038436554 0.21461956 -0.30463177 0.3199086 -0.47520122 0.27378082 0.17003097
148 0.49066946 0.12454748 -0.25495234 -0.33655348 0.0053489152 0.72699875 0.34082353 0.2119696 0.19074091 0.2249749 0.38200316 0.40495008 0.1367723 0.13423312 0.3182302 -0.14424558 0.00861997 0.10734143 -0.13534677 0.054768734 -0.16970469 -0.19639225 0.048412044 -0.2365727 0.32394713 0.44184348 0.06193434 0.46842927 0.017637085 -0.1943671 0.07405693 0.07196677 0.05785453 0.16037224 -0.117192484 0.0027294047 -0.24543634 0.13465562 -0.27492073 -0.22647713 0.027609358 0.022309124 -0.47629535 -0.023224557 -0.08643182 -0.5081886 0.22292551 -0.026941368 0.18800698 0.51715845 -0.2925736 -0.09329562 -0.17811005 0.009942311 0.31025082 0.3049023 -0.0050792075 -0.07027554 -0.0073088924 0.2225337 -0.06098257 -0.18334085 0.02905576 0.10706319
673 0.17913835 -0.041846026 -0.31302905 -0.084822685 -0.3429328 -0.32530236 0.014677292 -0.116038024 0.13122779 -0.10816343 0.22187167 -0.14061171 0.015918195 0.0085042175 0.30975416 -0.18420784 -0.13726309 0.30773962 0.5410841 0.29522228 0.069408745 -0.044176172 0.37131575 0.07163693 0.030518893 0.4904101 0.06850878 -0.14287461 0.23114116 -0.13739191 -0.41871935 -0.13641861 0.38895336 -0.0038886317 0.398722 -0.008125043 0.39781454 0.11526415 -0.15351613 0.29603955 0.03409096 -0.18711941 -0.0004812695 -0.1751802 0.53702605 -0.026399132 0.13682443 -0.18594645 0.05223299 -0.18154578 -0.04869569 -0.44157395 0.12594701 -0.2541121 0.18557513 0.19157326 0.22380811 -0.10631601 0.2129392 -0.2993705 0.4793789 -0.5239915 0.24516644 0.16296235
957 0.158219 -0.13073449 -0.2633644 -0.034537632 -0.20829475 -0.35022527 0.028978962 -0.1811941 0.015120559 -0.16499296 0.19099684 0.008620225 -0.015519172 0.028106926 0.3056875 -0.21174432 -0.27965894 0.20285846 0.6001397 0.39005816 0.13824262 0.024447862 0.42626277 -0.16414696 0.010652044 0.39742258 -0.048559412 -0.32627943 0.08291713 -0.1049506 -0.4310384 -0.25862157 0.32413414 0.060360175 0.27550945 -0.020215916 0.3120708 0.07544541 -0.3233012 0.23733747 0.02909671 -0.18166792 0.10483448 -0.105198294 0.5721802 -0.16498207 0.19872412 -0.08766851 0.100036725 -0.062090967 -0.02904444 -0.4794722 0.14260791 -0.121808164 0.20114256 0.27707112 0.11973079 -0.05538018 0.19502862 -0.39764243 0.30078843 -0.5463292 0.21758243 0.15437709
641 0.21914022 -0.08797118 -0.2499398 0.05880889 -0.27292898 -0.33499727 0.048220664 -0.22444476 0.1954028 -0.048861466 0.11610048 0.10160883 -0.11718991 -0.025485266 0.22784914 -0.31614923 -0.2105037 0.1784124 0.5818117 0.40112332 0.034175042 -0.016635818 0.40832722 -0.042560305 -0.021478485 0.40681145 -0.0037927837 -0.26855084 0.12251705 -0.026766812 -0.33196262 -0.32931238 0.32059985 0.018317789 0.3648674 -0.12556073 0.39463833 0.09132943 -0.22006653 0.28790522 0.0075340327 -0.2119885 0.11152451 -0.14551668 0.4917365 -0.12692465 0.10564308 -0.20650746 0.06804564 -0.19239238 -0.07290682 -0.45227763 0.21985134 -0.28347915 0.13473772 0.2627042 0.20771658 -0.090403035 0.15037744 -0.21449322 0.365086 -0.5361671 0.17552367 0.31603268
848 0.1671274 -0.08820725 -0.31210902 0.01864195 -0.30927575 -0.30085352 -0.014009704 -0.09921225 0.1391816 -0.12974127 0.22183913 0.022526471 -0.06484031 0.008144258 0.29565674 -0.25978145 -0.36844733 0.17912276 0.5569754 0.4062357 0.09431209 0.004387163 0.38247254 0.008848296 0.08266876 0.38434678 -0.0035468172 -0.32286626 0.076117545 -0.049480084 -0.37217957 -0.24667466 0.30868313 0.1966629 0.35143447 -0.015574186 0.34734544 -0.029825231 -0.30866334 0.31164896 0.043088205 -0.122546874 0.02798964 -0.17011175 0.5344636 -0.20060886 0.05838257 -0.058886323 0.09637838 -0.22914706 -0.002859053 -0.4420271 0.15372482 -0.04590755 0.2189831 0.26921964 0.11873096 -0.13099642 0.22143257 -0.2843266 0.34542283 -0.5425304 0.27148622 0.22338404
845 0.15671417 -0.053421844 -0.2714897 -0.017111672 -0.29486448 -0.33897978 0.031988233 -0.216631 0.20615326 -0.10465461 0.16294903 0.001977322 0.038122885 0.0031797062 0.30433223 -0.34571132 -0.15487303 0.35141927 0.47924367 0.3769416 0.073979035 -0.008224453 0.37455758 0.09441406 0.019752473 0.4566351 -0.031613857 -0.274123 0.14582637 -0.04629727 -0.3809966 -0.2717487 0.36446124 0.081441514 0.34992617 -0.073422246 0.2926967 0.07025385 -0.28576225 0.32717597 0.020396333 -0.20591685 0.10153513 -0.059970398 0.5261608 -0.13570774 0.13574134 -0.16171733 0.1734391 -0.19957794 0.060945183 -0.47889984 0.091912076 -0.13065499 0.082540326 0.17615902 0.19231062 -0.1023103 0.1994717 -0.15957607 0.3923189 -0.49183947 0.31050512 0.23559515
663 0.24022008 -0.19125323 -0.35719478 -0.05600128 -0.26841885 -0.3496679 -0.033446178 -0.13526633 0.17752007 -0.071505845 0.15319186 0.0808858 0.04423309 0.012268017 0.30067968 -0.2970397 -0.17893422 0.24618182 0.6046749 0.273092 0.10728521 -0.02164042 0.3862766 -0.026091002 -0.065321565 0.4302379 -0.009297771 -0.23895681 0.09002771 -0.06769274 -0.4181952 -0.26134476 0.39890498 0.15736829 0.37420037 -0.12747788 0.3322755 0.09595709 -0.27150363 0.2989495 0.051063318 -0.25513867 0.12885888 -0.17367734 0.47359353 -0.1612161 0.18494682 -0.20985289 0.12733504 -0.2058349 0.035351396 -0.3856041 0.15864415 -0.19089754 0.10102034 0.19085667 0.191867 -0.20455426 0.1752376 -0.1661101 0.30282316 -0.49020532 0.27075338 0.27869332
580 0.17110147 -0.12303601 -0.28183514 0.0125056375 -0.2709155 -0.28668445 0.020315047 -0.19354743 0.108947575 -0.1283327 0.053058334 -0.030256588 0.07033636 0.029196285 0.31624132 -0.3549874 -0.17546813 0.2582344 0.58729154 0.42061162 0.15101863 -0.05109014 0.3454074 0.037676044 -0.014713029 0.44354132 0.07953791 -0.12861218 0.16228193 -0.06085538 -0.4567816 -0.17209922 0.3388285 0.024402432 0.4196716 -0.14150967 0.32394278 0.14800069 -0.3078346 0.2880469 -0.051296927 -0.17282414 0.07665099 -0.113605954 0.51637954 -0.15560201 0.17375444 -0.15159594 0.1111535 -0.14456613 0.022977268 -0.41422102 0.1511456 -0.2305097 0.20178932 0.16389972 0.17047791 -0.15124245 0.15650027 -0.20434798 0.3669175 -0.5139991 0.2802533 0.27915955
155 0.37946552 0.12980351 -0.3302308 -0.3133207 -0.072048105 0.6785851 0.43601406 0.178044 0.22330771 0.18873456 0.2803391 0.41927075 0.21112977 0.09442551 0.28501144 -0.108362444 -0.13983513 0.17748897 0.008557304 -0.016065957 -0.15961252 -0.27321827 0.005364562 -0.20370565 0.4064975 0.36126032 -0.06439988 0.4363868 0.050706226 -0.05630464 0.16562141 0.10257611 -0.046660654 0.03188016 -0.13107711 -0.09701832 -0.32417813 0.0795647 -0.26368338 -0.2301218 0.074068464 -0.08806537 -0.39443487 -0.073969364 -0.0005200188 -0.5515407 0.2108169 -0.112758294 0.16094252 0.59637094 -0.38062996 -0.21627599 -0.19604509 -0.0038468298 0.20139998 0.22319822 -0.096428126 -0.015088425 -0.076736 0.15049912 -0.05008169 -0.14398281 0.04543837 0.12164409
57 0.31881848 0.28054065 -0.2632403 -0.36681816 -0.01968611 0.6353639 0.43451986 0.27345702 0.24941954 0.060981333 0.33738267 0.37277126 0.10957158 0.113162175 0.28139487 -0.03135476 -0.21284172 0.14414848 -0.04256975 0.14259623 -0.12045065 -0.18286611 -0.052275 -0.44373474 0.3663732 0.34973 0.017809182 0.33160773 0.013508156 -0.020164337 0.027113186 0.060962286 -0.014599844 0.09483416 -0.19848582 -0.13332799 -0.34189293 0.0822601 -0.2842561 -0.34791845 0.10915839 -0.040888894 -0.47004148 0.03271964 -0.008588765 -0.6338837 0.19911563 0.03721409 0.14306739 0.5576133 -0.34945685 -0.21940945 -0.18999173 -0.023541525 0.32098973 0.32324758 -0.06953109 -0.05533061 -0.08636776 0.15317503 -0.07415603 -0.15489526 -0.08998412 0.058432113
25 0.3886019 0.17274843 -0.24898337 -0.31226614 -0.020709367 0.6084377 0.38702482 0.1834408 0.21455136 0.17968151 0.3044843 0.38954192 0.21014765 0.19382356 0.32716838 -0.14804997 -0.08490322 0.21071537 -0.038204737 0.030110013 -0.17093524 -0.3527727 0.075950496 -0.107117824 0.37382546 0.3897478 0.06826769 0.44064948 0.062305648 -0.09009525 0.17920876 0.065549724 -0.09099481 0.022129828 -0.14111371 -0.042388204 -0.31352827 0.113739155 -0.23831338 -0.25594714 0.08036308 -0.0029188604 -0.51506686 -0.029425403 -0.045237724 -0.5804189 0.25777614 -0.032708894 0.06894295 0.5224775 -0.3142242 -0.19986285 -0.18855931 -0.0833479 0.29611978 0.2136271 -0.03786502 -0.08359413 -0.086217545 0.2704377 -0.06110685 -0.15026568 0.04469618 0.044470996
654 0.21841002 -0.12540092 -0.24864016 0.05057946 -0.2787257 -0.29493752 -0.008034573 -0.23194195 0.051500373 -0.14679247 0.19230346 -0.06931354 0.05378272 0.04653464 0.3073422 -0.19463246 -0.2203043 0.2317347 0.56058997 0.3645869 0.048722774 -0.04036391 0.34050056 0.059486385 0.03333294 0.45505366 0.025453664 -0.16974173 0.13775899 -0.034221854 -0.4744891 -0.29394546 0.42019528 0.019903524 0.40705457 -0.14224136 0.32283655 0.07307848 -0.25940803 0.3414671 0.024047941 -0.2020314 0.0016555033 -0.09814799 0.5734079 -0.12248103 0.21520475 -0.15867713 0.021407124 -0.13998947 0.03452445 -0.3769424 0.15140274 -0.14769416 0.2679698 0.28687033 0.08810397 -0.099149205 0.14813332 -0.2922005 0.36530748 -0.46693826 0.27767152 0.18770169
790 0.15640831 -0.019312227 -0.30646095 0.036214545 -0.22836193 -0.30486676 -0.009057054 -0.16420774 0.080705985 -0.17154156 0.1195925 -0.014366874 0.022147069 -5.555657e-05 0.34791893 -0.23493665 -0.2549721 0.2543116 0.5907018 0.42458475 0.100564525 -0.06729286 0.4148687 -0.027041301 0.038204383 0.36286947 0.046364237 -0.309363 0.15694962 -0.019284302 -0.34903094 -0.22545393 0.3763803 0.11713249 0.3314741 -0.1269116 0.34376547 0.023678847 -0.30118805 0.26046923 0.083970234 -0.17985937 0.08475662 -0.07325149 0.55856377 -0.15642412 0.1045274 -0.08893257 0.10310768 -0.13332191 -0.023141677 -0.4784915 0.105216 -0.13225569 0.12948589 0.26951376 0.06813798 -0.024175426 0.21005444 -0.2497909 0.29996854 -0.5796833 0.30970523 0.20956482
788 0.2696408 -0.040905084 -0.26050565 0.0662283 -0.21538562 -0.31189954 0.0051380736 -0.27212843 0.17503719 -0.12305119 0.12585968 -0.008703811 0.017601235 0.036053192 0.27122012 -0.36108488 -0.14600413 0.35236967 0.6375218 0.37334576 0.08465398 -0.086096175 0.43335757 0.107402675 0.054613862 0.46133688 0.02517431 -0.25270185 0.10678916 -0.1190563 -0.41748974 -0.2378963 0.33933318 -0.04709956 0.3472851 -0.11136891 0.37964883 0.06603931 -0.3088066 0.2556411 -0.08128857 -0.22946712 0.08669214 -0.07633783 0.4537336 -0.036324553 0.21159367 -0.17126942 0.057908837 -0.14816537 -0.04112454 -0.35836983 0.16023776 -0.15576117 0.1471245 0.3313216 0.19108886 -0.006988533 0.17667472 -0.16288716 0.3066421 -0.5102899 0.30008778 0.27284664
88 0.5539999 0.190117 -0.25993395 -0.21074277 -0.039809547 0.6554504 0.4115425 0.22573154 0.24130549 0.11514825 0.26922446 0.36478326 0.1532574 0.122597545 0.2181918 -0.060800456 -0.03763197 0.22147605 -0.077636644 0.083072595 -0.1365372 -0.34776047 0.13943553 -0.17508972 0.42628142 0.37182975 -0.004473236 0.48623544 -0.06275678 0.009770017 0.10165522 -0.02726943 0.0938584 0.13057837 -0.108359836 -0.16013043 -0.36469907 0.021419486 -0.26778135 -0.34421512 0.050349686 -0.04678947 -0.450428 -0.09124602 0.017634438 -0.55332464 0.18147022 -0.020693457 0.20067266 0.5665333 -0.33573043 -0.12199821 -0.21700843 -0.014915386 0.22214085 0.23054653 -0.19716182 -0.12262783 -0.021867376 0.10393353 0.08424591 -0.076479524 -0.055620644 -0.04498561
873 0.092749335 -0.02494309 -0.2311369 -0.030213324 -0.2552457 -0.3510832 0.01858757 -0.12827186 0.1594011 -0.17073517 0.07276158 -0.08198708 -0.050648987 -0.04641317 0.2597132 -0.24252295 -0.29762682 0.17181534 0.55553156 0.40230104 0.1319621 -0.016938902 0.33102453 -0.11015058 -0.037856366 0.4715469 0.091558106 -0.33404604 0.043043654 -0.036873043 -0.43933704 -0.3199429 0.31910342 0.2008336 0.29907063 -0.037146043 0.3316834 0.036604054 -0.33285064 0.30659327 0.018922117 -0.19780973 -0.04603392 -0.08867467 0.54024655 -0.29803342 0.09219594 0.0027914355 0.11702201 -0.13597134 -0.062247764 -0.55875576 0.10970498 -0.06323744 0.21992438 0.26294613 0.104327366 -0.08932791 0.15670574 -0.30867517 0.2956253 -0.52478737 0.33369994 0.2241213
221 0.34065396 0.14986452 -0.3521203 -0.3480361 -0.1344788 0.7092876 0.40528062 0.22281589 0.19928959 0.2399319 0.2641456 0.448567 0.12815927 0.08328899 0.19179854 -0.062229436 -0.029071795 0.249287 -0.08339027 0.030808385 -0.11291401 -0.33012792 0.11911317 -0.17964348 0.4294527 0.32212105 0.0034667035 0.39585027 0.0333878 0.009224878 0.16939062 0.13221994 -0.054070935 -0.0023988427 -0.028040232 0.057686854 -0.20673692 0.11933022 -0.33362427 -0.26692703 0.03494538 -0.1111853 -0.53562474 -0.04299313 -0.0225497 -0.5343443 0.14937349 -0.109030135 0.20173916 0.4805736 -0.3939292 -0.14191599 -0.24359602 -0.13535714 0.26199007 0.23305485 -0.065339185 -0.02086323 -0.12040538 0.2259055 -0.00048542756 -0.14682037 -0.0072379718 0.10227658
705 0.09853027 -0.015473483 -0.2081505 0.023654608 -0.30196396 -0.37120152 -0.0030742164 -0.19814096 0.11751153 -0.21565981 0.28980115 -0.017998926 -0.0009532875 -0.060812265 0.2684114 -0.21312469 -0.35023922 0.23659386 0.4447958 0.42694503 0.14281502 -0.037705455 0.29456332 -0.1840705 0.023018094 0.390083 0.051531333 -0.4113315 0.008130976 0.041942496 -0.3775164 -0.3449897 0.35499758 0.21828245 0.291398 -0.15295856 0.4282451 0.019964185 -0.31161454 0.25926808 0.0024450708 -0.17591763 -0.048444502 -0.09537102 0.6174445 -0.17341954 0.122100785 -0.023391582 0.08610372 -0.047839016 -0.02479592 -0.57542706 0.13677967 -0.1546212 0.23191318 0.21061838 0.054497506 -0.07893367 0.051526245 -0.40927917 0.32865024 -0.49368492 0.20006615 0.18315545
260 0.49252743 0.106747605 -0.37358165 -0.33515456 -0.0546265 0.7132035 0.35642737 0.19773719 0.16964233 0.27114898 0.2690729 0.44066873 0.13679594 0.10038742 0.22399633 0.01370058 -0.027403966 0.16715463 0.0036041907 0.01971496 -0.21355906 -0.32713753 0.077160984 -0.1402834 0.40102413 0.4806428 0.04625715 0.40374517 -0.04092976 -0.073945954 0.16760622 0.057412565 0.0010283289 -0.021128943 -0.09502165 0.05581351 -0.33232528 0.10839735 -0.31683353 -0.22590993 -0.001026565 -0.019321475 -0.399598 -0.12621367 -0.06447924 -0.49833122 0.2751818 -0.065650746 0.18235716 0.47341412 -0.277076 -0.069230326 -0.19378728 -0.062324636 0.28157932 0.27528778 -0.10727673 -0.08427176 -0.12919782 0.1834664 -0.039019424 -0.09536509 0.051468883 0.13921046
239 0.41979915 0.20668983 -0.16793908 -0.3294895 0.023960786 0.5678205 0.4438597 0.26441357 0.18266681 0.11004929 0.35370788 0.40506166 0.19832528 0.20057021 0.2875578 -0.200977 -0.14168754 0.08427417 -0.105623916 0.035492785 -0.2572657 -0.2405355 0.07733198 -0.2611059 0.33529577 0.37407073 0.027847659 0.4120855 -0.059420716 -0.10062188 0.055200316 0.026621128 0.04917522 0.10501371 -0.18522531 -0.002274455 -0.324858 0.058794636 -0.33273062 -0.28601754 0.114748254 -0.1042091 -0.51925683 -0.08825469 -0.03609944 -0.5641381 0.15947185 -0.005125087 0.23705101 0.5964826 -0.35079643 -0.10588532 -0.21561345 -0.04818605 0.29295978 0.22350557 0.033933017 -0.030298833 0.047103856 0.13497844 -0.15626359 -0.099542774 0.045710403 0.059930358
504 0.22949018 -0.20523272 -0.29839462 0.036012903 -0.16386455 -0.34031367 0.012712173 -0.23419082 0.20000081 -0.034796227 0.089633845 0.11749897 0.05331125 0.11049234 0.31528974 -0.37056193 -0.20690562 0.27876595 0.63261795 0.28381297 0.091460824 -0.0070533557 0.36019757 0.052920897 -0.111359835 0.4648449 0.01584951 -0.15165775 0.2122723 -0.089144155 -0.344901 -0.18632662 0.23370145 -0.004195538 0.42630902 -0.048192862 0.3510608 0.09338693 -0.41134003 0.24709445 0.022754617 -0.23055258 0.21708204 -0.08289096 0.5409558 -0.09602961 0.11554221 -0.2053474 0.050915767 -0.2089801 0.012310725 -0.45449948 0.25547248 -0.15889947 0.17953847 0.17940874 0.1862856 -0.11259859 0.19978255 -0.14122961 0.3201951 -0.4851676 0.35468262 0.29230317
161 0.48900983 0.2653986 -0.25070283 -0.21080565 0.032252297 0.50616425 0.39245707 0.24546117 0.25252962 0.15515219 0.24440509 0.33453268 0.21320927 0.11703985 0.31262052 -0.06443178 -0.097064696 0.123087116 -0.04133461 0.012787526 -0.16529934 -0.39569855 0.054915313 -0.21147868 0.46907642 0.3652939 0.012125387 0.41886687 -0.08757422 -0.061247963 0.15260379 0.011041361 0.043659236 0.14174695 -0.2637951 -0.028104572 -0.37405974 0.05043779 -0.17644694 -0.28246108 0.08028274 -0.08473541 -0.41091117 -0.12812793 -0.003849504 -0.6320803 0.27232397 -0.030868439 0.15145862 0.55409145 -0.35882628 -0.12152485 -0.29445797 -0.023346428 0.29738066 0.18962468 -0.20396166 -0.059171252 -0.065964535 0.12941787 0.1466099 -0.12456236 -0.017629845 -0.0039446107
47 0.33459127 0.17774929 -0.28303486 -0.37835994 0.010999168 0.6155234 0.43015867 0.15242895 0.18703814 0.1061122 0.33127224 0.31210282 0.1565443 0.15710743 0.31928965 -0.026995692 -0.08357604 0.105492346 -0.102476835 0.06305761 -0.18868648 -0.21449667 0.042472627 -0.28104052 0.41618067 0.35500222 0.028482253 0.3464256 -0.03131353 -0.070031874 0.21595332 0.0769471 0.008346581 0.15631258 -0.15064856 -0.060632333 -0.3145736 0.019239506 -0.27546772 -0.26299408 0.117826976 -0.09518727 -0.41569707 -0.029887768 0.10058841 -0.6753905 0.2339438 0.045020442 0.19537869 0.5736285 -0.4235233 -0.15818016 -0.2371754 -0.06 0.28951687 0.27554885 -0.106654204 -0.06791438 -0.08689103 0.07554293 0.014959689 -0.15159634 -0.08486021 0.09943054
259 0.3477533 0.24398755 -0.19009021 -0.39842257 0.058221307 0.5568581 0.33099172 0.1614082 0.16680574 0.17483692 0.312585 0.39372283 0.15394983 0.23126906 0.28308448 -0.08501353 -0.062014487 0.17987631 -0.020028884 0.030738201 -0.23877978 -0.48305053 0.063513994 -0.24686477 0.43054202 0.4183906 -0.0006032608 0.42812833 0.08675179 -0.05933186 0.0944052 -0.017529525 0.03672135 0.028040528 -0.1789895 -0.03747418 -0.36880803 0.085478194 -0.270866 -0.14070101 0.14020196 -0.042562105 -0.49603787 -0.12099046 -0.0016892039 -0.5475117 0.26650155 -0.123728074 0.20285782 0.5941339 -0.3062219 -0.1440141 -0.14582285 0.034116093 0.24864548 0.18835047 -0.11938566 0.0057300683 -0.08994329 0.20574124 -0.0812508 -0.09905019 0.09217281 0.06542634
849 0.2493934 -0.16285518 -0.3239743 0.07966647 -0.2864614 -0.30151278 0.020363282 -0.28935704 0.1503783 -0.07500361 0.15917765 -0.0037033467 -0.0497144 0.07913356 0.28935155 -0.33446628 -0.16842076 0.34873316 0.43541068 0.40062952 0.07756864 0.022798024 0.39474842 0.08481243 -0.101210676 0.55428344 -0.05819037 -0.17541915 0.17333522 -0.014672663 -0.23057649 -0.25293478 0.3651625 0.037369262 0.4831378 -0.12570398 0.34177706 0.15613352 -0.26859406 0.30909598 0.06508196 -0.2902728 0.07861787 -0.14378077 0.5498018 -0.048393678 0.10426403 -0.18095432 0.12523244 -0.17835589 0.09106537 -0.33274722 0.1776664 -0.17888904 0.123580985 0.26684716 0.20369677 -0.21665049 0.1689325 -0.051588938 0.43297496 -0.5018958 0.17982647 0.28010195
508 0.18300955 0.027170204 -0.30326012 0.0508893 -0.33496147 -0.36272722 -0.046151835 -0.11566621 0.086155504 -0.19418971 0.12869012 0.08156829 0.09495358 -0.025204394 0.31837195 -0.17677689 -0.28084177 0.27766687 0.58191377 0.42944473 0.13995038 -0.05071313 0.30007392 -0.099404216 0.07838972 0.34846136 0.018883366 -0.32164073 0.05208429 0.03378035 -0.38648337 -0.33058292 0.32887343 0.2375959 0.29500067 -0.14797376 0.39202675 0.038363833 -0.41216615 0.2726743 -0.01969224 -0.047054425 0.040537007 -0.05767635 0.49311784 -0.20631966 0.093741566 -0.08147781 0.07567679 -0.16340879 0.042204674 -0.47823083 0.20731086 -0.1216637 0.19600801 0.23642941 0.11372649 -0.08371202 0.13972896 -0.37095848 0.31096086 -0.5161551 0.28495803 0.21970682
717 0.27913973 -0.07431753 -0.25991005 -0.0046098507 -0.24832977 -0.28489223 -0.018331315 -0.13698663 0.17660916 -0.049567748 0.10154106 -0.10223328 -0.07674598 0.021504262 0.3323506 -0.3629186 -0.16568919 0.26036918 0.6443624 0.37042958 0.10687013 0.053370785 0.341088 0.07399415 0.012214232 0.43412873 0.110965125 -0.20261218 0.09953955 -0.15228789 -0.42717028 -0.18928604 0.29181787 0.0025064726 0.5050313 -0.14489494 0.31814256 0.092348866 -0.25080547 0.32269555 0.06292441 -0.3582484 0.03478001 -0.17535172 0.4723147 -0.15905651 0.0919983 -0.094350345 -0.008081678 -0.1866009 -0.013970284 -0.4353541 0.08828329 -0.23885845 0.20607471 0.15024288 0.16554432 -0.15024412 0.14720954 -0.16343197 0.30680907 -0.46909887 0.3240956 0.3367392
238 0.4320956 0.1506741 -0.18660405 -0.31132287 -0.005416951 0.650952 0.40889022 0.18153317 0.17464098 0.12932244 0.31479296 0.4247145 0.22397926 0.14285453 0.31445768 -0.13982932 -0.099900536 0.11355504 -0.016524814 0.0046866024 -0.2241198 -0.36418545 0.036463767 -0.26486775 0.481016 0.3109382 0.052688435 0.37310448 0.010917854 -0.09744695 0.06761199 0.011013118 0.021252345 0.100165 -0.23562399 -0.072288156 -0.34136742 0.10017795 -0.25781983 -0.22219335 0.1008678 0.011819877 -0.4690049 -0.047797266 0.031363346 -0.5504498 0.28983736 -0.1200411 0.12435856 0.5146337 -0.3326913 -0.12796949 -0.25931314 0.0146644255 0.22764076 0.21889743 -0.16845258 -0.18325232 -0.10638478 0.069445826 0.0037973416 -0.12266463 0.001026107 0.08148641
479 0.41522646 0.15793258 -0.2733869 -0.3507136 0.068890326 0.63000077 0.35252258 0.19166268 0.17700654 0.14187789 0.348848 0.28098002 0.2598087 0.15124178 0.2818429 -0.11642476 -0.05141987 0.21915613 -0.08964522 0.070548736 -0.14126949 -0.4180223 0.07057932 -0.26469877 0.4365884 0.40583584 -0.034161497 0.3914399 -0.032708388 -0.009213102 0.1431123 0.01439045 0.049300723 0.1054535 -0.19493188 -0.08832905 -0.3419424 0.016541243 -0.14977382 -0.27148217 0.090219416 -0.09589791 -0.45593232 -0.073538005 0.012706032 -0.5670513 0.19105594 0.02856249 0.11212382 0.58356625 -0.39499488 -0.16955712 -0.14833242 0.049368657 0.30636537 0.1829033 -0.026370317 -0.027611969 0.007571405 0.13821505 -0.04409174 -0.1447579 0.04411909 0.058945715
233 0.44057202 0.10583876 -0.29215094 -0.35819048 0.0015000008 0.63530475 0.37217352 0.19535613 0.26072288 0.21969517 0.31677222 0.274434 0.21458861 0.15521273 0.34608763 -0.07855656 -0.08802711 0.08444349 -0.16258083 0.030306768 -0.2300522 -0.3209467 0.078973055 -0.17475301 0.3751793 0.39720914 0.114737764 0.44481957 -0.031624403 -0.10580659 0.18752187 0.06387223 0.020052563 0.20849438 -0.096927196 -0.04637 -0.30721822 0.117049396 -0.22820331 -0.2805539 0.14328098 -0.117211476 -0.49681634 -0.102780536 0.0466118 -0.56923777 0.18559778 -0.0042137178 0.19821446 0.49313664 -0.37499195 -0.13155837 -0.1893417 -0.13785528 0.22261636 0.18377568 -0.031103378 -0.10511835 -0.0059633274 0.17817362 0.03177971 -0.06407462 0.07245105 0.07924825
678 0.15783437 -0.10252121 -0.17241111 -0.0074946997 -0.27327952 -0.33685324 -0.00035523094 -0.2651013 0.09430086 -0.10037812 0.123210624 0.044326268 -0.08845529 0.055890244 0.25016847 -0.33279347 -0.2393554 0.2730266 0.5549863 0.37169442 0.05950056 -0.032843273 0.40895554 0.003272434 0.057974245 0.49757808 0.05335101 -0.34862635 0.14907806 -0.05189025 -0.40226632 -0.29675356 0.34891137 0.044697914 0.33264238 -0.10357659 0.44477257 0.021366004 -0.30434108 0.24830346 0.0557621 -0.1352751 -0.04787543 -0.06406087 0.4895111 -0.03360121 0.07627284 -0.11410274 0.0019890743 -0.12060408 -0.030172057 -0.45975503 0.1718109 -0.1341161 0.21560964 0.25097692 0.12225166 -0.10660549 0.2168776 -0.21020694 0.3071676 -0.4721917 0.33702192 0.25465086
316 0.44555774 0.09190089 -0.29112235 -0.27623272 -0.029097186 0.5678499 0.34717375 0.2993481 0.12424746 0.2679067 0.31483567 0.49106812 0.18155068 0.19311534 0.41042787 -0.12402467 -0.06522844 0.21121907 0.002767775 -0.0011743457 -0.26132062 -0.30963743 0.10675986 -0.1417334 0.40019464 0.40361273 0.10304054 0.47570544 0.012960337 -0.06641601 0.13589393 0.028708331 -0.010035089 -0.037520103 -0.13811098 -0.07252832 -0.3549971 0.11854206 -0.24659719 -0.21116696 0.08469833 -0.11440176 -0.4288945 -0.13957903 -0.12255205 -0.528644 0.29210058 -0.06284181 0.106875725 0.50276864 -0.33176187 -0.04493144 -0.19479316 -0.16081046 0.1751437 0.21299627 0.025418006 -0.019762034 -0.100295804 0.25087595 -0.084418446 -0.06720277 0.15895975 0.064474426
296 0.40331265 0.04925712 -0.28683186 -0.3453057 0.058219418 0.6485477 0.35725945 0.20657891 0.17999603 0.31382504 0.22835521 0.45962366 0.112918295 0.19726582 0.34271565 -0.15601791 -0.14126535 0.09196385 -0.10318491 -0.014164294 -0.21309982 -0.39115775 0.016428811 -0.16706932 0.4584705 0.3640633 0.019752512 0.3719783 0.015699891 -0.15357801 0.15448725 0.09072992 -0.09479506 -0.0553401 -0.055429235 -0.06411004 -0.35672697 0.24162866 -0.18740608 -0.18399644 0.04227878 -0.05671103 -0.3573114 -0.09175527 0.014909035 -0.5094865 0.25911093 0.009932983 0.18896966 0.53552073 -0.42256165 -0.16572717 -0.16948105 -0.16983032 0.30607256 0.24553943 -0.07334637 0.0032772832 0.014640476 0.2918979 0.06313149 -0.038091276 0.1048809 0.10688979
644 0.16998276 -0.09860697 -0.27137998 -0.0053041326 -0.26547733 -0.3473425 0.028888132 -0.19703256 -0.018113205 -0.10977977 0.13765593 -0.0788068 0.078492634 -0.049251344 0.3142145 -0.17887588 -0.21296915 0.32074094 0.60343665 0.43550906 0.09410341 -0.042765614 0.4206758 -0.005011512 0.011513796 0.37607953 0.11684915 -0.15004462 0.099993125 -0.09242706 -0.4163968 -0.22494031 0.36194113 0.15800233 0.36667138 -0.06873646 0.3633093 0.10107557 -0.2520933 0.16176513 0.08451445 -0.20022944 0.009573816 -0.13226236 0.6606249 -0.08155975 0.14263229 -0.07352096 0.071198404 -0.0010322543 0.0061462577 -0.5085109 0.15187557 -0.07548767 0.22737695 0.11778497 0.08665863 -0.07035762 0.21160112 -0.30519935 0.3199535 -0.561228 0.28117952 0.16658697
82 0.39986065 0.14774835 -0.29601333 -0.31031632 -0.0143535035 0.63950056 0.3159561 0.16910549 0.19758192 0.21885699 0.25681233 0.42469493 0.22926235 0.14741148 0.22848788 -0.028998693 -0.0684552 0.13016513 -0.026414134 0.037144896 -0.16209742 -0.33944267 0.051101718 -0.15388417 0.4900283 0.3821472 -0.004026246 0.39381698 0.0204182 -0.07481253 0.1977844 0.045783434 0.030945204 0.117157646 -0.1915952 -0.013847049 -0.31827945 0.10547628 -0.19252668 -0.29227528 0.0825935 -0.05527651 -0.4469728 -0.074659586 0.033662327 -0.55966777 0.19558641 -0.043267116 0.16314484 0.56457365 -0.28587714 -0.18244663 -0.24589545 -0.0647648 0.3505796 0.2631644 -0.06880918 -0.10138353 -0.018690476 0.14549989 0.019385545 -0.14425598 0.015906889 0.12495867
295 0.40861598 0.21035606 -0.24551472 -0.390794 -0.008019958 0.600623 0.44406858 0.25305095 0.16051228 0.16050754 0.32542345 0.35211337 0.17748038 0.18659148 0.25929108 -0.09993312 -0.042963747 0.11600074 -0.049674068 0.014542837 -0.17378022 -0.3197472 0.043310635 -0.2109684 0.36827558 0.36441138 0.023726184 0.47090662 -0.06085242 -0.07611986 0.10704865 -0.04601827 -3.2641277e-05 0.14042585 -0.12945715 -0.037485667 -0.29680762 0.099408574 -0.28668824 -0.21061361 0.093457766 -0.045099795 -0.48082018 -0.06826592 -0.00029975688 -0.58376235 0.24191146 -0.029207328 0.20957331 0.5702088 -0.36105937 -0.19659048 -0.24251755 -0.03981338 0.23015879 0.20225802 -0.1619254 -0.04667384 -0.01027184 0.13129655 0.009725751 -0.09189389 0.08044337 0.037741754
130 0.39026156 0.13409011 -0.34052274 -0.28204253 0.08125112 0.6147033 0.3438711 0.21229443 0.22823827 0.2860304 0.31837896 0.42069054 0.20365044 0.2966556 0.40676 -0.06208555 0.032183886 0.22302644 -0.010446875 -0.020320043 -0.1944062 -0.32533625 0.06668478 -0.17000708 0.3027894 0.40866348 0.021201033 0.48961386 -0.014152264 -0.20822635 0.22265704 0.032878842 0.001229408 -0.028342528 -0.22697763 -0.044279605 -0.33850628 0.15899947 -0.21152878 -0.22116493 0.06633416 -0.026279157 -0.37672105 -0.10255293 0.07617272 -0.51864856 0.19984642 -0.050523423 0.12823534 0.57690704 -0.3000557 -0.167671 -0.168929 -0.047724597 0.25527084 0.16376588 -0.14723136 -0.10630978 -0.038184993 0.17938387 0.060578905 -0.08089843 0.079853974 0.1435214
959 0.23087701 -0.02482697 -0.29450667 -0.03489176 -0.35258836 -0.37553138 0.016602395 -0.16156352 0.11419253 -0.06423776 0.206519 -0.04834032 -0.03926179 -0.07448347 0.2303309 -0.2954263 -0.23678921 0.2224643 0.5114089 0.3680483 0.1250581 0.043177515 0.3541465 -0.040625535 0.07321829 0.45930022 0.015551129 -0.24183255 0.087789655 -0.040972006 -0.44673923 -0.18004829 0.33837214 0.11664922 0.3475263 -0.082293354 0.3560001 0.07917721 -0.25126767 0.28679866 -0.0123514505 -0.1496615 0.029257959 -0.15292712 0.5416969 -0.07004337 0.09072032 -0.09314579 0.04758855 -0.123587854 -0.02824297 -0.49438927 0.14624381 -0.14018093 0.20256236 0.19491921 0.17171924 -0.12389062 0.1192073 -0.2598493 0.41700178 -0.5448468 0.20943137 0.25230518
613 0.2234507 -0.08640921 -0.3536456 0.06395687 -0.23809554 -0.33262074 0.0027639768 -0.19108234 0.13821357 -0.07711671 0.19476096 0.008820418 -0.023239871 0.037631646 0.26618338 -0.34543926 -0.19816262 0.248819 0.55430037 0.3551107 0.04195923 -0.05337011 0.4154865 -0.034392696 -0.07845824 0.42974332 0.08867955 -0.17392254 0.13543211 -0.04135968 -0.3464666 -0.29156756 0.30028892 0.054411024 0.44024932 -0.107869215 0.3950275 0.18029493 -0.3110628 0.27389348 -0.013509848 -0.22735736 0.13616717 -0.07662814 0.52910715 -0.108584516 0.13288322 -0.17309631 0.103947125 -0.19364391 -0.021975975 -0.4225394 0.20413637 -0.17895189 0.18911587 0.19377853 0.18285298 -0.15642752 0.1195602 -0.17996535 0.30295053 -0.522832 0.19828705 0.29120693
909 0.08727411 -0.055583548 -0.35934356 0.017810673 -0.33615875 -0.27793503 -0.003656317 -0.22054923 0.036805276 -0.14182805 0.16729441 0.013691945 0.08306799 0.03977579 0.29923496 -0.2821263 -0.1522173 0.27552158 0.5227731 0.41007894 0.11704595 -0.033668805 0.44479442 0.016417814 -0.014235328 0.4097167 -0.06021343 -0.2352363 0.10589879 -0.04856203 -0.44489408 -0.21468922 0.46251038 0.041704815 0.3770615 -0.020359326 0.30175844 0.18505403 -0.2795481 0.2457974 0.0062268833 -0.12569168 0.121231295 -0.10631832 0.5343722 -0.026282353 0.124060795 -0.104847915 0.03943025 -0.17891106 -0.015801731 -0.41512367 0.14065096 -0.10869653 0.18172657 0.17031978 0.2235683 -0.09945564 0.20740852 -0.26929018 0.41948783 -0.54998547 0.23276556 0.20528188
176 0.42367268 0.08871525 -0.34645697 -0.32597432 -0.019675702 0.682339 0.36832282 0.16492712 0.17768823 0.2542163 0.21743804 0.51196957 0.22745438 0.15562859 0.29018244 -0.10832306 -0.06940383 0.15263481 -0.09121655 -0.009699592 -0.242605 -0.36363158 0.085768886 -0.12851636 0.40614235 0.3049878 -0.04247773 0.40917417 0.07351664 -0.14896451 0.2812066 0.05359991 -0.0056696427 0.016876386 -0.12702435 0.03501645 -0.26344362 0.04713581 -0.2787234 -0.2075283 0.07152497 -0.10389057 -0.44114226 -0.02255024 -0.03762558 -0.533406 0.15139198 -0.08776091 0.2107034 0.4773027 -0.3504578 -0.1940711 -0.15842056 -0.038052186 0.25465548 0.24651778 -0.093793996 -0.041366573 -0.057482995 0.22953317 -0.042482715 -0.15580185 0.02983269 0.14118654
488 0.35372373 0.13092187 -0.34460583 -0.39215064 -0.062523164 0.6661112 0.2948897 0.07197783 0.22200255 0.27215865 0.26578853 0.3846449 0.24922383 0.13405704 0.24952891 -0.06016556 -0.09434476 0.25101027 -0.08251303 0.004564503 -0.2750597 -0.32051897 0.061196346 -0.13951673 0.45391023 0.38943014 0.020812118 0.35132015 -0.053493015 -0.09776372 0.20484962 0.024712585 -0.101975955 0.034817465 -0.03442928 0.04015926 -0.32709962 0.07443085 -0.2440299 -0.30602428 0.09766059 -0.13908073 -0.48590106 -0.0014104033 -0.0003031938 -0.61705226 0.2207575 -0.05827536 0.14164282 0.49708563 -0.35879844 -0.16875 -0.1677156 -0.164677 0.2890065 0.20310411 -0.015229801 -0.10209528 -0.018437458 0.18349253 -0.014955778 -0.05998837 0.068532735 0.05073938
20 0.423457 0.22085118 -0.20054272 -0.22803232 -0.020169046 0.56496197 0.38133422 0.15111467 0.22819497 0.16105993 0.31695938 0.47055852 0.2536483 0.17798136 0.31340936 -0.15904506 0.012551978 0.260059 -0.113717474 0.0011446289 -0.21992663 -0.36379248 -0.0016594814 -0.23964791 0.47869703 0.38387802 -0.10536791 0.41351217 0.04230914 -0.05215568 0.2003963 0.091550745 0.008232037 0.010150641 -0.112564914 0.018877722 -0.23832536 0.21755041 -0.2782383 -0.23981354 0.035897 -0.056214586 -0.47002152 -0.08425651 -0.015071088 -0.5017696 0.19104566 -0.0972651 0.14328772 0.5124815 -0.37732044 -0.11923328 -0.28852132 -0.029265575 0.2778254 0.20333955 -0.06920164 -0.01236348 -0.02076317 0.20163953 0.06659502 -0.15918298 -0.017607512 0.122659944
836 0.10485211 -0.108658664 -0.26251203 0.05381613 -0.24918865 -0.32505608 0.010363077 -0.22398229 0.07211947 -0.033126142 0.15435322 -0.10809452 0.051826056 0.056532502 0.31715292 -0.32425225 -0.12729448 0.3494348 0.5502355 0.3913436 0.07272355 -0.026583401 0.3914967 0.04832671 0.01593906 0.48459458 0.044208765 -0.15944302 0.17990603 -0.14239937 -0.36512533 -0.2594992 0.30029362 0.023316275 0.3965439 -0.015948154 0.3702572 0.07975977 -0.24311016 0.22016943 -0.045112304 -0.22624677 0.081740946 -0.09197767 0.6158555 -0.096272 0.17379172 -0.108672306 0.011171613 -0.07400599 0.032140084 -0.3905737 0.17327748 -0.08468282 0.19755827 0.20740736 0.12809363 -0.13163239 0.12465551 -0.2519798 0.35562554 -0.60797095 0.262809 0.24119757
966 0.15951836 -0.11391569 -0.27496603 -0.07921147 -0.2670606 -0.35975072 0.03336984 -0.1868149 0.14525014 -0.18089332 0.14194559 -0.036274813 -0.07013533 -0.06650607 0.24198182 -0.21888596 -0.27880862 0.22694816 0.569897 0.39009085 0.12811396 -0.033267535 0.3954737 0.028621376 -0.011489581 0.4646718 0.057363026 -0.24242376 0.11548627 -0.046887506 -0.31629878 -0.24874187 0.3752894 0.15082453 0.34735236 -0.07082503 0.33887628 0.11522156 -0.24533534 0.2867765 0.100970164 -0.23643288 -0.056460537 -0.17273097 0.5362938 -0.17232251 0.039666347 -0.11480557 0.11571232 -0.14810084 -0.024881627 -0.5063566 0.14389291 -0.2066093 0.09252072 0.14002587 0.16651917 -0.12401098 0.16746522 -0.30431944 0.350015 -0.513003 0.3097036 0.17232843
330 0.41523936 0.0573096 -0.25406012 -0.25562012 0.002162354 0.7070291 0.33452952 0.19142398 0.17369372 0.18284453 0.26821634 0.43272123 0.2010837 0.107931204 0.38101372 -0.13548231 -0.064796105 0.18545783 -0.07631779 0.022236208 -0.20089331 -0.35861433 0.1081649 -0.19017476 0.38629144 0.30824098 0.029241579 0.4596616 -0.01835514 -0.10918492 0.14567265 0.0794986 0.010587356 0.05128664 -0.13460667 -0.054215975 -0.3551392 0.08024727 -0.3341427 -0.2834869 0.08371586 -0.13283855 -0.45186147 -0.1390956 0.07185734 -0.49055347 0.15976861 -0.088175096 0.14104924 0.5438431 -0.3546299 -0.009266328 -0.22872041 -0.028941685 0.22962365 0.22941844 -0.06256953 -0.14300333 3.8410464e-05 0.18158409 0.025511945 -0.14804202 0.08612109 0.15752584
251 0.40297574 0.14376456 -0.260231 -0.3720892 0.017261608 0.5830378 0.47016865 0.13730596 0.10007184 0.12867816 0.32364586 0.39389852 0.2026276 0.17211235 0.3230408 -0.040611085 -0.0022081858 0.12015369 -0.06692965 0.05704359 -0.14883026 -0.35129362 0.07904733 -0.14476338 0.43694964 0.3416038 0.050986703 0.49848682 -0.033848483 -0.045094427 0.28871778 0.015502422 -0.0068761464 0.013979235 -0.1082486 -0.022951823 -0.25232175 0.039947554 -0.29141957 -0.32259846 0.041318107 -0.12686251 -0.3724592 -0.075183585 0.06559349 -0.53774726 0.22258802 -0.07956292 0.09937312 0.5659754 -0.433294 -0.22520629 -0.30518177 -0.07212272 0.28880504 0.20369343 -0.09011096 -0.14617696 -0.05938505 0.064392895 -0.01597113 -0.08701002 -0.018128188 0.06314288
3 0.40860704 0.13264987 -0.33081377 -0.31587732 -0.085306436 0.64314884 0.376928 0.19957961 0.24448052 0.23768432 0.23824124 0.4230377 0.20252344 0.15762292 0.20831467 -0.08469814 -0.080985814 0.17048846 -0.14345893 -0.038807496 -0.19745769 -0.28477243 0.1361391 -0.08543231 0.47366875 0.4102557 0.008772778 0.4142368 0.053170767 -0.069487646 0.16375291 0.12008298 -0.0468366 -0.0133754825 -0.09263387 -0.05189736 -0.28749964 0.19661032 -0.2154262 -0.2697711 0.11034136 -0.09443636 -0.4344013 -0.16468602 0.0067665875 -0.49789602 0.19878565 -0.10707713 0.21126442 0.5765614 -0.3940228 -0.09655097 -0.15627158 -0.072727844 0.28028077 0.17546025 -0.04033921 -0.04378702 -0.0699177 0.22715464 0.013296244 -0.14989117 0.036692366 0.12848626
149 0.3656233 0.1736426 -0.23367259 -0.2943864 -0.0198122 0.6777543 0.31356114 0.21331513 0.19531195 0.27143273 0.26061952 0.43543082 0.22287439 0.14338332 0.29491717 -0.119362496 -0.06033787 0.2820856 0.0035721585 0.08491232 -0.17740586 -0.34470558 0.03594221 -0.13943776 0.4030994 0.35392165 0.00376022 0.37809563 0.011577695 0.010885424 0.25938475 0.0619723 0.012718202 0.06831739 -0.1387644 -0.042320676 -0.32787663 0.03904857 -0.24265647 -0.27767718 0.13806204 -0.22353254 -0.4472402 -0.09907332 0.00418276 -0.6724084 0.16981536 -0.0057371296 0.1954178 0.53486276 -0.33087257 -0.04875659 -0.09199301 -0.038484056 0.2569216 0.17656022 -0.08693464 -0.038204577 0.02323949 0.22101906 -0.014621841 -0.16357021 -0.0012517029 0.06592867
778 0.18799457 -0.109704435 -0.27168337 0.05245232 -0.15937248 -0.32462898 -0.070261724 -0.24728972 0.21674192 -0.034436658 0.09817892 0.0701351 -0.0034538128 -0.003608625 0.31246284 -0.3984361 -0.16638218 0.29695922 0.610196 0.31918663 0.0065375217 -0.020503767 0.40860036 0.09144685 0.040220793 0.41783822 0.056592878 -0.15929027 0.1482027 -0.16121855 -0.3795819 -0.25241116 0.26804382 -0.013572767 0.39365423 -0.12121988 0.44835088 0.064408585 -0.2643183 0.3308891 -0.08192794 -0.25395244 0.03875116 -0.1103836 0.5197862 -0.11732516 0.13368535 -0.16430157 0.070342116 -0.13413519 -0.062281646 -0.40177256 0.1911866 -0.20858762 0.15458891 0.1414906 0.13209571 -0.10940108 0.17765182 -0.16601665 0.40882763 -0.5049382 0.3675253 0.28245264
773 0.24859627 -0.101088084 -0.2894932 0.015900096 -0.2681958 -0.36365822 -0.024677511 -0.252309 -0.025226885 -0.09426312 0.055270676 0.04022845 0.047424104 0.036455795 0.29519093 -0.15727873 -0.12118585 0.26176956 0.66161877 0.4168349 0.07269385 -0.022697976 0.45099175 -0.059727624 0.041053303 0.40381095 -0.025756208 -0.20129362 0.14454891 -0.02918346 -0.40316927 -0.2585062 0.41478598 0.031812463 0.3523464 -0.13401832 0.31359264 0.1187763 -0.20210528 0.20821914 0.07147176 -0.23470967 0.04518337 -0.14244872 0.6002566 -0.11896492 0.22246043 -0.100977674 -0.011928374 -0.08401402 0.06875718 -0.3969398 0.19206683 -0.14572656 0.23475386 0.15849009 0.17661662 -0.12824914 0.20602491 -0.23686786 0.3266413 -0.52548337 0.26215398 0.22407036
133 0.43615395 0.17502046 -0.27152884 -0.36465627 -0.051711734 0.660886 0.42413235 0.04554049 0.23744282 0.2420362 0.27623293 0.36236814 0.14837041 0.06550341 0.26198274 -0.14115334 -0.023661893 0.15701263 0.024455596 0.054683108 -0.18831511 -0.4177472 0.051537387 -0.079949126 0.46444955 0.3517882 0.06417616 0.32818836 -0.054675233 -0.017643576 0.21311663 0.081236936 -0.068427205 0.053611364 -0.11710844 -0.07830083 -0.30729845 0.06770348 -0.23224455 -0.2888923 0.04477518 -0.0069578737 -0.55167174 -0.068322316 -0.040352635 -0.56926525 0.28285775 -0.024888854 0.1204719 0.5231427 -0.25789776 -0.11421356 -0.19231191 -0.06547589 0.32273048 0.21884452 -0.13872814 -0.10750439 -0.10619375 0.120526165 0.05494788 -0.1031364 0.0037979842 0.019633373
135 0.393044 0.17208108 -0.18970521 -0.3699868 -0.07753811 0.6842997 0.37699264 0.14802526 0.18319918 0.16720527 0.26451617 0.35905084 0.17206554 0.16455334 0.2523649 -0.08644851 -0.1213241 0.198942 -0.120017335 0.027230397 -0.273957 -0.37512988 0.049295213 -0.2433544 0.45744565 0.39417282 -0.005241552 0.34607106 -0.03338976 -0.14914858 0.12400039 -0.12473112 -0.025037032 0.17555621 -0.0844767 -0.08274196 -0.3234511 -0.004022593 -0.2548095 -0.23676983 0.10880163 0.038754247 -0.56224555 -0.010356331 -0.039381426 -0.4760491 0.22498868 -0.08619501 0.21547684 0.5998647 -0.33673814 -0.25644827 -0.16048506 -0.022339853 0.32853702 0.21358733 -0.14607455 0.047221716 -0.038247176 0.11394918 -0.11179932 -0.10705678 0.06398639 0.0047563375
720 0.11462226 -0.012601189 -0.25180447 0.004865459 -0.28746468 -0.36077002 0.031214371 -0.19918092 0.05540905 -0.03966059 0.17713596 0.0029781633 -0.12726296 0.110881254 0.336554 -0.26367316 -0.3389472 0.28013268 0.43243864 0.3857383 0.117052644 -0.025713056 0.33851907 -0.028550249 0.07445823 0.4374842 0.08327586 -0.27896103 0.21842904 -0.13547514 -0.34642947 -0.24195433 0.382531 0.10981095 0.37771934 -0.1091845 0.2551714 -0.004859301 -0.3614611 0.24964876 0.07858752 -0.18146758 0.13351186 -0.14692892 0.57743835 -0.033362757 0.114154205 -0.10316921 0.07021563 -0.14198813 -0.039631188 -0.43460858 0.053053986 -0.1256727 0.24353556 0.25992596 0.12045383 -0.053611413 0.23014155 -0.22707516 0.4183636 -0.504112 0.3288861 0.305752
816 0.11700618 -0.037745405 -0.27139536 -0.006809647 -0.36928 -0.30380937 0.0054482184 -0.1385513 0.04443469 -0.10212649 0.21417533 -0.068080366 0.035697985 -0.019007541 0.30780658 -0.31433138 -0.1965041 0.2927295 0.55044746 0.34290233 0.10302538 -0.009733316 0.30590332 0.06380217 -0.029012483 0.42398956 0.06477868 -0.17209163 0.12587696 -0.13570958 -0.512161 -0.23707955 0.3502135 0.008858196 0.36752832 -0.03857711 0.28631592 0.0902448 -0.3015585 0.27943793 0.007046599 -0.21550587 -0.007514415 -0.1614219 0.5673753 -0.099448964 0.12995416 -0.073457815 0.07952637 -0.17110631 -0.032703258 -0.51427203 0.03554665 -0.16784328 0.23319046 0.1526386 0.18830942 -0.0066725076 0.099217325 -0.22916721 0.35913038 -0.54547167 0.2733292 0.2610848
553 0.19113137 -0.061336666 -0.2074415 0.09684342 -0.25532705 -0.3698181 0.018746866 -0.1879023 0.10463143 -0.18657175 0.14457843 -0.06245543 0.004929499 -0.02338945 0.28910673 -0.21265045 -0.23617108 0.2383703 0.6127114 0.38174415 0.16547811 -0.011587339 0.3648583 -0.13479427 0.010961471 0.38638362 0.07843276 -0.26414862 0.05132693 -0.011001307 -0.43553412 -0.31369948 0.39413437 0.166012 0.3129147 -0.2506381 0.35967726 0.051178053 -0.32879093 0.24940445 0.025457216 -0.19537841 0.036407188 -0.056105178 0.51259214 -0.1460303 0.20002319 -0.118151575 0.1235034 -0.058653213 -0.021738525 -0.49620616 0.10286945 -0.1302242 0.22496246 0.29193053 0.07660942 -0.016484829 0.076765455 -0.26245648 0.27135277 -0.54600203 0.26659048 0.18634489
692 0.16056637 -0.030780455 -0.25036362 -0.0025982563 -0.2598112 -0.36428812 -0.015932752 -0.25009504 0.21154085 -0.013911619 0.15694363 0.03742228 -0.05969522 -0.0065720445 0.31076327 -0.39020473 -0.14251047 0.2289166 0.5746889 0.26553246 0.12199486 0.0006626342 0.36550975 0.052663818 -0.0011647377 0.4239914 0.051220223 -0.16535048 0.11421415 -0.09643168 -0.41244033 -0.20005265 0.3322729 -0.065220796 0.48892814 -0.08883908 0.37622476 0.11074381 -0.27762985 0.32352296 -0.055341974 -0.18534751 0.06889882 -0.14832903 0.5021546 -0.011536714 0.13854754 -0.13996577 0.005664313 -0.14235277 -0.071293935 -0.4319229 0.16118199 -0.17068058 0.17341386 0.17857452 0.1528806 -0.0687837 0.20441289 -0.09532682 0.43063816 -0.5234283 0.3213152 0.4014718
312 0.44465926 0.16369772 -0.32112908 -0.36950994 0.032426815 0.60297424 0.3390184 0.28242615 0.2224193 0.22207548 0.3080661 0.303294 0.2475421 0.16779575 0.29019725 -0.037635837 -0.084127665 0.08132828 -0.008809983 0.07103852 -0.183374 -0.31285274 0.023460267 -0.22410236 0.37862182 0.36518535 -0.02552468 0.46174747 0.013528124 -0.11289877 0.114189625 0.10938769 0.079850614 0.11545575 -0.17009231 -0.05994928 -0.32817882 0.04709066 -0.2892015 -0.21615958 0.054121945 -0.08351129 -0.48036116 -0.07690801 -0.040907495 -0.5831416 0.16333066 -0.03634255 0.17112477 0.46528736 -0.33802903 -0.08889487 -0.24865367 -0.05127109 0.37956092 0.23878802 -0.09499697 -0.07930594 -0.0689473 0.20895663 0.027363198 -0.13646609 -0.0047917045 0.09995215
139 0.410893 0.14410257 -0.28776506 -0.42143008 -0.0031294064 0.6487552 0.36202383 0.19602469 0.22517815 0.14095078 0.32195938 0.38292253 0.221832 0.10406656 0.2995221 -0.118216865 -0.036626928 0.18097931 -0.094923206 0.0653284 -0.16394785 -0.3277137 0.05964339 -0.18571897 0.39109516 0.41519624 0.0015289048 0.46524075 -0.0030933667 -0.06453928 0.07339407 0.10133572 -0.0043682144 0.025474576 -0.19500041 -0.117143825 -0.35407194 0.053687327 -0.28188282 -0.22846535 0.052308023 -0.012470543 -0.48453847 -0.09855269 -0.046541076 -0.55750215 0.28118464 -0.02003522 0.110268824 0.44871455 -0.25717378 -0.0329575 -0.19088864 -0.021992728 0.34678808 0.23327121 0.05937902 -0.12129819 -0.049349617 0.20161837 -0.033949602 -0.141656 0.06361296 0.070003726
817 0.12891123 -0.116559364 -0.29240066 -0.0057304925 -0.26191846 -0.2834679 -0.022118432 -0.17841761 0.044751737 -0.064471096 0.14574605 -0.07698859 -0.04284033 0.08240437 0.22034663 -0.35378596 -0.21282837 0.27185914 0.6037978 0.4242843 0.08618203 -0.016001571 0.32261068 0.03645908 0.04490811 0.40023497 0.057307314 -0.1654948 0.13389431 -0.052419957 -0.39750955 -0.26940453 0.469604 0.07366302 0.3437542 -0.14738128 0.23774192 0.05537602 -0.27366707 0.2668955 0.03900919 -0.20528115 0.09103538 -0.15578015 0.580193 -0.11794908 0.15778577 -0.09568042 0.14211668 -0.20821643 -0.042056203 -0.4573946 0.112300634 -0.13750826 0.22053316 0.14056113 0.16839333 -0.13592836 0.20819373 -0.1354561 0.2849391 -0.5779618 0.2943582 0.3042786
31 0.36220643 0.1368276 -0.27695736 -0.3354098 -0.10465803 0.6513134 0.41863427 0.15614597 0.25428787 0.2125358 0.33703062 0.34178555 0.16499214 0.14868861 0.19549179 -0.13847868 -0.05682692 0.2104111 -0.10815894 0.00667461 -0.20486023 -0.32729852 0.05625131 -0.15279026 0.42319062 0.40412706 0.042237937 0.455291 0.0921264 -0.08914601 0.13589686 0.05832335 -0.023220526 0.07243141 -0.035364136 -0.064130716 -0.26014858 0.13244605 -0.21993221 -0.22983907 0.07293019 -0.062219713 -0.44332597 -0.12649727 -0.0005970229 -0.49855736 0.18384293 -0.070179306 0.15738447 0.6047068 -0.45718235 -0.21286611 -0.17764917 -0.13206185 0.24794443 0.1959987 -0.04509821 -0.059980232 -0.05192089 0.25891933 -0.034444194 -0.14536329 0.035723567 0.1269684
15 0.41822085 0.13972929 -0.29714322 -0.4138804 0.066017576 0.71259075 0.4314445 0.24338631 0.13811728 0.16758522 0.34441537 0.3963889 0.109268874 0.16188316 0.3481464 -0.1809288 -0.07303975 0.14026585 0.003157745 -0.014020948 -0.24701768 -0.2733915 -0.008267011 -0.17150047 0.3573155 0.40850902 0.03885349 0.3150169 0.021758368 -0.055993978 0.19458926 0.068953596 0.016557848 0.036651045 -0.15539455 -0.0010780066 -0.29250064 0.1378559 -0.2877996 -0.26865464 0.046045184 -0.07816748 -0.43866873 -0.06229978 -0.011864873 -0.5271612 0.1810666 -0.06899688 0.109484114 0.57718486 -0.26401383 -0.16950528 -0.1679259 0.024101589 0.18501024 0.27975652 -0.1479837 -0.06835964 -0.072732285 0.19289775 -0.07212245 -0.12929268 0.011441189 0.12286085
451 0.45513824 0.20648059 -0.29479417 -0.28741953 0.114749044 0.6561801 0.31952626 0.24079622 0.18465848 0.16046788 0.2721176 0.3207174 0.17539713 0.104422405 0.32579082 -0.19550385 -0.023453072 0.120057546 0.0023575348 0.08356513 -0.14485596 -0.38691202 0.059511647 -0.27527657 0.37681317 0.33109045 -0.036062665 0.47341567 -0.01646817 -0.053964097 0.08691953 0.21946453 0.086899936 0.11756821 -0.17949134 -0.057990953 -0.396018 0.16232099 -0.27020296 -0.23320034 0.08243506 -0.074119724 -0.47295773 -0.07384027 0.014735195 -0.55099124 0.220769 -0.024601271 0.10861158 0.50409997 -0.38729134 -0.06640119 -0.20072697 -0.01697102 0.29083607 0.21039559 -0.029563442 -0.12639461 -0.051649 0.22791038 0.1370864 -0.20038477 -0.04469687 0.030374514
166 0.47425404 0.218852 -0.2551645 -0.32980672 0.057811398 0.61590165 0.44662878 0.21125083 0.21860665 0.2633584 0.29863822 0.38730255 0.20708622 0.1119475 0.23037148 -0.16452022 -0.058773495 0.22735146 0.1125195 0.006367738 -0.16632394 -0.35284212 0.016412335 -0.075174004 0.40703297 0.3834966 0.040261343 0.40142795 0.032011252 0.031137237 0.24246131 0.07419263 -0.058288768 -0.008451283 -0.16414404 -0.028804619 -0.35405344 0.093563296 -0.16023014 -0.28520808 0.08592015 -0.1115648 -0.44027042 -0.13016842 -0.037437815 -0.57824737 0.24440289 -0.110899 0.14101173 0.4578443 -0.3468987 -0.1477751 -0.14257771 -0.076025695 0.27955297 0.19153084 -0.13480549 0.002018018 -0.017551092 0.25124964 0.009205814 -0.18783928 -0.0063106725 0.06601332
698 0.2218954 -0.09245945 -0.25300196 0.021929964 -0.24461427 -0.37275067 -0.03263827 -0.18660718 0.16729942 -0.07143995 0.17152888 -0.016562823 -0.018840758 0.05316179 0.30667606 -0.34100273 -0.19901678 0.3000107 0.55222565 0.34006596 0.084971584 -0.071393475 0.33568433 0.11614612 0.024014557 0.47101095 0.009779854 -0.16892716 0.16341445 -0.112301126 -0.3780423 -0.19548592 0.35737 0.021054788 0.39367893 -0.04633578 0.34406266 0.10241055 -0.34690815 0.29308245 0.009271265 -0.24827798 0.094977744 -0.22098714 0.49633643 -0.050811764 0.15795873 -0.12178342 0.04032873 -0.18731007 -0.012620711 -0.44567475 0.10643355 -0.1580666 0.19554581 0.20998016 0.16823901 -0.07560733 0.15943791 -0.16657378 0.35794315 -0.48719984 0.31563914 0.29642075
688 0.16472793 -0.09548536 -0.2395087 0.044422172 -0.33894694 -0.2882194 0.0753787 -0.11049932 0.09580242 -0.12861057 0.21676745 -0.06866886 -0.06490408 0.044962227 0.31247458 -0.25899985 -0.20184082 0.21483204 0.6173282 0.3156032 0.072446056 0.02458753 0.35491052 -0.024850924 0.001617011 0.4376398 0.09439988 -0.12054591 0.17391145 -0.031686984 -0.422613 -0.20348895 0.30673048 0.09450471 0.35586327 -0.1399756 0.3253381 0.08486816 -0.24697739 0.22402951 0.05135756 -0.22699279 0.08910008 -0.15194067 0.62116987 -0.0972933 0.108559586 -0.14448825 0.106400825 -0.15489052 -0.018515432 -0.47307009 0.18332589 -0.21737611 0.19600059 0.2337667 0.13189387 -0.2445499 0.14750373 -0.19353315 0.36825374 -0.56791896 0.25499022 0.27335882
45 0.394724 0.14961338 -0.33667368 -0.38985416 -0.08732321 0.68329954 0.38512924 0.17359328 0.16571122 0.1423326 0.3215659 0.42791253 0.18075515 0.030053692 0.29016155 -0.033854317 -0.052508444 0.17049792 -0.040302016 0.09365459 -0.20434433 -0.3050664 0.103075825 -0.28724334 0.3674152 0.26142612 0.014162924 0.41239363 -0.04821969 -0.059134874 0.124862894 0.20113996 0.054980762 0.12589683 -0.15131217 -0.07643119 -0.28530943 0.0426063 -0.35641858 -0.30122554 0.04314293 -0.098904446 -0.44997814 -0.0072420933 0.011781879 -0.5277359 0.1721985 0.012274915 0.14614809 0.5622916 -0.36690488 -0.115820564 -0.22972885 -0.09739888 0.25560725 0.2626572 -0.13605654 -0.14460437 -0.054988332 0.09112534 -0.014406785 -0.13208635 -0.03800652 0.08010273
410 0.4065271 0.08567769 -0.2644443 -0.38104847 -0.10054066 0.65835977 0.39267814 0.08449739 0.2885187 0.17134042 0.27091473 0.37929907 0.16051471 0.11377173 0.24549635 -0.060433377 -0.08150909 0.17457688 -0.14827077 0.012745953 -0.22607669 -0.36502662 0.13935517 -0.1753372 0.49583915 0.42273396 0.08728773 0.37413037 0.06062415 -0.1254849 0.18412963 0.07619257 -0.030829709 0.069652215 -0.05215006 -0.041105464 -0.3120343 0.18374154 -0.25520265 -0.24665907 0.031934895 0.019384455 -0.4549341 -0.07940982 -0.017814895 -0.42297825 0.33686385 -0.17018339 0.17655368 0.56262386 -0.40802944 -0.16316752 -0.16244954 -0.1132298 0.24578387 0.20780872 -0.13599516 -0.105011776 -0.08277667 0.17953952 0.015225177 -0.07097957 0.02974703 0.053731505
536 0.23508666 -0.14790823 -0.26241422 -0.060360327 -0.2120246 -0.37340137 0.047305204 -0.21251549 0.20810309 -0.10682736 0.09051036 0.04960672 0.031657554 0.093117766 0.22087024 -0.33589318 -0.22098655 0.26510185 0.5637618 0.3161494 0.1967029 -0.0043880627 0.31635183 0.09063648 -0.04213767 0.4941608 0.16415122 -0.18907359 0.07741539 -0.15746519 -0.38397524 -0.2990571 0.3477514 0.00790456 0.3956777 -0.06967622 0.3410417 0.054740183 -0.356693 0.3287474 0.09772922 -0.29840305 0.082210794 -0.102109246 0.4919772 -0.10040946 0.12016651 -0.16083242 0.073163405 -0.17809416 -0.046215206 -0.44080225 0.119759135 -0.17503352 0.14245655 0.19779202 0.1780151 -0.054504965 0.16045883 -0.16256684 0.33776957 -0.50674015 0.33570215 0.201924
748 0.21589552 -0.008730734 -0.3479524 0.06980242 -0.33196515 -0.23952076 0.03584988 -0.20466731 0.056413844 -0.20579544 0.19900696 0.0040960503 -0.012342132 -0.049425274 0.3198176 -0.19655415 -0.24622367 0.2530448 0.5347048 0.3813911 0.09256052 0.031940587 0.42340142 -0.11043787 -0.053821888 0.38100404 0.023077302 -0.30987662 0.1150189 -0.047974836 -0.4016365 -0.3065419 0.40043396 0.119541176 0.3416764 -0.10412656 0.3555016 0.037609745 -0.2530909 0.2479713 0.040385082 -0.10968314 0.013090944 -0.058741093 0.5010923 -0.18020001 0.09432487 -0.09840426 0.15394321 -0.14068557 0.03896447 -0.4948535 0.08095895 -0.13174346 0.21795683 0.3281987 0.081980206 0.02526182 0.1282849 -0.33854848 0.4170888 -0.49438804 0.25307778 0.20720893
339 0.4629144 0.12382896 -0.29576138 -0.37711883 -0.06414646 0.67465967 0.3103202 0.09760932 0.1256468 0.18920188 0.34423336 0.3274012 0.18112808 0.14366052 0.2919217 0.0438198 0.052550375 0.12217086 -0.04704379 0.114707835 -0.22452657 -0.36369967 0.08235238 -0.3818577 0.39085495 0.38539663 -0.005370978 0.30659008 -0.08240738 -0.07101502 0.12143776 0.047018282 0.08100213 0.16971645 -0.18045455 -0.07625239 -0.3512463 -0.026815584 -0.29070622 -0.23059855 0.06370961 -0.10751651 -0.47111106 -0.05123815 0.03372634 -0.52975124 0.2408615 0.03853401 0.18902256 0.61270565 -0.27786067 -0.11711956 -0.25353983 0.038332462 0.34667096 0.20653552 -0.11027017 -0.056613963 -0.057234142 0.11224308 -0.06439528 -0.16960986 0.043138064 0.06929084
996 0.065507166 -0.042475965 -0.21009786 0.073494196 -0.35857993 -0.34326842 0.068474546 -0.1448694 0.034702018 -0.19963123 0.15109697 -0.03401081 0.058327887 -0.012211526 0.28410107 -0.19479911 -0.31250718 0.20167387 0.5520878 0.51050943 0.14791128 -0.069880776 0.3572765 -0.11343782 0.04459911 0.39240667 0.13877572 -0.3287679 0.06871272 -0.032567482 -0.52487314 -0.37957963 0.42888755 0.23970309 0.24540122 -0.10011956 0.34702665 0.005414454 -0.22960477 0.26089126 0.07295773 -0.13972573 -0.051478747 -0.067233264 0.5553219 -0.24088815 0.1564058 -0.01914464 0.095947936 -0.12752433 -0.019091232 -0.53908366 0.024812702 -0.034738064 0.27277476 0.15903404 0.029861372 -0.054124862 0.10425466 -0.3845907 0.3060584 -0.4635231 0.2834022 0.17805421
744 0.24205677 -0.076371446 -0.33411887 0.010641665 -0.34926614 -0.3252957 0.0019554496 -0.2521391 0.07002584 -0.15824531 0.14196055 0.0633044 -0.01958279 0.06590791 0.26408738 -0.28952736 -0.2074956 0.27186167 0.5703312 0.30186102 0.1477051 0.0054091555 0.34356293 0.015580944 -0.032230917 0.48435703 0.043320376 -0.19599341 0.089652926 -0.13383436 -0.42997485 -0.15252651 0.39453688 0.02900803 0.46506953 -0.14983363 0.3310518 0.09374033 -0.31181777 0.31484738 0.11369218 -0.22873744 -0.0067204665 -0.12568462 0.49451804 -0.058575626 0.16658527 -0.12985262 0.09447884 -0.15666169 0.111841135 -0.31604207 0.09041153 -0.16161545 0.22868638 0.24818827 0.0792457 -0.08464878 0.14814115 -0.2785502 0.39205217 -0.4647228 0.26933396 0.23728801
585 0.119138226 -0.14288758 -0.23477937 0.06536519 -0.24884845 -0.33512795 0.009943053 -0.28238344 0.072482005 -0.16120291 0.12239435 -0.018396443 0.08411543 -0.006921856 0.26150978 -0.27837026 -0.25909808 0.30567306 0.5676841 0.36827788 0.038997646 -0.018004198 0.3358202 -0.14467682 -0.008829969 0.4665441 0.053810254 -0.2703389 0.18369822 -0.025074767 -0.4117657 -0.26913637 0.30489 0.10340326 0.29101327 -0.12692566 0.33039916 0.18614826 -0.34127766 0.22630425 0.04121523 -0.2417726 0.054208368 -0.0869648 0.5562197 -0.10183177 0.078834765 -0.13658671 0.09021092 -0.11173309 0.0036139695 -0.4349125 0.1540149 -0.12259966 0.24328189 0.19166085 0.14824189 -0.16419022 0.18669178 -0.31448627 0.2984102 -0.54117984 0.19922647 0.26087365
535 0.23267354 -0.07595479 -0.2748793 0.1020313 -0.33503905 -0.40317097 -0.024507374 -0.2269593 0.0584598 -0.14646028 0.19396207 -0.052615505 0.015176442 -0.07486207 0.26691788 -0.28354052 -0.26038995 0.17522195 0.55252314 0.4386934 0.072516285 0.03621136 0.30774772 -0.14097224 0.13042521 0.37282777 0.05868949 -0.3279075 0.050273187 -0.05671608 -0.5013072 -0.23038042 0.35550782 0.199391 0.3430506 -0.059291318 0.3330513 -0.048572134 -0.33812034 0.28637925 -0.029575398 -0.15156226 -0.0030057472 -0.07159009 0.50355744 -0.21309051 0.22808781 -0.0018605095 0.11781059 -0.08326314 0.020261858 -0.50619614 0.030815948 -0.053559277 0.2913759 0.2810101 0.02398905 -0.043152463 0.179541 -0.3236707 0.3233647 -0.49065053 0.24140932 0.14861017
568 0.19662184 -0.063833036 -0.22784413 -0.03178716 -0.29682148 -0.38907483 -0.03910689 -0.27597237 0.029000917 -0.18418087 0.22756907 -0.059121612 -0.025131082 -0.010210711 0.26126122 -0.28197372 -0.1749355 0.32291216 0.511421 0.43455377 0.034887627 -0.04727675 0.36636263 -0.050454635 -0.016638244 0.4027343 0.14718723 -0.23917472 0.13539205 0.0661494 -0.3071677 -0.29235128 0.4197974 0.08512828 0.31546113 -0.11284399 0.3442017 0.043500066 -0.18575054 0.22772077 0.006237804 -0.27402365 0.026339803 -0.011766872 0.5729977 -0.16493239 0.15192091 -0.046279408 0.120479226 -0.10945295 0.0029778443 -0.5442801 0.08761669 -0.15369472 0.19220091 0.19242139 0.11702382 -0.045538403 0.17854989 -0.25068718 0.3106813 -0.5315854 0.3108482 0.25322777
74 0.40636978 0.118983366 -0.29082406 -0.37031788 0.034060508 0.6251402 0.33666068 0.1569803 0.25176468 0.2339769 0.29703417 0.27957445 0.20752606 0.15560156 0.26173833 -0.11565938 0.07934518 0.21694198 -0.08927232 -0.015779933 -0.19846869 -0.377551 0.068513475 -0.23494987 0.35616347 0.46241334 0.0031532943 0.4820494 0.01588288 -0.11124132 0.13297687 0.038522147 0.0333924 0.071816646 -0.13321318 -0.043195833 -0.3021295 0.10811307 -0.27194723 -0.22011341 0.14658482 -0.08278332 -0.49422497 -0.108713895 0.053322718 -0.5357196 0.19848913 -0.078553826 0.1544068 0.5425611 -0.3703071 -0.03576521 -0.15510729 -0.063217685 0.2553737 0.21054421 -0.11220834 -0.029970052 0.02502865 0.20735942 0.043485176 -0.14979571 0.10387655 0.093514204
249 0.42307672 0.08504183 -0.2830652 -0.21296573 -0.09008104 0.549978 0.35809267 0.09314201 0.29393247 0.23890476 0.31982583 0.3950901 0.14278948 0.20126179 0.39015836 -0.17756657 0.019722432 0.28509456 -0.13133839 0.0029198565 -0.28636205 -0.37023044 0.12198065 -0.16343303 0.3646726 0.4177673 0.018183123 0.44009635 0.030141791 -0.20679612 0.14779185 0.05709262 -0.11613695 0.0015747512 -0.026155641 -0.06014636 -0.36216474 0.17228551 -0.20910104 -0.28039274 0.06937203 -0.0019611826 -0.44042116 -0.10891511 -0.06708534 -0.47720623 0.2866337 -0.08773644 0.14087692 0.5365385 -0.37182614 -0.14130527 -0.27967167 -0.14941758 0.3061851 0.19184737 -0.02084632 -0.16043611 0.04344593 0.30570066 0.0821272 0.034339696 0.053636603 0.026586892
799 0.17352368 -0.1236109 -0.22713776 0.02997711 -0.31181568 -0.25613356 0.07499219 -0.19759883 0.08164918 -0.04132698 0.107041836 0.008086827 -0.081594184 0.12938651 0.2796348 -0.31579563 -0.26957563 0.26874 0.56933343 0.36225837 0.17628704 0.0386911 0.36964518 0.11966784 0.009592386 0.5089598 0.046199076 -0.17147851 0.1922085 -0.13157934 -0.3635042 -0.20754622 0.39575818 -0.0010005385 0.48869976 -0.12081715 0.25757435 0.041938394 -0.3150735 0.28022313 0.14831133 -0.21828605 0.073339984 -0.15908328 0.52288437 -0.036370117 0.14401239 -0.14294256 0.06922758 -0.18317215 0.052592117 -0.4547935 0.092467055 -0.23653446 0.15761822 0.21141665 0.15853909 -0.11637985 0.13652155 -0.13550724 0.33868983 -0.53249884 0.3390354 0.2454581
797 0.19896562 0.032677453 -0.24254811 -0.08269151 -0.31207138 -0.342712 0.017655862 -0.1970018 0.0028215623 -0.094613776 0.21155412 0.0062525524 -0.07528391 0.020457063 0.28395307 -0.2570524 -0.24756828 0.26317227 0.5358153 0.38434762 0.1272683 -0.06409302 0.36703095 0.06464615 0.03022235 0.41315967 0.10494671 -0.23591305 0.14836326 -0.03127325 -0.42581365 -0.18098672 0.41731676 0.03158769 0.4039957 -0.07539639 0.2605258 0.13436642 -0.24720547 0.23115219 0.13184246 -0.22092603 0.029692853 -0.13983454 0.57132405 -0.040661976 0.09608208 -0.12827045 0.07761008 -0.22592017 -0.026484018 -0.469711 0.031769793 -0.24133071 0.20699388 0.122030355 0.22192895 -0.07686828 0.24842949 -0.3122453 0.32785988 -0.49417514 0.22957635 0.26572236
926 0.20517725 -0.101707704 -0.24361971 0.016217053 -0.23829597 -0.37405357 -0.008324551 -0.22826044 0.0924166 -0.07797562 0.22282948 -0.023489337 -0.044697545 0.03330729 0.27215752 -0.28361368 -0.30971625 0.24523243 0.5305835 0.29634994 0.090113185 0.024711592 0.41287684 -0.078947335 -0.022008324 0.49649525 -0.033405755 -0.30843484 0.05662035 -0.071115255 -0.39590704 -0.22252062 0.3989461 0.0830915 0.293813 -0.07077885 0.32347235 0.038731724 -0.32355398 0.22877239 0.121097274 -0.263794 0.12649025 -0.10079256 0.506901 -0.100319 0.13541637 -0.13343325 0.07728231 -0.12788485 -0.075062096 -0.4550694 0.06315287 -0.1553159 0.18152142 0.26393485 0.16321656 -0.07293264 0.24714227 -0.32071695 0.3513996 -0.5249697 0.18339321 0.19243354
840 0.07377114 -0.14490776 -0.23063101 -0.00012565454 -0.27792752 -0.36047316 2.2766944e-05 -0.14512499 0.07416763 -0.12787534 0.13809918 -0.0820826 0.110289484 -0.050833493 0.27256447 -0.27479038 -0.27431902 0.24967542 0.54650676 0.41480264 0.1306016 -0.007514848 0.3053477 -0.060857866 0.043286707 0.49431697 0.11957626 -0.2095908 0.12017371 -0.10452596 -0.4838988 -0.22825804 0.3841432 0.10674847 0.28296852 -0.06570585 0.35587302 0.09305033 -0.33978978 0.30571964 0.037675172 -0.23287793 0.004769751 -0.16425644 0.5682417 -0.16102876 0.1955577 -0.062189832 0.03206631 -0.10811882 0.037296195 -0.43638396 0.039418153 -0.12570515 0.28898004 0.11720667 0.11349674 -0.1644423 0.23504496 -0.26964974 0.31432447 -0.47883 0.32593402 0.1788567
565 0.09024076 0.019003974 -0.27274776 -0.07229456 -0.29620394 -0.32240918 -0.010237384 -0.18081817 0.038423013 -0.16089834 0.16149397 -0.06478909 0.049975 -0.021863589 0.29922482 -0.25374734 -0.22885397 0.30856222 0.53100467 0.38771653 0.039207414 -0.004404223 0.33216697 0.087944925 0.13029024 0.4150297 0.08127621 -0.29014808 0.124632336 -0.07218276 -0.47365248 -0.22798672 0.36956087 0.063124724 0.32843763 -0.044777304 0.33639723 0.06840187 -0.27472657 0.31853253 -0.027199343 -0.17218697 0.011189525 -0.112673916 0.58177274 -0.07904164 0.09915104 -0.029025216 0.08264835 -0.10680625 -0.01734895 -0.53104806 0.10923281 -0.08185672 0.25919092 0.227237 0.07938573 0.008496087 0.13519004 -0.35215935 0.3853543 -0.46951616 0.3602407 0.20346418
204 0.32159963 0.11549324 -0.30993778 -0.31072488 -0.020370504 0.60237306 0.38740933 0.21174604 0.16515343 0.17321491 0.24325264 0.4320009 0.20309186 0.21075578 0.34573954 -0.21033339 -0.14970413 0.21849914 -0.054882206 0.013827217 -0.23723121 -0.35502172 0.11816535 -0.002119549 0.39952478 0.31062576 0.067203924 0.4763996 0.0061933487 -0.12674315 0.23596843 0.15782626 -0.037558794 0.02388132 -0.104224205 -0.06005164 -0.32342866 0.112692684 -0.27651 -0.2402455 0.038617305 -0.10925808 -0.4600411 -0.011205178 -0.014716841 -0.59434634 0.23805028 -0.013638165 0.09565575 0.50327194 -0.39138937 -0.11058871 -0.2326874 -0.12574455 0.30058527 0.2072218 0.03331791 -0.05272141 -0.16811682 0.13701853 -0.033883743 -0.17612864 0.051223576 0.08067509
241 0.5173165 0.2647638 -0.2789691 -0.23563422 0.12914269 0.54069793 0.30781314 0.37371102 0.14779733 0.18814576 0.24542911 0.38265538 0.21620595 0.1777247 0.31843212 -0.11943423 -0.035850663 0.14958179 0.052156117 0.06191808 -0.14904222 -0.38811973 0.06398188 -0.15378788 0.3964115 0.3131873 0.033900637 0.48907804 0.008153534 -0.043504465 0.14875354 0.026507495 -0.008387615 0.13200267 -0.17000191 -0.06827764 -0.34281653 -0.010366305 -0.23809649 -0.29135156 0.05365111 -0.119629085 -0.43427366 -0.10129666 -0.05499514 -0.5968461 0.17893085 -0.082576245 0.13625306 0.51692235 -0.35968226 -0.08611319 -0.26132947 -0.072056204 0.3332823 0.24141757 -0.14461468 -0.1520264 -0.036816705 0.105060965 0.054263543 -0.113313936 0.010751625 0.06477878
163 0.42768878 0.19818252 -0.28207797 -0.30560443 0.060677968 0.5953044 0.43319896 0.21876289 0.1790764 0.15794295 0.3241265 0.3956537 0.21857302 0.14986537 0.27570632 -0.11309203 -0.009099453 0.2639384 -0.036103267 0.014546095 -0.15078756 -0.3142528 0.07437155 -0.27567327 0.3171835 0.39683995 -0.0037767275 0.48540395 -0.03955879 -0.08601298 0.17647536 0.14330938 0.0046034455 0.045383636 -0.14338073 -0.057840537 -0.2963266 0.107560955 -0.27708715 -0.1834226 0.062434398 -0.04775016 -0.43559122 -0.092704654 0.045794964 -0.49053684 0.23169124 -0.06160224 0.2113758 0.62933594 -0.35429955 -0.09502663 -0.24618031 -0.0019702427 0.22852644 0.17366734 -0.10704671 -0.052630134 -0.046710636 0.13590714 -0.010748938 -0.12567037 0.05756134 0.16701858
896 0.21323289 -0.04797781 -0.25453088 -0.022526525 -0.2983818 -0.2530296 -0.057489656 -0.20165524 0.11689855 -0.10216408 0.23706967 -0.061723083 0.0071730777 -0.011107088 0.25028482 -0.29697424 -0.19777426 0.24369183 0.60944605 0.35188046 0.05889645 -0.013633209 0.362348 0.019580286 0.09863122 0.41660103 0.006673353 -0.22098027 0.15784267 -0.067644894 -0.40709844 -0.28229025 0.3431526 0.10262324 0.34526032 -0.04280856 0.31804574 0.049766906 -0.2464271 0.24984175 0.0060439645 -0.20955716 0.11578459 -0.06640308 0.59983754 -0.1468645 0.1964954 -0.09788275 0.041604266 -0.22113442 -0.010267747 -0.49853468 0.14666986 -0.18768689 0.2053431 0.19052689 0.12343571 -0.09649478 0.15106341 -0.30062252 0.34745494 -0.4962202 0.25041416 0.1976557
114 0.4300171 0.16277024 -0.30770186 -0.26519963 -0.053387213 0.60245353 0.42719638 0.2241432 0.15455095 0.2199244 0.31694376 0.45890874 0.23181812 0.19784562 0.23714003 -0.14477168 -0.1413114 0.22669277 -0.12514926 -0.004792181 -0.17696878 -0.33661798 0.13967222 -0.17903389 0.4284807 0.30159435 -0.005850889 0.44253314 0.093431555 -0.041576263 0.13881491 0.04417858 0.0027060132 -0.017717319 -0.13158628 -0.11157284 -0.26436862 0.06079326 -0.23425654 -0.29261717 0.09267654 -0.10198584 -0.42779434 -0.13023041 0.013472678 -0.5594983 0.11903945 -0.11846933 0.17527655 0.5261589 -0.45659062 -0.17158645 -0.17531225 -0.072311155 0.22084749 0.19216946 -0.13114566 -0.068804905 -0.04586116 0.2335825 0.016757775 -0.071276665 0.124699324 0.06832712
970 0.20720184 -0.044892445 -0.28573033 -0.06799498 -0.27097398 -0.36976424 -0.03057814 -0.21418579 0.18716094 -0.06644994 0.1394058 0.047516927 -0.04929768 -0.021469008 0.24546748 -0.29769754 -0.30290884 0.25146514 0.50892055 0.33185014 0.09565296 -0.0032641124 0.27499217 0.009971439 0.016591122 0.54846406 0.041122425 -0.2073724 0.15490587 -0.037569303 -0.4113851 -0.33012167 0.3359073 0.021413216 0.4552053 -0.08920741 0.3656965 0.14207132 -0.29421175 0.38688114 0.0041319025 -0.18299007 -0.07104374 -0.13898236 0.53649765 -0.115129225 0.10480658 -0.15754989 0.09366697 -0.15746348 -0.019596674 -0.39988595 0.16138962 -0.2309836 0.26152673 0.08306797 0.13555792 -0.10380855 0.17136121 -0.21242337 0.3337505 -0.5114717 0.21433283 0.24646294
722 0.2723625 -0.051872153 -0.33109915 -0.001403442 -0.34256446 -0.37005576 0.046205185 -0.15536691 0.14897396 -0.14139265 0.17521109 -0.07184983 -0.025761792 -0.02155571 0.3184903 -0.26246744 -0.21608125 0.2309981 0.5618502 0.33079353 0.083503425 0.005451454 0.35889766 0.10180431 0.014589876 0.50387 -0.02042673 -0.24493276 0.07793995 -0.08873923 -0.38102543 -0.17707056 0.31487823 0.14713883 0.34050304 -0.13000654 0.30682734 0.045692284 -0.22067982 0.26436648 0.040866878 -0.24329637 0.021502798 -0.18611336 0.52323073 -0.08201897 0.06493533 -0.18628094 0.08102136 -0.20914298 0.041347016 -0.48742917 0.13409124 -0.18658544 0.15798977 0.19734824 0.13952345 -0.15112886 0.19181843 -0.13444735 0.3987951 -0.5315293 0.28057912 0.2618743
956 0.14119816 -0.08926124 -0.31365788 0.04158785 -0.29417732 -0.3367307 0.037853483 -0.24071802 0.16964059 -0.2000813 0.12922446 -0.014104984 0.0239884 -0.0054934584 0.31656218 -0.225863 -0.21823281 0.28117448 0.49069855 0.37658656 0.093042195 -0.020894838 0.43776414 -0.09987876 -0.011037829 0.38823566 -0.030653412 -0.27893257 0.05015557 -0.09145462 -0.34766167 -0.33268473 0.2858941 0.14853063 0.33024776 -0.1282095 0.39862096 0.068473235 -0.25437003 0.25914562 -0.0061144303 -0.23579836 0.047609482 -0.06667354 0.5320253 -0.18902063 0.05115537 -0.12564024 0.07505419 -0.14038575 -0.018738322 -0.52639323 0.18898575 -0.10982732 0.10762513 0.26927218 0.15623893 -0.15263674 0.055970505 -0.2588523 0.36136672 -0.5237546 0.28174743 0.26738444
513 0.19004935 -0.092947304 -0.22841279 -0.052609537 -0.32367015 -0.3704513 0.04117174 -0.21660621 0.11996216 -0.12996815 0.23913673 -0.04328612 0.060380574 -0.08460352 0.2335566 -0.30444986 -0.20728718 0.27014616 0.6361882 0.38126314 0.112959266 -0.04927677 0.37930006 -0.081453085 0.0060845776 0.44632298 0.079805546 -0.22996455 0.07445396 -0.11162886 -0.43655965 -0.28076544 0.37179244 0.011849618 0.289842 -0.08434161 0.3570017 0.03985321 -0.23063834 0.280944 0.01200491 -0.30859184 0.016046876 -0.058545712 0.5019766 -0.13712694 0.20654202 -0.14798719 0.041844267 -0.1544942 -0.05434327 -0.44619274 0.10120412 -0.08994671 0.2610756 0.16855347 0.11729867 -0.017867405 0.12963451 -0.2483626 0.25925744 -0.53305006 0.29594812 0.17205575
