1000 128
340 0.9892398 3.7149966 3.362558 -2.5906386 0.5193586 2.6803277 1.0068083 5.3756547 -3.0939047 -0.03920964 3.9249291 -0.99170035 1.2638632 -2.6376045 6.232547 -1.7874063 -0.9918077 2.2123783 -1.8623884 1.6929587 0.78090316 3.9812665 0.5993567 -0.35867184 -0.45993733 -6.524193 -0.75226504 1.6716233 -1.0341728 -2.7567275 -1.229556 0.46439147 -1.224334 3.3854623 -6.0410337 0.65132314 3.888244 -3.2145605 4.804235 -3.1688 -1.1378103 -0.1958804 5.327589 -3.8618126 -1.0791979 6.690618 0.8172802 3.3160899 -4.7540913 3.7070823 -3.9854622 2.629131 6.0333934 6.5921183 3.7348692 -0.67962855 -1.5626639 0.33460078 4.73077 0.3003482 -0.34194338 -4.7567854 -0.72134775 1.6698186 -1.1816232 0.30320635 -0.28832716 -1.9280508 -1.0968249 -0.63251144 1.4620963 2.139902 -1.6139158 -1.0173286 -1.5721282 3.3921325 2.5151699 -4.7443895 -3.1216636 2.1907842 -8.27197 -1.4424375 5.4594517 4.5107102 1.0009943 3.1430066 2.4166288 -1.4398142 1.5618523 -6.4685354 -0.34422722 -2.4044204 -2.0354443 -6.393378 -6.333233 4.9293904 0.9052034 -2.6945975 -2.4934342 -1.4149904 2.9382994 5.2673473 -2.940938 3.5511804 -3.98071 0.16303913 -2.579925 -0.81671965 -1.0540423 1.4890107 1.6386155 0.98683363 3.0644662 -2.9846423 0.76745576 -5.958676 -3.6884265 2.0872426 3.9628656 4.216369 -4.3682175 0.19765414 0.8557838 -1.023495 4.258585 2.0944798 0.45011994 -2.9183836
934 2.4575636 3.309725 -2.453186 -1.9425776 0.50412345 -4.663427 0.30441922 3.5632565 -0.0633947 -0.11424393 -4.6521454 3.862172 -0.99730814 3.2651463 1.6758013 -0.021210127 3.299832 3.5864842 -4.956122 2.9575393 0.07616177 -2.5841756 0.30896673 -6.0367246 -3.9165463 1.3939803 9.121046 1.2598091 -0.75616133 -3.133973 -1.1247246 0.5094377 2.2257342 1.0969762 3.6290648 -4.589091 -6.294138 -0.89561224 -1.6915705 0.7347543 -2.0072434 -0.68719816 2.5113626 2.2737322 -1.5941741 2.1661937 0.07607422 -1.807349 1.4534993 3.3613055 -3.1420245 0.34461716 -6.239468 -2.9593546 -1.3499215 -2.0392013 -0.68388623 0.93086946 1.0858196 5.5243206 4.856222 -0.7393178 -3.178345 1.7863228 -0.14644718 -0.6755166 -0.6954757 -0.08253414 2.8473594 8.525922 0.8013233 1.4037739 0.26989168 -4.0551796 -3.4399297 0.75283533 3.6091099 -4.166657 -4.346106 -0.12841642 0.057857674 1.6348863 1.9725758 3.044298 1.0990902 -1.0614083 2.048132 3.2332041 -0.013025675 -5.90858 -2.6014595 0.51581424 -4.903706 6.138589 -1.9240249 3.0764415 -2.3131654 -2.1534743 -2.5322957 3.5274086 1.8372991 5.223522 -1.5432882 -2.133407 -0.4381899 4.3966594 -0.39734167 -2.143894 -0.06125814 -3.847849 -4.892619 2.6639895 1.9890257 -2.332003 -3.2573376 4.513346 0.09234793 -4.429883 -1.6578399 3.366929 -1.6512898 1.6400114 -1.343969 0.36645922 4.648189 1.605566 3.7868369 1.4134725
958 -1.6688908 -3.1646228 2.933156 1.3454391 1.4272457 0.21970685 -1.1250703 -0.8631004 -1.1742799 0.07813854 -1.09664 -2.6007178 -0.8556821 4.9667363 -2.3252876 -3.9985807 -2.5350263 -5.699051 0.05309341 1.1696792 0.78489906 -0.48207986 2.9227376 2.8231838 -5.4766226 -3.5116537 0.85856396 -4.2763376 -0.41969034 2.4239652 -1.9572417 -1.6761285 -4.255434 -2.2957604 -2.6001575 1.6130464 -2.6033714 -1.6120962 6.509101 5.474965 5.042483 -1.495635 2.5335002 3.9486728 -3.432216 -5.7164063 0.88752675 -4.333922 2.4764194 2.379232 -2.4794314 -1.8249955 -0.17306004 -2.827022 -1.0550513 5.797325 -1.7567514 -1.5933113 -3.3083498 4.185134 -2.68763 1.7588171 2.0900629 0.41605678 2.0998132 2.2241313 0.83054537 1.7194536 -3.4398634 2.3309314 3.1875417 4.383408 -1.0804698 -2.4727507 1.2176452 -3.474922 -3.07088 -2.0379794 -0.6049159 -4.4369645 -2.4230447 -2.8827505 -6.5829577 -0.14926647 0.4230475 3.22805 2.3903391 7.0236106 2.447447 -0.29804018 2.9427528 2.1530144 1.1458615 -3.4942453 1.5901157 2.3721588 -0.9607093 -1.576666 4.0779986 -5.533065 1.8120941 -8.786683 0.50564885 0.036429882 2.9783757 -0.23787762 -0.3562488 0.4029874 -1.0127993 4.3997593 -1.0482315 2.4035482 1.1242454 -1.2597395 2.3230963 -2.9479952 6.3355236 -3.461256 -1.5600326 0.1979115 2.5787773 -4.815343 -2.2929099 -0.5499411 -1.3556677 0.06453604 2.4606977 -3.3904643
786 0.8160414 1.3446997 -0.68137723 -2.0029233 -0.9169214 -2.5716884 4.2414675 2.3677511 -3.220039 -0.26351517 2.232641 7.9625607 -2.4418967 -2.6291916 -3.569297 -1.4516351 2.8322303 0.23183583 -0.5100696 1.0408024 1.9308407 1.9381989 -0.6872076 4.3168955 5.0514293 -3.6071472 1.4294639 1.7310863 4.353081 1.2791866 -1.9261361 5.7845054 -5.1466484 2.1037924 1.2304324 1.2525314 1.4002262 -3.1480641 -1.1507806 -1.2245826 -3.408846 3.619297 5.3299747 -1.3361719 -0.89959437 1.870368 -2.8239217 2.321527 -0.52709645 0.64401025 4.7450833 1.5823473 0.32829323 -1.85365 2.176384 -5.8821173 -2.0162604 2.8403506 -0.22330171 -4.797781 -0.8978097 0.75421226 -0.023664465 -5.530046 3.1033707 0.98371965 3.4668655 -0.77206933 -6.739407 -0.40814742 0.57106817 1.4679905 -8.614069 -6.2427793 7.9085927 -2.7351835 -0.3253672 -1.3073814 2.66926 -1.2282615 3.1633687 -1.4125186 1.8196847 -0.7120901 -5.6530557 2.751754 -2.2644014 0.42167312 5.7711434 -7.996385 1.1774764 -0.32321513 7.267109 -2.4108295 0.25211433 3.0931764 -1.1996088 0.41166162 0.1277582 2.5578218 -2.0327563 -1.7242188 -0.2098267 3.7293475 -0.19450091 -0.0122744795 -4.0432897 -0.72542983 -2.1868837 0.7412252 -5.743622 1.2139269 0.55607224 3.2327852 -2.4674873 0.13332526 0.59012663 -2.0760546 -0.63461626 1.8832169 1.6066948 0.0960249 3.584957 2.4269385 4.3714423 -3.2688875 3.4677951 2.476403
9 -2.8130298 -3.7131276 1.4132859 0.35864618 -5.400177 3.3575115 -1.9691175 1.8180933 1.9869343 -1.5719836 -2.5368216 -0.17965628 -3.8655527 3.0817046 -1.6119912 1.3672678 -5.3975277 -0.86898535 -0.85509163 -4.8348837 2.8753614 -1.0637242 2.5453029 4.066063 -3.0111341 -2.4342844 -4.6174207 -2.666475 1.8052326 -2.5228012 -0.0025438736 -0.5228811 4.336876 2.8012295 -2.3105128 1.8090576 -3.6399612 -5.972423 -1.3426172 -1.7120628 -4.1630363 0.6338532 -0.6070342 -0.36792964 4.962117 1.9655498 0.05273237 -0.501645 -0.043271292 -4.511342 -1.9211336 -1.9006476 5.273508 1.9045148 -1.4685792 2.9841993 6.08206 -6.6618643 -2.4914265 0.89081275 0.8059042 -4.8920197 -3.2120316 -2.518906 -2.0493937 2.5519967 3.758656 -1.9616493 4.0354085 0.18640342 -1.1913787 -0.47368985 -4.202993 -0.6712174 -1.5340469 1.2279297 -0.51107234 -4.318001 -0.18303834 -0.28803524 -1.0376456 -1.5521474 2.552391 0.32773563 1.5118443 3.30481 -1.3463802 -5.2500176 0.030823093 -5.0269585 2.9556406 3.8552887 -3.1266627 -4.685379 -4.5581365 1.0892329 1.1302875 -2.1471307 -2.298247 1.5031132 1.3183869 1.194064 1.4160304 -1.0140207 5.3978596 6.838209 -0.87466836 -0.76136667 1.2667426 4.135272 -2.7075675 0.93832755 1.5865656 0.9231859 -2.642335 -0.8758261 -1.083948 6.084913 -0.16818607 -4.540601 3.57613 0.42366412 -6.937088 1.4082866 2.5151737 -5.3792686 8.656995 -4.13816
797 -2.8984241 -0.45917717 -3.6988475 2.7786303 -2.3480515 -1.4054246 -4.3839397 -2.6078975 0.79512185 -2.4812112 -0.9039541 1.7791731 1.0985008 -0.9271028 1.8195187 5.4070215 2.0612428 -3.4853446 -1.0353373 5.517836 0.49127695 3.987731 -6.813425 7.1221647 7.209243 -0.76886415 0.36407104 3.2460108 -3.3519993 -1.2754871 0.19007967 -2.5804121 3.427997 -1.4986317 -3.6474452 0.8562408 3.853004 0.30411628 0.86934227 1.5947002 0.20873863 -0.756909 -2.13758 -1.2740616 -1.6648613 0.9849471 -2.2533383 0.2992075 -9.783602 3.4594123 4.943307 -0.23403844 -0.9953729 1.5314175 -1.3021433 2.6710198 -5.2179894 3.737042 5.584295 -3.179832 -1.0676564 2.1237085 -1.6819453 -0.60530466 -1.6634768 2.7220254 0.15481053 0.6234329 1.6989415 -2.133467 -3.4311914 0.51004624 0.30860135 -3.6166992 -2.7934082 -0.63521904 -2.3933852 -0.46925944 -2.1056132 -0.19919783 -3.1582048 5.0622797 -1.8577665 -3.7619097 0.31985936 -3.0028026 1.8547997 -4.0651274 -2.920543 -4.3673105 -5.555634 -0.11217002 0.4377112 -4.6491666 -0.018391943 2.432106 4.5829453 2.5440323 3.4011827 4.148276 1.8530197 -0.7244248 5.393858 0.5584645 1.2761441 -0.2723381 4.1518426 0.98575175 2.0455282 0.11504973 -1.7447821 -2.0946615 5.685961 -3.5131526 -7.1649466 -0.913481 5.390851 -0.31036174 -0.6683698 -4.042281 0.99113595 7.800404 4.5034914 5.8744416 2.2142804 0.91914684 -1.734914 2.5753868
479 -3.0708642 1.2612135 -3.1128285 1.157967 1.2696674 1.0115827 -2.2666528 -1.7925652 1.3509873 0.123118736 -0.45209768 -4.0539546 3.9766066 -0.86688024 1.7682081 -1.1792349 -1.090261 2.7814415 -3.3778172 6.5864472 3.0691178 1.1625117 -2.1395154 -1.8163819 2.8281522 5.595507 3.9142191 1.3562725 -0.4196154 -0.13888274 1.8563368 0.073784195 -0.82605904 -3.0897882 0.48869973 -4.062611 -1.9299659 3.4311633 2.719712 -3.1455824 -3.2241447 0.8195318 0.08215582 -0.973102 0.122198686 0.060776275 4.254449 4.6817884 -1.8533739 3.349698 -0.50003374 6.6469145 3.7473204 0.84845495 1.2457772 -2.0946305 6.7600174 5.5906157 1.2436608 -3.2422223 3.287566 2.9139936 -2.7621849 -6.8093495 0.6040832 -2.066243 4.3705783 -0.16481479 -4.703275 4.9201727 -0.21236514 -6.7155094 -1.6470187 -2.3694293 1.547504 0.15828705 -0.03984336 3.9297564 0.8441643 6.673587 -0.6878362 -2.2727365 2.2496479 -2.4720418 5.8761663 2.5685308 5.2226005 1.6728543 2.0940626 3.7176893 -3.7936482 0.6124423 0.3047302 -1.587036 0.41146597 -1.8770664 -2.6092384 -4.6639285 4.485015 3.450567 -7.4036427 -4.1375766 -5.6760235 0.816922 -0.85955995 3.7637806 -2.9220588 0.906234 -3.3946075 3.1487849 -3.1478846 2.5401158 1.7637846 1.8816152 -4.699843 -1.516889 -2.2831283 2.8874629 0.42772275 -1.0741417 -0.71645266 2.8891616 -2.2596004 2.1569898 -1.275415 -0.07361158 4.3827677 -1.0577403
153 -4.179748 -6.8675323 -2.6440597 1.5709052 2.5177274 -4.788026 -2.3705537 4.0816407 -1.9204341 -2.8935127 -4.4157147 -3.600092 3.9313436 5.4219775 1.5909444 -4.799563 2.6607263 -0.8635574 1.5235195 0.8000781 -1.3044956 -2.4684806 -1.2242479 2.1819406 -1.4412 2.5973644 0.53379035 7.791128 0.8204598 -3.478518 -5.6098843 -0.22135097 -0.9750356 -2.7879648 -8.304625 2.6593766 -3.6599479 -7.3019533 -0.7085038 1.4380697 -2.320529 -1.382032 -1.6824347 6.917613 0.98277843 5.2766266 2.0322142 0.68644136 -5.6095066 3.2252157 5.482317 1.9821323 2.6678047 2.0005252 -1.1354617 0.7500329 -6.9075527 -3.735561 -5.429277 2.5134122 1.9617307 -1.0636933 2.2971003 -1.1170713 2.2525373 -1.7000312 3.8922696 -2.3186057 -2.2651043 -1.6031795 -0.5097868 -2.6881495 -1.5923991 1.5350542 0.35925302 1.6916897 0.70167494 2.850499 0.9764491 2.671182 2.9022648 -0.8752911 5.3726344 -0.22244965 0.23719642 -0.80678743 4.6963587 0.07717948 2.2465878 2.7537432 1.0763121 1.9893327 0.6742866 -3.1179438 0.96877605 0.6565027 2.9420347 -0.0069676605 -0.9215357 -3.632061 -3.5212035 1.74652 -1.2617657 -0.3328561 0.065216154 -0.6642567 1.655288 1.6655394 -0.026218297 1.8030286 3.169892 -5.567229 -1.5099965 2.2664518 -5.4612913 1.8447976 -0.7849696 0.35751462 1.8878833 -3.4526775 2.821571 -3.718149 1.9732225 2.252565 3.5700386 -3.904096 -0.35172492 -1.6872724
666 0.9749139 1.2093103 -6.082725 -2.201861 4.404491 -0.7578413 5.2193937 3.7090344 5.67618 0.46507755 0.08000168 1.036689 3.5790377 -3.5375478 -1.4793123 0.23617625 0.49371114 2.5499535 2.1249914 -1.7901397 0.19127283 -8.802843 3.9784431 -1.6244395 3.0730703 1.0613599 1.5843337 2.9155722 5.113912 -3.1328163 0.92900604 1.3682672 -2.6823742 -0.98749757 -0.73495984 -1.6328995 -1.8613306 -6.2651043 0.3221115 -1.9719206 1.9531033 1.8507046 -4.408202 -3.2688131 1.5985774 2.8914466 0.15529326 1.4223934 -2.4565523 -1.8834196 1.1947477 -0.16578498 -1.3136774 3.7108839 5.819422 -4.0808563 -2.5034063 1.3134327 -2.6177533 -0.23334716 -2.4400353 2.143051 -1.7928358 1.2118703 -1.6945585 3.4677768 -2.5158567 -3.7158911 3.6021523 -2.832969 -1.7147739 0.75851876 1.1172463 -2.885314 3.3605335 0.84589225 -2.646708 4.447129 3.202748 2.0674582 1.2129202 1.1248223 0.055251673 -0.19850196 -3.8124638 4.1356044 2.4043424 0.54662436 0.19024535 2.3163497 -5.4265313 -12.591048 2.9498808 3.4104664 5.2949 -2.7917626 1.8701931 -0.57960397 -0.7990745 -1.1621462 0.9597011 -0.7593346 9.283262 -2.122702 -3.7360601 1.7063421 1.5336124 -4.265442 -5.206497 0.80308694 -2.2127674 4.979203 -3.5691433 3.9049354 -2.3718529 -2.7412512 0.220821 -2.1833138 -1.7733817 2.7223008 0.018774105 0.78026444 -1.787704 -3.3196042 0.90020096 -3.0899007 3.7876606 -0.8517831
298 -2.8343008 -3.0552495 2.8796859 -1.3482718 0.7797548 -2.0597806 0.58267105 -0.25183246 -4.059868 0.40432975 -5.063499 -3.2258546 -0.26212862 -1.5178807 -0.07627089 -3.9298127 -0.11111813 2.0885844 -4.121858 3.12542 0.9834033 -0.39252192 -7.0826993 5.152999 3.92723 5.3889112 -8.523803 -2.991706 1.5748355 -0.2038978 -1.9602482 -0.51905894 -0.44455156 1.010393 0.7834171 1.4638683 -1.5726634 1.477613 3.2654443 -2.8721502 4.4471283 -4.905534 -2.920022 2.344553 -2.6875482 -0.22375765 5.2906423 5.042164 0.9147183 -1.9806266 2.1638336 0.36265662 1.3170015 4.4431596 5.9325657 2.917582 -2.588752 3.5686672 2.9723701 -3.0813801 -0.8830411 2.8492599 -0.8893738 1.28271 1.9830041 2.6360087 2.8864973 -3.8687224 0.7790935 1.4954371 1.580944 -0.39551634 3.0167904 -0.568923 4.2513223 -2.3017988 -1.0725516 -5.591118 0.8961843 -2.29452 1.2105198 0.26689634 1.9540557 3.8716424 -0.22958241 -4.3932133 -0.9049778 -5.644752 -0.110377595 -5.399918 -3.3717146 2.1498232 2.6373336 5.078585 -0.31219727 1.4443877 3.679715 2.8194613 -1.0152884 1.5238864 1.3088125 5.4896317 -0.59563327 -1.4695555 3.1818228 2.225513 -0.040401693 0.8708033 -0.59145695 1.5176189 -1.9992311 -0.49295798 -1.8206481 0.08077814 -1.0864674 0.66324484 -1.591701 3.6648326 2.2258723 -4.591469 1.1276166 4.8314447 -2.8857412 0.86551136 -4.4876285 -7.2389035 -0.73710895 3.3938694
264 4.291605 2.812005 -3.5220003 -3.3664808 -2.097822 -4.4570765 2.2496192 -7.3407593 -0.087766066 -7.0374885 -4.367052 -3.061758 6.088644 -5.0104165 -5.6642275 -0.851685 -1.4086572 0.644917 -1.0284921 -1.1338841 3.1254554 3.8441212 4.457942 -4.344186 -0.8128912 -0.6652229 2.6210694 4.940393 0.59974384 3.3934135 -2.002991 -2.2322557 -1.5297551 1.3064396 6.7379913 1.6086677 3.5146754 1.4790459 1.2797942 -3.6720212 3.105495 5.7581854 2.1406717 2.9888039 6.114212 -1.5034261 2.9837008 2.845218 2.5549483 2.3267283 2.416821 -0.5155807 -1.2953122 1.1356424 1.0589738 -5.5738144 1.1826315 -3.6702833 -4.343567 2.1034768 -0.80497164 2.4554627 -0.3035528 -4.3405733 0.70856094 -2.6926303 2.5940993 -2.1799247 -1.8821161 3.1572165 -2.7093437 3.1366713 -0.25139517 -1.3181314 2.7511253 1.3903548 0.31495252 1.3545606 1.4467107 -2.2842646 1.3311594 -0.5973688 2.556894 6.4945083 -0.058909997 -1.5549217 -0.6780667 2.5973113 -0.91268396 -0.08952743 -3.4561102 -1.3591403 2.5523405 1.2831324 -2.347973 0.6535447 -2.1595042 -2.7773287 1.7573026 -3.562669 3.0109937 -2.696757 -7.510618 1.5952829 2.94299 -2.5234768 -3.0328424 2.4892817 0.89109725 -1.1112658 6.0030737 -0.6380273 2.9752991 5.3734155 -2.3391113 -2.7216666 -1.2332488 4.5364246 2.5541196 -6.7241344 -1.5471636 -3.3257809 7.705228 -1.7660022 -2.7917209 2.0471504 -2.6792078 0.93212146
58 -4.276172 -2.4796913 -0.16773748 1.6788136 -5.4476647 0.92736423 -2.7926674 1.262498 2.6398313 4.2695675 0.94209903 -4.916511 -3.4620109 0.36655337 0.23712401 -1.512785 0.79717636 -5.8360534 -2.0468874 3.9448915 -0.27011296 1.5693277 -2.3098478 0.63725066 -5.5184116 -1.388058 0.94481015 -1.4494513 2.1254969 0.7704995 2.9810872 2.5338354 -6.4705343 -0.19487397 1.3733231 -5.8040743 0.4818398 5.114487 0.7455167 -1.3309897 -3.3150802 2.4193377 -4.064989 -0.69665396 -0.004901347 -2.1531332 -3.2158844 3.320289 1.8705131 -1.0960296 0.78728074 1.7000407 2.5281873 0.38297054 -0.8277814 -1.4019897 -6.7410555 -0.69187903 -2.2951105 -1.2887782 7.4364204 -0.98441625 -1.4097044 3.787026 -0.70208037 4.949032 1.4008054 2.5091765 -1.0016419 -0.8660008 0.96226126 -0.5522192 1.108506 3.4230819 -1.3615282 5.537269 -1.31666 -3.8987088 2.427208 -1.4253523 -3.5071146 1.7485542 -0.009574582 -1.2200481 3.2091467 -1.4649343 -2.4871635 -2.2133641 -2.5720248 -5.6761622 -2.2960756 7.306034 -1.8686688 -6.4019856 3.2855713 -1.9108515 3.1610112 -1.4660798 -0.11931133 -4.69181 7.332192 -1.3797219 2.657011 -2.0908105 2.620098 2.1617882 -0.9766859 -3.6030395 5.57725 -3.9017968 -2.926752 0.07397062 0.6905764 2.8939936 2.8209786 -1.5297261 3.7804465 -4.2984724 1.4074878 -6.29311 1.5484608 4.433723 -5.2100873 -2.0992718 0.85276055 -0.056200426 8.56022 4.075873
545 1.2079617 -2.3239033 0.011409807 -5.2671466 -0.3185071 6.058089 2.4138892 -2.4139307 -2.1079905 -1.0813742 4.4658756 -6.309151 -9.935637 -1.5111936 -4.3173175 0.69036454 0.91109353 2.8548636 2.2981458 6.767089 2.5926723 3.6516562 3.9155345 -1.7700711 -8.113518 4.9641733 1.7753676 -0.5101391 -1.4296958 -1.0551043 1.6971878 6.562687 -1.0474217 -3.1203434 4.011977 -2.8352253 1.7639172 1.4510287 0.849124 8.077434 1.0405178 -4.4317856 3.6657856 -0.6997922 -4.567672 -6.3980875 1.9595666 -1.3507777 6.284176 3.8798263 -0.8025297 -0.92766595 -8.232308 3.7929182 1.0416358 -0.76578104 -0.8032499 -5.855 -0.09742 1.1651 0.6310462 1.0955385 -3.0622454 2.3505182 -4.9167056 1.5506983 5.1465697 2.2992933 0.22698854 5.4172797 0.41938594 4.586035 -2.8186593 1.2154688 -1.7442945 -2.6129231 -0.9825659 0.25306836 -1.4302019 -0.14946926 3.0675375 -0.3932161 -0.19970597 -4.1663413 -3.2050967 1.1744419 -2.0305207 -0.99118733 -1.0958709 -0.9441608 5.4757824 0.068958774 -1.8722967 0.7619725 -0.28022426 -1.9761233 -1.4060602 3.1101716 -0.5583749 4.402284 -1.3139671 4.2307677 -2.1366172 -1.2529565 2.7121148 -1.3035963 -2.1231925 0.4770809 -0.65588206 -0.6961542 1.4168636 -5.093978 -1.6053243 4.8164396 2.9487197 -2.2282238 1.5633031 -1.218852 0.31974205 0.54674906 1.7455082 0.19993997 4.58755 -2.3966844 -1.397028 -0.1668474 -1.8093764 -0.66289127
892 5.217986 3.7299912 4.664705 5.9289794 1.4370424 3.575986 1.8820046 -0.022409683 -0.6877628 1.8365011 -2.2083018 0.5008448 -0.2554298 -1.5148509 0.5458605 -6.9090176 -4.2282534 0.85698986 1.101008 3.1941683 -2.4095445 -0.07013909 -0.029981447 1.3370528 -3.4480164 -0.8840185 2.2478054 2.2455325 -1.962271 2.0317802 4.111548 -0.24428627 -1.8500743 0.77946186 -2.6806812 -1.5872544 1.6138053 -1.9721276 -2.9961572 -1.1802543 2.7690566 0.1708739 3.675146 -0.7981365 4.159901 -3.821867 0.43797067 -1.5025864 0.11584045 -3.295606 4.0613174 0.4746615 3.5735438 -1.479451 0.05413966 3.399186 -0.36165193 -0.3302587 2.8215494 -0.8382502 2.5524743 -0.3531501 -2.5040073 4.787292 -1.3197201 2.581114 -0.024252124 8.645038 -1.2766168 1.7040824 -3.2746348 3.1171253 1.2681444 0.10944142 0.4589354 -2.9201539 -2.020174 -2.7612333 2.719933 1.8792349 -0.45605165 -0.20265299 -2.1306994 -5.732914 0.6271624 6.4335856 -5.3052382 0.7510946 -4.966755 -3.9229758 5.5934095 4.807626 -1.8594227 1.3210053 -2.171869 -3.030414 -2.0267706 2.3171887 1.8767148 1.1708602 7.429592 -5.29002 -1.3171641 -6.799741 -2.9469993 3.342646 -4.583232 -0.504995 2.769125 0.062009428 -0.82687277 -8.250086 2.4880145 5.5631247 3.2597904 3.694356 -0.57398796 -1.9906882 4.085404 0.8718301 -6.5868134 -2.8312178 -2.1939428 -0.17768441 4.25005 -2.8325434 -1.5138357 -1.1286778
839 -0.55609393 -4.220868 -3.188547 -8.304169 -0.34039047 -2.652145 1.5534457 -3.645421 0.19974549 2.6324558 2.9690409 2.3350897 -4.451673 -7.4372516 0.30340216 2.1102607 0.44120184 2.0162601 0.5845044 4.1989036 -3.344326 -2.2518165 0.76262456 2.9165077 1.3306006 -1.038648 6.7777796 -0.7706093 -3.0310097 7.645053 0.62646157 -3.380538 1.7231492 0.78988725 -1.3193156 -0.5617989 5.388933 0.72870463 4.2705045 -5.9029937 1.6117085 5.878739 -0.20299022 1.8610164 -0.18833874 4.4658875 -4.480496 0.599621 -0.5423492 -2.0316353 -3.1118114 -10.677402 3.190734 1.352078 0.73331034 0.6552028 -3.8535182 1.74359 -1.5953472 -0.13891 1.9511582 4.221716 0.40904725 1.8949139 2.3917272 2.7275755 5.2027802 -2.2600963 2.1215088 -3.3785648 -1.4772869 -0.0567987 2.6177597 2.3992429 -1.4193578 3.381393 0.33411866 -0.7569248 0.36832651 1.7918094 -3.9996924 -3.0662131 6.6846323 -3.7215693 -1.7897477 1.5830274 -2.0770261 3.4456804 -2.442684 2.2600968 -7.754769 -1.5309284 1.9903334 4.839147 0.18496028 -2.5195866 0.29016507 1.7856616 -1.9080218 -1.1051778 1.8819767 0.78612834 3.894917 0.5537566 -4.8897014 -1.6322033 -1.8467995 0.9225373 0.972556 -0.24720061 1.7685918 1.2864953 -3.0622325 -2.7329855 0.4478849 -1.3292404 -2.0212693 4.356491 4.288498 4.6057673 -1.4791512 -5.4754243 -2.5831757 0.84762454 -1.0596696 1.855328 4.478771 3.0938995
354 4.7494164 1.2703837 0.5662649 1.8166524 -2.5361278 3.715374 6.833221 -3.9196074 0.9151904 -1.8350188 0.014707441 -0.39655915 -2.0649583 -1.5179244 3.6990378 4.753432 0.4177396 1.1678416 3.3083317 -0.905174 -0.7468979 1.8151993 1.2817994 -2.6735647 2.8949566 3.2837696 4.2167673 -0.39615285 1.9583737 2.3518167 5.792985 -1.6515956 -1.1860704 -0.7923782 -1.7978567 -6.773493 -1.000097 -3.3381617 4.365837 2.4667592 2.3455746 6.526047 2.0055377 -4.423606 -2.4341474 0.40280148 -2.989894 0.8378109 0.27775228 -2.8789184 0.26690465 3.6348073 1.1063309 -5.362331 -2.8124008 2.7801085 3.0676825 -0.6810506 0.49743423 1.2910742 -1.3084496 1.0726402 4.436895 0.54980296 -2.2238214 -1.3183074 -5.023338 0.0384695 -3.9497557 2.0952988 0.11637387 -3.8374398 2.2477384 4.6543274 1.4948837 -2.6575747 -4.0458374 1.5705823 0.3507052 -3.4032505 -2.4196272 2.6574264 -3.3210883 -0.11131754 3.9054556 4.395292 1.1212705 0.46732798 3.2599902 -0.1615301 -5.1996183 7.85847 0.98246497 -1.5577046 2.3327973 1.4732022 3.2945104 2.4198966 -0.53743035 -4.570048 -1.4162403 -3.235039 0.2907674 -2.8400738 -5.8050985 -0.2042214 3.7473989 -1.3021116 -2.8512585 -4.4375396 -2.1214547 -5.204631 1.5938799 1.4158174 -4.892015 2.537133 0.6367817 -1.349463 7.02666 -4.321502 0.68345296 -4.1153793 -5.233729 3.6745875 1.9603631 -4.976703 4.393823 -3.9498198
300 -0.7158782 -1.4320729 4.6743126 -1.0887111 0.12090517 1.5667361 0.57165176 -0.8617744 0.9092317 -4.110784 3.6824903 -4.774758 5.95339 1.6222321 -3.7968862 1.3995181 -2.1770077 -2.9759052 3.7292187 -0.20582326 -1.6247288 1.2857639 -2.7519796 -1.2486087 1.5147964 -0.96384394 0.3932835 -2.876658 -2.7565188 1.4393384 4.0594773 -3.7275913 3.6708379 5.814124 -1.5548668 0.5249825 -1.4582739 -1.3712873 -1.8007962 -2.6492307 1.576025 -3.4034073 -2.2688246 -0.8696952 2.3814473 -2.7725616 -5.6977086 -5.2640657 -0.8591989 -5.64667 4.5569506 -2.1907516 0.33136186 1.2874799 -1.7239217 0.40660253 -5.294192 0.8526403 4.2741613 0.36809632 -0.39733866 -0.29357028 3.0881665 -0.763199 4.024776 -1.3067855 0.937341 -2.3865385 -1.2703269 5.778632 4.73475 -2.7356071 -2.2025964 2.5362535 -7.4489985 0.14890753 2.3039567 1.1429226 -4.052724 9.021109 3.0282497 -0.30248573 3.1548796 -0.87365127 4.7837214 -0.35703397 -2.3543825 -2.7036936 -2.587528 -3.8396719 -2.8712282 -1.3404471 -2.4716375 -1.6783632 -3.3617387 0.6172959 3.5749624 3.1609652 -3.4052527 0.16701415 -4.676972 1.7222173 -2.2131054 -1.6470585 -1.3762655 -4.0484138 -3.9303312 -3.1974933 1.8283889 3.3551505 -3.0392509 -2.008836 2.6922002 -4.3141007 0.254629 -3.6271138 1.3968319 -0.10465156 6.5332303 2.2918522 -2.0684404 -2.2430396 -2.8215716 -4.7596316 -1.3896956 3.6981962 -1.3484496 -4.5205865
732 1.261005 -5.6090913 1.5581957 -0.64461225 -0.2704607 -3.1874287 -0.40061772 -1.742979 -0.06190307 0.03750652 -1.8913774 -4.0173907 -3.2953954 1.0100187 0.47217396 -1.7388753 4.7114177 3.7195451 0.21947253 -0.5740058 -2.6869662 -1.1959236 3.581481 3.4328837 7.5416665 0.68697035 3.7459066 -2.0958147 -1.930611 0.99641776 -0.93653506 2.090594 3.2100074 5.451862 -0.7189567 2.0838273 -0.97701484 3.1376882 -2.1009324 1.2424796 4.0215845 0.9919305 -3.9676394 -0.9247923 8.0813265 -1.0071523 -0.33161733 0.8003891 3.061437 0.8904657 -0.0134219155 2.6715763 2.1198282 -2.2723343 -4.7769804 -3.5857694 -3.4457622 4.323735 2.0128095 5.099296 -2.2406032 -8.155086 -3.966066 0.80298036 -2.3841345 -2.7604048 4.067286 6.0418735 2.713289 2.341902 -1.0652914 -1.8916936 -2.0499492 -4.5072193 2.8022566 0.6800653 4.141264 3.707046 -5.214342 1.7007087 1.4788898 -0.007226821 1.8781666 -3.010654 -0.18068866 -1.5331707 -3.6714752 -1.6503401 1.5564995 2.4695377 -3.3828971 1.2179419 -1.3126248 -3.3647633 -0.835786 -1.9225157 -4.2031426 -1.8294528 -4.1008353 1.9335161 1.6829913 0.23923233 4.38175 -0.3537961 2.2424612 1.9287816 -6.3785877 0.19837193 -0.6503325 4.911627 -7.715434 -1.0893482 -1.3162788 3.409308 0.34008455 0.16138338 0.59020025 -1.6302606 0.70387244 -2.0663853 -3.6243339 -1.7985078 1.4448193 5.0608187 5.44268 2.685354 4.0502124 -0.7856427
367 -0.85310215 1.8546116 -3.017133 3.068645 -2.145676 -0.14836814 -2.7118435 -0.2237426 2.0219383 -6.4734826 2.663565 -1.0583607 -2.7265515 3.118794 -2.3563223 -0.4373459 0.13242356 -4.80348 2.9535818 -3.8894968 2.8776333 -1.9517004 3.0278606 1.2476885 5.139127 2.490434 5.4908147 1.8804971 -0.37907052 3.6567547 -3.3354497 0.3089182 -4.069116 -1.6530766 3.6799374 3.2718005 -0.57448316 5.7657285 0.5376023 1.3245451 1.7351855 3.4388003 -0.11895607 0.5781547 -3.9765294 3.8967454 3.8174384 2.865342 2.8523085 1.1593431 0.76218456 -0.38467085 1.4393938 -5.936109 3.5091367 -0.55324054 -1.3733778 4.5492535 -0.7822996 -1.5042934 1.5616143 -4.1778207 -5.169531 2.1893187 3.986902 5.617361 -1.2712339 -0.28099427 -0.9308766 -0.0028297186 -1.077355 2.3069174 0.8878947 -3.6633425 0.6127447 -3.090646 1.8864249 5.4072266 -0.8251899 1.2594203 -0.8166314 -6.0144334 -1.2486397 0.14560124 -2.6038535 -0.28804466 -0.4071007 -2.5556524 4.448834 0.8202005 0.014286958 0.81195194 -4.538234 5.342034 -1.6433718 2.0355158 -0.41122288 0.14019333 2.8078055 1.7782781 -4.6622405 0.23764503 -1.9417958 -10.3219595 -0.3366779 1.4132758 -4.525328 -0.64828664 2.3096962 2.4526567 -0.37551093 7.5818996 3.3419082 3.003712 0.9088546 -3.0348215 2.7685852 2.2420177 4.039228 1.0492954 -2.727348 -5.4103565 1.6536222 1.951127 -0.6196907 0.018612664 0.40727323 -2.777343
691 -3.5286126 -4.5833654 1.602322 -1.8314811 -0.1292919 1.7211481 1.0109081 6.7841845 -0.7259902 6.500715 3.8588572 -2.9152489 0.78308934 0.91232854 6.821262 2.132857 -2.311107 8.285256 3.7326124 -4.6367946 1.8322049 0.63948256 1.9311143 0.4689479 -0.05314057 1.0460368 -3.9748764 0.09721476 -3.0457032 2.9997876 -0.8796488 -1.5039486 0.63916177 -0.7197488 4.38155 1.9663616 -2.34995 0.75236607 -0.6624867 -3.316271 0.47328869 1.98733 -0.64901215 -0.11849572 -0.09654158 0.7460883 2.5236137 5.6662745 -5.5175414 -2.1721704 -5.288093 -1.1038443 -0.90448815 1.2302113 -1.8151556 0.16836025 -6.704236 4.079167 4.1996756 1.7233169 2.7465587 2.4915745 1.5254376 5.4389176 -0.924273 -3.9371402 3.643278 -0.68881524 -4.2346063 5.0234513 2.8939307 -5.2579827 -3.8583677 2.6092324 1.2643205 -0.736755 -0.46115968 0.858923 0.084205054 2.7841766 -1.304248 -4.165405 0.27579406 -0.20950714 3.547604 -0.5085847 2.4171243 1.7952194 -4.4868765 -2.009829 -3.5173457 -5.809998 -0.725056 -1.9452028 -1.1625968 -2.6346252 4.416633 0.96737003 2.6636913 -4.203457 -6.2811995 -0.81457144 1.2574596 2.7327712 2.086339 -3.0432467 -0.13168167 0.4808996 1.1566641 1.9238794 -3.7647512 1.511583 0.24667525 1.5049329 -3.4653327 -5.314298 -1.9135756 -2.961218 -1.4267682 6.994827 -1.1656982 8.0616865 -4.032756 -4.5955634 -1.6857885 2.964403 0.4343041 -2.6058154
51 1.3513616 -0.19544093 4.5340595 1.3241551 -2.7782943 3.8733447 2.1396613 1.7022094 -5.197567 -0.36097062 -1.3401496 3.958342 -0.90983963 -5.184941 -1.7269979 1.2528628 -1.2574903 4.0319123 -1.309955 -0.42881775 -0.19655485 0.5535516 -2.1709766 0.8694462 -2.2854533 -4.8355603 0.92026246 3.7745445 4.379582 -1.2862217 1.0333043 0.036981367 1.0988914 1.8094416 -1.20898 -2.073538 1.1435983 -3.9627008 0.30464134 3.666884 2.483279 2.131528 -2.607623 3.0028899 -0.97421265 5.7262373 -1.3779737 2.1857903 -1.4736739 -0.11296311 -4.2935414 -5.697056 -5.9983625 3.3020785 1.9848547 -1.9290456 -0.8256995 3.8705518 1.5621401 6.160139 -5.5050583 3.0370595 2.9941623 -6.4031034 2.953049 2.3835444 0.639234 -1.463529 1.2604973 2.7224479 -4.619501 3.354663 0.7928479 -1.151327 2.3714736 -1.5381734 -1.3300459 -1.342025 6.4623938 -1.5623089 -1.6157154 2.5847747 2.084328 4.037683 1.7665386 2.0090365 2.4977715 -1.6986458 -3.3531542 -3.3862429 0.5192524 2.9550848 0.18779999 -1.4711084 -1.3823482 -2.0083804 1.2553318 -1.216566 1.3043743 5.022851 3.555632 -1.233344 1.7316581 -2.167593 -0.92809004 -2.5145135 6.8449006 -3.2237124 -4.143386 -0.15454186 0.60517216 -0.7683039 7.0060596 -3.8971722 0.6765446 0.17278123 1.1727468 -0.7750055 -4.2908955 -0.76404846 -7.402638 -0.50158733 0.86211437 -4.0053773 3.8248022 -2.3964431 2.2848613 -5.6790376
788 -0.62662935 1.1326388 3.3542418 1.2864419 -2.9662924 1.668163 -0.6746589 -1.0383054 3.762049 -0.6160939 -0.7237494 0.42618695 0.06948799 3.0404696 2.3308187 -2.2920103 6.571322 3.6814961 -4.234811 -1.1441585 -1.5372434 0.8390132 -0.4785449 -3.6282256 -1.7066637 -2.194451 2.8297322 1.0839585 -5.893035 5.9939613 2.8203814 5.2227244 -4.496076 -3.062802 3.5290558 -0.61172795 1.7538188 -2.9961603 -0.63542527 0.076983824 1.3905088 -3.2794921 -1.6578861 -0.71191317 4.7752624 -0.2969858 1.3052931 0.9532954 -3.4325254 -3.186733 -1.2353588 -1.8254837 0.78023463 1.3608205 -2.8516948 -2.0169544 -0.04384436 -6.248536 3.1400518 3.486085 0.77193123 -2.1006966 2.6364484 1.7487446 1.1893126 -4.056481 -3.0753694 -2.1034777 -4.0137568 -2.369455 1.122816 0.6590722 -3.8901258 3.6675975 -1.7302737 2.0481715 0.86309475 3.6922007 -1.4604269 -3.2764199 -0.63272667 0.013871079 1.3481268 1.8335019 -1.9083334 -1.6559564 6.051032 -2.1650681 -1.394187 -2.071556 -1.3193414 -3.7279558 0.34767136 2.3604934 5.7095137 0.5184335 2.6378922 3.916019 -2.6716964 -2.8962219 1.4092432 -7.52794 -3.5923703 2.4623377 -3.3879006 -0.44170055 -6.100099 6.1614637 3.8676114 4.3006773 -6.292641 2.0858405 1.4285167 1.2301887 1.9094855 2.8608212 -5.980179 -3.1173375 1.7782581 -1.0299492 -3.6590219 -3.6626878 -0.68300587 4.0210023 0.8380383 -4.709418 4.5395365 -3.6076405
939 -3.557916 -1.0256273 -2.7393904 5.1870184 -4.556176 2.4514198 3.9510531 -6.248706 -2.2099082 3.1239295 -1.6148835 -2.6064858 1.8660014 -1.7369213 4.385048 4.9819126 -0.008437685 2.2614503 -1.3854983 -4.3998537 4.134427 -4.5660076 0.577331 -0.76163036 -1.1644231 -0.37223032 0.91566885 3.3063395 -2.9376464 -6.670934 -0.8132867 0.74559134 1.0764374 1.8529193 2.0683658 0.8649634 0.3420134 -0.71520865 4.6185994 2.2018175 -1.7881005 -4.9631095 0.32800695 -3.2315836 -1.464843 1.1671621 -1.2374395 3.7745636 4.7471347 1.1171693 -5.2685795 -0.0607651 3.1026964 1.8960704 3.7825987 -2.162008 0.54238117 -2.5481083 4.020823 -0.32788458 6.8550186 3.5261927 1.3606797 3.3319745 -1.7981119 -6.453043 -1.5552895 0.17545286 -0.4081778 -2.5492737 3.3512008 5.9973097 0.11282245 1.5128495 3.2658663 0.55232096 -0.60404027 -0.9307002 -0.016297124 1.8562835 2.330298 -1.408243 4.2826333 -1.4280576 -4.7518277 -2.4911358 -0.130911 -5.4677625 -1.291295 -3.3475287 -3.972539 -0.040114608 2.2308843 -0.31491482 1.1472108 1.5106134 1.8916034 3.432351 -5.0407653 4.4359975 -2.4884295 -3.7632413 3.7330372 -2.8453424 2.2744167 1.0486509 0.27475086 -2.5355248 -2.5923626 6.5778017 -5.7166176 1.0579276 -5.4293866 -3.6245093 -0.57170546 -1.840281 -1.3643239 6.4428806 4.001376 -3.4194565 -1.3045186 3.7204392 1.8362969 0.1064983 -0.36794943 -4.983176 -2.3958857 2.3085427
62 0.6381433 0.9263148 -5.402113 2.2484038 -5.667709 0.51305634 -2.758729 3.8472433 -4.169535 2.5748065 0.56270987 2.2012584 -2.6561728 2.8702528 -0.37828505 4.5291095 3.9760995 -1.0037087 -0.8017355 3.934539 -4.097129 -2.1533024 1.4233087 1.6484555 -2.4836998 2.7873814 0.9004946 -3.0550575 -2.6525178 -8.497016 -0.27185705 -2.9765084 -0.31954587 1.1834745 -3.1690469 0.59082377 1.0524325 -3.8809724 5.0020957 -0.49499452 3.1967204 -1.482285 1.3067633 2.2440486 -0.5267634 2.5191548 2.7232249 0.5217593 -7.7241726 0.35820785 2.4069166 0.5447462 -1.4901708 -3.7852638 0.57415843 -0.24669738 -0.31337255 2.4628718 -0.8422806 0.9103895 0.61031365 0.0706664 7.6427965 0.01377178 2.5039964 3.004498 2.441114 1.8702034 -3.8199344 2.0050957 -1.3501253 2.5047367 -1.1149548 4.115531 -0.619015 2.015443 -5.205932 -2.1755815 -5.886563 -0.68409437 2.2793903 -0.67259514 -3.30165 3.0453458 0.5313848 3.6490805 -0.4434529 5.9974246 -1.8223202 2.363285 -0.9460064 -2.85026 -5.7020607 -8.53984 -4.8328824 -0.95103234 3.5154953 1.1314536 -2.7412992 -2.0035667 -1.3784937 -0.40417033 -0.83832777 -3.3782992 4.3011384 -2.4420097 1.4156829 -1.1279731 6.020032 0.6715642 0.15946437 4.93066 0.36262095 -2.4244783 -0.7629147 -2.9883497 1.616207 -1.2368261 -3.1141293 -1.3879192 -1.3142142 -2.093253 -2.4825437 -2.6479826 -0.5722583 4.1571236 -1.0597082 2.1402154
382 -2.5394108 -5.2868757 4.800302 4.7792783 2.4292374 2.319231 -1.8845252 1.7180388 5.582267 -2.7154346 2.2176778 -1.725079 2.2946484 -1.8949027 -5.037162 3.1467545 0.37581375 -1.3213347 3.7955825 -0.57120603 1.8926213 -1.0312254 -5.044382 -2.0527952 1.061144 -1.1759715 3.2395797 -1.6397847 -1.8683366 -0.41874388 -4.0604696 2.9887996 4.4120297 1.6660607 3.4105752 -0.519575 -8.046043 -3.3839176 3.86011 0.25638878 -2.5478764 0.50264466 -0.613334 -0.5403473 3.0181675 -1.5036448 1.7299826 2.395688 -1.1955615 2.7346241 8.096883 -2.5541205 -3.6102223 -1.077247 -4.802371 -0.8084625 -6.0754504 -4.146196 4.3459296 0.48778027 -2.1717854 1.4963982 -0.25051302 -0.98819834 -5.5039973 -1.277837 -3.2341626 2.2979379 0.45985538 1.9548671 -0.7717261 -4.5123587 2.8180575 0.3748119 -2.181428 5.844787 -5.4985538 1.6465236 -4.8372946 2.3172944 -2.2101538 1.6989714 -1.0909914 -4.4331536 1.211581 -3.0325677 -3.4577916 2.1620862 -2.5734177 0.074159585 5.512008 -3.396616 3.5975583 -0.49054015 4.9256206 -1.6751628 1.0908737 5.9540005 -3.942934 0.9213056 -0.32956353 1.9892658 0.8273736 -1.0008811 2.7455335 -7.7461057 4.3245564 -3.3526518 2.3699293 -1.3801831 -3.4496524 -1.3266973 -2.016978 -3.9491415 -0.17357637 -2.7665467 -1.610244 0.87450314 2.537845 1.3719207 -1.5149533 0.23912697 0.884328 0.25657386 -0.8753749 3.3677838 -3.5473816 -1.7873698
766 1.0797514 2.7537167 -2.2640202 -0.05651389 0.413411 2.5881317 -3.9912188 -0.04791283 -1.4992101 1.8450091 2.7189653 -1.5021721 3.9309459 -0.85437465 -1.4405514 -2.1300642 0.3267219 2.7858682 -0.5628156 -5.045849 -0.617833 -1.9975106 -2.8151658 -0.66914964 -4.6743183 2.2294738 0.5735137 -1.571254 3.0870173 1.0598261 2.761285 -1.578266 0.7913637 3.1860015 -1.3016117 2.4766946 -0.37693226 -2.288208 2.4443583 3.4566422 -1.1050795 5.2709885 -2.534245 -3.6492906 -0.77632 4.0083966 0.03522145 -0.9763153 -5.054839 -0.8185118 -5.3922486 -0.15362334 -1.1360234 -1.4237682 1.512161 2.3828151 0.034199193 -0.15724288 -1.2845535 -3.6445322 3.8057199 1.3729491 -0.09478135 -3.1880167 -3.8438883 -7.412122 -5.965945 -1.8688983 2.7332895 1.933447 2.681692 -0.76994795 0.044688318 0.37208608 5.9701147 -2.360803 -6.4041476 -5.31246 -1.0329243 -1.5866979 -1.1929194 7.168761 -5.5234365 -2.475443 -3.67062 -0.466971 -1.7755407 1.1383134 5.0870304 0.1587511 -2.8834438 -7.4892387 -1.2264117 2.5266018 -0.031152088 -1.3757925 2.8415928 1.2345667 6.844356 2.301193 1.9780173 -0.86319244 0.47499293 -5.186984 0.9494223 -2.6380222 6.462022 4.0160346 -1.8365902 2.5587416 -1.4561207 -0.16593327 4.6837254 -0.09363139 -3.4287624 2.2086875 2.2014 -6.3395786 -3.7499413 2.2207558 1.0486593 -0.7786638 -2.3787696 -0.28092852 5.5789104 -1.4575392 0.94942355 3.9902267
338 -3.6997883 -1.3215818 -3.505738 2.2704365 3.8940697 -0.9095777 -0.7152292 0.74072254 -3.8348818 -3.388485 -4.346704 0.30836257 0.13322587 -1.2503258 1.3993868 -4.966289 -0.5958717 1.1328431 -0.5477211 -6.0703526 4.562605 -2.570513 -6.8712964 4.682182 3.4410548 -0.27203313 -2.0848029 -0.6304291 0.0013385437 0.40117955 1.2620589 -0.22703603 3.2110183 -2.6965969 2.3099153 0.7758724 -7.931397 5.0402966 -1.4336618 -1.54534 -0.446032 0.6038399 -1.1166416 -3.4449527 -0.33598533 3.1035514 -2.229179 2.2008696 0.17970544 -1.8280559 4.156479 2.55899 0.54574364 0.20765832 -1.2912667 -6.2562337 -0.5988993 0.54534674 -0.10135526 1.0269147 -1.4048216 -1.0803554 2.0900612 3.3941689 -2.9155836 2.6415327 -1.3780527 -5.8909173 -2.3758438 -2.115916 4.4404626 6.2885876 -4.7857046 -0.9248126 2.7624764 -0.65735716 -4.994103 2.9517589 3.1429873 -1.1040047 2.0470917 -5.891425 -4.5854716 -0.18736948 -2.518318 0.12818642 -1.6173692 -6.1098075 -2.097753 -3.300652 3.2761636 -2.123199 -1.2212135 -2.5561848 -1.6287603 -1.3646446 0.58447367 -0.12084834 1.3671896 -3.081258 -2.4475331 0.9480727 0.0054306346 3.3762324 -1.9017383 -0.4276853 0.66260064 -1.1452286 -2.6421788 5.079592 4.422372 0.7277618 -2.1439385 1.417808 -0.37033027 1.1408315 -0.4624756 -0.002488429 2.4595122 5.2615185 5.752172 7.607823 -1.2216147 2.4667735 1.1423795 3.972269 2.640197 -2.9853904
86 -2.8279464 3.819272 1.9013606 2.0563726 4.985817 1.752522 5.0688376 1.4325616 -4.82241 4.886024 -0.70290977 -5.0184364 0.75606495 -0.7370594 0.6470778 -2.2149189 4.136904 -1.07693 -4.5289483 2.502761 -2.8929715 -1.3534448 10.227253 1.6330831 4.7304106 -4.5262 -0.06072571 -6.338559 -1.6493527 -0.7758207 -4.0175614 -2.7599292 -0.9332636 -0.4253306 -1.9577322 2.9539428 -4.021347 -2.5160778 -3.578322 0.13686045 -2.9402692 4.571032 -1.8010243 1.9792353 -0.885436 4.4431024 3.7519999 1.0719745 1.4158589 1.8659185 -1.9378453 2.004417 1.8105209 3.597896 2.2558672 -5.7165074 0.35292214 4.758203 -0.67018926 0.17366834 4.9298673 -0.9102978 0.20387617 -1.9347805 2.9050033 2.318027 -7.598867 -2.6464348 -3.1424274 1.9696352 -2.576373 -1.8027475 -1.8384359 -5.4501166 2.015656 1.888745 3.301698 -3.3150795 3.1443415 2.1526203 2.650944 2.522435 3.3452978 1.1084521 -3.212765 -3.1698127 4.977587 0.792549 -2.8271477 -0.38302588 3.888994 -5.1017556 0.86272514 -1.3265865 -0.41949955 -1.7963971 -0.5681499 0.89572287 -0.2903742 -0.6321726 0.1736077 4.486646 -1.715026 -1.2114462 -1.5205411 2.598507 1.817249 -4.639443 0.7778084 -2.0769184 -1.7727466 3.4851646 0.059859026 5.4039507 4.1538634 -2.842685 2.972864 -1.4766785 -3.1940763 -0.23200005 -2.6969588 1.2686535 4.571803 2.5451572 -3.5571434 3.776681 1.1093253 1.1418991
286 1.4502336 -0.90252656 1.4827701 0.49803764 0.97905767 1.116674 -7.171489 -0.23749545 -2.058617 1.4409087 -1.8378049 0.65454876 0.8926876 -2.7746696 -1.2391851 3.525973 -1.7426579 -1.8826256 2.9563065 1.9004619 5.284584 -3.6102662 0.51469326 -2.5358436 0.4035129 -1.5499716 -2.1987922 2.8370228 -2.7398195 0.3521754 -3.107435 5.042481 3.9115953 4.12488 1.1635845 -0.8802724 -2.5932362 1.5460912 -1.7259982 -3.8655703 -1.8446867 -2.9315214 0.9007645 -2.8903952 -1.3740388 -1.8122808 1.0322816 -0.41449216 5.178091 3.1392834 1.854834 -0.41565627 -2.5718603 3.4233503 -1.2267715 -4.116783 -4.430203 1.079642 -1.8510607 2.1380222 -0.09652388 0.77247 1.126416 2.4979718 -0.88078666 4.270084 4.2037168 3.864243 -6.371111 -3.6027644 3.3266692 -1.2843707 -1.4352788 -1.2812359 5.1964455 -1.6435666 3.4096386 0.032992154 -3.155873 -4.6649423 -0.8531512 5.2838593 -0.82920986 -1.9173371 5.493147 0.43037245 2.7095494 -0.09355016 5.8652344 1.3227967 4.078197 1.4457603 -1.5720836 5.6608214 -2.3211572 3.2638237 6.940999 0.8349614 -1.6182874 -0.6013404 1.1324025 -1.6344312 6.0686965 1.3621932 -2.1076365 -1.4989572 2.5346158 0.42306104 -5.4739575 -5.1905684 0.15587291 -0.04676601 0.032313727 3.7487628 -2.5142658 0.7618452 4.937703 -0.34439257 3.104725 3.9769998 1.6252435 -0.024379179 1.1873771 3.8006377 -0.53262806 -1.2824699 9.080715 1.431181
616 2.9398096 0.4909533 1.5253466 -5.010652 -2.5750995 1.3560994 1.805993 1.8391513 -6.2195687 -3.6928437 0.5241125 3.308915 1.9003824 0.6019255 -1.837078 -1.334934 3.9541163 2.0725374 0.053990122 1.206894 -3.114461 4.36188 -4.8014216 0.6636288 -1.290512 0.37199703 0.94485956 0.45367825 -1.9130311 -0.69252515 2.7565823 -2.383681 3.0078037 4.173834 2.3525488 -3.6696253 2.19472 0.8034171 0.93830204 0.13345386 -0.49320406 -3.1819239 -0.28165227 5.2376814 0.90526885 -4.907221 1.1975589 -2.8103826 1.2944678 -1.3569018 1.2396538 -1.5162565 5.838061 -1.0619862 -2.2666888 -2.4560854 0.8400414 1.8964369 3.2918634 -0.990294 -2.014221 1.0012167 4.0990033 2.5727103 -4.4767675 -1.6413484 -4.911932 -0.1001428 7.205404 4.751535 2.4536908 1.7037587 0.023778694 1.94307 2.406235 -2.9201603 -0.20154703 -0.99377906 -7.183873 -1.3139609 -6.037871 1.5863479 -0.784697 -2.836035 -0.035093747 2.2747645 2.4149141 -2.090679 3.6328804 -2.3829265 0.6634751 4.594106 1.559829 1.3461934 3.0248928 2.6459398 4.7665043 2.8731644 5.91269 1.4734176 -4.9568057 4.3711753 -1.9602836 -6.1161013 -0.3798646 0.41014254 4.2322016 2.18142 1.4856024 -1.9390439 2.1992104 -6.8055964 -1.6344109 -2.267722 -1.2878504 -1.4776828 6.878504 1.484865 3.118983 1.4106153 -2.9745398 -4.0770216 -1.93093 -0.29730526 0.606804 8.869837 0.60250694 -4.8300314
397 -5.8409176 4.080044 -2.4556859 3.1364336 2.3592253 4.927832 -0.5934567 -0.78448033 -0.9175444 4.7836466 6.5650477 -1.700782 -3.321727 2.8344016 -2.57428 3.1050208 -2.007147 4.593176 5.0766873 -0.91954994 0.10094549 2.2700236 0.057695977 -0.5926516 2.4448688 -0.43796524 4.9883833 -0.80408955 5.0802817 -0.29974234 -7.2790446 -2.9105027 3.3713465 -2.9959352 4.420935 2.1005616 -4.451324 0.5208997 1.482261 5.7782264 0.70728344 2.606687 -0.71807915 -0.34871456 3.538032 -2.2909389 -2.7538135 -4.5886555 -5.2216144 0.8866074 4.2725377 5.652225 -1.1301101 0.4606843 -2.2854888 1.6149564 2.769265 -0.037431426 -0.026226303 -1.7544956 1.1850625 -3.4593284 -0.36576778 3.876779 -1.540287 -1.7908663 -0.97702473 0.14328817 1.7219725 0.11242484 -2.4292572 0.38856858 0.1724739 0.5551027 -0.4648861 5.005001 0.5363873 -0.75812757 -0.63391715 -0.9256497 -5.4443345 1.4027658 0.74407834 -1.0660125 7.2533913 1.2447075 1.9922875 1.1517302 0.29271722 -1.1980714 3.092714 -0.21300486 0.13942039 4.5913534 -3.7560306 -0.7663633 -0.601789 -2.5316973 2.2539828 0.7131185 -1.5840837 5.7662373 -0.7392899 2.7743096 -2.9981558 -1.3811481 -1.8888631 3.367819 1.5802138 -2.2099624 -0.33921018 1.1643163 -2.2593997 -1.1497335 -5.34872 2.6371806 0.807981 2.5628111 -1.6851234 -6.671102 5.7904544 2.417723 1.5148993 -2.1536417 -1.0994414 -0.72959477 4.6473494 1.7275486
866 -2.9915907 -1.342796 2.8711753 -3.16741 -4.8132677 -1.9215094 -5.937514 1.2725413 -1.4913665 2.8123422 -2.2714422 1.8242662 -1.4615902 4.754484 2.6294715 -2.4456215 -1.6936502 6.938499 0.4901008 -3.0707698 -1.7350653 2.035345 6.0960245 -0.9219577 -2.0113297 -4.0071454 0.100616395 -2.3088827 4.2902274 0.5400351 -2.034323 2.4150932 2.1299565 8.987306 -2.6398263 0.60841525 0.11632172 -3.3339672 -0.7870714 4.333345 0.6994749 4.764835 -3.1817603 2.0568495 -1.0208596 -1.9323457 3.480518 2.7502322 0.66821724 0.9945259 -2.973865 0.6601603 1.118025 2.0470319 0.14398563 -4.2559342 1.4588531 -5.0224295 -0.4966657 3.8254035 1.433202 3.7062533 1.9184521 3.2837007 3.5956767 0.14705789 -0.25361457 1.6835716 -2.3574522 -6.445452 1.852215 -0.53378147 -2.7565584 -4.860755 -3.6742003 -2.6264527 0.15451744 0.20763493 3.5242867 -3.386334 1.2844176 -0.8868138 -0.81955236 -2.9084744 -2.4661646 -3.472077 2.4622052 -1.6702491 -4.637637 -1.6267184 0.94428587 -0.32640854 2.2523465 0.81616735 -1.5874417 3.0766609 1.2535819 4.59278 0.10137484 5.368407 0.011228401 -0.41147208 -0.24040756 0.6674825 5.0573506 -2.1889248 -4.519475 0.97882384 -4.433265 6.0875435 -3.2901394 0.0026959912 0.20928876 -0.72528636 2.5134776 1.7366538 5.1037436 -2.117242 -3.135412 -1.5804135 2.4127789 2.1763477 -1.412377 2.4392183 -2.4463935 3.2219923 -1.4794145 -0.5469899
533 1.951905 1.4228716 7.306033 -1.8044144 0.40235478 -2.0922263 -2.0356202 -0.51326156 1.1268096 1.6791939 0.75229216 2.731996 1.2083063 -1.6320837 -3.7528017 -0.4339133 2.8827574 -1.2788957 1.1237763 -2.198864 2.2114055 -1.3644356 -4.180458 -0.28695455 -8.101393 0.43643656 -0.8482418 3.954763 5.1498613 -1.3959055 -1.7385283 -3.2979531 -1.4874526 -0.34979624 -3.9716518 4.437152 -2.8649106 -3.355459 7.518966 1.4392059 -3.7830205 0.5786305 -1.8119022 3.4953952 2.3296804 -0.9447157 0.8148038 -2.939982 -2.265479 -0.4199685 -4.5219316 4.546142 5.0643706 -2.0781362 -3.9400706 0.8407839 7.129402 -1.6801788 -2.5513268 -1.9518868 0.1448948 -6.099497 0.6859344 -1.3332394 2.4435427 -1.7661808 -1.3167684 3.6422596 -3.2875743 7.8192596 5.0488334 -4.732437 3.7360725 5.2288995 -3.779982 1.216322 -2.3986223 1.6556981 3.7670214 2.140699 2.0843883 1.4700102 -4.4907775 2.278417 -1.2555538 2.0829592 -1.7038538 0.13268262 -0.08801567 1.8559753 4.3094654 -1.4871373 -0.74569726 6.9783654 5.55261 -4.1674047 -0.09285216 -0.5368751 -2.8685288 -3.956432 -4.6228824 -1.062844 -4.2055917 -0.3788379 0.2386724 -0.33735186 2.9175963 2.1384594 1.4705279 3.8432355 -4.1998215 -1.0461609 -1.5776476 -1.2434684 -5.67373 -0.31498662 -0.34632978 -6.46072 3.0841837 1.5807006 3.900144 -1.8895627 -2.34436 2.9865313 -0.813266 -1.342884 -1.992612 -2.5066328
137 1.9195913 -1.1832739 2.9134548 -0.5825832 -4.186353 3.9887118 -0.5180812 -0.40356505 1.6104071 1.9234356 1.7403933 -9.209662 1.3545647 0.9553389 -1.3483785 -2.1638277 -3.0760357 -2.344375 0.4343561 7.6181784 -0.6810005 -8.039426 -1.6937826 2.578569 -0.3218818 -0.095596336 -3.0890136 1.8892882 -3.8409936 1.4031087 2.2540214 -0.10410138 -2.0716968 2.1815982 1.1509054 4.9459906 7.7489486 -3.3601298 3.156628 1.4837185 4.936344 -1.8066458 0.8875562 0.5374311 -0.11407192 -3.7607927 3.8361127 1.8906231 -0.22898243 4.5910263 -2.0984719 2.4639258 -0.80564195 2.3126419 0.29222247 -0.35993725 -3.6772072 -2.0335858 -0.25098252 -2.2338834 -3.9018147 1.9847664 3.349356 2.7878227 -1.9274464 3.6163158 -0.47469187 -1.8668613 4.402199 -1.7504269 -0.6499174 -2.2839592 -2.4446084 3.3620288 -1.6106553 -3.6432948 -2.5092604 -3.2779777 5.874612 1.4980904 1.9853848 1.667239 3.9276342 -0.8725643 3.6465259 0.52683634 -0.34927985 3.6996214 -1.9525466 2.0865393 -3.5212226 1.2984383 8.446938 1.1007196 -5.092465 -3.7550435 0.39053845 -2.9123573 -2.0261304 -4.87267 -1.497689 1.0137676 0.045275748 4.18487 -3.4737499 0.4263398 1.4641299 3.998222 2.1799276 0.19823444 -0.704311 0.8136353 -1.8836149 2.4357593 -0.689829 -0.72542655 2.3364656 0.72458714 -9.512501 -0.3253623 -0.14928019 2.6742537 2.9930832 5.132198 0.8009194 0.66189986 -1.7998737 3.4711404
802 0.3006309 7.223237 -4.141661 -2.3853679 -0.30059093 1.633139 -2.6435237 1.0281341 -2.4514651 -1.4074804 6.0504746 -3.8800402 3.5916188 1.1803418 -4.5351934 1.3877174 -0.44411266 -1.4094223 -4.036372 6.0987434 5.9373946 -1.7624023 1.4721341 0.65352565 -0.9942073 3.3039336 -0.49900153 0.0785223 -0.89099836 -5.0001373 -2.0287385 2.195893 -5.0896416 3.2593176 1.9320455 0.14259239 -2.1211128 -0.71141917 -3.5886133 2.6447408 6.8995724 -3.031971 -0.20864438 -2.569518 -0.93226045 -0.22016448 1.2647972 0.7088268 0.14847034 -0.5653695 -3.368933 1.7189227 1.3441639 -2.3050144 3.6559405 -3.5907457 2.2078545 -1.2498925 2.3074772 -5.5888205 0.51930326 2.0817556 -1.747983 0.07930189 1.7671354 4.2670364 -0.08134919 1.8381748 1.4247888 -0.37978718 -3.6109405 -1.3610922 1.679614 -1.6502088 0.12917493 -3.5518558 0.46127024 4.3997507 -4.80461 -2.7051184 2.6371665 5.0596137 2.9366815 -1.265867 -2.9520128 -1.2777834 0.54290664 6.9863324 -1.4304259 -5.4081454 -1.2912276 -0.054152347 1.5940794 4.045459 6.9847836 -4.3211274 -0.6915468 1.4598435 4.523485 -4.4106236 -0.13382754 3.6186025 -6.1253657 -2.7282264 -0.9505556 0.56211245 3.1110597 2.7260492 -0.8595542 3.948117 2.283136 2.993228 2.2090693 0.902334 -2.3530817 -1.9269197 -1.151666 5.1367416 -3.770182 0.7184653 -2.4881577 1.4608178 2.184103 -2.128711 -0.34386373 0.40577155 -3.479752 2.0606904
251 -1.13253 -0.56353205 3.4936154 2.3272672 -2.7755177 0.90109926 1.1861906 -1.1849473 -0.15659201 3.4376028 5.63916 2.9643757 1.394578 1.0857708 -0.8584231 3.1256196 -0.58547264 -1.908571 6.9983726 -0.98413914 -3.6392088 -3.8611782 -3.8002877 4.74931 1.1594242 -5.397198 6.133847 -2.0526998 -0.7763291 8.1727495 -6.6307664 -4.657657 -5.345051 2.1749036 5.0169225 4.0653305 1.3898839 1.1610241 3.641922 -1.437531 -2.3768697 -1.2910689 -0.124013476 -1.6490144 1.2591347 -3.523627 0.7639252 -2.4350383 -4.289448 2.9492626 -0.98498046 0.98795813 -0.2119899 -2.2106102 -2.389599 0.960256 7.0499015 -2.4978733 -1.9980284 -6.1787353 -4.7466345 -4.581828 4.584443 3.6332376 -0.7185989 2.7015777 -3.7049189 0.2431505 0.2412474 -1.1614296 -0.5037869 2.6787035 1.8251247 1.7920705 -2.519418 1.5264347 0.06802833 -0.07677159 0.08034536 -1.8683056 0.56300235 -1.9624135 -1.4072845 1.4852681 3.9204466 0.3455983 0.5068885 -2.8407552 -0.7188387 -0.488315 -1.3565995 3.4614644 1.462096 3.1123002 2.044989 -0.4061244 -0.037900317 -1.393281 2.8639467 -2.1357033 4.679059 5.6840844 3.5170186 -1.9014093 -0.67647505 -1.79204 -1.399399 6.4637723 2.9882429 -1.353558 1.0240309 -3.741378 -1.1979425 1.6515659 0.03175313 1.6939198 -4.7558556 -2.790381 1.8074608 -3.5799763 0.5117627 3.628436 -7.11001 -0.25350013 -3.110841 -5.2972383 -3.3418357 -3.0194895
521 -3.3753479 0.9120829 2.4632618 -0.2808114 -1.2014706 -1.2210338 3.8707972 -2.5493371 2.0681238 -3.5192547 -2.2561224 1.1600909 -2.230264 1.0878532 -3.2851608 0.0028336984 -5.94977 -5.3381033 -1.740163 2.4669447 -2.0949194 -0.14720146 2.823971 4.515601 -3.019367 -2.0879319 -2.3496919 -1.3880752 -3.3644018 -0.2621243 -0.011942944 -1.6465843 -2.8783355 -1.4806818 -0.79985934 -1.0841663 2.3970156 0.70656896 -1.8092141 -1.5617373 -1.2830368 3.1973104 -1.9197595 -3.0755105 -2.1045284 1.8484977 0.6153396 6.4214034 2.6587656 -0.69049186 -3.8334856 -2.9007251 1.4441439 0.8247642 2.635577 -0.27963385 1.2474335 -1.864828 2.0409567 -0.14203799 -0.8098702 -2.312289 10.650101 -7.69245 -2.858922 -0.8352588 4.534011 -1.229633 1.3995067 2.0354211 -1.6467594 1.227965 5.6961 -0.64908034 -1.762479 -0.5722502 -0.8175523 -0.7405857 0.03520438 -0.0025659332 4.4980297 -0.76113683 -0.7693027 0.17215468 4.6113443 -4.2662935 -0.213485 2.6689813 -5.6019197 -1.685292 3.8764496 -3.4306014 -0.09769879 -2.617844 3.348883 -4.236673 4.612405 3.5460117 0.38046512 -5.0436773 -2.2147703 0.6135557 -0.72600967 -3.439177 4.9451866 -0.3576269 -1.8291035 -6.4960313 1.5034407 0.88658154 -3.7845864 4.111634 5.1133814 -4.4967885 -5.1908927 0.49970242 2.5715108 0.98740387 -0.6540028 -0.8694042 0.074817635 -1.6495967 4.351801 -0.18474948 -6.1483464 2.7584422 1.5695882 0.07789202
18 -0.72676694 -4.939224 -0.17737985 -1.5474906 3.2493265 -4.708722 1.1500375 1.9068837 0.5861305 1.4767841 -2.8519037 4.8893213 2.4170742 -1.5112655 -3.1845937 -6.183858 -3.8277946 4.4348927 -3.4454193 -1.980935 0.23339729 -4.4644732 1.6090716 3.859665 7.226023 -4.383323 -2.9072268 -5.513528 -1.1364821 -3.6271791 -1.192759 4.5843387 0.90991384 0.5184202 8.152736 5.7842674 0.24828665 -2.0170255 0.264308 -1.6003133 -1.7065811 2.759879 0.78100604 -4.5526676 -0.98763514 -2.9033709 2.9945743 1.4658902 -3.2088108 -0.5130009 1.3196764 -2.4518156 3.2913382 -1.3596059 -4.0649753 -0.9186242 5.125373 -2.4395864 4.875941 3.0540876 2.7159839 0.07657469 0.41916057 3.2608 -3.916418 0.15526013 -0.17168458 -0.71752065 -4.300881 2.2698386 -2.1509144 4.549835 1.2392827 2.575299 3.946918 1.6375186 3.565282 2.8979497 3.0498776 0.45466357 -0.331861 -4.2451234 -2.361115 6.654697 -0.19977252 -3.0882475 1.5174013 -0.8376129 -0.79546416 -0.70799154 -0.34302852 1.7938945 -0.3762743 5.3201756 2.6873112 -5.271114 1.952502 2.577554 3.5562475 -3.0224068 -0.04403366 -2.1964662 4.28225 -2.6824243 -0.101726875 -0.69126993 -1.8070505 -2.9896507 1.3336002 0.39902055 2.1783884 -3.5304537 1.3162923 0.7427654 3.9894242 -2.065537 1.8523809 -0.009816918 2.728457 4.8792653 -1.3762809 4.586581 1.6717408 -7.160533 -3.0452263 1.4962503 -2.5876865 -0.64134794
399 -0.9748362 2.665703 -2.109184 3.7095318 1.6912196 2.1892347 -3.2810614 -4.0681415 0.39682576 -4.679407 6.232935 0.002388774 -0.867511 -4.3266892 7.34093 -0.27810115 0.8634419 3.006443 -1.6805582 -0.0006876803 -1.4917337 1.6035088 -0.7531179 0.9125981 -0.6638713 1.6706419 -0.9825322 -4.501328 3.2384999 4.3486423 -3.6201391 -0.32376704 -4.0547843 2.2264276 2.7381952 0.30596387 -3.7096875 4.0454803 -4.5715666 -0.31340417 -2.0005078 -1.8159393 2.4476075 7.3971877 -4.190524 0.5847805 -0.9741606 -9.101977 -5.3727903 2.8461933 1.4640051 1.1171424 4.8419986 2.2688289 4.2276382 -2.5841033 -0.27341244 5.1774983 4.339133 -2.2463763 -5.233994 -0.5245745 -0.02476156 -0.44567457 2.7516942 -2.2450216 -0.65733373 0.3240492 -1.4327422 0.06015268 -0.5265411 -0.30799747 -4.082294 -3.770241 1.3613073 0.8748166 -2.666544 3.3813565 4.403533 1.8684473 -1.8749908 4.0754943 -0.26688275 0.28760517 5.588575 1.0861088 -2.6055257 -1.9320844 -1.438253 -1.8146111 1.0920522 -4.3323164 -0.993512 -1.2027229 0.89208245 3.8043644 4.6731424 1.7676104 -1.4490829 1.1979657 -0.007593163 -3.8969827 -1.4272696 -0.2617402 8.833181 2.7792315 -2.2295334 -4.6618147 -1.0210218 3.060982 0.6412572 1.1722058 -0.20044178 2.2078505 0.69853437 0.30570844 3.5712893 0.1482349 -0.41909963 -3.7584252 -3.4205115 -2.8636708 3.539699 -3.2010984 -0.7484913 3.661419 0.17382617 0.02961419
353 3.5465577 0.53828627 -0.58076626 -2.6526527 0.32240158 -0.9931924 -0.75627565 3.097393 0.25614932 -0.48419032 -0.20530342 -1.2144177 -1.5086654 2.3698142 3.8834083 -3.469288 6.745361 -4.845206 -6.648427 -2.4035428 3.1370065 1.7228359 3.4232266 1.3657897 2.1323035 2.4661393 0.26144037 2.4090514 0.09037072 -0.88071895 1.2209117 1.0881438 1.3218173 -1.7036067 2.538485 1.2480547 2.0509944 2.3431628 -0.81278574 4.590519 -0.5084723 -0.6843244 0.8163649 -2.4196734 2.9244256 -0.9688669 -5.7602777 3.8188007 -2.829643 5.7295184 -1.990529 0.84247637 -2.2600756 6.178249 3.272926 -1.1805892 -3.0996706 0.85155576 -0.1839839 -2.0842144 -6.8449545 3.7085028 0.5130106 2.3377998 0.8789682 1.6216006 -1.845815 0.7644102 0.45132047 1.7777498 1.7539686 -2.9691098 -3.4284124 2.9610019 1.7527287 -0.6501438 1.0281438 -7.829122 1.1294119 5.712395 6.351961 1.9077079 3.4797804 6.866016 -0.24234727 -0.035765443 -4.3207273 0.49276865 -0.9623023 -2.782713 -0.608625 -1.142576 7.7650957 1.0260074 1.3389182 1.9412692 3.0206091 -1.2414552 1.1263237 3.691884 5.5192447 -0.36942765 2.7104414 -3.253211 6.001739 0.76615983 4.737623 -2.921189 -0.8397686 -2.3415701 -2.0446494 -1.7759999 -2.27392 0.4031065 -5.4498596 1.2197981 -2.7508144 0.9891767 -0.27546942 -4.3261504 -2.4630818 -3.7911692 0.2771283 2.5827618 -0.8688594 -3.7829432 1.5766991 -0.8561417
753 -0.46414092 -3.0528667 0.0310944 -0.601193 2.571429 -0.8332587 -1.8441511 -3.1419215 -1.9678012 2.3368304 -3.4298518 -0.1607735 10.116356 3.5678487 -1.850839 -1.1751069 3.142157 0.51987135 1.1601808 0.6610348 1.2855583 2.0872917 2.248374 -2.667263 -4.2202516 0.20588948 3.122209 -0.13757755 0.049607735 -2.7490048 1.6467159 -2.2143843 -0.6892154 -4.747513 -0.39019156 2.437501 -0.9129899 -0.05722046 -3.8888912 3.6847515 -3.1816237 1.7440839 -3.145608 0.07678308 -4.7565784 0.3310659 1.2730193 2.1620626 0.13118562 3.2176647 0.7545865 1.0453477 -0.7577951 -2.3746502 -0.34544107 0.6607774 3.7190602 -5.1574855 2.0098553 -0.9296601 4.8616147 -0.36197352 -2.6781118 1.7197254 6.183458 4.598588 -0.24380405 -9.104353 4.489383 -1.1960489 5.900334 3.4230554 2.8066425 3.5387335 -0.108632684 -1.4678699 -0.51357865 2.8457236 2.0391462 0.03278073 -2.317101 -4.7926254 2.9622333 -3.910906 -0.08066072 2.3656394 -3.6608312 -2.5356567 0.86503434 -1.5395366 3.104366 0.3782729 3.3736963 -5.583502 -6.7499475 -1.593485 3.5810602 -2.1574066 -2.8551452 6.0357428 3.9943655 1.604942 3.091797 -1.1115717 0.0070433426 0.11366367 0.84946936 -3.78814 3.6743972 -0.87795866 -0.73166716 -2.7078204 -1.5877674 -1.7994988 -2.4796345 1.5835488 -2.8634574 5.5982823 -0.82369554 7.142887 1.2322792 0.6336296 5.701663 4.179869 1.1969784 -6.546394 3.480796 2.2951312
278 2.5649421 4.5171275 0.8878905 -3.2547202 2.8801923 2.9604383 5.794862 3.764033 2.762298 3.470861 -5.521421 -5.7625885 3.3138347 -1.3735323 -5.9743237 4.18721 3.8193758 -2.763078 2.7538838 -2.3236794 -3.7630172 5.310636 0.5243617 0.43566015 0.094613604 1.7495271 0.8151977 -2.8864887 6.1162663 5.1956997 -3.4499156 2.3720014 1.1268064 -2.120841 0.6337815 -1.3506392 -5.2949567 -2.0971317 2.6460116 2.8132577 1.476 -3.6273432 -5.641705 1.604262 0.7476799 -2.0326407 -0.6884616 3.2366912 -5.276542 -5.2159476 -3.913105 2.6195798 -2.1455212 2.3441617 -4.1905947 -0.57513505 -3.3144922 5.630688 -2.467573 -2.052077 0.955667 2.304601 -4.6688747 1.6590034 0.5432596 2.777026 -5.694655 0.07083603 -3.9637492 0.030720392 1.2280065 -0.72226465 -1.5929393 -6.371615 -4.0198965 4.5858026 1.8903865 -2.7250886 1.7136731 1.9577138 -0.75197655 0.22018254 0.38877684 2.8512633 0.895303 1.9182727 -0.90302986 -0.3449427 1.9881371 -0.93779045 -5.09568 2.837308 2.038385 3.1076412 -0.3056393 -2.3301258 -3.997788 -2.576631 0.9493605 1.5887964 -0.61075824 1.7227948 -3.5503173 -1.3303732 -1.1353258 -3.815289 0.72214586 -0.037313867 3.913847 2.2379267 -0.8213111 1.8462279 4.155314 -3.6103604 -4.8568773 2.7884977 0.28879872 1.8941213 1.663099 1.2895833 -0.36251906 -2.5193162 -1.8665497 -1.9672883 0.8167532 1.9324305 5.4031506 6.92777
567 -4.2121954 -2.1094742 0.12090398 -1.3167608 0.79303735 1.8391188 -3.975074 -2.0092936 3.0347633 2.9578702 -0.08110853 -0.18739021 5.6863112 -4.89343 0.5178876 2.803322 2.387138 5.1354723 -2.893498 0.69346446 3.0523438 3.1817589 -4.879032 1.8231051 -3.2780268 0.479747 0.3064684 -2.2305007 -3.0614674 -2.0903654 -3.4639666 -1.3053262 0.6948769 -4.783269 0.47718358 1.9849396 -3.0264814 -0.37683287 -6.148141 0.59040314 -3.2866786 -6.4506965 5.483409 -2.446466 3.3607283 -0.76920956 -0.47477695 -0.6725925 -3.6664648 -5.1368814 -1.8589642 0.14795303 -0.94507974 0.17895237 2.2996156 2.0351386 6.275545 -4.7216005 -5.970134 1.6992527 -0.84365505 2.4532056 3.4062016 -1.4626592 -1.9055101 0.41108683 7.1073637 -6.2453547 0.268024 0.62054366 -2.2138581 -1.2237233 2.7834246 -4.1346703 0.3141231 -3.9170752 4.8915386 -0.3824382 1.4768541 -0.8295917 6.648643 2.745495 -4.0206 -2.558781 -0.5540185 -0.8640798 -3.255922 1.7460574 -1.476764 -1.4881216 1.0207974 0.5651239 -1.7940247 -2.1415987 -0.5905494 -4.161554 -2.42765 -2.222312 0.56415397 2.2963173 0.8909477 -3.5264032 -1.2709545 -3.4079382 2.1095934 3.586128 -8.950431 -0.7618277 -2.036986 1.3717296 -4.2374983 -4.754252 -3.5650876 1.7288505 0.79197127 -1.3131415 -0.56857085 2.4566813 -1.3069592 -0.97043383 0.6809358 -1.5276726 0.35576662 8.184539 -2.3745093 -2.0429265 0.20944063 -2.1177008
418 -0.98006505 6.3819876 -2.6974256 1.8054799 1.0203485 -4.0960593 2.2519248 6.454676 4.105613 -4.1122284 -2.1691153 -0.47422192 10.594701 -1.4606086 -1.4608086 -0.57736987 -3.5074842 1.601805 -2.3403687 2.8107786 -3.157837 -1.3623002 -0.98629975 -1.5436817 -2.226403 4.744823 -3.180305 2.6001208 -7.916389 1.0421019 -6.4252343 0.21418603 0.27053636 -0.52344453 -1.5282859 3.2447166 1.2774919 -4.1004534 1.1295856 2.454008 1.1452967 -1.2949237 -2.0890777 2.8707912 0.7095434 1.7263935 -1.6542169 2.6467693 -0.70138705 5.8542056 -1.2289128 -1.3378878 -2.6541507 -2.5272753 -0.03311639 -2.7194693 -1.7017194 -2.4081395 0.12642801 -0.09353659 -0.18460847 1.7696302 0.41930583 2.4257848 2.187954 6.153662 5.8225994 1.7883841 1.0962642 2.8749564 -2.7393465 0.91316456 3.7220974 -4.0145187 -1.7907451 1.1555051 0.22923335 0.8650861 0.07951769 -0.43045714 -0.6705636 -1.3053664 0.9839896 -2.496611 -2.3254743 -4.877631 1.7421794 0.40387678 1.9475942 1.1845083 0.8461132 3.4627936 3.9289963 0.9931731 2.0093524 -3.3224285 3.9806237 -1.7063138 -3.0237184 -2.2196815 3.2877216 -0.8586157 4.945138 -3.3832633 -2.9006605 1.2538677 1.9158366 -1.984195 2.5188975 1.2755753 -3.2608342 6.050815 -1.3783637 -6.8801274 -1.160818 2.4936948 2.0480216 -1.6202147 4.9206104 2.6177454 2.148684 0.42455766 -2.3488774 1.1348181 5.942206 -4.0067377 -0.7950723 -4.201365
389 1.3084517 2.5515468 1.1195731 0.014130636 -1.3949951 0.96891123 7.6705027 -4.604585 6.110488 -0.13338639 0.5771332 1.0834117 2.240221 -1.0517055 -0.28356093 0.54491323 -0.3827177 0.4582018 -0.8613441 4.9823737 0.15706202 4.357796 -1.0307984 -4.5236893 -3.4932184 0.709674 3.394179 -1.1622815 -4.1495757 1.8484424 -2.6253073 0.3620041 0.55983406 -3.544741 0.044443503 0.25165927 -1.7394754 -0.62135065 -0.26578766 1.5018137 -1.7468141 -3.9574182 3.9364042 -4.0347643 1.7750605 -3.04134 -3.9796422 0.5129047 0.9252879 -0.48285392 5.6566873 0.0602016 4.1240273 -1.956046 0.32057527 -1.4112014 2.3370218 -0.79281217 0.46152925 3.9478242 -1.734391 -0.5457905 3.9851913 -3.1338034 -2.2778254 -6.9849815 -1.6296475 -2.2646203 0.91876876 0.606403 -2.01667 1.2895553 7.1026497 -3.2582786 0.4207267 -1.3889905 -2.6061678 2.0918021 4.884054 -0.38746172 5.4966626 -1.7462654 -3.8236268 1.9387372 -4.7483606 -7.8121166 -2.6737607 -1.1881398 -1.9143952 -0.005965757 2.6677523 -0.83645386 -5.9254093 4.107574 -4.775225 1.7716111 -4.056023 -3.0089748 -1.165412 -4.7231054 -2.257374 0.5151005 -0.17654896 -0.5636799 3.3819807 -4.081916 -0.35430285 5.8499756 0.53649163 -2.3025527 -0.416105 -5.0964174 -0.7525999 -6.5500565 0.63306767 -2.9565167 1.0034125 4.296496 -4.6985497 3.1993134 4.4981756 -0.32304725 1.9131635 -1.2097056 2.4191594 -4.4757195 -0.2881837 4.2167773
352 -1.0270727 1.7242322 -4.131672 2.5305412 -3.5111642 -1.3203704 -7.2932696 -0.01936469 1.6727871 5.0015903 1.9843684 -3.986832 1.1472437 -0.814567 -4.8225136 -4.20011 4.074806 -2.4548552 -0.28550708 0.01691814 -3.5826912 -5.678871 0.42245716 -0.20933549 0.026965134 0.27391484 -0.39442497 2.376547 -5.141939 -0.40415865 -1.4876679 1.0009586 2.6705613 4.9087367 2.244164 -0.61344725 0.16913137 -2.1410766 -7.172567 -2.6803675 0.7944759 1.1784024 0.44417295 1.771331 -3.4040864 3.2958853 -1.7123936 -3.8597913 4.5199547 -1.447825 -1.4238827 2.4579225 -0.3844251 -1.975596 -2.4218137 3.0013871 0.65585023 -0.16954114 0.5430282 3.136725 -4.8066425 1.1068282 4.633117 2.2836382 0.5489328 -2.8069458 -4.232334 0.5334866 -1.7206614 3.4929614 -2.5152824 -5.9046273 -3.3658876 2.807551 -1.1154652 3.7853124 -3.7377298 -0.17255828 -0.9094172 6.732133 -5.058904 -1.3009586 0.7019412 0.48414683 -0.7833409 4.9376454 0.1617214 0.8098216 -5.7953496 4.179908 0.49534678 1.9268737 0.7444763 -1.4325639 2.1289961 4.19017 2.7411652 3.2829258 -1.0916696 -1.9866052 0.008221604 2.2063105 -1.7049571 0.99880797 -2.4755971 -0.79647154 -1.09413 -4.4077477 -0.25666556 2.5496047 0.4492436 -3.95331 0.6738839 -7.2513885 -0.6437388 -9.435808 -0.5765006 2.372455 -0.6403758 8.537542 1.3665522 -2.363175 0.929943 -3.0292723 1.1191967 3.5502245 -1.7517359 -0.90490913
632 -3.2665074 -1.2350167 -2.2907429 5.3306212 -1.6024905 0.27168617 7.9615884 -0.90755224 4.2659063 3.438018 -1.7120969 2.928413 -0.022063017 -5.240099 0.19895269 -0.5348926 6.4187484 -0.42042997 -0.18793494 1.8928682 -1.4678538 -0.24455857 4.168327 4.2217584 -0.6000415 6.0347977 5.510749 -6.605268 -0.80290914 -4.0068808 0.08030397 -2.4960515 2.4798036 0.88452494 5.327799 1.3068507 -0.64821625 1.2150422 -1.0972943 -2.288444 5.5126057 -0.76387775 -9.184474 -2.5505311 0.25145036 1.2396646 -4.745661 -0.25727558 -6.018874 -1.1004286 0.7045961 -0.066393934 2.5604396 -0.8004466 1.7217053 0.29408175 -4.8130994 2.259723 2.6317031 -3.4779882 -1.5276922 -2.0645416 0.7819768 6.6812406 -0.7459408 2.8490224 -0.12248741 2.9718263 1.122344 -5.226546 1.1296983 -2.1603858 3.1176558 0.15651149 0.94748145 -1.3940207 1.9327244 0.65295744 3.9613369 -0.12630944 -1.5756224 0.8716767 1.1030225 -4.5257373 -1.1833364 -3.2753477 -2.0574546 0.8558827 1.5007796 -0.6889593 3.165035 -3.6825185 -3.1115623 1.9772679 3.2984147 2.7963202 -1.5774503 -0.83579993 1.9087491 4.382891 -0.4992927 -1.909246 1.8851862 0.31524152 2.5326214 -3.1900692 1.7411013 4.8161054 -3.7040648 0.5050329 1.279327 2.1191268 2.806002 -1.2145606 -0.94036573 4.0411143 -0.88841546 0.56844455 -1.6853698 1.2884613 -1.9436295 3.1773512 -0.5778127 0.22154659 -1.1606642 -4.853701 -2.7720494 3.1948993
293 -6.409622 -1.8684447 -0.28794673 -2.0984964 -2.5424478 -0.46901643 -0.82033825 -1.2927926 1.0645471 4.400387 1.8139559 -1.7821852 -3.133685 2.4548063 -7.039372 4.6975083 0.4725691 -5.1915736 -2.7216926 -2.8674262 7.0148716 0.51952165 1.7356045 1.9796757 -0.82143193 0.18161781 1.5667932 2.6907282 1.9842674 -2.6592236 -5.08032 0.47567484 1.2892075 0.9734607 -3.8137674 -0.06588962 -0.7305559 0.12979071 0.87185293 -1.2103705 -3.0734015 3.7702117 3.685763 -0.31134817 -1.8545576 -2.5029364 1.3115903 0.6899465 2.1968226 -0.10993768 -3.2655878 -2.899336 -4.429398 -1.640381 -1.4957943 0.88899034 -1.080256 -1.9547173 6.829651 -5.417325 -0.032693096 -0.39950618 3.9013762 -4.0012064 -4.0583925 -5.347844 2.7338865 3.2880163 -2.742547 3.602044 3.24161 -3.7823696 1.4720515 3.0624342 -4.3021894 -3.0332284 -3.1428182 3.7760959 1.9643884 5.070287 -6.7086 0.063672565 -3.2927332 -0.8068668 -1.6156139 -2.106738 1.9676542 0.45483482 -0.39742932 0.82039464 1.8019396 2.8658178 1.8316587 -0.3489455 3.4610827 3.4258053 4.8769565 1.6271124 2.4097652 0.46672052 -0.490436 2.6694014 3.9738863 1.9024779 0.028013911 -0.5502533 1.9667672 2.5158327 -2.9799364 -1.7655377 -4.329218 0.84866726 2.9217634 3.383996 6.477985 -0.22870699 0.7276374 -3.0182786 -4.1071653 -0.22906189 0.23661995 -2.9402974 -0.973 1.4627601 -5.1301723 2.061232 0.2649083 -2.1017575
878 0.18920343 4.8211346 4.325359 0.74174035 7.1797056 -0.5286401 -1.0476601 2.2069068 -6.585091 1.2006726 4.2257304 1.1584663 -4.3851743 2.1211712 0.8694053 4.214272 -0.5762572 -3.622373 -2.1944873 1.6989669 -1.3896488 0.057321556 0.13651957 0.33550566 -4.980624 -0.34116685 0.2879224 1.5233122 0.076338045 0.25871786 2.309462 1.9238422 -3.4169998 -1.2540141 -3.3511443 1.1540184 -1.0136033 -2.233309 3.2725167 -5.605029 0.5356315 4.7613378 0.24047267 -2.3728936 -0.07244623 -0.55757946 -3.4227426 1.1880064 3.5425773 -1.6639428 -1.28271 -5.951164 0.17040938 0.18203965 -1.8196634 -1.2160629 4.732481 -5.99989 2.6041424 -5.4098663 2.8586843 2.0520551 -6.837673 2.158037 -2.0374212 -3.281047 -4.1425037 -1.9476665 2.2124476 0.016486535 2.9628406 0.6876771 0.92173386 -1.8614581 -4.540739 3.422562 -2.3086026 -2.8305135 -2.9883842 -0.7375573 0.21512699 -0.2354931 4.325068 0.41331396 -3.9028509 7.8992844 -2.3579066 -0.6441554 4.474526 -1.5785587 -2.2765536 2.1613429 3.4434392 -1.2979602 -0.4150098 -2.5387957 0.9425866 -0.9714008 -0.2960794 -3.5773034 2.476629 0.39616528 -4.785121 -0.77796674 -0.5080968 1.055397 0.3236101 -0.7841492 3.277244 -1.9173093 -0.78187406 -0.85672224 -4.243978 3.7073236 -1.9954616 -1.9131852 -5.586171 2.4524333 2.0060456 4.505362 -4.911778 2.747132 -4.979231 -1.1615615 -1.0720283 -1.4582387 -5.2071686 -2.3938055
72 -1.5174359 -1.8554479 -1.1314543 1.5847077 -0.05584976 -0.4184793 0.81920576 1.4970093 -1.0294422 0.11846987 3.66011 -0.18903705 3.905427 1.8013616 -2.382211 0.065314725 -1.1017785 -4.286509 3.4392648 -2.1273973 -7.2245045 2.462321 -1.1837664 -1.974023 0.47956613 -6.8134856 2.4181085 2.450441 -2.5127532 -1.952253 -2.7442741 4.8698406 -1.8399462 2.6236775 -0.73124343 -0.27738494 -1.9442357 1.3074365 -2.9868572 0.5951049 5.4383607 2.626916 -1.6329972 -0.92639065 4.509672 3.3012717 -2.4141467 2.756447 6.275186 -2.1192229 0.5140751 -2.0658438 -5.3582773 -8.520419 -5.821511 -0.45167395 2.5547743 -3.2163928 2.1632078 -2.3793156 -1.1126578 3.0047457 -3.5679052 4.6169076 -1.5607736 -2.492056 -1.652498 1.5313215 -7.2926707 4.761561 4.2029986 -4.291704 -2.2585356 -4.079043 4.344501 -3.3197644 -2.857841 -2.2658446 -2.265538 -0.68034667 0.5913671 -2.57339 -1.855849 1.7655978 -4.6758795 2.1029742 -0.9202018 -0.8613632 -3.8496459 0.4236626 -3.1130764 3.1572104 -3.0362077 -2.788375 3.246359 -0.38524783 -1.4207499 0.14617625 -3.2512891 -0.21448798 -0.7612348 -4.7822156 -1.0207063 -1.2841502 0.31342515 1.3198225 2.5861287 -0.9871496 2.1224194 -6.6107755 3.1219606 2.802715 2.9590166 -3.7587519 1.2250413 -0.841504 0.45178896 4.0236707 -1.7742771 -4.224029 0.53663635 0.38311565 0.86118835 0.11777319 0.32457647 4.6787853 -6.2407365 0.30330876
5 -2.124762 -3.397715 -2.335639 -0.4004233 -3.5572484 0.65212303 -3.3012764 2.3967261 0.82275945 1.3218627 2.4347692 -0.13963728 2.1889741 2.4709847 -1.3600101 4.231989 0.6063551 -6.1398535 0.9488908 -2.1373656 -3.0991325 2.6291332 -1.7189136 -2.9254098 -0.4651352 3.4244132 -2.865415 0.5634568 6.387434 -1.4930996 -2.235551 -1.4690546 -1.8712573 -4.4539924 -3.3614538 1.0437716 -2.3227668 -0.3375432 -0.40956807 -1.4440212 -4.201691 1.2057911 4.472964 5.248476 -0.18887848 0.3461813 -0.9816218 -0.27045348 -2.4232156 1.0772514 3.766887 -4.746045 0.8661017 5.2809067 1.9306422 6.4304724 3.5867107 -2.9596813 -0.55246675 -5.073832 -1.3470848 -3.2279794 -3.1217656 3.407997 1.6503828 -5.336105 -6.111154 4.2604513 -1.2071654 3.2684507 -7.951565 3.8480859 -3.2791338 0.7172405 -2.8365273 8.564612 -1.5675058 3.5009336 3.7006211 2.1050682 -0.41673654 1.1567247 -2.4103475 -1.494467 -1.9856936 -1.867837 -1.111558 -4.9437838 2.4496171 0.00014956543 4.4662857 -2.8378522 2.2315617 5.3126793 1.8113638 -1.0399255 6.785186 -4.035272 3.1828709 2.3052883 0.46742448 -5.324053 -3.1009855 -0.08543649 -3.5719817 -6.7079525 4.5071554 2.4778678 -1.2929109 -2.6522558 -0.08377627 3.897503 2.398437 3.7121675 2.1351364 0.48033947 -1.4112728 -2.943387 0.94368607 -0.9967132 -1.3103763 -0.111142576 0.13164175 2.6465778 -1.7081699 2.4714286 -0.8392128 -1.4288956
372 -1.0299281 0.66405267 4.2085285 -2.3136027 2.9990447 -6.5576725 -3.319639 6.6432424 -4.918707 -2.9907424 -3.2098815 -5.045116 1.9916127 3.6901386 -2.8680453 -0.17040296 1.7763469 2.2754114 -0.7466678 -5.3779564 -1.309171 1.5863945 3.5715733 3.271176 1.92017 1.9348032 0.9905196 4.144811 2.3144789 -1.380638 -2.8477612 -4.5123243 -2.5125322 -0.21619225 -2.1091533 2.1846244 2.9514365 5.2011533 0.33479878 1.7454804 1.5072857 3.1352282 2.4301562 0.22936791 2.607705 0.49086234 -3.2180893 0.8145592 -0.8704712 2.3846986 -1.9166595 -6.2093167 -1.2376045 -0.43723255 1.7692547 -2.5755858 1.1561987 -2.9447799 -1.9822745 -3.7659705 2.6102266 1.0391572 -3.41831 2.4527717 6.733405 -1.1849631 -0.23426771 0.18755618 -0.29942346 1.5002086 -5.2893143 -4.6317825 -4.09905 2.5626569 -1.3067621 3.778727 1.2303342 0.048152052 2.0560124 -3.107123 -0.66471654 6.835386 7.5827465 3.5537903 3.9029438 -4.233462 -2.6295054 0.85967594 3.3266554 3.1830792 0.33116898 -0.28780228 -2.1998394 -0.69990635 4.8787346 0.35184312 0.34912556 -3.7156198 -3.2812343 -3.420918 1.647401 -1.3858842 2.4870114 -0.8618993 -3.4392002 1.0165315 2.3647861 -1.4127783 6.3236256 -5.611444 2.950754 -1.3529723 0.57308465 -2.5648856 0.05772984 -2.7939596 -0.44877473 3.8656597 -1.0106372 -1.4820826 5.2259007 1.5902215 1.72316 -2.4984457 -3.8847349 1.8757083 -0.013018447 5.5032983
845 2.3562205 2.2931578 2.2790253 -2.1707945 0.54232645 5.31473 -0.3206513 -5.8608127 1.2036749 2.172174 4.1962337 -9.052637 2.7064404 2.6354709 4.282182 -1.0439382 4.0089297 -1.9678144 4.271352 0.37604722 4.5976696 3.0131922 0.26268044 -0.2892342 0.29891428 -3.3669353 -1.2798443 7.532585 -2.910053 -4.3732543 -0.805082 -8.418801 2.8385212 0.021996032 -1.6035296 -0.170876 4.9497766 -2.9172852 2.1569934 5.8298516 -0.010428573 -3.8291602 -1.3782052 0.030487623 -1.5662178 -1.6920283 -3.0250294 -3.1104763 -3.1927567 3.3017142 -1.1129906 3.0086422 4.29095 -1.3342348 -4.556861 4.234214 1.7489041 2.550285 0.2462149 -1.0889997 0.88084775 -0.35016668 1.3219254 -3.3463063 0.37587482 6.3820853 -3.3208537 3.4665782 5.1416054 3.192042 0.19304842 0.010797044 -2.5285866 0.6559936 6.5617285 0.22656424 0.95797145 -1.304641 -6.116063 0.042491224 -1.9088312 2.290433 4.804481 3.1021724 2.941178 2.9359374 -3.743155 -1.6698041 -0.58439535 3.1130168 3.2181385 0.49413118 -0.5818018 2.7715762 3.069858 0.6120187 1.2597487 5.5608764 -3.0686328 1.3757446 0.9019825 0.5949364 0.3802308 -1.4520072 -1.5385195 -0.24182293 2.272889 -1.0886736 1.1046672 -1.4248922 2.9079697 0.4623615 -1.2687998 0.55817413 2.6715019 2.8491333 8.192865 -1.054446 1.8307037 1.6159664 1.8547647 2.8913643 -4.7939353 1.1208062 -0.2521437 2.7249248 1.1482826 -0.58798057
2 -1.0816956 -0.29691666 0.76653755 -3.9906735 2.1950579 4.0312915 -2.6758642 2.2029939 0.77971005 5.8045506 -2.5919871 3.2813745 -0.44036508 0.02716372 -1.931036 2.1566076 -0.28569463 -0.8449124 -2.4210174 2.327699 -5.5841403 -6.583013 -0.4653336 -0.82641786 -0.13684583 -0.43827924 -0.52307314 2.2061863 2.8015091 -0.060540628 1.8046494 6.8210673 2.280506 -0.10953113 -3.0079792 0.29418242 1.7865901 2.2622302 -2.102862 6.304133 0.20955867 0.2899139 -4.1259084 -1.1556083 -12.320227 -2.2094238 2.7002783 -2.0524373 -0.27023092 -2.8264751 3.3957562 0.80580974 -0.86447155 -2.051434 -1.1672274 2.2080123 -4.1722913 0.92501134 2.1648593 -4.1867533 -0.26892513 1.8790599 -2.694587 1.2335734 5.1367483 1.1332656 -0.6893234 -0.688302 0.77890474 2.8360732 -2.755414 -3.4000835 -1.1094532 -4.493041 -2.880498 -0.057217967 2.6038773 1.447646 -2.7233744 -5.970798 -2.2024746 4.15252 2.5132327 1.5260385 2.698959 -2.0603013 -4.7146263 -6.3506255 2.278738 1.6548654 2.7482123 -1.3144356 3.6655462 -1.5793259 -1.6401497 -3.2695737 -2.0614114 -3.416873 3.0726283 -5.3991675 4.57876 5.772537 2.7424576 -2.8178327 4.99006 2.1150293 2.4156594 2.0642653 1.3780924 4.2230654 1.5166831 1.1585934 -1.7457247 -2.4314442 1.0831356 -0.19077379 2.1706471 -3.223624 0.26858497 -2.4247613 4.3468795 2.1326115 -2.0820951 -3.1360116 3.467078 0.5557737 0.85731596 -4.281221
76 -2.3733091 5.19615 -0.71820617 -3.997539 1.4213912 -0.485238 1.0302062 4.3957543 2.1324239 2.6858907 -1.7079735 1.040341 4.055734 1.477051 -0.91918933 -2.6743882 5.3562274 -1.4156091 2.2898703 -1.2823318 1.9268168 4.3373466 1.176138 -5.304243 1.6040015 2.7791605 -0.1976776 -2.9717822 2.9412894 -2.3466675 0.09733774 -0.07155377 1.9816631 -1.5093732 -1.7584969 -8.074962 -1.5391526 2.0245848 -1.1856128 -0.99351794 -3.54275 -2.2941585 -0.34060302 0.8387945 -0.12380781 -5.046962 -2.4299939 7.21419 2.785199 3.5779917 2.830315 -0.040534563 -7.67944 -0.76617116 -0.10565562 -3.885643 -4.873343 -1.7024223 0.09938789 -0.061692916 -3.4356234 -0.66000986 -3.9005268 2.481893 0.64040256 -6.5721593 1.4520938 0.64541745 3.5828598 4.5493975 -1.430777 3.727081 -3.1605403 -2.4941049 -1.1412555 1.3609451 1.5568278 0.81982875 -0.1283834 -4.315017 -3.5571234 3.0652046 0.25983602 3.5534291 0.9810013 6.4972234 -0.68977666 -3.930361 -6.2801843 -1.1183395 -1.7193161 3.329077 -1.8473202 1.0445024 3.3649073 0.6085255 1.9612181 4.2461653 1.0978786 1.2846162 4.4682717 -5.2096796 0.044547185 -2.8935025 -2.0860727 -1.554655 0.37144566 -2.9305131 5.265898 -1.3070353 3.5465744 -0.9382367 -0.904353 0.2917242 0.24400072 0.5730489 9.016006 -0.48213997 -2.3497515 -2.187253 2.498119 2.0762994 1.9970835 4.1505647 2.163466 3.6936302 1.749314 -3.0492957
901 0.7494326 -2.5343027 0.95367676 -2.94838 -0.74027497 -6.3606143 2.2867732 0.71151024 3.0766022 -0.19637227 1.6584294 -0.5281955 4.3235283 -0.3992563 -2.1992803 -0.19364725 1.6640801 1.0893528 -0.6923034 6.4911594 4.165091 1.5146719 -1.6261667 1.0561091 -0.66946596 -2.079386 0.4723774 4.0808125 4.1389065 -1.2602233 0.77751017 -4.125082 7.6231728 -4.153424 -1.5580152 1.8547109 -1.6201472 5.9422235 -0.65429205 -4.0183744 0.35513067 2.6026149 2.618407 2.5112457 -2.7512646 5.754648 -3.548168 2.8653274 -4.052833 1.0453345 -3.4080338 -4.8908815 -3.1991591 1.7635287 -2.3563442 5.738339 4.157907 -0.72910166 0.85791504 1.2443844 -5.151955 5.8206315 -7.078563 0.16676775 0.2678238 1.0134759 -2.0405169 6.7261214 2.1291049 0.43932682 -3.7818024 4.137347 4.0278974 -1.9727504 3.580296 1.2389709 3.5379739 -3.687074 -7.0460997 -0.255134 -4.995008 3.5752752 1.570749 0.5450938 -2.1813202 3.0680406 6.771357 -0.19608161 1.1276224 -2.0936382 1.6084017 1.1387882 2.870653 2.9502668 -3.6304438 5.7104645 -1.1139545 -3.784105 1.0965624 -2.0307946 -1.3603455 -0.6290004 -2.5863614 0.2664698 1.5997958 3.216898 -0.91324013 2.6110728 -0.82248574 1.9363699 -0.4204554 2.0703337 0.58022374 -1.5731232 -2.1596832 1.5773084 0.7940219 2.161903 2.6338503 -6.329062 1.5704052 0.44738206 -3.8113458 4.1420555 1.8876611 -1.2763802 1.3016838 5.117988
23 1.4434991 -4.030628 -1.0958735 1.7632242 1.750653 -1.114432 1.6378802 -1.5103842 1.1759498 -1.90823 4.841519 -2.713032 1.1468122 3.022525 3.322304 0.99737805 0.6709685 -1.6822686 3.480372 3.1316607 -7.498534 2.908435 -4.1447396 3.097778 3.355379 1.5264736 -2.993567 3.9776187 -1.7713871 0.8839499 6.5941887 -3.936334 2.8434465 1.990343 2.97456 0.7557851 0.2818886 -0.106422305 -3.8083277 -0.9659562 -3.3686373 -0.23588192 0.102234684 -4.653437 4.2686152 0.07393012 2.344171 -0.22145922 -2.8159971 -2.9319994 2.904235 0.83016187 0.8756164 -0.9345101 -1.1467009 1.9173728 6.132865 4.5296125 1.9405515 -2.6918569 3.4457219 0.51767266 6.6427655 8.877262 2.967732 0.327208 2.2666779 2.3785264 -0.8846165 -5.763735 -1.7331114 5.0943985 -2.0654464 -2.489175 0.16023524 -1.1989552 -7.5244575 2.3373704 1.0246345 5.8461165 -7.5486784 -2.9871056 -0.7157105 -2.0512307 0.27082616 1.9941847 -0.63579607 -2.1341333 1.4899448 -2.130877 -0.95350736 -3.516304 -0.29380015 1.7885998 -0.2806699 -4.0130963 -1.3665227 1.7816944 -3.5256538 0.69610137 -0.7396393 -0.49335557 5.1260457 1.5589778 0.7471533 0.19495171 -1.2495198 -1.1153365 1.900237 0.016366865 5.0947075 0.42735505 2.421804 5.1421757 -4.594488 -1.757146 0.37064844 -2.292944 6.5134306 1.0902734 0.4279243 4.2183895 -1.5147905 -2.7800312 -1.2082626 1.8872956 3.0101838 1.9152895
812 5.23615 3.1023114 -1.8165584 -2.9133446 1.5093501 -0.50749487 -3.1730473 -6.7376695 1.3365983 0.22087106 7.6716046 3.4750187 -2.8556197 -2.06185 -2.9441097 3.6679351 2.9734669 -0.4378449 -1.8510228 2.8377948 -0.14182895 -0.8930112 -5.896096 -5.397454 -0.86743 2.42023 6.9129343 2.820959 6.3720684 4.8187356 3.9175673 1.6101241 0.43369874 -4.175236 -2.9899156 0.66057074 2.9783592 2.176629 -0.7392976 -0.9903134 -2.5786521 2.9616687 -0.35354918 1.2541386 -0.13962173 2.1822217 5.9216137 -2.539905 -1.6275398 1.2966344 -1.7228585 -6.21107 5.181043 -2.7137072 -2.7432747 2.5008612 4.096479 2.9540815 1.0191222 2.4992328 4.950565 -1.8515689 0.017912185 0.3164452 -3.5684187 -0.2890817 1.5457879 4.025872 2.0314991 -0.06225353 -2.8687334 4.3952293 -3.280357 1.6087209 3.703636 -0.15755284 0.83669466 0.13328505 -1.7826945 -0.28926697 1.5456264 -4.381192 4.482369 -4.850378 -0.79669744 3.874971 2.5089526 2.487759 -1.6562555 -0.58891946 -0.60247296 0.30284116 -0.56615 2.1485367 3.0544348 2.0390801 3.138566 1.5871692 5.149906 0.22019497 -1.4236276 0.71041745 -2.3741982 3.1905925 -2.1207738 -1.0007614 -8.498441 -2.8613107 2.3336098 4.25548 -0.14429666 -2.8219292 -0.7331777 -1.4848231 -4.789153 -0.7970596 2.2306788 4.984474 0.5379031 0.081910595 3.4589238 3.5282426 -1.9962279 1.2271682 -0.49566942 0.044321112 1.8796711 1.6875534
555 2.3769245 0.7657327 0.8810465 -0.5123184 0.6032432 1.5045418 -1.8773055 -0.13194036 2.924297 -3.06369 4.160593 2.9275303 -5.561026 2.0299459 -8.054869 -2.8548436 -1.1655959 -4.7013636 0.17204109 0.6210064 1.7136959 0.6019667 3.3908472 -0.09322228 0.6611331 2.9361393 -1.8639063 0.9491262 1.7276462 -2.3639128 -4.4911356 0.6861214 -3.490875 4.645137 -0.118769445 1.0604444 -2.080152 0.25693694 -0.9152961 -2.9731073 -3.222933 1.4318534 -2.9190598 0.7176488 2.6355162 0.9612812 5.6863623 -4.1454587 5.5875154 -3.7989702 2.2252595 -0.8262368 -1.4178387 -5.3079104 -0.14696646 -0.6735436 0.29910198 -0.93030876 -1.6595825 5.376012 5.3935704 2.4347749 -0.0670264 4.0390854 4.0581365 -0.73478395 2.6620455 0.89489436 -0.101673804 -1.7642331 -1.543982 1.898184 2.5480237 5.701676 0.16939013 0.36455235 -4.106615 4.513599 -1.9594593 2.3472524 -1.7561774 2.9657834 -0.9506483 -1.2591047 -2.642684 -5.3764553 6.2137117 0.26217404 -5.9212265 -0.89290226 3.6618314 -2.030015 1.7814541 5.0568624 -2.3215497 0.8943841 1.1783936 -1.2170074 1.8556367 2.6411533 -0.10418379 1.9860328 -5.3549232 -2.0486915 -1.0857234 2.5207834 4.1400795 4.1117077 -2.4027355 -0.15940946 2.828119 5.725428 2.7168481 -2.4347765 3.2501233 -5.215251 3.2822049 -1.225242 0.092668466 2.9459155 1.7609386 -4.374997 -1.5953817 -1.5763303 -0.90464693 -0.9367625 -7.258224 -4.0495725
121 -5.1236377 3.9419425 -0.3264478 1.4153364 1.593089 -1.1469661 -0.64401364 0.41408157 2.1372368 -2.1860597 -0.23349254 1.7873055 -1.7709045 0.17271118 -1.6726747 4.0773616 2.2930968 3.2462869 -2.1474614 2.073466 -1.6550835 -4.0229697 0.51319045 -1.4216667 6.1303816 0.87006164 -2.3298156 -0.44360685 3.8388839 2.4377055 -2.6539774 -0.2293948 -1.770844 0.6565866 0.14910199 -0.85031927 0.0643244 -3.0007536 -6.712485 3.601055 -2.300693 1.9654921 -1.5017508 -0.58279204 2.0639799 1.2946724 -0.03933195 4.653241 3.7988462 -2.769725 -0.97424436 -1.2382827 1.366644 -1.3984889 4.6221967 -4.7773857 5.064758 1.7125466 -2.8357904 0.08344961 10.318269 -1.7125264 2.321804 1.3249663 -2.277652 3.4766486 6.4336796 -0.7587531 -1.6350857 -4.4297285 -1.9541887 -1.449763 -2.6458552 -0.68285316 -1.1594771 -6.287247 -1.0096489 -3.5340362 0.14965189 -4.8900914 -2.7736275 -3.2433386 1.3896327 -2.769924 -1.8683841 -1.4668425 -3.7285273 -0.939764 -2.5565352 0.63601595 2.388474 4.8814836 1.4572583 -1.8986411 1.6455603 -1.2256471 -0.68249255 2.2972538 -5.8842936 -0.38421005 3.325901 4.5991144 0.42713723 4.466746 7.730905 3.6110969 -2.9604785 1.4963335 -0.6458045 3.3646243 5.1331367 1.3653716 2.1687436 5.912288 -4.482073 -1.2785076 2.6505659 1.1496551 -6.1130652 -1.4267647 1.3907913 -0.68445337 -3.311539 -1.7808621 -2.7221317 -4.5377407 0.4823607 2.607225
944 -9.281008 4.60724 -0.23053049 1.9303758 4.4624977 -1.785912 -1.1144849 2.3723278 0.51137036 -1.4991547 0.80005884 -1.5149136 2.2231364 -1.2853061 -6.1457863 -1.8707546 -1.3716247 4.199492 -8.308228 -1.790245 4.9161897 1.8420541 0.8176724 -0.15198985 3.351984 -4.258548 -1.4351656 5.519912 -1.9268147 0.85162777 -1.4583247 -0.38697812 2.6799488 1.4554694 -1.2034271 4.2696385 -1.5912795 4.2164364 -0.8289293 0.9352866 -6.108285 -2.2375147 -0.39717984 2.098338 -0.25129247 -0.59456235 -2.8284028 0.9538768 0.31436792 -2.1286228 3.46176 5.6705785 -0.17582306 0.49344686 1.7980889 -2.496065 -0.28798783 -3.5634391 -3.4050999 -1.3111808 -2.7781036 3.8282864 -4.109131 1.3402419 2.5669463 -0.8300692 3.2183435 -1.2064148 -3.8007293 0.6516832 -8.125679 -3.5556529 -1.6662042 -6.1881847 2.3546844 1.2322489 -0.54803956 1.5582516 -0.4787811 1.8194487 4.560498 -2.035172 1.0757022 0.5132889 0.88404644 -2.6600692 -1.8254536 1.3821925 -0.3927404 1.916942 0.0119251525 -3.2760518 -4.051123 0.91499877 -4.199081 2.705323 6.1103992 0.38075614 0.13645701 -3.071031 0.058353692 -6.0123115 0.17794794 3.3818703 -2.0884154 -0.17439488 3.4847512 1.4226156 -1.0068693 -0.28319612 -0.07031503 1.2233838 -4.9735355 5.7660704 2.7234657 -1.777876 2.2464247 3.5666945 5.33321 3.3605285 2.8713312 0.13815935 -1.3063755 -3.743796 4.9597526 -1.4135836 3.7395968 -1.1582035
956 -2.4582143 -1.8495722 1.0368929 -1.1398073 0.7424308 -2.0833278 4.413309 0.99624306 3.0317366 -2.3800964 -0.87970376 4.145437 -1.5227586 2.6846755 -0.469499 -1.3902485 4.021524 3.1306703 4.7124386 -0.056106266 -0.03385551 -1.695991 0.87800306 1.9499376 -2.327579 1.8863097 -1.1953406 2.3449273 -0.75995755 0.5721564 -3.264992 -3.8922205 6.428202 -1.6611679 -0.6206033 -2.9202433 -0.4120046 -7.332077 0.17423809 -1.9062067 -3.8823817 3.96489 4.8804936 2.9198663 -1.9111761 -2.1127791 2.6795332 0.64305085 -1.9062151 -3.0810654 -0.42319608 -1.4777434 5.536117 0.16981062 -0.72717327 4.34757 -1.8826265 -1.4704139 0.9712914 -3.3636034 1.3286678 8.9854965 -7.3384075 1.2260338 3.9598377 1.1217871 -0.05220034 -0.61462367 2.6668687 2.132223 3.290513 1.5307431 1.026196 -5.384057 -1.8085175 3.452352 3.395142 1.1182951 3.2961762 -3.4227731 -4.3277845 1.0213642 3.2124987 -3.5230265 -4.7129035 -0.17816792 -1.7032 -2.2471085 4.715523 0.47557497 -3.3162656 -2.358356 5.191374 4.318059 5.8008833 -1.8976268 -5.3862605 -5.307236 -1.1238368 -1.8773786 -4.951967 4.2001715 0.86601734 -3.6003783 -1.2267585 3.5334973 -2.9698632 1.9726409 -2.023876 0.005143742 -2.9814 4.0581636 1.8967649 -3.342895 4.2175493 0.84234744 3.0274153 1.2758343 1.804014 -2.2093086 -0.1785677 -1.8478497 -3.6165462 2.4275706 -1.9953846 8.659777 4.3888597 -0.71639204
164 3.7104146 -1.1477209 -1.7850688 -0.92822534 3.0387678 -3.8676016 -3.868887 -2.193161 4.590738 -1.2986889 -0.17208184 1.2753748 -0.5864694 3.545015 0.5767175 -4.189223 0.23591739 -1.4230579 0.60683894 -1.0469699 -0.71836776 -4.801832 0.19184081 2.6523075 3.2315998 -0.4750814 -2.4998803 -4.0413013 0.11712826 1.6656452 0.44520202 5.867413 -0.032469697 -1.061501 -4.2663317 -1.2901415 1.7408912 3.3372662 0.8174407 4.7269845 5.6578407 -3.9647188 -0.32752773 3.8977313 -3.0779095 0.64977765 2.3079162 4.1857266 -0.044402275 4.265881 -2.5187654 -1.5257077 -2.4799254 1.5057983 1.6885062 -0.48401102 1.0941768 -3.6710417 1.0869831 -9.125711 0.54472613 0.60967785 1.949069 2.4365158 3.439133 -1.1677012 1.0724862 4.937534 3.6552055 0.5405233 -3.143107 0.66487306 2.5983937 0.8412543 3.2110226 -3.3720624 -0.37475 1.7846453 0.8736199 -1.7908275 0.76597875 1.2915596 -0.18143408 -0.61788243 -2.729877 -1.3232906 -0.15845674 0.2690318 -4.5743084 -1.1247917 -1.8246578 -3.6225317 -3.908014 4.844759 -1.5935577 -1.7713952 3.1417844 2.216662 -6.5400405 -0.9346991 3.6182714 -5.4394827 0.08838617 -2.011241 -2.1287065 0.69036204 -0.8885921 -3.3555667 -1.2194042 -2.7216852 0.76315475 -1.4868958 0.7826708 -2.3260095 -3.417836 -2.6987593 1.3557546 0.7017186 3.1426342 0.88969994 1.0530229 4.788113 -2.3826396 7.5489025 -7.235015 -5.010086 0.9361329 -2.881308
103 -3.9917102 1.9206831 4.0214314 2.7594583 2.2788284 3.0984018 3.1185036 0.7848725 2.7142456 0.6275512 -1.946847 -4.7652564 1.9289677 -0.6172155 3.6949 1.7646266 -0.51825446 -5.8773446 4.1605124 5.67088 -1.669193 -0.34546277 -0.8430353 -2.570926 0.73033184 1.6728841 -6.662339 0.62739223 3.5760515 -2.5398786 -1.7402456 -2.7949736 -1.4551736 3.1630566 0.1152371 1.0851101 0.3911437 -2.414373 3.054731 -1.5634336 5.7704177 3.9369175 3.745995 5.1405745 -3.4941645 -3.8494494 2.6301625 -3.062524 1.9846401 1.1333089 -4.8105326 -4.2720823 -1.9750535 2.0684698 0.30969095 0.12199632 -5.009114 1.5426484 -0.19866003 1.7161243 2.3074417 0.7821749 -5.3147964 1.8220805 -3.1584947 -2.041783 -2.998076 3.3351433 2.9061868 -1.1152223 0.50764835 -0.9567483 0.94658077 -7.1687946 1.7846736 -4.731768 4.8632274 -3.4656599 0.6211483 1.753663 -4.2661676 1.7243378 0.529013 4.695044 -0.97192645 2.871277 0.6997145 -4.5228906 -2.5714161 0.96063936 0.7234133 -1.8281417 2.6009562 -0.14883758 -1.011994 3.8839014 -2.1160219 -3.214468 -0.46579865 -5.2881775 -3.965463 -0.52950287 -0.33291665 -0.77122694 -3.168917 -3.6330738 -0.7441255 0.16427405 -1.4752978 0.22730826 -1.6493413 5.1647663 -3.0373673 -6.9092727 3.3739572 -3.5005908 2.2228878 1.0509253 -0.57054675 -1.7447715 1.3015957 -2.2423246 -1.3273983 4.0012493 -0.5048158 4.632357 5.311126 -3.1890674
541 -0.14652023 4.854601 -0.26431417 2.1445367 -0.030642992 -1.7054785 -2.2901318 1.44152 -2.3464482 -1.2410767 -4.903693 -4.868954 -2.8128066 5.9053535 0.6173474 -0.083336964 -2.2356532 -0.38594848 -4.5115867 0.6766503 -2.6643922 0.6450523 -2.9289665 1.6560025 -3.5488849 1.3202299 -3.392656 -0.15020344 -3.0686464 1.3190495 1.7814679 2.5452058 -0.23068549 -0.45869792 3.4248016 -2.9161747 -0.1211591 3.1077132 1.2394577 1.1977042 -3.73129 1.5643977 -0.49961978 1.7183608 4.27529 -1.6047224 1.1326419 0.11169696 4.614723 -1.4451039 4.497966 -2.3649726 6.6285872 0.55794275 3.8357089 1.4389145 -7.2209334 -3.0121703 -5.8655367 1.2123795 -5.3967586 -1.641221 -1.7465034 -3.5810819 -2.0413077 0.060677156 -3.253892 0.32083505 -4.3002462 -0.8982281 -5.848073 -5.5911717 -2.5518522 -1.4833541 -2.0610287 -0.054767687 -1.9326433 2.8409555 1.0183644 -3.651993 4.1986623 -3.9038718 4.101092 3.4063401 1.429983 -2.0403707 3.1472633 0.2760705 -1.1795177 -0.807073 5.627639 3.4584122 -6.7441406 2.9515796 0.48915365 3.6445663 -0.90170383 6.2326846 -0.23596555 -0.35069025 4.580142 1.7632574 1.2587348 1.7060454 -2.8417253 -5.3451104 -3.7332497 2.660941 0.5426117 3.9335887 -2.0073776 -4.4471693 7.929705 2.7816036 -0.37735093 -2.8687603 0.47468218 3.1008942 0.3776395 2.796815 -5.1535883 1.538751 4.9180403 2.0563731 0.8186423 2.0114737 -1.3350849 5.5577254
417 1.0018821 0.8361913 1.9956313 1.0678172 3.0115314 -3.5148878 -7.0010996 -0.41151845 1.4394672 1.0290936 -0.64073914 4.6384945 1.6569489 -2.2339003 4.5900354 -4.334842 -2.536349 -1.8602989 1.9071501 0.5193894 -0.99085104 1.7002246 0.95120853 0.019062972 -0.14925578 5.6890545 4.51318 2.0238602 2.712656 -0.40042397 4.625165 -7.269669 -1.9982176 -1.101167 -0.7134403 -0.82422495 0.9138816 -0.76859117 -3.0188951 -0.23871635 1.4284472 5.3512053 -7.032709 5.7381186 5.2720942 -2.6661932 3.195411 -5.4719687 0.6475494 6.739761 1.376271 2.3501382 0.36434785 0.13147047 -0.27802566 -2.1722555 -0.8399336 -1.0524126 0.8927063 4.0901246 -1.8953575 -2.5385458 3.4773436 2.0837555 0.18698856 -6.011238 -3.7849352 3.1292799 -7.0788794 -1.5260204 2.7084186 1.8524022 1.4040805 0.8626138 2.1442902 1.3208292 5.2208514 -6.1306906 5.0810714 -1.0564322 4.0046515 1.5961032 1.4474164 -1.3219507 2.315895 2.307218 -2.0069828 -0.33321598 -0.72786313 -1.4339736 -1.2027903 2.016359 6.399842 -1.7056302 4.4405947 3.1534574 -1.4102042 -0.8656189 -1.0736773 7.4151807 -3.7760477 -0.86617255 -3.427896 3.6740582 2.51596 3.7399876 -1.6896726 -0.63914067 1.0179069 5.4126816 -3.999776 -3.9325068 -6.06082 0.6589969 3.3240902 -0.40759453 0.37949592 -0.38883603 2.2795882 -4.064371 1.0780287 -0.70109844 2.8007708 1.5424138 -5.4589577 -5.3129997 3.680764 0.06967326
61 -3.553473 -0.9625866 -2.368811 -0.38277885 -2.258306 4.399114 0.5915543 -2.19096 2.8523095 2.4874115 1.4051293 1.916687 -4.4539084 -2.2967536 -3.2598917 -1.5700893 2.145342 -2.2991395 3.2328572 1.643426 -1.5133599 0.56119853 7.2176313 -2.8179169 4.773031 7.075829 -0.7573333 -4.7596536 -2.8514698 3.8148868 -1.3186632 2.671027 -3.9696658 5.415905 2.8412113 3.3294322 -4.795932 -2.5660641 -4.7882967 -3.5079346 0.5567001 -2.2782395 2.1142638 -3.6165814 -4.489564 -3.7711873 -1.8181199 3.0811133 1.5310154 -2.166583 -6.643535 3.8715777 4.358809 -0.75738806 -4.436629 -3.5318425 0.6155322 4.5716696 -1.7164099 -0.07288752 -4.046049 0.123803616 0.16364601 -1.8140141 0.10265799 -0.8296928 1.5825216 -0.5394387 3.067664 -1.0083121 1.0551722 2.438294 1.2801564 1.3525383 -0.80669874 0.8073484 5.296989 4.4111295 -3.1904411 -4.0247483 -0.9446109 -2.5911224 1.274286 -1.435891 -5.6066704 3.2201679 -1.0710644 -1.0897993 -4.5343113 8.618087 -5.7248964 3.7171311 -0.27561596 0.51520854 -6.2509813 -3.425589 -5.0338473 0.8357806 0.9179285 1.0179864 -2.3042338 -0.5955751 -3.0266876 -0.88136137 4.7834454 1.9110103 0.52448773 1.2884833 -2.2025058 -2.8240497 -4.328771 -2.0890014 -2.6480787 2.1543314 -1.9058908 -2.3067195 1.2283316 -2.2151363 2.811372 4.0161505 2.6834722 3.371901 -1.008692 3.4640641 -2.3739269 2.7896862 0.77511036 0.05330391
793 1.1048088 -2.438676 -3.7574248 1.3309218 -3.9608772 -0.24021912 -1.2462456 2.785879 3.4829645 -0.10113429 -1.9105668 -1.206949 -1.140552 1.4832711 -1.9868472 1.5529566 -2.4819913 -5.090646 -2.5797248 1.6673415 0.47060087 5.4150167 0.96458495 0.060967527 1.2555683 0.7054314 2.502483 7.014739 0.054221004 -0.6209555 2.4350812 -3.1561577 -1.9451127 -0.0182191 -1.8175117 0.5437064 -2.0711 5.4494348 0.40939167 -2.5695152 1.067295 1.5252064 -3.179084 0.3386265 1.3966469 -0.61868113 -0.8671881 4.986588 -4.5205026 -1.310092 -1.0891448 -5.5279465 -0.37538537 4.6357956 -0.09892131 -3.2543714 0.118103266 -2.5904489 0.6751362 -1.4061048 -2.0080063 -2.0391421 3.184809 -3.079565 3.0620136 -8.643156 1.5054306 -2.2608867 1.9739016 -3.928053 -3.9158194 1.1186217 2.1050515 -1.069822 -2.5564435 -2.4576817 -0.3502436 5.7908463 3.686574 0.8272661 -1.1074793 8.525061 -0.8795054 -1.532333 6.426911 -6.0674276 -3.2044063 -0.54753095 0.67226905 3.8245206 2.7018466 -8.7926445 -6.5562544 -4.7781653 0.5967801 -2.6306672 3.5730846 -0.2514409 -0.8361571 -4.352732 -4.076359 2.3918967 -2.9331021 -2.0235493 -1.3223945 2.5947626 -0.7377039 -2.0879598 -1.9615214 -0.95950043 -0.95838606 2.2546604 4.1415257 6.859628 -2.35399 0.63042676 -1.0403773 3.5323126 -1.4152607 0.8797112 2.9576766 3.4720314 -0.52237266 -3.388135 -1.2408327 2.4713733 -1.4635055 3.384852
586 -0.1860546 -1.1501945 0.27855462 -0.60012496 0.7082199 -4.395651 -0.64268196 4.303555 -2.808704 -2.3054278 -0.8319365 8.284202 -0.9387608 -5.6790137 0.57225925 -2.3425705 -0.23160332 -1.4167639 -3.64348 4.0101304 1.4948828 3.3972194 0.37460846 2.9003265 4.343679 0.6806351 -1.3321229 5.0078287 1.0669924 -1.0266414 -1.9785093 -1.6337825 -4.424721 -1.1957095 0.08761485 6.0905037 -1.1806808 -0.5916663 2.8868873 0.26672637 1.3887743 1.5164973 -2.6310296 -2.6131425 2.795781 1.2447022 -2.6423147 -4.6496997 -1.9388881 -4.2819233 3.203161 -0.57403237 1.594373 1.8394552 6.117612 -0.6833704 3.6951997 4.8920307 1.1125193 -1.7225337 -0.036005687 -1.5881393 4.178109 -3.127043 0.97967625 -0.15507591 -3.5953777 1.683513 -3.0600693 -2.7889469 -6.4541817 2.9389894 -5.7890043 -1.4790531 -5.3559437 -0.6848873 1.7246525 -4.0409036 1.3068938 -1.6035709 0.9200058 -0.19855101 1.8226266 0.44116095 0.29909605 -1.2698166 -0.7917615 -3.494364 5.416371 5.9415154 -0.51553226 1.0888872 4.441111 -1.278286 -3.6019182 -1.758473 4.0773034 -2.8093643 -2.9321933 -5.9450164 -0.27250186 1.3190495 1.5910436 1.1189939 3.3977716 2.086229 -6.0591416 2.173799 2.6052952 -2.753178 -1.3684733 -5.172782 3.7982721 0.8892432 -0.40648514 2.434234 2.570609 6.2810745 -3.9034586 1.9493003 -2.0906265 -1.1302263 3.2854013 6.6996164 6.517046 3.9107392 -1.7810881 0.66724527
4 -0.67176133 -2.729164 -5.063948 7.1747727 -0.014224766 5.9550576 6.005149 -7.3894396 -3.9552524 -0.49887428 -7.418989 0.03966739 -0.28506663 -0.54054046 3.4103215 2.4499476 3.348244 -0.43942907 -1.9082723 -6.018391 -3.9270844 0.32548624 -1.7670124 1.3731399 1.2664623 4.3910394 -6.1584277 -1.7392687 0.24216932 2.0938451 1.0939502 0.58467793 -4.351576 2.313057 -0.20115516 1.8111986 1.0359923 1.1578108 -1.1782565 -5.066663 0.517708 -3.6068647 -5.727718 2.1129026 -2.995745 -2.2132137 2.8533893 -3.2481453 -3.1407719 4.411163 0.034208093 1.4466486 0.08323709 -2.532181 -1.39963 -1.781234 -0.68817127 -1.1979469 0.21637927 -4.0781965 3.992553 -3.0509174 1.9101076 1.1945004 -0.1346774 0.49026313 -2.33171 -0.50686234 1.0001531 5.306156 -2.1913178 4.8144617 0.6748755 1.6413367 0.2836068 5.7080483 0.41075605 3.5615034 0.13043045 1.0613266 -0.027705561 -3.1461341 1.3305274 -2.336455 -3.3454566 0.40277806 -1.5194665 -0.4831159 0.036413983 1.938159 -5.8206663 1.2887857 5.6549425 -1.7712147 -1.568245 2.2189703 -0.6599207 0.37139103 2.2981703 1.8669498 -0.9734758 0.6879352 6.341873 2.7895703 3.7545004 7.673081 -1.6014472 1.3508786 -1.8286397 0.22841741 0.47579837 2.7063453 -5.240404 0.61468095 6.7253933 -3.5439558 5.5505233 1.4874496 -3.3166273 -3.1241798 2.0590224 -1.5777652 1.9519154 -1.0993118 5.175542 -1.8398434 2.7268064 0.46875706
738 1.8233565 2.4241107 1.8490902 1.1072115 0.72774184 -2.1037428 3.8714137 -1.0507064 1.8466235 0.09793767 -1.3653421 7.1908326 1.5006108 -0.8234354 1.9877273 -3.0946877 2.0642853 -2.5452452 1.0461478 -2.2887473 -3.8207407 0.09468653 0.15110528 -2.4676468 2.5180209 1.7472998 -2.924536 1.9523921 2.9822009 -2.0389328 7.9239674 -0.7533344 2.2911074 3.3440857 0.89227873 -3.4199464 -0.5579344 -2.3655257 6.5195913 3.2569337 -0.85258013 5.152775 -3.108003 -1.6796769 0.89848995 5.7002954 1.6971531 2.703134 0.74538445 -0.030305464 7.5268135 -1.811806 -1.3827065 6.3972487 -2.9717362 1.9064767 -0.41637456 2.2780159 2.9548292 -0.7391902 -3.601084 -3.6352282 0.03305149 5.6695175 4.2397943 -1.1256393 -3.9547813 -0.11414376 -3.8006065 1.9998293 -0.2965002 -3.6410067 -4.9719377 -1.5245531 -0.8874551 -3.5617566 2.9612954 -3.018229 2.8081188 -4.2420545 1.5934113 0.44341946 -1.9516273 -2.600942 3.6507843 -0.8576992 0.61064667 -0.22653222 -3.4631472 3.6140351 -0.09640943 -0.5608413 2.0738964 -6.603748 -0.80966926 -0.27513528 6.3761587 -2.2912693 2.102582 -2.270332 -3.7136257 6.1775265 2.8266218 2.815108 -0.46492043 3.6848416 3.755663 -4.0083737 -0.10079427 1.7645993 2.3424723 -4.4270124 -5.349904 -1.1682551 -0.72723985 -5.0941525 2.5844548 -0.29203567 1.6292069 -3.6834013 -0.9157852 -0.5015576 0.8443061 -0.5816233 3.7203395 6.8248434 4.74236 -5.673851
838 3.4761465 2.8316736 -1.9299295 0.57381386 0.9403362 2.7193832 -1.9105421 -5.6739416 -2.9868915 0.19405252 -1.1682376 -0.86559874 -1.8896809 9.065547 -0.013819581 0.765518 -5.5481772 2.1274517 0.6555125 2.1969287 -1.634673 1.128055 -0.090760425 3.2003677 -3.752694 4.1226935 -0.78855896 -2.7625594 -3.4985604 1.916151 2.5896661 -0.84058446 3.0608447 -1.7165004 -0.18372376 -4.7188225 -7.2289076 1.9622939 0.6438023 4.466538 -5.068611 2.6985514 -2.053289 -3.3427398 1.9237838 -3.6413665 1.063805 -2.4330833 -1.7729625 3.3571527 0.16757861 -0.41337138 4.127567 0.03362783 -0.4623167 2.5751276 2.632733 0.5687347 -2.2106793 3.9121938 0.39725947 -5.5492473 -0.05191115 3.7558095 -3.250449 0.7432498 2.0804865 1.1311526 -0.30949223 0.5316148 -5.5331955 -1.7500298 -4.2223096 3.0225189 -0.18980305 -10.8046465 -3.1994793 -0.59277755 3.35004 -5.378787 3.162582 -0.53952307 -0.5110599 0.6204702 2.3032799 4.5450344 6.091767 -2.8243906 3.436996 5.566771 -0.5525911 1.0270832 -3.1501617 1.9422945 -3.300822 3.8063197 -0.09025061 0.63878804 -2.1058407 1.7833626 5.1319695 3.1579819 3.979785 1.294127 1.5366124 0.8672923 3.692262 1.8970637 -1.3554332 -2.562621 4.1092353 4.5690427 2.7502604 4.099744 -1.557964 -1.7668307 3.0141737 -0.09736091 -0.8955943 0.61022395 -3.3804088 -4.1795435 5.062084 -2.520505 -0.77566683 0.9676897 -0.8755922 5.941234
35 -3.6645718 -2.9125807 -2.8680122 -1.582149 2.4564624 -4.316763 -1.1667589 -1.0718949 -4.6977077 1.1720986 -0.23584358 0.33131096 0.87132245 1.4470909 3.1733613 2.8497484 3.0460649 -2.1171687 -0.4479738 2.5380876 -1.3650779 -0.8283357 -2.9689991 -5.2996063 0.48384917 0.40613705 -1.8069005 -1.9418764 7.5648155 -1.5469035 0.3941596 0.5510193 -1.1454275 4.6505017 0.6333643 2.6889591 -0.80474734 0.6335743 -2.0942993 1.0583519 -3.0456889 -1.2394474 2.2058396 2.5408165 -1.6916732 -3.0437477 -4.2501316 4.635992 -0.4955733 -2.8355372 -4.1238427 -0.25385472 3.1955166 -2.9363272 -3.5179756 1.1104977 2.2598283 2.4493716 6.5795045 0.5588134 0.8946964 0.64794683 1.1877258 2.7760048 -0.50776523 1.2818576 -5.9018793 1.4968784 1.326024 -1.3654304 -2.6466024 4.3122144 -5.0513134 -2.8166628 2.5537262 -0.88967013 -0.28471613 -5.132567 4.677207 1.3989624 -1.2809832 0.34001082 -1.3944465 3.738315 -5.64568 -4.4292116 1.0244251 3.310077 -0.082053624 -0.95350987 -4.066273 1.1477932 -0.08722831 -1.756187 -3.9167757 -2.007431 2.215398 -3.25481 1.9685208 0.6404353 2.0105789 1.5216739 4.0338974 -1.576039 -0.84078264 -2.5589406 -0.3953036 3.7470365 2.158202 -3.224938 -7.236699 1.5288754 2.0763142 3.4087849 -4.5873785 0.6098515 -4.1763406 -4.0465055 4.1159725 5.0662136 0.2068948 -0.87804693 -3.2449105 3.1629949 -2.1956892 -2.079146 3.5191832 -2.6172807
771 2.7269707 3.430283 2.128191 -1.3860146 -3.3332448 3.2257652 0.24137168 -0.8055683 -6.3137307 -4.931924 0.689439 -1.2427561 2.091367 0.6811546 -3.1284394 -3.0562108 7.4868374 3.6992009 -3.386145 -4.4606905 1.9611642 4.9965763 0.94403416 6.548892 -3.8394368 -2.4363315 3.854453 -0.5467464 -1.5544839 0.17773187 -0.77981293 1.8582921 -5.6834135 1.6922258 -3.9367347 4.3104362 5.036821 -2.8533032 -1.7300012 0.80161977 2.870278 0.54590285 4.03881 -3.4498427 3.229048 3.0921075 -0.6770992 -4.3197627 -1.4769254 -2.0443885 -0.72270215 -0.7638572 -1.554088 -3.2236884 2.537183 0.6162339 -4.364856 0.9896454 0.9232114 0.77491164 2.5531766 2.3479443 -4.651087 4.901945 0.57758534 -1.8576952 2.3259046 -1.4685539 -3.632461 -1.1907103 -5.904046 -2.359158 -0.7874845 -2.8607914 4.158755 1.400591 -3.6690629 4.783667 3.4477627 4.693201 0.5864972 -1.312477 2.1973011 2.7350917 1.7737899 -3.076059 0.8393871 1.9539598 3.2954123 1.8350265 1.2180555 0.2565122 -3.0796235 0.020495337 -2.3434212 0.9254284 4.099198 0.3711352 0.811224 -4.090312 2.6546211 -0.3220681 -0.61523414 2.850982 0.25677285 2.1854038 -1.5301023 1.9739897 -0.3241988 5.7729373 3.4723248 -1.6866779 -1.4782039 -1.6209507 -9.836788 -2.4451206 -1.6678684 1.4102134 -0.9899586 -1.6939896 -0.4868021 -1.9441446 -0.95735806 1.4672105 -1.2821103 1.9617536 5.283679 0.26681635
