2014 64
36 0.46045965 1.3756541 0.13839327 1.7944777 1.6475182 1.406205 -0.10140498 0.36928812 0.34522247 -1.6058344 -0.037351593 0.68703157 1.7411971 -1.3979633 -0.74215084 0.040530458 -3.190291 0.9152909 -0.71631366 -0.53466284 2.1020505 -2.9238377 1.3089526 0.4666206 -1.5687997 0.6865188 0.9846422 2.2010062 0.2541773 0.07928647 -0.66911674 2.2733479 2.1545382 1.5934541 2.5192604 0.047407236 1.9970219 1.9742967 -1.852967 -0.7989032 3.8496306 -1.7832706 0.04843096 -1.7748755 -0.07235908 -1.4712614 1.2921474 1.5027276 0.79856247 0.10353082 0.27723292 -0.55546016 0.7135661 0.21427807 -0.8484472 1.2950027 -0.11486617 -1.0857185 1.0341926 -0.05620002 2.7798235 0.8817906 -0.7359481 -1.4380238
1136 1.1492573 0.7757764 -0.8740577 -1.8139513 0.9353723 -1.6932821 0.57020104 -0.545912 -0.648606 -1.1380906 0.080847815 -1.5615665 -0.5114477 1.3423684 0.40398106 -0.2179855 4.056694 -1.6851729 -1.7620586 0.366319 0.9271606 0.39645532 1.5595971 -0.9910419 0.46448556 -3.1415417 -0.13082871 0.9904151 0.26965705 -0.33003372 1.0388001 -1.6367419 -1.2011068 -1.2733188 -1.7449635 0.32056502 2.5712187 0.6472332 -1.7619646 -1.2934593 -3.9852512 0.3456705 -0.45191908 1.9172506 0.24567498 -0.10095627 1.7687805 0.28106827 -2.7892015 -0.6416298 -1.8876344 2.5034666 1.3276447 -0.14535813 1.1165955 0.033767708 0.103759274 1.1768607 -0.39357048 0.34800753 -0.1723829 1.3089173 -1.3645625 -0.7128444
645 -1.5615906 0.32498246 2.5349278 0.13569479 0.054004587 0.8135843 -1.133507 0.20610027 0.06909397 0.1486311 -2.757467 -1.5015891 1.1147141 0.85724944 3.1352282 -0.12862782 -2.6351166 -0.2009337 1.600086 0.35052708 -1.8159708 0.52870905 -0.14323245 1.2071502 1.3910205 1.3199339 0.96774316 1.872058 1.8189511 -1.1120455 -0.6896157 -1.189924 -0.11081427 -1.5003282 -0.05897553 2.5836809 -0.3842149 0.076570034 0.5689003 0.7853471 -1.6265203 1.7241133 -1.3693407 1.2903069 0.6497669 -0.54147446 -1.0883625 0.091908514 0.4398475 0.8549944 0.5008836 0.008858617 -0.32284385 1.3907373 1.9419059 -0.0069671916 1.9445661 0.43670812 0.7019335 0.38044178 -0.32999796 -1.5742494 3.0311258 3.4366026
1680 1.2075568 -0.5020931 -1.2728529 -1.316289 -0.45523176 -0.5257674 -0.71528745 1.349532 -2.3856876 1.9850705 -0.41421682 -1.0681683 -0.21326725 -1.0332983 -1.7094866 -1.5292282 1.0402573 -0.95416033 2.6555817 0.88986444 0.847119 0.115811765 -2.264688 -0.5220827 0.4325335 0.63763535 -1.2644589 -2.135914 -3.8788269 2.2445395 2.2118967 0.8447907 -1.5808852 0.35447046 0.18994792 -2.188418 -1.6870694 -0.9421225 2.2055845 -0.041388523 0.5267588 1.2291886 -0.548311 -0.22287196 -2.2250051 2.099685 2.078357 1.0581279 1.1502796 -0.17657788 -1.1154196 -1.4670013 0.12081402 -0.43724984 -1.6464591 2.1170394 0.6345985 1.0565108 0.767061 0.6515247 -0.078072004 -1.7035922 1.4200194 0.4072903
291 -1.314442 1.1141081 -1.4847159 0.06850893 -0.27738988 -0.8723139 1.1657786 0.44299853 0.75033987 -1.8373724 1.6592675 1.007842 1.9047958 -2.3485007 -0.20787036 1.5011524 -1.3243215 1.2937068 -0.013633797 -1.5771601 2.839481 -2.1060433 -0.7041359 0.51868886 -1.379456 1.5004619 0.96479267 3.5448713 -0.22890413 0.8095548 -1.4390132 -0.16735381 1.926187 2.038896 0.5336126 0.062312163 -0.34166485 0.7449695 0.8242109 -0.69735175 2.272636 -2.5522237 0.3601395 -1.0803576 0.029815476 0.41069657 1.1121074 0.47077897 -0.4284747 -0.88479275 -1.18243 -0.0125710955 -0.40634608 -1.0531772 0.22088066 1.8943107 -1.48899 -1.1767507 -1.9349853 -1.290881 3.3860378 2.290594 -0.54351455 -0.03918573
1369 -0.09360511 0.6901961 -2.2514784 0.15854213 2.5888584 -1.4965782 0.43059158 -0.37916827 1.2857467 -2.8657746 -0.66349715 -2.9475303 0.44977722 2.082528 0.61134666 0.46625578 3.2240884 -1.1177794 -0.41907206 -0.8246405 -1.0759158 0.9098735 -0.26466498 -0.7929677 0.042804837 -3.0853872 -0.56435525 -0.4496616 -0.6280376 -0.3394864 0.4928491 -1.3669881 -0.9626266 -2.0191894 -2.1123815 -1.2320236 1.623833 1.5037371 -1.1483804 1.0867779 -0.16177571 0.5047501 0.47650725 1.3622019 2.1903663 2.1289828 0.53004616 1.6901873 -1.8144916 -0.17842184 -0.54481256 2.1181982 2.0098317 -2.0024993 1.912799 -1.1980321 1.290964 -0.5398751 -0.61955965 0.8459042 -0.66427666 -0.17330173 -2.4598484 0.4148997
396 0.5102417 -0.5412946 -1.3271574 -0.18053173 0.4907014 2.6361592 0.93343544 1.3724697 0.73466736 0.083266474 -0.30552635 0.20572573 1.1711639 0.14299196 0.72451866 1.9532698 -1.7811161 0.818019 0.17484929 -0.75931907 2.3084817 -2.3736868 0.015642362 -1.0794661 1.2592987 0.026357116 1.0089316 1.7980354 0.9313299 0.13534789 -1.0360879 -0.28077224 1.129519 2.0885499 0.53210455 0.25956914 0.78359544 0.26479813 -2.163547 -1.6465861 2.04675 -2.9840674 -0.07870412 -2.9840972 -0.4157803 0.50309724 0.92511684 1.8438249 0.98220193 -1.3215334 -0.99901724 -1.7050307 0.9439455 -1.5186241 0.31787658 3.6404493 -1.0109975 -0.74328583 -0.2989141 1.0248076 3.193257 0.8770715 -1.04902 -1.4559339
395 -1.913864 -0.071799114 0.16200756 0.13574104 0.5863808 0.62728477 0.9506064 0.93100834 -0.22884937 -0.19137563 1.8670566 0.8181379 1.0679893 0.6595811 -0.717208 2.7206428 -4.362267 0.51348 -1.1126052 0.062029704 2.4668326 -2.7130308 0.2144986 1.1459208 1.0275761 -0.099594496 1.089196 1.7047502 0.2847595 0.8191496 -0.6068821 1.0544791 0.45123303 1.7756175 1.6231555 -0.04780361 1.6820426 0.71362585 -1.3922023 -0.66572523 2.5553343 -2.0063868 0.48709068 -2.4320307 0.8465073 1.5827371 0.4859573 0.35711125 0.12894794 -1.2413672 -0.44130167 -0.9666057 0.5829217 -2.2023773 -2.2500415 1.3505235 0.048542228 -2.23751 -1.4198463 0.91406924 0.45373327 1.7064161 -0.9256262 -1.2641194
823 -1.4913791 -0.4517003 0.24641207 -0.38255912 0.13678242 1.2491388 0.84586346 -0.30790383 0.66399616 0.056420002 -2.02214 -0.19264469 0.3037591 0.61769706 3.0004296 -0.19970609 -1.677475 0.1932642 -0.5674698 0.8731146 -1.5668339 0.815289 -0.93558705 1.1653101 1.5461218 2.6187124 -0.1757672 1.875555 -0.047401667 -2.4362824 -0.79621893 -1.5840179 1.0677365 -0.45532265 0.09161245 0.58383495 0.4123166 -3.57372 0.40484357 1.9743724 -0.4817322 1.731747 0.013357116 0.79284245 1.7552224 -2.2533681 -1.0662223 -1.7912117 0.949928 0.43598118 -0.08409242 -2.4609568 -0.8497476 0.048176207 0.67563653 -1.2490138 1.5862488 0.8293525 -0.05448058 -0.38875508 -1.5000788 -1.8872663 1.0185329 3.490386
415 1.0525329 -0.58484876 -0.7469784 0.06669298 1.2421427 -0.115762934 0.9128878 1.6520131 0.7061323 -1.149521 0.13440728 1.1507043 2.6865196 -0.454793 -0.2222695 2.1309059 -1.5303898 1.0074215 -1.5953838 0.5655584 2.63873 -2.0860293 1.2973455 0.6319537 0.6239083 0.22518416 -0.6832396 1.1796409 0.98131645 0.05226612 -1.5585725 1.721781 3.1162648 1.1555667 1.8813806 0.5007462 0.5451203 0.70405906 -0.3695124 -0.9508199 3.3808353 -2.550708 -0.036171842 -1.5283799 0.18315427 1.320207 0.7143871 -0.5989578 0.9895574 -0.2560255 -1.0407227 -1.1082591 -1.3307438 -0.5476872 -0.0393952 1.0090278 0.023484817 0.66632396 -0.3235673 1.6043453 2.8094795 2.7019393 -0.13908194 -0.76320004
1886 0.49188343 -1.2409693 0.087260164 1.5953839 -0.7319224 0.13888392 0.14745684 0.412668 -1.8009647 0.37243208 -0.8137861 1.7906281 1.3651843 -0.7325957 -2.0767949 -2.2330794 1.4639082 0.3141832 3.6097984 -0.13390869 -0.20560904 -0.78008425 -1.9465942 1.5237292 -1.2299066 2.017341 -0.19763978 -1.4937567 0.7106919 0.7288809 1.1140366 0.3047991 -2.443549 -0.10901808 -2.5447755 -1.7179688 -2.0535195 -0.8558316 3.7190094 0.23023362 -0.021016123 1.2970486 2.4156497 -0.44630185 -2.3155653 0.79209876 0.8745625 1.4051964 -0.47245046 -0.4052554 1.8959022 0.5213282 -1.310011 -0.34091341 -1.0793262 -0.8802217 -0.46893972 -0.035545684 1.6988726 1.4384131 -0.48732427 -0.92392486 -0.83383906 -1.1410813
120 0.09263458 1.1080126 -0.96451235 -1.1109841 0.17106798 -0.20564687 1.1233226 0.420949 -0.9488735 0.03586178 -0.8399653 0.37880692 0.47886404 -0.47306445 -0.40458333 -0.65713406 -2.4187794 3.011785 0.0105254175 0.86338913 1.9418741 -2.283836 0.6538209 -0.8506733 0.35320383 0.54156053 1.8584465 2.592665 0.18914811 -0.595354 -2.029785 2.019024 0.9344304 1.9477816 2.676748 -0.9473895 2.540043 3.1505888 -1.5913721 -1.4803433 1.8224676 -4.1207757 0.5428745 -1.474119 -0.28957933 0.14327712 -0.056275245 0.14362638 -0.4025708 -0.20909463 1.2000903 -1.6372086 -0.1193783 -1.3943629 -0.8668898 1.8138068 -2.4107227 -0.80850774 0.33106688 -0.4845898 2.4541972 1.0858954 -0.28999022 0.021376085
747 -1.8730837 1.194062 0.9560518 -1.6301711 -1.8814082 2.1094162 -1.0110737 0.75907785 0.087120734 -1.1591822 -1.3870567 1.1804045 0.033458572 0.72391665 3.439277 -0.36599284 -1.2686334 0.8981893 0.65057886 -0.13163058 -0.3765317 2.3315055 -1.3648261 -0.09696916 0.83541113 0.63332295 0.8069737 1.6157864 0.6607753 -1.6981678 -0.76399314 -2.8336582 -0.6993761 0.2597275 0.5964267 0.4953216 0.80486673 -2.6895766 -1.303569 0.5565475 -0.8155932 1.3972197 -0.37590104 2.0871499 0.28182346 -1.9715512 -0.24187754 -2.1230571 1.4368807 1.7515805 0.6643414 -1.5688262 -1.2736328 1.2018449 1.1667033 0.22359857 -0.24494538 2.0729449 -0.33724216 -1.5018196 -1.2237662 -1.1571205 1.408824 3.0631485
184 1.8911836 -0.56666684 0.17411044 -1.2595788 0.29837537 -0.060981486 1.1357425 0.9720569 -1.4672933 -0.62520146 0.5870136 1.6623139 1.7888845 0.13857864 -1.904587 1.537571 -2.8942695 1.9653273 -1.9490627 0.24585722 2.804979 -1.5103587 -0.07203146 0.19647399 0.9929212 -0.019669458 -1.0167989 2.2189512 0.70887125 -0.43321416 -0.9059756 0.85081226 1.7801238 0.31707203 0.6701441 0.7385493 2.4577641 -0.0350481 -1.7967684 -1.4265015 2.510109 -3.3113322 1.9788346 -2.4855747 -0.38719958 -0.33142856 0.08614799 0.92492485 0.41641563 -0.62679636 0.32202312 -0.025565905 0.12952901 -1.0161287 -0.29428548 1.9649649 -1.669339 -1.5178596 0.09397171 -0.19725156 1.4283513 3.2542088 -0.104426235 0.29250282
1505 2.9584365 -1.5756229 0.3685006 -0.18047474 -0.1651108 -0.42024353 0.09097707 0.8148491 -1.0589494 1.344263 -0.462287 0.98441505 -1.9706024 -1.2016373 -3.1811259 -0.047848232 1.4431995 -1.08983 1.7212253 0.527186 0.90216887 -1.8783797 -2.8114011 0.5530277 -0.96080035 2.5132806 -1.4115665 -0.73441225 -1.6418014 1.757277 0.7744023 -0.42273572 -2.0325518 0.86280406 -1.6466436 -1.1137158 -1.7909427 -0.30250618 1.3654621 0.12455339 0.34347525 1.6339049 1.1224868 -1.872514 -3.1872618 2.1187503 0.46857333 1.3315783 -0.2028408 0.8046921 1.6550099 -2.349773 0.050536178 0.25902292 -1.8756185 -0.3207432 -0.0068361503 -0.18714911 0.707415 -0.04006504 -0.5869973 -0.1485655 0.79995704 0.05799935
1842 0.7146738 -0.9469324 -1.1861106 0.24532276 0.3442264 -1.1022019 -0.7859882 0.9196117 -3.4530296 1.6398919 0.6960222 0.0061674276 -0.93251425 -0.60394955 -1.2500085 -1.557129 2.3377616 -0.9497155 2.94524 0.92072815 -0.35413924 -1.7039884 -3.23213 0.1839712 0.85791796 1.2511796 0.009695738 -0.9819641 -2.119989 1.2098093 1.5333152 0.85112715 -0.507608 -0.5523463 -0.9912208 -1.7993429 -3.3349683 -1.4081448 1.1622009 -0.2695174 0.007560917 0.047913074 -0.51282066 -0.32727835 -1.2682194 0.36284944 1.6844437 -0.37421954 -0.5092171 -0.56422925 1.5864235 -2.421701 -1.8951209 0.16264461 -1.4564084 -0.61373985 1.2790126 0.14034398 1.7079301 1.7516968 -0.9820226 0.1636574 0.3451999 -1.0718582
1486 2.04546 2.0764873 -1.6690124 -0.14256643 0.037001282 -1.9481695 -0.08414351 -0.77306587 2.9776993 -0.8986855 1.2079241 -1.0095191 -0.21287206 0.34536743 1.2840908 -1.5158737 2.3740878 -0.3486894 -1.029976 -0.89291614 0.48571643 0.014282562 1.751107 -2.462835 0.32373285 -1.8603495 -0.7521431 -0.80801123 -1.2615777 -0.633732 0.08269848 -0.3612827 0.0770212 -0.3901601 -0.9024366 -0.41257426 0.5900235 1.6165847 -0.86873823 -1.0381963 -0.60348886 -0.40368158 0.01569064 3.1973379 2.0025482 1.4164085 -0.5412769 0.53137445 -0.6923681 -0.46566486 -1.6444602 3.2692542 2.3447742 -0.99187225 0.92237866 -1.881565 1.7004515 1.5418094 0.15917462 -0.56377345 -1.8092436 -0.6898372 -2.1497908 -1.1010865
1663 1.7689809 -2.534708 -0.016290918 0.035899572 -1.1122891 -0.7064992 1.504073 1.2692432 -1.8329009 0.61473465 0.89489174 0.054594092 -1.9207727 -2.3344917 -3.0222218 0.102722004 1.9985629 -2.3290164 4.3317046 2.288867 0.16297124 -0.13130553 -0.34916255 -0.61263126 0.1708314 2.2985342 -1.2722704 -1.5943123 -0.98428243 0.42460716 0.31370872 -0.53678846 -1.4147049 -0.048683424 -0.36737213 -0.7443181 -3.708051 -1.8532518 2.016892 -1.3359541 0.70173615 0.7064509 0.24470884 0.22562513 -1.6118252 0.37511513 1.9327476 1.3358607 -0.16626957 0.0090287775 -0.018692015 -1.233348 -0.8336046 1.0606911 -0.57775635 0.11442894 1.5603708 -0.061675474 1.6222743 0.2270205 -0.06149669 -1.518935 -0.3452102 -1.1394995
1030 1.3950396 0.2653776 -0.8019706 -0.899037 0.9415295 -0.5450434 -0.90696394 -0.78571886 2.2566657 -0.3376222 0.91892993 -0.26719648 -1.4878061 2.1595178 0.3128485 0.20837271 2.272103 -1.5111533 -1.5659981 -0.027020091 0.74740726 1.2666231 0.7261348 -0.99708396 -0.40868828 -2.3931582 0.033405412 -2.3895352 -0.77183264 -0.85874695 1.2363923 -0.38643116 0.069836885 -2.5236135 -1.4776416 -1.1549718 2.2820675 1.7619704 -1.5125576 -0.5345184 -1.4940834 -0.78942275 -1.7500381 0.8722043 0.48228663 -0.26027468 1.0125991 1.3038796 -2.4867206 -1.0364585 0.23651247 2.4561899 2.8246853 -0.6430809 1.0969751 -2.4528267 -1.3449214 2.4524884 0.21671431 -1.0343688 0.034556903 0.5134229 -1.1431009 0.14626779
556 -2.611362 -0.6074323 0.3291919 -0.061733063 -0.13616218 1.7472965 -1.3019707 1.5909456 -0.9171938 1.192855 -1.1008031 0.59693015 -1.1959339 2.9255104 3.0315485 -0.47504804 -2.8322368 -0.46249673 0.15509789 -1.0020511 -1.6435865 0.76148427 0.27671242 1.0103865 1.0808958 0.43266404 -0.36958194 2.1060784 -0.2887829 -0.7625779 -0.7465036 -0.9832071 1.0033739 0.14023979 0.59626377 1.7604724 0.37460473 -1.2221397 0.8074665 1.4195552 -3.0590053 0.60549384 -2.5215938 0.23783459 -0.101589076 0.02931544 -0.6274329 -3.7462611 2.621851 0.71981543 -0.45423037 0.7612162 -0.94289917 0.9222079 0.8505038 -0.34385103 1.98385 1.159481 -1.8207467 1.1502653 -1.3265799 0.093097426 2.5406616 1.9945492
1368 1.428236 2.0358284 -0.9719711 -0.18794158 0.38030848 0.16355932 -0.19666344 -1.7424302 1.748189 -1.2701615 0.7342173 -1.7663741 -1.2321054 1.8146064 1.2725784 -0.6221287 2.1206353 0.015383184 -2.614278 -0.082292244 0.4765897 1.9069012 1.0409678 0.23105446 -2.4861853 -2.3506153 -0.015465183 -0.4978281 0.57391137 -0.21716672 0.45718175 -0.505668 1.859218 -1.388074 -1.867953 -1.3605171 1.3320093 -0.6244506 -1.5534618 0.26702124 -0.6353404 0.66565603 -0.34744042 -0.37120032 -0.8867764 1.0675445 1.2144278 1.742858 -2.0725045 0.12815458 -1.0942305 3.2804706 2.4107468 -1.1796772 -0.028160665 -2.7703352 1.9188772 1.2569644 0.531116 -0.5092375 -0.35853082 -0.008967322 -2.6136594 -1.3679845
1870 0.89654124 -3.1783128 0.7138979 -1.6151849 1.3984681 0.16374871 0.08643021 0.87161416 -1.2822182 1.3262473 -0.9103792 1.7645237 -0.6654372 -1.9380138 -3.4105284 -2.3967586 3.4529073 -0.668565 2.746368 1.2782989 0.8196853 -1.22941 -1.3097922 0.71984774 0.68050146 1.7135508 0.25998345 -1.4915916 -0.33265 -0.06177566 1.02212 1.5638554 -2.155235 0.50000376 -0.53145087 0.69468856 -1.523113 0.77570754 1.1857836 -0.49930176 -0.3760993 0.5625966 1.5066491 0.17735672 -0.6577045 0.6219591 0.2330461 0.50252634 -0.34267718 0.52815425 1.3096358 -0.6952024 -2.0174644 -0.41804668 -2.8004484 0.15491723 2.49723 1.6001738 0.90955245 0.86672014 -1.6691035 0.026186476 1.6056951 -0.83558893
1904 3.1997118 -0.8263261 -1.2852399 0.5332983 0.5489365 0.043623343 -1.1093036 -0.08187365 -1.4216167 2.9460912 -1.5081171 2.3977063 -2.6537278 -1.1609786 -2.0472815 -2.8760579 0.97735983 -0.23904274 2.390496 -0.02713398 -0.563309 -1.1050034 -1.0928379 -1.4476953 -0.36763352 0.62991107 0.1976384 -2.2870226 -1.2799153 -1.0278939 2.1264887 1.773947 -2.1684008 1.3954674 -1.2328364 -0.77021015 -0.78145474 -2.6796196 2.4036825 0.86924547 1.3951368 1.1405603 1.2318833 -1.9695778 -1.4783479 1.1232754 0.057011 0.08351305 0.20684692 0.2435721 0.0800023 -0.094527975 -0.7905746 0.63200754 -0.7340525 0.37952253 0.6161115 -0.03315069 0.46686915 0.35610706 -1.2413682 0.22283787 0.61803615 -1.6423011
1275 -0.43985644 0.4067158 -1.0776451 -1.1040168 0.4033494 -1.7835704 -0.30957156 -1.5886457 2.2402582 -0.19981249 0.64625704 -0.80174553 -1.0308967 0.9884658 0.37208903 0.61870044 2.6957843 -1.2374692 -2.878646 1.2020208 0.4969947 2.5565932 1.4951873 -0.47872537 -0.4026863 -1.6029453 0.42742884 0.1486742 -2.0800023 -1.1171145 0.44591475 0.26183325 0.1171152 -2.8693914 -2.312908 -0.21959543 1.2301406 0.59387714 -0.0036673397 -0.9713465 -1.2775623 0.3844758 0.6378224 1.5430425 -0.9452454 -0.4387947 1.0981007 -1.1173112 -2.8940673 0.07618575 -0.8499148 2.794847 2.6236806 -0.23113327 1.7692325 -1.1925821 0.47808272 1.7533662 -0.8643416 0.5242174 0.34402826 -0.049987048 -2.710453 -0.94623953
667 -1.627032 0.75524586 1.0101271 1.0137613 -1.3587537 2.0640118 -1.0446233 -0.52376336 -0.9443942 0.32667914 0.27039337 -1.364141 0.80380404 0.6109649 1.966252 0.92292356 -2.137881 0.400989 2.2718928 -1.0124692 -1.5724188 1.739292 -1.4752542 0.08933142 1.0264716 0.42376342 -0.3260241 3.295908 -0.42793766 -0.92577046 -1.9374053 -0.47314954 0.7353807 0.77100074 0.0045772498 1.3015805 0.8727087 -3.012723 1.0226583 -0.26600432 -2.645075 2.3997905 -1.3354611 1.5215497 0.9639207 -0.59588504 -1.2505699 -2.1750264 -0.4629835 0.66890424 0.4277758 -2.0166762 1.7558144 -0.04369481 0.7820691 0.31082308 0.24854226 1.2832528 -0.32238773 -0.2848031 -0.59448767 -0.5806689 1.9837425 4.169567
967 -1.8996645 2.3164546 1.8324215 0.55271226 -1.3038203 1.1374819 -0.38524956 -0.4721514 -0.13555382 -0.6496153 -1.0181458 -0.38223758 -1.2670295 1.4259182 2.2298753 0.9076746 -1.4023551 -0.67540103 0.31222478 0.933235 0.074672915 1.3713075 0.9799305 3.1254098 0.7834811 2.727758 1.6268166 0.79309005 1.5464337 -1.0718101 -1.2081791 -1.727903 0.008824192 -1.5215799 -0.3856177 2.0340054 -0.0927512 -1.8263352 0.25768617 1.7247463 -0.20306513 1.221526 -1.3682463 1.6247035 2.3870816 -0.5077593 -1.5967684 -2.2112615 -0.16410436 0.3657093 1.8014618 -1.3674783 0.2677938 1.966943 -0.77492905 0.54835236 -0.47716135 1.5765756 0.7013656 1.0573611 -0.4976657 -0.7951515 2.310836 3.7457175
1162 1.4079547 1.1290084 0.10044902 -0.04887772 2.2483716 -2.0494008 -0.41911444 -1.863189 2.28524 -1.1529548 0.30627307 -0.21315318 -1.113966 0.98919237 -0.2465354 0.45158485 2.655574 -2.1385317 -1.9464316 -1.1138245 -0.38777456 1.5995917 1.8593637 -0.5873269 0.2587506 -4.335399 -0.38490835 -0.37615034 -0.33667937 1.6762298 -0.01696102 -1.8396986 1.3082029 -1.175161 -0.90267813 -0.81951463 -0.21252054 1.7129413 -2.7587914 1.3465506 -1.3365079 0.2822807 -0.9172843 1.5724477 0.88056165 -0.23605077 1.1032672 0.080275804 -1.3735981 0.10530486 -1.4532982 1.9014059 1.0933893 2.1061053 1.249053 -2.5001612 -0.22330646 0.10928416 1.999824 -0.400005 1.0958296 -0.4022299 -0.975009 -2.5290842
621 -1.269995 0.37019587 0.8061476 0.44581625 0.28423417 1.4592173 -0.35331672 -1.4501617 0.253229 -0.30514297 -1.0209558 -0.009554453 0.41945097 -0.4657904 2.391595 -0.74284226 -3.004526 0.010684935 1.9540224 -0.18344083 -1.359984 1.8279926 0.39506942 0.3357785 -0.14686434 0.75531584 -1.1685467 1.3297466 1.0175024 -1.7343707 -0.8689142 -0.7991386 0.72708464 -1.3611366 -0.16520436 1.8667794 0.062395878 -1.2622865 0.12846799 0.7284357 -0.8847977 0.31985617 -2.162406 1.0884871 1.4865264 0.313831 -0.93710726 -3.0831695 0.9661164 2.274348 1.0191907 -1.924856 -0.9938545 0.654293 1.0773902 0.20173016 -0.21763538 1.6831774 0.40883183 0.15221459 -1.43398 -0.6990853 2.6017954 3.516176
1909 0.35876837 -0.9477199 0.27180448 -1.8054307 0.56090194 0.50630444 -1.0502181 -0.45067224 0.7769763 1.2418367 -0.3964353 0.31045747 -2.7742605 -1.2252612 -2.5989082 -1.0711471 0.58182895 -1.3540204 2.9471145 -0.037807252 -1.244199 0.038617186 -1.4653372 0.19290656 1.1517624 2.142806 0.6300641 -2.9785357 -1.1187185 2.028759 1.5676206 -0.29853085 -2.755643 1.3652992 -1.5285007 -1.0552365 -0.9624475 -1.6283218 2.129133 -0.39774528 0.40315792 0.25648126 1.6389917 -0.0040689074 -0.83637005 1.0007122 1.2662127 1.3137879 1.0095241 0.20837262 0.9317674 -1.577946 -2.4915898 1.3683859 -1.8745829 1.0671781 0.68922085 0.4915572 -0.8821516 1.611373 0.64318854 -0.79690343 -0.16080093 -2.3790853
31 0.20522234 -0.28265497 -1.2561575 -0.45188534 1.4965632 0.9565878 1.8228447 0.44739962 0.67177516 -2.1526184 -1.2020587 -0.43332964 2.513106 -3.1292448 -0.3094081 1.7809247 -2.8487856 0.40752882 -0.35066977 0.75430965 1.4131907 -3.1512966 0.0060693207 0.5762524 0.21925558 -0.4358817 0.9832316 2.4796925 -1.151514 0.5839687 0.6429183 0.54448867 0.6178443 -0.27415827 2.1810231 -0.0014507304 0.54762465 0.07418985 -1.2372346 -0.86415726 3.1471345 -1.6866857 0.4394845 -2.3716836 1.0229088 -0.1726776 0.64166063 -0.12705232 -0.83066887 -0.13765162 0.2965816 -1.4758354 -0.23488769 -0.2162257 0.3488596 0.8142248 -1.0163012 -1.4806764 -1.2078031 -0.066907234 2.6592762 1.2235693 -1.3873684 -1.0335702
122 0.24873568 -0.72384185 0.1769186 0.42663723 1.3528589 -1.111029 0.38880748 0.72166014 1.7630875 0.022205481 0.37950712 1.0884943 1.9789797 -0.87270033 -0.65343255 2.4869134 -2.5917485 1.4167219 -0.87294436 0.38077804 2.9826465 -3.3323374 -1.2191938 0.09722938 0.8209966 1.1898794 2.1537075 1.9930856 0.2882485 0.47121862 -0.088132724 0.06654472 -0.40164238 1.9722857 2.4264467 -1.0056022 1.4158351 2.280459 -0.8529698 1.5660057 1.7698691 -2.6203184 -0.034036294 -1.9800342 1.1109924 0.7244717 0.6384549 -0.005602629 0.24239522 1.0491093 -0.7428525 1.4459561 -0.3767601 -0.28736648 1.2199332 1.598134 -0.46052918 -1.159853 -1.0764425 -0.5036925 1.2385646 2.0692425 -0.58537537 -0.8207834
1510 1.1420014 0.0034766356 1.3102763 -1.5180897 -1.9406357 -2.941619 -1.2347773 -0.5461166 -0.77919066 1.1889477 -1.7133436 0.06764647 0.16410197 -0.990939 -1.7999686 -2.5135467 1.6440448 -0.052200403 4.299756 0.18089962 -0.3768064 -1.1494322 -0.73069435 -0.3911575 -0.53584915 2.0388696 -1.9894259 -1.7718161 -1.0542969 1.9318413 0.49619982 1.0462344 -0.53135914 1.1256969 -0.5043982 -0.5165185 -3.124573 -0.5646036 1.8419144 -0.022762997 1.0879716 2.5083027 0.30019608 -0.2174745 -3.2384782 1.5880758 0.020519534 0.24195227 -0.24472485 0.5395582 -0.7194271 0.12976527 -1.0964551 1.074149 -1.3680772 0.79028785 1.5874575 -0.727619 1.8132682 0.6767745 0.60193336 -0.12138529 -0.7743642 -0.9701326
0 0.12707156 -3.342036 -0.39597577 1.3344918 -0.72118497 1.854794 -0.1677838 1.1822981 2.416136 0.8467717 0.21454945 1.2413497 3.19348 -1.3716475 -2.484437 1.6277828 -1.9247526 -0.33003244 -0.17413412 0.05468111 1.4964681 -1.0846896 0.31072137 -0.49004108 1.6418854 -0.06277343 1.3751272 3.2766695 0.82114863 1.7159448 -2.8105323 2.0633085 1.2284348 1.2035098 0.86021847 1.6322353 -1.186159 -0.10391703 -2.9031432 -2.4601543 2.7756407 -0.5564518 -0.0023794645 -1.48232 -0.054710217 0.9809093 0.025881274 -0.16375047 0.30899772 1.0642526 -1.8945737 0.50834835 1.1964172 -1.9758397 0.8003366 -0.80570173 -0.86263365 -3.863894 -0.9994737 -1.591828 -0.034573108 0.89144284 -0.55252343 -0.19241326
421 -0.100768544 -0.38069108 -0.73675466 0.88200647 1.1378541 -0.8111499 1.3188301 1.7094699 -0.7944288 0.71352845 1.4720153 1.6927505 0.6036523 -0.44440827 -0.72900647 2.8057735 -2.2067852 2.1882863 -1.5198444 1.0770354 2.523931 -2.315085 -1.1285254 0.22941512 -0.4910126 1.0960805 1.9190557 2.0688522 -0.31807747 -1.0957581 -0.15283464 0.98887014 1.1370119 2.3656096 1.086867 1.2198955 0.23800386 0.4952355 -2.3434575 -1.4424506 2.341425 -2.294861 -0.75025654 -1.1758589 0.044303417 0.36060157 0.76030606 -0.6229641 0.5019681 -0.99286807 0.3282671 -0.5739055 -0.8019945 -1.7963988 0.55754095 0.42430162 -1.5136466 -1.9790332 -1.2580855 -0.7336883 1.8374594 -0.30411297 -1.6440248 -1.2387277
716 -1.6264305 0.96702677 1.4703947 0.7876333 -1.4612323 1.9010978 0.7643511 0.70267266 -0.6719929 -0.9205117 -0.23239456 0.5353629 -0.6031772 0.34737334 3.2601004 -2.1358645 -0.83342755 1.0354152 -0.641987 -0.20376253 -0.6309314 1.2834967 0.18087617 1.1852164 -1.58075 1.6074281 0.29248178 0.4762064 -0.17269512 -1.8856776 -2.0044894 -1.4080541 0.17484777 -0.95465803 0.7992941 2.0762596 -0.08852585 -1.6023291 -0.5398611 -0.7713549 -0.78502756 1.3126317 -1.0873559 2.0862665 1.3066086 -0.08036182 -0.33611155 -1.8720895 1.1643872 0.30972236 0.5315462 0.45772415 -0.8475421 1.3705105 -0.63840157 1.0574316 0.8641588 1.0005189 0.44171795 -2.1712477 -0.94540125 -0.314453 2.195904 4.781426
1476 1.4253808 0.97852504 -1.8351606 -0.9322944 0.68890774 -1.6718457 2.077312 -1.404194 2.7341287 -0.83609533 0.51790154 -0.112671025 -0.4159275 1.9779416 0.70104396 -0.89223963 1.9809223 -0.3281488 -1.0604495 -1.0839822 -0.8128633 2.040054 0.11207717 -0.7765923 -0.08086342 -4.483205 -0.24619062 -1.4262795 -0.5947042 -0.75019604 1.0604401 -0.7335487 0.56390727 -2.2106142 -1.3705393 -0.036087967 1.4848074 0.27798352 -2.0126643 -0.43796727 -1.1028676 0.5555629 -0.7554956 2.1068428 0.3656977 1.3083906 0.78671 1.735562 -0.066909045 -1.0782801 -0.972239 2.2166295 0.9678357 -0.84887433 1.2904917 -1.7036417 -0.004745896 -0.489003 0.28982323 -0.5552298 0.20600432 0.113166206 -1.0148054 -2.2864048
1173 0.6671793 1.1416457 -2.9528515 -0.8131589 0.83617383 -2.0345314 0.3846876 -0.33249074 2.389152 -0.43996015 0.053865783 -2.7100048 -1.0986598 2.6765835 0.2589586 0.316801 2.5992358 0.45501572 -3.2204442 0.7006443 -1.3760691 0.9239002 1.0486056 0.62176067 0.029033715 -1.890592 -0.86411256 -0.7721734 -1.0027022 -0.6915716 0.15511942 1.4675025 -0.0551197 -2.5367799 -1.1593888 -1.5550408 0.81417936 0.119117334 -2.412744 -0.79931396 -1.6071712 0.78470516 0.55870694 1.0409538 1.1313318 -0.22911671 0.6529378 0.5196377 -0.768947 0.56875384 -1.1049644 1.5617025 2.181745 -0.40930644 -0.47533754 -0.6475601 0.4103966 0.3775542 0.7555668 0.5589208 -1.7303668 0.05453539 -2.5964348 -0.4864333
321 -0.8705931 -0.6624281 -0.94359636 0.29438534 2.0217183 1.1381441 1.0511372 -0.14686713 0.30332613 1.2233127 1.2509961 0.99082154 2.0081785 -1.1234876 -0.7600549 0.6059949 -3.8748825 0.34658778 -1.7955382 0.25986192 1.2019365 -2.3035102 0.9278921 0.36423874 -0.7764624 -0.011351936 0.5166398 1.5904267 1.7716869 -0.22796844 -2.00526 1.5341264 0.7920262 0.5575366 0.9828583 0.1505757 -0.56905025 0.70816064 -2.3065856 0.07578774 3.1626735 -0.3151276 0.96295404 -1.8329924 0.5927854 -1.1859632 0.40302423 0.40408352 1.4807203 -1.8924109 0.5353679 0.49296793 -0.6574074 -0.63431764 -0.63123834 0.47309422 -0.7837078 -2.7793143 -1.3256223 0.7776825 3.157399 1.8410187 -1.272942 -1.5284935
1837 -0.2525578 -2.1370046 -0.40829808 -0.65487325 -0.14247179 -1.1327502 -1.0700395 -0.4772942 -1.9126656 1.2255607 0.9459189 0.27111563 0.056897327 -1.8602723 -3.4365215 -2.9239514 1.0833135 -1.0835972 4.076597 0.057918914 -1.3560544 -0.40054718 -0.7159508 -0.577584 -0.023371875 0.61780185 0.721459 -2.2649195 0.6262396 0.6353131 1.6699618 0.14756352 -1.4275285 0.20651735 -0.1896225 -1.1211601 -2.7624602 -0.37095666 1.3459556 -0.29262683 0.922598 3.1088698 1.6541173 -0.22398731 -2.1211624 0.7536364 2.5589552 1.7051055 1.2785424 -0.43526572 0.4932668 -2.1394258 -0.08095277 0.29709142 -0.6395916 0.3189335 1.182901 -0.11360131 0.31458688 -1.0444994 -0.7968028 -0.7562412 -2.0366998 1.0249457
766 -1.5326692 -1.2037364 0.45752105 0.157986 -0.41825408 3.0012789 1.9014554 1.2320008 0.62698734 -1.4965918 -0.16032328 -0.77677816 0.17043275 1.145678 0.4493801 -1.3893526 -3.1528018 0.3771542 -0.46006504 -0.972605 -0.8834993 0.24439222 -0.5699151 2.0295331 0.032384314 0.7328432 -0.596846 1.0845214 0.95953727 -2.942045 0.08426005 -1.7803066 -0.5515016 -1.9974967 0.4823402 1.2503407 -1.1787156 -1.6939731 0.8567544 0.13538891 -2.5146568 1.3558253 -0.9423397 1.2967812 1.2508614 -0.68757313 -2.1974814 -2.9786108 1.8243287 2.0157604 0.68346727 -0.7833761 0.2981391 2.133847 1.0230255 0.11675769 0.64619374 1.0604482 -0.5691065 -0.5969444 -1.8517749 0.60023385 1.6849523 2.3638022
653 -1.5277026 0.6121629 0.6999154 0.66826624 0.21298163 1.1805772 0.22604203 1.0368927 1.1807495 -0.4426437 -1.4842073 -0.56420106 -0.682539 -0.21541083 1.3410989 -0.08175443 -2.3440318 0.34165096 0.09396765 1.6011786 -1.6650987 1.8630849 -0.4931305 1.1793691 1.1192659 0.22423027 -0.26732305 2.253022 0.82495165 -1.7398641 -0.5332049 -2.372046 0.52602637 2.11832 -0.040868245 2.0663471 0.48259857 -1.4030279 0.30924702 1.1823006 0.011117462 2.138307 -2.5330226 1.1465825 0.48993596 -0.85731 -1.6778111 -2.138741 1.4934278 0.16082291 -0.4676052 0.55601275 -1.7833205 0.5584461 -0.15774804 0.26414716 0.044278264 2.104896 0.18327749 -0.24388926 -2.5933626 -1.9246004 2.3314211 3.524746
738 -0.7767648 -0.018968021 1.2591383 1.3379277 -1.9682773 2.5959122 0.7501456 0.20992114 -1.2366732 0.5955757 -3.4174626 -0.5964636 0.22071697 0.75402963 2.3488548 -0.7120321 -2.2808406 0.92908823 0.048574645 0.19865745 -0.93490386 0.97704047 0.9279453 2.5250633 -0.114377424 0.66936666 -0.40595713 0.45320576 0.86999714 -0.9392373 -1.4829589 -1.2492895 0.25295082 -1.3158901 -0.6147475 2.2833605 -1.1703051 -1.5795153 0.9524592 1.1893148 -0.9798852 1.9568504 -2.6065378 -0.09069958 2.7865033 -0.114898175 -2.317134 -1.8539621 0.021350082 0.45589796 -0.28855684 1.1920274 0.07377151 0.57918847 0.12685423 -0.71221393 1.2622508 0.6308775 -0.406094 -0.42022824 0.59342384 -0.9705091 1.2950993 3.2907393
1009 -0.16378939 0.4918395 -0.25032362 0.24081193 1.5407463 -2.0635777 0.121731736 -3.4961236 1.2266005 -1.3458972 1.1547444 -0.8154147 -0.0580999 2.5844667 0.54875684 0.3040541 1.5782542 -0.9161464 -2.7904456 0.5912516 0.7358485 0.9257964 1.1701174 -0.8254339 -0.7802384 -4.4184685 -0.37763834 0.63338 -1.3037832 0.6081891 -0.94182473 0.81641614 1.3619949 -1.20323 -2.8775156 -0.7792046 0.66328347 0.6287829 -0.7642658 -0.15977967 -1.4338019 2.4940507 0.5519895 1.4262515 0.7578713 0.55247235 0.20100996 0.24345979 -1.2895087 -0.054530695 -0.90965205 1.3379997 0.95428574 -1.2191272 0.4751629 -1.529561 -1.7973315 0.84093785 1.3568525 1.335095 -1.3297678 -0.99779695 -1.4847207 -2.3382432
209 -0.40082273 -0.52393717 -0.14879923 -0.39554402 0.93019927 -1.5646448 0.70458496 0.35529682 0.6813903 -0.79291636 -2.008173 0.009591711 1.8797497 -1.9072475 -1.543196 3.6076047 -4.17624 1.1718277 -0.5207983 0.79356056 3.2923117 -1.7466571 0.43972412 -1.1534644 0.47182408 -0.8539792 1.302021 1.5111015 0.16601093 0.82606024 -1.1011074 0.012152622 0.9025791 1.0196484 1.5498912 0.26293093 -0.05508971 1.3406401 -1.2508516 -0.9259974 1.9222522 -2.8486521 2.0525143 -1.9316427 -0.024162296 -1.2192328 -0.18603677 0.38874564 -0.10378038 -0.45503607 -0.0936601 -1.4103118 -0.4359828 0.25627893 -0.33435112 1.1340673 -1.5544286 -0.3165017 -0.23878638 -0.3558972 2.0728126 0.243973 -0.38527083 -1.4229655
280 -0.7720092 0.45114386 0.2569436 -0.8418774 1.8520277 0.29556268 0.40921924 -0.054558188 1.1286397 -0.8550465 1.2766515 -0.39930955 1.1148545 -0.94553965 0.008846637 2.9172738 -1.7835569 0.41147056 0.06383043 1.4411728 2.5107737 -1.9002277 -0.36353096 0.038938507 1.2320547 -1.3529003 1.4142965 3.113097 2.576415 1.1868733 -0.88710934 0.9588719 1.0218753 1.3942162 2.6934936 0.42232943 -0.823967 0.92327416 -0.30065402 -1.8561614 3.547247 -2.3415499 2.3977425 -1.3749557 -1.0457339 -0.2631087 -0.10232285 1.6573397 1.4955245 -0.37236086 -0.7822869 -1.2043451 -0.6399189 -0.59833276 1.5315713 0.16172062 -0.2110994 -2.2572088 -0.4067361 -0.40709257 0.5132904 1.9209275 -1.1915812 -0.17813034
1932 0.252951 -0.18887554 -0.17115125 -0.7568228 0.5507501 -1.1674124 -0.84828734 -0.36948714 -1.8072203 1.0690506 0.06736885 -0.33811438 -0.7206086 -0.21182531 -1.9385359 -2.2075312 0.6165525 -0.15627155 3.458925 0.6505506 1.1869133 0.31165564 -1.9698583 -0.024894346 -0.75527483 3.1113899 -0.3574011 -2.5895355 -1.006899 0.6131889 1.1855255 -0.011188781 -1.9165984 -1.257689 0.32380185 -0.84259146 -2.5529 -0.68482614 1.7602441 -0.75095284 0.15726611 0.23421602 1.9115797 -1.184125 -1.4645791 0.6366055 -0.70061094 1.4173856 0.15734446 -0.5316101 0.397259 -0.77070814 -2.5929322 -0.007044936 -2.7841852 1.6305926 1.4028682 2.029051 1.1686045 0.03415482 -0.9325041 -0.75981694 -1.8239249 -1.2818161
1033 0.5825079 2.361036 -0.75714886 0.5981962 1.5700332 -0.8383847 1.6698972 -1.9764735 1.3731222 -1.0426844 3.2512386 -1.3897766 1.7621261 2.2937105 0.5035436 0.35084453 1.6715002 0.0026116017 -1.3644372 1.5652722 -0.80109006 2.3088644 1.8801473 -1.1920516 -0.07292443 -1.9266553 -0.46358922 -1.4533014 -0.9994101 -0.5171156 -0.8078928 -0.92211634 -1.1754086 -1.9652592 -1.5910827 -1.4193101 1.9326515 1.764669 -0.27920902 1.1804038 -2.314362 0.34200263 0.35685578 0.52027404 0.58308744 -1.2455498 1.6331693 0.7991356 -0.924453 -1.4254079 0.29851693 1.6810001 1.9127642 -1.4560758 0.1568961 -2.6181781 1.040635 -0.121020265 -0.12857297 1.5671667 1.125016 -1.7953836 -1.8263228 -1.2319417
1005 1.76185 0.76691896 -2.22351 -0.16192785 1.6281633 -0.7396876 1.6744394 -2.2889426 1.4634957 -1.783529 -0.34425214 -0.20150469 -0.7479171 2.6469657 1.2097472 -0.5355355 2.0192585 -0.49392205 -1.1123745 -0.8616795 -1.6094683 1.2718384 1.1791446 -0.4302154 1.1106783 -2.2172816 -0.85595286 -0.43369845 -2.4922645 0.5614976 -0.12751438 -1.0853478 0.03977576 -0.7473143 -1.7724903 -2.2250566 0.98852307 0.1567849 -1.7655896 -0.98193955 -1.7168385 -1.512364 -0.4326388 1.3818921 0.26250708 -0.6810149 1.4632971 -0.6984387 -1.5618466 -1.4657294 0.024290279 0.70611155 1.8444662 -2.9806018 2.217548 -1.5359726 -0.43096745 1.9724663 1.1439071 0.75379306 -1.2047701 1.6790726 -1.8485444 -2.0980875
1944 0.24008876 0.26137945 -1.0236255 -1.1222416 -0.6312862 -0.39148992 -0.9902467 -0.59463835 -2.1596062 0.3314291 0.86660326 1.5694233 -1.8990781 -1.0335666 -1.6927735 0.85028297 2.0377517 -1.0636528 2.8092988 0.87234837 0.7434091 0.39152515 -2.1816337 -1.2992084 -1.1523653 0.35784236 -0.22810037 -3.2616596 -1.423435 1.062338 0.8598795 0.9719455 -2.1210713 -0.63714904 -1.5423807 -0.59292454 -3.4839857 -0.75087535 2.1480927 0.9044734 1.5200248 1.0311818 0.4007306 -0.041851327 -2.759954 1.7884492 0.48714814 1.9626088 2.634334 0.7806218 0.81856793 -0.045023173 -1.2397482 1.8778542 -1.646734 1.3566573 0.094413534 0.6138185 1.3158166 0.40048173 1.2839297 0.15668449 0.52707607 -0.48573315
376 -0.0454723 -1.5141643 0.6272575 -1.7366599 0.4038398 -0.17197189 0.31231803 1.9620152 2.398511 -0.75047696 0.014951264 0.132748 2.6197329 -0.751682 -0.5836141 1.0782049 -0.16110636 0.33603758 -1.5443373 0.09128559 2.0399756 -2.8859606 -0.106069826 -1.8528712 0.1458252 1.0184268 1.4222345 2.4767845 1.536244 -0.021393443 0.21459995 -0.39555433 1.521855 1.5449566 1.498392 -0.18109705 0.78841037 1.5382645 -2.68124 -0.76697403 3.240361 -1.822955 0.47366634 -1.7920506 -0.89552695 -0.6920112 0.20129615 -0.12693423 1.6788676 -0.09086088 -0.6155523 -0.1281034 -2.2992442 0.7153678 -0.06144774 0.80967355 -0.9264887 -1.718669 -0.8968223 -0.040285256 2.5310936 2.8817015 -0.6972995 0.29622012
425 -0.10321786 -0.08843113 -0.5434976 0.49970612 1.9151585 0.9945246 0.4260281 0.51092416 -0.0078096683 0.13612355 -1.2415217 -0.16237484 0.47255528 -1.1289043 -0.24554986 2.387809 -3.270941 1.5526903 -0.9259529 0.16712935 1.9495684 -1.4024091 1.8621283 -0.9650532 -0.26418173 -0.17289792 2.0096438 1.2826216 1.1579903 1.45257 -1.2062052 2.341248 -0.15755603 1.4016786 -0.8401339 -0.06894336 0.22470611 1.2424545 -0.31920496 -0.7446771 3.5560372 -3.1161757 1.0361185 -2.024588 -2.013244 -0.87394816 -0.3256057 -0.7080948 -0.58277667 -1.2705889 -0.69292927 -0.36620143 0.09722198 -0.76426303 1.3743805 1.8613634 -1.3512036 -0.74612904 -0.95612746 0.086653665 2.5261261 1.3969628 -0.99973905 0.5435141
1316 0.80973047 1.6540977 -1.1734241 -0.6673716 1.1650573 -1.5523584 -1.638368 -2.3433244 2.093164 -2.1153462 0.42015433 -1.0053742 -0.90969205 1.5549842 0.15986735 -0.645257 1.0915297 0.05456651 -2.359212 1.5001746 0.34579015 1.6423285 1.8948652 0.65127075 0.43407056 -1.8760265 -0.52679753 -0.10524024 0.006580632 -0.5226031 1.408208 -0.87705135 0.7085062 -1.1205524 -2.306855 -0.58503205 2.1841645 1.2816684 -2.1382778 1.2489897 -2.2162232 0.24734329 1.5351585 1.4575313 0.63158256 1.0630368 1.5293492 0.6616067 -1.5436858 -0.7716108 -1.7678701 1.1350123 1.2890612 -1.8177886 0.38198063 -2.389847 0.26851386 0.22999424 1.409865 1.012486 0.44064662 -1.202662 0.030667363 -1.9757545
429 -0.18929274 0.48328856 -0.6150495 0.4649042 2.542047 0.67414445 0.8103712 2.691203 -0.034425367 -1.4448968 1.79794 1.0681732 0.90092826 -1.1884786 -0.46967757 2.0049884 -1.5675622 1.2657148 -0.5862085 -0.37894976 2.731308 -1.7966496 2.166667 0.45378053 1.8643203 2.1866817 1.4520167 2.451278 0.9406933 -0.72106856 -1.3609165 0.8507482 0.39183575 0.11345136 1.8356156 -0.6826207 0.34060845 0.5173207 -0.6611998 -0.44866037 2.4641445 -1.9062675 0.7387103 -2.104737 -0.2655091 0.27752715 0.31895483 -1.3342574 0.8392528 -0.948405 -0.172438 -0.80308485 -0.3158526 -0.09913005 1.161997 0.70121175 -0.94251806 -0.9632581 -1.5122613 0.47137773 2.1531534 1.3710217 -1.3464532 -1.630968
1140 2.3890529 1.5208238 -1.5660044 -0.3273135 -0.11710635 -0.7642418 -0.33414233 -2.177787 1.6490463 -1.0828393 0.80078584 -0.88614404 -0.5472796 3.3498564 3.1346967 -0.22633824 2.4672117 -0.57665163 0.5907816 0.5378342 -0.052064598 0.9901321 1.9947915 -0.6297538 0.48174798 -2.3485544 0.5158653 -1.0671093 -0.1658806 0.36659744 -0.9963809 -1.2802877 1.3240937 -1.3787076 -1.3248978 -0.68660414 1.485838 1.3286445 -1.637292 -1.6032958 -2.2587204 0.28984225 0.7714034 -0.20048474 0.13785774 0.5504059 1.2912533 0.35056958 -2.3345466 0.1448425 0.5462765 1.081029 1.4324383 -0.76465774 0.7489285 -3.499776 -0.111475 -1.3949265 0.29537103 0.39230317 -1.380253 0.2663307 -2.431137 -2.4265764
1875 -0.24605224 -1.3826132 0.1679571 -0.27267456 0.113612205 0.5399903 -2.3496737 2.3165298 -1.6625912 2.0593688 -0.31442505 0.4769242 0.19747746 -1.8656888 -2.8181705 -2.316414 0.77545404 -0.88782597 1.686358 -0.3312338 -0.68822724 0.6754343 -0.9572739 -0.75446475 -0.75950444 0.48050907 -0.7939693 -2.2915962 -1.9867371 1.2496889 3.5371532 0.98909056 -1.6412725 0.12948662 -0.9358493 -1.4705542 -0.6056668 0.4782879 2.5980182 0.15873188 -0.08394512 0.2925783 2.136873 -1.4754393 -1.1851223 2.2580066 1.9962549 -0.2509056 1.0791365 0.0016512161 -0.5724253 -0.50412714 -2.241729 1.4721859 -1.2205049 -0.40125042 1.375497 1.4176493 1.6178862 1.7052519 0.59180164 -0.17852876 1.1088465 -0.7765047
713 -1.7629745 0.4738693 -0.35385603 -0.2498038 -1.1241157 3.2399096 -0.049431995 1.5920855 -0.34311587 -0.7253905 -2.099388 -0.4891484 -0.4180869 0.5028013 2.315016 0.88176966 -2.158175 2.2786806 0.95950973 -0.3738027 -0.7200822 0.57560235 0.38066426 1.3005112 -1.2956084 0.41096812 -1.2977715 0.2578903 1.8906087 -0.8074507 -0.9613957 -2.2037165 -0.03847193 0.018183762 -0.108724 0.27370036 -0.015559588 -2.3624752 0.075033754 -0.98045313 -1.0985968 1.2560809 -1.7772737 1.7003015 0.046081066 -1.5223103 -0.5733371 -1.7338451 1.6280515 -0.037535634 0.9624189 -0.24550281 0.34992573 0.6793953 0.6714581 0.3099425 0.8439916 0.6952335 -0.65637 -0.9427095 -1.3247113 -3.4404843 2.293846 3.4555278
442 1.1859772 0.13152853 0.28994355 -1.0431291 1.0088018 0.78753597 0.54543775 1.1077515 0.3930333 -0.21303193 -0.53128093 0.74650186 2.3795345 -0.9199447 -0.9666469 1.6835911 -1.8346742 -0.5097156 0.19441485 0.48013163 2.809874 -0.89995927 -0.27398157 1.3126788 2.1751578 0.8596414 2.6558313 0.57453233 -0.89092577 -2.0273511 -2.103603 0.387542 1.8150228 2.8866642 2.0419366 0.13434635 1.8863918 1.4748975 -1.3984888 -0.639855 2.0431697 -3.4565263 0.011016908 -0.5898118 0.43685997 -0.3585774 -0.16467586 0.19304661 -0.8457773 0.4977006 0.30006355 0.47977614 -1.7964351 -0.04578259 -0.39402258 0.53033364 -0.7130935 -1.7260046 -1.733679 -0.7643498 3.6589298 2.225442 -0.99038213 -1.3104678
1108 0.1167011 1.5236896 -1.3937066 -0.36265445 1.4860928 -0.57630455 -0.51033336 -0.065499544 1.4605145 -0.92483175 1.5427628 -2.5368896 -1.8395615 2.6855652 0.78475916 -0.21172816 2.5480018 0.4953297 -3.0232415 0.4971569 0.4141236 2.7563705 1.1627393 -0.47595987 0.19167556 -2.5675364 -1.3207141 0.10024899 -1.438793 0.51470864 1.3463659 1.3771968 -1.4352447 -1.5956386 -0.73067933 -2.511438 1.4827938 0.9385701 -1.3827156 -0.25468665 -0.15842101 -0.7340985 0.8946604 1.1813111 1.0426508 -0.7842856 1.2865249 -0.3349156 -1.5898926 0.48817912 0.011165157 3.1687677 1.0399438 -0.8688259 0.57996845 -1.8536502 -0.4382162 0.16183726 -0.1785631 0.080269076 -1.6904731 0.029373704 -1.7728798 -0.29442003
1528 0.8731848 -1.2492459 -0.7649362 -1.4023399 -1.1999248 -0.119139984 -1.011293 0.39027223 -2.2482522 1.9976217 -1.20932 0.862219 -2.0489008 -0.47726893 -1.6500803 -2.631297 1.6717623 -2.1349485 1.9734942 0.07562979 0.005541546 -0.8475596 -1.5095063 -0.010855138 -0.30577198 2.0780523 0.04059145 -1.3225263 -0.2734866 0.34970915 1.9009376 0.65320843 -1.2841071 1.4953758 -0.6441094 -0.9368226 -2.430881 1.4876409 1.4729283 -0.26725975 -0.053123742 0.72795784 1.5313272 -0.9515207 -1.7021176 0.12751544 -0.3647155 -0.18072452 0.91687804 -0.19791013 0.81776327 -0.30709937 -2.428733 0.1988594 -2.4510422 -0.56625104 2.6011972 -0.50799 0.53772753 1.434781 -0.1163284 -0.6447405 -0.4250807 -1.7143636
636 -0.23033702 -0.42652294 1.7413039 0.5253779 0.72267056 2.00411 -0.5395369 -1.6025174 -0.42943048 0.57472813 -1.930942 1.2525408 0.15629928 1.7237579 1.6778831 -0.02181875 -4.141603 -0.04687052 0.5828139 0.5947956 -1.925448 1.8299979 1.7588538 -0.034611415 0.6033624 0.7981009 0.05974376 -1.6030908 1.5628933 -1.7021374 -0.5203847 -2.0830123 -0.68538606 -0.9134007 -0.5330227 1.5520508 -0.7890291 -0.58755213 0.8534769 1.9597523 -0.60835814 -0.18615916 -2.0783403 0.80145335 1.9189777 0.62426716 -2.8849013 -1.9151906 1.0911709 0.98642224 -0.25441602 0.41511333 0.054567236 0.8975517 0.95556533 1.088868 1.022787 -1.6176821 0.042885445 -0.79350644 -1.7532122 -1.1342902 2.304927 4.0638723
1214 0.9730685 1.6415911 -2.3050854 -0.36825466 1.2708377 0.06325473 1.912111 -1.2022401 2.6514776 -1.3044283 1.5025687 -1.3592567 -0.6123054 3.1311312 -0.51276225 -1.4136319 1.7927582 -0.047244124 -1.1212821 -0.2537181 -0.6965819 2.7943141 0.89861983 -1.836407 -0.124477886 -1.5221747 0.53013355 -0.60348755 -0.4267737 0.5013733 0.64161044 -3.1320927 -0.84649265 -1.0385606 -2.1198552 -0.46666625 1.265526 1.4860862 -1.7882175 0.3505395 -1.0084792 -0.2710803 0.6555829 -0.31115612 2.0371723 1.282963 -1.7491932 1.5322407 -3.611368 -0.47377652 -1.4894143 1.1989778 1.0731511 -0.08095381 0.2195206 -2.1015394 -0.9428626 0.68056583 -0.25941387 -0.19371247 -1.6995276 1.2963903 -1.4150168 -1.5784374
684 -2.0715866 -1.4582872 0.8301575 1.4266493 -0.65648264 0.10664678 0.96575946 -1.3533313 -0.4819776 -0.5750289 -2.5578654 0.31831044 -0.7885275 1.2447072 1.92795 -0.88265616 -1.7512076 1.4166259 1.1277153 0.63632184 -1.0856895 1.4183753 -1.1541852 1.5253345 0.22070134 -0.4110721 -0.18144235 1.5420482 0.40928918 -0.87539715 -1.1116819 -1.4800017 1.2694292 -0.60150945 1.080223 1.2456551 0.1529597 -1.7117869 0.5160873 0.22250056 -1.6932522 -0.8934326 -0.4680965 0.8905112 0.9747592 -1.6918356 -1.8912492 -0.51206076 1.4408773 0.4755172 1.8793749 0.14424373 0.46874303 1.2356856 0.74951977 0.66473585 0.40696308 1.3672029 0.022479685 0.25825942 -1.692956 -0.801524 2.9798598 4.753828
1374 1.2778842 1.6269021 -4.4734364 0.005368014 0.39634115 -1.241194 0.9966041 -1.6995661 1.8354908 -0.5275232 -0.35605407 0.51220226 -1.7008994 0.96555895 -0.52424717 1.2731684 1.1829745 0.2721335 -2.2666955 0.31248006 -0.45928678 1.1724466 1.5048705 -1.6462322 -0.7011295 -2.2341046 -0.37497577 -0.47481632 -0.73314893 -0.0673112 -0.05202378 -0.56502753 -0.41730168 -2.0474954 -1.5501145 -1.1243832 0.9801263 2.0832672 -1.02439 -2.1722817 -2.3351338 0.8520656 -0.022773365 3.3916636 1.2310191 -1.3243223 0.0760457 -0.33623934 -1.9435532 -1.1121311 0.6240684 1.1975696 -0.363691 -0.3648521 1.6388903 -1.857323 -0.23436737 1.589126 -0.892697 0.4991318 -1.0115701 -0.030025903 -1.254639 -2.4224234
1460 0.32541382 1.8291569 -1.1643716 -0.13183422 2.0943434 -1.6746273 -0.7410937 -2.0058393 1.83308 0.029005112 1.1266313 -0.8093823 -0.58237445 1.3626822 -0.38999414 -0.834841 2.6416576 -1.08366 -1.1458354 -1.0604868 -0.32799602 1.5266719 1.3718823 -2.9310956 -0.5066672 -3.1999314 -1.4243475 0.8283891 0.2330806 -0.41805878 -0.74756753 0.9847947 1.2817762 -1.5909451 -1.7495354 -0.9764564 0.63196146 1.6445037 -1.9458718 1.1500831 -2.2988298 1.2653898 0.2805433 1.393632 0.20947795 2.0943005 -0.4802617 0.20274238 -3.2105064 0.38898015 -0.44219476 2.48061 1.302317 1.3756931 1.0424951 -0.84743476 0.14000471 -1.014836 -0.7025019 0.7339769 -0.28289518 0.3872114 -2.061407 -0.361071
1514 2.1031575 -1.0681682 0.006009047 -1.9296328 0.65128976 -0.26245028 0.3422981 0.1888651 -1.1144328 2.671035 -0.50737476 1.6663505 -0.39374855 -1.5156598 -0.770005 -2.4679234 0.6621291 -0.8231931 3.182572 0.68929213 1.6774116 0.83658236 -2.8145237 0.36982292 0.43949133 0.6040249 -1.5168209 -2.1552193 -1.348734 2.0535095 1.7323501 0.26135206 -1.3938915 0.121957935 -0.57501876 -1.2590798 -2.2236428 -1.5255746 2.2605855 0.64079237 0.29305905 1.4196123 1.5862342 -0.55529076 -3.3546224 -0.34035712 0.5942439 0.124276966 -0.57756317 -0.47335646 0.66860723 -0.6207439 0.15837917 1.9993767 -1.7226038 1.1035101 -0.13226986 0.69241565 0.74488306 1.0811502 -0.7384339 0.33224753 0.1003633 -2.1043243
1732 0.45970318 -0.79868615 1.2757847 -0.7062775 -0.113210104 -0.14655842 -1.2582481 -0.9030006 -1.734927 0.24345872 -0.44706604 0.76611906 -1.0485046 -1.3847443 -2.9040055 -1.8328214 1.510135 -1.7421553 3.9761143 0.23036954 -0.7423956 -0.7555291 -0.65537876 -0.36703938 -0.15962337 1.5572866 -0.27782962 -2.5071719 -0.43230304 1.3174664 0.36394313 2.4734597 -1.8196987 -0.0041882084 -1.116157 -0.69299185 -1.4946642 -0.55560833 1.7249618 -0.8395325 0.5727983 -0.09808599 0.42741993 -1.6697856 -1.1487387 0.5563749 1.3931834 0.13145219 1.9632022 -0.15684271 -0.72802085 -1.3845577 -1.0975921 1.4887482 -1.0617172 -0.5507505 1.1249387 1.5899464 0.8467045 3.3752382 -1.2288433 -0.37012354 0.5885511 -1.8257995
375 0.12027576 -0.37791756 -0.50921106 -1.0832663 0.12082743 0.5144947 0.71911293 0.07164885 -1.4333745 -1.2516879 0.052886147 -0.054278765 2.7003314 -0.35346216 -0.6919455 2.1327255 -3.347182 1.5028287 -0.62919647 1.1898266 2.5302284 -2.8025956 0.4239552 1.7966001 1.0488795 0.39724243 0.41310766 2.4140072 0.022464016 1.5181693 -1.9077632 2.0919707 0.7552069 1.8795278 -0.49997622 0.47934848 1.6698363 2.4323149 -1.0479933 -0.54604185 2.1625593 -2.532086 1.0147734 -0.7688817 -0.067189746 0.38764313 0.47586453 0.9506983 0.8616393 -0.7372464 -1.1413219 -0.2767828 -1.093747 0.24446826 0.64409804 1.5979208 -1.4741285 -0.87140787 -1.1333423 1.2592587 1.9977022 1.3356931 -0.9867383 -0.6027071
1077 1.1289407 0.34649763 -2.2762313 -2.0802102 -0.5241008 -0.3798499 -0.8522619 -0.4041269 1.6313552 -0.9176098 1.2586286 -0.1988656 -0.51747364 2.8260741 -0.9578712 0.56724906 2.4088662 -1.2202568 -2.300176 -0.5244085 -0.114739336 0.39592898 1.7991747 -0.6606725 -1.3530223 -2.1121266 -1.0047449 -0.7564082 -0.467819 0.6855965 1.1593817 0.09908874 0.94126356 -0.75861573 -1.9039212 -0.6052896 1.3317354 1.7327242 -1.7232285 0.21905999 -2.258124 -0.82625574 -0.73620206 2.7344866 2.0655646 1.8745829 -0.11402715 0.15434678 -1.8014954 -0.8272019 -1.2662624 2.229712 1.8767016 0.27126518 2.034911 -1.1761445 1.231058 0.76874226 0.5311519 1.8272568 -0.28921443 -0.32247764 -0.99813914 -0.91046333
1968 1.2100763 -0.2500618 -0.34777 -0.58031327 -0.21804494 -2.5237408 -0.86142516 -0.8282495 -2.4607449 1.9081551 -0.012700714 -0.55097824 -1.0831769 0.2506027 -2.8360057 -0.57763606 1.5196052 -1.6680896 2.410868 -0.9023214 -1.2575084 -1.3972894 -1.6799104 -0.20043568 -0.68921256 2.0821285 -0.42941165 -1.0490471 0.06347188 0.5372339 2.3821473 1.1378043 -4.028716 -0.50397974 0.105584666 0.55946064 -1.1266693 -1.4368215 2.645025 -0.9755586 0.44336164 1.3634841 -0.23101473 -0.42764708 -2.7958763 1.066634 0.21675798 1.64933 0.7559492 0.07524119 0.8548769 -1.5010823 -2.2295954 0.026245987 -1.6604403 0.56708854 1.3459014 0.26135015 1.3145043 1.0395178 1.487847 -0.49321228 -0.07824622 -0.70306575
84 0.30320868 0.5613358 -1.0745617 -1.7561096 0.6435231 -0.6601995 -0.028912097 2.113885 -0.027355973 -0.7358408 -2.0148678 0.72620183 2.3381631 -1.2952183 0.025162527 1.9783953 -3.5159135 -0.5509529 -0.38439542 -0.3709977 2.592965 -2.6965337 -0.05445447 -0.15811248 1.220734 0.33298734 1.3340575 2.3245614 0.8706453 1.3791263 0.409321 1.2035859 0.36897737 2.048668 1.5543163 0.5952195 1.0253562 0.46231338 -0.7049818 -1.3035655 1.1218 -3.8489356 -0.13459629 -1.2042953 -0.076610334 0.37179968 -1.1594932 1.6035229 -1.8878751 -0.73895043 -0.9208871 -0.59271926 -0.36770606 -1.7103809 1.0514964 2.3241234 -1.3703799 -0.58501357 0.11929446 1.0024638 2.1440063 0.63840234 -1.0493969 0.07575316
157 0.6253686 -0.20578285 -0.63680226 -0.092512116 1.4908508 -0.15326977 0.23094903 1.6827673 0.42544073 -0.828536 0.14749803 -0.17271402 2.8817453 -0.9623978 -1.2458719 3.4853518 -2.696275 1.6052125 -0.4853777 0.318125 1.5936316 -2.2790332 1.0927293 0.8926208 -0.020048946 -0.042459223 -0.15333688 1.7392129 0.99555844 0.58151436 0.601515 0.5869602 1.4531595 0.9954035 1.414273 -0.4449111 -0.38396102 1.929214 -2.4715533 -0.5588836 2.7679055 -0.9354687 -0.43439367 -1.6427852 -1.2813259 -0.1534264 0.28355193 0.6479065 2.4398773 0.7318966 -0.28347975 0.86854744 0.24003857 -1.6752465 0.41332957 1.1783894 -0.60267633 -0.97330564 0.004481927 0.45581785 3.0648022 1.8245438 0.39690506 -0.31811208
1619 2.323732 0.189629 -0.7538374 -0.5758076 -0.70940286 0.56307524 -1.5225523 0.90331346 -2.935564 0.9216073 -0.58581203 0.34546474 -1.5108218 0.8046263 -2.8860083 -0.68377876 0.939161 0.58341783 2.6814053 0.1182198 0.10417775 -0.11795037 -1.8657416 -0.855128 -1.8811431 2.65005 -1.3449141 -2.374624 -1.0715137 -0.9956858 2.7267177 -0.9743121 -1.4315634 0.24453811 0.069086395 -1.0196805 -0.92930716 0.44295633 2.274365 0.41552708 0.872315 1.0053575 1.6656454 -0.74841964 -1.5404199 0.48969513 1.6495368 0.118697554 0.68553895 1.5378722 -1.1879814 -0.27210462 -1.4643497 1.4953645 -3.259259 0.84529585 0.7799736 -0.055177465 0.52229637 0.858932 -0.1328076 0.113955386 -0.090286605 -1.705464
530 -2.2747538 0.7431576 1.8973361 -0.41320357 -0.5477005 1.5686188 -0.37900457 0.03415506 0.7700153 -0.4119958 -2.8089347 0.5603091 0.6023176 0.9269771 1.3423977 1.6242555 -0.2602638 0.52585804 1.214416 -1.1075597 -1.3078184 -0.34039614 -0.17084524 -1.0829397 1.0109243 -0.76370454 -0.40590516 2.2925239 0.22585076 -2.206351 -1.7278363 0.17589392 -0.8227876 0.66774315 -0.9573209 1.8993254 -0.26473665 -3.6683977 0.5379381 1.6240283 -0.08335647 0.16815178 0.25133625 3.0939925 0.9591892 -0.32943228 -2.3952792 -1.9338273 1.3823628 0.09023533 0.6971323 -0.78306806 -0.5325511 1.8225276 0.26280174 0.5961546 0.28617433 0.9312431 -0.1481977 -1.516997 -2.1408234 -1.6860477 2.8947675 3.7341201
55 -2.373639 0.32176447 -0.37378407 -1.7695471 0.28251848 1.7783666 0.6836164 0.48676297 1.7226367 0.4417306 0.6739443 0.8621323 2.125541 -1.8472544 -1.1488594 0.8204154 -1.4728099 1.0546924 -0.69640964 -0.27433184 2.307095 -1.9442633 -0.347813 -0.59854025 1.8685327 0.5780099 0.89493454 1.4736918 -0.32343274 2.2219236 -1.6721092 -0.35367292 1.6808597 0.48906142 1.5054172 -1.143165 -0.15108742 2.4320111 -2.299531 -0.6615202 2.7352228 -2.2166362 -1.3917745 -2.2025554 0.06656002 -0.20433941 0.63101935 0.20712975 -0.31731856 0.6209251 0.17230016 -0.6369847 0.30693942 1.3958052 0.27783114 0.84955984 -1.8661613 -2.3605857 -1.2872741 1.2114446 2.7985635 1.6210374 -1.0178097 -0.18472518
661 -0.6110062 1.6619232 1.3020017 1.1547748 -1.4597458 1.9099969 0.8561295 -0.09672937 0.20821652 -0.6122305 0.8076044 1.2417624 0.38349545 1.3711084 3.4894426 0.17030232 -1.6943328 -1.3517884 -0.22123615 0.9561569 -1.7777812 -0.15399778 -1.574006 0.9933403 0.2913453 1.1383631 -0.46957815 1.233841 0.24479076 -0.5451407 -0.8873032 -2.1480553 -0.29793355 -1.0758586 -0.002066248 1.1314156 1.037822 -3.2690704 1.4109362 -0.41844302 -0.9451857 -0.26123184 -0.26852244 1.0922862 1.8022794 -1.7197583 -1.6237674 -1.4846737 1.0587789 0.8638915 -0.50352126 0.3652501 -1.1919605 0.8778114 0.20886344 0.6484708 1.932972 -0.07508262 -0.30678308 -1.5886557 -1.3031712 -1.3244325 2.7657661 3.7362375
903 -0.7207531 0.23314683 2.380794 0.26034495 0.16622704 1.3840077 0.5803145 -1.1333094 -1.2694575 -0.8707136 -1.6257833 0.5097249 -0.72205436 0.6702461 0.96439624 1.9047909 -1.8103967 0.5299781 0.67921627 -2.3577666 -2.7687929 1.6430281 0.13192748 1.2051733 -1.2197235 1.8479289 -1.1232265 2.6844695 0.09137097 -1.8455395 0.5643211 -0.28335473 2.3266406 -0.2619418 0.92311424 1.6667728 0.6776815 -1.305016 1.1548893 -0.9181375 -2.8236344 1.7889457 -0.9286973 0.8579403 2.5367558 -1.0222428 -1.3002055 -2.0731223 1.4613996 0.9696293 0.97715193 -0.31196252 -1.1865811 3.4951684 0.15244699 0.29927394 0.385157 -0.30096456 0.031207876 -2.2628603 -1.2776774 -0.6341878 1.5652484 1.875402
1662 0.2866793 -0.17256883 -0.030698342 -1.4916675 -1.3574638 -0.76582474 -1.1692499 -0.40733892 -0.4140352 1.132068 -0.9016492 2.5793881 0.031613097 -1.5070698 -3.0156977 -1.7958903 3.515417 0.24030848 2.4691908 -0.112546995 -0.32074848 -1.4240205 -2.4249663 -0.45576486 0.2640114 2.0546966 1.1149099 -1.89763 -1.9369632 1.1964235 1.3636298 -0.042379353 -1.5731539 0.53191143 0.029258179 -2.0066397 -1.9442923 0.5889369 2.4888136 0.6215937 -0.75360096 1.2007736 -0.25248456 -1.5240222 0.12683497 0.9090131 1.7109942 0.2284759 0.93135107 1.1291394 2.356125 -0.29833412 -0.68917525 -1.6992859 -2.0060205 0.29293257 3.0394797 -0.45700666 -0.17062049 -0.017377943 -0.5137158 0.0042902757 1.7597544 -0.5292454
1565 -0.19482422 -2.277996 1.391889 -1.4189103 0.6867533 0.5698487 -2.82765 -0.78515834 -3.0924208 1.0099409 -0.032926496 0.252915 -1.133653 0.49714878 -2.2371886 -3.1508458 -0.304091 -0.2516042 2.6269264 -0.1694738 1.0690035 0.13045411 -1.9590929 1.5272404 -0.88192207 0.10701542 -0.5288125 -3.098355 -2.1490726 1.4632182 1.8671595 1.443385 -1.5311217 0.7057882 -1.0842952 0.44401917 -2.319621 0.8884823 2.4653268 -0.39609128 0.50650114 0.50970185 0.9132175 -0.7645998 -0.458037 1.2200018 2.5495763 0.9605424 -0.15788606 -0.43046302 1.021599 -1.856771 -0.9875238 -0.14302401 -1.5176679 0.88586885 0.18961205 -1.1339675 2.0046031 0.6311366 -1.690117 -0.1966052 -1.0276012 -0.96633595
790 -1.7665176 0.6685823 0.73294747 0.41372383 -2.342327 2.2154021 0.44747052 0.574272 -2.079373 0.3068093 -1.9253658 -0.53899115 -0.10492509 1.1276741 2.888521 1.3011967 -2.053813 1.4134074 0.36748087 -0.2728985 0.32327157 2.137446 -1.1178925 -0.5559674 0.39356363 -0.045014255 -0.14735715 0.96552336 2.043055 -0.12854485 -1.477327 0.34050965 0.28895095 0.34181255 -1.6768779 1.1625359 -0.31373525 -1.0162605 0.21954066 0.6039803 -1.5081741 1.6036203 -2.9423635 0.6442761 1.9150492 -0.22933337 -2.0879683 -2.9262493 1.3731346 1.0221921 1.022675 -0.012421614 -0.02498176 1.1634725 -0.58354133 0.98490155 0.4752872 1.8439682 0.35809824 -0.5845234 -3.592122 0.6525639 0.41215652 3.66682
847 -1.8339106 -0.1781659 -0.2347806 0.3946477 -0.8601879 3.3422515 -1.464351 -1.0827955 1.2115448 -0.20774032 -2.662687 -0.0016911482 -1.0362188 0.4072297 3.533865 -1.8602338 -2.012895 1.1976993 0.8463817 -0.7639816 -1.3500894 1.5275024 0.22359534 2.0972946 0.2958305 0.26482484 -1.1376019 1.6792669 0.86006945 -0.6966456 0.07295739 -2.0012934 0.05037735 1.0419816 0.97627515 1.6226732 0.13185701 -0.6548967 0.0021852353 2.039331 0.0009935469 0.5136847 -0.8434234 1.809117 3.160707 -0.06908197 -0.57132864 1.1693785 1.7155737 0.56157064 0.5632299 -0.8290788 -1.4720104 1.2792802 -0.5568305 0.0272581 0.006058761 2.2035275 -0.11495727 -0.9959301 -0.5558047 -0.4046137 1.5473834 3.894696
91 1.1835357 0.533975 0.9459704 -0.6835365 -0.17094843 -0.56063056 0.122341044 0.6938886 0.71098524 0.868654 0.17474274 -0.051306985 0.8751342 -1.0379833 -0.013829418 1.315088 -1.4409404 1.8171052 -1.4844555 -0.28247058 2.9826605 -2.4734006 -0.25495562 0.925385 0.19895817 0.28717667 1.0088946 2.381953 2.5207546 1.4297105 -1.9703938 2.1516037 1.4619294 1.4619744 1.369618 0.90356374 0.62314343 0.8402703 -1.6402208 -2.5002728 2.5553832 -3.1324174 -0.18959 -2.5834463 -0.032458942 -0.13288462 1.7523671 2.478261 -0.2668371 -1.9722898 0.96055317 0.024027634 -0.04648937 0.3250526 0.7670761 1.0144931 -0.50206584 -1.633786 0.16763549 -0.013267339 0.7376147 2.1509624 0.64568627 0.6484224
1308 0.8343912 1.0056012 -2.6062043 -0.031316876 0.90564615 -2.4276562 -0.24472451 -1.4530729 2.7318122 -0.62692076 0.3234638 -0.99942094 0.5930645 0.20237598 0.7582486 -0.41148984 1.7900265 -0.55717796 -1.4372832 1.207734 -0.10816048 1.9662565 1.3441743 -2.3815405 0.505794 -1.6376674 -1.8150427 0.56963676 -0.098698154 0.49816436 0.24572437 0.16326322 -0.80303025 -2.5126545 -1.1504043 0.36016938 0.47903052 0.9842254 -0.9114433 -0.78187466 -1.704105 1.3996192 -1.4713521 0.40783837 0.9627131 0.22009362 -0.66158456 1.6904633 -2.6820834 -0.53867537 -2.111974 2.14569 2.1497397 -1.5574212 -0.1568288 -2.471671 0.7224368 -0.11259694 -0.6993748 0.18498729 -0.8856131 -0.36409214 -1.5027125 -0.99349636
1664 0.021554213 -2.0516877 -0.6482427 -1.2453418 0.64019126 -0.4274201 -1.2492174 -0.40888128 -2.8163142 1.4857558 -0.7265284 0.40763077 -0.7236193 -0.06409493 -2.1215959 -0.6081163 2.6206253 -1.4570781 3.5928621 1.1982927 0.5883281 0.6135424 -1.7756792 1.4907838 -0.2969115 1.9789371 -1.8556706 -1.4860319 0.42777786 -0.19811913 1.0350811 1.8433563 0.433394 0.1622105 -0.34589183 -1.9583563 -1.1865408 -2.1380212 2.1989808 0.2051631 0.5189726 1.7980418 1.117621 -1.2406275 -1.2215677 1.0806634 2.4788747 1.4311624 0.3601343 0.10913257 -0.016742608 -0.6383166 -3.2644055 -0.4259062 -1.5766393 0.022021534 0.63625497 0.5184322 0.06741533 0.59189105 -0.48363522 -1.2442895 -0.801288 -0.79321635
155 0.06543969 -0.5934258 -0.61129045 -0.25113845 0.6054817 0.8988297 0.26452202 2.504701 0.009769814 -0.41102627 0.37652302 1.9560802 2.309112 0.38737133 -0.6402274 2.1501539 -1.1130984 1.4240984 -1.6981795 -0.5311973 0.77031404 -1.7698075 0.6642377 0.2560718 -0.80514306 2.1544697 1.1163249 2.347116 0.67826563 0.46842438 -0.14812478 1.7987456 1.4289079 0.42596355 3.6522467 1.0816351 0.8719107 1.5240632 -1.3057854 -2.5696874 2.1210253 -0.76525295 -0.9656059 -2.500536 0.37932384 1.5450426 1.294798 0.648129 -0.33805493 0.55021614 -0.09234938 -1.8653538 -0.03860283 -0.24069872 1.5433314 0.07700138 -0.5461519 -1.6763492 -0.6511535 0.9431772 2.9969323 1.0678861 -2.0755563 -0.5329921
471 0.820103 1.112419 -1.8277057 -0.045975655 0.46914095 0.24354106 1.280593 0.884376 -0.26737112 0.5355491 1.3878803 0.4207354 2.621016 -1.6901878 0.45984098 0.3433799 -3.7033927 1.0770584 -3.0413506 -0.034745958 2.6022124 -0.82147485 -0.34557465 0.77033645 0.8604217 0.9443555 0.9065138 2.4975648 -1.5396483 0.11995493 -0.58437437 1.2239634 2.2506258 1.2351654 1.3136859 -0.13227713 -1.175165 1.2666603 -1.9961778 -1.2861304 3.3430312 -1.9110993 0.2763886 -0.8991017 -1.1996622 1.9839876 0.5705313 0.54834205 0.47905016 -1.1379166 0.20975521 -0.08314291 -0.13191618 -0.59297895 0.106701724 1.1905212 -1.6049621 -1.5679165 -0.6573118 -0.21225044 1.9199936 0.6226916 -0.83556247 -0.19348958
1328 1.1848034 -0.16680975 -1.8385959 -0.6617269 1.2483197 -0.039858557 -0.54366106 -2.4748003 1.943331 -0.33243534 1.5401397 0.35851455 0.06356894 1.7447988 -0.299486 -1.5353132 2.2025268 -0.93522054 -2.4864554 1.658643 -0.3841271 1.3860103 1.3052421 -0.8771697 -0.94877505 -2.240159 -0.75343335 0.22010073 -0.73420954 -0.18828887 -0.6141324 -1.7485876 0.31031802 -0.32475233 -1.4991652 -1.8671871 1.7430177 0.48207384 -2.0199 -1.0417427 -1.8855823 -0.9800169 -1.4505985 1.2803667 1.0408584 -0.45625502 -0.7346587 1.8513536 -2.7061384 -1.322441 -0.0987289 1.54025 -0.13256481 -0.9437855 1.0187998 -2.7015767 0.71644485 0.45454988 0.3517295 0.44056553 -1.9256982 1.0343753 -2.1186972 -1.1235069
1138 -0.8981677 1.3650593 -1.3284689 -1.3046567 3.3598552 -0.9052793 0.92484623 -0.8852753 2.3212986 -1.3846866 0.4102931 -1.6678674 -0.77962464 1.5811841 -0.96171945 0.08477796 2.4439185 0.4894045 -3.3899825 -0.90828604 -0.30711246 0.7300362 1.3458669 -1.347921 -1.502935 -1.2138479 -0.6350617 -0.87264353 -2.245476 -1.6358361 0.34225386 -0.9582518 0.8863983 -0.009801579 -2.2290714 -0.118683316 0.8604277 2.1418257 -0.5631037 -2.7396863 -3.5485108 2.4881368 0.025544666 1.1522865 0.049195956 1.5818797 -0.7593303 0.42042986 -2.0295587 0.33814463 1.1409079 1.3060167 2.1060061 -0.27896518 0.93146104 -1.5675133 -0.6397019 0.20731467 -0.66385734 0.06817118 0.28414035 -1.6397147 -1.4255264 -1.9621867
1964 -0.12604165 -0.63890743 0.9282484 -0.52652895 2.0985444 -0.059757855 -0.5682536 0.60560673 -1.3905041 1.4580736 -1.8516487 1.4537793 -1.6238277 -1.1805524 -1.9817326 -2.1923819 1.5130605 -1.2062279 3.5946765 0.7306756 0.87946993 0.05864149 -2.3911016 0.22474822 -0.81584907 0.93501997 -0.15936734 -2.2989254 -1.6965451 1.8108207 1.3828931 0.9846344 -1.6659127 -0.108207256 -0.6109178 -0.8413178 -3.3178954 -1.3896911 1.4016316 1.154562 -0.79926825 1.2605189 0.5663439 -0.8381163 -0.82992935 0.71614915 0.5946317 1.0375378 -0.14256454 0.22753067 -0.33261266 0.08258523 -1.7901131 0.45396417 -0.4516398 0.9864978 -0.47734296 -0.24293618 2.7829015 -1.650127 1.0426368 0.15013461 0.05781347 -2.7128224
241 0.5508613 -1.2951862 0.6019079 1.288895 1.4225456 0.76110244 0.76113755 0.57004833 0.35447505 1.173062 1.5676402 1.443192 1.0679107 -0.65664816 -1.9482354 2.1063693 -3.9783747 1.395016 -1.6493403 0.29763854 2.8130918 -1.1324503 0.7581077 0.3305811 0.7743569 -1.1218852 -0.073516995 1.6900645 0.46130827 -0.33591443 0.58021104 0.94641405 2.0975964 -0.17794718 0.7985271 1.2464992 -0.46332252 1.4252115 -0.3834743 0.29815856 1.7821053 -1.7888325 1.0380533 -2.450489 0.07959864 -0.30055323 0.5954659 -0.8261322 -1.1952829 -0.10445096 0.20178093 -0.15047313 0.27645046 -0.88644457 -0.20956482 2.1318228 -0.5354073 -1.2993766 -2.2582047 0.697022 3.7430928 2.2360315 -1.2461678 -0.5534751
337 -0.9266626 -0.6237056 -0.4208857 -0.22377895 -0.24819925 0.5602895 1.3460692 1.1781118 -0.70004106 0.5136166 0.242712 1.6729865 1.3243027 -0.90540946 1.17647 1.7642038 -2.50851 1.3368734 -0.5395443 1.7899077 3.416028 -1.0231202 0.72579044 -0.48481473 -0.31849477 0.6157354 1.0560687 3.7417107 -0.7525357 -0.017705254 0.08824367 0.28731132 0.4742187 0.9217198 1.7975016 -1.0919838 1.6194993 1.8599486 -0.610682 -2.4217386 3.9955888 -0.22716287 0.6674167 -0.90285385 -1.558268 -0.8030445 0.58004016 -0.79475933 0.2841168 -0.35777098 -0.21046996 -0.96805805 0.2654034 -1.2788557 1.1235168 1.6667391 -0.7825875 -0.65711236 -1.6496441 -0.0024169383 1.8344234 1.5233458 -1.6208881 -2.2178855
1673 2.224615 -0.6482995 0.02828638 0.46849722 0.4079499 -0.023280555 -1.50605 -0.01649146 -3.0044336 1.4300691 0.14403872 -0.39874095 -1.511063 -1.091759 -1.8892505 -2.390333 1.3674741 1.3358641 0.80780524 0.90497875 -0.46880293 0.40869594 -2.3960438 -0.4349419 0.69249964 1.2445664 -0.11271219 -2.7660246 -0.35934123 1.1262676 1.3625573 0.88377607 -2.3073547 1.9665344 -0.6201966 -2.12431 -3.8954074 -0.5456906 1.3041732 0.06431331 0.41550627 2.0056036 1.4488345 0.054751866 -2.3451567 0.40621895 0.6869728 -0.24582413 1.6981815 -1.1713204 -0.07305338 -0.012888818 -0.231611 0.4488779 -1.9446331 0.9721997 0.77516955 0.6496277 1.2661613 0.9528482 -0.4929594 1.4347075 -1.2172768 0.6697198
1002 0.3922195 1.739579 -2.6260824 -0.6722578 0.87284213 -0.49792835 -1.0207765 -0.05735121 2.7727883 -0.8324587 1.7491657 -2.8654718 0.4353434 1.1223661 0.3603327 0.1836844 1.7234278 -1.3408611 -1.2038239 0.43006998 -2.3027837 1.5255293 0.9331566 -1.1835585 -1.1704128 -2.518866 -0.04734172 0.15151379 -0.85887 -1.3498166 0.9413584 -0.118685044 -0.106430866 -0.5132759 -1.1781535 -1.2705889 -0.3128017 1.0796199 -2.697448 -0.46335885 -1.7295192 0.9689715 0.52804995 0.86322737 1.2767353 -0.33374536 0.6380033 -0.46098825 -1.9699547 -1.8715194 -1.4444859 1.3469112 1.688541 0.5485284 -0.83092755 -2.2302492 -0.08788379 3.475245 0.11708921 -1.221041 -0.34232354 1.8059778 -1.9792434 -1.926601
1615 1.0849148 -0.8988104 0.2561198 -0.30893934 -1.4780098 -0.6733741 -0.38516244 0.81001204 -1.5069594 0.5970329 0.47368482 -0.03553539 0.40310442 -0.5439569 -2.2037802 -1.0013078 1.9506286 -1.3348582 1.7394658 0.18689406 -1.1023654 -0.18912846 -3.0190656 -0.58759516 0.034939013 0.03906425 0.4543031 -2.3796024 -1.4525107 1.3374065 2.6250577 0.12252042 -2.6225102 2.7064557 1.0559402 -1.7262768 -1.960374 -1.2763208 1.3736749 0.24904296 -0.11197425 1.2036637 0.911976 -2.4067783 -2.595511 0.37673005 1.1424618 0.004799803 0.45313352 -0.98929006 -0.32526997 0.5847191 -1.8321501 0.37819588 -3.0440018 0.13202041 1.2954848 0.87846166 0.6010387 2.6625454 -0.08892401 -0.48659283 0.7909192 0.51453876
521 -3.4801748 -1.2729713 0.99464095 1.4242877 -0.39017534 1.9988974 -0.12573858 -0.9423144 -1.6013349 -0.14403723 -2.3195133 -0.6816906 -1.5358415 -0.5325233 2.9293413 0.07426499 -3.024627 -0.08233113 -0.3700702 -0.6660367 -0.2923185 1.6402209 -0.99886537 0.22826332 0.4336539 -1.0245639 -0.7068189 1.1539214 0.4165244 0.05767989 -1.5761563 -1.2325946 -0.36553693 1.8492708 -0.78012604 0.45895195 0.33359382 -3.497868 -0.14703616 0.9547189 -2.3945603 0.44509503 -0.055401538 1.2939286 1.1526914 -1.2173638 -1.9572932 -2.8243246 1.2708589 0.92155737 0.23477674 -0.16539028 1.4895838 3.4146953 -1.0721393 -0.36755928 0.3221208 0.4003338 -0.6548915 -0.65939176 -1.1809037 0.74808294 0.9517135 2.9521856
288 -0.32973546 -0.010240237 0.31658837 -0.8681662 0.64057577 0.57095855 1.9757392 2.817981 0.08460319 -0.9876931 -0.06624098 1.5175114 2.3649967 -0.6776704 -1.2274247 1.6522491 -1.766636 -0.4467969 -1.3612946 -0.8054831 2.5734973 -1.5175031 0.01761955 -0.23842233 0.16438611 -0.64820546 1.2252086 1.2496456 0.7969759 0.90142983 0.064965196 1.4889927 2.0748796 1.6203594 2.104006 -0.5416789 0.47395563 0.1128238 -3.1142533 -0.8632045 3.4443173 -2.139318 -0.5199636 -0.8603575 -1.0841225 1.116396 -0.4690357 1.844382 -1.4003469 2.0551457 -0.72444826 -0.6014322 -0.013627071 0.2874953 0.7776048 1.2148297 0.15478054 -1.21485 -0.48226964 0.9674699 1.9505515 2.0944164 -0.43637386 0.7557403
468 -0.8828174 -1.1263604 1.5812719 1.0888388 0.7012084 0.45006245 0.28164625 2.0825553 1.5775007 0.16890657 -0.6259898 0.647361 1.9311534 -0.58356225 -0.9771621 0.8623555 -3.2423184 2.2241023 -0.0045875087 -0.46337622 0.34817058 -2.4865901 0.57990974 -0.2335195 1.987373 0.3635566 0.7756058 2.2304263 -0.08541819 0.97504854 -0.52020335 3.1504474 2.3213239 0.7829219 1.8494385 -1.0242624 1.1861069 1.6622854 -1.412292 -1.5260851 2.522216 -1.7039455 1.9672714 -1.4425654 0.80276746 -0.5864141 -0.54762936 0.88288605 -0.6193725 0.76166725 -0.35629317 1.0538688 -0.16040502 -0.6595958 0.0030841385 1.0465816 -1.7557093 -0.20735008 -0.16532062 0.7141062 3.0854335 0.795749 -2.0142121 -0.48792285
1003 0.021360932 0.32849672 -0.7702292 -0.5041648 1.2367954 -0.018466135 -0.56830806 -2.3140862 3.8616772 -0.5702882 1.019149 -0.7178114 1.1533797 0.94752455 0.5928474 -1.0204184 2.623155 -0.59460455 -2.6591387 -0.18423581 -0.15739632 -0.2544283 2.5598135 0.18117844 -0.30229497 -2.3094432 0.2773119 -0.2498029 -0.5574047 0.78996426 -1.1016161 -0.21832848 -1.023679 -1.2627804 -1.306471 -1.0656636 -0.09466145 0.32103366 -2.7441218 -2.2338474 -1.1343291 -0.22954752 -0.8970265 2.243709 -0.787415 1.465958 2.4410858 -0.6280364 -2.3730214 -1.4596636 -0.2774857 1.767841 1.2078516 -0.14936903 0.83205545 -3.8583019 -0.82702893 -1.3973621 -0.92673755 -0.9268325 -1.0329628 -0.09720024 -0.10623672 -1.7856543
1635 -0.81129324 -0.090110555 -0.20314535 -1.7889324 -0.76597077 0.4640054 -0.5458414 0.42894757 -1.6359662 1.0225556 -0.6501475 0.5982378 -0.23210245 -2.4217272 -1.8595619 -2.92802 2.514189 0.18488906 3.1623116 -0.1723925 -0.45053154 -0.38755175 -1.3222665 0.040807933 0.89778334 1.3439313 0.7541139 -3.796208 -1.9532919 0.872189 0.63955754 0.842005 -0.6074135 0.8430752 -2.3150733 -2.2520583 -3.4655075 -1.2060791 1.3461057 -0.65074325 -0.09021494 -0.46055132 1.9622576 -1.4626596 0.12237678 1.2681556 0.61106974 0.0696872 -0.61443824 0.7089356 -0.25867036 -0.9634694 -1.4138758 1.7965143 -0.32488173 1.2221957 1.7359176 0.9615928 3.0199327 -0.8979645 -0.20210975 0.65838754 -0.5173939 -1.0658863
1423 1.2087255 0.07327305 -2.2525914 -0.54152524 0.4533528 -0.41560048 1.0518688 -1.893757 3.9739795 -0.7020948 -0.6189972 -1.5762705 0.97617435 1.056214 0.92224914 0.44157398 2.7049968 -0.7256678 -1.2545153 0.23093346 -0.1809607 1.876169 0.46033508 -1.3602079 0.71367735 -2.0557878 -0.5230901 0.51209974 -0.10081276 0.23079611 0.8721331 0.09773345 0.5642984 -1.470829 -1.7833544 -2.091779 2.116361 0.5318362 -1.2231834 -0.32576185 -1.0396816 1.1901879 0.7816675 0.040603377 1.2988389 0.38042444 -1.1138582 1.8202676 -1.1672019 0.972216 0.3270592 3.2439845 1.8766825 -0.6439823 0.09152972 -1.8989729 1.2522384 0.774026 0.65822774 0.29305142 -2.220135 -0.26846886 -1.5787106 -2.1497614
299 -0.4458728 -1.361605 -1.2092842 -1.0500126 0.80005664 0.8087239 1.0889164 0.79046375 -0.93538713 -0.5085534 -0.39862183 0.19730295 4.212954 -0.008429689 -1.0359826 2.0970538 -0.90503854 1.5987134 -1.3357646 0.115094215 1.5374824 -1.9037327 2.3770247 1.0716717 0.4445272 -0.88494647 3.1612713 1.8447133 1.8598831 0.40589753 0.37351242 -0.2659399 1.0526512 -0.19023018 1.030708 -0.29707992 -0.4559954 1.5032797 -0.74070734 -1.6673703 2.6315863 -2.6473455 -0.6333236 -1.4282311 0.2794027 -0.35489693 -0.5097918 0.19481856 0.21266742 0.99669135 0.5883127 -0.47717535 -0.05622172 -0.22487251 -1.0134177 1.1801287 -2.738358 -1.8224065 1.0444709 0.26267767 2.9392226 1.4950259 -0.3270241 -0.9212841
751 -1.5896968 -0.16606332 0.51974964 -1.0120023 -0.0818678 2.6864655 0.06721043 0.35687956 -0.8811453 0.56203777 -0.5516516 -0.019134903 0.603409 1.7645023 3.0717897 -0.5494184 -1.8201514 -0.31766394 -0.7427364 -1.8159142 -1.7023578 3.2444746 -0.04862803 1.1769427 0.011236674 2.0246313 -0.42690343 -0.33418006 -0.23960924 -1.3677678 -0.054178737 -0.20408723 0.37220988 -2.3578254e-05 0.2384929 2.6612086 -0.788239 -1.7619249 -1.0215762 0.47334638 -0.053787936 0.6634557 0.17265922 1.4042513 1.9024119 -1.015695 -0.95927775 -2.5857577 2.6524348 2.825357 -0.5656523 -0.912654 0.6331055 0.2148415 0.08452392 -0.57963604 0.5641419 0.04786388 0.08959468 -0.41216093 -1.4858829 0.539401 0.7158763 5.059519
433 0.8408184 -1.4777242 -0.5912034 -0.48003381 2.0164576 1.1014392 0.98076206 0.29284886 0.6265085 -1.063528 0.48210225 0.87433064 1.3172 -1.3748609 -0.36755618 2.618818 -1.6592364 1.2476906 -1.3812734 -1.707367 2.1503744 -1.6240007 1.4652884 0.7004581 0.45192608 1.3357562 1.0515035 1.5413792 0.6073716 0.85721 -1.0417734 1.4321023 0.90259784 1.3975341 2.221124 -0.32029423 1.041664 0.8544851 -1.4517906 -1.1027349 2.4081392 -2.0768259 0.30615854 -3.0737374 0.5258395 0.23255493 0.34387913 1.1486819 -0.11172607 -1.4132645 -1.4604028 -0.85038567 -1.9511281 -1.6511068 1.1560017 1.473054 0.16011676 -0.8008224 0.5825818 0.91243064 1.9285357 1.821261 -0.09630917 0.47073832
502 -2.1782389 0.12778988 2.5206697 0.80831546 -0.15646636 1.5312726 0.37687707 -0.39337942 -0.8139768 -1.3129185 -1.1542783 -0.19792329 -0.14308453 0.8923114 2.4862437 0.66156554 -1.854196 -0.520357 -0.11941287 0.5314792 0.013420034 2.0913575 -0.7649245 0.38985223 -1.1968373 0.5829531 -0.2324182 2.1974473 0.51344746 -0.8746849 -0.2507042 -0.011679655 0.87532103 0.29686177 1.1136531 2.1917634 -0.6627052 -0.67997414 1.1598763 -0.17380391 -1.907167 0.2796201 -0.80740476 1.4603274 1.4058793 -1.3683804 -2.4609554 -1.2948173 0.8040277 0.12748036 2.3938084 -1.251862 -0.77347803 2.801913 -0.48744413 -0.53707314 2.2610967 2.399821 0.2986869 -1.7122808 -0.9604359 -0.986411 2.4686203 2.4215162
174 -1.054853 -0.7221375 1.1760395 0.28191644 -0.18649687 0.68344885 0.4681257 0.7305026 0.5728428 -1.4845451 -0.5973218 -0.20756245 3.3868208 -1.7334342 -1.3575064 1.6258992 -2.8048708 1.0647267 -0.7701033 -1.017082 2.3575797 -1.7773494 0.091214634 -0.53354 0.9374508 0.5382337 0.90534437 1.651458 0.7622015 0.1486587 -0.061714027 1.0272369 0.74335283 2.5584004 1.0727352 -1.3698195 0.6634371 2.5457473 -1.7323028 -1.884885 2.780708 -2.7986102 1.6356415 -0.8524733 0.6859954 1.410252 -0.3380503 0.3897121 0.6566016 0.5540867 -1.5058116 0.31835487 0.57728386 0.6031151 -0.26053056 1.4194647 -1.493224 -0.46046877 0.47901848 -1.1816794 1.813264 1.2755736 -1.2524489 -0.7538261
1534 2.5968575 0.47426334 0.032177538 -1.1169775 -0.5926437 0.39330795 0.04344102 1.484019 -0.972601 1.2378609 -0.102245405 2.49173 -1.2564824 -1.011959 -2.0185523 -1.979677 0.30240038 -0.51318157 3.1368303 0.904168 -1.6448476 0.24335927 -0.90253985 -0.14040925 0.28168634 1.3967873 -1.2284439 -2.887016 -0.24095257 1.6462966 2.306082 0.12818263 -1.1483384 -0.75938225 -0.5323986 -1.0748465 -2.402026 -0.09339299 3.1338034 0.9258191 1.7954907 0.7291488 0.92421675 -1.8155318 -1.5532985 0.63189095 2.4758158 1.3806684 0.32389876 2.1087224 0.32252604 -1.1224338 -0.16449739 -0.025787367 -1.8638449 -2.0813863 -0.027780714 1.3775026 0.5034269 -0.4565688 0.49637747 -0.9426292 -0.12755583 -1.3231345
1487 -0.88337326 0.86157084 -0.7191014 -0.35872456 1.6529219 -1.3062525 -0.2712775 -2.1064928 2.2066875 -0.907613 1.1147747 -2.0054677 -1.0081744 1.252042 -0.38254353 -1.3750508 1.4127482 -1.685918 -0.9051452 -0.14345434 0.20328267 0.7194014 0.38994095 0.3430431 -0.9013427 -3.2210746 -0.5650159 0.65390456 -1.0910714 -0.29791766 -0.96704483 0.09550113 -1.5777904 -2.031149 0.10935671 -1.6146252 2.1867518 0.6748515 1.4341757 -0.2866996 -3.9014413 -0.27943146 -0.34067154 1.8315663 1.752682 -0.3811059 1.0706242 0.6264858 -1.4734998 -1.0436846 -1.210382 2.7881277 2.7460318 -1.1867378 0.02283219 -1.7755232 -1.7222639 -0.47996953 -0.03212346 0.55818063 0.3536175 0.9565922 -1.8177271 -1.7925186
1180 0.41296625 1.1334004 -1.4453273 0.084839255 0.8213314 -1.2094446 -0.25064766 -1.3042469 1.6091809 -1.4451501 2.044936 -1.5909188 -0.8606667 2.7831888 0.714612 -1.9571725 2.3632462 -1.9847836 -0.4778797 -0.09335158 0.5266911 0.8610164 1.3641311 -1.0982343 -0.7433819 -2.4398599 -0.667147 -0.06384038 0.4378002 0.18657869 -0.47794366 -0.44094777 1.1992484 -1.3600212 -1.5006901 0.35310763 0.23718475 -0.034411855 -1.5637511 0.5473092 -2.537289 -0.39985797 0.81584376 0.40238544 1.4259892 0.42906958 -0.0021425325 0.4338424 -2.9789321 -1.2941124 -1.509176 1.4648794 2.9240046 0.2582278 0.25303063 -1.9656686 -0.4067053 -0.14280646 -0.09090561 2.052922 0.99256945 -0.5491082 -1.2543522 -1.7625058
1482 2.3121119 1.9043187 -1.7327858 -1.3960524 0.46189284 -0.7252636 -0.3361754 -1.069771 1.8001229 -1.0634923 0.63681376 -1.416664 0.27904925 0.69098943 0.0365914 1.1895149 2.1855981 -2.667638 -0.6690586 2.1351645 -1.415076 2.8728354 1.4045258 -1.8396286 -0.26628277 -1.1146954 0.4127233 0.09404361 -0.9134094 -1.1495823 1.4040264 -1.4725441 -0.94936866 -1.798749 -1.5596583 0.24344946 0.81653583 1.452156 -2.3102248 -1.2405276 -0.9293435 -0.43639565 -0.4591338 1.75652 2.4029253 -0.52325624 0.106592 0.58072996 -2.5224903 -1.4543741 -2.1617808 1.3612907 0.3414856 -0.56436473 0.585729 -1.2797337 0.50765693 0.0737638 0.57590914 1.2770135 -1.4277357 1.1895138 -1.2195023 -1.5258429
344 1.2202495 0.1090552 0.279671 0.51098794 2.0689855 1.1586931 1.0963188 1.0904273 0.18825062 0.7722859 -0.3612687 0.9380077 1.0549201 -2.0917654 -0.29076582 2.167193 -1.9842556 -1.2397028 -0.95482427 -0.3529243 3.0494037 -1.2598162 -0.40592927 -1.1049631 2.3629808 -1.1521422 1.1872457 2.2248912 1.4606006 0.99626476 -0.49351758 1.2062409 2.645103 1.6387855 1.0340049 -0.027779 -0.25589964 1.9697628 -1.0706272 -0.21400417 2.8959913 -2.522873 -0.37741256 -1.4296794 -0.9988098 -1.8921114 -0.9022861 1.7284586 0.9212636 -0.7619892 0.30856428 0.1194992 0.44930348 1.0687293 0.45457938 0.41157386 -0.63716465 -1.9042711 -0.86546224 0.97089696 2.1177728 1.5466136 -1.3315493 0.17507793
1952 1.733292 -1.5115776 -0.5625286 0.026081806 0.002773758 -0.97664547 -0.5387154 0.93430054 -1.3799598 0.7282369 -0.61944085 -0.6593822 -1.7962376 -0.93269414 -1.1919619 -2.0788212 1.0874629 -0.6533319 1.6362212 0.6940589 1.3703426 1.2998742 -1.9813681 -0.15458585 -1.299746 0.6910964 -0.5251475 -2.249995 -1.7733243 2.1694546 1.9082056 0.84862065 -2.3492947 1.8276947 0.9586177 -0.71428657 -2.6529639 -1.8405995 3.19287 0.14730328 0.5608518 1.0583166 0.76958203 -1.170309 -0.41308707 2.2293952 -0.9683341 0.9166827 0.070310965 1.1234865 -0.39106828 1.5467101 -2.752999 1.1361939 -1.8405964 1.6572452 1.197468 -0.50785553 1.1165936 1.7872828 -0.54271144 0.6373906 -0.44849634 -0.97739434
1936 -0.2982569 0.81289977 -0.3426226 0.8789879 -0.20152473 0.27466795 -1.6022855 0.8391894 -2.8607137 0.52054197 0.599378 1.4428091 -1.6906034 0.9638905 -2.4482145 -1.7169299 3.3049846 0.44568464 2.6315129 1.0579057 -0.578881 1.1785008 -1.0072757 0.63387936 -1.3089423 1.2288177 0.10068105 -1.3682848 -1.5392311 2.239351 0.6412695 -0.7054116 -1.9045898 0.59665585 -0.40586466 -1.3384513 -1.8125477 -1.9369329 2.7565799 -0.19848168 1.7391648 -1.2430114 1.0366118 -0.36752993 -2.4291074 1.2393316 2.7452564 1.1893208 1.2041743 0.78086907 1.0911143 -0.8457413 -1.2970749 1.0557334 -1.4523243 -0.7339789 0.35478917 1.5340688 0.9335751 0.7225804 0.78179014 -0.22347064 1.4011213 -1.4471778
1525 2.604037 -0.47876623 0.5768179 -0.21144775 -0.40137517 0.88822937 -0.7764917 -0.6836809 -2.6986356 2.7766411 -0.3923719 -0.22106428 -1.1295942 -1.3274983 -2.9636898 -1.4277023 1.7500154 -0.695352 2.3580387 1.6635541 0.6901729 1.1821413 -2.0050874 -0.28346047 1.443405 1.7947356 0.28171304 -2.336321 -0.5234533 0.3586141 1.5413471 0.6425351 -1.8911661 0.43730816 -0.6912811 -2.7013893 -2.073195 0.45380643 1.3350296 0.7218716 1.3570329 1.0383271 0.28613615 -0.31680074 0.645456 -0.1880005 1.5711184 0.44262427 0.17734931 1.3606024 1.0956426 -0.29642063 -1.216752 0.7070589 -1.8453492 0.38257137 0.76004 0.033760183 2.091496 0.08594636 -0.7940994 0.50576186 0.5470243 -1.0843962
719 -0.8529879 0.38420343 2.4255505 1.0525943 -0.5258388 1.155405 0.242206 1.2718247 0.10915501 -0.6059438 -0.52985924 1.7064927 -1.373206 -0.6023474 2.2108414 0.3878381 -3.8669438 -0.11315341 -0.5392912 0.026151653 -1.9978561 2.1160045 0.4986601 0.17934152 0.2655635 0.5514226 0.48466042 0.1433845 0.3431419 -2.0404441 -1.6918299 -1.4621778 1.2677698 -1.600498 0.31190795 1.303318 -1.2226607 -0.46267736 1.7734944 1.2541665 -1.6019856 -0.4424336 -1.9271013 0.36138663 -0.021152033 -1.9316471 -1.2042978 -1.3673301 0.67878324 1.566045 -0.66296345 0.27778277 -0.5778858 1.5728909 0.36720142 -3.1015642 -0.5641574 1.5846703 0.74162674 0.21702379 -0.01933875 -2.8632872 1.6829442 4.0167313
1209 -0.7330773 1.414231 -2.388749 -0.07192713 2.4771793 -1.0899659 0.87073666 -1.222731 1.6853583 0.85563755 0.8694136 -0.84348214 0.5599782 2.2665615 -1.3276392 -0.83825594 0.94845253 -2.4764934 -1.8800128 -0.6508826 -0.57533413 1.4264551 1.341642 -1.1151717 0.87906444 -3.466208 -1.4831946 -0.17544779 -1.0640664 0.22172312 1.147517 -0.33554244 1.2739671 -0.5774526 0.23606507 0.7629119 1.755277 0.7770026 -2.9073663 -0.19062023 -2.9472024 -0.262451 1.475834 1.2776918 0.55710006 -0.6430851 0.11879096 1.0938652 -1.4804151 0.034456022 -0.6247143 2.0219383 1.6794181 -0.89307266 0.20907311 -1.2092408 0.85344106 1.5484642 1.0285027 1.4043939 -0.8997069 -1.502854 -2.9776142 -0.8939279
175 0.25455502 0.869228 0.5682457 -0.36914653 0.016415259 1.3078312 1.5350976 -0.04375787 0.80811536 0.09591765 -0.6035853 0.55116135 2.2025871 -0.8369771 -0.36368328 2.34339 -2.2211547 0.97698766 -0.088416606 1.9829208 2.4039173 -2.3914416 1.997136 0.6593039 0.64053994 -1.7176511 2.0700932 2.0087557 0.49262705 0.6970914 -2.454258 -0.6948911 -0.6825225 0.08845327 1.2922053 0.106509574 -0.2548602 1.7460351 -0.29542786 -0.19524094 3.7838125 -2.7059696 -0.32670835 -2.3019707 0.12144274 1.4128224 0.11904728 0.70063055 -0.5886133 -0.24386875 -1.3855442 -0.92670095 -2.1309052 -0.75600344 1.0495337 2.3388822 0.18056126 0.41191363 -0.60005605 0.45914015 2.531907 1.1030406 -1.103485 -1.9629722
969 -2.040515 0.5518935 -0.20242809 0.2915317 -1.1295116 1.7674528 1.1950899 -1.3454404 -0.13703334 0.9667725 0.24113518 0.37672985 0.80483997 0.62911946 1.8403488 0.9370423 -2.6997247 -0.43963808 -0.54822093 -0.12823506 -0.6162843 0.67451394 -0.61449575 0.8255431 -0.20092152 1.607608 -0.12573075 0.11908377 2.618505 -1.7602185 0.17998217 -0.96222615 -0.846963 0.28153878 -0.74319893 0.6218037 0.6600681 -1.038175 0.52817225 1.5133709 -2.2062218 1.8359866 -0.99898386 0.41901866 1.1981181 -0.4747029 -2.8868086 -1.8588648 1.5041615 0.7659705 2.3045757 -0.33833846 0.78610927 0.8712214 0.61375135 0.019325735 -0.067575 1.9078903 1.4397831 -2.0346367 -0.6290383 -1.6402235 2.111661 4.7000575
628 -1.1609462 -0.43445215 1.297467 1.2971365 -1.8183694 1.6721412 -0.09931211 0.29458317 -0.69856316 -1.0032834 -2.3541343 1.0630323 1.0343372 -0.3953061 4.1357617 -0.5040627 -1.1929498 -0.92167455 -0.15712868 0.2803484 -1.3445194 -0.16904864 1.6027404 -0.0064902343 0.5298997 0.8040259 0.111449726 1.9452462 0.7148384 -0.1239821 0.6507958 0.14083925 -0.94126946 -0.3291858 -0.23937854 0.31407887 0.40573028 -0.78110737 0.16529235 0.85540366 -1.2439315 1.6301426 -2.8320663 0.75266594 3.0250406 0.24710034 -2.9923482 -1.5742586 0.31144693 0.8638786 1.2092121 -0.9846561 -1.2641059 1.8122169 0.67909086 -0.048105977 1.2088456 1.317541 0.74525857 -0.08920204 -1.4744173 -1.4669944 1.5363029 4.138709
954 -1.5608448 0.54602456 2.511343 -1.1513691 -1.6128151 1.5281545 2.3808343 -0.07512718 -1.7136413 -1.1162523 -2.402122 -0.31111202 -1.1083367 1.3294616 1.9004397 1.0093266 -1.631478 1.0346636 1.1364192 -0.4594301 -0.9589171 0.11372287 1.293842 1.2373418 -0.55583286 1.5174978 -0.9827728 1.9320055 1.0329418 -1.1313049 0.19865721 -2.3328598 0.5726245 -1.0274813 0.076815665 -0.051231906 0.57913876 -1.2988901 -0.26023993 0.41854838 -1.3129803 0.69316566 -0.81637347 0.94463795 0.24961735 -0.46195433 -2.7372644 -2.6871088 1.4363729 0.41076553 -0.051135004 -0.23272426 0.043726012 0.34791347 -0.84719914 0.26713526 1.7004169 -0.045152828 -0.24792768 0.29246926 -0.9777548 -1.9526803 3.7067132 2.8781822
506 -1.779949 -1.1830922 0.9477526 1.3618529 -0.9650465 2.7419147 -0.31198052 0.41327488 1.2243407 -0.18689738 -1.8268241 -1.0217367 0.21816541 -0.039576788 0.32866403 -0.5554199 -1.9934608 -0.100597315 2.4482286 0.2479657 -0.27495396 -0.6727765 0.41941863 0.25030303 -0.70415694 0.50625956 0.87292117 2.098214 1.6793842 -1.547278 -2.668456 -2.368938 -0.4455058 0.11355199 0.3764033 3.5501654 0.14937626 -1.860969 -0.6968697 -0.88533604 -1.2502191 1.1413474 -1.6506737 1.5769838 0.62505394 -0.07860189 -1.0488262 -1.8212447 1.057564 1.5928669 -0.07534976 -0.48768526 -0.23765594 0.6142771 0.47352552 -1.6458982 1.109904 -0.94162637 -0.28996357 -2.016514 -3.2477288 -2.85997 2.5799277 3.0729184
1637 0.22576989 -0.0018123364 -1.9594674 -0.45230436 0.00786251 -0.06233581 -0.79128736 0.5567065 -1.444198 1.0736624 -0.76026654 0.08621308 -1.2007512 -1.7985367 -2.006348 -1.8429896 1.9012294 -1.235353 2.0630522 0.8250536 1.8286854 0.21733108 -2.4272213 -1.2136338 -0.054521512 1.9071369 -0.56533235 -1.5665795 -0.89024943 0.045084096 0.5156058 1.3680537 -3.0376637 1.2190022 -2.1579983 -0.115387194 -1.4707433 -0.1045776 3.7583988 1.5364133 0.57507735 0.057030022 2.1956134 0.60350204 -0.9770465 1.6304729 0.41023716 0.10444636 0.24432068 -0.4222265 0.24648085 -1.5053228 -0.6681296 0.75495064 -2.8603034 0.71949846 -0.4871694 0.25964144 1.6164155 2.3097508 -0.92110157 0.20657237 0.5016161 -0.056760818
640 -1.4268768 -1.0101362 2.032885 -0.38621086 -0.8364452 1.8214612 0.43370843 0.773348 1.7551808 -0.32819563 -1.5304345 -2.1714325 -1.618734 1.7993021 1.2639301 -0.89211875 -2.271234 0.72831994 0.13601641 0.42044547 0.14734562 0.43612754 -0.20752096 1.2506888 -0.056771867 0.5393809 0.13430475 1.4699229 1.102335 -1.2099195 -1.1917837 -1.7996684 0.7650994 -0.79718 1.8828126 1.5457485 -0.8773666 -1.4656745 1.0063018 1.7377005 -1.0223265 1.4403981 0.012558596 0.6511992 1.1609532 1.4647387 -2.0312319 -3.1768684 0.7380191 1.5006799 1.1167076 -0.31795323 -0.36687037 2.8199575 1.9054341 -1.1875623 0.9213508 0.17712986 -0.30247608 -0.16612448 -1.8884615 -1.6886288 1.0873137 3.0728219
19 -0.032094974 0.0037107791 -1.1645463 -1.2197789 -0.631519 0.4976046 1.7140474 1.4553828 0.36653742 1.2381991 0.6654932 -0.43686572 3.537572 -2.0807264 0.025210785 2.7945273 -1.2302507 1.1713299 -0.462574 0.5657462 0.65447474 -2.7979205 0.9815733 -0.76691234 -0.50707495 0.3647542 0.053316597 1.8267446 2.2288113 -0.74874717 -0.99905235 0.7027024 1.0772315 1.6945928 1.7980084 -2.2460458 -1.6205378 1.3083516 -0.76492316 -0.8738761 2.705911 -2.6555133 -0.8293848 -1.6095132 1.1886632 -0.4263659 0.26507515 0.35803494 0.17770344 -0.57435334 0.43195072 0.15424518 1.1069344 0.22181952 0.27579898 0.37238702 -0.73493004 -2.215989 0.37872708 1.3873782 3.1256213 2.456832 -0.39566585 0.21841194
1456 0.56523323 0.8966024 -0.28293505 -0.0068653706 0.8526547 -1.5121833 0.10597655 -2.4152296 1.8188672 -1.3443615 1.5001069 -1.8412954 0.0987538 2.607651 0.2202626 -0.27979624 2.7238915 -1.0187805 -2.0184507 -0.014178009 1.2089181 0.33414108 0.008869821 -1.6994737 -0.73715883 -2.5588408 0.055517964 -0.89919066 -0.6447773 -2.0650415 1.1652366 -0.3520806 -0.38526112 -1.5876886 -2.7907047 -0.106664635 1.7559485 1.2534934 -1.0748414 -0.9708027 -0.5476695 0.4800993 0.5737863 2.1195564 1.7780262 -0.11332837 0.85519344 1.9505688 -0.8956723 1.0486602 -1.5097677 0.097517155 2.2410967 0.021842694 1.6732764 -1.4415112 0.62156236 1.1917791 -0.1264747 1.0878742 -0.76624227 0.9889248 -0.3376131 -1.4658275
1452 0.14489307 -0.73220766 0.44841707 0.30325553 0.093288116 -2.8792405 -1.4291962 -1.1073639 3.1794977 -0.518764 0.07122765 -0.17146 -0.46236944 1.3648567 -0.17471021 -0.05099965 3.6584566 0.9346157 -1.9186118 -0.10869871 0.38259774 1.213414 0.6420294 -1.277237 0.30858615 -1.2433642 -0.5744769 0.1378095 0.024906674 -0.4500115 -0.41982543 -1.0136337 0.106427655 -0.29886618 -3.1328852 -0.2994688 1.7215525 0.75791276 -2.134951 -0.16311747 -2.2475708 -0.4265003 -0.7087849 2.5858161 1.0153178 -0.8382474 0.29559636 -0.4242074 -2.594646 -1.3288624 0.7053944 1.8999437 0.95927143 0.3288568 1.4915928 -2.946013 0.1487595 0.24276887 0.87778544 2.5496495 -0.07981492 0.50098306 -2.97168 -1.7351
1867 2.2836862 -1.0478266 -0.40200135 -1.0470461 -1.6345829 -0.666477 -0.605172 0.78273493 -1.5787617 0.92237955 1.8353412 2.1917655 -1.8854324 -1.0614643 -3.1337974 -1.8913293 -0.1609698 -0.9180717 2.3988173 1.1782972 -2.120371 0.03352045 -0.978696 -1.5275048 0.7916515 1.4846995 1.2293688 -1.2615317 0.446174 2.5667593 1.3861414 0.29881462 -2.501768 -0.6157526 -0.4779655 -0.75062966 -1.4224938 -0.66922456 3.2051625 0.8054811 -0.7423821 1.6327039 -0.43741724 -0.1815456 -1.3027987 0.41332608 2.9601197 0.26355207 -0.80250424 0.9853419 -0.52728605 -1.230935 -1.1032783 -0.40623796 -1.926915 0.94530743 0.19716592 0.704599 0.6913005 1.7363167 1.2853196 -0.73374987 0.019559287 -1.1809909
289 -0.3516204 -0.35017493 0.9988194 -0.41746107 0.52538604 -0.41090935 2.6379495 0.90899086 -0.20585333 0.0078064515 -0.3620578 0.04833641 1.5385296 -1.03348 -0.36776033 2.2439218 -1.6425444 1.5504396 -0.39615145 -0.4673563 1.665787 -2.2294912 -0.4645795 0.00824329 -0.51545566 -0.11563326 0.46212888 1.4533244 0.26496616 1.2098844 -0.67075086 1.0596045 1.4397589 2.1853592 1.3127737 -1.6021446 2.2502556 1.9488668 0.13514219 -2.7524126 2.1971073 -2.2492886 -1.3344555 -1.6304171 0.17853233 -0.080097504 -0.30012107 -0.6387839 1.4642092 -1.1562927 -1.6958512 -1.4430221 -0.62773514 -2.3041337 0.21486533 1.029842 -1.1304193 -0.66258365 -0.12780514 0.10747801 3.5652854 1.7642771 0.03000782 -0.6897164
1277 1.9312099 0.5715097 -1.0639523 -0.13568226 1.4285636 -2.2433386 -0.67268586 -1.1770018 2.2259595 -2.647284 1.7497694 -0.7382877 -1.8612779 0.741573 0.69847906 0.2801776 2.7566314 0.46768767 -1.9780723 -0.11714158 0.22433339 2.659434 1.3696694 -1.0585331 0.5172295 -1.8178625 -0.93818897 -0.3558244 -0.4175897 -0.33076635 -0.7443607 -1.0000342 0.19376484 -1.6601366 -1.431067 0.3771576 1.5577594 1.9282104 -0.37431452 -0.5221763 -0.35387814 -0.023899646 1.2565525 3.1326895 0.61684626 0.30277342 0.22346587 0.81687 -1.3353702 0.3793915 -1.1582294 2.7666652 1.1803629 0.23903134 -0.1513344 -1.9245949 -0.1694764 0.29748613 -0.19471891 1.6138395 0.0063023493 -0.7057862 -1.8826499 -0.35118985
1590 0.7167356 -2.1690657 -1.051391 -1.1854944 0.98043615 0.8223084 -1.7586743 -1.0953277 -1.1713146 1.5183375 0.8681323 0.98674715 -0.10826988 -1.3463019 -1.3427527 -2.2006717 2.7136974 -1.5478289 3.3501863 -0.68811274 -1.2007037 -1.2887943 -0.7741995 1.6626436 -0.5087552 1.5332615 0.6757509 -1.6626025 -0.41424865 0.70449847 2.1652892 -0.23248775 -3.1175077 0.8148957 0.058865704 -0.8060421 -2.295392 -0.45764422 1.1337513 -0.40584794 0.24644515 0.80444574 1.0529165 -1.0143824 -2.3703427 2.20178 0.20577879 -0.8966324 0.63985395 -0.35659724 0.13184527 -0.5250785 -0.7387041 0.43046606 -2.1256402 1.4232091 1.1687546 0.41943446 2.9074569 0.23113726 -0.18777682 0.78547347 0.37953997 -1.180054
1082 0.4232246 1.817629 -0.5677552 1.7744739 0.49736166 -2.0672 -0.4803396 -0.12583789 0.9031796 -1.2191654 0.50050706 -1.5268661 0.091188915 1.812423 0.70652986 -0.06084322 1.9527968 -1.2311732 -1.6181158 -0.48120537 0.32597154 0.8864165 1.2784553 -0.45752048 0.19879678 -1.23937 -0.46933267 0.001890585 -1.0191076 0.05662019 0.54506785 -0.10626597 -2.4530494 -2.3199 -2.8453176 -0.21761931 2.8188052 1.5928118 -1.5436203 -0.7312953 -1.6509619 1.0767461 0.9291465 0.049494848 0.1832841 -0.6027362 0.3261552 0.8005757 -1.9875562 0.2598225 -2.6738687 3.9469693 2.1653786 -0.96610516 0.6163761 -1.0095595 0.20478022 -0.111040935 0.58655256 -0.9656123 -0.88929224 -1.7960292 -2.688228 -0.70304424
1811 1.4336413 -1.2033162 0.117453456 0.38811705 0.55800915 -1.125003 0.12879561 0.2994888 -1.0682623 2.6708455 1.9009793 1.5291647 -1.9547279 0.95009553 -1.3961626 -0.7523757 0.9711724 -2.1575258 3.366782 -0.48450854 -1.5782485 -0.14449309 -1.8104002 -1.4915956 -0.16412175 3.210859 0.36533082 -0.8676868 -0.19144677 0.80007976 0.13605464 1.6802008 -1.3858794 0.19482312 0.28421623 -0.1991115 -1.7165847 -2.4217737 3.6973255 0.048660994 0.35096964 1.1923561 0.57828164 -1.0918936 -2.0307727 1.7457063 2.1000123 1.8104821 -0.73691744 0.07210262 1.3831377 -1.1437637 -1.3764514 0.034365576 -1.7517956 -0.4075302 0.99985856 0.3984053 0.42321956 0.17956334 -0.85043633 0.42623386 -1.4711766 -1.5444621
1771 -0.20721796 0.14438309 -0.43341357 -0.8058616 0.016064854 -0.80971676 -0.7644394 -0.6814649 -2.167625 2.7440379 0.8039425 1.5123564 -1.123373 -0.8288657 -2.29436 -1.3761411 1.5296358 -2.5752013 3.09642 -0.16139318 -0.22934407 -0.18394563 0.13150619 1.2522845 -0.5228049 1.2183316 -1.3969394 -3.26772 0.16317607 0.57504547 1.1791512 1.3418028 -2.3524141 -0.40075573 0.6777452 -1.0090914 -2.2998679 -0.16349348 1.8451102 -1.9061527 1.3420019 1.4598562 2.3098745 -0.7147636 -0.63950074 0.6307885 1.2107288 -0.19725715 -0.408253 -0.17251271 1.6044139 -1.3891196 -1.825316 0.3893322 -1.752168 -0.13786963 1.3847102 0.5398079 0.16843791 0.6660944 0.84998083 -1.4189715 1.9978154 -1.1374835
1496 -0.5408718 0.3164259 -0.11555558 0.742178 1.3225213 -1.9410093 0.92210996 -2.3577487 2.1824088 -0.24522886 0.23777308 -1.0800236 -1.0416036 1.4662099 0.05206966 -0.90784305 2.5512 -1.3953674 -0.21991754 0.30466077 0.67061037 0.9344857 1.6087931 -2.005073 0.9878569 -4.0995893 -0.72064865 -0.2710321 -1.6839964 -1.0589807 0.10381002 -0.4765214 0.8904024 -2.6701837 -1.3134356 0.118236385 1.3732951 0.49813855 -0.99376464 -0.20799227 -0.71942466 0.37576813 0.36165547 1.0416671 0.88207597 0.16723004 0.5019042 2.0352454 -0.5929377 0.043647677 -1.5531248 1.9486457 3.1933734 -1.2179736 0.020227754 -1.0802263 -1.3878757 1.9432948 0.13136296 0.34316182 -0.26964074 0.06689951 -1.9424992 -0.47871697
825 -0.3577592 -0.4444811 1.7700162 -0.32905602 0.46177432 2.4041862 0.0038694784 -0.5316023 -0.6273425 0.060044326 -1.1404871 0.022341145 1.8142287 -0.0125833675 1.4684542 -0.43797913 -1.5529517 -0.073757745 -0.70117205 -0.50393957 -1.688924 1.8523059 0.34194097 1.4383695 0.6093948 1.4007754 -0.05188939 2.9145389 1.7319591 -2.087245 -0.41025445 -1.0238218 0.16158204 -0.8376208 1.4207027 1.4333782 -0.109571576 -0.5086702 1.5170989 2.333323 -0.41991916 1.2279305 -0.7495442 2.4545348 0.68098146 0.628534 -0.91629124 -2.8413637 0.844595 1.1537399 1.2787242 0.81862134 -0.29311034 0.7618647 0.6351461 -1.8389995 1.4972109 -0.033580035 -0.3667069 0.8199247 -0.9167417 -1.599384 2.8383434 4.445131
445 1.7412615 0.20158014 -0.12602133 0.5690648 0.07052482 0.53292364 1.5055634 1.0780904 0.786432 0.007125316 1.2071772 1.5865443 1.8186916 -1.2243079 -0.8606457 3.9169395 -2.5163367 0.41186473 -0.8160517 1.1278447 1.626924 -2.3463407 0.039889354 0.21699513 0.6954787 0.1420062 1.5524353 0.19729143 -1.4830594 1.2554673 0.26616848 1.5209163 1.5456558 0.7888547 1.9216077 -0.3131406 0.2885546 -0.13552794 -1.4952092 -2.104555 2.122299 -3.6145382 -0.40617326 -0.47030962 2.1527867 1.1267169 1.1472292 -0.35961717 0.52297723 -0.22958735 -0.62806094 -0.2845431 -0.36656764 -0.7880444 0.013851887 2.3071773 -1.3368388 -1.3184056 -2.2623634 0.3599851 1.4385179 2.6376824 -0.3676091 0.55924374
965 -4.011077 0.25745073 1.2846901 0.8963056 -2.5360096 2.0055163 0.52004725 1.2358835 -0.35063255 -1.3518012 -2.3481686 -0.005509579 -1.195605 0.5683198 2.5197885 -0.7502762 -2.532899 -0.14726664 0.58466876 0.008844369 -2.1777222 1.4413878 -0.5636795 0.062460173 1.6514504 -1.6389552 0.83021367 0.5118251 0.8950066 -2.2763865 0.59298694 -0.467806 -0.011707792 -1.1748118 0.3494035 0.24890536 -0.63531053 -0.6286798 -0.46763104 0.41817653 -1.4217987 -0.23705907 -0.85431343 2.0318482 -0.11246407 0.28866526 -0.71347505 -1.3781284 0.9611059 0.6854475 -0.6765926 -0.47608456 -0.32167512 1.8755654 0.3566285 -0.22344688 0.68621427 -0.32246923 0.50723743 0.23333526 0.027880376 -1.1116376 3.0591586 4.245689
1768 2.469118 -0.25516495 -0.32286626 0.7109116 0.124139056 -0.7482738 0.089654684 1.7498337 -0.7146914 2.3503451 -0.9208753 1.0632107 -1.1706655 -0.18906412 -0.9106922 -0.68902993 2.4933503 -1.7315111 3.8203127 -0.20261474 -0.60435784 -0.7707778 -0.70010346 0.8634541 1.4689301 1.9760368 -0.42792204 -2.2996118 -1.903749 1.3370662 2.8262084 -0.37975928 -1.5064379 1.4248337 -1.074579 -0.77486145 -2.079433 -1.2754331 1.5075583 -1.8879018 1.2094822 0.3105794 1.7961898 -0.95287246 -1.9235514 -0.07529236 0.4371262 1.3020036 -1.190255 1.6886879 2.2757268 -2.1411242 -0.53565997 -0.5415 -0.7146124 1.7731477 1.402412 1.8421772 1.4363197 1.0237987 -0.35008514 -1.5010502 -0.15258756 -0.5394572
1883 0.87949055 -1.5961236 -0.70816445 -1.1221042 1.2932422 -0.61817634 -1.8721917 0.2945009 -3.8392138 1.080056 -0.15157993 0.72169834 -1.164405 -1.902468 -2.233721 -1.003024 0.20874222 0.14303325 4.063357 -1.1764439 -0.44820192 -1.0400544 -1.5188062 -0.054686025 -1.307689 -1.5068253 -0.81832486 -1.9070902 -1.6984049 0.11448433 2.2135556 1.4387783 -1.270285 0.27617064 -0.5487825 -0.40932047 -3.3817194 -0.95527256 2.4407542 0.537777 -0.39774033 0.39892238 0.5397767 -1.0000333 -0.73598593 -1.2900738 3.063577 1.8598967 0.2781341 1.426329 -0.1805679 -0.8829459 -0.3296362 -1.126261 -1.8847103 0.58482313 1.1022689 0.6490576 -0.4171484 0.84514225 -1.0275744 -1.1465843 -0.24729063 -0.3031207
702 -1.2271113 -0.1541301 1.2189978 0.645914 -0.54420394 3.5563486 0.53454125 -1.1100487 0.5332981 1.0788532 -0.6489603 1.9440824 0.5275705 -0.09460885 1.667673 0.58575433 -1.7437564 0.52167326 -0.6538239 -0.04044505 -2.1859949 1.4807373 0.030871114 0.010123749 -0.21070324 0.4819516 0.15976188 0.8828533 0.17342553 -2.572509 -0.54916114 0.11707065 1.4841877 -0.59870464 0.13664758 1.2918892 -0.12553592 -0.7156877 0.20801926 1.0728517 -2.1611297 1.5048091 -0.43224657 1.9520689 0.4645117 -0.19424121 -1.1784487 -3.2409422 2.3572836 1.8808134 1.3541111 -0.056847423 -0.37653148 0.03193637 -1.0898279 0.112776436 0.9335183 0.2419064 0.6611461 -2.0172389 -1.4459893 -1.3271923 0.28845462 4.6846237
568 -1.7035748 1.0115001 1.8166502 0.876982 0.09748689 0.07522853 -0.22588757 -1.2042215 -0.22576717 1.8986871 -2.5867083 -1.159137 0.08223634 1.0575917 2.140061 0.7126421 -1.6190599 0.35144788 0.7682036 0.87162316 -2.414008 1.7638106 -1.9451172 -0.2775994 -0.13167961 1.5480268 0.5212317 0.083261125 0.4812049 -2.4958367 -1.6771107 -1.2711573 -0.54005617 -0.5415007 0.6065722 1.126907 0.42723814 -2.3697312 -1.0181721 -0.5561653 -0.108426906 0.9353833 -0.13351804 0.9697569 0.95253736 0.04738213 -2.5734172 -2.1154184 0.7727536 1.5344633 -0.4965968 -1.7864004 -0.4938779 2.5572686 1.760168 -1.3986992 -0.39933914 0.6627072 0.6180827 -2.5947268 -0.35800996 -0.35131812 2.2865653 4.235761
1461 1.123112 0.7557478 -1.6604277 0.2695994 1.2907516 -1.9485966 0.9168608 -2.944674 1.9066428 -0.29190657 0.47718728 -2.3032062 0.29596242 1.5323743 0.96478456 -1.103432 2.0036092 -1.8039099 -1.2671475 0.8493402 1.2261919 0.9866807 0.098974876 -1.187489 1.0654676 -3.066957 -1.5530294 0.517467 -0.8101503 1.2771077 -0.098766565 0.88673735 -1.2324892 -1.2221665 -1.9268543 -1.3571248 1.3928473 1.9380764 -1.4582307 -0.09619211 -1.9740254 0.78176063 0.34270862 2.9419177 -0.35731405 -0.9260564 0.77221936 0.34967715 -0.5868209 -2.188898 -1.9173479 1.2351288 1.4514537 -1.569377 1.4203604 -0.8288577 -1.0145667 -0.18351054 0.59239894 -0.24870344 -1.1711442 -0.105873406 -0.46020263 -0.014374394
1692 0.888515 -1.129231 -0.38598645 -0.94474953 -0.14630723 0.727053 -1.5870937 1.9894683 -1.0125718 1.3467805 0.17531008 -0.22443306 -3.2669609 -1.1615454 -2.5831234 0.1727677 1.8500439 -0.34255102 2.2076352 -0.19387248 -0.05636868 0.85613406 -1.3857503 0.8558389 -0.45222166 0.57480985 -0.2977646 -1.1956971 -1.396367 1.9491552 2.1690497 1.7317575 -3.2486098 -0.72120345 1.4182445 -0.8457609 -1.0494342 -1.1672665 1.1731205 -0.93706244 1.6106333 0.7358187 1.4188051 -0.568393 -0.96481085 0.096277386 1.6384423 0.27198339 1.1708655 0.99197954 0.9405568 -1.6586176 -1.0984743 1.4738683 -4.289128 -1.1247907 1.1773763 -0.09373115 2.0865507 0.19287808 -1.9026793 0.49494043 0.35598066 -1.4951779
691 -1.9429642 -0.40611327 2.085177 -0.35674757 0.63435477 1.7027498 0.67737484 -0.34182656 -0.22643587 0.06118918 -1.2776295 0.2546552 -1.5753193 1.7628444 1.7463926 -0.8322646 -1.4347525 0.84307986 0.8500861 -1.2599386 -1.6297598 1.165016 -0.45105246 1.6982838 2.1513083 0.7742461 0.06457071 1.3138639 0.84286004 -2.0521486 0.5119975 -0.03783507 1.5131623 -0.59082025 0.53000706 1.6749276 0.12641443 -1.7070222 -0.6097629 0.5726144 -0.24763492 2.096117 -0.36924404 1.4727643 0.99440145 -2.2917297 -2.2588758 -1.193957 2.066311 1.0430754 -0.08362788 -1.6470677 1.7710191 0.29383913 0.9269639 0.92803997 1.3434646 1.0054318 0.4317634 -0.9538993 -1.2597927 -0.08748461 1.8493011 4.1452518
1154 0.37159383 2.0395095 -1.6625131 0.32851577 0.46994865 -1.311895 0.12630774 -1.5997404 1.1385185 -2.002482 1.2563182 -1.415125 -1.5577257 2.525193 0.38201302 -0.08759993 3.869197 0.7539224 -0.53740656 0.38998264 0.22466701 2.2691665 0.65352464 -1.7784256 -2.6483805 -2.6643791 -0.062405538 -0.22320278 -0.3170135 1.223572 -1.1820577 -0.9756337 -0.0045564254 -0.33698994 -1.1397637 0.18283719 1.0085422 0.7739008 -1.6530832 -2.5354142 -0.86634845 -0.08165193 -0.10658088 1.2650099 0.76735723 -0.42270434 0.43712902 1.5591995 -1.1558938 -1.5713518 -1.0011021 1.030268 1.5260361 -1.0241916 0.39118055 -2.1518662 -1.0353863 1.8355993 -0.18035796 -0.44898894 -0.7722684 -0.8241431 -1.522406 -0.57940155
1905 2.2278192 -0.13627331 0.8486412 -0.03978093 0.81633 -0.70876837 -1.974369 0.84381545 -1.2395809 1.536561 -0.72782797 0.8267927 -2.1719906 -1.4576101 -2.5970027 -2.2611167 0.6644783 -1.6536579 3.7350707 2.4272373 -1.6667974 -2.0994682 -1.2732016 -1.1475111 0.6617125 1.0069441 1.0439382 -1.6628695 -2.9189067 0.62752414 1.1758746 -0.40809 -1.2320248 -0.8645338 -0.9825644 -0.08402911 -1.6365494 -1.9782732 2.0505714 0.025181118 -0.40407363 1.6741221 0.7476078 -2.4074473 -1.5692756 0.47862008 0.53102934 0.7362812 -0.25749978 0.64484394 0.28152296 -0.6648581 -0.8752445 0.57697433 -1.8551722 -0.06897427 0.8057639 -0.8711943 0.4916349 1.0249773 0.64416206 0.66449475 0.8313314 -2.0895877
