2137 64
146402 1.6974791 -0.3262863 -0.18638992 -2.9220898 7.331796 4.068107 0.79013646 -1.0187935 2.3120546 -8.780315 -0.23104337 -5.9363976 -1.0673805 6.4973927 1.8089101 -5.9319363 5.3906093 1.0983742 1.1070704 -2.674436 -2.2174373 -1.3504438 10.319903 -1.5098922 -3.5209572 -5.9123025 -4.1483746 -3.579935 -0.5398887 -0.47209635 2.6764839 -4.9030757 0.58824265 0.96762806 2.232993 -2.9271064 -7.130463 -1.0262899 5.9979973 0.4854231 3.2729533 -3.0315697 -1.9445816 -0.24614464 -1.9980854 2.2646217 -2.2449853 1.5234154 -5.134259 -4.5643578 -1.7107751 3.2043314 5.07656 -4.485781 -0.64791197 3.1520524 -0.21948662 2.187998 -2.3611054 1.5086763 -3.6794348 0.22830985 -7.59929 0.8808905
175815 2.6079695 -1.015629 -4.6789184 -0.94965947 0.568431 2.8905466 5.9675703 -0.42916015 4.3168387 -4.5707126 4.4098477 4.285174 3.9473891 -3.8306148 0.88835484 -3.8850443 5.169543 0.087042525 4.1542783 -2.9317958 -7.4356527 -2.1537223 9.54066 -4.6149883 1.0848927 3.260812 -2.2339754 -2.415137 3.1576672 -1.1267196 -0.015028066 2.0342462 0.24307819 1.2468616 -2.2580016 -5.093685 0.42486265 6.9975433 5.253405 1.8532882 -2.9387803 -11.392914 -4.8479905 -1.4377725 -4.5192714 -0.7727485 -5.4089627 -1.4374442 -0.61272424 -3.8626132 7.099463 5.8319554 1.6830213 -0.95972586 -0.81282485 -2.8979888 -1.1297519 1.6295928 3.2741117 0.43348217 -0.49180365 5.782753 -0.87981373 -0.056696575
4389006 -8.596012 3.5673654 4.1195755 2.7968147 2.4720821 -2.4590368 6.4265614 -4.1276007 4.3685985 -6.843677 -0.658425 -0.9131817 0.7374673 -1.3043061 -3.7813096 -1.4500228 4.2153773 2.3787065 -0.355876 -0.18813933 -4.142103 2.4324763 0.16530024 0.36113587 -3.0654664 -1.2835071 -1.2935964 2.5642452 6.971357 4.0829983 2.9563181 0.31986967 -3.2051103 2.1443057 7.508587 0.5676745 -0.47773895 3.8026433 -0.43784818 -6.1796727 -0.5137938 -5.236164 -3.8102472 -2.677738 4.899633 1.4623687 -5.053637 -2.6298654 -2.903444 8.599519 1.0186515 -0.91200715 -7.68472 -5.9522376 7.6807384 1.9479669 -1.9896169 3.4973567 2.1919007 -0.87277323 2.3967922 -0.76382375 -0.6472998 3.0553663
1250384 -0.49061388 6.5478663 0.2996032 -12.991649 2.0745783 4.2246814 0.94512826 8.969854 -1.0493863 4.6231103 -6.63429 -4.709307 -1.4293662 1.2264532 5.0685134 4.474439 -2.5665765 5.413681 0.90525025 0.3729137 -2.3963351 1.3891677 0.4610618 8.042269 -1.0259163 -1.8321748 0.21697056 -3.6043272 -0.6514523 -1.8106431 -2.1694276 5.479629 -2.187691 -12.499094 0.39365667 1.7113962 -4.554811 -2.6826513 -5.7554502 -1.9194698 -3.0321 0.68925005 -4.804313 -6.422686 0.9514071 0.53135884 -9.37285 3.039618 0.9099169 0.862879 -6.942151 -4.8081603 -4.150841 2.9810617 1.8575797 1.3653088 -5.127755 -6.2737074 1.3832022 -3.7626083 3.6194725 4.958628 -0.76220375 2.2784657
885694 4.853602 0.07982501 0.49863255 -2.7599568 -2.823174 5.6341586 3.477592 5.3663855 0.31469917 6.3181915 1.3821046 0.3101981 -2.3208768 4.8278127 -0.47835913 6.6990147 -2.857116 2.7003844 -4.12114 2.4587107 -5.2049704 -5.3710613 2.263058 1.1768523 3.0539572 -5.890087 -6.617998 8.372999 -5.8879075 -3.385309 -4.9525785 4.697727 -4.4692326 -4.0361004 4.84759 2.4336486 -2.0250578 3.353176 3.4367642 -1.4465843 3.5989294 3.521995 0.120299116 1.6949222 -2.4495885 2.087991 -4.119173 0.4021801 0.31793648 -2.3236198 0.2645178 -7.4378777 -1.5294183 2.4023578 0.32977787 -6.8610826 -0.7025351 -2.6090925 7.052033 0.118726194 4.037621 -1.166055 2.5759327 1.7892748
4376131 -8.102769 -4.1087413 -0.16704555 4.764143 -4.3855042 -10.784414 5.326833 -5.6228185 1.4113269 1.6546891 1.8587124 -2.7778401 1.3613247 -7.407426 -1.8283755 1.1635277 -3.203558 1.9606382 0.76117396 -0.87571985 -1.9181478 -4.534211 1.7137954 -5.9370933 -6.3010087 2.904066 0.55109316 -3.0155663 7.715707 6.381636 -0.0941609 -4.474444 -2.473385 -3.6637087 2.0697074 -1.7205157 -1.1766887 3.5750008 -2.117457 -6.7604547 -0.7422692 0.42350364 -1.5361679 2.5796747 6.1685643 3.1285148 -0.0781915 0.7146434 -3.1150656 -0.22903898 1.9297385 1.6748632 -4.304069 -0.43798813 10.323236 0.053600766 1.0944172 5.8279305 -3.8303893 2.0709012 -1.2019405 -0.40479705 0.99482304 2.927744
885086 -4.8886747 1.1290654 0.9697233 -2.7332752 -4.641564 -2.791944 3.3187437 -5.236351 5.570856 -0.010907298 -1.3282583 -2.698853 1.6377405 -3.6785197 -9.24295 2.3457377 0.73859566 1.807189 -5.327897 -2.9250689 0.4741052 4.8546724 6.9511166 -12.305578 -3.9840944 -3.1013887 0.71543914 -1.217716 2.3203044 1.9735649 1.68918 2.425253 -3.8479247 2.0180795 2.2356153 -3.3517368 -6.9692926 0.095167235 2.1787953 -5.7328935 1.2592301 -4.0928893 -3.0029871 -1.6950872 -1.6511096 2.2467618 1.2264236 2.4466481 -1.8711227 -0.24154477 -3.2988305 8.118628 -2.6189547 0.65205145 0.83600473 -0.92623174 2.0653317 0.6250243 -7.08368 -2.135762 -3.100102 1.6502519 1.4525762 3.769285
528686 -3.3965092 2.7724147 3.2913795 -0.0010654704 5.3684516 -2.6881666 9.656551 -7.3186727 5.2364607 -0.08911198 3.4586396 -0.3304871 -0.36613086 -6.7213397 1.5045594 -1.271837 3.9194791 -0.7679386 5.3972297 -3.969415 0.11375112 -3.8100495 6.5021553 3.038262 -0.7864936 0.045044966 1.5149263 1.2516738 -2.5319247 -0.45264062 5.795899 -6.5957184 0.054461084 2.6196232 5.4022756 4.7104044 4.781699 5.640421 4.569166 4.3871374 -0.60135424 -4.3411803 -6.070747 0.092653126 -3.5254953 3.331412 -1.6404989 -1.9939675 -2.1345117 5.03192 -2.0456548 2.3523207 -1.1996343 -4.420856 4.836855 6.564516 1.9196922 -0.93065673 7.4793305 2.5030646 0.99649936 0.1428743 -1.8926634 -0.9761449
346302 -3.2513738 -3.5747957 0.18519975 -2.8636935 -1.7502849 1.868358 -5.471136 -4.8593693 3.944536 -2.8526382 0.6116216 -2.2199502 4.167239 0.56777406 -5.6359944 -1.6487769 6.009804 2.7735624 -3.2754002 1.5786068 -0.71458894 5.1590495 8.746636 -6.8608384 -9.222899 -2.8195844 -0.9532684 0.61731297 0.10394411 -2.7335196 0.17453633 -2.1492608 2.2254725 -3.157499 2.2514322 -3.334368 -6.4628267 -1.7060292 4.092647 -1.0307117 5.4684296 -1.4728466 -4.3691773 -1.2556607 -0.423243 5.5718436 1.1670523 1.7689648 -0.29922092 -0.47970214 -4.8580976 3.9866235 -1.5490954 -8.213957 2.286248 4.9074073 3.0750852 2.8426468 -3.3902984 -1.5182909 1.9994491 -3.205433 -2.9922416 1.533474
4015425 2.8683019 -2.2976282 -0.5601788 4.639834 0.36456886 -7.091401 3.9110463 -2.2428055 3.1948795 -0.71196574 11.284096 -2.1147525 -1.9897186 3.1660223 -1.1052439 -7.2000484 -1.7985103 -0.9523618 -1.7428083 -3.621701 -1.1335597 4.401384 3.9680238 -0.25283512 2.1992733 0.76356316 0.17701276 -1.3891517 -1.7024099 0.4400366 -0.7421891 0.648144 -1.8085376 -3.755649 -2.1263967 -2.4996784 -3.741037 4.709355 -0.44443887 -2.368224 4.0532002 -12.343032 3.6350331 2.0201194 -0.033228062 5.9967675 -3.9320073 2.095993 -1.4869003 2.1261492 4.440626 3.1575992 3.1817589 0.82132804 -5.402772 6.327454 2.9503856 -1.7464094 0.02777048 -1.7474934 -4.371298 0.90843076 -1.0221577 0.22977667
964519 5.501971 6.4911017 -5.4033613 1.5883974 -0.8082101 5.0436587 1.8375803 7.7596183 0.4520205 0.18644907 -4.31255 0.6795363 0.7772246 -4.6085153 -4.998513 0.06663161 -1.8383354 -2.6065936 3.632474 3.3155434 -3.4979239 -0.53147495 5.6247945 10.178182 -2.3442938 -1.4780393 -2.044495 6.0612955 -4.369156 0.30589852 -5.2079268 0.5182434 0.7280833 -10.076297 -3.1074665 0.49224886 -2.3721106 0.9120224 1.2214503 1.5772375 -1.2281479 4.4402537 -1.2437084 -7.2596254 4.7177105 4.9215536 -4.2863936 -5.3369703 -2.715767 -1.3291488 -0.037034344 0.17532775 -3.152349 5.3556457 -4.8917503 -4.2150607 -3.8806262 -1.7464182 1.0440178 0.61876774 0.30047926 1.8593165 4.7021775 2.4643958
5290695 -1.7569838 -4.119722 0.7330134 1.5606358 -5.1255493 -3.4093149 6.410638 -3.2409923 -0.81942385 2.1537485 5.924698 -1.0397124 -0.76822084 -0.9659528 -1.1618954 1.9906859 5.7262335 3.63511 -0.5692548 0.88497853 -2.7786908 -1.4575212 2.1518073 1.8724113 1.3389368 4.5576987 3.2043471 -2.3306365 2.9919882 0.37861934 0.6216583 -2.3908925 -0.94126165 0.24606368 -1.8857754 -0.5275439 -1.2033979 3.3055534 3.5064585 -8.789887 11.615306 1.8648582 -2.4390557 -2.4034772 1.3674662 -5.4564023 -4.8112316 -0.69380134 1.5105114 3.4586856 5.522733 9.312195 -0.31253746 1.8691177 0.8423701 4.4477015 -1.169873 -0.3343512 -3.5269659 -0.37249982 4.222184 -0.52619976 -3.820075 -6.032932
4658123 -4.103237 -2.9796414 1.9022682 -1.4519856 -4.2391834 -1.9983143 -2.1549752 -4.7338176 1.9166839 -2.808411 2.5258205 -0.55573785 -1.2446958 -0.73969704 -1.2052867 0.22273868 4.7690163 6.933431 0.6842558 3.0817153 -0.48675627 2.1097102 8.879486 -4.260756 -0.50382537 -4.0071645 -3.4042103 -2.7330575 1.2293404 -3.567818 -6.969497 -3.2638104 -1.8784521 0.16783848 1.1808811 -1.7381792 -7.3030796 -0.84885 -5.182368 -0.6564438 0.07395166 -6.6000147 1.6369685 4.6750445 -1.7956091 0.89640445 3.2222497 -3.9153626 -0.6390351 -2.548843 -7.814522 2.0894296 -2.650353 -5.338069 -0.3989683 4.7519417 -2.9820256 0.60067105 -4.704445 0.18013477 -6.07053 2.8295004 -2.5306144 0.9786799
235211 1.2109483 0.36963478 -2.9690907 0.5943274 -1.5354673 -2.6521842 -4.749167 8.109902 -0.71229 0.9485581 -3.6631548 2.705934 1.5630084 -2.7758837 -0.7722219 -0.951896 -1.8441592 -2.9421313 -2.8194363 0.4613127 1.9075785 -5.286647 -1.6974031 1.4013767 -0.090461165 -8.186261 -4.9595547 3.256249 -2.4200926 2.7979395 -2.6957493 -6.3437524 -2.021523 6.129936 -0.26237372 -1.924959 6.372246 -7.719601 -5.3217764 1.6330538 4.450933 -7.161299 0.43729484 -0.06955437 0.4244355 -0.31195942 2.9874294 -3.529759 2.0868573 4.8671527 2.630357 -4.65772 0.26489586 4.460287 4.050661 -1.1484982 -2.2629235 -3.9682186 -3.31286 -5.7092857 0.8322815 -3.4992921 2.801141 -6.6667185
1250414 -0.62431544 0.72186863 0.86828285 1.2919432 -7.5179167 10.274414 7.5810704 2.5777073 3.7203412 6.3137984 -0.5231778 0.8591468 -1.3916166 1.4865754 0.7471009 4.5396466 -1.6115282 -3.45556 -4.172544 6.4371085 -2.653219 -4.85799 4.582518 8.155422 1.4444425 0.29855958 -2.3704693 6.064424 -1.919375 -5.0814157 -0.69358116 3.5930946 1.1453711 -4.469033 4.2221837 -4.8884773 -0.77680004 -2.053729 2.4136436 -1.5871437 4.073512 6.7793574 1.1695007 -2.0509152 2.204115 4.1752214 4.0697136 -3.3295336 0.60141873 -0.6180663 3.5469909 -8.614471 -2.0588198 4.4020424 -2.9824193 -6.1725063 -1.3329334 -1.7090256 4.5271325 -4.504309 -1.708399 -0.94970703 -0.0068693827 0.18566884
885683 -4.106111 -1.8661205 -7.764217 -6.9749365 7.029457 3.6366048 -2.6943736 5.325825 0.07839933 4.253013 0.28758097 0.06472319 1.8634644 1.0804714 6.059527 6.801916 -7.0990586 -2.159702 0.4401151 0.57397884 -2.1861377 1.8129139 2.1873662 7.8758335 0.022491388 -2.3978136 -4.829624 0.6908824 -2.1444478 1.1825434 0.77633923 1.6730845 4.3965793 -4.067543 0.8852578 0.1405002 -0.09381926 -1.8433086 -3.6495802 0.9273559 -2.1126504 2.1298866 -1.6868097 1.8246703 3.007849 1.2111113 -3.7585506 0.82116646 6.8901777 3.9378202 -2.4097238 -3.0887165 -2.5926228 3.6173527 6.318605 0.3939538 -3.026298 -7.5250115 -5.3109093 -3.3170002 -0.85402834 -4.9954696 2.7341561 5.117271
398877 5.464136 2.062445 -3.503976 1.2907813 4.6300526 -1.5343074 -0.24458824 12.144949 -0.6565967 3.6839683 -6.119813 -2.4234529 -1.0233791 -5.748549 -2.7287037 -0.24009056 -0.4126811 -2.179415 -0.8280272 -0.77226526 3.0965452 -7.3002157 2.7425616 4.2741127 -0.41337538 -3.5176723 1.5438172 2.6399264 -6.3368225 8.575192 0.28303465 2.4988987 -2.5426476 -1.9359647 -3.5564828 1.5849841 -5.21902 0.9551468 -8.598829 1.7093722 5.902597 -0.8557146 -2.8599179 0.83061117 -1.4408219 1.1889918 7.149611 -1.0453011 -3.6176565 4.0081515 -1.4859097 -2.8923426 3.5883157 -0.51225495 4.000818 -1.1901238 5.9215508 -3.984117 -2.463743 -4.351242 4.1905885 -4.6718545 -3.0086496 0.38811702
4376144 -3.5018675 -3.6683338 0.14500502 0.17787708 -1.8153343 -3.7616413 0.70883745 -8.668017 1.2912561 -5.965063 1.2637266 -0.12357546 -1.8004764 -2.756804 -3.7662578 2.2527106 6.768862 4.870904 -6.156587 0.028359728 -5.8886437 -3.0816078 7.697907 -4.868667 -0.067456596 1.5635122 -6.039534 2.6604388 4.476918 -4.2886324 0.40313658 -3.386204 4.334911 2.820016 -1.203078 2.1227634 -1.8364688 4.973885 -1.1233039 -4.1871443 -0.16107515 -1.328199 2.2037017 5.1893344 -1.6888993 -3.2631812 -0.008401728 5.8946095 -2.625632 0.28586572 -1.907389 -1.6315683 1.9191926 1.0678453 2.515006 -1.5199394 -1.7392968 -1.5270909 -1.0110389 -4.5626197 6.4037685 0.5567109 1.3203712 -4.2210264
6327248 -7.1435246 -3.0707304 5.0987616 0.23554651 -2.2373757 -5.3743033 7.7073054 -0.85655457 1.3302765 -0.801062 3.9530978 -2.2694561 0.566591 3.466369 -3.7783928 -4.3476477 1.4233187 0.6907085 -2.799784 2.0191824 -3.1280286 0.5143399 -0.48083186 -2.3251204 -1.0888498 4.995888 0.28773463 2.5932593 1.8817505 0.8537885 -1.3323848 1.3881541 5.5913706 -2.2822332 3.0115354 5.156314 -5.9554496 -1.1372352 2.63287 -3.8612044 3.5918052 -0.38172352 2.6248665 -1.906471 1.9144309 -5.317463 -5.5358844 -1.4643235 -2.3915226 1.4750311 1.3399117 9.009064 -4.706845 4.4180684 2.6416392 3.00962 1.1783026 -4.459059 -3.4459524 1.0729178 -1.3703096 2.5912242 -4.1653857 -7.030793
6064996 -5.667513 -4.5548882 4.918351 8.904935 -5.345634 1.9434779 1.3739947 -7.0636005 -1.7118337 4.2651267 2.6348407 -3.4142969 0.5754282 -9.263505 -2.9155939 -5.1223683 4.5698957 -1.6437984 -0.5685097 1.2030803 -3.1841595 0.011416543 5.6682935 -4.224129 -1.1671131 2.3558705 2.5290663 -5.551899 1.7497075 3.6147094 0.4155801 3.7585871 -0.9287882 -3.1888807 0.24677072 0.46255508 -0.4437369 0.75901467 0.3696987 0.94723845 -1.121511 -6.547684 3.6390224 -2.7141924 2.3116198 -3.2457936 -0.5979313 -0.66841596 -6.4720616 2.3150458 2.1034985 2.5663857 -3.331697 -1.2065189 1.7720431 -1.6315869 0.5291425 -4.7122593 -3.3140175 5.645604 -7.334255 -0.6031839 -0.6165873 2.0290298
809866 0.95123607 0.14164688 -1.3348522 -3.5753696 0.5778525 4.7979465 -5.50099 -1.7275678 1.4063424 -4.7928205 -1.1011829 -3.1130772 -3.4907126 0.5941535 -0.20836847 -6.5717926 2.997949 0.002017526 3.3829105 -4.6055684 -4.446227 0.72304726 7.4548993 -4.008999 2.7718744 -1.4295812 -7.0259123 -2.9605913 -2.1067944 -3.252395 -3.6503391 0.6521075 0.372747 3.5863078 0.86913407 1.5839057 -6.53626 1.2095628 0.7515024 -0.0029173424 4.8291755 -1.8239853 1.4692367 6.178451 -2.607618 4.9506807 3.1282206 1.5333164 -1.6442243 -2.6092436 -0.4861943 6.723343 -0.49862307 -5.782046 1.634119 5.756459 -0.17798749 5.1897106 -0.20057856 -0.8201592 -4.880485 -0.61202997 -3.7370546 0.30631253
1532136 -2.813668 -4.6728187 1.4052341 -1.2678162 -0.8342959 -6.7755303 0.095783934 -7.496469 0.20194702 -5.560043 5.848003 -1.4094408 2.2412868 -1.2182469 -5.903869 4.342938 -2.0719745 6.818597 -4.027817 2.1917582 -2.4436963 -4.050317 4.146217 -0.79107785 -2.9198802 3.1129234 -4.2651944 -4.494373 0.9206311 2.814908 1.4721987 -4.383514 2.8810918 3.0592506 4.342274 1.5548861 -2.200817 0.72929466 0.116007626 -6.4601145 -2.5623739 -1.3626621 3.597995 3.3245175 2.164596 1.080254 0.72511274 -2.8858573 -4.776907 4.707014 1.672501 9.077988 -0.9369481 3.3464954 -1.0041907 4.0270777 -2.068157 0.49798325 -0.90696394 -3.0908241 1.5065227 2.5684273 3.2706969 -3.2563555
4376143 1.5643022 -0.48999906 0.44029337 -2.8232234 0.41334844 4.0326304 2.2416823 -11.133514 3.076101 -0.23634592 4.9250975 -2.4556193 -5.9120994 1.081435 -1.0390856 -4.8345623 -0.45436853 -2.5842948 -2.6390676 -3.1521432 -2.1378818 4.0083537 6.7992387 1.953925 3.9078033 0.1978506 -5.0084352 -4.127497 3.4387484 0.4455978 4.350113 -9.487976 1.5686339 -0.84613425 -3.7237806 -5.022607 -5.896078 -2.3028717 1.4518877 1.0232935 -2.5485306 -1.7709184 2.3019385 2.0966895 2.1275065 0.27301383 -4.780809 3.8017206 -2.6661339 -1.4002515 4.4040747 2.7068431 -1.1257551 -3.5721815 5.548717 -0.2188217 -0.4246759 4.1480494 6.1298137 -8.305412 -2.5262146 5.3276052 0.93460196 -3.3278742
663875 3.5779088 -0.8286079 -3.922619 2.3135622 -0.54056084 2.3052006 3.1511776 2.658291 1.6095107 -4.608089 -7.1477757 -1.1850551 -3.877067 1.0445875 -3.9246745 3.4697702 0.07065351 2.7059412 3.8218696 2.3886542 -0.797233 2.3524418 2.639214 7.363441 -6.188584 0.008851718 1.6817259 6.7657385 -4.911723 -0.7705695 -1.2419741 -3.5675077 1.933739 -6.496104 -1.5769199 5.5510964 -1.2271588 -2.822621 -1.8722843 2.2144227 3.6350696 5.0858994 -2.4028022 -1.9958816 3.9667087 0.49708393 0.18299331 -1.9816478 -1.0719799 -4.8757806 5.265253 -1.5666283 -1.5827358 3.7923746 -8.839757 -5.212029 1.1123649 5.722583 3.3432798 3.1095006 -5.8884015 -0.6979086 5.6301265 4.5593495
6876043 -2.7791893 -2.90327 2.7389398 -6.831196 -3.241138 -2.1773534 1.2773736 -3.980204 0.8461056 -2.4838238 -1.1006804 -4.225964 0.8018929 0.25171092 -5.2889338 -2.895079 5.184912 6.4393363 0.63996637 3.753166 -2.8679576 -4.5243964 -3.6914997 -0.8339684 -3.859218 1.4575583 -2.7779145 -2.9778395 1.5376663 -6.703622 3.0589337 -2.6914248 8.483053 5.037894 4.174991 -2.6045883 1.74729 3.4691873 -0.9326798 -5.4295526 7.6107187 2.7651536 7.773818 -2.371862 -1.0759012 1.571563 -2.7062054 -1.1879079 -2.2993321 -1.6031293 -0.6970226 4.3929 1.2076033 5.9692607 -3.1857545 5.7219872 -2.031253 1.4728246 -1.8678744 0.16310911 7.1059732 5.280582 -1.3355095 3.1169577
4376154 0.088839196 -6.7070284 1.0890313 8.204531 1.0464611 -0.6885793 2.1265285 -1.9500871 2.177972 -0.69723845 3.6852462 1.6627827 2.3190694 -1.3243392 -4.4253736 -1.1957972 -0.32355437 -0.72288597 -2.1137342 -3.06801 -1.79887 8.4235325 0.7179004 0.9421689 2.9175634 -4.51181 1.0393783 0.7324811 3.417781 -1.5793558 -3.0053902 1.8041083 0.90116334 -1.1969113 -0.7905795 2.7115054 -3.487723 2.8635814 0.6550601 -6.8749375 2.6159148 -8.977453 -0.205125 9.881344 1.3874063 0.0063128625 -2.1429725 1.0972699 -6.6447477 6.662707 2.2063017 5.458847 -1.4134033 0.33215714 -2.4989278 2.1712599 0.32370666 0.19649965 2.1263235 -1.3068969 -1.4751633 1.178678 -4.9149895 1.7563019
175773 0.27698416 6.441944 0.5709297 0.98906815 -1.8599837 -2.824911 -0.24015056 8.649752 -3.6412299 -2.3942974 -7.556949 3.482614 5.479596 -2.5294423 -0.9547106 1.7805023 -3.3814125 0.1863822 -1.8384664 -4.9397044 -0.7193793 -1.3921201 0.44960588 0.33565435 -1.5413097 -1.558614 3.002543 0.73176545 -3.8650374 0.5364198 1.1644382 -3.5518892 -3.314242 -4.107061 0.41104037 -8.613966 0.10727003 -7.5860367 -2.900596 2.1373792 5.147226 -1.9092603 1.0747699 -0.22085981 -0.9291773 0.16841501 3.9443364 2.2004359 5.4721665 -1.0591193 4.908105 -4.2832303 8.328453 -1.8887528 2.2138245 0.52053744 2.6823578 1.773205 -2.250918 -0.5879493 0.54921263 -0.950346 6.091926 -9.86581
485139 -2.2461023 1.7259072 1.1156311 -3.7061906 -5.3164835 2.4206455 -4.50352 -4.4167876 3.8527339 -4.5816345 2.8740842 -2.592281 -1.2208833 3.0985982 0.9673405 -0.71893114 3.2391615 2.1884482 0.48716858 1.7999496 0.838839 2.2584639 6.0040584 -4.52362 -3.6727479 2.1269329 -3.659622 -1.4763721 -7.9737406 -3.5255268 4.3739476 -5.0126934 -0.13312308 -0.4703566 -3.0973608 -2.4448771 -3.7781792 -1.8244823 -3.1185367 -1.9724987 3.7620568 -2.2528954 -7.838156 -0.15276976 1.1277175 5.8599143 4.817664 -2.9459105 3.022729 0.072196916 -3.3667526 3.6627645 6.112978 -5.879929 1.9020752 3.038144 3.4437582 1.8633423 -1.8333689 -0.8909761 -2.9955816 -0.45165017 -5.256422 4.6079106
809896 4.129589 2.9848247 -1.2513453 0.018802 -0.86743456 0.3243248 2.0895472 3.6439524 -1.434271 4.4757524 -5.7056017 7.8907495 2.960903 1.2967383 2.499911 -0.06756465 0.41745168 -3.1160412 -9.601535 4.5186224 -0.82422227 -3.3869195 -1.1656241 -3.668954 -2.576355 -4.4678864 2.1119435 2.3913202 -4.9016204 1.0125993 -4.118604 -2.7239568 1.1716034 -2.1611447 2.4048688 -7.278181 -2.1063793 -5.128568 -4.3701096 1.2081437 1.7232373 1.3269804 -0.6554069 -1.8157176 -5.7468653 2.622772 5.126621 -1.843786 2.6814795 6.674003 3.199447 -0.8548615 -5.274209 3.417713 2.2367556 0.6740671 5.0571084 3.9265556 0.7443816 3.1531549 -0.09103092 -2.6821473 0.973379 -6.804947
567777 2.6214225 -2.7528083 -0.08561995 0.4550653 -2.8302958 0.6446236 -3.215168 7.9691033 -4.7055364 5.6501355 -8.434503 -1.2688187 4.332517 -2.502368 -2.854979 1.6607496 -1.2734941 -1.8322617 0.7904767 -0.8535268 3.080354 -5.4009266 -4.625458 3.853208 3.0793858 -5.572717 -5.51286 3.9583862 -2.2352233 5.355567 6.926624 -0.27762443 -1.538925 -0.48709792 -4.6388106 0.49968475 -2.5207746 2.7639215 -1.3337765 1.7748115 5.1243496 -0.07440121 5.655604 1.8584523 -1.7174926 2.1968744 1.3734515 -0.3985124 2.1902645 2.8817255 1.146784 -1.4685448 2.9918354 -3.1522346 -0.9402425 -3.2203834 -0.30149004 -4.461659 0.64153326 -1.3891058 1.5920218 4.3316917 -2.755298 -10.507889
729560 -4.092683 -1.9019446 -4.8758082 3.6975622 -0.21146418 -2.6689615 5.7551327 -6.5553246 3.5509286 -0.07096863 -0.40126696 0.102497704 3.399088 -3.2063947 -8.911127 3.646658 -0.17371644 1.5085865 2.3481636 -0.39107782 -0.20559326 0.92885786 4.865049 -6.0206804 -1.8294032 2.684924 -3.1408122 -7.2282095 4.637881 1.7839296 2.448614 -5.022671 1.4187039 -1.4793729 3.0081866 2.5766907 5.1886744 2.0125837 3.0912247 -3.8410766 2.4018056 1.5239228 -4.141083 -3.021664 -3.5254073 -1.6285087 -0.13507257 0.5081043 -8.939021 -2.0272563 4.256968 4.5748825 -1.7677633 -2.335883 -1.892384 0.32267344 3.0467572 -1.9598118 0.50536 -3.108631 4.556083 1.0126728 -0.45095265 -3.2219975
745282 -0.12905583 4.2068605 -2.8231764 0.99821556 1.4226626 2.769842 -0.61790407 6.886221 -6.347379 0.1906852 3.0585496 1.1519219 -0.29666024 2.5821655 -0.8394087 -1.1503808 1.1769713 1.9405639 -3.3610444 -0.4875404 2.4286416 4.26905 -3.4332929 -2.3711224 -0.22179927 3.7586675 -3.4948933 2.8949258 10.277326 -1.6875367 1.0613538 3.6118095 -8.188432 2.689241 -0.30121526 -0.5521571 1.7477494 1.4748412 -2.3494248 2.290353 -1.1459879 8.027343 -2.588065 1.7688217 -6.409904 -0.30708963 0.44841468 -2.952175 1.3631221 -5.3591366 -3.624633 3.8057523 -1.9300354 3.8097277 -3.0939276 0.45940807 -0.51837635 4.411809 -3.7358005 -0.6620025 -3.6413283 -0.73904824 2.4502447 -1.7838286
1382904 -7.0888286 -3.6569679 -0.22644144 2.4536219 -4.510444 2.3368428 5.5566034 -4.0664673 3.1014473 2.4130423 -3.7075453 -2.4940317 2.328791 -2.8066626 -8.015835 0.13089335 0.2645293 -5.2293706 0.07059304 -2.720202 -5.427037 3.8599305 0.3857631 -4.6479197 -0.32293472 1.1614268 2.6936944 -4.4997587 0.24493343 -3.0653033 2.2213526 -3.7569294 -0.25291234 1.3497958 4.5480437 -0.8996507 -3.9308975 0.9892856 -0.69708925 -2.5273135 1.0613685 -3.7465897 -1.6369883 0.6626666 3.5028799 1.7595919 -4.938399 6.916549 -7.2355604 0.36054724 -3.2940543 -0.43164432 -0.63526237 1.8798552 1.1192658 3.414657 5.6431794 -3.9721231 -7.3072 0.8831375 -1.1952797 0.6590105 1.8840764 -1.1884338
663860 -0.6971556 1.9354562 -3.738834 -0.39305985 4.8500586 -0.2460273 -0.61241233 4.114879 -2.5926857 1.7066582 -0.0021048079 3.340149 -2.605936 2.098621 0.98601043 -0.6765501 2.3605042 3.9887214 -2.543873 2.338442 4.2608485 0.78378105 -4.6960464 -0.118276134 1.6169027 3.2923539 -5.176325 2.6446102 6.831688 -0.8415813 5.7038713 2.85273 -5.594441 3.9423895 -2.0447748 3.771555 -2.055318 -1.1381649 2.9850216 0.76393676 -0.69144523 6.6009493 -5.124162 1.8828578 -4.1616435 -1.4695648 -1.8352028 -0.2908159 1.5265107 -4.1808352 2.2666223 2.3221495 -0.09183926 6.6359677 -3.361664 1.8980169 -0.68632805 1.120007 -3.0199094 0.839047 -9.323012 -4.5159907 3.8327394 0.91522694
4015424 -2.6455011 -2.5940156 -2.8189998 7.6898956 -3.5594454 -2.6754289 5.526623 -2.8902514 1.9296873 -4.951983 5.122314 -5.534178 -0.396148 1.7851 -2.1798816 -4.434643 -2.3967884 0.5685189 -1.8040028 -0.6929227 -0.61202353 5.295439 -1.1771967 -0.31223667 -0.9726651 -0.97207385 -2.584176 2.463691 2.2364945 1.2129409 -2.491588 -1.3445426 1.7876525 -2.3381872 6.5079474 -1.2365832 -5.239159 1.0235012 -3.3785722 -6.98021 2.3312688 -10.799936 -1.0427705 2.7633939 1.2360524 3.1151729 -1.9203264 -2.259445 -1.7672819 7.7229033 2.249719 4.5194187 1.6100376 0.46556786 -0.24819364 -2.2527704 1.7224711 -2.0069096 -2.1237826 -1.6781279 -2.6533663 2.43458 -1.9769447 -1.2160097
5290705 0.15714234 3.1733594 -1.4219236 0.94275314 2.0783908 -1.5442245 -3.8359096 -2.3906424 -2.9914575 -1.0017176 -1.0770419 -3.7339337 -0.4719757 0.38506782 0.5331726 -3.725273 4.083431 2.2779732 1.4941247 -0.814809 -0.23509753 1.9728603 6.6337957 -5.8332186 -2.6571484 -0.601421 -3.0701623 -1.0443214 -2.2038627 -6.5987 -2.103521 -5.728606 3.2778542 -1.3384141 0.6746968 -4.0583315 -7.46555 -2.684477 0.44963542 -0.5302014 -2.395159 -0.68918544 4.251322 1.3506267 -1.675249 2.1363533 -0.9780109 -2.654412 -2.6238873 -3.3078368 -0.83520555 4.3743734 -3.1410844 -5.4940305 -1.4803085 3.502474 3.6233125 0.7566715 -0.8882242 0.7055525 -8.370049 -1.7968924 -7.227651 -0.33598557
1532142 -0.7541588 0.27615288 3.7685413 -7.114649 1.1267421 1.4210074 1.2892408 -3.51172 3.7564762 -5.7858057 -1.9256262 -5.6088834 4.3463235 -1.7586132 -0.016985804 -3.080081 -0.85430425 4.8411045 2.7275636 5.884087 0.53173345 4.045916 1.4137988 -3.0545182 -3.1876724 0.7681542 -1.0268089 1.2929784 4.0753627 -1.258911 2.180982 -3.6369267 2.1906202 4.2374983 1.7488384 -4.192088 -6.9743857 -0.5345867 0.75810504 1.3013101 2.780348 -2.665145 7.5464997 -1.5913119 0.6392151 0.30278447 3.1341271 -2.0703719 -0.5397087 1.052998 -2.147498 4.646722 -0.93349785 -5.1584096 -2.5420988 0.859924 -4.721935 -0.25657752 -0.44806957 1.6982311 -3.5838265 -2.294795 1.2518004 0.15861437
6634168 -1.9283093 -0.7791163 3.8141463 3.2776346 -0.39615175 -4.1619487 3.9983153 -6.0201735 -1.4248536 -3.7234292 0.23899867 0.12813334 -0.597571 -4.351766 -3.9535005 1.5849603 4.3031187 6.955682 0.42508584 -0.5769408 1.5505673 -1.4164252 3.0217507 -0.59065247 0.2913673 4.409135 0.4957805 -3.3744898 4.329084 -0.04080921 -0.91550094 0.07021642 1.8300738 -1.5036027 1.0663298 3.6385489 6.1903677 3.3468916 -1.215509 -4.2375154 3.4189641 1.8757484 2.2985377 -2.909303 -0.58230966 -5.4267235 -1.8994823 -0.7530661 -3.379871 1.5763556 -0.3599249 8.059094 -1.4950082 3.211065 4.9703474 3.6015728 -1.5657967 2.2757943 -2.007717 -4.805015 5.957956 -3.1046717 -2.8787622 -4.5274825
729568 -3.182419 -2.1320374 0.8685454 -6.508868 0.34974408 0.81192863 -0.2714226 -1.6924589 1.8979177 -3.4052646 3.0148363 -3.66961 1.9616694 -2.0062828 -0.89280325 -3.1036613 1.3079727 2.6429718 -1.9067026 0.9308688 2.2615325 3.461134 6.289338 -4.865384 -7.6355977 -2.1836805 1.5870582 3.3159807 -0.6289456 -4.348007 0.031676047 -6.3891263 3.1075647 4.6950374 3.4144464 -4.5619006 -4.8689013 0.8966407 5.940527 0.963672 -0.25648734 -1.6241841 3.466676 5.600801 -5.0426645 3.1563725 1.4897014 0.25772354 -2.0127668 -3.565883 0.120199986 -1.7898408 0.939636 -6.3432937 0.69980365 1.0110055 -2.73028 -0.08016847 -3.6710637 -0.10201997 0.63118017 -2.7113905 -3.4716227 2.6555102
175782 4.1619964 0.6084095 -5.7740154 -4.8519855 0.60890436 -2.8510027 4.8468246 2.8307111 -0.31002328 3.0536594 -4.26614 0.25870067 -0.45157588 -2.04643 4.941477 10.550223 1.8247092 -0.029391289 -2.1274285 0.029907942 -2.7323196 5.1098905 -4.922411 7.7274327 -3.6843958 4.392097 3.1271353 4.612652 -5.0529838 -2.008273 -0.75302565 0.89591706 3.2865562 4.360959 -6.431054 2.2720332 -0.17997038 -7.0010457 -5.9459634 -3.2518556 -1.5495243 -2.3213644 0.87662226 -1.7861534 1.2468517 0.9503929 6.1269917 -4.0206976 0.5466573 -1.682257 4.605218 -2.1552167 -2.9988837 0.9075787 3.8116212 -1.2383807 4.048164 -1.3071035 1.5207849 4.5334415 -5.995406 -7.6669655 1.7426314 2.645982
1382905 -3.76772 -5.08789 0.77209085 5.71989 -1.4694974 -0.87791926 0.68408626 -6.176866 -1.0582935 8.992151 -0.65382266 -1.2196462 -2.2890458 1.2129713 -4.022564 3.7630792 0.84738743 -1.2996492 1.941685 -0.10186699 -2.7380204 0.9991064 4.4529223 -8.31143 0.31232068 -0.30631953 2.961247 -4.7514205 5.525623 -3.692249 1.833499 0.48130715 -0.035849687 -1.825655 0.6357601 -3.8172843 -3.106255 -0.89559525 -2.1473305 -2.6799595 -1.8015723 -10.421218 -2.4569986 1.0188545 -2.0012329 3.8887968 -5.437405 2.84292 -6.120205 -1.0660529 2.1849186 2.5833158 -0.88840115 -3.6013777 1.4707606 0.9212407 3.548504 -2.9310877 0.76292765 -1.2730489 -1.6033148 1.6365886 3.230874 -2.570319
6065008 -8.2035885 5.302116 2.1663551 2.3587277 2.2075548 -1.8885101 0.86407185 -4.738563 0.81373966 2.5674279 4.093337 -2.3831382 -2.080576 -5.4942636 0.6361857 -7.4326954 2.064815 -3.256378 -3.2012885 2.802619 0.73756284 1.7762219 -2.307009 4.79527 -1.5558505 0.95647323 -2.1781652 -2.7047403 -1.0064924 0.9805195 -4.186886 -1.2975409 -2.388902 -4.1021256 -0.82666725 3.0235305 -0.12954345 3.206513 4.110591 -1.38564 4.700702 -3.3777092 -1.9466537 2.6565728 0.4068986 -5.325743 -1.5977646 -0.21280983 0.3009703 0.38813964 4.207042 -2.8406763 -3.4143085 -4.112744 6.067978 3.1551182 -3.1998553 2.4225032 -0.047132812 0.6015295 -4.426824 4.1954417 0.54261863 1.4845341
1250376 1.6576821 2.923696 5.188775 1.6719233 -0.63544047 -0.4023515 -0.6716779 7.93506 -0.22978535 -1.0685616 -8.55098 6.949833 3.3924932 0.9637502 0.098973595 4.8833303 -1.2928807 3.012683 -2.2530396 -1.5916303 -2.0118399 -5.279765 -1.0472022 3.3382077 2.945303 -3.5433888 -3.750712 2.2287295 -4.3040123 2.721212 1.0833318 -0.98735166 -3.1156187 -2.1864445 -0.30130225 -4.081986 7.326085 -4.279413 -1.6746472 3.2327116 1.8583819 -2.6529245 -0.44651043 -3.521653 4.1436234 1.7821575 5.0956054 2.046364 4.0862083 1.2767495 8.124367 -2.2806234 1.4376746 0.6148763 -2.3383396 -0.6053853 0.19717607 4.2899055 -5.41487 -0.6140837 -6.3472033 -1.4010884 2.3018246 -6.7694516
6064985 -1.3159581 -1.6189313 3.6487598 -6.994495 4.632651 2.5610554 -0.03003213 -5.1085052 2.475871 -2.4384987 3.1747692 -5.235001 3.6221972 -3.4300594 -1.4969864 -1.1987761 -1.6860645 7.130827 -0.017257202 4.853162 -1.6527864 0.062015392 4.6446037 -2.929899 -0.09439113 2.2882378 -0.69337606 2.0114684 7.0696974 -2.3761854 -0.6963096 -6.219008 4.065472 4.915769 -2.0332239 -5.2886715 -1.5533857 1.7667248 2.5139685 -0.1260287 3.3030393 1.5873845 6.0184093 -1.5004174 -2.4144688 -1.6131271 1.5192361 2.7343159 -0.32582676 3.2324347 1.5906484 3.3212652 -0.115114056 -7.349127 0.4615109 2.376179 -1.7097522 4.4999595 -2.3404894 -4.205318 -0.27917138 -2.3860009 -4.2769732 2.0033772
4376146 -4.562931 -8.697746 6.84108 5.046019 1.7631956 -2.6285858 3.832159 -4.7156878 -0.39293334 -2.1014748 5.8987107 -2.671686 -5.7618876 -2.6644561 -2.416387 5.112357 2.83448 0.7970935 1.5890459 2.420107 -1.6575717 1.4494804 -2.2140553 -7.42771 1.3272932 -3.0638018 4.1772213 -4.3452783 -2.8509467 1.9070284 -2.502692 2.2439566 -0.23730054 -1.7511547 1.0839038 -3.207021 -1.2113587 0.8606108 -0.07604435 2.4587893 0.2444054 -1.4030832 -3.1938696 0.14668159 1.6970328 -2.6673026 -5.3932123 2.4499893 -0.11143288 -1.7695628 1.8636869 6.0235357 -4.149555 0.9179124 6.92043 2.4554198 -5.896355 0.45128593 -6.5003552 -2.2439916 -4.60332 0.27980322 1.3445524 -0.78463507
4658124 -6.6971726 -5.687987 -2.9475298 1.370396 3.4769435 -1.7599882 0.44620883 -9.126156 -1.0722638 -5.5118 5.545713 -1.4354905 3.6066265 -2.640146 1.3363305 2.7297752 5.2899895 -0.64516234 -3.8169572 -0.9698483 -3.9438844 5.642817 5.92621 -2.68055 2.7781556 0.43622592 -2.3330896 1.7482123 4.969673 -1.6598911 0.46630737 1.5240972 2.0522814 -2.6271484 -1.5587556 -0.4064827 0.294344 2.4757068 -0.47176287 -3.0010922 1.5866021 -1.2391438 3.1925085 0.17557448 2.826971 -0.40552908 4.393781 -1.6732521 -1.5814961 5.3817244 0.88742375 5.8487945 -0.3199258 2.2082806 -0.21139728 3.6480033 -2.564497 -3.8713064 1.956083 -0.006023187 6.7027392 4.1484957 -0.1783667 -8.708129
4015486 -1.7285525 7.535342 -4.385304 -0.23437189 5.778716 5.7376795 -2.902833 6.038089 2.9378572 4.0874505 -0.4642078 1.7933013 -0.43874556 4.1142526 4.9099884 7.7011786 -10.605242 0.9885398 -0.6756201 -2.5440478 -0.09181517 -2.1881082 -1.9754115 5.8469768 -2.4477797 -1.4713074 -3.4741142 -1.5436444 6.860507 0.6669866 -4.1678543 6.002017 6.635285 -0.9673412 0.96381086 -1.2868303 -3.2345865 1.7968315 -7.579015 -0.13566126 -3.2778933 2.624011 0.23894519 -0.75404555 -4.403931 -3.3261032 -1.7986821 1.9810214 5.2429667 4.065413 -2.7389455 2.420404 -3.4459527 1.6483552 -1.1145449 2.0184407 0.5493726 -2.4656024 -2.6397715 0.6634186 2.5050678 -3.931059 2.7014449 0.5449743
346331 0.06679719 0.006620836 1.083342 -2.8537474 2.6987016 6.1089816 1.2498693 9.059604 3.1652153 2.0514915 0.091572955 -2.193751 -2.6269429 -2.0019572 4.118853 7.159201 1.8372419 -1.4940984 -0.5082004 4.4234085 -1.7971011 0.4675338 0.5872023 7.7629995 -2.355174 8.226759 -0.04351834 -0.91254836 -0.5608293 -0.049093533 -1.1629022 3.3667378 2.8275764 1.3234937 -4.5346193 -0.75810707 -2.264202 -4.8663526 0.35976145 -5.4496207 -0.7691675 2.8212178 3.4011352 0.18692675 1.3265009 2.7295542 6.8952894 3.093854 1.8055022 0.6022374 -3.9320836 -4.7123117 -1.1842713 9.454944 2.3109083 -3.4690804 0.023714948 -4.665919 3.5623758 0.09385184 -2.436312 1.5494026 2.3977299 3.9907782
745296 1.8517193 1.0760188 1.0685143 2.0617037 -0.7640316 -1.8926523 -1.1175256 5.1753955 -1.1919435 -0.6619314 -6.4026065 5.667704 3.7252595 -4.495899 2.3073556 -0.12924276 -1.6895481 -0.77208185 -9.024737 3.6139402 5.3905735 -5.8139057 -0.46841875 -1.4129596 4.0923653 -2.798682 3.95112 1.4014754 -7.546947 4.6577873 -1.1490018 0.9089855 0.55970967 -1.5532414 -0.7896779 -6.2760086 -3.846744 -3.4547744 -3.171399 4.927249 3.284815 -1.640543 0.7697758 -3.0063188 -1.3698251 -2.9420242 1.6819788 -5.3494644 1.0201697 3.0300057 0.6267259 -0.8597224 4.622036 1.2630504 2.2100506 -1.2832341 4.8887577 1.9720668 2.310498 2.724401 3.2250388 -0.49881604 1.5127512 -2.4696581
398849 1.6085562 -0.022486465 0.8648405 -1.2847096 -2.814868 -0.078721344 -4.0921903 5.476829 -5.3878603 1.2824442 -7.2201796 -3.9501595 -1.2266227 -2.7688406 -1.8427033 -0.5585219 -1.4769368 0.03969037 0.7875645 -6.8375163 1.5111235 -4.8077517 -5.5904517 -2.7176838 -2.3632903 0.5521925 -2.0350213 3.5572999 -5.139178 4.9092803 0.9313061 -3.7974322 -3.198687 4.9072294 -1.405754 -7.3268194 -2.1201034 -7.2841654 1.6058414 3.2875175 0.20623374 -0.61626035 -0.33293703 1.9503487 1.5980321 4.3194075 -4.440898 1.469669 1.1952789 -0.8534361 2.4508893 -5.403189 3.9400315 2.5915167 -1.1819422 1.7081071 3.513802 -1.4230976 0.69988304 -1.3734355 1.599915 1.22352 -6.8455706 -8.266908
1382895 -3.114015 -0.22782576 0.30672795 -4.8189726 -1.3729044 3.9235258 -3.227956 -3.756972 -0.2864302 -0.29573238 -2.054524 -5.419792 -1.9592253 -1.3583109 1.8916909 -6.13657 -3.5894465 6.095199 2.5127254 1.959139 -0.5921108 0.90759736 4.2041636 -4.4526443 1.3003252 -2.773047 -2.3619125 1.2733477 -0.053582672 -4.548157 -0.57308906 -5.2375154 -0.37501606 4.420965 -3.698791 -2.4512959 -6.9011865 -2.1896462 3.0600717 -3.6230013 -0.59318453 -4.807764 2.378234 1.1730231 -1.9813488 2.7724648 1.7980983 0.033499226 -2.123664 -3.0291173 -1.4837586 2.210144 -1.7902846 -9.247129 -2.5898294 1.2762259 -2.238867 3.887161 -3.7484386 -3.1067798 -4.8057165 1.5625991 -2.0280702 -0.56724936
146386 -1.6479931 -1.2377685 0.9534142 -3.9472241 -0.1815359 0.16261967 -2.868917 -0.0065873307 2.2666237 0.2730217 1.0117271 -0.8985252 -2.543555 2.5834067 -1.1312443 -2.9035304 4.9443846 5.1694603 2.3855262 -0.9341279 -5.002278 -1.6025472 5.679291 -6.054907 -3.591599 -1.7946193 -5.8030024 -1.9326826 -0.41423804 -2.1533344 0.94976956 -4.9403715 -0.916676 4.9891148 -1.3264518 1.154446 -5.1976004 -5.8333116 4.205287 3.253852 -0.14836706 -3.8886495 -1.3503658 1.9811945 3.088603 -4.1958313 4.409308 0.14334573 -3.2219381 -1.4266994 0.08297477 7.258427 2.8561852 -8.108151 0.6895317 -4.1830196 -1.525146 -1.3047873 -4.1675425 -0.4768377 -1.3229353 -0.8126123 -7.678727 1.8228122
4677365 -2.6868348 -1.9954528 -0.5419645 4.0122013 -0.19496642 -3.933855 4.178852 -4.226294 1.059086 -4.470658 3.3000922 0.55681175 1.1917087 -1.368754 -2.899365 0.98042715 -0.64730954 3.7009945 -3.5491781 -1.6249752 -1.8699781 -3.4447076 3.6851764 -2.1409397 -3.0839946 -0.99239475 -2.4632225 -4.0438695 6.3346233 0.9077786 2.684215 -8.145306 1.1108586 1.5955812 1.1043339 0.37118936 4.9644275 5.47931 -1.9666682 -10.728768 0.31014895 4.3459115 2.356267 -4.3919897 -1.2070231 3.3099895 -0.13008888 -0.13295928 -2.44742 3.654364 0.79875624 6.171615 -1.3027642 0.8993142 2.8738356 -2.8267736 -2.8954172 0.7922884 2.915307 -2.1786003 1.1813673 -0.8922615 -1.1360795 -1.2606417
745713 -2.8656716 -1.4684368 -9.015781 -1.1679196 6.835497 1.7997509 -5.1307926 8.17405 -1.7390645 4.807643 2.422844 -3.8919291 0.12529925 1.481395 -0.32786348 3.0337155 -2.4545276 4.1254263 -3.1131372 5.2400575 -2.575843 1.2623757 0.20899801 10.0521555 0.6306836 6.3981247 3.4390748 -1.0609087 -0.44364342 2.2524002 4.1700554 2.1787255 2.655353 -0.7972278 -0.8969146 -3.3253553 -0.117766224 -6.470695 -2.0810108 -4.033955 -5.4910054 1.6910168 -0.19604461 -1.3569661 2.009937 2.594684 -0.3708854 7.263244 0.6979983 0.34140748 -4.036154 -3.3819668 3.726832 1.1377954 3.392497 -0.10482735 -1.7544063 -3.0161326 1.2101995 0.4426376 -1.2777673 1.2750148 1.7100072 9.022694
745300 -1.5409538 -2.3626237 -11.831718 0.10577279 3.9736266 -0.22852652 1.0344048 5.8272786 -2.7245336 3.8555715 2.3099177 -3.904093 4.5691953 3.2664492 1.3053349 6.5823536 1.1732576 1.9767313 -1.1386144 0.16802841 -0.5079176 3.6910894 -0.1893964 9.387241 -2.930808 2.5264883 1.879393 -0.06784968 -2.2609606 2.492269 2.8402164 2.182124 1.2411536 -0.9152468 -0.38880366 -2.4222631 1.1638114 -5.65113 -0.4170768 -0.5061086 -4.5900135 4.5381484 -0.60174686 1.4523853 1.2707835 0.6567068 -2.9710803 -0.12575856 4.2705092 3.2059634 -1.8540516 -0.25761682 -3.057267 -2.1222994 -1.4480913 1.8677461 -1.2851781 -2.3006003 -2.6672256 2.5809062 -3.2119193 -5.0551524 5.7884464 6.1624584
5613488 -0.45197242 0.9513227 1.9030924 -7.922466 -1.3943851 4.514516 -0.5136348 -1.02783 -0.7179127 0.09757797 -0.17507327 0.70308745 -0.7718217 3.7586122 -4.3506026 -6.313736 2.0045106 0.70718473 0.72847515 -1.8764426 2.6594853 -0.20655371 -5.7909946 -3.7656033 -10.15437 4.269535 0.52836585 -0.8079017 -8.073806 -3.5538936 -6.883721 -2.5095308 4.3818355 4.8062735 -1.9875538 -1.6774485 1.8378761 6.4311657 0.40984967 0.8628147 5.668052 0.2756787 4.674853 1.8234124 1.6560491 3.3121955 -0.295377 -2.130683 -6.7360797 -3.8213775 3.9836628 1.5398225 -3.0777104 0.65416485 0.29172322 2.910659 -4.1672587 -1.3977036 -3.5990264 -2.07007 1.6785604 3.1612468 0.55608684 7.4543343
480821 1.5758499 4.0318794 -6.40249 1.8679994 -1.622365 4.580084 -1.9601512 -4.401239 1.559886 -3.5143135 0.4422365 -0.97809964 5.77376 0.989904 -1.9197719 6.779319 -4.8192806 -8.002693 -1.10666 -0.5653707 -0.94797456 -6.5847073 -7.750037 -3.128169 1.7808415 -0.048404705 4.336923 2.1724322 2.1338062 2.716372 -6.722831 -4.6970534 6.746158 -3.6676521 -4.8055987 2.047461 5.8341646 -6.557691 -2.1335433 0.08328124 0.5509529 0.9155498 0.7412163 0.96366715 -1.3341637 0.05982679 -2.3952231 3.2605097 -2.841466 -6.262658 0.10531706 3.8929756 2.8939972 -2.752546 -4.518568 -0.4018561 -6.0592036 -2.5450933 1.1817371 3.986428 -1.6670645 -0.7642825 -1.0432385 3.469576
5613460 1.6339993 0.911283 -0.38121593 -0.79104537 -5.1840377 4.9667344 5.5328164 -8.854839 -2.8134952 -5.7800784 3.0381966 0.94132394 -3.262992 -3.4272578 -3.153929 1.4911444 -1.7113385 6.796981 5.7665157 2.2757382 -0.8581219 -4.950833 2.9939065 2.6971874 -0.4189827 -0.7912755 1.878229 4.515257 3.2343802 -2.1883168 -2.4057138 -6.804452 -3.282152 -1.1297871 -7.990414 -0.6623178 -1.8488147 1.7155229 -0.18663983 -2.1532009 2.0076396 8.9265375 -1.966238 0.023073064 -4.020245 -1.9343278 1.47511 5.6232824 -4.5953646 2.7090409 4.149693 1.8048443 0.8532776 3.7622852 2.9179943 -1.5502064 2.2350404 0.8366147 -0.50375295 -4.120325 2.5667217 0.2427953 6.049743 1.4168336
485141 0.7363845 -0.5620705 2.476795 -3.0345356 -2.73203 1.7366258 -5.9470205 4.0647163 -1.113689 2.2840605 -2.688268 -0.76612103 -0.37040463 -6.375464 0.9247838 1.0741038 -1.3723612 4.965819 1.3829806 -2.5977228 3.886761 -1.7977592 -3.8701756 -0.11929438 -3.7331865 -6.742006 -3.2039196 1.083753 -3.9946609 0.9455847 2.1607087 -4.8761854 -7.7782106 1.6913868 -1.8414007 -1.7951918 -3.0599005 1.7479235 -2.4517999 6.998979 6.084112 -1.0734099 5.43313 7.648623 -3.428338 4.909497 -1.0899744 0.82046676 0.27020216 2.0030456 5.577049 -3.9999216 5.2660203 4.9819827 -1.8088999 0.7393347 4.2669435 -4.532116 1.729677 5.2427816 1.3897386 -2.523689 -4.414597 -7.498756
745294 0.6080534 1.400859 5.047088 -6.0703816 -3.1647105 -4.6103134 -1.382737 4.025721 -1.6509897 -0.23608878 -2.7702103 -2.2022197 1.2926368 1.1209812 -6.2181416 3.7611353 -1.4693533 1.2796029 3.3883336 -1.3409172 1.547797 -6.986442 -5.414477 3.059812 1.3172649 -5.625754 -3.9226406 2.9732106 -0.7243664 -1.4667141 -4.818031 -0.7508058 -5.517276 0.19842593 0.43862718 -1.2768441 -4.810579 -2.781079 4.1744747 3.2207642 0.43178102 0.55282825 -0.35151705 3.5116556 5.694962 0.9157721 1.0250399 3.5188718 9.67984 1.4752717 0.08058673 1.8812879 0.48488668 -1.854791 -0.34759834 -5.9681506 2.6400142 -3.03083 2.66649 -2.2694535 4.398442 -0.014846295 -5.215332 -1.018005
346313 2.569493 0.83863974 -0.030254012 0.3079069 0.47486869 2.8275979 -1.5174598 5.9947367 -1.9974371 4.397243 -3.524047 0.6448298 6.9400496 -3.4176538 -1.6126865 0.8494689 -1.5372666 -3.365552 0.5621956 -6.815864 7.4519567 -0.19685622 -2.297357 3.1857047 2.5825958 -4.219079 2.2271116 3.9228745 -1.3954915 1.2139125 3.2453697 -2.0778265 2.0710213 -0.5703576 -3.2169461 -2.1167862 0.75062674 -1.1261102 -5.1650543 1.4159884 8.660843 0.5820591 5.299417 3.930669 2.0039368 -1.6334773 1.8528038 -2.2333465 -0.9452527 -0.10216364 -0.41313928 -1.6421596 5.736594 -3.3111608 4.736152 -2.0326371 -1.6034003 -2.444194 0.62151825 -3.1215503 1.8445687 1.3808231 1.525841 -6.7477107
6634169 -2.1070044 -3.1367557 2.8996873 -2.350737 1.2351757 1.5450448 3.519923 -3.5428417 7.166496 -0.4496918 -5.4804606 -4.8438263 0.54957837 -0.24705423 -2.8042016 -1.2129223 9.034638 3.3414648 -0.7921736 7.462247 -2.6307359 2.5296297 -1.7835854 -2.2714279 -4.4451923 -0.9022784 -4.783096 -5.3531985 1.5013999 -0.5602531 0.247493 -2.708857 4.8981586 5.5361023 4.8862224 -4.3058114 1.4086109 0.027776632 -1.1814581 2.133619 5.369139 -4.054652 5.6412396 -4.6698623 -3.0644562 -0.5366513 -2.6858995 0.32906345 -0.7309442 2.6098113 -1.2901244 3.0750616 4.3965235 -3.7541697 -1.6016507 -0.6349853 -2.1717072 5.023058 -1.603357 -0.8151305 -2.203123 -0.5697133 2.1480389 2.8085444
636718 1.5450944 -3.0899796 -2.470561 -1.3240007 4.104309 -4.3356767 4.3881893 -1.5274338 -2.6802068 -1.3838778 7.9491453 7.311601 0.96993804 0.747586 4.112955 -5.194964 0.6888588 4.166228 9.5789585 -5.397788 1.6047014 8.017624 2.1719775 -2.9042666 4.9392695 -0.05736221 1.8677362 -2.2415583 1.0268059 -5.8062415 -3.158492 3.9188495 3.1353943 -4.6494346 0.8723599 -0.7354943 0.93117553 3.8032227 3.4394917 -1.1613026 2.8183537 -7.8319807 -1.076521 -3.0549738 -1.223586 1.0458009 -2.850839 1.93554 0.32858455 2.4449384 0.7623781 4.6339912 -1.1061828 -0.09201844 -0.15295337 -1.9482778 -0.47789955 -2.3714209 -0.25942877 1.6626079 -0.46810135 5.902219 7.7725844 -2.8232408
885091 1.5318521 -2.9723747 -0.75181955 4.657394 2.2234495 -0.33449793 0.037063166 -3.9670935 0.9925892 -2.182089 6.770016 4.547573 2.2333496 0.17578933 0.36351132 -3.3749533 3.6607275 1.3477468 2.6181853 2.9336352 -5.1678495 -2.0028734 6.345599 -10.230892 0.9751247 4.0226846 0.05503274 -2.4574816 4.0273557 3.5122766 2.5567646 7.847252 1.8190051 0.32601124 -4.2469726 -0.45517227 -1.096447 1.701086 4.353776 0.794004 2.9912405 -7.36965 0.9066532 -0.23075864 3.756404 0.50339925 -2.2913356 5.5202374 -1.4682856 4.0847783 2.4695454 2.0716486 -1.4334544 -1.919513 0.2474191 -5.688258 2.2885864 1.4615629 3.5395067 -1.5644294 -2.1115048 0.7973806 4.748692 -2.4951723
235219 3.3846138 -0.14613098 -3.1790879 2.1883035 -5.2671757 1.6833379 -1.5563965 -1.9082495 2.1377928 1.290231 -0.44869593 -11.2467785 4.1134033 -5.5372386 -8.493065 3.5488398 -3.6775327 -6.7406445 -1.4710423 -0.39054295 -1.3898021 -1.5606927 -1.2575874 -4.1457314 3.8310513 0.44434127 -0.13290888 -2.2566605 2.6456149 2.4292345 -6.380109 -1.5752206 4.2783995 0.9976708 -3.095245 0.76076937 8.022993 -6.5428996 -1.5435579 -0.86607295 0.5566146 -0.4132359 -5.899283 -1.6314222 1.540381 -1.7517446 0.7884194 3.3722336 1.5969998 -7.0223413 -0.07217369 1.8762423 -1.487871 -0.6435967 3.4133534 -2.4946363 0.5001756 -1.9390863 -0.41283283 6.0605564 0.48002183 -3.0332863 -4.8488803 5.151412
1173157 -0.20186205 -1.0798985 2.9415307 -1.0528868 -2.0354927 4.1979704 -1.875239 -4.1663814 -0.6086622 -6.943597 -2.2686074 2.059667 0.767983 0.93887603 0.6227454 -2.4804516 7.37631 -0.6165647 2.15078 0.029435687 -0.77659476 -0.6519185 5.7610574 -0.41525224 2.1739535 -1.5647011 -6.0062585 -4.404025 -1.7595881 -1.1779368 -4.005574 -0.6211932 5.7328563 -0.5369462 -3.145101 -4.583036 -8.428941 -4.1481247 -3.5456493 -6.167748 2.0823374 -2.903608 -0.8614711 2.3919325 -0.0231838 3.8988187 2.5479963 1.2936755 -2.0456705 -5.722321 0.28160852 1.7804809 -3.7603762 -2.1879165 -0.7756288 5.629958 0.6828196 -1.388086 -0.847424 1.3154101 -0.77252436 -0.8851653 -9.383427 1.87623
5613487 -1.7004603 -6.2815547 4.1930437 0.96039444 -4.8680124 4.349667 -0.004613026 -3.3118875 0.21178891 -1.5054756 -0.8261039 3.3769104 2.4449217 -1.1613959 -3.9547873 -1.0120156 2.6995091 -1.717117 2.5071995 -1.6533839 -5.6899595 -2.3984935 -6.1755967 -7.1872406 -4.1405244 -2.541132 4.433319 -4.2870436 -5.2399235 -3.647867 0.5838399 0.022055145 7.204695 2.2634132 -0.27108932 -2.495325 -0.4900127 0.72620165 -3.4226756 -2.9115183 4.0648246 3.3451703 0.45150277 -0.54470366 1.3656466 -0.5631105 -2.2413795 1.3948755 0.25327033 -1.5760438 -0.47620365 0.42895302 -3.444755 0.54137355 -3.1882238 7.330503 -0.77133435 -2.0837421 -10.131308 -1.12306 3.0102558 2.9118655 1.1049769 3.6355317
1173156 -3.494305 -4.732038 -1.0911648 1.316815 2.9791958 3.1148422 3.2575517 -1.9931417 -2.234049 3.318465 4.738315 0.90047544 -3.3915808 -0.574364 -2.2215595 0.89536315 4.3600683 -6.5882053 5.801167 -5.855154 -1.7109282 0.61086506 6.890881 -9.901024 4.0998116 1.9030579 -1.599891 -6.339344 9.811983 1.7726266 -1.8926288 0.18659692 1.2360891 1.7583061 -0.68233085 -4.6833405 -3.3713875 -4.3361955 1.158364 2.1186397 -3.9918807 -1.1381507 -3.0378554 0.7116743 0.39631712 -0.1498042 0.13287525 -3.4028888 -1.6439298 2.0965571 2.4652774 5.611317 -1.3600507 0.10530241 -4.4333806 1.1563615 2.4826245 0.22039588 3.6036115 -2.8406117 3.0283117 6.409573 1.4673829 3.9994538
6327273 -7.540112 1.0692506 4.1097116 -1.31536 2.8015518 3.4549663 -0.868152 -8.613503 0.520815 2.1420546 6.928061 -3.672313 -3.1054897 -1.9897447 -3.8839698 -9.435665 2.4811485 -3.0932856 -2.2071934 -0.010174855 -2.6546648 -0.0378324 -1.3983289 3.072699 -3.2366843 -3.777835 -0.96352285 -0.08286985 -0.028645214 2.5531962 2.6280272 2.6916783 -3.2082264 -0.10741871 -4.899522 0.76928896 -1.212802 -1.9643646 -1.4587562 0.6781231 -0.8935611 1.1902624 -2.8705275 3.9446316 -3.2274694 -6.4868884 -1.8602879 -0.5940657 1.2450985 -2.999884 6.330876 2.1444588 -3.318828 -2.0389464 5.7673554 -1.9599565 -1.9728264 1.4740461 -1.385863 -0.4811126 -1.0477152 3.3279397 1.126123 -0.21781775
1249015 0.8637952 -0.62116224 -0.120418705 -5.9750137 2.2800026 -1.8002257 -4.526974 -7.983339 4.00735 -0.40719283 -2.1945357 2.0662081 1.3180109 -3.1972895 3.3308244 -3.4214592 -0.48185664 1.3289891 2.2974927 0.5549048 -0.68640095 0.31010592 5.7962523 -4.398347 -1.3748854 -2.5255237 -1.7886821 2.173359 1.8973708 -3.5318444 -0.48700354 -2.3674357 4.7059503 5.594858 3.1795814 -2.835669 -5.395146 -2.7094939 1.500265 -1.2206477 3.5250804 -2.3165991 1.6867998 0.70433354 -3.7558928 0.37299255 0.11319329 0.75368106 -1.6071328 -3.2212992 -3.5137713 2.3571784 3.3062477 -5.355317 0.08567253 1.8620172 -7.257041 2.9863954 -2.7407343 0.1386972 -2.3203185 0.53276783 -4.1207137 1.197646
5290706 2.809411 -4.1406894 6.218375 0.14370519 -3.0775466 -7.3643103 1.7792548 -5.80584 -2.8886592 -2.657155 2.2979834 -1.6294752 -0.5210418 0.91431177 2.6590688 -4.9191976 -0.34668863 1.7259555 1.1410071 2.340496 -0.9816135 1.4828895 6.1579137 0.8671633 1.9866803 1.876027 1.8490943 -0.9559545 2.9007354 6.892146 -4.351552 -3.4031801 -3.6654735 -4.1323643 5.0920596 -0.03665454 -1.0968847 1.8382372 -4.551088 -0.68991566 1.6149198 -7.7869315 -5.4531965 4.2121406 0.102665454 -4.8048716 -1.5486361 1.9382383 1.4648583 5.3139253 -4.5628476 0.9983592 1.4504179 -1.7047938 -6.1175838 1.6678244 0.36042476 0.13582256 -2.4703846 2.8155043 -3.1663966 3.3659868 -3.9138384 1.016685
4658129 -1.4595141 -0.18234448 0.5862268 4.695893 -1.0603571 -4.8425074 3.6091914 -2.8716207 -1.02392 -3.4107456 -2.4899926 -4.400676 1.654717 -3.0257747 -4.4392962 2.9766662 -1.3158759 1.180565 -3.572324 -4.4261193 -2.1117942 2.558852 1.9449004 -6.730192 -3.5167546 -2.7619336 1.8802265 -2.7954926 -0.12695292 0.22948119 1.2982736 -0.7331933 2.8401434 2.7101083 2.1348822 -0.2391912 3.9346716 7.7171865 -3.8112829 -9.704575 2.0336156 1.5922506 0.67298555 0.11863707 5.970187 -0.31945637 0.648653 1.5858637 -0.6937983 -1.1533574 2.8594801 7.7486577 -1.2508857 -0.72311205 0.4242512 -2.3249617 -4.6515307 -1.7522064 0.5014154 -7.1500998 -2.1047459 2.4746115 -0.09525034 1.8407978
5613502 0.73191965 1.9142096 7.720151 -1.3246609 -7.527706 -3.4538226 5.0119185 2.5992143 -3.8993719 -0.102386795 -6.4654903 0.9368777 3.7278175 0.99733865 -1.0424277 3.8652246 0.13472879 1.5774657 0.68828267 -1.2193148 -2.0204933 -7.8166666 -5.146094 2.9582126 1.4566501 -3.1556163 -3.3286684 4.961736 2.7552152 -4.8205595 -1.1764988 4.206382 -0.8971143 3.160081 0.73296493 -7.3948383 -0.27660796 -3.6218796 3.0742855 5.0187182 2.7428017 3.921976 -1.9954511 2.710661 4.305878 2.5921407 0.7067932 2.6804302 3.6247096 0.21674111 3.3376822 -2.8187644 0.7215165 -1.3208966 -0.8875313 -1.8811965 -0.11745717 -6.45619 0.29785904 -2.6630228 2.0753071 -1.6483368 -1.7826732 -4.612271
5290704 -0.3240793 0.9702733 1.3247267 -6.533863 1.4644735 0.5256506 0.45323926 -3.413342 1.2808536 1.5626256 0.48609313 -1.3689009 2.1867113 -3.0809817 -0.97117233 -5.954419 -1.7325779 0.9857257 1.968863 1.9336259 0.4883031 3.6480381 4.7988973 -3.0564418 -3.2673392 -1.5190185 1.371905 4.356831 2.5074282 -2.8462033 -2.6674745 -2.430342 2.6374412 6.654457 2.3519711 -1.1392406 -4.9517565 4.0464454 1.2581897 1.932078 5.2766857 -2.2262716 4.6218185 2.3274627 -2.6624715 1.922345 -0.08644319 -0.72749954 -0.97384715 1.0640973 -2.312098 3.2440712 1.8513746 -4.3120704 -2.3503494 6.0934415 -6.3997874 4.2418046 -0.3432633 2.3128078 -2.1704664 -1.1727254 -2.747593 3.985138
4376134 -6.295103 -3.8734264 0.44030762 5.6741986 3.181811 -2.8619492 -1.273267 -9.21586 0.31743392 -1.5921972 7.2965617 1.9023165 2.042729 -5.6878095 -2.1179593 -2.1422389 -0.42892367 1.5970823 -0.65749896 0.94784266 3.0743985 -8.561314 0.36621118 0.60975826 -2.4641712 3.1915157 4.319755 1.3344736 1.5730466 2.2606208 -2.315572 -4.2775455 3.9713216 -3.02123 5.017329 -1.6591604 -3.2207513 7.8270693 -1.761456 -4.8611474 -5.349704 -0.081104554 1.146195 0.5865824 1.2586291 -5.409944 -2.0227344 3.3962615 1.4270681 -0.21621595 -0.8119014 4.4978666 -0.4790455 2.6450326 4.8421764 -3.6720607 0.61942875 0.20242684 -3.9902825 -0.4443768 1.8873756 3.5972314 -2.3402073 -5.8930063
6634108 -4.173583 2.4281356 3.9419749 -2.2266386 -9.560526 -4.240493 1.4066861 4.852954 1.253979 -1.5601646 3.7527435 0.5065071 -3.55302 3.105831 -2.2293217 0.5536007 -0.9022131 5.4970427 5.9083366 -1.3074183 -7.6009946 -5.676932 -2.9267585 -0.6367525 -4.290112 4.8709817 0.5677567 -0.7112422 3.618331 -2.439484 -2.4299443 4.8734117 5.5628166 0.78799576 -0.580416 -3.4051561 -1.7511945 -2.7405927 -0.7279291 1.5294131 6.579481 5.565634 3.7839534 -1.3705685 4.790621 -6.564484 -2.2270043 1.613512 4.182541 1.3518333 -0.5018918 1.7930865 1.2387553 4.286794 -1.2978987 6.785058 -0.27475908 -4.116713 -1.1968482 -2.9044113 1.5032188 -0.010046806 -3.90296 -4.5094395
568121 0.94016284 -4.869164 -7.712277 0.11002819 1.7723029 2.6439786 -2.891653 1.3649552 -0.81268454 -2.570204 2.7068086 -3.3942277 4.511676 3.3085368 0.95327854 2.2385538 -0.49387372 -1.0881479 -2.218799 -2.7235322 -3.3723235 -0.5932961 -0.09726352 4.401443 -1.0926877 5.1400385 0.030720707 3.755299 -4.958469 5.46349 4.6609764 0.08818326 -1.1361276 0.19418728 2.1718109 -2.1625655 2.508525 -5.569079 -2.3915875 0.06149825 -0.25630715 1.565202 -1.0611527 -1.7861855 1.100204 2.3562376 -2.0194056 -1.0801278 7.0165634 0.03550739 -2.2243383 1.856822 -1.7810796 -0.58769846 0.09431337 0.6819824 0.6598105 -4.5926847 -6.320674 2.3187582 -0.123275995 -5.6942306 5.329763 3.7167847
398875 3.7328866 2.0150812 0.2762235 0.60845506 0.47335193 -1.0767597 -2.2838988 3.3596678 1.4327132 3.8287654 -4.983672 6.7077603 1.380343 -4.086191 2.5244572 0.10019727 -0.36149117 -7.0270023 2.3060372 1.5794458 -0.68738663 -6.7651854 4.134992 0.1730697 0.8315831 -3.1788607 -0.76700157 3.838594 -1.9358966 2.2353268 1.9447268 -2.953657 -1.1792113 3.2710712 -1.1131363 -2.8253505 5.5165358 -0.94244677 -6.7135158 2.6853082 1.9526635 -7.112621 1.0744063 -2.0445342 -1.3108739 0.07322567 2.970906 -1.5194136 2.0522723 5.597081 5.117713 -6.981406 -0.9637876 0.54517615 3.831658 -0.46885416 -1.6704093 -1.3814377 0.26279637 -6.138232 -2.297662 -4.4224563 -1.9354374 -4.689289
4389013 -4.1839743 1.0582227 -0.19368806 -1.6735358 -2.9856915 -0.52572906 -1.3769314 -2.616353 3.9195952 -3.4031694 5.283061 1.6364306 -1.1483843 3.2945588 -3.82223 -1.1723497 2.675248 6.614236 0.054139737 -1.1104547 2.6022882 0.6534286 8.854441 -2.138832 -7.8703923 2.0961533 -3.345803 -9.746861 -0.5420952 1.6911536 -7.5828276 -1.5383745 -3.4469857 7.1528425 1.4768318 1.0924451 -2.3583996 0.31711727 0.7378086 -2.238827 -3.2624834 -6.185193 -2.4325993 0.23059668 2.3671937 3.3233602 2.3911195 0.9839515 -4.228433 -1.4122473 6.023864 5.7799788 -0.53326595 -3.435514 -0.15585771 2.7272198 1.1571183 -1.8961847 -2.2860222 -2.0708869 -1.7981842 -1.2364429 -0.8028926 2.8027542
1532856 7.8135266 0.05388848 3.0805979 -4.694285 -2.9057193 6.675944 3.4760616 -2.138474 -5.762739 4.745372 -0.26350984 -1.8776836 -3.215986 5.93479 -0.371262 -0.17298725 -5.181757 5.970786 -2.9646606 -1.3833733 -1.7762902 -4.956682 -0.39846578 1.7989402 -1.0821027 -2.3341556 -1.6428539 2.0330942 -5.7205224 -2.2294254 -7.4959173 3.8456612 -2.0964413 -6.367274 1.5418967 -3.4600728 2.2947478 3.412367 3.6747918 -1.1133779 1.1281855 -0.15283944 4.038457 -0.48282284 -3.2229743 -1.8105946 -4.853014 -3.2956736 -0.7319043 0.19905257 -1.4211694 -2.777365 -2.6118767 2.155181 -3.0625014 -2.8120587 0.99452114 0.39647263 2.2068334 -5.9595523 -0.25976345 -0.10662729 1.5403581 4.4796157
4015464 2.4809384 1.8944074 0.06933324 0.3370885 0.1957221 0.8847966 2.250324 1.1576365 3.593624 -2.7032 -9.579353 2.8688781 -0.123408645 2.4014268 -3.5889256 0.81458455 -1.847099 5.329193 -7.385928 -4.6931353 -5.427197 0.6716408 -3.7115796 1.7394292 3.1298356 -1.4891514 0.87957263 -2.135132 -1.2765645 -0.25325856 0.25353166 1.1903017 -5.188286 -1.9889722 -1.3986291 4.2324586 2.6695354 -0.25741807 -3.2378097 6.5478477 -0.8853898 2.8300233 -0.9855737 -2.6624773 3.7553937 1.101692 3.0039537 4.5769315 4.5776978 0.6190293 1.0031475 -3.4400952 2.2832744 -4.1920714 -5.8533874 -0.82976466 -1.6375667 5.8493533 -7.066024 3.8879378 -1.3506879 0.055841003 4.2695556 -5.9184604
885690 -0.6329184 1.13868 1.3136 -2.1094463 -0.09206901 -1.7006226 -2.7068803 6.227429 -2.268334 2.2769997 -0.7489523 6.241036 3.196428 0.72049224 -7.244125 0.79500675 1.3801104 -0.75363547 -1.3532546 -4.145266 12.156979 -2.4943852 -5.2184534 0.98185956 2.062188 -3.864882 -0.66366744 3.5271227 -4.4445434 2.3470528 0.18705049 -3.0412886 2.150908 -0.22460182 -0.006579844 -7.705954 -0.89561754 -4.6952643 -1.7063134 0.23247485 6.4136257 1.5598499 -2.3231745 -1.847534 -1.4729286 -1.7678671 4.6436663 1.0469145 -0.97170764 2.096362 2.1889155 -3.8700814 3.396156 -1.6798203 4.5377374 -2.4504645 1.1345539 -0.83917004 3.0955603 -3.4806998 -2.6109197 1.7853264 2.9812167 -3.1545618
6064971 3.9490578 0.42470908 0.22688426 0.4391172 -2.9086473 0.38192853 -2.1887891 4.785111 -1.3221099 2.497602 -1.6018075 9.416206 4.4890656 -1.24377 -1.3744665 -4.0996842 -1.4947946 1.5374196 -4.404427 2.4610808 8.00842 -4.825639 -0.9590153 -0.9389909 0.6369964 -4.737011 1.5740643 0.7198579 -6.7842183 3.5593705 0.45979196 -0.4372526 1.3563393 1.5353849 0.7372863 -1.1701028 -2.703223 -6.5133862 -3.698925 0.90687263 4.3221416 2.0540924 -2.6307337 -3.6099577 -2.9768238 0.52837104 0.08077025 -1.7556381 1.718015 9.536456 5.5708103 -0.6634831 -2.0171483 1.8036832 0.97820187 -1.4636906 -0.84174675 1.571569 -3.1387172 -1.1310978 -2.1802795 -2.631716 1.4608049 -4.6084876
5613431 -2.0610101 0.80117035 -0.9687924 1.6426897 0.41203153 0.89769036 -0.1285974 -11.497404 3.3663428 1.1747166 -3.6623414 0.48648852 1.7030499 -2.0236294 -1.009929 3.0421765 0.95189524 4.7853756 -4.411234 -0.56359667 3.205525 -0.5033658 2.7604144 -4.966331 -0.71771777 1.1886799 1.2470508 -5.8812084 5.0536404 1.8524053 1.5374689 -2.951172 -2.2297 -1.6341456 -3.5810833 0.5855191 1.204427 5.826565 -2.6939373 -5.6329603 -1.2279277 -0.85165346 2.704305 1.5545175 2.9497154 -3.2702274 0.8229405 -0.9651822 -6.75493 -1.3026602 -2.896339 6.1986775 -3.3026063 -0.41735235 2.5421987 0.5875351 -1.5142167 0.34464258 1.8625416 -3.8106513 -1.7197183 1.9996341 0.70653063 -6.1961036
4658140 5.383997 1.725598 2.3218732 4.7322736 1.2714528 -6.4398794 2.9038737 -3.01322 5.0395365 -0.42066404 4.8744655 -2.1996307 -3.0951757 2.0396957 -2.1622152 -7.406115 -1.1513768 -1.029332 -1.5959519 -5.3016458 -0.66473967 4.599169 5.102604 -0.01765876 6.769045 1.1870146 0.14464489 -2.232573 1.2541842 -1.0351053 -2.2196448 -1.9785497 0.9528178 -1.3479685 -3.403126 1.3340374 0.43195415 -2.4515195 -1.0223559 -2.1873806 0.3594801 -4.1485624 4.5207925 1.7383739 1.6303751 4.08496 -0.6994832 2.3577483 1.8498238 2.506865 3.922878 -3.181168 0.28564847 -2.9861953 -0.4527532 4.4154124 3.6764238 1.9910676 2.057216 -2.8556075 -3.9505515 6.1990547 1.7692696 -1.3350452
5290720 -4.7035184 -3.4438505 1.2506628 4.1424904 -6.163012 -0.66206545 0.4611009 -3.391456 4.9499693 4.412051 -1.5998574 -5.0566497 0.5201049 -3.2542384 -3.0581517 1.2244737 -3.0800967 -3.9724464 -0.7296467 -5.187891 -0.59371775 0.6835529 2.3546643 -7.4026275 -1.1817472 3.2251372 -0.9371748 -1.7718004 5.323589 0.48281655 -2.3414764 -0.7196144 -1.9929749 -2.2851658 1.9415671 -0.5205684 1.544463 -1.3156416 3.5320406 -4.4512258 0.46410668 -2.1898754 -1.8276017 0.33599257 -0.9293378 -2.660633 -0.29603338 -1.214355 -9.23962 -2.814924 -1.8689371 0.6698898 -0.19859315 2.4933534 4.080566 0.6668523 -2.044287 -3.841087 -1.6495105 5.7411356 -3.5420208 -1.1034068 2.8877933 -2.632749
1173148 -1.781269 -10.527249 -3.3882732 5.264522 1.6425468 -2.1592033 4.351396 -2.4868448 -4.4287376 -1.856399 2.0916932 2.8885667 1.3978425 -2.0954702 -0.76667386 3.284663 1.0035185 0.62059516 1.0712842 0.45059073 -0.15514538 3.2974951 4.313193 -2.8347619 8.407899 4.407227 2.3180287 -2.6281404 -1.625956 -2.75064 -0.7978933 4.6404486 1.9404235 0.13189107 2.2789178 -2.8037913 -0.47685528 5.7886105 -2.2091777 1.1256458 1.5955908 -9.45146 -0.52535444 -3.8306706 -3.5957506 -2.059408 -4.466953 -0.5994019 -3.6384733 -0.26448783 3.1976357 3.3592708 -1.2724128 -1.6174963 5.1449966 4.314644 -2.781398 2.484682 2.364006 -1.3938584 -1.2348068 5.769798 0.43014902 0.3899377
5290742 0.6982603 -2.5439029 -0.95777684 -1.4095043 -6.80973 1.3731343 -3.874896 5.774732 -3.8889947 2.2705016 -1.5883247 -0.7574663 -1.5887599 -0.6762842 -0.7297671 2.4210465 -4.9055605 2.3474536 -2.9846027 4.6788573 -0.7872835 -8.179822 -2.0190878 1.6574694 7.2321973 -1.9480264 -7.838187 1.3629172 -8.3614 -1.3663245 1.278637 5.6731925 0.71260417 -0.47153094 -1.2884359 1.7602234 -1.6119215 2.92979 5.604142 -2.3247857 3.1754892 0.95459116 -1.6557826 -0.30745474 -2.3509476 1.5140259 -1.7194667 -4.2825537 1.5633993 1.442135 0.11104069 -8.443285 -2.7110295 -4.486943 -0.94981915 -0.9201545 -2.9223542 1.773347 2.7186685 -3.5714927 3.2697723 1.6643187 -0.58538747 -6.6621585
4658153 5.181772 0.61004645 -3.9123547 3.4722219 -2.2117345 3.0289314 3.181107 -0.27122688 2.5239902 2.2706468 -4.188547 1.5458722 -4.777592 -0.17636909 1.2109593 -0.3521873 -2.56975 1.0549195 -1.7783934 5.8735476 -6.1069217 -4.1831083 1.5144498 2.6090333 0.83253384 -5.1919584 1.5029701 5.4294195 0.21451533 -6.688965 -3.5926027 0.55974054 -0.7502505 -5.8911724 0.4911651 1.6131405 -1.396782 2.5119107 3.1313467 4.6210837 -0.94488174 5.177419 2.9461727 -3.2396958 4.546173 5.3364897 0.59064597 -0.8018735 -1.3062507 -4.126791 -0.72921944 -5.0821495 -3.2952836 -0.5435049 -4.3018456 -1.5959013 -1.2730373 -0.2709905 2.7307074 -4.4687023 2.4211414 1.5642346 2.8378615 0.85690534
809894 4.650851 -3.0878675 1.4063166 -3.5793893 -4.1567945 -3.5478199 -5.598034 3.8360994 -1.5718673 -0.49980032 -4.046164 0.7532815 2.1108155 -8.720245 -4.3814 1.9345794 1.4004725 0.6297076 0.46791846 -2.9536495 1.8953019 -3.4793057 -4.6551757 3.3353062 0.6785473 -1.5428306 -4.3961005 1.4058063 -1.755876 1.3329144 -2.9970315 -0.7263838 -2.6608045 0.27343214 -2.1788812 -6.5360103 -1.4875362 1.8275152 4.992551 1.8740076 1.0794175 -1.2214186 0.4495558 -0.33549863 1.4591209 3.7221084 -0.93537533 1.1720519 7.609578 -2.9543629 -2.0339427 -1.2209456 3.0955198 4.8315334 -0.28949764 1.7306985 2.8100445 -2.5320144 3.0279987 0.9815846 0.545811 -0.042532455 -3.3370347 -4.0222626
1382887 1.8160917 2.12361 7.865201 -1.5442088 5.4594064 0.21516325 1.9124862 -3.3223078 -1.0033432 -5.0093775 5.0591826 -1.6650717 -2.59513 0.08643034 -2.9692998 2.1170187 -1.5121095 -8.458775 0.29088536 -0.0046309424 -4.9002438 5.8690705 0.88034606 -7.0684237 -4.4882956 2.188459 0.7759075 -0.31997332 3.040631 1.9075699 1.3459626 -4.387514 -2.4795556 3.8109426 -0.31927684 0.57589656 -0.6767599 6.60638 1.6227474 -4.2430367 -2.9607816 -3.2801936 3.0066307 -1.6084846 5.7436867 0.48361158 -2.4429963 -8.590522 -0.56017363 -1.3238614 0.7196722 -6.278041 2.2788315 -0.5262589 4.5202775 2.3774574 -3.5423007 3.4973667 0.16460969 2.389247 3.4790008 -2.9671707 -1.385144 -2.5327535
663888 3.4268584 2.4833183 -5.781053 4.512615 3.7273002 1.0310915 -6.2414346 6.708284 -1.7853665 0.77667344 0.16487496 -4.3371634 3.828544 -0.24615133 -0.32294324 -0.3743053 -0.9737908 -0.8067299 -0.65221614 1.369296 0.33579078 3.411291 -6.295973 0.019523894 3.8267627 7.12962 0.0017884619 2.867264 2.2790802 2.6624627 -0.009492672 -2.977155 0.6776615 -3.421013 -1.4978423 -3.9454453 6.90383 -8.06839 -1.4520246 -0.3763813 -4.3526053 4.661754 -1.1609801 2.0583277 -3.5234718 -0.28437144 -6.2288203 3.2904162 -1.4178464 -2.9894657 -6.9158916 -0.24313124 1.9921757 -1.8060435 5.2550545 -4.046874 -4.6541615 -2.0712159 -2.2604496 2.7042315 0.20847706 -2.4635406 0.362225 1.7916327
809879 -2.445203 1.1965944 -5.473648 3.8418815 4.6509657 0.47560945 -1.0840883 5.212109 -6.69901 1.2659152 2.9372263 -3.065021 4.7147403 0.83354795 2.3896968 1.2414927 -2.769555 1.7607853 0.3274065 0.22727358 -3.9856262 2.0932777 -1.3569201 1.0919342 -1.6077719 6.684805 -1.163389 8.284331 -4.785807 5.7580757 0.94429094 1.8516644 -0.8497568 2.5637984 -3.055126 -1.2279743 5.320677 -7.8821254 -2.036795 -1.7800689 0.1630973 2.2355971 0.9869452 1.9769267 0.37563193 5.1755195 -6.074911 2.384418 1.3314766 -3.011536 -4.5905285 0.28327 -3.4341295 0.4127698 -3.792477 -3.9581068 -1.1465188 2.931346 -2.268677 6.4462423 2.8802416 -1.0770434 1.3900558 4.542256
4015439 -4.2369328 -4.481772 -2.3197885 1.8723338 -3.5828426 -2.796622 1.2890313 -4.3101544 4.9590945 6.941223 -0.85407823 -2.873398 2.7826028 -4.676825 -7.5264506 0.36845344 -0.20852354 -2.3908832 0.074366644 0.72845286 -3.2275965 3.385503 2.8576255 -6.711026 0.19929492 -0.83857226 -1.0317302 -3.2514808 6.0692606 -0.33721608 1.6813776 0.8742781 -2.3140237 1.0972267 4.0596724 -3.293192 0.19790362 -0.60649174 1.2300775 -2.9346476 0.13110924 -2.4609175 -1.6447383 -6.5925145 -0.16171232 0.048750564 0.14332078 2.1351333 -8.346663 0.9310729 -1.0706402 1.0630432 1.2380143 -2.5744176 0.1125852 1.666926 1.0297456 -1.765281 -0.24314025 -0.6141515 0.43369946 -1.7811862 0.13146666 -1.2792068
4376140 3.3153906 1.4960487 5.48323 0.92028993 -4.031946 -2.4150157 1.5889955 -4.445254 1.7320372 -7.3141303 1.9979652 -4.767303 -0.6630786 2.6382687 3.5075355 0.6152165 0.6038269 -0.5957875 -0.53516686 -5.031317 5.094476 5.744622 2.2540584 -4.1475306 -4.04903 1.5269662 -0.26781067 -5.3114977 3.5649924 0.36660883 -1.4089999 -0.112770386 1.9626623 -4.815741 0.8933684 -3.4831793 -8.319166 -0.02009986 0.7318394 -3.410881 -0.8237946 -5.735701 1.8426547 3.8646357 -1.5109122 -7.914553 -2.3085163 -2.391444 1.3027765 3.425018 1.0473931 3.2948134 0.8285716 -1.9377779 -4.337314 -1.4030321 3.1988971 -0.70667666 -1.3623217 -4.3230305 -7.4039445 0.8988483 0.24413736 0.6712982
5613473 4.110204 4.0372405 3.6846092 -0.7637714 -5.127903 4.236413 2.3752549 5.9092884 -7.651118 1.3592752 -0.09348068 6.9747233 4.660438 -1.506098 -2.1173725 2.6771967 -2.3006155 0.7380801 -0.8924397 0.3275556 -2.8559947 -4.6167555 -0.7120922 0.263244 5.9226646 -6.538727 -5.1457157 2.508133 -7.736724 2.0332713 -2.0427334 2.541192 -1.5917367 0.9328766 1.881371 -2.9496002 3.0971935 -2.8545551 1.3729674 -1.4418037 1.6249785 4.1124907 1.4437118 1.50197 -3.8387375 3.1979382 -3.1133957 -5.12897 1.4822478 6.125619 6.0945168 -6.8600574 -3.638599 -2.0885074 -1.2497134 -3.3159683 -0.39455998 0.74114114 -4.6469026 -1.1744407 0.98644584 -1.7651805 -3.3970306 -3.8298986
1532126 -0.44881254 -4.2347918 0.93913436 3.2774706 1.4128336 -3.395207 0.7055902 -5.3644204 1.242102 -4.9618173 4.5192375 4.671872 -2.062386 -1.5595602 -0.32141528 -5.402556 1.7366177 2.4591904 -3.3055804 -1.6326642 -1.1307906 2.7829137 1.0901499 -0.41357362 4.9377627 2.1897988 3.5091085 3.7239447 6.1215625 1.7385893 -6.9585247 -0.79126513 -0.8731791 -4.0367064 3.9735534 3.7818253 1.1161046 3.694036 -1.6774793 -3.8303647 3.4376926 -5.419047 -2.5550053 6.272138 -0.7044559 -0.60695654 -0.1591065 2.1110318 -2.7642972 4.1907983 -5.0670323 4.7412066 0.4019121 2.6584294 -3.6819038 -1.5047308 0.5579513 -1.1107334 0.14486712 0.3193571 0.7821817 0.7139271 -4.0944233 -1.5415697
1183757 0.18560587 9.546192 -6.6189756 2.7448723 1.6800098 3.4922607 1.0402914 8.715734 -1.7413446 -1.1203487 -1.6793478 0.26234 -1.3246832 -0.5164015 0.32979113 1.4085383 -4.7731714 3.359312 2.6243927 4.081617 -4.083664 2.8957186 2.005886 4.7360516 -2.752865 -2.6537228 1.2444222 -1.0610592 0.04957508 5.6110754 -5.9070864 4.0720844 4.068849 -0.5964471 -4.707512 -1.071834 -1.2920103 -1.7852904 -0.11338314 -2.5492663 -6.7669015 3.6215775 2.5437858 0.44163507 1.107567 2.0448227 -6.383177 1.2169039 -1.5332295 3.5648553 -5.984845 0.7459165 -1.3408586 1.6411501 -0.61471975 -0.24320987 -4.6431527 -2.7091007 -0.5671563 1.2500166 2.0828214 -0.58073425 3.0477707 2.2366192
5613456 -4.6555424 2.3196137 0.59107983 6.033388 2.7936833 -10.848324 6.423629 -0.81974375 5.676788 -1.870015 8.024746 1.2648958 -6.9231215 -5.0640993 0.037542332 -5.9578214 -0.5688055 -0.0018086026 0.030794984 -4.5106463 -2.6749322 0.4566754 1.0339144 -3.526972 3.6291802 0.29753426 4.5306277 -1.1319958 -2.1021657 3.0085237 0.6397931 -0.37903872 -0.3050016 -4.4281816 4.917611 -0.77494586 0.4931909 2.1145518 2.7486646 -1.0602584 3.8420336 -2.8802538 1.6934501 5.479062 -0.88890433 1.366502 3.440386 -0.5306462 3.2848501 3.0427725 -1.7927784 4.2348647 -3.9529788 -2.93409 1.4753917 1.9996604 2.5627053 2.8838408 2.8024135 -0.9693333 0.8069216 1.8682176 2.6144702 2.8894303
4376197 3.9876125 1.9193953 -0.35157976 -3.399417 -1.6647886 1.4250511 -6.9124036 5.5914607 4.7972307 0.62307894 -2.5506928 -4.071275 -5.825759 4.3912373 6.613173 6.2928634 2.8059492 0.23438676 2.3601933 -1.8168882 3.018383 5.6125846 1.0927006 1.1466129 -2.5448816 2.9442666 0.27188993 1.4866251 0.8753861 4.025181 -3.2813094 -1.8460482 -4.3871093 2.2332804 -2.4159331 -4.8978267 6.3550954 5.1499047 -2.434681 1.3875834 3.9623926 3.998786 2.3117626 1.8053398 0.38399076 0.44483566 2.4877484 3.6749852 0.17989229 3.0488472 1.4349483 -2.8351285 -4.3414907 2.6033292 -0.31705296 -2.9896622 0.852964 -4.248639 1.3703976 3.725501 4.0413756 1.8601296 -0.385414 -3.7823865
809905 1.9273504 3.8908548 2.4828062 0.5580777 -2.3008072 -0.8249674 -0.080368035 2.2791214 -5.6751676 -1.5412616 -0.7886195 2.0314379 2.8800678 0.10140246 -2.075391 3.4176223 -0.99371946 0.49009418 4.89493 -3.7885394 -1.6717912 -4.865735 -4.2494183 -2.1788254 2.2773557 -4.758665 -7.7938285 5.405247 -5.687397 -0.8083539 -6.2737174 -1.6042709 -8.768275 -0.5797141 2.9167383 -3.349946 -6.1814475 -1.7065934 2.552996 2.3518522 1.043078 5.923052 2.1600957 2.6357768 3.4454079 1.8085415 1.7362152 2.0440552 4.499909 2.3403072 3.6739187 -1.2787284 0.75355864 -3.9754603 0.34658992 -4.0046973 0.28039432 -5.1440344 -1.5681609 -0.26366228 5.243244 -1.4246019 -2.5423384 -1.4009938
146375 1.2537608 -1.0955023 -1.5857058 1.969635 -4.3851285 -2.54032 -2.1911316 -8.27629 2.6114526 -3.1848886 6.4188175 1.9931583 -0.5018932 -2.918633 -2.7095063 6.136225 0.13506469 4.4623313 -1.3871708 -0.4028341 -1.5447454 -4.1148415 0.5354159 4.0744486 -2.2127733 1.7275171 -1.6493422 -4.5968595 1.155811 -1.2680053 -1.8723772 -5.266812 1.386287 5.1632576 1.8556702 1.6685473 2.0148933 0.93281126 1.7718993 -5.3298826 -3.03318 3.352913 2.340961 -2.9220386 -1.1506023 -1.5793469 2.399328 5.2022276 -3.7622437 -0.119255215 2.4922955 8.33346 3.4300425 -0.5041218 1.456216 -1.1672778 -3.1840227 2.3022025 -1.8571608 -0.8410024 5.6652365 2.6060915 -0.7809719 -3.0188835
636792 2.4503298 2.3975613 -0.306372 4.299884 -1.503575 5.600785 4.890072 -6.255851 -1.2280706 1.657913 4.553354 4.084594 -0.24094515 -3.4140172 -3.3491697 2.1606345 -3.2835088 3.649734 4.4748945 0.046623405 -5.5615816 -2.8098676 5.891695 -0.21772158 3.7495062 4.6884584 -2.2044115 -4.383772 2.8245394 -2.2510288 3.480948 -7.027739 -2.1904833 -0.913015 -0.6020318 0.4535869 -0.08674612 1.8197131 4.8323197 -2.9241257 3.4510381 -0.23712993 -1.5093571 -2.80181 -6.2931023 -3.3068526 0.5749036 2.0499377 -6.661737 1.5520699 4.2757306 5.102839 -0.14323089 -0.586055 2.5790763 3.6621807 5.6551847 -3.2576108 -3.1447494 -1.3391441 1.4977415 4.3909626 3.0160582 -0.43375888
4376169 3.5108645 -0.13503112 1.2272476 0.770557 5.326426 -0.1375042 2.8726163 1.95178 0.8453218 -2.1047432 -4.827695 2.9194257 -3.1870596 -1.8260584 -0.18923242 2.2376769 1.9135065 4.7673607 -1.6617643 -2.142076 -0.3818764 -1.2809781 -1.9493175 0.77318347 1.6040027 0.17435665 -4.9081 6.353174 -0.5053055 -1.4607373 1.2430667 -3.3168328 -0.43728372 -0.7652039 2.529336 5.416092 3.0579667 -0.641766 1.4097284 5.9377894 1.1844674 -1.8791486 -7.178318 -3.194954 2.7193573 -2.0745523 3.548924 2.3780785 1.0607016 -4.4620824 4.8764853 2.112623 1.486299 2.5274894 -6.890549 -0.40403232 -0.027996587 8.498426 0.63208455 -0.23550436 -8.232444 -2.1524491 5.400339 1.4454569
1382906 1.456656 -5.1674156 4.632458 -0.8423587 0.8539141 -7.0278144 2.86426 -2.3557143 -0.07201256 -5.394919 8.511738 1.0870659 -2.0582209 -0.4191916 -1.2885102 -3.3478506 -1.1736007 0.4486291 3.050068 -4.323268 -2.2691898 7.8438454 -0.7648728 0.09879404 7.594729 1.6071012 -1.2822521 2.6598275 1.7811166 -2.0704136 -3.3420305 1.1907603 3.9158301 -3.3175418 -0.51936805 1.4130113 1.1483278 -2.6013203 -1.985438 -0.9094629 -0.50340855 -3.9250138 -1.0336727 1.6992576 -1.8662158 4.4023376 -0.65809375 0.50444764 -1.7983174 5.758513 2.4104226 -2.714838 0.86104363 -2.511457 -0.9031192 1.6768246 -0.6064067 -0.54071766 1.9178274 -1.4833757 -3.4134502 8.844673 4.125442 2.3875895
885098 -6.4883065 5.9046636 3.0472074 3.1831772 1.4915518 -0.8996624 2.096905 -6.3357778 4.3177357 2.2262723 5.744838 -1.5089138 -2.565246 -6.4700246 -0.606531 -7.377544 5.0810485 -8.84838 -2.470602 0.39851883 0.26842475 -6.0960803 2.173857 2.8291278 -2.4406881 -5.795803 3.8878262 -4.6433854 -0.15538666 1.3089328 0.5253283 -2.7697783 -0.91511446 -0.054709285 4.7529364 2.46838 -3.2660089 3.1348817 3.952643 0.962834 -2.0784135 -4.5168724 0.34130576 3.576349 2.9048712 1.5123338 -2.579907 -2.0076523 -1.4019665 -3.0135918 3.0219038 -1.6564071 -0.60847586 -2.6879675 1.3643583 3.9007611 1.5912341 0.5135861 -2.217146 3.33131 -0.1152659 1.6313373 2.2634525 2.3743958
4015460 2.9828377 -0.7022963 -1.8327174 2.8030567 -0.93583894 2.32898 0.9636361 2.6403673 -1.4191408 0.37186515 -0.8705659 -1.3534311 -6.1497784 2.5902207 2.1883838 0.21348564 -2.3580632 0.44205168 2.4021304 5.2360992 -0.8122875 -4.1410694 2.366961 2.8800704 -4.1437893 0.6860499 1.4600086 3.9008172 -1.3490654 -1.777603 -1.1807396 -4.8481402 0.8625701 -11.353191 3.2454236 -1.1247252 -0.36157998 2.4737532 -2.8281646 3.7547097 1.3421302 4.387278 -2.8969836 -3.1769974 3.196507 0.42400688 -0.9166796 -4.29172 0.509205 -1.5420754 -2.27166 -1.499318 -2.1123605 0.64670265 -5.457477 -2.6907997 -1.7725466 -3.192511 3.6284215 -5.3012686 -0.92233735 -2.3358843 3.1967635 5.3111525
1173151 3.0559883 0.5710523 -3.6835687 -2.4872394 3.726536 -1.8770884 -2.7399495 -5.495303 3.922492 -4.846849 4.0401897 6.341361 2.040849 -0.10977493 3.7161396 -4.7846026 0.8846568 -1.0032996 8.45248 -0.781102 -4.5080338 3.5026703 7.07863 -7.56422 -1.1213645 0.7445 -0.96395683 -3.683938 0.8609251 -2.478045 -0.5661897 5.967107 3.7377846 1.1174012 -1.1357684 -0.28633615 -5.5906587 1.5145001 2.006168 0.9083393 5.562541 -2.8904552 0.37434998 1.2148823 -2.8354504 1.1773642 -3.3962302 1.3480597 4.357401 0.3874906 2.1815689 3.01062 1.2188742 -3.415567 1.1392046 -2.9913373 0.8464989 2.0741072 3.6077042 3.3146343 -4.3453507 -0.02062333 0.7064682 -2.248315
4015444 1.3759577 -2.464279 0.46200696 0.32005495 2.7577574 5.1741734 -5.416269 -0.5758967 1.2362123 -3.9496248 -1.274621 -5.744459 -6.473766 2.6996717 -2.3170164 -5.3681626 1.3655766 -0.4243903 0.87172675 -3.506753 -0.11270414 -0.9447456 5.7883863 -2.7354598 3.0080793 -2.9606085 -3.3933477 -6.2608714 2.5078688 -0.7139931 -1.297944 -2.4852862 3.7962244 0.76672643 1.4510685 -4.6945543 -4.658498 -2.3635268 0.45267063 0.02408699 -1.5954196 1.595203 0.04725547 0.77765566 -2.2326028 5.1467266 1.9177736 0.34116417 -0.86017305 0.21419391 -0.79347146 5.5114017 -2.8731632 -0.07935799 -1.6950475 6.3634825 4.831175 2.5142536 -1.5495883 0.20597759 -2.9048429 0.1854863 -2.5964622 3.1087952
1372190 4.852911 2.2135568 -0.3555458 -6.919195 -1.8363396 2.7919765 -1.0804592 -1.1285118 -1.7545251 3.7235365 0.9333182 -2.0084634 -3.523699 -0.25007546 1.1509117 0.48037595 -10.049857 3.2855458 1.3015814 -0.5470247 -4.621267 0.6955662 1.5852106 1.0984527 0.89452046 -6.107589 -3.6183357 3.905061 -7.1628857 2.2077718 -1.7546196 6.690046 -2.0460393 -3.720434 -2.5702848 -1.1190021 2.240219 0.9722625 1.852906 -2.3418646 -1.9407111 5.59406 -1.3460941 -2.0414183 -3.77464 -0.31068915 -0.7407782 -5.410516 -3.121651 -0.82902336 -0.57881725 -3.9518483 -6.3442106 -2.1931064 -2.589986 -3.3414836 -1.1142157 2.5149355 3.8516066 -2.415641 2.8117876 5.13228 2.0414357 2.4003625
1532833 0.05411793 -1.1612974 -0.6922406 -2.689885 -7.9221096 3.5072694 1.9047952 -1.7741013 -4.6822762 -2.783553 2.1125052 3.864275 -5.902359 4.839873 -0.95104307 -1.5849681 -5.457534 3.2301307 1.9958822 -0.27166888 0.017231366 -4.9629464 1.2766964 2.052521 -1.47978 -1.4079 2.3906116 5.5418797 -0.23513316 -6.5602484 -3.9218445 -2.8967953 1.0813215 -3.034172 -3.1359305 1.3050098 -3.9582016 1.3433124 -3.2867775 -1.8830997 2.092552 4.3139186 1.0215758 -1.1458484 -1.7589617 0.06348535 -2.3182807 5.4695625 -1.9943347 -1.2382939 -2.8012483 -6.4450245 0.5040881 4.1677403 -0.26129684 -5.0122247 1.2840775 2.0342643 4.410924 -1.3576963 -1.2894436 0.99521124 3.0918033 5.3014073
885092 1.3560855 -1.5788487 -1.5052257 0.12878342 1.5709702 3.6621444 2.233594 -8.538571 2.698289 -1.1083497 0.60798424 0.008070831 0.5362707 -2.0455198 -5.680737 5.649464 -4.295417 5.1404085 1.8968146 3.199839 -2.4864304 -3.2421675 2.6464005 -2.0851283 3.2062404 3.7448268 -1.7685517 -4.745061 2.9391046 0.7268951 3.8723683 -10.855891 0.0926242 -0.71719366 -4.4847245 -4.293659 -1.9014809 1.5665239 -2.511626 -1.2342356 1.5188162 2.7707865 0.2851889 0.53747785 -3.237952 -1.0637187 -0.8858021 1.7819273 -7.6630073 2.3359616 0.023332104 4.376793 -3.4777782 -2.2945921 1.8632246 2.13094 -1.5887091 3.2236428 -1.9787802 -0.5598591 5.9084496 1.6431135 0.0043382975 -0.79671776
6327292 -7.2462764 -1.1380532 6.5958667 -0.70511657 -0.8497227 0.6550514 -0.6894624 -2.9076424 0.34565213 -4.1470895 -1.304079 1.1925124 -4.756538 -6.21308 -1.5536153 -0.4440956 3.4085398 -0.23108058 -3.0977314 -1.9243233 1.0389386 -2.5637782 3.758785 0.11183183 -3.30136 -3.288862 0.40468422 5.523505 5.957388 -4.066234 0.35560352 -4.682496 3.3706338 0.23942168 5.6866145 -2.7242281 -4.3469434 6.481991 0.44429582 -8.721649 0.97110975 4.4610987 0.068264924 -3.200782 -2.5800865 4.2814746 1.7095772 3.3862758 -3.797072 5.3213573 -1.4478709 -3.056327 1.5556931 -2.5408196 -4.0873566 -4.2546477 -5.8328547 6.453459 -0.075208746 -1.0438869 0.42533877 -4.8338966 3.2477038 5.5807114
6634110 -7.786325 -4.176158 2.5396893 3.3014684 -2.3035097 -9.094428 6.549737 -2.547555 6.904637 -1.5712743 2.012724 -0.22906327 -5.3174324 0.048782572 1.7245767 -1.2929226 -0.9745581 -4.0986624 -0.708768 1.9228848 -4.254327 -0.48700386 2.9713712 -3.6756833 -0.82526076 -1.0241089 -0.0030388737 -1.4661415 -0.291824 3.9457388 -2.2842116 -2.0819917 -1.2460663 5.5140724 -0.4455777 1.9265933 1.1226515 2.923941 2.719132 -8.671522 2.7165132 0.84498596 0.86842537 -3.2020068 -1.695021 -4.8082952 -0.15492547 -2.4289713 3.9150105 -4.67498 -2.9881349 5.1436095 -5.1743298 1.4970276 2.881513 -0.31936657 -0.7195955 1.6005278 0.6716327 2.2905924 0.45626998 -1.7591246 0.15735407 -3.9006567
745316 1.5178998 2.7801728 -1.6924076 1.7812555 0.17495558 -3.0341036 -0.4494484 2.1697438 -2.942017 2.0950732 -3.2236538 1.1967334 0.28948 -2.9281597 -0.93917227 5.7409143 -2.6776273 -2.6447084 -0.27622274 -5.5969014 6.0576816 -2.3125763 -7.294809 2.6238089 -1.7168735 -1.9353768 -0.7546563 4.0333934 -0.9808862 -2.6281002 -1.0508035 -2.7109554 -4.6209083 5.250501 0.6898619 -7.268007 -2.3598034 -3.368769 2.457012 6.4760604 1.5761858 -5.4622593 -0.115565084 0.064695485 1.0645995 3.5807233 -2.179302 1.2181388 0.8526498 1.0558107 0.4198819 -2.3226335 6.0215783 4.1842046 -0.105772465 -0.5646397 -0.7313684 -1.5745586 1.2131584 0.30583122 0.9932287 2.0599005 -1.8094355 -5.4348354
5652931 -8.355207 3.9254043 4.7847404 4.754968 3.428558 -4.557675 0.5429046 -2.9305716 5.2061706 0.9413571 4.663291 -1.310479 -3.1103635 -2.9881856 -0.21846479 -4.084705 0.32746965 -0.828734 -0.24434046 0.41855603 -1.8233126 -2.3947248 -1.275875 3.313862 -2.7381713 3.2065334 -0.4741659 -1.3136826 -2.5834534 1.1941999 6.0724664 -0.20051605 -3.7632208 -1.7669914 0.9181533 1.262399 -1.9147017 2.6430094 1.3101122 0.78650165 1.2172822 -2.2412844 -0.6500652 5.849622 -0.5745201 -3.6795638 -1.9975328 0.53887707 -2.8778305 -0.34332046 4.56957 -3.3237176 -2.8234186 -7.8424916 7.8082147 -3.9329093 0.16318415 3.041957 3.720347 2.5457091 0.5812615 2.1078072 0.953963 1.875564
1532850 1.2664934 -0.5481144 3.2902946 -2.2608974 -0.06680662 2.927391 -3.1137042 10.332115 6.5777693 2.2928863 -4.4861584 2.6804407 5.414109 2.6762006 -0.9974629 -3.942309 0.27782983 0.37656277 -0.6060021 -2.0987866 4.520059 -4.568075 0.10234149 -1.7943861 6.4294643 -5.7716203 0.886064 -0.27636778 -4.5562477 -2.2254362 1.0564631 -5.3177443 1.3731121 1.0416191 2.3958387 -6.7134237 -1.9856706 -7.012322 -3.3679216 -2.8582368 1.7657206 1.2895911 -2.774178 -2.8093235 3.6469889 -0.67657596 -0.9777475 -0.06741104 2.3499494 2.1590562 3.339124 -2.4827263 -1.3458799 1.9515967 -0.523917 6.308985 4.0917206 2.0123138 -8.390987 -1.8243254 2.5119221 -2.1212661 1.9410223 -1.0551804
6400486 -0.28353018 0.4349799 3.0482857 -2.0109909 3.187615 -2.7449136 2.2238896 -5.4956455 0.7354896 -1.7680007 -4.2891574 0.7076699 0.018212562 -2.5646725 -0.7531634 -4.597979 5.766621 -0.12308741 -1.7925354 2.7543628 -0.13610548 0.46961942 1.9359198 1.1948302 -3.7408314 -3.956289 -3.6372073 -2.382065 2.4597952 4.1863546 3.7980666 -5.997655 2.9004092 4.6041236 3.9831014 -2.3268006 1.1695431 0.16724537 6.7331786 -1.1126012 0.91191393 -3.3613603 3.7558792 0.6860987 -2.6456637 -1.862132 -1.8463295 -0.18360285 -2.7990232 6.1475863 -3.9266648 -4.4961486 1.0915759 -2.5659182 -0.25191733 2.998889 -4.386511 3.0016196 -1.1601764 4.87538 -1.1588519 -3.274946 -2.078028 8.236535
663912 3.0546072 -3.3487136 1.8288082 3.0986178 -0.7359483 0.29396433 -0.019633833 8.05754 2.810503 2.4592388 -3.5388181 0.47625983 1.8657625 -3.8434904 -1.8386061 1.3474401 -1.569887 -0.6252914 0.08349502 0.9860718 4.762586 -6.528135 -3.9844606 1.1995441 6.6332893 -2.4550824 -4.6131005 1.2657515 -6.372746 2.347454 3.0032258 1.1258953 -2.6966915 -0.8683092 -0.48295188 -0.3878825 -3.271314 8.070315 -3.6232548 5.167808 4.575073 0.6077344 0.9084337 2.8761714 -1.0481375 -3.8069563 2.2738364 -2.9734995 1.1547458 -1.3946984 -2.80816 -3.5031533 0.87117404 -2.4425507 5.615205 -1.0669506 3.1240485 -1.9939827 3.0477588 -3.1524987 2.8831933 0.09122843 -0.05286381 -5.4153075
1372196 4.182908 2.7154052 2.5232136 1.6246067 -4.160269 5.4391704 -2.7565906 2.3005154 0.08050167 -3.0134773 -6.153337 10.215426 6.2360578 -0.49619874 1.10887 -2.0894687 -5.595428 -2.323706 -3.859988 1.6123672 2.700261 -2.1859565 1.97399 3.3418088 3.1178355 -2.075968 0.9041433 3.1654127 -6.610655 3.02762 0.17024001 -1.128835 -3.3218915 1.7744263 -0.06674734 -9.527378 1.3524188 -2.6277828 0.087698966 1.7912742 0.9985286 1.4794558 -1.8405353 -1.5868521 4.685784 5.3050694 1.4337158 -3.9959679 5.6253915 0.60524094 1.0057375 -2.46755 -1.594676 3.057571 -0.36813802 4.0280113 1.8281465 0.06755505 -2.3800764 -3.110498 1.3328248 -1.0990978 0.748526 -1.6317675
885704 0.90493286 -1.5787034 -6.1730876 -2.0535395 1.9585979 2.9059434 2.0251195 3.1886635 -1.9037751 4.267974 -2.6562567 -1.0176572 3.319088 -0.23426606 3.1096187 -0.68087125 -0.91313475 1.233223 -2.0116243 -8.021474 -2.702929 0.35275754 -3.2791302 8.411329 -2.6797857 6.1943007 -3.106845 5.4888673 -4.380487 -3.434094 -1.2777083 -0.7602304 0.3000051 7.753242 -2.119942 2.710805 0.96280205 -4.8441024 -10.400908 -0.5144181 -2.3229995 -3.7011988 3.71324 -1.7686222 1.4754885 -0.5841721 -2.6003516 -2.1228662 1.6591197 -1.9041394 0.3075556 2.1741717 -4.46423 1.387167 -0.84219205 -5.31772 0.4369146 2.0869052 -1.8331609 3.7816634 2.294867 -7.770516 1.9408754 1.9047233
1532781 -3.8221893 -1.2456483 -4.6329336 -3.8014529 -2.49169 -1.4955953 5.318327 -2.2662714 2.5471973 -9.598738 2.9903884 4.1297207 1.1476557 -1.0300328 -5.367207 2.2102036 1.185946 5.4633627 6.047026 -5.7443376 -10.649491 -5.377174 1.0914186 2.9814208 -3.303775 -0.89013255 6.0180106 -0.2813196 3.7313397 0.39890957 1.368286 1.2701424 -4.504597 0.45646483 -0.3823806 -3.8397088 -2.9005277 3.3412166 -3.2599661 1.6512624 -1.3098837 2.891745 6.9639716 -0.6159402 -0.17159785 -3.0518634 -1.7860262 5.1503386 0.5392109 -0.6086821 6.608888 -0.7283058 -0.22961046 -3.1876183 1.7381907 -0.01011847 -2.1618834 0.29542032 3.5526361 0.06276703 2.7563334 -3.665341 4.7896113 -1.7168132
1372235 0.015180755 -2.233364 -2.342852 -0.3546527 -1.6887783 3.250974 7.064381 -1.8119433 3.522392 -1.3543787 -5.7747445 1.2288548 -6.0808496 1.2744223 -2.1582794 -0.62334424 1.2525076 3.494461 -3.7271132 -2.1948078 -1.0183629 0.5570302 0.7678092 5.370522 0.62617797 2.3776526 -3.62333 0.4462233 -2.605465 -2.4215543 1.2196896 -0.8082311 0.13766865 -1.9862142 0.20584191 6.3862324 -1.0196903 -2.588363 -3.5435634 3.0337942 2.0747302 1.4709458 -3.07958 -4.459008 3.7900271 -2.0366662 5.578187 2.4008975 2.1267781 -2.9441977 3.6975098 -6.1367655 2.061413 3.4696004 -8.066016 -4.8319592 -2.777211 5.232419 -2.6949613 2.3852406 -3.865067 -1.9549991 4.2922378 -1.2916665
5290770 2.0607586 -0.5733261 -1.1579133 0.29026863 4.685371 0.6097645 -4.1885443 -0.52324253 -3.9896562 -4.5110846 -3.9389865 1.3281921 -1.9362391 1.9441369 -2.1294923 -0.5032578 4.318321 -6.133914 -0.30041698 1.5359527 -2.4857836 1.3483559 6.5593657 1.5263898 -1.8476528 -0.9740855 -2.3364422 -2.1200128 -3.7768812 -3.8852282 -7.075099 -5.316139 3.3055308 0.4993449 0.83564055 -1.8635542 -5.191537 -4.0833473 0.45972407 -0.14659733 -2.2092059 0.8774807 2.7576938 0.20494479 -4.565528 2.2215278 4.0642767 -1.7681442 -0.23291963 -2.0593283 2.2381632 2.2177975 -6.5545373 -1.9341635 2.2735863 3.3492103 5.5797462 3.6502552 1.8919413 0.6177004 -7.273947 0.56896627 -1.9712758 3.1232421
1532834 -1.1855755 -1.754795 -5.5634513 -1.7886171 -5.9811077 3.5474079 4.9596777 -3.1739826 -2.3890185 -2.4687657 -0.5087474 3.4404857 -7.9087152 1.1041458 -2.6993601 -1.2444367 -3.0959053 5.1297407 1.7085179 -1.3479089 2.2656035 -2.5510163 -1.2544156 2.1735823 -0.16856213 -0.8641921 2.4849942 2.5675526 -1.7125967 -2.5140686 -1.1324129 -1.9803506 4.2313066 -5.311564 -1.2953765 1.3589038 -1.1835431 -1.0874664 -3.0971918 2.0221846 5.475391 4.824855 -0.018562641 -3.208479 -0.863996 -0.4363298 -2.4491315 6.4250016 -2.905978 0.08442789 -0.42351696 -5.6439385 1.8506325 6.1157584 -2.5518863 -6.877684 1.7577834 4.960164 1.9466679 0.378364 -2.0603619 -3.9551976 3.45174 1.6804256
175789 2.569104 3.185528 -4.1841965 1.8220589 -0.60802376 -2.7617104 -2.5393186 4.9482117 -4.845576 0.24894844 -4.7971015 0.82413995 4.1691008 -4.3513646 1.246423 0.43507218 -3.42383 -5.4075913 2.8784025 -0.84548885 3.1787446 -0.45406297 -0.9949931 1.0395998 -0.22026205 -4.1674857 -3.3680904 4.8364697 -2.3737233 4.526543 -1.5416714 -1.7637714 -5.8574324 4.396183 1.0106283 -3.6541774 2.0596035 -2.2013621 -0.5261375 0.4832622 1.3165212 -4.0283747 2.3608553 -4.723973 2.998048 2.4891562 1.197787 3.1490817 3.9183438 -3.4371533 1.920686 -2.401751 4.39301 6.104315 1.0511428 2.1923308 -2.4846334 -4.56063 0.63102484 -1.2218446 3.2070644 -0.077101655 -2.3579235 -6.6112003
4015419 2.098813 -2.4369814 4.019635 3.2358816 -1.7707858 -5.918718 2.1899076 -1.371273 3.7805905 -2.5920951 5.8914304 4.7385783 0.16203022 -2.2870736 0.9767098 -3.765313 1.0552735 1.3390142 -3.2597983 -3.2577314 0.37272304 7.863268 -0.71006316 0.31541526 2.767379 2.0799236 3.4356346 1.8168906 3.8041208 -3.3479867 -3.6592708 0.92473245 2.1411164 -6.527511 5.722267 2.1258266 -1.0347564 1.0010775 -0.106168844 -2.1204956 1.9764755 -6.4786267 -4.395739 4.3714557 2.8994443 3.6481297 -3.4443212 -1.3081698 -2.310006 4.226424 -4.20423 6.1107793 -1.1510876 -1.53048 -0.99788225 -1.1666222 -1.0948938 -0.028155781 0.3482007 -1.5149311 3.165588 1.1735201 0.97427696 0.4222829
4015450 5.0246644 2.568823 3.6438513 -0.20920849 -0.2040734 3.861323 -3.0103934 2.9466968 -0.7043381 3.4223778 -0.22287662 -2.0201793 -1.2198435 -1.8629575 -0.79584247 3.1389217 -6.833098 4.9393764 0.379526 -1.5607824 1.7221318 -2.9359236 1.4755775 0.59651023 -2.2695403 -7.4617476 -3.098524 0.4132083 -1.0392393 -3.374292 0.4486011 2.7712712 -1.7688129 -7.5293217 2.2511845 -2.84847 -1.2705588 -1.4694129 1.3757828 -1.8593253 1.040302 3.1463747 -0.4139743 0.17774796 -4.955958 -3.4333005 -5.5508175 -5.774442 3.0710368 2.3501425 0.32423225 -11.658263 -3.6298907 2.2335725 -2.901758 -1.6665556 1.1199076 -0.16150102 7.3854985 -3.456521 0.66282153 -0.7672738 -1.3151664 -0.77848744
885703 1.2154523 -1.2040634 -10.663272 1.9101572 2.1518044 1.9746152 2.5505545 -0.14328945 -0.8737098 3.7525423 -3.3055453 -2.455455 -0.7436073 -1.5140587 0.9483564 1.0172299 4.691584 3.7905436 -3.1438718 -2.4963367 1.3564907 3.0818343 -3.612219 5.378234 0.8518786 0.4675359 -0.17824353 -3.0335724 1.6794193 0.15786408 1.6034415 6.048634 -0.21972285 0.2043616 1.7262222 5.402938 -1.8204237 -4.1013045 -2.9115083 0.97635406 -3.135137 5.7393746 2.2799997 1.8312124 1.1035241 1.836801 -0.59595287 0.42414078 7.524367 -1.7497115 2.0787396 -0.78206176 -0.11973218 0.33104584 -6.5227637 0.67456293 3.9028513 4.8216567 -1.4362519 3.5763545 -2.7589755 -9.471038 6.8819256 1.954584
5613437 -2.266992 -4.662603 -2.2728302 -1.3212684 2.2983198 -2.1134152 4.94058 -6.2665725 2.0335348 -2.1347785 -2.4092999 -4.288153 1.6255623 -3.3270836 -2.9080482 -2.6325505 4.779563 5.710464 -2.5087335 3.277739 -0.34748742 -0.27896905 2.4942262 -3.9601686 -2.06922 -0.02686868 4.0486875 -0.41723177 6.4142814 -0.11476798 -1.7752975 -0.08113748 -1.5353949 -2.208607 0.44918853 3.6002297 0.404804 0.2419022 -3.6710424 -4.8858633 -1.0087442 1.0191839 2.865457 2.3445144 0.1143538 1.8023776 -2.2669935 -0.7345991 2.3618019 -0.09821085 8.37122 5.6872063 -0.42141375 6.447185 7.2052937 0.61858433 -0.8560329 0.0118241655 -0.6657702 -4.584932 5.291109 1.8283727 -0.8081507 -2.5929945
809886 5.701526 -1.6169231 -0.26445216 -5.1046557 -1.5333004 -4.257879 -0.22239071 3.6795905 -0.08891187 -1.0107899 -5.0886774 -2.6017458 -0.075720996 -5.5705643 -5.5778155 1.3086956 -0.30486405 2.1929686 -0.021693802 -1.2496933 -1.9010707 -6.9582825 -6.3870873 6.870857 3.6769116 -6.019355 2.6082685 2.8614 -0.6238904 -0.58859086 -2.546217 0.9812727 -4.880664 -0.9584252 -1.6597558 -1.9645205 -0.103789955 1.1285989 5.0458946 3.976575 0.44743788 0.18592198 0.73283386 -1.7978145 4.5735993 3.1451907 -0.1302099 3.3517084 7.0231957 -1.8415514 -2.1979887 1.6151831 1.145781 -0.5317685 -1.084015 -3.621533 0.5931854 -2.1754868 2.556392 -3.9173589 0.3778723 -1.211216 -1.9018153 -4.507625
480817 2.165009 -1.1725775 -2.6173851 -0.8282284 -4.253298 -1.5999739 -0.12004668 8.292499 -0.07860467 2.346295 -5.345328 5.8982625 4.831271 -6.3118978 1.6275474 -0.53850687 1.7856702 -3.4390025 -0.078657016 -4.1853905 4.5945387 0.71146506 -2.4905841 -1.1618503 6.914368 -2.3788369 -0.79988104 4.2603345 -4.181548 3.461073 1.9707835 -2.0471826 -1.7459912 -2.3686209 -1.5714024 -4.244162 -1.5368441 3.5819378 -3.5539448 3.673097 1.9136735 1.9271528 5.7537794 2.9775546 -1.4870636 -5.772417 3.795617 0.524064 1.8871509 1.5451142 -1.3312144 -1.356105 0.7760603 -0.81733054 3.3877375 -2.2961435 2.4415648 -2.120005 1.7155023 -0.16345179 3.3921838 -0.70508236 -2.105788 -2.0788746
4658165 7.408278 1.612205 -3.2619936 -2.0810301 -4.5533433 1.9254339 0.44736686 1.6881003 -0.35776132 -1.357356 -7.222437 2.394517 0.71963966 2.5134852 -1.8141503 -4.3571987 -1.7718254 0.4486779 -4.0413423 -5.2348886 -2.9365222 -2.6513028 2.8382344 1.3705375 -2.1243954 2.5483027 -0.34037864 2.9250867 -9.926981 1.2652438 -3.5296648 2.9295952 -5.5940456 -4.1576037 -0.4191705 4.7631617 -1.1613595 -3.8141072 -2.3279147 4.2095714 4.012192 6.8905883 -1.9877604 -2.7436345 4.013368 -4.4939704 4.3463373 -2.1199548 1.394802 5.3979797 3.7015727 3.967081 2.6165335 4.201379 -2.1339207 -0.89877033 -3.0709708 6.666567 -1.5844021 1.390796 1.6197664 -1.7531191 7.3688936 2.6451712
1532138 0.9218001 -1.6585311 1.4119626 0.38643232 5.9957895 -2.2254312 -7.2628565 -1.0156662 4.6607575 -6.7224345 0.63145477 -2.322074 -3.9680543 0.74115294 -1.8792764 -6.5504794 1.5374258 -2.9642887 -0.6251091 -2.055071 -1.2356515 -0.48517677 5.114061 -0.56255764 4.2748446 -1.8432728 -1.58866 -5.0492215 -2.539381 -3.302323 -1.8053867 -2.7475352 1.4511154 -0.46430072 2.410989 -1.2695031 -3.6985698 -2.9327276 1.3969183 -0.014028377 -3.1599317 0.7059821 1.391356 1.3676176 -0.9294668 6.4188704 1.4789706 0.03926755 -0.5670086 -2.3068733 3.508218 -1.0710149 -3.1868985 -2.0460758 -0.8992736 5.6220326 2.7434943 2.2794487 -4.012149 -0.25042713 -5.209509 4.2175565 -2.5157638 2.0423875
6064961 2.791131 1.2329841 4.804931 -3.2991514 -0.93646336 -1.2388685 4.1876507 6.324395 -1.0064243 3.2618198 -3.21073 4.116571 2.2859375 0.8637804 -5.278456 -0.63410884 2.6249766 2.4587986 2.8482993 -4.5963626 5.569808 -4.624712 -6.2190213 0.21002463 2.6155202 -3.4957972 -3.3963928 3.7918615 -2.8896568 1.5960109 -3.052464 -4.6560516 -0.8478895 2.4199753 2.583652 -8.4705105 -2.0634058 -3.8762155 2.432581 0.7470686 -0.5078632 4.1105657 -3.7567317 1.2684565 2.0626466 2.8356066 2.1016295 1.5204334 4.678243 2.5408812 1.6850688 -2.032198 0.12440226 1.3773798 1.5205646 -0.855376 2.0256286 -3.5400321 -0.4181098 -0.82634383 -2.4128718 1.3267123 -1.6336921 -5.4213877
4658136 -6.7854476 1.0879679 6.503486 1.3707248 -1.3545201 -0.82461756 0.005523053 -6.2227864 2.6965888 4.844762 3.7715235 -4.547183 0.268577 -4.189894 -3.0323174 -4.7086334 3.835071 -5.0081997 -2.0681438 1.4324553 2.1474445 -1.088758 -0.7574998 1.509532 -0.9780709 0.6547867 1.0879087 -5.4063406 1.2632455 -0.107168116 3.3328881 -0.5755131 -2.1934838 -4.009348 -3.082285 -0.94466084 0.4655452 0.5919253 0.63716525 -0.23349482 -1.3459759 -0.33563858 0.77305424 3.7402945 0.3393919 -5.4505115 -4.0854564 1.1607351 -3.0769944 -2.5172555 1.9784462 -0.89404505 -4.172798 -1.4480847 5.601114 -1.6756287 -6.306399 2.741716 0.7397382 3.6452036 -4.3176327 2.1785433 2.0296764 -1.5010792
235193 0.45734668 1.0458328 -2.8973484 -1.3946548 -1.7240379 -6.7867665 -3.6869602 2.830342 -3.3130987 -0.42004517 -3.9013848 0.96537215 2.8840883 -5.7861285 -3.2613125 4.9904714 0.30537 -2.802554 -1.188564 -3.5596287 3.7787051 -3.8473835 -4.2793603 4.004451 1.3389857 -3.6278584 -0.37535 2.3994858 -1.0290098 -3.1807415 -1.3112109 -0.87168425 -3.122432 3.379318 0.3579761 -5.0007825 -1.2555851 -4.3523393 1.9496404 5.7235875 -0.81935805 -2.8069754 2.2326884 -2.2134042 3.1157134 -0.1668005 1.3029578 2.1564848 5.1749907 1.0464144 0.07660496 -2.0089202 5.2142572 2.0791743 -0.06545794 -1.6012611 -0.14966646 -3.4996912 4.362196 -2.054127 -1.2568133 -0.67628264 -2.3468056 -6.2036424
1183777 4.1397305 4.281091 1.5247394 -3.3477278 2.576369 2.0845873 3.5795388 0.8578776 -1.8489498 5.543001 2.614247 0.29304415 -2.1283367 2.427262 -0.016566018 5.690925 -5.779562 1.223382 -6.2896533 3.8528605 -1.583423 -2.6889236 0.803526 3.002664 0.4314 -4.5005 -1.725562 5.0293345 -0.9716172 1.4161258 -4.0926843 9.403855 -2.5590994 -0.72270215 3.9135287 -1.4466677 -0.6209529 0.4339029 0.69598675 -2.3738296 -0.9590328 5.5025015 0.97065896 -0.44371626 -5.4882326 -0.38088006 -1.4642811 -0.4154885 -2.3709188 -0.55986845 -0.096173644 -6.4080615 -3.124464 4.9911585 -3.6876585 -3.5863652 1.9616276 1.5640374 -1.1214284 -3.9346056 3.0234447 1.2528064 -1.2435985 3.4312267
6634192 0.35792065 3.668961 3.6093972 -1.2118511 -2.494991 -2.6044216 -4.0756536 -8.100551 -0.2345972 -3.441089 -2.4438443 -7.010974 -0.32291323 -2.059949 2.1144698 -2.3883781 0.22219874 3.2833905 -2.4447434 2.3996613 0.67034405 -1.7317373 1.2758499 -5.0777173 -1.3153363 -3.3564422 -3.6787515 -3.1215272 0.9697304 -3.3475015 1.7929796 -0.3711333 1.2920191 1.5269128 -3.430019 -5.695117 -6.0260735 0.40644982 -0.3601893 -1.9611164 -2.639994 -5.4861565 1.7187471 0.17305459 2.0891922 -1.2327491 1.1369041 -2.9589748 -3.4071066 -0.33649996 -0.61427945 6.5316005 2.041653 -2.785199 -3.7569075 -2.607058 -2.4448848 -5.5711417 -1.3227863 0.32337478 -6.2478733 1.3528386 -0.62471235 2.0262363
567787 -0.12086265 3.8089144 -2.518807 -4.370421 2.409466 -2.6133375 -0.5582613 -2.367772 -4.2804885 0.62936133 2.0584402 -2.86182 0.17474692 -7.022122 0.87958425 -0.33488128 5.4349194 -0.4592837 -1.160838 -2.4798746 2.2145634 -0.50193757 6.4356594 0.08997806 2.5910094 -3.148169 -0.99575526 3.6004326 -0.5753526 -4.006491 0.440256 -2.3580184 6.382033 5.170844 1.6940039 3.366685 -1.3997772 4.230843 1.8518153 4.99442 1.2436072 -3.9647079 -2.1867516 -3.2171118 -1.8083086 3.877272 -1.8585547 -1.0974689 -0.4202445 1.0030743 -1.6354227 3.493327 -4.240732 -5.8442473 1.704682 5.981442 2.8853621 1.5070179 2.3982298 3.1202505 -2.8400848 3.5516937 -1.3129545 0.1186353
6634155 -0.83772737 0.4470009 2.8473887 -4.975791 3.4555187 -3.4854846 -0.34668732 -6.9634542 -0.26467243 -1.5151956 1.6560626 -0.6691131 1.659657 -0.3673944 0.52913934 -1.9748291 -1.3016713 1.5697526 0.47900072 4.6432004 -1.7942854 3.8523953 8.882838 -5.176978 -5.8773212 -1.4302089 -2.3989801 -1.8590705 -1.3730199 -1.7590137 -3.9208362 -0.122391336 6.1395006 8.060948 4.8031263 -1.9907761 -5.364485 -1.6588225 -0.116143614 3.7839859 2.6944144 -0.37691382 0.821268 3.0401676 1.6827545 -0.3023481 1.3207357 -0.2648032 0.16093673 -2.8853953 -1.4813162 3.2319224 1.6036006 -3.7487054 -3.0879574 2.648369 -0.8993467 -1.6114417 3.1992142 -0.6381606 -5.3544655 -2.6960177 -2.4625545 0.079916455
175771 0.7891651 -4.434356 0.0727492 1.383277 -2.732878 1.1637644 -5.7540207 4.7496576 -5.110331 0.6658254 -3.007085 -2.334768 2.8498542 -0.6894986 -7.546571 4.599056 1.5752468 1.919521 3.1592674 -2.2111435 10.161455 -6.6412735 -2.4385037 2.3666942 4.1837754 -5.7430634 1.2431569 7.0809197 0.87232095 6.453367 -1.2619721 2.2157004 -3.135995 -1.302067 -2.4113543 0.5921025 2.4100518 -3.7641287 1.7699586 -0.2809353 2.9793487 -1.2224721 2.7410698 -0.34159696 -1.4006968 3.7164798 1.4082783 -6.402805 5.4423614 -3.3943946 -1.41255 -0.22633548 2.7058468 -1.9118811 2.2628334 4.8084702 0.15526834 -2.0634267 3.1219246 1.4552974 -2.1444151 -1.8900856 6.236703 -1.9385762
6634156 3.7466402 1.1123712 3.22932 1.0301412 -3.7401867 2.6222224 0.5208912 -2.9820902 4.670851 -0.43321055 5.020204 0.9867985 2.8604648 -5.8206124 -4.1642447 -0.045643356 3.5633166 7.436415 1.0518994 2.7918272 -3.9036472 -2.413285 3.1801574 -0.1818414 -0.78086346 2.0347915 -2.0068908 -4.1081295 4.190395 0.7857536 1.7602185 -5.4623017 -0.2878688 1.9197071 0.43191087 0.09095215 6.869006 0.12219443 1.706755 -4.324839 1.6334201 2.2945697 5.22847 -3.8696258 -4.7044563 -3.1255138 0.23579812 1.8110334 -4.2409673 4.0645065 -2.44549 7.3060827 1.5927414 2.0405252 2.2626944 2.0055847 -0.12054511 1.6860543 -3.080119 -1.5499612 3.4234974 -1.9626812 -1.1871673 -1.340787
4658146 0.5089324 -3.1778731 5.905735 0.64416003 -1.2935792 -2.8200808 5.433332 -8.160322 0.6214116 1.1037232 7.3100543 -1.7884842 -3.2789207 -1.1123067 -3.0976813 1.9945848 5.280071 -4.7712812 -1.4675738 5.200014 -0.74055964 8.007957 1.0248324 -0.61685693 1.5613214 0.67593473 -0.54855615 -2.68211 -3.7092707 2.5520508 -0.6812417 -0.82573986 0.07905075 -1.7604153 -3.2351594 -5.681239 -2.4554262 -1.0785189 2.8612695 0.57931596 -0.12661304 -0.595201 -2.0231252 -0.41525882 6.232244 -5.0402055 -4.515618 2.6275103 -1.7032502 -0.8590762 -1.6819346 1.6513333 0.843563 4.14134 2.4792564 3.1631858 -7.888631 4.7232265 -4.9871845 -0.4177105 -1.5180644 -1.238499 -0.8075538 -5.054704
4015449 1.5603133 0.90186423 -0.13311522 -2.548598 -5.644488 6.8179884 0.7929562 -3.8939955 -8.914184 -2.7469244 1.4623606 -1.9921682 -4.9913454 2.0854251 0.380717 -1.8857241 -4.825664 3.0626943 3.224785 1.4044276 2.5205407 -5.785209 1.1555575 3.6154232 -2.748768 -1.9988891 0.04885059 4.861726 -5.3998613 -3.9280355 -1.5610393 -0.97607714 3.6855938 -4.156227 -3.2843418 -0.87085956 -3.7326002 2.777001 -2.2746687 -3.602999 -2.3506598 2.6432533 -3.5303144 -4.79238 -4.292682 -2.6029866 -1.3767027 3.9595523 -3.3008652 4.6096272 -0.33200216 -5.226381 0.10063101 2.5729027 -2.150227 -0.58835554 1.280187 3.4940326 0.6738031 -5.0673084 -0.55278033 0.8470339 5.9306564 4.4190946
6064952 1.0317918 -2.197027 0.58857405 -4.5532746 -2.4679909 1.1830053 0.10570062 -3.109293 -1.2731781 -3.7402606 -1.4295112 0.9553287 1.9045573 1.6403412 -0.53897226 1.3002018 8.433676 -1.8050188 3.9225094 5.1569285 -5.081692 -3.1759133 -8.0699215 -2.9709578 -7.728758 -2.1462152 -1.536655 -2.2262833 -2.3185666 -4.214392 -0.30566254 -2.9910018 4.145525 -2.4021099 2.7305224 -3.2272954 0.6800766 1.2469801 -2.1543224 0.6015152 5.027686 0.40764812 3.3847241 0.5920097 0.08379966 3.075621 0.18951929 0.30015665 -4.6663914 -5.355619 1.8033327 1.6150299 -1.6275849 0.5618419 -3.087208 4.698957 -2.9066565 -0.39530012 -0.65838444 -1.2291301 1.4209642 3.3992403 3.4815261 6.743389
1532788 -1.2782046 -1.3664914 -4.340115 1.9986473 -5.168833 -2.059174 2.5298188 -0.95062697 -3.2561467 -5.1326094 1.7132113 -5.1495113 0.43458512 2.564761 -2.8577144 0.10088821 -0.13848768 1.3775485 -1.7290219 -2.9629793 -4.5858483 -3.5942402 -0.09573723 -4.787685 -2.5625646 -2.0289283 -4.205386 -3.1834738 6.963154 4.153653 3.0764802 -4.1644807 4.8524256 -6.11287 -2.412969 -0.28480017 6.61574 1.8476155 -1.9387898 -5.503037 4.8253093 1.3716896 3.9171412 1.9870598 -2.2550201 5.843074 -9.071877 1.3156525 -3.7770705 -1.072739 0.6634759 1.608904 -0.5137586 1.8828496 0.17094348 -1.5921072 -1.9774475 -3.539229 -0.48255923 1.2486447 -6.919379 -1.5626389 0.46010378 8.237164
6634187 -1.0502938 -2.708916 0.22850941 -1.6234374 -4.876163 5.0581894 1.5045862 -6.407188 -2.5754156 -8.763359 -4.106317 -0.4892088 -3.4899797 3.7893782 -1.9377607 -4.75998 -3.4547257 3.5958838 1.558481 3.2983425 0.9462206 1.4907441 4.4974194 5.4699225 -3.174801 -0.83903426 -1.7116104 3.725969 -4.248138 -5.500482 -2.034563 -7.0458264 1.6034553 2.5113797 -6.582834 -2.0471332 -9.35675 -0.40469003 -0.3770506 -1.7296356 1.2134999 4.7291713 -5.108834 -2.016059 1.4426473 0.23943876 4.0376425 -3.1871204 -3.122802 -1.0537363 -1.0337267 -0.15990983 0.5342764 -2.1526692 1.01832 -1.5569837 2.300472 1.2873206 0.42855608 0.7306713 -7.9897695 0.7644706 4.1795864 3.6085136
