1003 64
916 0.09512253 -0.010465451 0.16338763 -0.118573055 0.27423584 0.08666899 0.057332814 0.16046664 0.026052449 0.039917447 -0.45429727 0.30862355 -0.21640742 0.030830644 -0.21840267 -0.08351738 -0.110738896 -0.46076077 -0.27994177 0.06022706 0.06589275 -0.07820324 -0.2407402 0.3058668 0.3600414 -0.23408979 -0.078670375 -0.19725178 0.2905968 -0.15622012 0.015518245 0.23622562 0.093776725 0.121800825 -0.30257854 0.25778544 -0.2795834 -0.42414865 -0.08185429 -0.22657904 0.08799394 -0.25513634 -0.4539684 -0.16296944 0.019837132 0.37168783 -0.13104144 -0.031407304 -0.06743684 0.32268468 -0.08691734 0.3189772 -0.16462433 0.44440877 0.16224912 -0.1306798 0.47245222 0.22730264 -0.27352652 0.7228527 -0.30258617 0.086697586 0.1137239 -0.10248819
30 0.28166646 -0.058079343 0.24195501 0.4735215 -0.10430481 -0.06438254 -0.13128923 -0.35377723 -0.1799825 -0.218419 0.22362506 0.35884655 0.06380318 0.15336244 -0.18677807 0.088592894 0.12440284 -0.43698895 -0.1115477 -0.003912824 -0.23602448 -0.003915459 0.15763429 0.05742098 -0.007786592 -0.29076314 -0.31459832 -0.22441822 -0.3990594 -0.42185518 -0.3340359 -0.6230849 -0.23919359 0.0384654 0.2390789 0.299457 -0.049960364 -0.050793447 0.19675486 -0.18054858 0.49891588 0.27160406 -0.018674452 0.4330959 -0.10170215 -0.04311839 0.055713505 -0.023028893 -0.20926033 0.053299066 -0.4047034 0.212279 0.16080187 -0.011227945 0.20332387 -0.12456098 0.18401136 -0.18010001 -0.4197929 -0.2848478 -0.2998889 -0.16131389 -0.15750366 -0.029618401
501 0.091301404 -0.14232892 0.17263052 -0.22072133 0.26008242 0.08184486 -0.011252103 0.028363502 0.025190627 0.074947074 -0.3419832 0.32354224 -0.2867603 0.0331065 -0.29298595 -0.20779067 -0.0784238 -0.34202138 -0.2807767 0.073586985 -0.14038338 -0.0589008 -0.26158294 0.37803477 0.29551265 -0.08571445 -0.028895607 -0.2667483 0.20829342 -0.06418911 0.062413063 0.25585866 0.11600932 0.17989819 -0.24334817 0.244511 -0.2519771 -0.42719424 -0.20363338 -0.32882613 0.07845585 -0.25557923 -0.4421541 -0.11834262 0.10038853 0.44936422 -0.09651147 -0.0027079082 -0.11710162 0.1929362 -0.05699204 0.24543163 -0.24664018 0.47983646 0.17306308 -0.056084298 0.43161795 0.23744118 -0.28422347 0.703306 -0.37140408 -0.007134938 0.19367383 -0.08843092
464 0.25356477 -0.11881135 0.1972994 0.3601261 -0.016157603 -0.05671319 -0.15504597 -0.41638526 -0.01588191 -0.23357272 0.19319703 0.24787848 0.07710444 0.13869998 -0.13766074 0.114717185 0.20335539 -0.36260876 -0.06524215 0.022459447 -0.30175576 0.021707686 0.0876858 0.03383466 -0.012833025 -0.34042382 -0.32337138 -0.22811106 -0.45387417 -0.426093 -0.35348666 -0.6013627 -0.28564677 0.07597643 0.26026338 0.31967953 -0.06989876 -0.064250305 0.23722391 -0.13016967 0.5719828 0.18728365 -0.06687979 0.46821854 -0.19599164 -0.05556868 0.031669877 -0.066904545 -0.26568183 0.075585134 -0.3996977 0.17618507 0.11311832 0.043182068 0.24196737 -0.09044551 0.0987814 -0.13920736 -0.46195066 -0.26862296 -0.34587154 -0.17911908 -0.12755693 -0.010101164
817 0.1336957 -0.054166198 0.11176326 -0.1780184 0.17796841 0.11835931 -0.0071040294 0.15100507 0.047479678 0.12304461 -0.3736855 0.3553884 -0.0763263 0.039194148 -0.19568631 -0.07585051 -0.14499317 -0.45716587 -0.19225629 0.10477106 -0.090446696 -0.031786993 -0.26568612 0.46397904 0.35799855 -0.19573566 -0.075621955 -0.31167987 0.23796576 -0.09360678 0.16687453 0.17389484 0.07672063 0.18750283 -0.36112347 0.28063667 -0.33433306 -0.4054735 -0.13447721 -0.2741412 0.0919974 -0.33567637 -0.3202322 -0.25288147 0.008943076 0.36002246 -0.119300395 0.019528361 -0.06503733 0.1329701 -0.06918121 0.198167 -0.2541446 0.4609036 0.19515514 -0.025327029 0.56785893 0.28840053 -0.28019473 0.63423455 -0.30217066 0.013929286 0.0701371 -0.023555689
147 0.30854926 -0.09086984 0.27265802 0.4675544 -0.054300204 -0.058494367 -0.10142211 -0.45016414 -0.12743537 -0.26497152 0.29063404 0.4386738 0.084757656 0.029397918 -0.27831408 0.124843985 0.19718638 -0.3153209 -0.14541571 -0.08618244 -0.22539 -0.057260763 0.20310186 0.055068277 -0.026025891 -0.2770859 -0.41683382 -0.29713264 -0.43493748 -0.3501739 -0.25753322 -0.54080516 -0.24447171 0.08196024 0.15988894 0.24566513 -0.13506562 0.023165796 0.11390592 -0.11790228 0.31794992 0.22518095 -0.12034495 0.45472586 -0.18198097 -0.09833471 0.07101674 -0.089165986 -0.22539507 0.053385563 -0.33390054 0.14778794 0.15113182 0.15552834 0.31986153 -0.11661776 0.21080992 -0.34615415 -0.41339913 -0.26099727 -0.2933945 -0.19494024 -0.18384658 0.045876488
760 0.13349979 0.02285951 0.1949762 -0.12089388 0.17422333 0.13452531 0.04165363 0.110810846 0.06521684 -0.003190564 -0.44703978 0.37917116 -0.12929133 0.077775285 -0.19206838 -0.22312999 -0.17817254 -0.48747477 -0.23491457 0.058319975 -0.10823265 -0.093108006 -0.24599658 0.3576824 0.3855058 -0.11911192 -0.010651263 -0.25051153 0.2671127 -0.059974093 0.09994035 0.15135181 0.13736358 0.18169457 -0.40319687 0.20093128 -0.21206447 -0.4848614 -0.11035773 -0.22346807 0.026593953 -0.18945225 -0.38428622 -0.14619596 0.015978076 0.40323836 -0.107417524 -0.013006794 -0.13742939 0.22754446 -0.041838776 0.20433748 -0.15705402 0.4103329 0.16858615 -0.03828382 0.47788408 0.2807404 -0.32546785 0.71310073 -0.3673876 -0.044636007 0.10105746 -0.14314206
774 0.104709245 -0.024388846 0.13008745 -0.17515622 0.22157529 0.0009634996 -0.0058641536 0.21633969 -0.02504857 0.13013932 -0.3988201 0.3668882 -0.14906017 0.11264193 -0.23170672 -0.03818835 -0.17113519 -0.4036241 -0.31845865 -0.031013912 -0.114325814 -0.01572943 -0.22987908 0.36641812 0.43915987 -0.21205072 -0.02048404 -0.1685032 0.2126206 -0.05255258 0.052594878 0.20345582 0.11738994 0.12277397 -0.24838234 0.27569097 -0.26070353 -0.40156215 -0.024755158 -0.3302625 0.0027597856 -0.18262549 -0.44344598 -0.20795283 0.0867424 0.34592697 -0.10195717 0.029638968 -0.08540343 0.18432622 -0.108526394 0.26159063 -0.23075345 0.4404791 0.22869517 -0.06493879 0.4328717 0.327083 -0.31550512 0.7270106 -0.3487943 0.025195241 0.11506293 -0.03124216
216 0.19504958 -0.09385462 0.23982318 0.49837834 -0.06923947 -0.13113773 0.008621849 -0.34553808 -0.12600987 -0.27798995 0.20459823 0.40130207 0.0891636 -0.076268815 -0.16904089 0.14486064 0.16043644 -0.3398095 -0.12228248 -0.07533081 -0.30620524 0.037800096 0.15507054 0.03886673 -0.027187986 -0.34352732 -0.33762673 -0.16419251 -0.5402307 -0.35189268 -0.27719355 -0.4765418 -0.28912222 0.09758654 0.2383305 0.2550651 -0.12905855 0.010366249 0.08991376 -0.17331968 0.41688526 0.21145804 -0.06169152 0.49402174 -0.16562246 -0.11704785 0.051643934 -0.06582176 -0.18854438 -0.012461069 -0.46527168 0.20402165 0.2104938 0.07608198 0.26427463 -0.0874245 0.1549777 -0.24146743 -0.4206759 -0.22268103 -0.39383748 -0.15442234 -0.18689068 0.04678998
921 0.07453409 -0.06998304 0.16342893 -0.120821856 0.23168747 0.022504566 0.007933289 0.11589715 -0.029432528 -0.07528729 -0.34987363 0.30946878 -0.14579608 0.016554832 -0.2576884 -0.07482584 -0.06884034 -0.36097127 -0.39833647 0.003509663 -0.07413735 -0.027105909 -0.33467343 0.31742674 0.34913385 -0.21760601 -0.029482273 -0.20888007 0.28726602 -0.095803306 0.042167112 0.19668642 0.08527751 0.116407774 -0.27972263 0.2762525 -0.22209075 -0.44622913 -0.17308456 -0.35023108 0.05398022 -0.2359526 -0.43157718 -0.29401714 0.019809833 0.4108317 -0.1922775 -0.021487929 -0.17855301 0.2505089 -0.0133557515 0.3068713 -0.2661649 0.35339358 0.15390497 -0.04884516 0.43914428 0.32222342 -0.3888539 0.66007525 -0.3459881 0.08773897 0.10853827 0.025111904
262 0.24620506 -0.13245527 0.21441248 0.4510181 -0.047175083 -0.1076713 -0.12773754 -0.3762546 -0.07820426 -0.18921936 0.25322628 0.32507277 0.053354625 0.03259873 -0.2066067 0.1145787 0.21933603 -0.3569821 -0.118821196 -0.046470016 -0.29069695 0.04500263 0.098944195 0.03876494 0.025754774 -0.33064783 -0.29872546 -0.21617042 -0.48276028 -0.33902323 -0.27311778 -0.55866206 -0.28674486 0.06481472 0.19932711 0.25556314 -0.056963515 0.023086756 0.17064515 -0.14602251 0.4705992 0.22195114 -0.09656149 0.41414112 -0.179901 -0.106201954 0.07462287 -0.13764106 -0.25354916 0.02182265 -0.38391855 0.20823745 0.17620222 0.07325294 0.29281488 -0.10724943 0.16515529 -0.19832288 -0.3813455 -0.3678588 -0.42716336 -0.22371149 -0.15786242 -0.057146862
918 0.12389524 -0.038248513 0.24902359 -0.060570113 0.30546787 0.049875215 0.080928676 0.14812392 -0.056023348 -0.00032106257 -0.44238427 0.34976736 -0.23700169 0.03992283 -0.3549143 -0.022939678 -0.13679883 -0.36559868 -0.3080892 0.04423899 -0.08175813 -0.012929386 -0.27455586 0.3098186 0.34880918 -0.19048494 0.0057292064 -0.21499464 0.29120237 -0.07755376 0.17149164 0.10051355 0.068974055 0.15441783 -0.321937 0.13740951 -0.23494291 -0.41129804 -0.23197195 -0.27924186 0.06137911 -0.17257069 -0.41617864 -0.2836069 0.07002836 0.34147796 -0.16449966 -0.04554295 -0.18906148 0.1769417 0.0101304725 0.30628917 -0.26254517 0.32614672 0.1490297 -0.11817763 0.51194143 0.31085035 -0.33328485 0.6984917 -0.34558728 -0.0368819 0.109595805 0.010840485
795 0.018327616 -0.03659031 0.13054466 -0.13795778 0.19750142 0.08387409 0.0069080703 0.14113832 0.08256449 0.020689964 -0.43783516 0.38542616 -0.11634614 0.08229001 -0.2557805 -0.12836657 -0.23595843 -0.41945663 -0.2152174 0.071490176 -0.057719048 -0.114260234 -0.2403746 0.39280468 0.36460885 -0.11033058 -0.022123592 -0.20524125 0.22688106 -0.05221036 0.17488915 0.14920643 0.14185372 0.19338062 -0.2638562 0.268939 -0.3061339 -0.41960734 -0.07633406 -0.27438408 -0.1011707 -0.15377817 -0.38501534 -0.16905908 0.005827658 0.34637904 -0.018559009 -0.05786174 -0.14367731 0.28129232 -0.12779 0.17359135 -0.2036681 0.44450152 0.21849482 -0.045343585 0.44483015 0.2964394 -0.3404676 0.7660962 -0.37244105 0.015803762 0.2046906 -0.08651253
830 0.0014554779 -0.029616445 0.19610965 -0.120379485 0.27412775 0.11840505 -0.00022547519 0.13657384 -0.021479549 0.09169905 -0.386989 0.32692134 -0.26783624 0.104593284 -0.2508576 -0.178467 -0.1820587 -0.35685304 -0.31189278 -0.031377602 -0.13443312 -0.022553118 -0.25859618 0.40114573 0.37559178 -0.14542149 -0.045013145 -0.21264087 0.19272865 0.034633793 0.15500046 0.18628635 0.117057376 0.16219504 -0.3146171 0.29297718 -0.294058 -0.40720466 -0.16937876 -0.30470502 0.037007272 -0.24633978 -0.42948955 -0.19816463 0.06795326 0.45796973 -0.07518595 0.06631336 -0.18465093 0.15926935 -0.10294298 0.19973905 -0.18201366 0.41766512 0.20388964 -0.051523622 0.45866287 0.31225604 -0.38188574 0.6100567 -0.30700734 -0.021869488 0.12390649 -0.046633188
785 0.07872666 -0.05033387 0.20320784 -0.23760124 0.1970225 0.13077359 0.070287794 0.08070533 0.1130059 0.032370523 -0.39720342 0.31912267 -0.22159919 0.021116456 -0.2928944 -0.17907512 -0.05833352 -0.47793072 -0.23285662 0.031516246 -0.14529489 0.0028036593 -0.30520362 0.39354807 0.30781958 -0.15422139 -0.098261945 -0.16152544 0.21820068 -0.0545696 0.16519651 0.14999956 0.092388645 0.10612008 -0.28132993 0.29145098 -0.239919 -0.49235836 -0.13528594 -0.297052 0.054715563 -0.24180922 -0.42301828 -0.27429333 -0.035350814 0.43740833 -0.19693491 -0.004373692 -0.13499327 0.27916136 -0.011960939 0.25754532 -0.18789902 0.4444785 0.124472395 -0.07720639 0.40577716 0.3193945 -0.38391915 0.5930718 -0.27979043 -0.017270563 0.16264503 -0.01858043
160 0.2720276 -0.027294723 0.30837888 0.4967446 -0.020004455 0.014243473 -0.05125291 -0.4538672 -0.11523661 -0.18859498 0.27260137 0.3534203 0.013232626 0.024190377 -0.2885405 0.14335464 0.21310882 -0.3065159 -0.10903515 0.015301904 -0.2148716 -0.01353272 0.14809586 0.13705093 -0.0051767877 -0.28243142 -0.32016885 -0.30472717 -0.41922224 -0.3095537 -0.3326011 -0.5421219 -0.28168058 0.20417854 0.23743036 0.3266401 -0.07751477 0.016463948 0.06553123 -0.031272396 0.4388024 0.18485928 -0.04699592 0.46202782 -0.16959895 -0.07754679 -0.025912574 -0.05515776 -0.268943 -0.031202693 -0.4524033 0.20422845 0.2604731 0.07401911 0.232663 -0.08580922 0.26399654 -0.2317756 -0.34520453 -0.28340283 -0.31466433 -0.23820378 -0.1384325 0.053846657
474 0.30250204 -0.018982673 0.22891313 0.44004795 -0.016093938 -0.11658241 -0.14434564 -0.4153435 -0.1169055 -0.23808795 0.34289473 0.41483334 0.10775265 0.070690386 -0.14331347 0.15610477 0.24296817 -0.29304227 -0.07650006 -0.02434307 -0.21000725 -0.026270343 0.16116297 -0.01966956 -0.08624099 -0.23128697 -0.34260955 -0.20268148 -0.5487916 -0.34695035 -0.34824362 -0.47019887 -0.26029822 0.025853254 0.16825186 0.26516786 -0.1376349 0.052534338 0.15205225 -0.10177781 0.448301 0.18071175 -0.07490137 0.49216312 -0.22570628 0.035149585 0.0114516085 -0.04356281 -0.25444704 0.099400625 -0.45682868 0.15523922 0.1944125 0.067543946 0.3132881 -0.08174666 0.29680744 -0.110151924 -0.4474402 -0.20253287 -0.26267415 -0.1441472 -0.19805636 0.04146056
601 0.048798952 -0.076804906 0.18745509 -0.16865663 0.17538975 0.16065921 0.011780582 0.120100275 0.069741175 0.057346303 -0.4197997 0.2770165 -0.28027838 0.048319317 -0.26653498 -0.08912745 -0.14283392 -0.39498836 -0.22846968 0.038966358 -0.071255356 -0.054487232 -0.3319164 0.38134652 0.26876542 -0.19790497 -0.10900729 -0.21295486 0.24008293 -0.10628041 0.027297994 0.14784038 0.10492731 0.19046764 -0.3165295 0.2376931 -0.22975941 -0.43051752 -0.13313328 -0.37812862 0.0427373 -0.23258992 -0.45563003 -0.20006356 0.016711187 0.37398642 -0.1420692 0.048582584 -0.13545816 0.23394015 -0.05900939 0.24644916 -0.21062289 0.48628822 0.2392044 -0.020735733 0.4996099 0.28106415 -0.37006262 0.64372563 -0.2537822 0.040391836 0.11106551 -0.009151804
735 0.06304772 -0.07444677 0.15992321 -0.23516731 0.2981261 0.018946564 -0.005720005 0.21442549 -0.0019845488 0.10169472 -0.47784624 0.34270546 -0.17017283 0.11077263 -0.25239134 -0.15989812 -0.17423941 -0.4134083 -0.26487237 0.11634908 -0.091807775 -0.05847281 -0.27172586 0.37893832 0.32762703 -0.20470671 -0.033339184 -0.20752954 0.2296093 -0.046119608 0.09779348 0.1476124 0.06124245 0.101886064 -0.32951015 0.26222727 -0.2664909 -0.37115717 -0.15418032 -0.27167013 0.015589917 -0.24922135 -0.41179967 -0.1399185 0.020145584 0.36312112 -0.06774472 0.068524264 -0.118955396 0.23268116 -0.053618383 0.22609606 -0.2459064 0.43439886 0.15551029 -0.08449133 0.46556383 0.29450002 -0.29790413 0.66737604 -0.40758988 -0.029076876 0.06429317 -0.052887034
782 0.035084225 -0.1264689 0.15354224 -0.22901621 0.24005716 0.11712709 0.053944148 0.15881145 -0.0527245 0.06393781 -0.3595728 0.25189734 -0.17468643 0.035720937 -0.27955958 -0.07278616 -0.049956366 -0.34123206 -0.33820614 0.08833623 -0.16429183 -0.06795616 -0.2997401 0.29637772 0.31328094 -0.23923442 -0.080106795 -0.26372993 0.22834061 -0.07273794 0.12086089 0.15175352 0.08301823 0.1289947 -0.28801152 0.31699005 -0.19876163 -0.43681747 -0.23379049 -0.33794296 0.020638702 -0.20228048 -0.3990688 -0.2124319 0.1043676 0.38832667 -0.11471646 0.0028732999 -0.11782465 0.18002088 -0.038469512 0.2311258 -0.19469713 0.46695447 0.18629204 -0.011938703 0.5300062 0.33498302 -0.3110072 0.7017431 -0.34777877 0.06765847 0.17202894 0.051534083
948 0.07197843 -0.1502577 0.21808423 -0.19512318 0.28422844 0.03260654 -0.027891848 0.14059569 0.07645237 -0.00095545786 -0.44176853 0.28163275 -0.1946663 0.091261275 -0.21816453 -0.07898978 -0.14549553 -0.39927045 -0.2657164 0.10978485 0.02936516 -0.058351323 -0.30495465 0.3653989 0.34248027 -0.21306272 -0.07019256 -0.23904012 0.24657524 -0.04530309 0.04491986 0.22986571 0.115574315 0.1389908 -0.35177335 0.2649038 -0.2432547 -0.3616774 -0.1698053 -0.26981884 0.074998185 -0.21729845 -0.45792642 -0.16227941 0.002036578 0.3591729 -0.057718873 0.043006573 -0.10221562 0.15599059 -0.023299726 0.26004472 -0.24716938 0.38818544 0.16554403 -0.12996778 0.4964613 0.33876276 -0.34725866 0.69410163 -0.30191863 0.028841842 0.1413113 0.0015947714
244 0.23150392 -0.07008686 0.28608254 0.4023757 -0.039385837 -0.040244885 -0.107830554 -0.40172023 -0.04950666 -0.25861952 0.22859459 0.38196534 0.039389398 0.07058856 -0.21262829 0.08430918 0.16776115 -0.3298692 -0.085148536 -0.09428172 -0.24412312 0.04191365 0.058573194 0.0007016097 0.063965365 -0.27522373 -0.3652455 -0.21859586 -0.46007314 -0.312532 -0.3340585 -0.6095209 -0.25718266 0.21215765 0.23811167 0.24532455 -0.13018686 0.017419819 0.24554291 -0.15319878 0.41323516 0.2582063 -0.054801624 0.37040037 -0.21036488 -0.109780766 0.019492533 -0.016199753 -0.20167264 -0.0029552944 -0.4574704 0.18110135 0.31512904 0.049761705 0.2459695 -0.05913859 0.20308149 -0.250176 -0.39778566 -0.27890408 -0.4087174 -0.14452618 -0.19695388 0.015672786
0 0.2713169 -0.14533462 0.27514344 0.42034373 -0.072483756 -0.0123098735 -0.09805143 -0.36503828 -0.16149314 -0.2255413 0.19503304 0.43942645 0.09910582 0.09779453 -0.18528517 0.1656225 0.1272755 -0.32839677 -0.22707017 -0.032006286 -0.21027225 -0.00239764 0.13678299 0.0708201 -0.01113913 -0.33674335 -0.3009217 -0.18508893 -0.4223361 -0.4246427 -0.31601092 -0.62135106 -0.25171512 -0.038843185 0.21672224 0.28955966 -0.08075612 -0.0012841893 0.17258047 -0.19910863 0.48634654 0.16134703 -0.11631478 0.37645897 -0.17336966 -0.12705827 0.04751995 -0.05405677 -0.23324247 0.058480218 -0.4210332 0.2697654 0.16586839 0.09309191 0.23003843 -0.07870845 0.101449825 -0.29946426 -0.39859948 -0.26396814 -0.35214913 -0.19812097 -0.11933143 0.04835424
104 0.14422287 -0.10302108 0.20526966 0.37356555 -0.064653546 -0.12171266 -0.1399602 -0.43224317 -0.08679685 -0.30180448 0.17050599 0.42614052 0.106598645 0.06841404 -0.12414181 0.06031654 0.18313703 -0.4037927 -0.14335272 -0.08612406 -0.23209274 0.037389185 0.037837964 0.024803316 -0.047221743 -0.2932051 -0.33489054 -0.23828772 -0.48374423 -0.3789662 -0.28340513 -0.53980905 -0.29815832 0.062400397 0.24049614 0.22031349 -0.123562485 0.0017533104 0.20184755 -0.2000991 0.46032348 0.2610019 -0.10649303 0.45409143 -0.16957076 -0.048504483 0.12940137 -0.0857218 -0.27060613 0.019523457 -0.35995504 0.16431096 0.16198356 0.021914165 0.20545986 -0.12224056 0.2089308 -0.25147745 -0.4406022 -0.28207538 -0.35111567 -0.22266328 -0.17740682 0.013156258
265 0.33631656 -0.07731475 0.22662339 0.39979634 -0.1025554 -0.035108197 -0.20489155 -0.37137404 -0.15889052 -0.21703747 0.3117717 0.41915163 0.0807331 0.15999848 -0.15321232 0.15090545 0.10329377 -0.35010523 -0.16365945 -0.030561863 -0.22717637 -0.017229555 0.1735306 -0.05380425 -0.05092493 -0.30825144 -0.30766448 -0.2380233 -0.40750846 -0.38609865 -0.34016532 -0.6207126 -0.32605568 0.09541472 0.121391594 0.20012279 -0.09301151 0.023519771 0.13606603 -0.16254826 0.41765353 0.23005211 -0.06633494 0.46070817 -0.22766368 -0.023687527 0.046451963 -0.059546012 -0.1360502 0.0995443 -0.4471252 0.13248576 0.16031323 0.049900673 0.36353317 -0.04388591 0.26281193 -0.23220597 -0.41827452 -0.22807285 -0.30268842 -0.13269912 -0.18739296 -0.03612529
471 0.18431486 -0.05559651 0.18960883 0.41695902 0.015159408 -0.054421652 -0.17995346 -0.42604443 -0.07097979 -0.25360608 0.24195762 0.4143166 0.04554229 0.010766055 -0.13980162 0.1852365 0.18249275 -0.31052905 -0.13411437 -0.07647756 -0.23231646 -0.009687473 0.14018384 0.025113788 -0.021849612 -0.20595719 -0.24743472 -0.22484487 -0.5276097 -0.32407764 -0.3560949 -0.552142 -0.18645631 0.05016417 0.257557 0.27893943 -0.14559598 0.020347442 0.10889523 -0.13356917 0.49543473 0.21955603 -0.016657995 0.4541213 -0.13260147 -0.018145312 0.10345709 -0.12625891 -0.24570113 0.021665677 -0.46157742 0.20705575 0.17193547 0.11139089 0.2777757 -0.15592943 0.23747817 -0.16963847 -0.41757056 -0.26980153 -0.37987322 -0.22559017 -0.1853129 0.020334976
871 0.10713079 0.0066942433 0.20622957 -0.1392283 0.2234023 0.12184789 -0.030076934 0.22347276 0.006880876 -0.027509334 -0.4091575 0.38618413 -0.13079716 0.05726908 -0.22720943 -0.14467591 -0.1335549 -0.3442609 -0.32103223 -0.04118329 -0.09984337 -0.043699604 -0.34142658 0.3807816 0.34110495 -0.19703041 -0.068841934 -0.2304336 0.21410589 -0.05732364 0.100727424 0.19518879 0.091546975 0.12964827 -0.38555554 0.26059425 -0.25517464 -0.46041796 -0.13750625 -0.26223215 0.019667331 -0.17262627 -0.44301382 -0.23154877 0.025742585 0.35581365 -0.0322741 -0.08117598 -0.13030244 0.1401458 -0.041846056 0.20575105 -0.23952417 0.44918373 0.24803154 -0.078023665 0.43117648 0.3399745 -0.35507116 0.6638723 -0.2924353 0.011955989 0.17530361 0.015239923
316 0.40639353 -0.07207643 0.24192111 0.42990428 -0.11313695 -0.041427784 -0.2126398 -0.42161894 -0.11290631 -0.30414134 0.29965526 0.41929036 0.12638737 0.21054092 -0.18451849 0.1924439 0.25117406 -0.39211327 -0.11772791 -0.018679345 -0.16570604 0.020525482 0.076965064 0.09505257 -0.0095337685 -0.25654367 -0.2877538 -0.26316404 -0.35402396 -0.33114135 -0.34610516 -0.6186896 -0.24431945 0.10675568 0.23621815 0.295154 -0.09127824 0.05715515 0.21235543 -0.07368873 0.54003006 0.13165432 -0.07665966 0.38372767 -0.22714084 0.053640015 -0.051874664 -0.031490356 -0.35304186 0.18172315 -0.34288606 0.18869987 0.17529604 0.02020064 0.258506 -0.063616805 0.109105706 -0.24107388 -0.41593623 -0.22219281 -0.22465754 -0.21598843 -0.087865286 -0.006897169
57 0.24185115 -0.08797189 0.21817788 0.45802394 -0.053486343 -0.15432854 -0.17165817 -0.42259368 -0.13798515 -0.23403603 0.30018207 0.4675179 0.11019917 -0.00591048 -0.23109104 0.057903565 0.14592282 -0.29495326 -0.053737663 0.048517585 -0.1569052 -0.040782213 0.14789379 0.016256556 -0.03875861 -0.3503017 -0.32250765 -0.267467 -0.45818377 -0.38153687 -0.30655777 -0.4392301 -0.25057262 0.12437883 0.2379496 0.26755005 -0.047872245 0.070467256 0.17293559 -0.07013276 0.4290686 0.2177538 -0.080117136 0.4327775 -0.14600356 -0.07259136 0.101916015 -0.05104591 -0.27302206 0.099612355 -0.42551535 0.27138713 0.2521861 0.09518491 0.22802348 -0.0842511 0.2350222 -0.19525029 -0.39537898 -0.33796626 -0.3730928 -0.17841573 -0.13060474 0.047244836
358 0.229753 -0.14324598 0.29378304 0.45181277 -0.022839794 -0.103748366 -0.041842125 -0.3859001 -0.02725374 -0.3025829 0.3319635 0.48338774 0.12224217 -0.14260283 -0.1293608 0.20508744 0.2150681 -0.3063395 -0.025925642 -0.06273319 -0.23229685 -0.02620435 0.17562363 0.043846726 -0.08116591 -0.320167 -0.35318598 -0.3364856 -0.46113703 -0.4047292 -0.29964477 -0.35664722 -0.336668 0.057649445 0.33052406 0.28442153 -0.1507757 0.06357321 0.037356526 -0.09699255 0.42804652 0.19473982 -0.10631224 0.3945538 -0.15761513 -0.13565522 0.03596228 -0.14904334 -0.31154037 0.02462322 -0.4045445 0.23562194 0.24478857 0.17437087 0.24524719 -0.032492116 0.17858681 -0.21148553 -0.39084274 -0.26073113 -0.33997995 -0.19230738 -0.090923674 0.02082607
294 0.33184233 -0.03645326 0.26378375 0.42205215 -0.022236165 -0.06482751 -0.058660205 -0.37682098 -0.22657198 -0.24726163 0.27063596 0.45756626 0.084292404 0.0004244146 -0.26439384 0.19808716 0.21861717 -0.3055528 -0.15877473 -0.0297305 -0.17238757 -0.032033145 0.11622654 -0.0008508098 -0.04611685 -0.31003356 -0.40586472 -0.27045625 -0.41857824 -0.44370353 -0.35639292 -0.58739233 -0.22865704 -0.0022703384 0.26608637 0.28112954 -0.17888938 0.033167534 0.14518818 -0.11810216 0.43796813 0.23220399 -0.097152516 0.33799848 -0.12457403 -0.053386707 0.07170101 -0.067931905 -0.20689406 0.032679208 -0.45214212 0.22653829 0.21940221 -0.052473463 0.25742006 -0.07634086 0.09791934 -0.17376769 -0.38551685 -0.23482886 -0.2840359 -0.21175966 -0.10406266 0.007478391
200 0.2520698 -0.16003816 0.20855562 0.3976744 -0.052029885 -0.103808194 -0.0529151 -0.3829656 -0.06153688 -0.31295827 0.22441247 0.3574733 0.031751495 -0.0614667 -0.19437703 0.09949962 0.26856104 -0.26396596 -0.06578802 -0.021786088 -0.24261242 -0.00080483075 0.066942304 -0.037254427 -0.04050078 -0.23518707 -0.37164438 -0.25085583 -0.4756697 -0.44278792 -0.34164774 -0.57469857 -0.30735478 -0.0057614683 0.24618286 0.31903267 -0.13230394 -0.028305316 0.16584153 -0.14359011 0.46132827 0.27984002 -0.07171842 0.47817737 -0.14039074 -0.04335849 -0.012861912 -0.011958136 -0.25816613 0.07078219 -0.4410027 0.16497335 0.2059076 -0.055873822 0.22966793 -0.03375633 0.16911179 -0.14008191 -0.47567397 -0.18658614 -0.33861467 -0.18698527 -0.15649274 -0.040885862
333 0.24057713 -0.10962411 0.25923952 0.3155833 -0.05225861 -0.069084264 -0.18320051 -0.40001914 -0.13128108 -0.22802217 0.2687923 0.3493172 0.07362496 0.029607844 -0.15679388 0.1536484 0.20777917 -0.2748132 -0.11925914 -0.1573154 -0.29550892 -0.027619714 0.13830873 0.029881122 0.016626233 -0.25539386 -0.3467502 -0.32528874 -0.50618017 -0.34531826 -0.4200046 -0.5523414 -0.3424664 0.035051975 0.18688174 0.17148599 -0.05209466 -0.004977264 0.10764455 -0.16525874 0.4627581 0.21724373 -0.13256052 0.4712319 -0.19253036 -0.004898691 -0.030159136 -0.13503024 -0.24924448 -0.001058801 -0.4233298 0.19815823 0.0942975 0.03454171 0.26089418 -0.09781166 0.23078223 -0.26115227 -0.4452284 -0.2654368 -0.3182778 -0.20015465 -0.1257172 0.016373595
767 0.030543586 0.007751195 0.1848609 -0.17261502 0.29676595 0.06986477 -0.015505605 0.067962095 0.03463667 0.071417525 -0.37255207 0.24947524 -0.13943484 0.08519868 -0.17083178 -0.067897536 -0.10906593 -0.4513865 -0.2624839 0.10753047 -0.023522846 -0.10936284 -0.27359846 0.5088623 0.361084 -0.16245635 -0.08316398 -0.18091586 0.22043179 0.029459659 0.09246827 0.19758831 0.13885616 0.14577581 -0.29425356 0.19298662 -0.29622194 -0.40949944 -0.040021747 -0.28566322 0.043614294 -0.16480066 -0.38519907 -0.14231315 0.05270792 0.4381594 -0.13747656 -0.033262823 -0.12043805 0.35448733 -0.07227749 0.1676001 -0.20101632 0.50962293 0.1348958 -0.050000474 0.4879715 0.27690384 -0.39801392 0.71226084 -0.30427033 -0.051383853 0.15264055 -0.08302087
595 0.17283992 0.06375125 0.1717433 -0.105068214 0.23627084 0.17530996 -0.01231757 0.14602229 0.0057286574 0.0052058664 -0.30896956 0.3719759 -0.23337865 0.010507503 -0.28071988 0.0029447002 -0.13378978 -0.3771395 -0.3166473 -0.027538985 -0.09427397 -0.025400572 -0.2433319 0.4520065 0.36669925 -0.1640533 0.039739046 -0.27583522 0.25515312 -0.055010978 -0.0026309662 0.25272897 0.20060536 0.09738097 -0.347038 0.24761674 -0.1937907 -0.45288935 -0.21318243 -0.27682668 0.09547293 -0.21077028 -0.3841318 -0.22471571 0.07722352 0.37344313 -0.21653882 0.071764395 -0.047390535 0.21846206 -0.062444523 0.24795343 -0.2044524 0.48575234 0.19872719 -0.07207712 0.46584094 0.27746654 -0.32329416 0.6816661 -0.27830812 -0.08856849 0.10897277 -0.0837529
46 0.16887814 -0.059326675 0.27796423 0.4839454 -0.026461108 -0.103684105 -0.05943092 -0.28623104 -0.07087921 -0.23588187 0.22860691 0.423775 0.023315288 -0.046148203 -0.052334618 0.093427174 0.23912215 -0.34291393 -0.19164531 0.04049537 -0.2455293 0.09282952 0.18902901 0.0825823 -0.026962778 -0.24362437 -0.28262353 -0.19296828 -0.42739922 -0.39011747 -0.25127056 -0.49824634 -0.24556032 0.016779382 0.27024227 0.32411665 -0.06646088 -0.03514009 0.18890373 -0.18685952 0.56499904 0.24375594 -0.07708259 0.45476347 -0.124218725 -0.13561831 0.032092113 -0.23218283 -0.24114947 -0.0756453 -0.3883139 0.21498932 0.24738382 0.042187482 0.291346 -0.1764931 0.17202127 -0.20476791 -0.3548722 -0.32358205 -0.46311337 -0.16262545 -0.18724672 0.09357152
299 0.31077212 -0.14934719 0.33190918 0.4206 -0.045591686 -0.06321646 -0.07375103 -0.3805695 -0.124968916 -0.23354375 0.3170015 0.4628465 0.032996032 0.04084721 -0.15435891 0.121485405 0.25379968 -0.3940934 -0.16222128 0.02364164 -0.14463238 0.032981813 0.09440965 -0.0032032474 -0.05600074 -0.3008876 -0.34481803 -0.27589202 -0.45137185 -0.37666348 -0.26172638 -0.43091688 -0.3238506 0.036341824 0.1898307 0.31945422 -0.14727063 0.070868954 0.12306695 -0.04887814 0.45772627 0.23519507 -0.11552209 0.42451525 -0.18296424 -0.07523959 -0.027279679 -0.1410134 -0.18831612 0.018063111 -0.4007844 0.19252197 0.28495565 0.08105314 0.28376466 -0.068780355 0.17033611 -0.3097911 -0.44564185 -0.19614306 -0.31797487 -0.13311677 -0.15982066 -0.04161506
361 0.27445528 -0.08456726 0.23598579 0.43941462 -0.0131461 -0.096939385 -0.077254854 -0.45686492 -0.046875283 -0.21311119 0.2459073 0.34807855 0.028833536 0.11427221 -0.23961441 0.15512235 0.18236831 -0.34918237 -0.13852319 -0.1409837 -0.30747855 -0.07115336 0.10458987 0.090522975 -0.028512597 -0.25514817 -0.37201416 -0.2963662 -0.5058011 -0.3555972 -0.27279398 -0.5720054 -0.29937783 0.11172378 0.26504403 0.28640267 -0.034296766 -0.004655926 0.06815292 -0.1040549 0.42713296 0.19493498 -0.107615896 0.47941792 -0.21199037 -0.102696225 0.030247295 -0.07437101 -0.1951027 0.03349821 -0.43490922 0.09912979 0.12338865 0.08409281 0.3019678 -0.01446834 0.1723223 -0.25456652 -0.3255944 -0.29253653 -0.2877168 -0.20559394 -0.122839324 -0.008684387
245 0.29007828 0.06943114 0.15803455 0.45117682 0.019393254 -0.10475918 -0.19279252 -0.37854755 -0.23392892 -0.13577275 0.23367952 0.32599792 0.19987436 0.194067 -0.13888893 0.1510948 0.2148917 -0.34083268 0.003304502 -0.012160587 -0.16393176 -0.025041774 0.19582658 0.0355172 -0.050120797 -0.31859794 -0.3360836 -0.25725898 -0.44476655 -0.4245133 -0.33707097 -0.5703845 -0.2867846 0.04725264 0.17150587 0.3124889 -0.06454029 -0.005173437 0.19809772 -0.21179624 0.5171035 0.19899386 -0.047212794 0.43041217 -0.085546106 -0.009904699 0.056203634 -0.06123681 -0.27344495 0.0936139 -0.47876546 0.19388133 0.15443173 0.044984277 0.25085446 -0.12701172 0.15131892 -0.22842784 -0.36717027 -0.21268576 -0.35843256 -0.17926873 -0.1214188 0.0075310613
392 0.25725824 -0.041856673 0.23096997 0.38270706 0.00343958 -0.026818683 -0.15245073 -0.35291737 -0.09915813 -0.22287384 0.27748728 0.39453855 0.076511726 0.1650071 -0.17622554 0.08479913 0.24734925 -0.31853774 -0.11911308 -0.13767076 -0.2626663 -0.00598176 0.14751023 -0.016843962 -0.037629697 -0.17061454 -0.33270484 -0.22837587 -0.44855887 -0.42896134 -0.34039283 -0.5890312 -0.2348315 -0.007234915 0.22632995 0.2997496 -0.0935881 -0.057595976 0.22835955 -0.1782652 0.6013657 0.22139622 -0.034912683 0.38892764 -0.14962941 -0.06259008 -0.017562091 -0.013573934 -0.26741052 0.032254037 -0.4087744 0.17654055 0.1515265 0.023742551 0.26125783 0.050958198 0.21327129 -0.18737498 -0.41364038 -0.26800823 -0.3376996 -0.23444328 -0.13457955 -0.035755035
2 0.2542512 -0.15786512 0.21428224 0.44367194 -0.10278809 -0.10792912 -0.12938744 -0.38075542 -0.12896891 -0.22071747 0.18399496 0.39324635 -0.0017691895 0.087480724 -0.2520511 0.021030426 0.19850051 -0.27916124 -0.21819514 -0.010969545 -0.23526935 -0.030643234 0.17658788 0.088067435 -0.034517292 -0.24910945 -0.34123424 -0.25696382 -0.40738052 -0.3227856 -0.2816147 -0.6294654 -0.30029812 0.010351371 0.21461017 0.29176855 -0.08918942 -0.0056528714 0.1199825 -0.14593425 0.500845 0.2694687 -0.064536 0.41382444 -0.05033534 0.017688582 -0.015650533 -0.093170956 -0.15605883 0.09156384 -0.48819536 0.20834348 0.1453132 -0.031043246 0.2868427 -0.088439986 0.1996574 -0.255331 -0.39530855 -0.2614881 -0.29509678 -0.22935817 -0.18079276 -0.11815835
973 0.0939456 -0.0777188 0.2054731 -0.1877179 0.2401829 0.09059857 -0.027809715 0.07847263 -0.02703502 0.11777178 -0.30935937 0.33020002 -0.26931942 0.08720263 -0.30446368 -0.14708984 -0.12692417 -0.37004748 -0.31015596 0.073425196 -0.13376708 -0.07993903 -0.25457978 0.4250355 0.31081504 -0.19093269 -0.023409562 -0.2554575 0.36101374 -0.087535806 0.032215673 0.23055385 0.15921839 0.1729737 -0.25355008 0.26191843 -0.19470266 -0.37206298 -0.24483821 -0.3425873 0.09897005 -0.23765984 -0.43946522 -0.14087354 0.13852862 0.3338249 -0.14600559 0.05012962 -0.029248634 0.16865139 -0.10463643 0.27363905 -0.2305918 0.3736226 0.17809378 -0.056694772 0.5162497 0.2895181 -0.36568347 0.6764185 -0.30614832 -0.07158631 0.10695167 -0.028248625
277 0.20387931 -0.07357601 0.23500018 0.4791966 -0.061568134 -0.10845881 -0.11581844 -0.3964965 -0.14737344 -0.25202093 0.17734887 0.38448387 0.058101095 0.039336957 -0.1569521 0.091007404 0.19383357 -0.36409846 -0.21001631 -0.12652415 -0.19514248 -0.008245746 0.16337954 0.0399254 -0.0534565 -0.2546943 -0.3595835 -0.19652373 -0.44520846 -0.4033673 -0.29736337 -0.5678204 -0.25798216 0.1055119 0.16680637 0.23679407 -0.0892419 0.08680896 0.23312837 -0.15540536 0.4351977 0.20312537 -0.046899077 0.5234413 -0.087751806 -0.043706357 0.033662394 -0.08518894 -0.2065414 0.057486605 -0.42931575 0.22749043 0.1857848 0.0666791 0.2868383 -0.14347173 0.22151741 -0.29321563 -0.33293855 -0.21676025 -0.28401932 -0.18055502 -0.27475694 0.04762342
558 0.13658573 -0.09652453 0.26781982 -0.20441478 0.23955554 0.11859788 0.00432159 0.14020844 -0.0020971145 -0.0015837499 -0.40718716 0.32343554 -0.25769126 0.0700115 -0.30589303 -0.10049464 -0.15603633 -0.4183219 -0.2588076 -0.011595791 -0.20242463 -0.00832544 -0.34381482 0.2564287 0.26038915 -0.15652427 -0.06826858 -0.17657721 0.26178598 -0.05280776 0.04147197 0.17616786 0.08204327 0.11697159 -0.31036994 0.14117454 -0.26729453 -0.46482107 -0.24591587 -0.2932991 0.022852829 -0.15836191 -0.40970984 -0.24820898 0.055997793 0.3709188 -0.18382825 0.08406836 -0.168598 0.13586593 0.0037102534 0.23283705 -0.21424514 0.453134 0.16526343 -0.08144907 0.50934815 0.3406443 -0.3827769 0.66552895 -0.28700468 -0.04105795 0.06583689 0.032273587
706 0.055958558 0.003831263 0.13884476 -0.07684864 0.23267287 0.08670793 0.0242715 0.22491625 -0.0039891577 0.10902979 -0.3578554 0.36140656 -0.17776714 -0.020064559 -0.30937266 -0.19373517 -0.11839697 -0.47308695 -0.2145809 0.049890272 -0.13504554 -0.046991955 -0.30879855 0.4001214 0.38110188 -0.16787167 -0.096838094 -0.17224348 0.2944222 -0.03978247 0.16122217 0.26356298 0.09741169 0.0971 -0.30618173 0.2481926 -0.32773376 -0.42957532 -0.044402502 -0.2091472 0.046033856 -0.2490817 -0.44054678 -0.13023631 -0.032919575 0.3301053 -0.0983768 -0.04683783 -0.07766933 0.30763966 -0.15210867 0.19360612 -0.16757381 0.38886204 0.13933337 -0.10381108 0.47732413 0.3313293 -0.2704474 0.724532 -0.30722827 0.02538245 0.18475437 -0.0228076
648 0.09335331 0.02138779 0.18438411 -0.21371402 0.2675857 0.09310756 0.012700983 0.18480721 0.062330283 0.017256208 -0.42405447 0.35353288 -0.17743047 0.021577023 -0.22601955 -0.12913568 -0.15615559 -0.34061652 -0.24704614 0.016536197 -0.070403375 0.0023739312 -0.29528317 0.29998884 0.33606124 -0.1577286 -0.01321364 -0.27271646 0.1200729 -0.13463268 0.016849305 0.14168301 0.09986147 0.090931326 -0.3133367 0.18304832 -0.2500346 -0.38021678 -0.22425295 -0.3362785 0.037167866 -0.15890694 -0.45753542 -0.2520771 0.07610653 0.38965225 -0.105922945 -0.05634624 -0.18521133 0.22677034 0.0018566586 0.26640818 -0.23443985 0.491216 0.24506606 -0.10121529 0.49876034 0.3285596 -0.3290175 0.7076699 -0.2990516 0.04528835 0.08476553 -0.019188961
437 0.23672263 -0.0017671281 0.20055783 0.4795026 0.053598512 -0.055830248 0.022939062 -0.41059855 -0.14125034 -0.23196688 0.239834 0.39448774 0.09457176 -0.029996624 -0.19536279 0.11974689 0.1600606 -0.3456584 -0.1639278 -0.006820403 -0.27677125 0.04594577 0.20772657 0.01793339 -0.019320302 -0.3079406 -0.30052555 -0.25293025 -0.41376173 -0.37346014 -0.21191964 -0.5337125 -0.25447795 0.1475218 0.2504076 0.23758283 -0.04293793 -0.041269984 0.065227054 -0.14745292 0.50944805 0.2750805 -0.096434504 0.4302606 -0.11991044 -0.1226727 0.07840388 -0.17015775 -0.2070218 0.10192659 -0.46706077 0.23377942 0.23538584 0.016907243 0.27978873 -0.045040768 0.2451533 -0.23780249 -0.38670588 -0.29580212 -0.42230618 -0.20755813 -0.063132286 -0.011529985
219 0.26010573 0.029721515 0.21890152 0.42371303 0.038051076 -0.06313845 -0.142236 -0.39728397 -0.12428141 -0.17978933 0.2922253 0.3973173 0.14283949 0.03848306 -0.21710867 0.10402646 0.21479228 -0.3741701 -0.13451228 -0.08629451 -0.23543328 -0.06013367 0.12007691 0.017608935 -0.12776761 -0.27434322 -0.31093523 -0.2670557 -0.49190232 -0.3238423 -0.20951496 -0.5441232 -0.3023962 0.11963284 0.30258477 0.19972219 0.0055688336 0.012434894 0.12841026 -0.14389859 0.46043944 0.10765744 -0.08190896 0.4524634 -0.09436628 -0.1271303 0.05665596 -0.0985258 -0.3124398 0.055250056 -0.43828145 0.24429603 0.23074797 0.06341709 0.18222897 -0.11219576 0.17718467 -0.23539922 -0.41918868 -0.25551873 -0.411896 -0.25496897 -0.073575415 -0.025674587
775 0.08285424 0.040738374 0.18109241 -0.18253621 0.2293072 0.09409801 -0.025173493 0.2388751 0.019298233 0.010928501 -0.37664035 0.2985247 -0.17110652 0.123561434 -0.28870082 -0.05987891 -0.0566718 -0.45663813 -0.33157748 0.08612453 -0.1349613 -0.040806174 -0.30715212 0.41941464 0.31325227 -0.22416772 -0.10245564 -0.16455746 0.31188974 -0.08069389 0.06655531 0.23719096 0.107583635 0.10581371 -0.32813278 0.2047766 -0.24365364 -0.41901955 -0.11775885 -0.28850156 -0.00061424676 -0.1397304 -0.4485961 -0.18994123 -0.0395021 0.40433058 -0.05714768 -0.006396005 -0.09221739 0.25400573 -0.07444131 0.19998486 -0.19692282 0.3975503 0.12544213 -0.05034326 0.49226156 0.31458944 -0.37151706 0.69284296 -0.27016684 -0.03144906 0.10357468 -0.027885608
799 0.086857714 -0.01911816 0.13961443 -0.11544469 0.24840748 0.079798505 0.08027338 0.111725755 -0.00013630444 0.069703944 -0.3478215 0.32094282 -0.15032065 -0.0046258313 -0.28922525 -0.022444049 -0.20891774 -0.41752726 -0.22290792 -0.01280443 -0.074139126 0.029795662 -0.27950802 0.36635795 0.3864728 -0.28441885 -0.08465705 -0.2582191 0.32427183 -0.15575899 0.099760585 0.24797843 0.10002177 0.16631104 -0.3142841 0.24147981 -0.29904702 -0.49176455 -0.13366069 -0.26564854 0.0629938 -0.25578564 -0.34888506 -0.26238963 -0.0166186 0.40452376 -0.11667644 0.052009113 -0.08406072 0.24067383 -0.06767901 0.20053874 -0.20919798 0.373438 0.17815119 -0.09688948 0.44363004 0.27632827 -0.29818776 0.7061028 -0.31122798 0.017815996 0.12382932 -0.015322492
423 0.17945595 -0.104645655 0.15360598 0.39281678 -0.04323221 -0.09520141 -0.15226956 -0.41523328 -0.1469351 -0.18015371 0.26863027 0.39132166 0.06840183 0.036866166 -0.17715916 0.06664745 0.18643002 -0.37686756 -0.074393645 -0.06923836 -0.22503978 -0.013909762 0.06993006 -0.0218215 -0.046906285 -0.23585746 -0.31858134 -0.26634413 -0.4800279 -0.37443188 -0.2792696 -0.5680478 -0.316632 0.035307635 0.16062458 0.2659759 -0.061272614 0.0051984084 0.21059553 -0.14253837 0.42513722 0.18886565 -0.11569512 0.5697554 -0.12490414 -0.012988761 0.017287388 -0.09051273 -0.31761795 0.047687247 -0.43340832 0.16748765 0.20036373 0.02774142 0.2656519 -0.14520529 0.23623331 -0.26962394 -0.39975873 -0.2317398 -0.31661472 -0.16532713 -0.19956064 -0.009936361
910 0.033848852 0.007899404 0.25492376 -0.055068612 0.24796173 0.0403745 0.03948265 0.06695107 0.03018954 -0.07138635 -0.3889812 0.33492172 -0.3015107 0.07894228 -0.2875046 -0.08017428 -0.13512647 -0.32785043 -0.24352448 0.032202717 -0.078525364 -0.0204112 -0.3021519 0.3671962 0.320575 -0.18146232 -0.11728237 -0.24588746 0.2959836 -0.049357336 0.1180158 0.28017238 0.03720966 0.15229605 -0.31062555 0.19615647 -0.2898366 -0.44565353 -0.15284275 -0.29076934 -0.008885912 -0.18346147 -0.47943318 -0.14307733 0.11824775 0.3811882 -0.0837156 -0.0063329623 -0.19315188 0.19499782 -0.0991463 0.21590939 -0.23441747 0.4168419 0.20895377 -0.06750412 0.4648059 0.2714304 -0.30935532 0.6718657 -0.38836172 0.047984507 0.23470841 -0.08795419
848 -0.03786206 -0.03512737 0.14114694 -0.14305237 0.23542772 0.13882905 0.0044843517 0.1703496 -0.034269854 -0.027066212 -0.35274765 0.3066021 -0.19966769 0.04127383 -0.26727736 -0.0834754 -0.19131377 -0.47163308 -0.31795847 0.098382846 -0.05073889 -0.03331948 -0.2886431 0.2861886 0.37793627 -0.18147758 -0.06255741 -0.22409602 0.30624214 -0.13746457 -0.008945124 0.21238877 0.12138372 0.16292417 -0.28594154 0.31495568 -0.23692842 -0.4556664 -0.16685529 -0.31720796 -0.036743402 -0.23348068 -0.40406707 -0.15538861 -0.05562317 0.31311935 -0.07810522 -0.049503893 -0.111975 0.2699136 -0.07661761 0.23562469 -0.19608583 0.40257487 0.21064971 -0.02814451 0.41664496 0.35463172 -0.45536286 0.71451926 -0.22367142 0.08535705 0.17265035 0.014751971
194 0.19737434 -0.086173214 0.27244425 0.38449955 -0.1335432 -0.10979765 -0.14565489 -0.37685725 -0.11588677 -0.24344252 0.2274795 0.40678725 0.08496232 0.13412867 -0.16908747 0.10464599 0.21243045 -0.40167272 -0.17551243 -0.067460634 -0.18264233 0.022390861 0.12091258 0.1289618 -0.0933884 -0.19346115 -0.41288474 -0.22457005 -0.4268384 -0.3487212 -0.29952753 -0.60670316 -0.28881794 -0.00979557 0.18742917 0.28703067 -0.14029838 0.010928281 0.14624777 -0.12012911 0.44583124 0.29408643 -0.031371884 0.43625903 -0.12984662 -0.027031017 0.010467749 -0.17658848 -0.23030484 0.039526783 -0.39733168 0.15603979 0.14667323 0.02183222 0.2706767 -0.13507298 0.19965899 -0.28748178 -0.3930328 -0.25065854 -0.3379226 -0.15484774 -0.25590396 -0.017691055
334 0.24320672 -0.16341603 0.2133938 0.37065348 -0.078205876 -0.061790485 -0.0692557 -0.41008043 -0.090592116 -0.24709126 0.29149312 0.38917956 0.085506335 0.0345536 -0.17494644 0.12796742 0.21985495 -0.33489826 -0.19919965 -0.007932709 -0.17309707 0.00015873743 0.09955154 0.030309841 -0.05448434 -0.14809595 -0.39394632 -0.31190866 -0.45915663 -0.4372909 -0.31525564 -0.5152246 -0.33543167 0.012298511 0.21413639 0.2607272 -0.11944682 0.00937642 0.13424474 -0.08214347 0.4701249 0.22700445 -0.07687279 0.50146115 -0.09257114 -0.021213183 -0.01880972 -0.13604668 -0.2264225 0.014342402 -0.34227082 0.18506977 0.20226713 0.027804786 0.34107947 -0.09423349 0.17305423 -0.28389618 -0.46939144 -0.18114778 -0.2641169 -0.20207249 -0.23928903 0.031293977
507 0.11477008 -0.08188679 0.15773822 -0.17580925 0.16920196 0.0674598 0.04356091 0.064198434 0.0584751 0.032240253 -0.3486565 0.32848534 -0.100306034 0.14321221 -0.26535183 -0.14536639 -0.11840308 -0.30835494 -0.13815859 0.07118654 -0.12242658 -0.102235526 -0.26755255 0.48697636 0.31248173 -0.171771 -0.11392924 -0.3602391 0.20614593 -0.0317558 0.10526283 0.23491904 0.14671707 0.16223118 -0.31026837 0.3596797 -0.21602555 -0.42520437 -0.15670195 -0.30203652 0.04632847 -0.25822255 -0.4387379 -0.26097256 0.1679 0.41793165 -0.059190083 -0.070279896 -0.16186906 0.08001361 0.015474334 0.24045119 -0.30925184 0.48076215 0.2832242 -0.017194625 0.38478774 0.29540277 -0.3468241 0.6591429 -0.3172805 -0.0072181537 0.17399646 -0.08541734
870 0.18557785 0.0554321 0.2586952 -0.1423299 0.22850312 0.06116756 -0.044160586 0.15516303 0.0346919 -0.0037222956 -0.38553885 0.40717176 -0.13667701 0.035412602 -0.33786532 -0.09473248 -0.16059607 -0.44815052 -0.35827905 -0.018909195 -0.14220738 -0.03102253 -0.23619853 0.43867606 0.31662837 -0.22397077 -0.012323186 -0.28688738 0.41385785 -0.03802432 0.04875016 0.21365331 0.14319955 0.149427 -0.33300817 0.19183841 -0.30389887 -0.42939484 -0.11563324 -0.27830002 -0.038290232 -0.23603159 -0.3274803 -0.22284652 -0.0021090813 0.30910477 -0.11132158 0.061297122 -0.17555821 0.20779729 0.034906294 0.2194309 -0.20036167 0.3774858 0.18330361 -0.058711313 0.43252435 0.21807745 -0.31463423 0.6510134 -0.37369302 0.038369916 0.10882409 -0.057994433
69 0.16757704 -0.012088778 0.23287478 0.5078359 -0.036308177 -0.10532736 -0.080226675 -0.35062096 -0.13834482 -0.08924827 0.25690708 0.37317765 0.09240228 0.04830304 -0.09769138 0.071590975 0.22718497 -0.38284534 -0.15189259 0.019273622 -0.16504459 0.056101844 0.1514183 0.04806537 -0.07302237 -0.23053086 -0.3127967 -0.29700089 -0.3960289 -0.32750234 -0.2910921 -0.5925018 -0.26851037 0.1705664 0.21163955 0.2573197 0.00051916065 -0.046677854 0.12802082 -0.17642802 0.484695 0.24749973 -0.046321858 0.5750622 -0.1413659 -0.12057563 -0.017658701 -0.12802182 -0.24395807 0.1313265 -0.42232108 0.1520422 0.20786543 0.08724686 0.26232818 -0.19581273 0.21466555 -0.28972724 -0.38498864 -0.21128267 -0.3775623 -0.22303537 -0.11249706 -0.054982428
251 0.26286867 -0.15891233 0.2536847 0.50924355 -0.11787606 -0.1281122 -0.070411 -0.39285332 -0.116266266 -0.23887156 0.2006343 0.4339353 0.049394984 -0.06337792 -0.13504478 0.09657129 0.19899729 -0.35784 -0.15782404 -0.061282292 -0.17883433 -0.038440827 0.18076748 0.105062805 -0.07722309 -0.24579036 -0.33715641 -0.19846933 -0.3957179 -0.41036153 -0.21031904 -0.5672268 -0.32431862 0.042555682 0.16755636 0.33218923 -0.058628332 0.012105316 0.1681803 -0.13462886 0.4265518 0.24894597 -0.039391953 0.5090592 -0.1218275 -0.08462074 -0.03259597 -0.14448825 -0.17479733 0.068230785 -0.41588706 0.23616895 0.20234652 0.053239778 0.24724476 -0.0927151 0.1772379 -0.26095673 -0.37646472 -0.21061163 -0.31325197 -0.17138885 -0.17647076 0.011393843
636 -0.005130249 -0.05739068 0.134688 -0.107947856 0.25084454 0.14751174 -0.04079154 0.14390026 0.08452169 0.0011902122 -0.44588584 0.32705712 -0.15124011 -0.01950218 -0.18025991 -0.1493626 -0.08391889 -0.36282212 -0.29014543 0.01136318 -0.054695025 -0.061186742 -0.26036114 0.39193732 0.349132 -0.17231326 -0.04601751 -0.20899273 0.11215644 -0.028324222 0.069558874 0.13005453 0.0623735 0.08241461 -0.38209775 0.28077918 -0.27913415 -0.36037537 -0.14308286 -0.25400412 0.014750299 -0.19639643 -0.35686022 -0.24847633 0.050495792 0.36848184 -0.098365866 -0.026775107 -0.15302475 0.29707515 -0.085882716 0.21902613 -0.16962416 0.54710346 0.25910854 -0.11928677 0.56283766 0.3353075 -0.32530913 0.73066527 -0.27181527 0.08620694 0.14762399 -0.035099696
169 0.33921978 -0.11125528 0.2691599 0.51411426 -0.10851445 0.007858162 -0.05644433 -0.38296923 -0.13980788 -0.17772506 0.2851633 0.29613268 0.035384666 0.04290556 -0.18493202 0.17153998 0.18305823 -0.34331316 -0.11741017 0.011869552 -0.23150694 0.050877746 0.0803149 0.023039702 -0.077797994 -0.23387831 -0.3369179 -0.24087673 -0.43164688 -0.46081018 -0.26998502 -0.476847 -0.31245586 -0.029082386 0.21544771 0.33265814 -0.13325174 -0.016939001 0.15298608 -0.123987176 0.5208845 0.27033702 -0.04408256 0.43701363 -0.16307747 -0.09819504 0.0049023456 -0.12667052 -0.2344299 0.09086595 -0.38816786 0.22407518 0.16697942 0.060709108 0.31973076 -0.017329311 0.16911648 -0.17517234 -0.4071305 -0.26293477 -0.34038755 -0.16853115 -0.12505187 -0.047301754
100 0.19697101 -0.0072999736 0.21445587 0.4226659 -0.03799511 -0.09492096 -0.13497713 -0.39188698 -0.13431387 -0.30272287 0.24225663 0.46053988 0.090593174 0.033385467 -0.15261239 0.054741155 0.21974044 -0.35438 -0.16334474 -0.06891313 -0.162131 -0.0354167 0.20840089 0.071206726 -0.09177296 -0.21440394 -0.31944945 -0.30861396 -0.45677817 -0.37166256 -0.25749493 -0.53798145 -0.21630007 0.095537856 0.21228538 0.23657276 -0.10045929 0.008821776 0.16634269 -0.17120543 0.40146235 0.31728655 0.006715509 0.46083567 -0.10148542 -0.03043341 -7.0051385e-05 -0.10228077 -0.2442417 0.056430906 -0.4513135 0.19495404 0.21215701 0.0360887 0.22823273 -0.15134417 0.15378992 -0.22778435 -0.4065898 -0.28485817 -0.35927814 -0.22513834 -0.1839835 0.020858293
794 -0.008064184 -0.025337763 0.28027415 -0.15359329 0.19401646 -0.036315165 -0.060893122 0.23866683 0.008456375 0.08427213 -0.42786825 0.2908455 -0.19594097 0.09826372 -0.2223085 -0.1165033 -0.19514741 -0.37707937 -0.3359778 0.06921386 -0.16655831 -0.104784444 -0.25907364 0.37191474 0.40848735 -0.14344828 -0.07916183 -0.24648967 0.25488132 -0.044612437 0.057563696 0.2001042 0.119315654 0.26466733 -0.3704128 0.33414954 -0.21578059 -0.37107974 -0.14552175 -0.30372435 0.040629122 -0.25126842 -0.41410202 -0.18310374 -0.014768876 0.29477945 -0.07292617 0.030223703 -0.07110677 0.1648479 -0.17818458 0.18616167 -0.20811902 0.41268182 0.20665449 -0.066414915 0.47219238 0.26630625 -0.29790512 0.6836377 -0.38134763 0.08519519 0.13640095 -0.03188098
374 0.23434088 -0.055885077 0.21208106 0.38277334 0.021452276 -0.066657804 -0.09893679 -0.40824744 -0.17142256 -0.2385722 0.32068184 0.32107386 0.119724855 0.077087715 -0.13300858 0.095642254 0.26956663 -0.33650783 -0.03421338 0.04084754 -0.20643365 0.017982867 0.07900677 0.09158093 -0.040988263 -0.2898027 -0.3819388 -0.26808983 -0.42450264 -0.47621426 -0.30615196 -0.48787832 -0.26936415 -0.027365904 0.21260576 0.24256614 -0.11424119 -0.01493404 0.19044077 -0.06253256 0.57673097 0.2103927 -0.06631335 0.5399715 -0.08999344 -0.027505219 0.049090285 -0.14236829 -0.22686224 0.027880356 -0.3629778 0.16660334 0.17956527 0.07044646 0.30080763 -0.14308892 0.15775137 -0.2362784 -0.45280457 -0.21992618 -0.3348465 -0.20348594 -0.09255529 0.011043972
444 0.22671716 -0.15052332 0.25084618 0.44692427 -0.10283899 -0.114180654 -0.12997383 -0.423086 -0.031476744 -0.23119907 0.16745521 0.5006197 0.09563503 0.07852871 -0.16084772 0.115427315 0.20382471 -0.37664357 -0.13539514 -0.061578277 -0.2729151 0.017639956 0.15923153 0.1277725 -0.0225585 -0.3017979 -0.34791574 -0.26058677 -0.5017837 -0.26765686 -0.28321624 -0.5964576 -0.27889267 0.04307883 0.16609481 0.29811886 -0.05194001 -0.0067905844 0.16280884 -0.12008809 0.41277835 0.28827834 -0.046850663 0.423486 -0.20564775 -0.018364754 0.05327149 -0.10205448 -0.23447943 0.081011444 -0.44463572 0.20690258 0.13083068 0.0100753 0.19461282 -0.08832282 0.21071745 -0.24789588 -0.31176704 -0.2536847 -0.322026 -0.1779608 -0.18714264 -0.039854303
256 0.26173866 -0.09735105 0.25138566 0.47994226 -0.06668025 -0.05831374 -0.111506216 -0.45978126 -0.10314058 -0.22724624 0.20844768 0.37224594 0.025010798 0.054926272 -0.20473358 0.10993345 0.26907343 -0.32857284 -0.100068964 0.022598946 -0.17933585 0.018967038 0.17288458 0.086505905 -0.07269447 -0.25217095 -0.2679496 -0.25850257 -0.44067344 -0.40591085 -0.32479003 -0.4655855 -0.2873446 0.0008322016 0.22929078 0.309071 -0.095297836 0.00088202406 0.17841844 -0.16053402 0.545109 0.3073155 -0.04167077 0.42518577 -0.17967297 -0.04646405 -0.0444583 -0.093526006 -0.2762497 0.019597147 -0.46052903 0.195512 0.1686587 0.023686744 0.210474 -0.036781207 0.23344305 -0.2093618 -0.41123605 -0.24754529 -0.28635225 -0.14756355 -0.13727403 0.037305474
543 0.039630376 0.07181178 0.17628299 -0.14034614 0.22433153 0.08028404 -0.0501108 0.19608544 0.05932838 0.022953963 -0.42370725 0.20705946 -0.12054978 -0.0010329003 -0.27625275 -0.09496664 -0.06828682 -0.41889688 -0.3794325 -0.003675858 -0.12990981 -0.14296196 -0.1743687 0.47146323 0.43091977 -0.0758416 0.0055266903 -0.17757584 0.2634589 -0.011925972 0.053017925 0.1667745 0.18010798 0.13671163 -0.31104127 0.2851225 -0.19158438 -0.40384284 -0.093159944 -0.39059627 0.10650902 -0.1644348 -0.35967532 -0.21480112 0.0221331 0.39017463 -0.09848182 0.054858867 -0.16335419 0.24905641 -0.1755354 0.27226847 -0.12744555 0.435146 0.1431418 -0.06454504 0.5520726 0.2850752 -0.29893526 0.7581984 -0.17239809 0.0066612125 0.17217197 -0.034005374
259 0.2719522 -0.056123447 0.19042905 0.4705625 -0.05699983 -0.011829061 -0.12448254 -0.46582714 -0.13116385 -0.2982308 0.24902631 0.31783465 0.044125877 0.09363285 -0.2126318 0.10072048 0.21142665 -0.42993093 -0.12556332 0.0087801935 -0.20618647 -0.0030452164 0.14109747 -0.016472127 -0.012177696 -0.3245302 -0.24374628 -0.20366062 -0.3433632 -0.3818795 -0.25080237 -0.6428755 -0.23347257 0.13940044 0.22907704 0.2476665 -0.014584339 0.007131942 0.14045402 -0.046328086 0.54235494 0.26959333 -0.03422446 0.43943405 -0.19649133 -0.012407399 0.07709701 -0.04411124 -0.2246537 0.076270014 -0.38031837 0.14379738 0.16297309 0.1411978 0.30432642 -0.06476541 0.22537978 -0.19977413 -0.3425862 -0.34022242 -0.32616898 -0.2131037 -0.15959963 -0.0704301
126 0.24270311 -0.10402529 0.23807955 0.5309829 -0.043800376 -0.038333982 -0.15556355 -0.40258533 -0.13985717 -0.16881883 0.21993156 0.40843067 0.06952778 0.024607548 -0.24573773 0.019800005 0.20936283 -0.27262226 -0.08097502 -0.049725935 -0.2231572 -0.060326166 0.2562545 0.048609227 -0.09780347 -0.2597631 -0.37053475 -0.3062675 -0.49090487 -0.35753536 -0.24988805 -0.52516156 -0.27888063 0.058317732 0.26441363 0.20659427 -0.08951455 -0.048187606 0.09268687 -0.21810707 0.45767334 0.2808707 -0.06548529 0.43423352 -0.06152782 -0.06858002 -0.0039216406 -0.1429496 -0.19598961 0.02210301 -0.4682979 0.2317802 0.21932475 0.016723268 0.28256217 -0.14054967 0.20682982 -0.18439336 -0.35238245 -0.19926503 -0.3175653 -0.18888593 -0.14044273 -0.050675493
704 0.05929592 -0.041047875 0.1451253 -0.18439928 0.3052984 0.11408001 -0.012578993 0.10454023 0.07153917 0.050507326 -0.36626604 0.2800006 -0.23983668 0.032644555 -0.2809429 -0.085380554 -0.11194084 -0.45449594 -0.14825168 0.103681974 0.0085248975 -0.09797555 -0.3118894 0.4013418 0.26651087 -0.1354845 -0.05746125 -0.16863859 0.23982425 -0.126569 0.10651255 0.17872193 0.038539313 0.11093744 -0.3460657 0.27219585 -0.272082 -0.38407844 -0.19409062 -0.3066918 0.059113767 -0.16568688 -0.36704624 -0.15280893 0.032333504 0.38983968 -0.1615554 0.012518965 -0.11122101 0.23833029 -0.094931476 0.20594758 -0.20101282 0.47077206 0.11509431 -0.14545079 0.57776374 0.31075987 -0.33748132 0.73693645 -0.2892307 -0.047442358 0.09562234 0.025885044
500 0.087268874 -0.03086226 0.29401338 -0.12940852 0.25300062 0.13846457 -0.05591897 0.09692073 5.024343e-05 0.005460429 -0.3705067 0.27812093 -0.2635747 0.024160445 -0.30370873 0.057188448 -0.15328819 -0.29696307 -0.31193614 0.056788288 -0.11400787 -0.03721911 -0.32108352 0.32180172 0.37682164 -0.16708635 -0.0099065155 -0.21571921 0.23699938 -0.13684832 -0.0063602338 0.17772818 0.13678373 0.11090429 -0.3298179 0.31028265 -0.21977085 -0.4202346 -0.14199752 -0.30245683 0.038011566 -0.18880333 -0.3685128 -0.371434 0.12048917 0.36604884 -0.15932217 0.009258917 -0.15273125 0.16522579 -0.020877814 0.26311845 -0.23067494 0.46489495 0.2693656 -0.14202018 0.49514455 0.2781413 -0.35409668 0.6908605 -0.25068653 0.005523102 0.11694694 0.0071450085
578 0.12469691 0.058557473 0.2312558 -0.089349225 0.26341107 0.09178042 0.035428833 0.11280214 -0.005570566 0.05334062 -0.4070172 0.2627108 -0.18067716 0.040659856 -0.20374006 -0.030920606 -0.17285125 -0.432008 -0.23196185 -0.007833852 -0.025197746 -0.02993838 -0.21276015 0.4038755 0.35022405 -0.18056911 -0.08537448 -0.25463203 0.28084552 -0.10998464 0.10485374 0.22427814 0.15640116 0.20178682 -0.3260744 0.22773707 -0.1935955 -0.41621718 -0.14395854 -0.2822109 0.07108472 -0.2117859 -0.41163465 -0.19943419 0.060657967 0.3643055 -0.16463003 0.100369446 -0.06371641 0.19878075 -0.04895557 0.2720198 -0.23829992 0.46281904 0.19039448 -0.055554844 0.52126765 0.27607113 -0.39255267 0.686134 -0.30715892 0.024160046 0.09175692 -0.03247545
849 0.050488837 -0.038644455 0.21909606 -0.16648296 0.22172259 0.094216205 -0.025545778 0.12141479 -0.007995066 0.034486927 -0.45919925 0.30955195 -0.24175613 0.047865935 -0.23578495 -0.08953437 -0.18828857 -0.41594994 -0.26075494 0.048700463 -0.15320534 -0.014191223 -0.30528077 0.32250142 0.294427 -0.14464201 -0.079698786 -0.17616628 0.23541315 -0.03401232 0.053773407 0.21042633 0.047338374 0.16834657 -0.3295139 0.2149937 -0.3135148 -0.42798078 -0.26257122 -0.24628448 -0.008391493 -0.20392345 -0.34753883 -0.19679175 0.044497438 0.32631084 -0.112403184 0.018574478 -0.2553724 0.19838445 -0.08797167 0.27002335 -0.1850489 0.45071512 0.18700439 -0.086360686 0.5000081 0.30498683 -0.34468928 0.6889638 -0.3331821 0.024815697 0.14803797 0.03622558
78 0.2413852 -0.12057711 0.23398283 0.43811506 -0.113695025 -0.022672554 -0.21208024 -0.4016787 -0.042652424 -0.1791857 0.21322356 0.43811122 0.039450128 0.048893955 -0.19617116 0.15372223 0.21784526 -0.42288435 -0.14628617 -0.014882262 -0.279138 -0.050703257 0.12261038 0.071353935 -0.0785732 -0.25423402 -0.16258337 -0.19790606 -0.47986752 -0.28574696 -0.24023458 -0.62367326 -0.18804994 0.12237383 0.31278855 0.2694686 -0.023361828 -0.037709296 0.1811065 -0.12026545 0.48681295 0.13625418 -0.03549098 0.38841346 -0.26313022 -0.1126839 0.048611127 -0.06629851 -0.3546716 0.15921459 -0.42832097 0.22255082 0.2716632 0.10147288 0.24203691 -0.06626775 0.079096705 -0.16195208 -0.4067645 -0.28865767 -0.42489985 -0.25167346 -0.11150966 -0.0056476095
67 0.2192347 -0.08970507 0.21970932 0.495737 -0.032734193 -0.042687632 -0.1491624 -0.38339224 -0.15387432 -0.21611105 0.21364069 0.35968766 0.08261436 0.00032919252 -0.18704173 0.078156 0.17570327 -0.3728808 0.0047290786 -0.0006327728 -0.22795019 -0.03305682 0.14017633 0.11102711 -0.073396705 -0.33599317 -0.22307433 -0.23218112 -0.5167912 -0.35565543 -0.2293274 -0.5138885 -0.21323925 0.1242147 0.22354984 0.23111595 -0.068879925 -0.012793811 0.22974537 -0.15246221 0.50515413 0.25006858 -0.01944088 0.46844167 -0.16566622 -0.09985738 0.12395055 -0.13146967 -0.29692557 0.061838124 -0.51896805 0.3064662 0.12658787 0.06528349 0.20580688 -0.11610431 0.12797776 -0.15835898 -0.41029814 -0.23002207 -0.40724692 -0.22237356 -0.083287284 -0.017464653
547 0.08806588 -0.06562809 0.12341507 -0.1952861 0.2177692 0.06617736 -0.022402145 0.0967252 0.071098514 0.05979699 -0.43424958 0.3513694 -0.20315497 0.07271145 -0.2926272 -0.26557547 -0.12326319 -0.48122492 -0.22467789 0.016777767 -0.105097376 -0.08947643 -0.30090818 0.2984556 0.276223 -0.13054869 -0.07884134 -0.20707436 0.32597458 -0.061716966 0.10505043 0.18820359 0.054812077 0.10623408 -0.32070127 0.28109625 -0.36052638 -0.4445192 -0.10015408 -0.2644387 0.035158683 -0.23626241 -0.43303287 -0.10961739 0.06439895 0.33925384 -0.10117035 -0.058873728 -0.17694603 0.13870493 -0.033350516 0.22159688 -0.18858716 0.37283418 0.1293138 -0.09953771 0.47681507 0.28536752 -0.3362213 0.7254427 -0.33924487 0.06260214 0.18040237 -0.057214316
274 0.24173614 -0.11615423 0.22967537 0.42574757 -0.07796018 -0.13129652 -0.089469574 -0.4671058 -0.15522236 -0.17583597 0.2816507 0.39081734 0.0935231 -0.02713144 -0.14681908 0.1679321 0.22064124 -0.3362101 -0.111782975 -0.03934216 -0.22883305 -0.018353833 0.115885034 0.056486737 -0.041739933 -0.23494978 -0.34220758 -0.22028153 -0.48288247 -0.38184413 -0.32780224 -0.5320027 -0.29773086 -0.010756017 0.1963149 0.21056122 -0.030975766 -0.015230965 0.026364105 -0.12858634 0.45994508 0.19206494 -0.18071578 0.48433742 -0.16175152 -0.062887065 0.0009358891 -0.16794516 -0.31892696 0.04667125 -0.46711117 0.14970902 0.20577644 0.097107425 0.17634897 -0.13614154 0.18016256 -0.28428355 -0.36419186 -0.20630775 -0.36112583 -0.18077926 -0.16809863 -0.0023552466
189 0.28775325 -0.11599019 0.2674603 0.3966202 -0.105796054 -0.053876657 -0.14915338 -0.3871558 -0.080324136 -0.30742806 0.2792225 0.45418948 0.1155795 0.040213455 -0.1595634 0.090927035 0.15862098 -0.33271545 -0.13567863 -0.07791781 -0.25789824 -0.053512704 0.15036501 0.09545834 -0.08960938 -0.22002178 -0.34264264 -0.21889195 -0.50542146 -0.35656142 -0.34368688 -0.5693785 -0.30804962 0.07395922 0.20046662 0.3131671 -0.11644041 0.027300937 0.1550343 -0.10959479 0.419808 0.18480603 -0.04566478 0.37713212 -0.22156762 -0.04165633 0.042115133 -0.04202978 -0.17358296 0.03859457 -0.45648068 0.13049933 0.1733771 0.045790855 0.15355735 -0.09019053 0.20887116 -0.20761585 -0.418305 -0.24565206 -0.31884122 -0.18809246 -0.22218291 0.041604176
175 0.23241727 -0.08001387 0.300328 0.44656605 -0.029067766 -0.054668643 -0.15816768 -0.37128624 -0.22749199 -0.26149222 0.29002547 0.46157032 0.117113166 0.06461346 -0.14269203 0.20065571 0.21136588 -0.3953725 -0.19490479 0.086401775 -0.1377299 0.036371138 0.11334044 0.11275058 -0.0432114 -0.33246693 -0.28437382 -0.19842777 -0.42560944 -0.33767873 -0.26922143 -0.5523189 -0.21613635 0.047206897 0.07336458 0.29071757 -0.08161032 0.08382848 0.24310829 -0.09733809 0.4888237 0.2368743 -0.038587064 0.44625223 -0.20179439 -0.056754902 0.05451438 -0.10513422 -0.18518417 0.043378867 -0.37982205 0.18463258 0.22864355 0.043396577 0.31356657 -0.108072326 0.17615245 -0.2892605 -0.37121052 -0.2471849 -0.36650378 -0.15126316 -0.07766462 0.046833333
305 0.2773081 -0.08190883 0.28724608 0.46077535 -0.0795286 -0.08506449 -0.100835584 -0.35182643 -0.14972219 -0.22758034 0.30898398 0.4215476 0.09239512 0.096962914 -0.15060063 0.1341402 0.18571432 -0.36759654 -0.12126002 -0.03376813 -0.2529268 -0.020852407 0.16517378 0.14936776 -0.023430351 -0.28868687 -0.30792788 -0.22982137 -0.38210645 -0.38128138 -0.30407262 -0.5369337 -0.31232387 0.114370674 0.16848066 0.27010447 -0.08315691 0.020304732 0.16765976 -0.1896703 0.4743677 0.16845615 -0.10765143 0.4940698 -0.20520371 -0.036144648 0.011263321 -0.09353914 -0.18326767 -0.022896633 -0.43521404 0.15505877 0.2136733 0.078395 0.19635147 -0.13465476 0.13350505 -0.20346002 -0.4349704 -0.26848435 -0.32216564 -0.13654713 -0.1163501 0.022444643
276 0.26312876 -0.053678196 0.26585427 0.46216556 -0.054125365 -0.11730265 -0.1407628 -0.32186058 -0.17716756 -0.15890166 0.2845286 0.3870675 0.05784735 0.04507004 -0.14153609 0.13961357 0.16072288 -0.3786139 -0.14213863 -0.04964421 -0.15153925 -0.057297803 0.23432887 0.09437249 -0.09330389 -0.24551202 -0.38394335 -0.21779044 -0.47580987 -0.38707164 -0.2507097 -0.5235725 -0.35297796 0.036487304 0.1833351 0.2502825 -0.083441615 -0.008839902 0.14203821 -0.095313445 0.46997085 0.19558656 -0.07252395 0.4844526 -0.1485517 -0.057137694 -0.06532508 -0.16309921 -0.2328301 0.09346673 -0.3952372 0.22945568 0.19413796 0.096465416 0.36847484 -0.1876619 0.21799143 -0.21666197 -0.3560233 -0.23306589 -0.33912212 -0.18862176 -0.1859829 -0.03902001
139 0.26445723 -0.067255326 0.20781003 0.5075595 -0.0885078 -0.012188703 -0.17329699 -0.43261763 -0.1342383 -0.12789929 0.24542655 0.34568882 0.03913854 0.033528425 -0.22358498 0.17960426 0.21432754 -0.31974256 -0.09338165 -0.025819339 -0.20782559 0.045163598 0.16560274 0.09929011 -0.014266044 -0.22692804 -0.25538847 -0.2298512 -0.3632207 -0.40629485 -0.21363594 -0.6451414 -0.2899651 0.1535049 0.25097388 0.26586318 0.042816974 -0.057821278 0.17378098 -0.12566896 0.5165731 0.21134749 -0.09606577 0.44778872 -0.10470325 -0.11494501 0.039279733 -0.0735291 -0.29354316 0.038991924 -0.44675815 0.23411821 0.19115698 0.07769781 0.20477255 -0.13369888 0.19771357 -0.3002379 -0.33481583 -0.24572761 -0.3595507 -0.22678322 -0.11584603 0.006644043
467 0.21138087 -0.059900533 0.16818915 0.51291126 0.025409147 -0.10577427 -0.050194927 -0.44057083 -0.20776454 -0.20323946 0.30406827 0.4897989 0.22191064 0.12156728 -0.09562104 0.1189805 0.16390896 -0.38972685 0.036150716 -0.036549587 -0.15686353 -0.024939947 0.13016403 0.15739249 -0.0023649733 -0.27834958 -0.37533852 -0.28650784 -0.41138783 -0.47331673 -0.2557872 -0.5105176 -0.31828547 0.09787882 0.134262 0.27456212 -0.055016182 0.050507113 0.17313206 -0.12726417 0.45208508 0.23608273 -0.089463696 0.49953705 -0.15895556 -0.04912908 0.0446346 -0.03462818 -0.19739398 0.103847474 -0.408375 0.20131664 0.20506407 0.062102456 0.20560649 -0.10284642 0.1894281 -0.27758253 -0.33493876 -0.22256789 -0.33323187 -0.116005905 -0.13267006 -0.0051962524
637 0.029132493 -0.032298546 0.2095099 -0.07425607 0.22736807 0.029184377 0.07161791 0.096114606 0.026930453 0.05459629 -0.3556886 0.3257374 -0.2132758 0.080613665 -0.28892618 -0.02797436 -0.16984466 -0.2488016 -0.25535372 0.020780154 -0.18154125 -0.018281387 -0.36183134 0.29967433 0.3662569 -0.24425307 -0.019100925 -0.1865494 0.20825022 -0.10128969 0.16260068 0.19496354 0.040326647 0.18332326 -0.28332192 0.3493258 -0.22027725 -0.45906794 -0.23810744 -0.26792642 0.11901732 -0.24358366 -0.46314925 -0.3230685 0.064589806 0.41868085 -0.17078279 0.042993218 -0.15617968 0.131504 -0.04462721 0.23800065 -0.24061608 0.3897247 0.23032415 -0.12786132 0.4927426 0.34413853 -0.3345961 0.65987265 -0.3057996 0.043750767 0.10556472 -0.036083512
647 -0.009658353 -0.10407805 0.1962511 -0.16339998 0.27498576 0.049645007 0.05101227 0.18509106 0.07287192 0.059854295 -0.3677726 0.3125894 -0.2426531 0.050820474 -0.23381485 -0.23049116 -0.05068483 -0.38068435 -0.28106278 0.1139864 -0.11294823 -0.081380546 -0.34991795 0.30755004 0.3101586 -0.24503334 -0.13945451 -0.11428558 0.24967222 -0.100926116 0.022353152 0.22494711 0.059472878 0.08060682 -0.2947765 0.32431033 -0.24586156 -0.44121364 -0.07315219 -0.2698538 0.0071002212 -0.15562935 -0.44202304 -0.23547529 0.027450802 0.41423494 -0.091827855 -0.045243904 -0.05139142 0.23226275 -0.09614172 0.19621234 -0.15265097 0.40426472 0.11303233 -0.079355955 0.494128 0.38166195 -0.34979773 0.7264654 -0.3064248 -0.036334958 0.21083863 -0.025197206
511 0.023834342 -0.008884457 0.17341734 -0.0799319 0.23314545 0.10280402 -0.06384643 0.11395483 -0.060056288 0.09839726 -0.32923055 0.34769925 -0.29145432 0.07779235 -0.20621607 -0.06140362 -0.1609776 -0.33842596 -0.23045903 -0.0038934655 -0.100751266 -0.08294084 -0.2626415 0.37076855 0.30242673 -0.17712706 -0.086909324 -0.2527256 0.25434387 -0.013812188 0.11047904 0.27287376 0.15486665 0.17964976 -0.3090082 0.29451704 -0.22955514 -0.40583372 -0.1584932 -0.2674074 0.06916097 -0.20961319 -0.40472943 -0.15868576 0.14264287 0.3766405 -0.13354906 0.02190054 -0.11834931 0.14829405 -0.03743288 0.27268013 -0.19486101 0.51813793 0.20512137 -0.07702889 0.48041123 0.28784353 -0.3663934 0.760216 -0.25632375 0.020869866 0.15748659 -0.018172497
283 0.28090993 -0.10017037 0.29262292 0.4181181 -0.13160586 -0.037163924 -0.14186035 -0.36659425 -0.12354929 -0.2820798 0.20723806 0.38529998 0.13328055 0.100445814 -0.18715863 0.08819888 0.17120796 -0.31778055 -0.16333239 0.039379332 -0.23035607 -0.036056135 0.14493766 0.07312387 -0.0685723 -0.25757992 -0.29716003 -0.24942468 -0.4006498 -0.34543154 -0.29107377 -0.6471871 -0.2923254 0.0753282 0.22941978 0.33328927 -0.09230753 0.060425576 0.15290809 -0.22107019 0.44718364 0.15795974 0.012548372 0.4319456 -0.16527843 0.003933299 0.025532417 -0.026999453 -0.22037801 0.091811754 -0.42403987 0.20385453 0.20794998 -0.022812327 0.24059178 -0.0824264 0.14242756 -0.12230085 -0.5102187 -0.21264394 -0.39394134 -0.18552352 -0.158392 0.04349574
174 0.1818031 -0.07937363 0.2619902 0.472359 -0.059665404 -0.07218851 -0.01934932 -0.32088593 -0.15382482 -0.26230022 0.18383674 0.31479016 0.06730574 0.072355025 -0.103910685 0.077057265 0.20204541 -0.38937852 -0.067251116 -0.028610175 -0.25088122 0.056890078 0.14286311 0.018100502 -0.05928594 -0.28156918 -0.35574058 -0.22767287 -0.40730673 -0.38071263 -0.31291136 -0.5901477 -0.32305697 0.0010476647 0.22800225 0.34081054 -0.1223859 0.00282218 0.18010005 -0.18616913 0.5301429 0.28521833 -0.049334493 0.4950007 -0.0955039 -0.035010837 0.024530543 -0.0698647 -0.28523856 0.042852525 -0.4032562 0.13763574 0.19426008 0.032642968 0.25694346 -0.06964379 0.24405226 -0.15223096 -0.3990637 -0.19217324 -0.34382355 -0.17099981 -0.18432686 -0.0613357
819 0.12333228 0.035335194 0.23978864 -0.06571049 0.25806743 0.10497797 -0.0608084 0.17358069 0.089846484 0.03510614 -0.39162672 0.37094927 -0.10771715 0.07937828 -0.25164562 -0.06907665 -0.081890166 -0.3519604 -0.3323803 0.059261736 -0.06595838 -0.12529993 -0.24515946 0.46042734 0.3755416 -0.13939047 0.03158399 -0.1811581 0.2254461 -0.06903399 0.051349897 0.22492869 0.16809893 0.09326345 -0.28194648 0.30540144 -0.110276535 -0.4130433 -0.18120675 -0.22845404 0.1204747 -0.21071973 -0.3927317 -0.24515523 0.040861312 0.31076735 -0.2194766 0.008931379 -0.108788386 0.23768605 -0.1234993 0.13313527 -0.20131508 0.50051355 0.22250667 -0.12208926 0.56544214 0.33646944 -0.2945421 0.7190604 -0.24654046 -0.017845165 0.16193178 -0.016974254
452 0.24012935 -0.16914502 0.22366607 0.44945183 -0.06848426 -0.12360827 -0.14655696 -0.4216302 -0.10596899 -0.26693818 0.16513494 0.45977926 0.07642017 0.038778648 -0.12658654 0.15772498 0.14947593 -0.37725845 -0.03968461 -0.058396135 -0.27054286 -0.047167424 0.22868483 0.13045047 -0.10028975 -0.279804 -0.24313286 -0.27423522 -0.48955354 -0.3019514 -0.24570824 -0.5735988 -0.33409122 0.069361545 0.267441 0.29449 -0.03778274 0.024886042 0.13328904 -0.18272536 0.3667859 0.16596085 -0.054752935 0.50507474 -0.15436572 -0.10892454 0.071782716 -0.058102045 -0.22651434 0.07240681 -0.46668398 0.16017383 0.18306552 0.033556014 0.27458888 -0.03140299 0.23848717 -0.17160304 -0.39295775 -0.24406004 -0.32253987 -0.13757564 -0.17214322 0.032383345
312 0.27029327 -0.040052705 0.2175362 0.36614868 -0.1259992 -0.06992177 -0.122505754 -0.3958782 -0.11805029 -0.21590936 0.24679685 0.26215276 0.067230456 -0.028419252 -0.19161044 0.11237567 0.23567727 -0.32136437 -0.07352196 -0.062106118 -0.2407401 0.022763109 0.08725617 0.03013849 -0.034195065 -0.25829893 -0.4252532 -0.2935734 -0.46841872 -0.41504282 -0.3346183 -0.60239017 -0.3108287 0.07864601 0.23626406 0.27238345 -0.07628732 -0.055708416 0.10116955 -0.15347673 0.5016041 0.12290694 -0.04184995 0.52988464 -0.13837217 -0.057991654 0.08290516 -0.12296405 -0.27178255 0.02015697 -0.37532106 0.14894688 0.1424284 0.06125674 0.24933065 -0.11738845 0.1686087 -0.18904269 -0.4033507 -0.17703688 -0.37068984 -0.23011251 -0.18924588 -0.012005549
495 0.2699946 -0.11562642 0.21274756 0.47167885 -0.05211341 -0.047013205 -0.119969115 -0.32049727 -0.1326458 -0.22949855 0.3328541 0.4005779 0.06598145 0.08101405 -0.18714972 0.11364145 0.15031226 -0.34064728 -0.11066781 -0.003312261 -0.22905652 -0.06410603 0.19925295 0.047233485 -0.07420717 -0.26871312 -0.29730615 -0.2288997 -0.42088604 -0.37259012 -0.25189683 -0.55163175 -0.33145142 0.11937764 0.22370343 0.27166182 -0.11040506 0.017636547 0.10704031 -0.18993014 0.46582323 0.26023695 -0.051548697 0.44722128 -0.21775752 -0.016227908 0.015339496 -0.03629575 -0.22717565 0.07438489 -0.47831714 0.20757677 0.21762896 0.010706125 0.21898952 -0.027886333 0.26324293 -0.17600201 -0.39950043 -0.258149 -0.33967274 -0.16556692 -0.0985457 -0.051863603
6 0.27394482 -0.14491211 0.2711241 0.3700536 0.0020964707 -0.07928883 -0.032506038 -0.4177311 -0.06307227 -0.21124028 0.26212364 0.33142784 0.09488089 0.0642152 -0.0955105 0.13385358 0.20105526 -0.3125256 -0.013174889 -0.035190903 -0.19255759 0.0021666477 0.12732093 0.0671842 -0.04127553 -0.2055592 -0.367713 -0.27316466 -0.43260738 -0.4313856 -0.2820475 -0.5027383 -0.3661635 0.054190766 0.2079505 0.35154906 -0.09952011 -0.04031492 0.18445058 -0.17877303 0.48705444 0.30437323 -0.104357034 0.53159386 -0.15187721 -0.026118536 -0.05462659 -0.089098364 -0.20204806 0.011737007 -0.52126044 0.14749372 0.22849184 -0.03408487 0.2000668 -0.046395414 0.281037 -0.26614386 -0.3606306 -0.1985936 -0.3204302 -0.16700304 -0.17421615 0.041672677
311 0.23319758 -0.17112914 0.20118374 0.44595155 -0.041401997 -0.11441994 -0.0638138 -0.41265967 -0.18243517 -0.253241 0.27386156 0.31228134 0.079116516 -0.003429031 -0.16879362 0.069915846 0.1596825 -0.3919909 -0.054044973 -0.06055224 -0.25978938 0.01891464 0.08858729 0.0438862 0.008265777 -0.3602869 -0.3733483 -0.21038312 -0.47725928 -0.38634625 -0.32014325 -0.5580643 -0.24351706 0.10559866 0.20812777 0.322362 -0.14768632 0.040594038 0.18337895 -0.17290993 0.42170244 0.2332591 -0.103211924 0.48761424 -0.164397 -0.108531296 0.017469434 -0.07863155 -0.24190705 0.061768446 -0.4779329 0.20678774 0.15035005 0.06259077 0.19891825 -0.06919794 0.1829759 -0.14765434 -0.35382754 -0.26700807 -0.3754979 -0.10772781 -0.097100854 -0.020102805
462 0.25517797 -0.07348706 0.26934713 0.41882977 -0.14843923 -0.04760117 -0.15620704 -0.36424732 -0.24498582 -0.18395165 0.296062 0.44927865 0.10854856 0.09610407 -0.20151977 0.048967306 0.16445428 -0.465628 -0.08828128 -0.104022324 -0.24007411 -0.053086173 0.17765294 0.025696255 -0.008783471 -0.25684336 -0.33022124 -0.1665225 -0.42607057 -0.43421215 -0.21780288 -0.5548837 -0.35957578 0.02989913 0.19580857 0.19248104 -0.09692827 0.05394615 0.14369757 -0.15025803 0.43368316 0.18692325 -0.025780793 0.43358997 -0.11710034 -0.076150544 0.054086525 -0.13427037 -0.19976975 0.05001936 -0.4956131 0.21266325 0.16397451 0.07654597 0.27945778 -0.19096898 0.1540275 -0.18757942 -0.3506995 -0.21630457 -0.33504933 -0.22437559 -0.17791888 -0.04084749
764 0.037095323 0.077184595 0.22909302 -0.18761228 0.25096783 0.14438552 0.055064995 0.11562834 0.056738406 -0.051903084 -0.42737305 0.36475092 -0.11001916 -0.07223315 -0.24599287 -0.10001396 -0.030653613 -0.43827692 -0.24520384 0.040426467 -0.03762859 0.0027877223 -0.298975 0.45415628 0.30365887 -0.18259406 -0.07042538 -0.23475528 0.20549165 -0.06136533 0.12374454 0.2143136 0.092196286 0.13743977 -0.29333076 0.21053348 -0.30444592 -0.36362362 -0.16822538 -0.3307351 0.0033907136 -0.21755996 -0.39819017 -0.19969413 -0.030165033 0.34053943 -0.090253785 -0.09347608 -0.15273196 0.3233237 -0.08452251 0.170267 -0.24125905 0.4366246 0.22023736 -0.07879621 0.45462552 0.2548124 -0.41189042 0.7233503 -0.2854643 0.028008815 0.1762429 -0.028384922
763 0.042164974 -0.034756545 0.20434062 -0.111884214 0.23613858 0.067050114 -0.059206285 0.18608895 -0.00053334044 0.061738838 -0.33978418 0.3355348 -0.23054813 0.096821316 -0.3017535 -0.02163825 -0.22579567 -0.4112672 -0.32988107 0.049556624 -0.15240039 -0.08217119 -0.26443633 0.34929314 0.37547386 -0.19124515 -0.0033466562 -0.19975774 0.22789013 -0.06589229 0.0639003 0.2071676 0.14485413 0.13679664 -0.33816072 0.23271967 -0.20656094 -0.5498785 -0.11331886 -0.25590673 0.063952684 -0.22345875 -0.3737163 -0.2563813 -0.020617247 0.35567766 -0.14071181 0.12331934 -0.095476866 0.22836752 -0.046089273 0.1880789 -0.16883679 0.46037868 0.0940916 -0.08656891 0.49368188 0.29918605 -0.28987607 0.67692083 -0.3173098 -0.035939712 0.16800757 0.007623981
16 0.26104465 -0.12918212 0.1905586 0.44479322 0.0010863226 0.008588585 -0.11425514 -0.42596427 -0.11964533 -0.25914806 0.20082113 0.3729008 0.066497736 0.04667357 -0.13649978 0.02351221 0.13727216 -0.36074293 -0.06702945 -0.12003737 -0.2858732 -0.011631067 0.15696432 0.037226792 -0.0343061 -0.2205748 -0.3614076 -0.2700856 -0.5015756 -0.41613144 -0.26668915 -0.6216741 -0.303837 0.12366293 0.23030025 0.23365824 -0.08136773 -0.07261044 0.25765926 -0.2215518 0.43528527 0.26615694 -0.09071719 0.4682676 -0.11499204 -0.09026859 -0.011779649 -0.013312664 -0.24578772 0.049755335 -0.37832183 0.22484219 0.20401503 0.02536401 0.17055632 -0.098793596 0.17089795 -0.20083742 -0.40285885 -0.23469864 -0.30144066 -0.21379282 -0.14746284 -0.038854707
286 0.27011204 -0.07082679 0.29536343 0.51790196 -0.10860534 0.031784084 -0.1277066 -0.3471415 -0.05393522 -0.2137096 0.3145674 0.4466558 0.09372159 0.047119893 -0.17966446 0.11900245 0.19762395 -0.37264046 -0.11657676 -0.068684295 -0.19820915 0.0017784778 0.1802245 0.05719707 -0.04533034 -0.22800377 -0.35045272 -0.22771367 -0.4224298 -0.30656153 -0.27134848 -0.5473057 -0.25937346 0.12263164 0.16451088 0.2474385 -0.07305543 0.0507039 0.11771625 -0.11315202 0.4563827 0.18936203 0.023856858 0.43520936 -0.21444805 -0.049305946 -0.013586106 -0.10151622 -0.3014548 0.060480814 -0.43210495 0.24139376 0.24244112 0.06624887 0.2420251 -0.14247063 0.18182278 -0.16925512 -0.42800906 -0.2692619 -0.32036376 -0.21666694 -0.19100411 -0.061714318
8 0.27285957 -0.09848285 0.23575208 0.4729127 -0.05096887 0.01945079 -0.096614726 -0.2979075 -0.17264472 -0.27589825 0.21763474 0.30581298 0.023893997 0.054912757 -0.23126578 0.10326466 0.18704946 -0.313648 -0.088384554 -0.092618525 -0.19572274 -0.022215787 0.14455833 0.013800572 -0.050535668 -0.2312218 -0.3908672 -0.22394912 -0.45861605 -0.51319975 -0.2976861 -0.49600872 -0.32172352 -0.0045287074 0.20195258 0.2364461 -0.08452907 -0.024117246 0.21598017 -0.17747915 0.52679026 0.1880012 -0.12020834 0.5417971 -0.14614841 -0.07663609 -0.0037565702 -0.058983658 -0.267957 -0.019026197 -0.3904188 0.24527143 0.113661356 0.010295177 0.29732636 -0.09406134 0.18973337 -0.17565511 -0.42572227 -0.21908087 -0.31285515 -0.24345885 -0.12986216 -0.0015283072
266 0.23692316 0.032218605 0.25316766 0.37941647 -0.08874077 -0.06575929 -0.1154533 -0.36325234 -0.042992968 -0.1748896 0.20955402 0.30775815 0.116359495 0.044430222 -0.20744376 0.21357498 0.16906615 -0.34296164 -0.107047446 -0.11489115 -0.2461879 0.025864828 0.083351105 0.07099861 -0.065258354 -0.25133386 -0.4234263 -0.2788458 -0.47974902 -0.35302097 -0.2794729 -0.6092504 -0.34286553 0.11545707 0.2747133 0.30673096 -0.11149592 -0.04679869 0.10403828 -0.19693068 0.42946726 0.19097164 -0.022417614 0.48113224 -0.1520586 -0.098669045 0.05179126 -0.07046082 -0.25159302 0.07768868 -0.4477953 0.1698899 0.1836682 0.08411918 0.19147867 -0.10291202 0.16148813 -0.26959786 -0.3805241 -0.20531349 -0.34541437 -0.2374442 -0.22344634 -0.024415333
526 -4.7101137e-05 -0.09207793 0.18965577 -0.21754779 0.22657038 0.13195455 -0.07335774 0.10803474 -0.009720494 0.008236879 -0.3135043 0.36004755 -0.15647782 0.119493015 -0.2808801 -0.13261914 -0.082791455 -0.40055972 -0.25841838 0.09272508 -0.1561865 -0.091314465 -0.38617486 0.4896965 0.27225846 -0.18335374 -0.05826686 -0.12329352 0.2646956 -0.04225717 0.03852922 0.18898293 0.109782934 0.14811394 -0.27257654 0.2705005 -0.27287534 -0.40629676 -0.06993518 -0.35635683 0.031425506 -0.18317877 -0.41750395 -0.24474388 0.061886556 0.3281375 -0.13727976 -0.021457693 -0.13589178 0.21516034 -0.060709693 0.14182554 -0.20756595 0.4716634 0.1589945 -0.024452947 0.47729367 0.36015993 -0.40752935 0.64683175 -0.30062273 0.011460589 0.1348561 -0.011418722
469 0.25069988 -0.11233896 0.2524171 0.4356862 0.014226124 -0.1243021 -0.13908434 -0.36290202 -0.19422676 -0.20755574 0.28807026 0.41463098 0.0372144 -0.0440488 -0.20203254 0.16391386 0.23268068 -0.38120097 -0.11697987 -0.02975012 -0.14388454 0.044289097 0.12873562 0.006468777 -0.10245236 -0.30836532 -0.3443875 -0.28993607 -0.4481884 -0.4327345 -0.24852037 -0.4690072 -0.32027248 -0.01659056 0.21340784 0.24351013 -0.06811312 0.028482093 0.122980885 -0.14095797 0.5242611 0.22562066 -0.15239918 0.4252822 -0.14785321 -0.0834875 0.018710643 -0.1733424 -0.28654146 -0.020347502 -0.42162415 0.22412379 0.20381626 0.05727307 0.2917408 -0.060890727 0.14307424 -0.23176719 -0.39698482 -0.216268 -0.26715413 -0.16395965 -0.12895547 0.010625456
321 0.2524705 -0.12353777 0.27747685 0.46693537 -0.093358144 -0.10406698 -0.12065179 -0.42871037 -0.11630763 -0.2473443 0.26861054 0.37932175 0.062433515 0.027555697 -0.19322224 0.052892894 0.19376008 -0.3488083 -0.16090868 -0.010648866 -0.2021076 0.0073685963 0.1244141 0.04128644 -0.07726302 -0.23614126 -0.31177142 -0.17415111 -0.42981097 -0.34559947 -0.31341776 -0.567501 -0.27256688 0.0883048 0.23479365 0.32641375 -0.07165443 -0.01717917 0.18688214 -0.07977731 0.4526124 0.21263409 -0.07245991 0.44073167 -0.20299992 -0.08261789 0.010866888 -0.07210091 -0.2141607 0.10434949 -0.43683025 0.20428982 0.15893748 0.06960932 0.25534737 -0.096295424 0.22526897 -0.20897564 -0.416014 -0.29562563 -0.32151812 -0.1963248 -0.14980787 0.05390191
124 0.26811683 -0.1179685 0.21028426 0.47824857 -0.07432046 -0.078373276 -0.119866036 -0.27892134 -0.11186595 -0.2878477 0.30304828 0.3506407 0.1188226 -0.024442079 -0.07659845 0.10875515 0.08141566 -0.37324187 -0.100649744 0.018661264 -0.29386246 -0.06130481 0.18194488 0.045647293 -0.053894483 -0.31467035 -0.2895218 -0.1109294 -0.4500323 -0.37371263 -0.32713968 -0.57536244 -0.26455864 0.0005928486 0.17725135 0.28721687 -0.05329024 -0.044608884 0.20930259 -0.17266147 0.5219866 0.23959486 -0.0744306 0.5115216 -0.1881708 -0.09176152 -0.009887537 -0.058791652 -0.26484132 0.07814251 -0.4551302 0.1687872 0.10654942 0.06123385 0.27847877 -0.10609146 0.16462748 -0.16115935 -0.41700545 -0.26154625 -0.3484041 -0.1102552 -0.17642568 0.014877246
14 0.17315947 -0.062765 0.19711101 0.41910517 -0.0010186094 -0.05737897 -0.19865361 -0.36830804 -0.1274196 -0.24066603 0.23580787 0.40965918 0.15330926 0.029020943 -0.13436294 0.16901806 0.14642978 -0.34784243 -0.074104935 -0.009480095 -0.27298534 0.023415644 0.057721365 0.049514927 -0.0046031834 -0.36078966 -0.2552244 -0.228785 -0.4674601 -0.3395413 -0.30070356 -0.601474 -0.28091273 0.13218707 0.19532451 0.24533854 -0.0030095354 -0.017471567 0.15711972 -0.10771923 0.43896714 0.23604673 -0.13456054 0.4492005 -0.16049188 -0.07045205 0.13388947 -0.12125418 -0.25905523 0.17508821 -0.46372455 0.19705398 0.2225929 0.104086496 0.25791603 -0.11703929 0.16043128 -0.22728603 -0.3817978 -0.32652748 -0.413379 -0.20405778 -0.102150254 -0.050688073
398 0.27638143 -0.08566188 0.27006665 0.4283102 -0.038190726 -0.019617539 -0.21423914 -0.39606357 -0.09791055 -0.29357827 0.29235086 0.4731551 0.10200931 -0.019239176 -0.14317651 0.15157057 0.18844813 -0.24725673 -0.049347404 -0.034615166 -0.1953935 -0.13310775 0.13519749 0.08734539 -0.12124938 -0.26979458 -0.3653803 -0.24392277 -0.5205529 -0.2997242 -0.31830177 -0.4982871 -0.33816776 0.089279875 0.17467947 0.2858749 -0.16305804 0.08248466 0.14198089 -0.10253403 0.3906851 0.196553 -0.056445524 0.47921976 -0.18266428 -0.033530824 0.08744801 -0.15496866 -0.20939074 0.047467794 -0.42427197 0.17216597 0.1910451 0.07261874 0.286945 -0.05985086 0.22747181 -0.18851961 -0.44987684 -0.2249576 -0.30416977 -0.14907458 -0.21967192 -0.04912159
153 0.16850151 -0.054660577 0.25289446 0.39877865 0.02566581 -0.035207856 -0.07304597 -0.36403656 -0.03515996 -0.12164234 0.25143093 0.3709712 0.09442426 0.017816996 -0.18891793 0.13233794 0.24545354 -0.29962134 -0.067391716 -0.04554672 -0.2503118 0.04195334 0.13138658 0.024660736 -0.043881517 -0.2754032 -0.3585721 -0.28113443 -0.52022547 -0.3642389 -0.3329782 -0.5326308 -0.2840178 0.10264675 0.21118802 0.24462396 -0.055566467 0.0009979511 0.1535091 -0.19843347 0.47937885 0.18260281 -0.02205697 0.46313053 -0.16763787 -0.11215959 0.08314644 -0.13733417 -0.26868466 -0.044667378 -0.51517195 0.17170289 0.16440102 0.053818278 0.2635825 -0.058189232 0.2683366 -0.2551174 -0.38366792 -0.21020128 -0.42227414 -0.16041811 -0.14871651 0.00010157991
92 0.28737503 -0.042654153 0.26742023 0.46794564 -0.08629838 -0.1038102 -0.03451087 -0.3822876 -0.15891953 -0.16443439 0.24217306 0.35948718 0.08420612 0.0821496 -0.18628448 0.22567478 0.2067883 -0.3592473 -0.15508865 -0.04846935 -0.23830068 -0.016423564 0.10505088 0.042075135 -0.023518253 -0.2433069 -0.33777112 -0.22676967 -0.4440592 -0.37358546 -0.29696608 -0.5254315 -0.30262926 0.10039695 0.25002822 0.25562832 -0.05740003 0.06431747 0.071615666 -0.16337548 0.4630563 0.12531851 -0.030243104 0.38783363 -0.13459803 -0.0833285 0.058364026 -0.10312597 -0.25366145 0.018427394 -0.49439487 0.23589243 0.19869813 0.1308993 0.26819772 -0.16689299 0.1716385 -0.24775523 -0.36831 -0.30764073 -0.33042008 -0.23455955 -0.20472616 0.053655844
134 0.2406961 -0.17894405 0.14732863 0.47312394 -0.011277917 -0.043807685 -0.071994744 -0.3080358 -0.024685558 -0.25617266 0.2472859 0.3614215 -0.010517482 0.03678142 -0.23356676 0.11491672 0.13594036 -0.30906415 -0.115611866 0.007910559 -0.30509928 0.022114389 0.085804135 0.08466192 -0.02219722 -0.3244867 -0.2758743 -0.2669066 -0.42155427 -0.34690505 -0.36641833 -0.55817294 -0.32453862 0.07777012 0.28482908 0.26791215 -0.07753337 -0.056954015 0.104614116 -0.07030935 0.49346244 0.1428719 -0.091239244 0.51083905 -0.20751506 -0.08895721 0.0553938 -0.05232098 -0.24736978 -0.0016242224 -0.44768235 0.26616022 0.22959024 0.063248664 0.25848562 -0.019720469 0.056758374 -0.2775907 -0.49588877 -0.28557703 -0.3413072 -0.2010259 -0.12334786 -0.063703634
461 0.16231899 -0.06626518 0.2511104 0.49159926 -0.07969544 -0.10890731 -0.14324437 -0.43360215 -0.15232474 -0.21580243 0.16880603 0.4436819 0.1703892 0.069061406 -0.18593262 0.077654526 0.17746168 -0.4074037 -0.09443951 -0.057721864 -0.18917654 0.0025542066 0.17387755 0.07146519 0.020141913 -0.3034595 -0.28024495 -0.20430323 -0.44162914 -0.32905024 -0.23601162 -0.5169251 -0.2656838 0.080053754 0.23591527 0.24149863 -0.025835082 0.061846476 0.14548646 -0.17247169 0.49860352 0.26065648 -0.089056484 0.44819152 -0.13040395 -0.09266339 0.013729792 -0.050688136 -0.23271912 0.02720507 -0.44370592 0.2651025 0.18935601 0.077149905 0.25444934 -0.10858381 0.19044083 -0.29542616 -0.34842622 -0.2791905 -0.40502337 -0.1776753 -0.15279308 0.050320696
373 0.28469545 -0.1144263 0.26144508 0.44298854 -0.03666733 -0.07977233 -0.12940817 -0.37048832 -0.08394289 -0.25610504 0.27667224 0.3960818 0.050146524 0.0045924927 -0.14975011 0.13765691 0.23567176 -0.37268057 -0.08989391 0.047234543 -0.23475686 0.03712474 0.13976717 0.048496913 -0.07233594 -0.33188233 -0.28085425 -0.27864888 -0.49645144 -0.3113162 -0.3198638 -0.48232353 -0.31498212 0.044617277 0.2314141 0.3114578 -0.09335987 0.022588484 0.083166644 0.004336305 0.45974228 0.15597957 -0.0379904 0.48344305 -0.19857918 -0.06036999 0.06386652 -0.14168552 -0.2901323 0.06077336 -0.44847548 0.20357576 0.2124115 0.034838043 0.23512802 -0.075330324 0.16395837 -0.2639243 -0.46635056 -0.16725591 -0.31309342 -0.1681804 -0.11885298 -0.030179976
521 0.0062278677 -0.01853504 0.2998837 -0.10771108 0.26570198 0.062241826 0.069274634 0.15777342 -0.060957897 -0.022948984 -0.44006494 0.30379066 -0.18162769 -0.027839476 -0.20994048 -0.12917618 -0.18546993 -0.35087636 -0.20844717 0.011214408 0.011271685 -0.06354285 -0.26487556 0.2962843 0.3772733 -0.25216582 -0.094662234 -0.28498635 0.21631251 -0.06044489 0.06920528 0.2104923 0.08172108 0.16195072 -0.3192243 0.28236908 -0.20039481 -0.39564002 -0.1628262 -0.234215 0.09849557 -0.30059126 -0.40291905 -0.24733569 0.09628405 0.40017766 -0.095339805 -0.03521356 -0.14830147 0.31611332 -0.11406105 0.20773616 -0.20951976 0.4696002 0.17940389 -0.19964686 0.4595848 0.29722077 -0.339263 0.6971799 -0.30937988 -0.015277356 0.0944662 0.0043174583
717 0.03707184 -0.05553268 0.16495901 -0.2335881 0.22946657 0.050410468 0.05134533 0.13442577 0.07332625 0.076073416 -0.4168117 0.43645364 -0.24000643 0.13665605 -0.29478425 -0.1592678 -0.11674043 -0.42246276 -0.2248469 0.061998177 -0.057986856 -0.12941423 -0.2546257 0.3750763 0.33016616 -0.18457328 -0.01106868 -0.23169616 0.23074101 -0.077505894 0.09203155 0.19141388 0.037526164 0.06468388 -0.26873034 0.32097226 -0.22126086 -0.45877686 -0.16625674 -0.31741467 -0.061568305 -0.1785523 -0.4029799 -0.1550314 -0.020982083 0.3855364 -0.10958612 0.018569294 -0.14308737 0.20811023 -0.07054317 0.12573385 -0.19462298 0.42260692 0.18020973 -0.12578535 0.4308062 0.39165637 -0.34712076 0.68458736 -0.31953284 -0.027659293 0.13644041 -0.014848036
783 0.18398696 -0.037039127 0.1408968 -0.20651907 0.198282 0.015114981 -0.031112324 0.14973697 0.09918171 0.11723738 -0.34056947 0.33469912 -0.18428108 0.073098265 -0.2823534 -0.17102426 -0.09138063 -0.4223169 -0.22521587 0.046440817 -0.060471125 -0.0016212743 -0.28625804 0.37213317 0.27918777 -0.32948855 -0.05781577 -0.3039312 0.2215819 -0.084116414 0.10752501 0.15372998 0.06773253 0.12151392 -0.33647078 0.18757254 -0.18263054 -0.40044942 -0.13038093 -0.32722723 0.08329175 -0.23778209 -0.3817389 -0.2692277 0.04239856 0.3831673 -0.11126501 -0.01082484 -0.11657687 0.24264075 -0.020229056 0.2382732 -0.26407978 0.45845836 0.18076268 -0.17838137 0.50017136 0.27997884 -0.19829485 0.70853704 -0.40676463 -0.015147818 0.13368368 -0.07715828
281 0.24716413 -0.14239824 0.21022269 0.4176393 -0.049175836 -0.04701764 -0.11228818 -0.30631605 -0.12160166 -0.24986747 0.17479308 0.3370667 0.04970352 0.0857794 -0.2000048 0.16674563 0.16884187 -0.36655366 -0.18303613 -0.059672736 -0.2664131 -0.018155832 0.057504475 0.05691218 -0.038179852 -0.19375658 -0.3484841 -0.25383866 -0.5159718 -0.41942003 -0.2988937 -0.57395834 -0.39572963 -0.049489237 0.20076132 0.29411206 -0.089333355 0.011312644 0.12714098 -0.13884357 0.52088714 0.17963183 -0.07483407 0.47684503 -0.13153249 -0.12969083 -0.033148054 -0.09236662 -0.26459822 0.031835735 -0.402955 0.15292223 0.19260986 0.06283613 0.26315618 -0.04766219 0.14170045 -0.30118358 -0.40729222 -0.1707012 -0.32858256 -0.20948891 -0.16065003 0.046037823
241 0.26366925 -0.063976735 0.3262077 0.38763723 -0.04251082 -0.096596204 -0.124347955 -0.34584117 -0.07710075 -0.12617739 0.33441007 0.40651342 0.13938098 0.09114188 -0.15530226 0.1453077 0.16183323 -0.29511106 -0.06875314 -0.03695563 -0.1697619 -0.00966342 0.20108713 0.026516346 -0.07225527 -0.2042346 -0.36057165 -0.28291693 -0.46280915 -0.3624182 -0.34432778 -0.57360137 -0.332077 0.07168175 0.2010556 0.33878484 -0.09903245 0.019518686 0.1870406 -0.1838033 0.4507791 0.09642354 -0.0184082 0.44425133 -0.19033356 -0.010263307 -0.06578425 -0.06602203 -0.27107203 0.0221766 -0.44034928 0.20909974 0.26958293 0.032158718 0.18750668 -0.0292148 0.1430878 -0.24082911 -0.44075984 -0.19329707 -0.3827387 -0.18130778 -0.18124968 -0.0073179547
856 -0.103161864 0.06855731 0.12514746 -0.16148363 0.25599656 0.043275498 -0.023881547 0.14780588 0.008514501 0.16542925 -0.39166024 0.26751134 -0.12732796 0.047902852 -0.2585486 -0.12086632 -0.21832657 -0.48850185 -0.2390045 0.100495085 -0.09008322 -0.060765114 -0.25585303 0.4794319 0.37846363 -0.15863197 0.022786891 -0.24638914 0.2260586 -0.111273415 0.09613087 0.20124383 0.050777618 0.1320434 -0.33982942 0.33138487 -0.16978098 -0.41128495 -0.021797236 -0.30648187 0.03157849 -0.23630491 -0.44647157 -0.27233255 -0.015980382 0.28620985 -0.1681154 0.010949116 -0.112179 0.20319346 -0.06918462 0.18123645 -0.22450219 0.3588198 0.20915903 -0.07365565 0.4784658 0.2707087 -0.42018947 0.68139666 -0.34220195 0.06037154 0.09728287 -0.10572526
898 0.17397544 -0.033425827 0.1081601 -0.16477789 0.2702736 0.12787835 -0.012659155 0.16194345 -0.038133632 0.024908932 -0.38554096 0.35424346 -0.2720862 0.050685603 -0.21808642 -0.05414159 -0.14637995 -0.30393574 -0.26398715 -0.07247353 -0.12212656 0.04206179 -0.3316031 0.30470157 0.35401127 -0.2163164 -0.018128635 -0.247775 0.23129652 -0.07673707 0.07535466 0.20240581 0.12173677 0.16159102 -0.33598912 0.22692841 -0.21667239 -0.4864927 -0.16300263 -0.2533129 0.12070478 -0.19809677 -0.4455446 -0.20789671 0.14937662 0.366443 -0.119533665 0.037644032 -0.12656672 0.17932187 -0.08536384 0.2802037 -0.20763999 0.46889713 0.27638227 -0.10522178 0.4492458 0.2818893 -0.26726288 0.7133169 -0.36412647 -0.036242224 0.084225535 -0.052385364
655 -0.05395307 -0.036182035 0.14050907 -0.16485226 0.24583244 0.098425314 0.092703566 0.11877689 0.02856815 0.015486725 -0.4664951 0.32928813 -0.16527747 0.0051939483 -0.23768398 -0.13815573 -0.042843755 -0.42606205 -0.18378404 0.15299526 -0.097323574 -0.14010103 -0.28136444 0.3736811 0.35401136 -0.16014124 -0.08418901 -0.17229457 0.18834649 -0.07146089 0.18352179 0.13888253 0.04746228 0.12386817 -0.3336863 0.35280636 -0.29044446 -0.41437334 -0.17768674 -0.2795541 0.029899536 -0.23165277 -0.42335597 -0.21634331 -0.0051041613 0.4118816 -0.08073456 -0.093970396 -0.1265953 0.18151991 -0.06094682 0.20344025 -0.18494287 0.3695751 0.14926365 -0.0681459 0.49791032 0.32580876 -0.3838326 0.7128928 -0.28515756 0.063666075 0.15668294 -0.028437918
363 0.10371046 -0.04105699 0.20527177 0.40003145 0.013500769 -0.05557943 -0.14268117 -0.40375584 -0.069884315 -0.23356733 0.23562123 0.42146388 0.13149153 0.02579721 -0.18920746 0.11695654 0.22703676 -0.34816757 -0.07304222 0.07033809 -0.19278523 -0.021785486 0.15821315 0.06207343 -0.108889185 -0.335804 -0.24873798 -0.33920258 -0.41475123 -0.37092492 -0.28389907 -0.63630235 -0.26781 0.099336006 0.2119146 0.22744742 -0.07045321 0.018221036 0.1600313 -0.06597688 0.4787295 0.2169285 -0.028519496 0.47167602 -0.13555197 -0.09925396 0.12718746 -0.092573 -0.26668397 0.13510263 -0.38195604 0.20424248 0.23775156 0.14981753 0.2840994 -0.104988515 0.11524549 -0.21882506 -0.39958796 -0.2535339 -0.38431707 -0.2130543 -0.14314355 -0.107152104
528 0.14835514 -0.020519096 0.22019246 -0.20620671 0.25600973 0.12869263 -0.05077767 0.12603413 0.10683468 -0.010593926 -0.3865266 0.3004604 -0.18209285 0.031125644 -0.25286406 -0.17199953 -0.12035642 -0.40386787 -0.22755966 -0.00460689 -0.1242532 -0.07081536 -0.1786458 0.33068416 0.30692008 -0.14652807 -0.097095594 -0.28446054 0.23556747 -0.007366989 0.016671035 0.22595991 0.12367816 0.09285459 -0.34536177 0.31201223 -0.26638612 -0.39142826 -0.10910385 -0.38917506 0.02983059 -0.1640216 -0.3645158 -0.25620177 0.1522176 0.35251516 -0.09834461 -0.008727132 -0.22469722 0.14316553 -0.026694948 0.30210602 -0.23965056 0.4370055 0.2606435 -0.13964202 0.43698364 0.32784998 -0.35221818 0.72652596 -0.33967534 -0.07486704 0.11857818 -0.0018983894
820 0.0055558076 0.020518485 0.17075261 -0.098914355 0.20953393 0.13105336 0.08271794 0.037378427 0.012199317 0.01697078 -0.43245876 0.25590265 -0.17138961 -0.014360414 -0.248699 -0.12966146 -0.16742732 -0.48110357 -0.22584817 0.040840913 -0.08761594 -0.012396798 -0.2856756 0.39962766 0.35688764 -0.13830411 -0.025420628 -0.10209392 0.29931962 -0.1150761 0.032567758 0.21295837 -0.00058621576 0.11299153 -0.29343978 0.23612332 -0.34203675 -0.49752933 -0.011625225 -0.35061476 0.016946038 -0.21669373 -0.35242185 -0.27053726 -0.0024425143 0.39094892 -0.08751699 -0.021156605 -0.17924353 0.3328855 -0.06795623 0.15013538 -0.16464029 0.4068463 0.17792696 -0.044438448 0.46257034 0.33968383 -0.40697023 0.65825266 -0.34396738 -0.0009180931 0.21375018 -0.05817012
371 0.378089 -0.14306976 0.30508855 0.48940015 -0.07243546 -0.11102974 -0.14896812 -0.2653475 -0.09808113 -0.25524125 0.27176407 0.4935001 0.05659712 -0.053915467 -0.1594669 0.15146586 0.17206699 -0.2632414 -0.095901795 6.1168954e-05 -0.24998468 -0.024354586 0.17017868 0.03693317 -0.030952083 -0.3200952 -0.2819869 -0.21912514 -0.41525856 -0.3425358 -0.3170478 -0.4914644 -0.3457292 0.07147064 0.21809474 0.34222138 -0.007339327 0.01869853 0.17792813 -0.17699115 0.42346314 0.12938994 -0.07400098 0.37126926 -0.2237512 -0.07176855 0.012310486 0.0060659098 -0.3375671 0.0792421 -0.5339759 0.26338953 0.26329488 0.045687042 0.18351045 -0.044860892 0.08672837 -0.16712272 -0.4549674 -0.3183328 -0.31866413 -0.10127323 -0.16646414 0.06613077
753 0.045368437 -0.06043355 0.25635582 -0.17859572 0.24033941 0.13345733 0.04641211 0.11962766 -0.0034402485 -0.0143492315 -0.4713294 0.34400716 -0.20990579 0.069973245 -0.24380186 -0.12917127 -0.09872898 -0.3799748 -0.20853841 0.08904901 -0.04871906 -0.08675283 -0.25928786 0.31889454 0.31818065 -0.15043932 -0.077176586 -0.15712728 0.30536798 -0.044359997 0.11115511 0.20706557 0.06312879 0.23136567 -0.21342392 0.2487431 -0.27572906 -0.35098952 -0.25201657 -0.3086103 0.08109879 -0.20761496 -0.42841154 -0.20187575 0.0069883536 0.3599867 -0.12670016 -0.017759645 -0.077943206 0.22029944 -0.108285934 0.23875304 -0.16666684 0.38170335 0.2547136 -0.07795744 0.5010655 0.36737588 -0.376045 0.6930514 -0.3441372 0.010010577 0.16207233 -0.03897555
616 0.091300674 -0.035475012 0.20106559 -0.11163946 0.24498503 0.0007165919 0.041805733 0.13510524 0.05861982 0.08753407 -0.4746904 0.3145616 -0.17101488 -0.019970588 -0.23551294 -0.07729209 -0.1334655 -0.3606848 -0.21359225 0.07170014 0.025743196 0.022348043 -0.23865008 0.40698403 0.25212535 -0.2245743 -0.067456156 -0.28151268 0.1927357 -0.07756357 0.1787547 0.19638968 0.005786387 0.06809987 -0.38014942 0.26715174 -0.28390858 -0.37196627 -0.15534125 -0.2363829 0.015935156 -0.21183139 -0.41652283 -0.21854243 0.07278474 0.4248356 -0.22810833 -0.039879277 -0.19018842 0.2861955 -0.059911154 0.25994346 -0.3271944 0.41242418 0.21762507 -0.1451721 0.5069012 0.29134485 -0.2893777 0.6786251 -0.28284425 0.022206647 0.12750188 0.0102417655
45 0.18378194 -0.14408065 0.26362434 0.38039744 -0.05297963 -0.12775311 -0.15010022 -0.46844995 -0.07232753 -0.18167503 0.2535071 0.37473232 0.047181565 0.19140178 -0.20922536 0.048484568 0.24957176 -0.3498546 -0.121973634 -0.13263379 -0.22944883 -0.058454696 0.14626162 0.08574739 -0.04626302 -0.16989367 -0.38556683 -0.31286928 -0.52282083 -0.33350322 -0.33622134 -0.606237 -0.34214765 0.049184974 0.19613087 0.24535766 -0.12452164 0.013882756 0.16296326 -0.13719276 0.46508363 0.15509519 -0.07234066 0.40084797 -0.218504 -0.017605089 -0.03708206 -0.15356132 -0.25924692 -0.008767186 -0.4078146 0.08357388 0.2046867 0.11041037 0.25379992 -0.05834785 0.1952765 -0.24916723 -0.37099183 -0.22813377 -0.2763931 -0.22567163 -0.16168945 -0.0040454976
564 0.12654361 -0.0023080234 0.24475026 -0.110508285 0.2024108 0.037961394 0.06524281 0.15896848 0.030112872 0.034802504 -0.3960024 0.29356456 -0.09162642 -0.00988677 -0.15172929 -0.13774444 -0.17916217 -0.37847808 -0.24512805 -0.04448243 -0.09050967 0.024662625 -0.2404952 0.4128045 0.35785347 -0.21814962 -0.08105464 -0.27191556 0.29181856 0.0048621935 0.081153154 0.1763561 0.10659103 0.17166701 -0.3563602 0.17292008 -0.22525078 -0.46582127 -0.14571585 -0.35354233 0.07207942 -0.27673644 -0.46184176 -0.23394948 0.07068773 0.37189442 -0.11030175 -0.0064382884 -0.14122495 0.2717929 -0.11345133 0.23313504 -0.2756035 0.45525214 0.28289133 -0.060535785 0.47237474 0.28481248 -0.3105238 0.6424769 -0.2902815 -0.08410341 0.10225972 -0.029974869
642 0.051396392 -0.060025085 0.12380851 -0.14205359 0.25163198 0.13499159 -0.002736099 0.1465138 0.073498525 0.105053484 -0.37867236 0.29180068 -0.21744789 0.13999079 -0.34258 -0.1265173 -0.16049856 -0.4941885 -0.2904292 0.063695274 -0.15845811 -0.008811654 -0.28660735 0.31624773 0.35238993 -0.15971331 -0.08273882 -0.04704355 0.36502126 -0.14631331 0.10081566 0.16474319 0.073567994 0.09603162 -0.32578185 0.27597392 -0.31598127 -0.47527328 -0.16036339 -0.33086875 0.09079288 -0.17418098 -0.3386843 -0.20171343 -0.105282545 0.36397776 -0.014367141 0.043585874 -0.120965034 0.17791094 -0.08434757 0.14221312 -0.15130742 0.29836902 0.18861608 -0.07200771 0.4710829 0.35860598 -0.34577617 0.7594908 -0.37513226 -0.031186758 0.14015983 0.07863546
466 0.22431654 -0.15969017 0.2670994 0.36911473 -0.02651294 -0.03726306 -0.15049182 -0.396061 -0.08299239 -0.36649716 0.25362203 0.4040721 0.021277051 0.044624448 -0.2000579 0.1361113 0.15222764 -0.23746894 -0.1034946 -0.050308283 -0.21715896 -0.040494118 0.15225245 0.07265916 -0.015706593 -0.21390846 -0.3377699 -0.27031845 -0.5214857 -0.35033813 -0.3818617 -0.5714129 -0.35301864 -0.0014012472 0.23392625 0.28243887 -0.12542242 -0.039907746 0.24691036 -0.19604827 0.5451504 0.24768052 -0.11423368 0.35769743 -0.15089343 0.015915954 -0.020918246 -0.07759746 -0.32298282 0.004853383 -0.39073488 0.2285669 0.17817888 -0.046921976 0.26412517 -0.012967597 0.21628113 -0.08941456 -0.40435058 -0.31833455 -0.3030982 -0.18474919 -0.15648377 0.018532809
77 0.26155415 -0.10293287 0.18870918 0.48514822 -0.093526736 0.00085706724 -0.047592964 -0.3507163 -0.102229744 -0.24276389 0.26167545 0.3215988 0.0728995 0.032482736 -0.117185906 0.10071048 0.25148848 -0.3282252 -0.1798981 -0.0073052067 -0.27044317 0.031270567 0.080802865 0.09426822 -0.07291932 -0.25655168 -0.3304923 -0.22446999 -0.41257322 -0.38805184 -0.29931474 -0.5368262 -0.310774 0.0017153871 0.1830943 0.27313527 -0.11922295 0.04375064 0.085230164 -0.13244058 0.52002954 0.20196588 -0.0007836462 0.48830697 -0.1328597 -0.0059049097 0.029284531 -0.14934342 -0.28073728 0.090839125 -0.45568484 0.20648684 0.18747802 0.0637798 0.28213337 -0.14868873 0.18636851 -0.24837264 -0.4492725 -0.21343386 -0.2977383 -0.19935508 -0.19157928 -0.07070182
337 0.24650227 -0.0891799 0.2091058 0.44680354 -0.060011394 -0.10453822 -0.16079958 -0.4011029 -0.24706909 -0.2229681 0.26592633 0.37426722 0.11967667 0.08190963 -0.13324092 0.10441676 0.18448915 -0.42280683 -0.19206549 0.0047971243 -0.22009379 -0.014641938 0.13739963 0.05377 0.0150124775 -0.32170495 -0.36258885 -0.21483707 -0.43201402 -0.3828867 -0.2606674 -0.5445715 -0.26697537 0.059606887 0.09409867 0.15598033 -0.054650523 0.08200875 0.124562554 -0.12579885 0.49008152 0.2568781 -0.107960045 0.46601954 -0.10053002 0.012501982 0.05678174 -0.18405882 -0.23132391 0.0074487915 -0.40564185 0.24947356 0.18139118 0.050373122 0.28315336 -0.19187348 0.1872343 -0.31784713 -0.4079828 -0.23995632 -0.33923978 -0.15718628 -0.19896571 -0.014843318
880 0.043405652 -0.0043909675 0.14923698 -0.13243984 0.16815831 0.07197663 0.0068300613 0.15000086 0.033583935 0.09680964 -0.3567452 0.31989604 -0.2005124 0.10572332 -0.28288376 -0.17045715 -0.14584261 -0.41664147 -0.27441585 0.0026581378 -0.12672083 -0.0062306193 -0.25845292 0.31827506 0.3069013 -0.2257603 -0.15485598 -0.19540563 0.2900652 -0.05346811 0.05456314 0.19445641 0.05078509 0.039823517 -0.26055452 0.24694681 -0.3679884 -0.46591237 -0.109156564 -0.33812466 0.06522745 -0.21000262 -0.5086102 -0.2501338 -0.021022808 0.43709028 -0.124178976 -0.053504627 -0.14636287 0.20781627 -0.0760111 0.20191632 -0.23889619 0.3675851 0.17739207 -0.009500786 0.428931 0.3570462 -0.3520717 0.67269844 -0.34930718 0.010145734 0.1938985 -0.012016984
788 0.10011945 0.035325263 0.17572623 -0.24959767 0.24726444 0.05881068 0.025448307 0.094016865 0.05793336 0.12503448 -0.41058767 0.31996164 -0.15209523 -0.015249886 -0.2975827 -0.13692857 -0.08673334 -0.49970952 -0.18067673 -0.010692266 -0.026605811 -0.0491321 -0.21740188 0.38610095 0.317962 -0.18772458 -0.049890194 -0.2655386 0.27574822 -0.053826768 0.027915742 0.21045743 0.075715885 0.13607103 -0.31308553 0.2561903 -0.38583776 -0.3228245 -0.112115346 -0.26419583 0.08716747 -0.31352526 -0.42196193 -0.20740347 0.025312202 0.40627268 -0.15612905 0.024749923 -0.10413085 0.2556309 -0.071830355 0.22019929 -0.23728672 0.4147972 0.16795085 -0.09893816 0.4291391 0.2322173 -0.344514 0.69172466 -0.39606485 0.07235719 0.082183264 -0.03612853
