2000 128
1969 -2.9049404 -3.5254157 3.3761597 0.03942379 -0.74047923 -2.1793482 -3.7750216 4.3441887 5.8168745 -2.2219763 0.78164685 3.2861702 0.022283664 -1.0739187 3.7445788 0.26046324 1.5811725 -0.60290116 5.549386 -5.6112394 -8.571424 0.39187977 5.6575365 3.0038943 -1.2353903 -4.255535 -2.3257277 -1.7701198 1.0424147 0.08395945 -1.7668524 1.2626427 -2.7964923 0.22787969 -5.3368225 -2.1231697 0.06587678 3.1880383 1.5327113 2.1078315 5.1528263 -3.0795949 -1.7922633 -1.7949449 2.8307884 1.2157185 0.6444309 -1.8135872 0.6814298 1.5770009 -4.774957 -1.7148746 0.18039612 1.9350607 5.8271804 -1.6058799 0.22848052 -0.98332053 0.24189627 0.48276684 1.5633087 5.787047 0.7343367 -1.0925788 -2.7216554 4.268021 -3.7282188 2.3890991 2.5544417 -0.8248864 2.7153506 -4.4138966 2.2577767 -4.194462 5.522205 3.420782 -0.47568858 -11.029033 0.366809 -3.7989986 -0.9668886 -3.5687227 -0.11321654 0.5597267 4.1883616 -2.6386333 -2.8695338 -3.101595 2.8353202 1.4632964 -2.298934 -2.4157445 -2.8253436 -6.9638033 0.71971935 -3.8285801 2.979057 -4.358862 2.9836996 -2.1338172 -0.13214111 3.6995234 0.112725556 -2.5096574 -0.24559744 -3.5388896 1.3608189 1.0141262 2.3132937 -2.19775 -9.703451 -3.9807146 -1.279221 4.3562098 4.4367776 6.3198304 0.22012073 3.0452967 -0.89543295 -2.539828 0.35310382 -1.5478368 2.8404324 1.9771585 5.743631 0.9026412 -4.4150057 -6.9528384
686 4.0929346 -6.0590158 1.3821204 0.43923596 5.2251 -7.0601315 3.3248801 0.9913266 1.4455496 4.942713 -0.3610313 -0.094303004 0.39039254 -1.476491 -1.0543245 -0.42634588 3.5730348 -1.9564207 0.0458581 -5.5655813 -3.138958 -7.099017 -0.0010231128 -0.0029616016 1.8885721 3.651538 0.9972325 1.7071487 2.3185804 -3.1326902 -2.6386607 3.1608284 -1.428652 1.4313732 -0.33983806 -2.9959707 -5.556756 -2.3495102 -2.3529787 1.5141573 3.9349012 1.5447423 0.5535411 -0.43120712 -0.41140392 -0.6448994 2.697185 2.1473937 -0.6762313 2.4190187 -0.848569 -0.33495042 2.0965712 -1.4830477 -1.9995131 -2.3914373 -5.0835743 0.29174814 1.2969323 2.2731936 8.00172 0.82424116 2.2870545 1.2746193 -2.090346 -1.4974707 -0.8191785 3.6116223 -5.1137547 0.26158482 -0.8383521 2.5116763 -5.7824607 2.903419 1.8509536 -2.975695 -1.4579222 -1.4320751 -2.469958 -1.250384 -0.009899887 -1.369989 -0.33873764 2.522363 0.07120425 1.4445422 -3.6713076 -0.44669625 -3.0130975 1.0608909 -6.5548105 4.4179344 3.839678 2.1978445 -1.8273355 -3.6325424 1.3485498 8.987271 2.4249175 -2.7827346 0.7558115 -1.8223828 0.70917016 0.64239335 -0.29718038 3.8816102 -1.9178559 -2.5132804 -8.312297 2.849659 5.1038165 0.7711918 1.7683879 -3.9432585 3.1046507 -3.9326632 -8.63136 3.8060157 -3.255083 1.1218612 3.8150733 3.5326836 -0.9523999 -1.8171886 -8.957092 -0.683107 2.3682377 -1.0197725
1160 1.1683145 7.0945263 -1.604335 -2.5960753 1.1107916 5.6202126 0.46989968 -1.3707255 -0.5690044 2.0314622 1.165741 -5.7839003 3.5886407 -0.6160929 -4.466935 -0.90704894 0.6858306 -4.4378324 -3.4784212 3.103854 -1.1237596 -5.9022064 -0.034022424 0.7348755 -2.4444795 -0.27692932 -0.27551815 1.4043026 1.8545197 2.5144129 0.4441733 -3.4992154 -0.43274876 -5.703892 2.4853246 3.5343182 -2.3688447 6.56554 2.0346506 2.542745 2.5942912 4.464257 -1.3310772 -3.6061761 -7.473281 -3.4919012 -4.527103 -3.2938907 3.3567848 1.0867251 0.79354763 -3.5305007 -0.4152195 -2.9347212 -2.9457383 3.4028542 -0.82201767 -1.8613654 1.6597252 -8.579531 -3.712326 -1.4593954 3.8264828 8.388085 3.3310156 1.4689935 -0.53342485 -5.682557 -2.3260355 -0.95621645 -3.4510534 1.648572 4.5640173 -0.41111904 4.1529207 -3.573115 -2.1060026 -0.77149576 5.6532664 0.820449 0.28323504 -3.023617 -4.3927345 -2.0308473 4.3150315 -2.918202 -5.145409 0.053163256 1.2877048 -0.012196236 4.351052 7.6536546 -1.9379122 0.07550676 4.510123 -5.762348 0.22454752 0.099630594 -2.7944136 3.7972393 6.690082 -0.19425006 3.3319764 1.7318407 -1.3030357 -0.744971 -6.965722 3.3656366 3.9505296 -5.0737925 -2.4800613 -2.7344303 0.22686982 -1.2043011 1.533614 0.21694219 1.8619517 -1.4189608 -0.011409716 5.07102 1.1580919 -2.3790472 -0.38055784 -1.0903869 -1.2993339 -0.005810913 -1.1957093 0.50749344
1301 -1.187685 5.209661 -0.23970443 -2.8823633 0.38257322 -1.4810919 -0.14320375 3.1968215 -6.050232 -2.8676567 0.8541418 -1.0337677 -1.4393286 0.33623862 3.9507568 -0.1286937 0.511463 -1.1539433 -5.992948 -3.1176672 -7.463672 -4.471138 1.8101314 -0.34447455 -3.977441 1.0370126 -2.3359346 -1.8052691 -0.9605012 -1.4732347 -0.16295537 -0.69299144 2.8026989 -0.77990323 3.5816252 6.508582 -3.6618278 2.293869 0.71428716 -6.292837 -3.0676098 6.1072464 -4.0113673 0.24938859 -2.4092326 2.4519172 1.2013711 -0.21717156 5.699121 -0.120783255 2.337149 0.57002 4.600754 0.20911264 3.4501617 6.276391 1.0684221 3.4851549 -7.684221 -8.332453 1.3552675 5.6843243 1.6324383 2.947228 -3.3871987 -3.032069 -4.8945003 -2.4693294 -2.306011 3.675813 0.20798136 5.255495 0.51345617 0.8017628 -0.8410355 -4.015441 1.9592129 -3.7336798 1.6951956 -2.3762498 1.1051182 -0.4615635 -2.9626634 -4.8002925 -1.3347776 1.7384485 -1.2991905 -8.92397 1.2054935 -2.689168 -0.3283861 -0.5814901 -5.064041 -1.1912003 2.3917742 -3.6915157 -2.8745966 -0.6332139 -2.0612016 -1.1362716 -1.110442 -1.6396418 -6.3739753 0.6468405 -3.4177136 -0.17254616 -4.2185454 5.3183866 -2.8741596 -1.3785115 2.6582997 0.33013174 2.9579992 2.0177488 0.46880603 5.366637 -5.311829 -2.484285 -1.8342067 0.7509267 -0.11743915 -4.987836 -1.3556249 -0.76017743 -0.65966994 1.8899782 -4.653535 0.5179594
960 4.0695415 2.1237338 -1.3986071 -2.0040834 -4.292485 1.988268 1.050373 -1.0331972 8.68474 8.761367 -3.051286 0.33309174 -1.0209007 -2.5254605 1.5969009 -1.2837971 -1.7498703 5.5389943 -0.23785827 -2.0409179 -1.707601 0.2126266 5.1019015 -0.83435184 5.3843913 1.8141706 6.0557294 2.703415 -0.489082 -0.9868794 -2.1307607 1.1681551 -0.26383764 0.04727771 -2.389688 -4.5103364 -2.0902848 -1.9778736 0.7126705 4.847536 3.5673292 1.8265799 -0.39257056 -0.8676928 2.9169292 -0.5365043 1.7611284 -1.089802 -2.290504 -0.64789826 3.005003 0.2634034 1.8562505 -0.38194293 -2.8289995 2.2195559 -1.6097347 -1.4780973 -1.1975226 0.81780195 3.6069164 -3.5968857 1.7318718 -3.699427 -5.4597435 2.0697074 -5.5402336 1.6419353 -0.5908896 -0.53649414 -3.8504097 3.2993746 -4.0842752 5.9812245 -0.14429705 -2.9336724 -3.1057422 -1.0153017 0.25001496 -3.0197418 -0.3841198 0.19521028 -0.9365946 7.8041053 0.078884535 0.29639074 -6.083647 1.3758069 -2.1751053 3.0747702 5.684813 -0.43519616 2.4604132 1.6993299 -5.111409 -1.7189094 2.8691528 0.11528682 1.4568042 -1.2366253 2.31821 -3.710929 3.8314633 1.124592 -0.83751005 -1.8652142 -0.9914421 -6.608017 -3.3603108 3.748275 0.44118124 -0.8194386 -1.8949206 -3.6681676 0.31792554 2.3849256 -7.7213984 -1.2034714 -4.7281823 0.10081788 2.416258 -4.513824 -1.2194234 -1.9116932 -6.895653 -2.8122277 0.90309215 -2.7206008
192 1.177157 -1.2232026 -1.5042555 -5.7748604 5.968284 1.3088994 4.026243 -6.228636 0.33914834 -2.004804 -0.626453 -5.4803276 -4.0965347 0.8625723 -2.2077498 4.5621033 -2.437692 -1.1309097 1.1367093 1.7815185 1.4783386 -3.244327 1.2354867 -4.0037246 6.5333996 -2.634335 1.7309904 -1.7981775 -3.9635313 0.6323714 -9.354475 -4.329352 -0.32188475 4.352158 -0.940079 2.6539197 0.7271465 -2.1053371 3.8721693 -1.0775721 4.466823 1.5877432 2.2841866 2.1410332 4.425241 2.138516 0.47830147 -0.5206479 -1.0107826 -0.51452565 -0.31970236 4.806991 -3.610329 -6.3263845 -4.565222 3.944391 -0.07022223 -1.7224482 3.3573627 0.2012653 -0.09291149 3.6519897 -3.277463 -0.7609629 -3.3928196 3.2605677 0.12133608 -0.3367122 5.304558 -2.2550325 -1.6239759 0.4677472 0.40064636 -4.0378294 -0.5201812 2.2973218 7.2321 5.8119435 6.9207087 0.07140491 -1.1420681 -5.7157736 4.942453 0.20066902 0.41721132 3.0013635 2.8787696 -3.4610443 0.64978516 2.447265 -1.5024437 3.6818178 -3.4687746 -2.3853605 5.092134 5.361683 -1.5472844 -0.41983706 -4.3381987 -0.9863369 -3.8658996 1.780971 3.7997022 -1.913458 -3.371777 -6.4545903 0.14617178 2.574125 0.8383654 -5.557963 1.5370042 -3.3279896 0.21531317 -3.6107423 -3.7948525 2.1882339 -4.1688237 -6.990269 -0.70957 -1.2289218 1.9678913 3.1567883 1.4571302 3.8450594 2.514279 -5.7970505 3.2653024 -1.1011941
566 -0.36288205 -1.2801155 -6.693986 -1.1716968 0.4602853 -2.689641 -2.0964596 1.7960895 4.0394273 0.5909049 -5.729149 0.38714275 -1.5016786 2.681606 0.13148327 -2.1668205 -0.43932495 2.4348536 1.5161691 1.5216271 2.4210215 2.8461282 -7.7041025 1.0301983 -0.39502263 0.5537938 -6.3363156 -3.2523105 2.442128 -3.0514913 -1.8320267 0.6293038 3.285717 0.018548172 -4.542104 3.5257485 -1.671179 -7.1855354 -4.078961 1.0076169 -1.8307536 -4.591569 -2.7336018 -2.3009753 -1.384844 -1.9748925 -0.6158843 0.88054436 1.9334611 6.721852 3.5740433 -0.36169374 0.4363868 -2.646396 -4.3631616 3.417512 2.1088133 2.8092163 -5.208529 3.3504827 -3.4164894 -4.070205 -7.563496 -1.4081818 0.5658255 -3.894456 1.9416362 1.7029387 2.4243324 -4.1351056 -4.9680185 -5.4684873 1.8276765 1.249003 -0.38580626 -1.9596561 -0.9612193 10.664301 -2.425265 2.76459 2.826553 2.894869 -1.2928007 -2.6545215 0.38940808 -3.8483613 8.003774 2.491202 4.6167603 -1.399209 0.2121601 1.333539 2.2649696 4.2305517 2.7576344 1.8138831 -0.44940725 -2.3357592 -6.2868967 -0.64912856 0.62223166 -1.6203022 -5.6628165 -2.5696788 -0.8800005 -1.1663346 2.3153627 -2.297814 -1.4290061 -1.7390983 -2.3312027 -0.36711565 2.129944 -6.9573765 -1.2631679 -1.5932755 2.5810845 4.4908266 1.0598066 1.8504989 5.2899814 4.567842 2.7895882 -0.40802756 -0.14946017 -1.4812675 1.7497613 -3.7572324
78 1.5969845 1.239803 5.8830185 0.16483885 0.64760137 2.299883 4.114314 3.205254 -4.8926883 -1.3706264 5.2367725 4.1860547 2.713346 -3.490894 2.4585452 2.5222316 3.6256788 -3.4392326 -3.2764397 3.764976 -0.36318508 1.2476779 3.2052076 -1.0944159 -1.0397395 -3.510133 -2.3274739 -5.3043838 7.367724 -3.8816001 5.134726 -2.3714347 -7.2483954 1.9446727 0.81317765 1.2945218 1.8346364 -3.8573215 0.07369725 1.1932439 1.7178458 0.14432175 0.08170363 -0.8796456 -0.29173976 -0.8868714 4.601982 -5.5620556 -2.3502553 -2.481006 -1.2511524 4.017673 -3.8438463 -7.7039332 -0.9295867 -2.2060752 0.18653865 -3.1555493 0.8676338 0.5341693 -0.54836553 6.5360737 -0.61096954 -2.1603253 -4.4483423 6.3246274 4.8472643 2.40268 -5.869808 -1.7008328 -0.8634303 -1.7619655 -0.37011507 -5.4959307 0.9270519 -2.3381321 1.7462249 -3.0799484 -4.3757634 4.971523 -3.8181686 -1.7158769 0.0011799791 -3.7046542 4.2725415 0.6415855 -1.0792361 2.4333029 4.2482567 4.2830834 -2.807133 -1.3049799 0.85998553 4.189119 -1.2977335 -0.48454607 0.5307512 -4.6331596 -3.8921323 -2.3608968 -2.1379015 0.14522316 4.048671 2.1714833 -1.814753 -0.31884956 0.4120001 -0.8875381 -2.8872912 3.5534093 -4.304513 -4.929826 -4.0574026 2.8408678 1.8121967 5.209932 -4.929177 0.7444241 -3.0077198 2.8307076 0.12054593 -6.1999006 -0.8533217 2.9476635 -0.8945051 -5.5812473 1.7778584 -0.7087933
781 -3.1368513 0.49400836 1.3292694 4.041741 0.6618366 2.490893 -0.18484578 -3.7401257 -0.81181794 3.3589067 1.3104906 1.9597144 -0.7201031 1.6004065 -0.48145178 -2.3928885 0.046466287 -1.9108471 2.5359092 10.753498 1.4554758 -0.20948862 -3.0264966 3.1877882 -0.25023198 7.1038547 0.40628713 -1.6286991 1.8466556 0.46940607 -3.386417 -1.3489206 -0.5222514 3.6208508 3.6278086 -0.42323554 -3.6857874 1.6309797 -0.56663316 1.0891131 0.98091894 0.93324184 -1.1641232 -0.90811765 -9.816789 6.1266828 0.09989772 -0.17670543 2.9818323 -0.49808225 -3.4168167 -5.219023 2.2697587 -0.038123254 3.1626208 1.9548463 1.4447898 0.96614116 -2.3427625 -6.8429875 4.5871625 -7.444825 -2.2632844 4.132977 -1.2028768 2.4687452 -3.9893887 -4.377428 -0.7831216 0.8998267 -5.252443 -0.8613692 5.8294654 4.0878887 -4.069839 -1.7190424 -1.3878297 -2.6385777 2.4572375 -1.3537645 4.6670575 1.4590588 -9.999108 -5.2187657 1.792042 -1.5817741 -3.2049706 1.6994363 1.9264364 -1.860486 -2.2458627 1.8244178 -1.2585752 -0.73748964 1.7745286 -1.7729615 -1.174915 5.314971 3.1922238 3.1757731 1.8698746 -1.8564835 2.8497455 3.6282654 -2.2933788 -7.2774673 -1.99239 -0.10395045 0.78819525 -0.76070964 -3.8135958 -0.18530898 -1.7011863 2.2016175 3.5199375 -1.0532957 -1.6351678 -2.011883 -2.9243057 1.3965282 -3.9254372 -3.5317295 2.4773357 0.04146625 -0.7676596 -1.3934885 -4.7845216 2.069522
1526 -7.4842052 -1.4591513 -6.347208 -2.4688573 -1.5828166 -1.1834842 0.47300684 1.5143775 -1.7195276 -0.5669695 -0.7477469 3.3438592 0.87753356 1.1733758 2.0284674 1.8669817 1.675024 1.7333664 -3.2698355 -6.36334 0.1498301 2.088746 -3.0989563 3.0246437 -0.30255795 3.7620788 -0.6288273 5.4351077 1.6256518 -0.9389855 2.5076296 -1.1960344 3.9005086 -3.3658955 5.8205757 0.4946995 3.522284 2.658303 -4.7547517 -0.22300178 0.8845014 -3.840004 3.9707212 -1.0027381 -2.5133383 -2.5575047 -0.49489594 2.0818706 1.6032209 1.2790251 -1.3973885 0.56369936 2.427555 -2.4286535 -4.855284 0.60390294 -1.0573199 -3.6493294 -2.1330733 0.93305564 3.8680108 6.0571604 0.82860774 -7.491708 -0.0017787981 2.54437 0.1746219 -0.81663936 -0.3743845 0.28737944 4.6094337 1.9076233 3.9638102 -1.2241901 1.2286642 -3.137471 -0.7198158 -3.5510006 5.8464894 4.78986 1.1456071 1.8733232 -2.8796823 -1.1601772 -4.2906055 -6.119812 1.004508 1.911129 2.166087 -2.0952947 -2.5122552 -0.4464126 -1.5805354 0.26760012 1.9400481 2.8322132 0.8307974 3.7981114 9.885751 -1.4881369 -4.95224 1.7072139 -9.180861 -0.46048203 8.967285 -1.4157394 -2.7360353 -0.54527044 4.0745115 4.4998555 -1.0331607 -2.8146021 -2.1318698 -0.1118236 3.8934605 -0.6792728 4.0221996 1.2977185 -2.8476596 -2.1263678 -2.6540306 -2.5402992 -2.77921 2.2911062 -2.2530649 4.6443567 1.1998231 0.8060795
1211 5.2921557 -0.7188637 -3.1561992 -4.9402027 -1.2749861 -0.91905 1.4346871 0.43310243 1.613627 5.8779306 0.5369524 -2.1637194 -0.22425072 -4.012266 -0.3174811 0.52147865 1.9899344 5.026974 1.1482137 -1.0941374 -9.831115 -6.532981 6.5778236 1.0009264 3.5338953 -0.13257317 3.7012517 4.4872437 2.464279 0.107122645 -4.746913 6.310803 -3.2972755 1.051573 2.9105546 -5.257281 -5.8400707 4.805029 -0.33573014 0.8965713 6.776579 -1.3073729 4.891559 -1.419458 2.7762303 -0.03258191 1.4708781 -0.024270121 0.60278684 3.9967344 4.8004627 -1.1448699 -0.4409236 7.4673862 -0.339282 -1.6368225 1.2508698 2.36401 -1.4437922 0.623019 0.28504658 -1.1112944 -1.6347704 -2.8845956 -1.7868079 1.733251 0.84492385 0.26517978 -1.8775309 -1.2502458 -2.5379117 -0.2147345 -4.0426702 1.7969444 -1.5648942 -0.7970883 -0.9422486 0.02971138 -3.9571059 -1.4721303 -1.9741231 0.6391604 4.660542 5.603796 0.783358 3.6479661 1.8926725 0.879173 -1.5346 2.3296058 2.7518551 -4.467027 3.8958886 -3.8078883 -8.355945 2.0445275 -2.3652608 3.9433308 1.9799341 -0.70303196 1.5692697 3.482397 1.1253104 2.5799131 2.9001915 6.189631 2.2761211 -1.4598683 0.838446 2.0413337 -0.7511596 2.5871422 -2.6631837 -4.004963 -4.2825317 1.1407343 -4.6487813 -2.1557293 -4.0262237 -2.319103 3.6236002 -1.0793029 1.4168402 -0.08591016 -4.7273755 -2.7254927 -2.221665 -2.7495701
169 -2.1038463 -3.7962282 4.114327 4.054381 -0.49186057 1.3129705 -3.48213 -1.2872341 -1.3321205 3.3673024 0.18781088 -0.54709077 -0.42616707 1.8596002 -0.75282425 1.7859192 -0.9336393 -3.6070077 1.4893197 -2.950897 -3.825997 -0.9118431 -3.778476 1.438551 -2.8259172 -1.2656889 4.487927 1.2201912 2.4348383 -0.31633037 0.32089865 4.0434933 1.2070493 -1.9113891 2.7831979 -7.732876 -0.5425158 -2.2155802 -1.7665014 1.447989 0.5207652 0.8197065 0.25873137 -0.00062753697 -0.13317592 -2.8573768 -0.27960005 -1.6958944 -5.9430285 3.2436345 3.381632 -0.09125901 1.7860749 4.4963617 -3.9517498 -0.7849339 1.229178 -2.990374 1.3721551 -3.8795257 -0.6011385 -2.939189 -0.115304865 -3.2172256 -2.6854384 -0.24577338 -3.488676 -4.7681265 -1.0483844 -5.0491886 -0.44201812 1.821789 -0.7647399 -0.6352097 -1.1018854 -0.042363945 -1.09506 1.4507565 0.493712 -3.2148247 4.9883084 0.6969352 0.23919259 4.2710285 0.6891988 -0.2947873 -2.8742042 1.2129183 -0.84737074 3.95337 1.2603289 -0.9198535 3.247348 1.3459136 0.27259147 5.0234957 6.104951 0.9825925 1.1332536 5.6686115 3.0926154 4.9048266 1.5617539 2.659407 2.2929306 -0.7304403 4.0772014 2.6172986 -3.4643574 5.3981752 4.199379 -3.2541776 0.91032165 -6.3202314 2.9515831 3.498419 -6.4823613 -6.5857334 3.6174567 -2.775936 6.580025 -0.8449965 2.3929262 -0.4400748 -1.8070986 -6.2662024 3.2462802 -3.401544
899 2.2902694 3.7590997 0.23438257 -0.53188056 -0.9380366 -1.8528655 -1.4064598 0.17689995 2.1933787 6.9465246 3.2031848 1.6030384 6.4873857 -2.6692626 -2.359357 -3.8800938 -5.3513207 -2.4902544 -2.487014 -5.8182244 0.1359707 0.6283563 -0.5299933 1.9237039 0.7202427 1.4037168 3.4178543 0.0831337 0.77746207 -1.426877 -2.0991032 -2.0413668 -2.0552402 -0.5606211 -0.6783171 1.6121532 -2.1008036 -1.1557006 -3.3774555 2.930224 5.012575 0.07843645 -0.100753315 5.0269456 4.6359076 4.1965547 -3.368732 2.2144241 -1.4280785 -1.8114036 0.3917306 -2.6237156 3.526839 0.67510027 0.603766 -4.1852107 2.705835 0.740263 -5.1619663 -0.6244744 2.4860704 -0.29142976 0.13901278 -6.969708 -2.6856883 -1.867218 -2.9352908 3.6678493 0.09599478 -3.2472365 -2.2616696 2.1910517 -1.5228848 0.968197 -0.05888154 -2.4163666 -7.4367723 1.1537288 -1.5665519 -1.6534295 7.1599956 -1.1583992 3.3630633 -1.1243719 1.7202314 -1.1876593 5.843473 0.6760352 -0.30291873 1.7657989 -5.5102835 -0.41480526 -3.3745208 -0.9715261 -0.739418 2.8933911 -1.6449519 4.616506 2.5444639 1.1043849 -2.731419 -0.061672397 3.5277314 7.023038 2.0612488 3.763483 -4.35353 -2.3181798 -0.5817022 -0.18682396 -0.7878076 -7.354979 -1.3788947 -0.11859576 -2.6208174 -5.5168443 -8.534284 -0.6936361 -0.067516536 -4.390796 1.3701767 -0.05124013 3.4392498 0.37933126 0.7881414 -4.9188523 -0.20352125 0.43110073
87 -8.860948 0.5629636 -0.053026006 -3.271467 -0.7865774 -2.6237938 9.872812 -5.9944587 3.531812 5.1970515 -1.4808632 1.2357053 1.679064 -5.4008083 0.62995267 -0.69086075 1.8482312 2.5729127 -1.958252 -1.9392879 -0.75955516 -0.6936957 -3.7544236 2.3654556 1.0254217 -1.5762994 3.6862664 0.46410868 -1.3088346 -3.2635043 1.39948 2.4478548 4.0240536 1.1107297 2.8528514 0.31269136 1.2791744 2.5978744 4.999849 0.36887857 0.4731103 -2.5394106 1.4959946 2.3074913 -2.2988615 -3.367959 -2.575765 -5.6005826 -0.2361584 2.767974 -1.1352721 -0.23615465 -0.720202 3.3133879 -1.5901034 1.9420145 -1.2994808 -3.4536824 0.5906944 -0.12115004 -0.16914667 1.4130675 4.495032 -5.004902 6.3204894 3.441212 -2.4822505 2.200659 -1.5581927 2.4542027 2.36988 3.9408767 -2.150497 0.1921026 1.1962863 -1.2127331 -1.8963867 -1.6221602 -5.236291 4.101563 -2.2008998 5.4643645 0.91723686 -3.5245166 -4.7994843 -4.5593357 -1.6542871 -4.099997 -1.4542695 1.6407984 2.8842077 0.6599818 1.828531 0.9645222 0.6935236 0.7353876 -2.486723 -0.7703211 2.987235 2.484597 -7.151882 0.3272735 2.3910093 0.17621851 10.965004 -2.6725907 -3.036439 -1.0255672 3.7088234 1.7164403 3.6471941 3.337257 -2.332093 0.16012268 5.494698 -6.301401 -2.0969024 -2.1471791 2.7215383 6.048215 -4.8804703 -0.44485593 0.4390414 -2.3322983 3.1164432 -1.7331868 -0.25825492 5.5908723
1931 -6.674375 -3.96804 -0.8935852 -2.755858 2.011486 -1.7167966 1.8391061 -1.130006 2.2908463 0.6920094 0.2898103 3.1662576 -0.1368914 -5.609348 -0.84201473 -1.9752196 -1.4876012 -1.6095711 -1.8190868 -2.105086 0.44880012 0.30269483 -6.2645364 8.073712 1.2676041 -2.7411618 3.9033337 -0.3475605 -6.5188 -2.1462195 -0.6942274 1.1898147 6.8927183 0.31597045 5.0836167 0.5778063 3.1041543 0.6382709 5.352594 0.97888076 2.9409146 -4.8825407 3.4430346 3.6669357 2.5061145 -6.8528605 1.8548461 1.3064663 -2.7832112 -3.4689457 -5.8305964 -0.28414103 -0.62297106 0.7186186 -3.5610442 1.1316314 -3.2784123 -1.7544947 -0.30556238 -0.8872852 -0.23662728 5.0522695 -2.5527263 -4.2607994 2.6335917 2.219494 -2.5417285 2.006436 -5.167817 -1.829437 1.0197302 -0.29513133 1.5938026 1.8515183 -1.1279669 -1.859172 1.83777 1.1049215 2.8036315 3.6429899 3.3784933 2.491077 -1.6211742 -3.216309 -1.7771974 3.4663262 -1.4869493 -0.6264434 -3.2781522 2.1342082 1.4612889 -1.2647802 -4.69519 5.3116055 -1.8618495 -2.107805 -4.5654726 0.8628635 -3.6298468 -2.0014544 -0.35308897 6.080311 -7.5982924 -3.666134 3.6299043 1.4985765 -2.4574916 5.578074 4.6648717 0.8154302 1.3762873 0.35540438 -3.2298958 1.9071722 1.3669558 -7.346468 -2.2613153 0.31892818 -2.9769106 4.9495606 -2.209565 -4.392342 5.41903 4.7731767 1.8329391 -1.9190948 -3.8859127 -1.2775627
845 -1.7114872 -3.3231504 -2.8264992 2.9791412 1.4076307 -2.5479293 -5.5523763 7.5744467 2.8472953 -2.6731782 0.50027925 6.0927896 -2.0809944 3.6077747 0.45234075 1.1484374 3.1721392 -2.0283654 3.7019482 3.7463973 2.6495957 -1.4437217 -2.0573325 -1.0957397 1.7337259 0.42308447 -1.2912301 -4.967356 -5.0665255 -1.9592003 1.4412516 7.1042767 0.8277533 -3.1024013 -4.9316835 1.7375896 2.6808465 -5.7424703 4.0977354 -3.1471164 -2.7741804 -3.5316317 -1.0220513 -1.3110237 2.901809 2.7412214 2.0984282 -2.1053708 0.7085771 -0.35408217 -0.15051953 -2.2299836 4.593545 -2.3537164 -2.9669168 3.235803 3.1151576 4.2966905 1.7513416 -4.218223 2.753084 -0.9705416 2.3473127 2.6851478 -1.218851 0.13448477 3.1217263 6.60643 7.434915 0.32624882 -2.4909737 -7.6575866 4.0371566 0.51122457 5.7326336 2.0743144 2.1361094 2.1567035 -8.406025 -2.3912919 0.53572476 -0.63083416 -0.8464574 -2.58454 5.2411838 -2.768087 5.6002116 -2.525258 0.6461268 -2.34481 -0.75599307 2.8583484 -1.8171383 2.0126357 2.0104752 4.017059 -0.8369048 5.144476 -4.579156 -2.9160936 -1.9217317 0.26352355 1.5137146 -2.5981734 1.6443096 2.7983603 -1.0127 -1.1997821 0.82860565 3.6772728 0.09070513 -0.18422477 -2.60386 -5.0475774 -3.199703 -1.6218824 -0.9440977 4.8774867 3.8188033 -0.14911228 3.185256 1.1382431 0.03371293 -4.685792 4.9777355 -3.0503378 0.32622895 -2.720299
352 1.5962858 -1.2671782 -1.3803762 0.24679914 0.9906477 -2.1186237 -0.1321449 -1.1280066 2.0629203 4.516818 -1.4124097 -1.3437793 -0.99311775 -3.2764766 -1.4320031 -1.8428634 4.1373005 0.725287 -0.11243555 6.5626774 1.8951044 -3.0839067 -2.9173038 -0.36866105 2.17536 5.696686 2.9369695 1.5782311 2.1857452 -8.122918 4.639664 -1.7010095 -0.62955314 -0.078884564 0.074720584 1.3567117 -0.159123 3.742604 -3.087242 3.5943172 0.24537277 4.115417 -0.92450714 3.0787632 -2.4313211 3.3212984 4.597644 -6.757189 5.7484 -1.8680141 -0.7144868 1.1029658 -0.7354599 0.8246251 4.4636545 -4.92516 -0.30552894 -2.5042732 -3.3892727 1.4827625 0.25748593 4.936518 -6.5852046 0.24314298 -2.4530957 6.1399107 1.8814114 3.9466858 -4.758753 1.418402 -5.812972 1.8991112 -1.4963042 -1.2074004 -3.9255478 2.1521964 -0.7154453 0.5959206 -2.2567368 -0.6432576 -4.6603785 -3.8248682 -0.60625863 4.873445 5.658907 1.6706792 2.2699215 1.4389164 6.1477 4.1408796 0.18618225 -4.6086736 3.5926106 -2.6698763 -0.42380646 -2.2162387 2.7825317 -0.41640216 -8.396337 -2.276933 -3.7187438 2.042763 -0.9329786 2.520011 3.6562326 -1.9539585 0.8953408 -0.17077243 0.050061468 0.92124885 2.8254163 0.7678318 5.4685373 4.6484513 -0.8472571 1.3690462 0.62318695 1.4258704 3.09759 -2.465133 2.9327486 -5.4346614 -1.5876266 3.0018454 4.2847095 9.852892 1.9035829 0.4318299
718 -0.5289387 -1.5382813 -6.2055264 -0.45362413 -0.73411417 3.3099866 -2.4784813 -0.17301995 2.3565469 1.0513014 4.367744 -9.123112 0.61186874 -3.645773 -3.7300305 -0.9305734 -7.5653844 -1.4447583 1.4708288 -2.253447 4.271198 -2.3571064 4.9108543 3.8507857 1.024706 -0.79260606 3.797399 2.8746004 2.9802318 -1.1139835 3.3633502 -1.7018512 4.1314373 -3.9490066 -3.5373824 -1.366903 0.2593563 4.7381063 0.46904105 -4.4190903 -0.36503357 -1.0146711 -0.4216317 -2.2223058 1.7678907 -0.5773411 1.9039528 -3.8090897 2.0954316 -5.6009927 -3.8214533 5.8754797 1.2368398 0.36374363 -2.0669193 -5.1625905 -3.8192487 -0.79460824 2.1250594 0.039282333 -1.82183 0.49164155 1.7712425 -6.3820496 -4.8864665 -1.3598107 6.534506 -4.329953 7.8835106 7.0505605 -3.2688148 4.486553 1.7142549 1.1668652 -0.027360829 -0.281506 1.627209 -1.1922772 2.2734964 0.5984444 1.3180927 0.3209224 -4.696191 0.46311918 -3.2371418 0.18861315 -3.5885286 1.8268781 -4.131429 -8.271697 1.2121955 -4.5187006 3.6537297 -3.7257347 -5.3204365 4.612163 -1.2107668 -1.3745713 -6.1858463 -0.47800535 -5.772185 -1.1002345 3.7201788 6.224529 -4.786623 0.8796226 5.758295 -0.748519 -0.5915842 -2.8879647 -3.0528824 -0.14666413 -0.24100932 4.624753 3.8030055 2.2466671 5.443806 2.9125946 -1.1177129 -5.489223 5.4633307 -3.6267526 -4.224701 1.7977035 5.1691556 1.1502002 4.975065 -0.1261065
732 3.2796748 -4.403073 -0.10114369 0.6715832 -1.7679496 -4.7642694 -2.7346528 -5.6677065 -3.170238 -10.660983 -1.2761703 0.6346741 4.5020695 -5.2390523 -5.212113 -0.99411786 -2.2103698 0.11935979 -2.6215107 -1.8806533 4.183802 3.9287968 -0.294709 -4.6632476 0.06887081 3.821299 3.578505 -1.1008983 1.2394903 5.1335964 0.17302836 0.628481 -0.4848389 -6.4595604 1.5453041 -2.630862 -0.33926708 3.827062 -4.0912986 0.5682639 0.7843072 0.02769315 4.346402 6.3107467 -0.28383836 1.8143262 0.32639027 4.1557097 6.425179 -0.6446512 0.44735473 3.887966 2.174325 0.82258415 -2.13271 5.100194 0.06961432 -0.6511562 -1.587433 -0.17993219 -3.91562 1.3149335 4.062195 2.3294218 0.76514006 -0.21574783 -2.2020652 -0.4101126 -1.0415303 2.7269359 3.4402592 0.5912077 -5.8901367 4.608582 -1.2706343 3.7361948 -3.9982843 0.6869472 3.0847783 -6.125684 1.0017633 -6.14061 -0.23479794 3.760231 -6.1932096 -2.1326447 -4.078981 -2.3529942 0.10961353 1.6831484 0.50110584 4.6686087 -2.7276907 6.000694 1.6352484 2.6196582 4.122755 -4.5193014 -0.9937109 -2.1810105 -0.7205187 2.2273154 4.3859262 4.9183483 -1.1812028 -1.022436 4.9572506 0.48105925 -1.7321111 0.98947984 -2.9596114 2.5420735 4.180643 1.5011837 -1.4137324 -0.5281922 4.144786 5.4809914 3.8290763 -2.929215 -2.3362806 1.4366173 5.8310966 -1.4905052 2.073093 1.6532049 -0.99813706 6.4648347
1303 -2.2012649 -0.33503607 0.77664334 -1.1608863 0.48179093 -2.7327716 -0.90832794 3.1201057 1.4457422 -0.9317115 -0.4549014 -0.19414273 7.3716755 -1.0235887 6.1401477 0.22722283 -2.282436 3.99592 1.6468112 -1.9038618 -4.2602286 5.839401 2.9292014 -0.3895961 -3.257477 2.2387168 -1.3108969 -2.277348 -4.394388 3.0213728 -1.4029835 2.0253363 4.756762 -3.304726 -5.324037 -2.2908654 4.7153945 0.28465024 0.2823456 -0.41731834 -3.1471646 -2.125073 -1.3866029 -9.495479 2.2267852 -4.1902723 5.55893 2.6080523 0.7860076 6.76926 -2.7001276 -1.556493 0.38910767 -3.4202042 2.727945 -0.18581924 1.7228974 -3.4832494 8.770175 -1.7662284 -0.6459451 0.06707589 -4.084123 -2.7905571 -3.25935 -2.680325 -3.883167 5.216536 -2.2717624 -3.2631328 5.031872 0.7260936 -0.8683318 -1.2867516 -1.3874075 -0.37411782 2.6033916 -5.9624863 -0.32262734 -1.5968201 0.3351259 -2.8826733 -1.1894205 1.5363678 0.24528685 -4.820552 2.9330196 -0.69945574 -2.8805273 0.92656624 0.22639135 0.7392681 -0.11478219 -0.74637276 -2.8690271 2.9728785 6.509016 7.5134177 -1.7820882 3.3142555 -0.35994807 2.8297217 6.9358964 -5.246233 -3.51011 -1.3673625 1.310344 0.89252466 1.5921642 -1.774777 -1.733852 -1.4559172 2.106663 8.146237 5.611359 2.1139486 -1.3783866 -0.17468397 -3.5804615 -2.9367461 -6.902707 4.1614494 0.60802805 1.5847048 2.2343009 0.015574075 -6.7087865 -0.46036136
957 7.7270913 0.3341877 -1.110558 4.2152896 -1.7881483 1.1379168 -0.5973688 1.998778 4.8365054 2.2176518 -0.4306535 5.3146267 -9.915542 -3.8935013 -1.8465141 -0.849583 -8.078275 4.6872478 1.6483896 3.032798 3.0732026 0.026279282 0.68856317 -2.6536245 -5.3810296 5.750406 2.424027 -4.056489 -2.6099741 -0.51681256 3.603077 -5.478144 5.4991064 3.2029412 -3.1482756 2.8956819 3.1265821 0.63038623 -4.481963 0.1262945 1.062744 3.4608395 -5.271834 0.02698292 -4.687727 -2.734 -0.9082943 -0.8664019 -0.8148202 1.792132 -2.3920004 2.236499 -0.10383195 -0.6265924 1.3700445 -0.1105112 -3.5927546 -2.811719 -2.8191233 2.9794817 -1.040458 2.698978 -4.8669333 1.6970595 3.66141 -3.9427161 4.910748 -7.9885397 5.0888743 0.9107355 -4.1480823 4.820716 -4.2669587 0.559366 5.2559056 1.5488391 1.2092375 0.8292269 0.8593657 -0.28468123 4.763482 4.2052336 1.9751107 3.742836 -2.122631 -3.6724832 -3.389293 -3.4887624 0.26504698 0.19176029 0.6979998 2.8437145 -2.142911 -5.743294 -2.1817534 1.6091455 3.9708462 -4.2328835 -7.001196 3.4797046 -2.9382372 -2.7081678 -2.4386442 -0.15946846 -2.225896 -4.2585588 -1.4407715 2.9383261 -0.023632452 -1.232031 5.3876796 0.1079646 -3.3866537 -1.4632862 -1.7242991 0.38949412 5.101622 1.5554066 -4.802486 -1.0393498 1.7691967 1.5091343 1.140242 4.374027 -5.9918027 -1.4285984 -1.1791415 -1.4472995
1684 4.293015 -3.3200226 -3.9108183 -2.600636 0.093108 -4.695989 -3.6639776 -1.0565815 0.06977957 2.1009302 7.3569255 1.1914155 -7.4437222 -7.5738616 0.25738448 0.91251516 -4.963041 -1.3999504 2.3767 3.848546 0.7368203 -3.8149498 6.639012 1.3509574 -2.061882 1.9484417 -1.5258561 1.1470314 0.2775783 -6.3311596 2.4371667 -7.5926075 3.315795 1.4667656 -3.1091943 -1.9420584 0.09896651 5.224928 2.5299408 -0.4879774 3.0879662 -2.784634 -1.063099 -0.10672744 0.6879529 -2.2091062 2.6238983 1.8690941 2.834802 -0.33014354 0.32077703 5.843119 2.3392923 1.0891114 -1.3946749 -6.1225586 0.34910893 -1.897875 -1.7893788 6.450942 0.29885066 0.06472026 -2.249502 -0.9968981 2.6735759 2.6098943 4.138273 -1.1740743 1.5113561 0.31198043 -2.5369492 2.8856888 -3.342239 3.406443 1.2480037 4.826938 0.42165112 1.7953346 -7.4620414 -3.0351932 -4.4898443 -0.55095834 -1.5419202 -1.046201 -0.71686435 -1.419069 4.1504974 -3.3758056 -1.648218 -2.215772 1.2842337 2.7097173 -0.3846409 2.03452 0.8696086 -4.226015 -1.9394274 -1.0334234 -0.581853 -0.8639948 -1.7639854 -3.3837621 -0.8865932 2.4265542 -6.417258 0.32369417 2.6712742 0.92759436 -4.851118 -1.2808547 2.6789343 -1.4603014 1.2049221 2.536662 2.7442925 -1.7876693 1.7239181 3.2866766 -1.2061975 0.14976701 2.519376 -5.938358 1.8596535 4.2020583 1.5936408 -0.018813627 3.0897124 7.513982
387 0.25237402 -1.1513457 -0.21413822 6.256262 -1.2418747 3.579038 -1.5042456 -2.479679 1.3567041 -3.3527389 -2.6981442 0.42287013 -2.863108 -3.2567601 2.8285325 3.8353784 0.43422285 -0.6142898 -1.0134425 3.7497818 3.2669957 -3.4353583 3.6775784 -6.043832 -1.826343 0.18494168 -0.83446884 7.7122183 -0.39155963 -3.4790926 0.25352353 -3.2595255 -0.3133504 -4.572977 -1.7503833 3.573503 -2.669927 6.258437 -1.383096 2.1282997 -0.80003977 0.46391287 -4.386794 0.43955442 -1.9859097 -1.1723241 0.94515175 -4.334571 4.960851 0.20203638 -2.3912585 5.000425 2.7557983 -0.8242274 3.2785325 0.37145457 0.12947103 -0.5506584 1.2583282 0.7196078 -14.353367 2.2654014 0.09247182 -3.6947968 1.2540232 0.9744777 0.8787098 -2.5214388 2.310296 1.8098103 -1.856191 2.1337082 -0.9977006 3.2676585 2.6490011 5.1527624 1.3500031 -6.1912456 -1.3646231 1.3180194 3.0993183 2.5262723 7.523987 2.6967769 2.4665947 1.2224876 -0.76341975 -2.1201346 -0.5536399 -3.3989506 -0.03802669 0.3984066 -2.7318683 -1.9156071 1.2153953 -5.7254324 -1.8677858 -4.352518 3.60246 1.480109 -7.0305524 -0.686486 3.3917503 2.690161 0.8875415 0.6626169 -1.845163 -7.589943 -6.4001913 5.803885 1.3508826 1.5190387 0.31546223 -5.6702833 2.3339162 -0.103753835 0.90957576 0.122400254 1.3835343 -7.743101 0.21305172 2.299141 -0.2097921 2.6695905 0.026814595 0.4401133 -2.3013215 3.9002964
1709 4.1996937 -1.1283928 -1.3473052 -1.6227435 -1.65438 -3.4315624 -0.71822435 -1.3149949 -1.97735 1.2706035 1.5773926 -1.738132 -3.3659506 3.9235206 3.020907 -3.8308928 -5.5424128 3.51335 4.8969026 -1.341809 -0.26110974 2.5854123 0.7792134 -0.096187584 1.4750063 -0.1583141 0.39827704 0.9890239 0.7560963 1.3603021 -6.841448 4.070809 4.1185975 -0.4480772 -7.656745 7.0663548 2.3081367 -1.0697643 4.8386793 2.790354 1.3157728 -2.4687119 2.0981185 1.1137995 0.07057932 5.136061 2.8599083 5.475114 6.581604 1.6688579 -2.1580894 5.05116 -0.10217855 1.3906612 5.158104 -2.2271733 0.11071888 -2.5199661 8.3134 0.6090656 0.16849953 2.7067957 -4.3948183 6.134272 1.7497675 -5.412613 1.1522152 -5.1533403 -2.888162 -4.871451 -1.463493 -1.8963451 -2.6558533 -3.4994342 2.52371 0.019497905 -0.15049161 -0.9504397 -1.6976246 0.67684555 0.090293534 0.40335792 -1.6122721 -0.5993002 6.4072366 1.0740994 -3.9095335 -2.0768352 -3.9219527 1.1813794 -0.1862031 -3.8601449 -1.7338129 -4.873772 0.2906817 2.7915738 3.4880962 4.1505013 2.2337701 0.1275565 1.7923951 7.083739 5.8914313 -2.3362687 6.919917 -0.4133556 -1.0860552 6.042447 2.1066945 -0.6075704 1.922963 0.5102203 1.7664782 4.626195 4.783273 -4.172329 2.5931787 0.8855129 3.5142815 2.1950805 -1.6327972 -1.6371605 4.055453 -0.83434427 -2.12523 2.6313362 1.8460382 -0.28984746
336 -3.3614786 7.919963 3.9348366 -1.5261964 6.8839803 2.2310143 -2.8144996 1.2530353 -5.437682 -1.2241385 -0.70448995 -0.4379997 -5.414024 4.4933395 -4.753319 -3.6706874 -3.8759117 -2.7307012 5.0319934 -1.9295644 -8.05124 -4.2188954 -3.9007454 -4.9795294 2.9858146 0.16510645 3.6388228 2.8702567 -0.26601702 -4.320489 -2.5956583 2.3629954 1.130373 1.1938142 3.58319 -2.4212627 2.8706021 3.6048632 1.2693597 -3.6512678 -0.89008474 3.9527335 -3.814199 -2.4014084 -4.2436843 1.7214568 -7.03046 0.74764407 -3.1411827 2.555298 1.5572562 -0.064338006 2.6329937 -6.0967445 -0.7498692 3.0620325 1.7703774 6.2220187 -0.32555518 -0.48121858 -2.4611714 0.07688709 -3.5567849 0.42516327 0.49837902 -2.602484 0.43984184 -8.145747 -4.5655074 2.919279 -4.488581 -1.6377581 3.5195742 -1.6295043 2.2105997 -3.600594 0.23387209 -1.884937 0.74595135 -2.3140774 -2.2529464 0.50218356 3.522127 -2.5777159 -6.381006 -5.901228 -4.2944775 3.51973 -0.75687116 -2.9797328 -0.14837931 3.4844103 3.8922472 -1.9964882 0.42966184 -1.7133571 -2.4668195 7.180604 2.0241945 0.7845998 0.9355702 2.0267928 -1.8030208 3.2010076 0.015941923 -3.4832323 -1.8661387 -0.49128428 7.137905 -3.3794944 0.17300978 0.94456685 0.12032878 1.4606953 -0.5206806 -3.2115793 0.20628145 -0.24342117 -1.8894478 -1.6906121 -0.12486717 -3.0763173 -1.3923643 3.1967227 4.137394 0.66560495 5.039147 0.011993895
1363 6.013265 -1.2499653 0.67053473 -1.4458263 -0.40368217 3.427203 -2.8087487 1.9460038 0.23869473 4.651978 -1.3352396 3.256591 4.826973 2.5858283 0.34370777 -5.297218 -0.106051244 -3.2847512 4.1451583 -3.7511208 -4.252926 2.6927037 -1.9601808 3.3053315 -5.527798 -4.605943 -5.238728 8.283284 -4.7917466 5.2477045 5.642297 0.6440804 -6.5963306 0.36047468 1.2482679 -4.634788 -2.8495905 4.2393036 1.7223194 -0.447183 -1.0826545 -3.784994 -1.2560607 -2.2339444 0.57978123 -2.7429674 -1.8670181 0.8572567 1.9361248 -0.08200104 0.6178638 2.8934681 -6.600738 0.95499986 -0.8318288 3.9039824 -7.087699 -0.98602986 3.015618 -5.535501 -0.9877786 1.7595457 4.0321984 0.47236946 0.43297118 2.872239 -3.7306166 1.244037 4.4791746 -2.490621 5.48754 -3.7769234 -2.9177246 0.6388984 -0.1583137 0.44782957 -0.66989625 0.7473279 -4.2812595 1.8498465 1.1654773 -8.674963 1.094455 5.3803835 -1.1914606 -1.6923084 -3.0232024 2.7965994 1.4507847 0.5694988 3.8103313 -0.9176863 3.4561033 4.162787 3.0732033 -2.8774354 2.5015802 -3.0846221 -2.1966333 2.325267 -0.38288862 -4.735621 -1.1914372 -1.6878254 0.45810056 2.0021312 4.253769 5.09997 -0.42310065 -1.6189711 0.08390451 -0.65093756 3.8410175 1.3530732 -2.31965 -2.0916083 0.6297837 -0.98282856 -1.9184524 4.2615414 -7.113371 -0.11779581 0.9599879 4.8060026 3.1023278 0.7203546 -2.9462626 -3.5696926
801 -0.96412265 2.2217486 -1.000177 -3.2758515 -4.5057783 2.4175062 -1.5620098 -3.9036744 2.0077105 -1.6207614 0.090316154 0.42579222 0.2840718 0.4610408 2.8692198 -4.4346743 -2.163554 1.5496846 4.803199 -1.5779309 -0.84506994 -0.38067633 0.29042774 -4.7634606 1.5970802 -3.5131667 -0.55396324 0.23857954 -0.5364114 5.3523846 -1.853257 0.2216856 1.5651114 -0.76097625 -0.57377684 -1.4684756 -3.3745337 0.00799643 3.7678363 0.6328707 -0.37849352 -3.9628525 -2.346263 0.06700011 1.3960857 2.5329697 -0.78921825 6.9053874 5.0628185 2.3393042 -1.2547352 0.54891753 1.2207241 -0.029547174 4.987684 -7.4479938 2.7788577 -1.5506577 7.181784 -1.0133882 -3.495141 -0.44434604 -4.156095 2.663532 3.8907976 0.41329244 0.6823396 0.29782382 -5.885088 -4.277207 1.7985884 -2.472439 -5.197999 -4.2537785 -3.142228 4.83281 -1.0968827 -0.8943403 0.6366658 -0.8423774 -1.0175905 0.8696265 -3.149005 -0.07483395 4.3484907 -5.975395 3.2329113 -0.44675678 -2.7027297 0.6954086 -0.68735015 -7.8146496 0.5036478 -8.430824 0.94553596 -3.7226791 0.10329804 0.54548025 0.04143279 -1.1222931 0.47366628 5.7225647 -2.1668332 -0.034836553 1.8212007 -0.40405867 1.783789 -0.32777074 8.610805 2.1816196 2.999685 -4.868478 -1.646268 1.3417789 -4.405613 1.8989185 0.83895886 1.2000747 2.9207356 -2.599931 -0.18187648 7.0560927 2.0361798 -2.1617115 1.1184999 -2.9669218 3.8750858 -1.7361243
1779 4.7831607 0.7405966 1.205137 -0.800397 1.6008064 -0.7077099 -4.2303915 -1.1338278 5.288673 4.7548547 4.456829 -6.5569935 3.2403588 -1.6175914 -2.6071556 -1.1278385 2.5809827 0.6591098 -3.7083864 0.9844508 1.9955918 -1.9022367 1.650101 -2.0878391 2.9567766 -2.0155284 5.058559 0.2971441 1.2422003 1.36459 -3.5572996 6.9337564 0.8306459 2.1231256 0.1165441 -1.8323016 -4.1169763 -2.318524 -0.91000736 -0.6176084 3.9096668 6.436877 -1.4872278 -3.5812654 -0.9790271 1.0003803 1.7986494 2.1540992 -6.344026 -3.2404587 0.92355627 -2.066582 4.965303 2.6025436 0.4140681 -2.28876 2.0334175 -6.0801005 -0.56100756 5.9552402 7.517942 -0.5440903 4.3575473 -0.008062637 4.2985063 3.315073 -3.8068295 -1.0585016 -0.58528423 -2.0250902 -3.0494883 -2.2769785 -2.9032784 -2.2831092 2.8332617 -0.7232886 -1.9057791 3.3818362 -4.7093973 -1.1730288 3.2952743 -3.2605474 -1.1832448 2.1106062 1.8861058 -2.2860794 2.1731224 6.2782755 -1.2479793 -0.08786743 3.7410917 4.2680254 4.358183 3.4292748 -4.9959407 3.4238076 0.6931248 2.0894465 1.5745488 2.0982106 3.966943 -3.0060143 -0.2519701 1.2503344 1.0385436 0.6631691 -1.6065367 1.3751124 -4.379881 4.6988626 -0.63495475 -6.0335913 -3.3211977 -2.2781906 0.71711653 1.3828405 -1.5978059 4.125817 -0.5221235 4.6722693 -0.749749 0.89381367 3.356549 0.5084619 -5.57952 -1.0165286 1.4330115 -3.4461732
1674 1.9213824 0.3076594 -1.1939625 -1.292323 -2.9106076 0.89187723 -2.236225 4.0172925 -3.3723063 2.0846515 -6.3697677 1.3574575 1.6396816 1.7238538 -1.7957684 1.4930451 2.4674122 -5.059785 -5.570153 -0.45118 -3.2223608 1.3963019 2.542424 2.0994303 -4.9914722 6.092957 -1.8106778 1.6940969 2.0298457 -0.48904872 -1.2600383 -1.287661 -10.291189 -2.5483065 2.2384057 -2.2452135 -0.07027624 -1.982159 2.5873227 -0.96168566 -0.11659785 -2.9068105 -2.8110363 4.1922255 -2.0712974 5.4125752 -5.66728 3.3018746 2.1750088 0.26679185 -4.707057 1.1130337 -2.4567919 0.23553923 4.62227 6.5692616 -4.086242 -3.096604 -1.0531311 3.390769 1.6568589 2.316577 2.0907946 -0.79056066 2.5157838 -1.7216198 -2.9463198 -0.7220999 3.047294 -0.45221287 1.7531968 3.1899352 -5.400018 3.15913 1.8433663 -2.1432395 3.6356435 2.1849542 -1.9824244 1.2388301 4.4212317 -6.695305 3.676187 3.3815105 -0.6398098 0.056108482 -2.856735 2.6855452 0.26784742 -3.8191109 -0.05514765 2.0966213 4.283736 2.3386302 -0.7855887 -2.8457284 -0.678068 -7.2343383 0.3742891 -1.9872009 -1.8332967 3.701642 3.1323707 1.4274372 -4.1938205 2.6733432 0.91080606 1.4143815 1.127545 -0.4923611 -2.5560825 9.687333 -3.925322 3.4938703 -1.2319837 -0.97458106 0.44220406 -4.144829 -0.44424626 4.6163597 -0.7008198 0.98475784 1.8788116 1.4664185 -1.3397292 1.6885887 -2.0378983 -1.9273337
630 2.9654343 -1.12453 -3.2807004 2.3857594 1.5778079 1.6998578 -4.9848294 -1.315002 4.9401217 3.2455714 2.225654 2.548158 -1.2517653 6.0960145 0.77839506 -0.39720687 3.2171633 -2.9318316 -0.5495459 -6.9664474 4.6014743 -0.36521634 -1.2237346 -0.4676003 1.6393384 1.9393288 5.474206 5.3632264 -2.0839636 2.8386252 -1.7991644 1.118388 -5.374969 3.1708667 -6.267636 -3.1384022 -1.7381102 1.8216867 2.1642377 0.021837564 1.2852122 4.6606603 -1.1033393 0.87575257 5.2369223 3.5667653 -3.040323 -0.86765563 -3.621225 0.25778443 3.829787 -4.1430063 8.206062 -0.011315613 -0.6498497 -0.2574529 -2.2517893 -0.29015845 -5.555745 1.9642459 -1.4870745 -0.44703838 -0.8577904 -2.3532588 -1.6309663 -0.39935422 -1.385813 -1.1939002 -2.972187 -3.7506187 1.5147353 4.041615 3.7548113 -3.039755 0.64137954 -2.923486 -3.237426 0.04322239 1.2818354 -1.8998334 -2.3067203 1.754493 -3.3500247 3.9896178 -1.9562299 -2.0012925 2.920794 1.4143093 2.663519 4.8887563 1.7116628 2.1498694 2.8432825 -4.309847 -3.2098117 2.5206606 1.3000556 -1.2257917 0.3719437 5.6103425 2.3788543 1.7022173 -1.4543035 0.80805814 -1.1614268 5.496382 1.4256526 -2.756566 0.77194947 -1.0056728 2.5087295 -3.0476532 3.6917307 -3.9423044 4.609289 2.9433365 -5.4389296 -1.5906206 -5.150133 -1.1671989 4.3475533 1.0695808 3.4131196 -0.8446324 -3.9147005 -2.754437 -0.23041554 -3.4425938
433 1.5653038 -1.8801365 3.7925415 -2.198488 3.4987457 -2.7806282 -3.4228182 2.1137497 0.18137527 1.0264975 -1.4650064 -0.96656024 -2.8208892 4.651516 0.3489108 2.0502286 1.1559595 1.3064752 6.648821 -2.2849026 -0.9950775 1.4109035 3.5722523 3.676879 -0.6147369 -4.059568 1.6554751 2.112043 4.602151 -3.5039392 -7.436791 2.300145 -0.7857681 -0.960159 -1.8696438 -0.13936459 0.6327675 -1.7064035 -0.86913323 1.7659155 -0.5697627 -7.4253435 -1.4447001 1.7999753 -0.010118802 -3.9697332 -0.3538435 -0.7277428 0.15984593 -1.3226097 -4.0511203 0.36017638 -2.4417105 0.7840746 7.5170417 -2.1806142 -0.20675422 -0.0016813575 4.757667 -0.0545806 -1.0495136 -0.54080725 -2.506639 3.9910114 -3.4564452 3.9965885 -8.234843 2.1902933 1.7214677 -0.89443505 3.3755403 -3.3691509 2.9550781 -1.4620708 1.4155674 -5.8081217 -2.3831549 -7.144835 1.7161305 -0.09767894 -5.179479 4.82586 1.1303908 -4.148435 3.981088 -7.847138 2.4052894 -1.9922693 -4.5984387 2.6919982 1.5109532 -7.796696 -1.3261888 1.9622111 -2.8457344 1.2917391 2.7044518 0.5748766 2.8692577 -6.370228 -1.195283 7.5089755 0.76533544 1.3067658 -1.1087893 -0.645596 -1.1039606 1.606345 1.7912333 -1.1497306 -0.29496297 -3.291335 -0.16778158 0.25917065 0.15976895 5.1429973 2.4345212 -2.8158662 -1.6126584 -1.1371504 -2.5346138 -0.60472786 3.4589686 3.756912 0.34432024 -0.22811602 -6.1455445 -1.2022132
1541 -3.1149418 -4.1129527 3.006528 -1.9281985 -0.48027444 3.9226696 -2.1585727 5.335718 -1.1502604 4.2176085 0.78901315 0.7582593 -1.12162 -4.441369 -1.0642402 0.1127105 -0.6692748 5.0369086 -2.8740158 -0.8011051 -5.5899024 -0.307146 0.286164 -0.21798879 0.8512032 1.6972423 -3.1736042 -1.3765175 2.012579 7.4693274 7.0609045 -2.0080326 3.110874 -1.0206536 0.28328896 -3.7023299 -0.80792433 -3.96353 4.4374356 1.463221 -6.552705 -0.568829 2.9337351 5.048366 3.2732434 1.6691899 1.4277017 -4.3843307 -0.82334757 0.58254063 0.4143392 -2.1625078 2.5616755 3.648442 -5.6250544 0.40972278 -1.7131503 0.31763184 0.60758823 -2.0215478 3.7249165 6.0987687 -1.2804456 3.80633 0.763148 -4.637639 -2.4087043 -2.2323751 3.9058065 -2.927071 1.9083387 -0.20541345 6.745268 1.7600104 -6.832013 -5.7265897 0.93811595 1.0252897 -6.609484 -0.38962796 -0.6473202 1.9750844 -2.250386 -3.0146146 2.6896825 -3.272839 2.0225449 1.7922889 -4.52514 3.4423373 3.5220487 -3.6575313 -3.4436853 1.1065496 -2.1992097 2.332437 0.4848344 -3.4174454 -5.535725 -1.6591319 -0.9670807 -5.1549497 0.9945683 4.3880615 0.80147535 -1.516761 -3.5015244 -3.276638 -2.8171885 -3.2325199 1.2511464 5.9264216 -8.422544 -4.2579436 -1.0000111 -1.1766136 4.775674 5.1267 3.595804 0.44290757 2.3393898 2.4802434 2.6881542 -3.199688 3.7637734 2.5584352 1.9898448 -3.1802416
1976 0.104158446 0.20866376 6.292426 2.6392136 6.741019 4.3652935 2.1003494 2.464633 4.404598 -2.01077 3.436855 -5.553471 3.7067466 0.5925389 -2.9364877 2.669733 -1.1217009 1.0979869 -0.116239525 -0.0039654016 2.1557245 -0.27778572 -2.8017468 -6.597455 3.1714063 2.9072633 -0.41013092 -2.3416617 0.83413047 0.7301744 -2.3642468 4.1998434 0.7807649 -0.7152174 0.21155077 -1.4695622 -0.36946902 -4.869731 1.4650722 1.444263 0.08623254 -1.5820919 0.18121439 1.0819979 0.48804498 2.4939907 -0.9971984 -3.9103293 -3.1610262 0.867385 -0.087094426 0.6159721 -2.129468 -5.421969 3.3595366 -0.91022664 -1.863235 -0.014587711 4.416211 3.3101983 1.5801944 0.2450749 1.4302197 6.099236 6.4943786 6.8158135 0.8750462 0.01424362 12.83945 0.4614698 -1.9109799 1.4381146 -2.6441488 0.4806365 -2.335677 -1.2630007 0.20770064 3.1439285 3.3510551 1.6571127 1.413742 -6.4983783 -1.3804138 -0.73626 -3.0010195 2.2177534 6.514236 -3.26187 5.9994926 -3.742837 -0.6720257 3.441024 -3.97827 -2.2269154 3.4424582 3.536527 -1.3279008 -4.039941 5.861341 3.8550904 -4.1622434 3.9751923 -3.249883 -0.6164334 -1.0116835 -2.2232125 0.060274683 0.18945406 1.0471338 -2.8118842 -3.4277983 -2.9177804 2.5522594 -1.6248031 -1.998707 0.3885685 2.873692 -3.566192 -2.1274235 0.7204805 -2.1429563 0.84947413 -2.8033888 -1.9846281 1.6993539 -0.13287595 2.9923956 -1.8878945
1727 -0.8399965 -2.2890513 0.2611258 -2.7198536 -2.282467 -1.0717323 -3.852567 6.681797 -4.1571145 -4.783198 -6.160791 3.2284188 7.4640822 7.290636 1.4498193 3.1012993 -6.9812675 1.6014639 1.8581334 -3.3398767 -1.5822172 -3.0455694 7.76968 -3.1565073 5.682497 -0.687495 3.224495 -0.57481456 3.3791852 5.6529055 -1.5797296 1.6606164 4.650173 1.7497085 -1.3695885 0.59511775 1.138445 1.0698627 0.7895357 0.49419314 2.866707 -2.1816597 -1.2985046 0.6550915 2.4408164 -0.3864666 1.2856988 -0.00080506405 -0.7065393 1.2615342 -5.555042 0.36156556 -0.12386406 4.4385495 5.130206 -4.929758 3.1155424 -0.4512567 0.4997379 0.14351362 3.5042908 -2.4559262 -2.5836473 1.4652463 -7.7658257 -4.47263 1.7652006 -0.6906292 -2.1103482 -0.6339717 -3.7099133 0.11685916 -1.7612479 -3.3885362 3.303628 2.0666265 4.0618544 -3.3810909 -0.9691697 5.5026317 -3.26009 1.0282588 -1.463471 -0.60240096 2.7875402 -5.585127 -3.0658522 1.8368694 -2.2385442 2.216896 -1.8786097 -0.7918154 -3.0203922 -2.7956648 0.779455 -3.911973 4.2989683 1.3929679 0.34234107 3.6389308 5.493527 1.2718444 -0.93654174 0.7876135 -1.2868844 -3.601055 -2.225939 5.523173 3.2383716 -4.24769 -1.3294247 -6.3484473 2.9460404 2.1954935 0.06198047 -0.7867318 -0.19683821 0.8897065 4.9814568 0.6523204 2.5382264 3.8707852 -0.8534384 -2.0376492 -1.3732711 -0.3484628 -3.3023224 -2.320326
1580 -0.21411784 3.8088415 5.697323 -1.7436066 -2.3159406 -3.1493418 5.100684 3.2283185 -3.216661 1.1314205 -3.1532235 1.3327309 -4.636358 -1.4543751 3.2479231 -0.4384898 5.3189597 0.41066298 3.1788323 0.78053826 -0.5164305 1.3818948 1.075723 1.2492952 -1.0666358 -0.8052231 2.9696572 6.3938794 2.4843962 -0.084807605 0.537715 1.39788 -0.5960428 -2.014196 4.076949 -2.322922 5.7515426 -2.3664942 -0.6750811 -0.83933836 -1.8254132 4.841727 -3.4807177 -1.8714167 0.31576464 3.7637458 2.492421 -5.595434 -2.0749993 -0.93358386 3.3641152 -3.5758803 -0.049200438 2.8668566 0.41012 -1.2550879 2.402403 -1.8784556 -7.001711 -2.6223884 5.915786 2.8237379 -3.3225613 -1.4320672 -2.228016 -1.1094087 2.0483043 3.9330902 2.4846218 -0.6838172 -3.0661392 -5.2789526 -3.0017745 -3.9149985 0.8034773 1.5212036 -0.685024 -2.9124062 6.1177974 3.0157237 -3.2743998 1.0971762 2.6572611 -4.82322 1.4412926 -3.0156033 1.7998583 -2.8875911 1.7660128 4.383859 -5.7951617 1.3963501 3.0465534 1.6440511 -1.1649078 -3.474926 0.37678528 2.2310774 -7.2721605 -0.5996319 -2.361587 -2.1263986 -0.4334757 0.8558075 3.6974921 3.984805 -1.9761319 2.5204341 4.580889 2.6518817 -7.426956 -1.4842526 1.9866353 3.1227133 0.93841994 0.80086625 2.0080223 -3.6050665 2.6111984 -3.7243576 2.3368378 -3.2241879 -4.6207647 2.795818 -3.055862 4.1300335 0.16054489 3.1131322
1985 -0.08220869 -0.19519837 0.3353696 -3.6480963 -2.8696957 -0.5539504 -5.562332 -2.2637672 1.1248828 -2.373402 3.5794663 -0.16428202 3.9896216 -1.033566 1.4195186 0.6007574 -6.438576 -3.1642413 1.3271525 4.346413 -1.0620692 -2.4236214 2.3528745 -3.3765786 3.2594416 -1.3534551 0.91276973 -4.640994 4.6471305 2.0699322 -2.0642657 -0.3096132 -0.1457967 -4.576338 -1.3159636 -4.0736556 -1.4007531 -1.764653 0.14566953 -0.4269462 -4.26594 -2.2184587 -0.39191288 -2.2889006 2.5294135 -3.1226718 3.4385235 4.2908893 -1.3220237 2.0704637 -7.0760183 6.1473064 -6.2959294 -2.7556684 5.000644 -4.455661 2.2910767 -2.6980522 6.794199 -1.4111176 -1.5395156 -0.34130073 -0.99886453 -2.9189181 -0.023393441 5.8514595 -2.0926676 2.3999434 -4.1595926 -6.1061306 0.17008497 -2.9824753 -2.9380457 -8.255838 2.7932525 -2.6984472 2.3277764 2.2643495 -1.116199 3.6967828 -3.9949837 -0.40376657 -0.73029226 -0.8519939 5.1252995 -4.9131374 1.2495496 -0.59940094 -2.517936 3.0575488 2.4975662 -6.4716206 1.4879178 -4.1301203 1.806484 -3.2279174 3.133154 2.6783738 2.366321 -2.5150611 -3.994473 6.358465 -1.5270284 0.8464342 -0.29794928 -4.1458325 0.67856735 0.60860753 5.9522057 0.250603 -5.6477323 -2.7831547 -1.4611614 -1.6713682 -0.77396244 2.5236995 -2.636831 7.9605103 -0.4100537 1.0401541 1.3914025 -0.53330356 1.4795382 1.1524855 3.2926073 -3.5051732 -1.3456563 -1.7443814
1082 2.4229918 -0.34289542 2.9142318 -3.729093 -4.2215333 -0.51627314 4.661006 1.2757468 -6.375735 -3.6229067 -2.2069805 -0.1682038 -2.6626346 0.55304414 1.3304193 0.61781603 3.2615285 3.1854653 -3.8454978 0.96606565 -0.12869726 1.7940108 4.14258 4.3322253 -0.28428853 -3.765653 5.5547357 -3.1817243 1.4359444 -3.162843 -2.0928302 -3.5031962 -6.674018 1.5740461 1.1010829 -2.5551121 6.270114 0.33917567 0.1461117 -0.42529312 -4.978908 6.6030097 -3.962185 -1.7069848 3.1336174 3.4794142 4.1867027 -0.60428196 0.47121516 -4.9647145 5.7184978 -2.6512318 -0.7165662 -3.2375624 -1.091348 -1.9263707 3.923575 -1.6181483 -0.20932981 1.5138859 -0.08847855 5.41256 -1.4475191 3.8154192 1.3239168 6.1312685 5.22288 3.8645458 -2.5519848 -0.5469924 -2.425436 -2.391456 -0.17380723 0.41520527 -1.7597636 5.796577 -2.4166424 -4.2350345 -0.13187753 1.6194257 1.3943968 -1.857961 -1.4304436 -4.961251 2.172586 2.4949243 1.2135524 2.0836697 5.4210825 -1.1712501 -2.142022 1.8923625 1.5012988 5.1300673 -3.5403762 -1.9529754 -1.8948781 -4.4514365 -0.3445697 -7.335318 1.4387041 4.974121 -0.48145646 5.0639467 1.1369157 -2.2429252 -4.0034003 0.10318266 1.7684267 5.258885 -7.448373 -0.025053855 -2.1436443 0.010634649 0.11221659 -0.8359327 -0.92256653 -5.1675262 -1.7558142 -4.2942305 -0.15160349 1.8810369 -6.8038297 2.5578365 -0.17669344 0.56764746 -2.2152364 1.2282262
477 -0.877601 3.0121572 4.762627 -2.8531394 1.0810951 3.2111208 5.7499366 5.432702 -5.1306396 7.878474 -0.12495577 1.0519906 -0.006058097 6.077199 -1.9416192 1.0107689 1.0645972 -3.6458833 0.5940021 4.8348494 -1.3630468 -4.470043 -1.332702 -4.7594285 3.8626 -0.5009967 0.92040855 -5.061434 -0.769666 -1.01478 -2.503447 0.0097411545 1.0415757 -2.718142 1.2211741 1.8909671 -1.1071506 1.498561 -2.7860656 -1.2022045 -2.0163622 1.8122116 0.41005343 -4.348991 1.1551106 -0.77947116 -0.68164825 0.9118845 5.5839357 -3.6605632 0.41641822 3.1138768 3.883581 3.4483938 2.6139112 9.525117 1.8662245 -0.23745418 -0.7972017 -2.1564932 0.3859375 -1.0511997 -0.34625563 -1.1877607 1.15547 -1.5308031 -1.2628759 0.4471424 0.68942237 7.5461874 -3.8437924 8.398926 0.20265937 -0.2632866 3.921581 -0.99919283 -0.4574694 2.7708433 1.4921341 1.6635766 -0.0010760484 1.1368244 2.9627128 -3.6152248 -1.0403771 -4.927372 -1.0033768 3.9846208 0.48357254 -0.28360146 2.3766098 2.209062 -1.4630885 1.1688317 4.371988 -2.5943315 -3.7090654 4.0542545 5.6832333 2.0820818 2.0068824 1.1569159 -0.74376917 0.9287875 -4.836876 -5.946552 0.030962782 0.24809632 2.2449715 -4.0899525 1.5324665 -3.2000525 0.7461346 1.0560577 -1.42183 1.3673756 -3.702729 1.5060556 -5.2713547 2.1084158 -2.4240556 -1.4927843 4.977056 2.418916 3.3714628 1.5512248 0.08332033 4.559905
1194 -2.85572 2.8063831 2.075628 -2.3617845 -0.07540196 -2.9204676 6.452381 0.43650907 -1.8936915 -1.4706613 0.5867977 -2.9757555 3.2249854 -4.2359977 -0.2819379 -0.6144454 -3.4007545 -2.9952571 -0.27878147 -3.0709517 3.5162745 1.3258228 -1.5646057 6.146362 1.5393232 -6.028205 4.9397926 -0.64230543 1.1809834 3.6740215 -1.1377692 3.342395 2.7657106 -0.28094557 4.4277244 -0.7123322 -0.42735356 -0.33317378 -3.560208 7.5404396 1.1064088 -0.45565608 3.4163134 6.4035854 -2.0271285 2.0603614 3.0664053 3.1264849 4.9376335 -2.0077305 -5.4440894 -0.5176381 3.8728664 -2.869616 -5.7246895 6.1571403 -3.2700567 -0.7273502 -3.082285 -1.993581 -0.7260071 -0.024175234 -3.7645311 1.9253733 3.9160545 0.7223615 -1.037978 2.8294206 -1.8309247 4.667701 1.5056393 -6.09106 -1.1809564 4.5571294 1.846323 1.3853687 -0.6508204 2.200925 1.8795203 1.4330275 -3.5350087 -1.3533026 1.7669435 0.9268315 -6.8337274 -1.0949812 -0.3698749 -0.98102677 1.6047101 -2.4660933 2.2385263 -5.68206 -3.1707304 3.2678158 -0.06168381 -0.031055192 1.683537 4.0656385 -3.7586772 0.91526747 7.125115 -2.7330668 2.6748319 -0.16918816 -2.2143462 2.361781 4.097138 -1.3454106 -3.0680015 -2.5423596 -1.3721734 2.09519 -0.27550086 1.0696414 4.0761347 -2.0523248 -1.1023085 4.386887 3.2210338 -5.744668 1.5295017 1.3660277 0.4934207 4.3297424 1.6326225 -0.12389079 -9.279788 1.8483967
945 1.3727106 4.5996284 0.15390038 3.6911893 2.3467996 5.6506305 3.4777484 1.8843184 -2.6450562 -2.9718082 -4.7390647 1.0017177 -3.127524 -5.095173 5.604909 -6.210956 2.551889 5.4162683 -5.2802477 2.724032 -0.987653 -5.006484 3.9903567 2.8416789 -1.8797469 0.29815778 -3.6620317 4.4026423 1.6308458 -1.9963853 2.273406 -0.48118463 -3.229478 -3.8114676 -4.96057 1.508905 3.5342715 -0.5979287 -2.6121879 2.6354518 -4.965223 3.2045457 3.6616497 2.0912066 4.566417 4.871153 1.5228568 -0.26698217 0.5554249 -1.5290267 7.056226 -2.969651 0.27605724 -0.38147098 -3.3395503 -0.8129602 3.9039874 -4.870345 1.4584148 -2.10267 -1.1261652 1.6760913 -2.7606559 -4.1001425 -4.962381 -0.48733434 0.77437264 2.0021884 3.4260917 -2.4262936 5.0294833 -0.06451181 -0.03808254 -0.22235526 1.0561893 -2.2116191 1.9903919 -4.850272 -4.0713396 3.5817528 0.34908003 2.2492852 2.359581 1.7943639 1.7806612 -1.2683296 -3.893964 -3.4060113 8.446357 4.086519 -1.8873802 -4.6237516 -1.6449814 0.2772265 7.789289 -3.7167628 0.77766556 3.2079198 -0.43801942 -2.7323427 -2.3952246 0.5823626 1.359675 1.9981655 -1.1667701 -1.9297268 0.87839496 4.9409714 -0.3536438 0.37097305 -3.042585 -2.084294 0.4561575 2.1631117 3.1147287 -0.6097938 1.9222927 -1.3986487 1.1320487 -3.4949036 0.8703352 -2.3380284 -7.7315497 3.3437424 -5.242872 0.6137647 5.78517 3.7615273
1591 0.7297274 -3.1271966 -1.9908016 0.6676261 -3.208074 -2.2769525 -0.53454787 -5.4316115 4.5377665 -0.847371 4.262471 0.0069732363 -0.26653513 -6.8790007 -1.1398153 2.022149 -0.14498053 -4.5108485 8.132104 5.165056 1.291941 -3.9412284 3.2330534 -3.6637437 -5.602392 -5.07431 2.8148584 1.8815969 -2.9704473 -1.8214664 6.777393 -2.0964406 1.3705908 2.0335255 -2.9289114 -0.764414 -3.7227273 5.892397 -3.083029 1.7871013 -0.17069289 2.3613324 -0.45912907 0.015708322 -2.7110474 -1.6611302 -1.1468809 5.1228456 -1.8105996 0.48419836 -4.8934116 2.7650347 0.55717385 2.4926221 2.2336369 0.027879477 -5.0798993 -0.66516125 -1.3860054 -1.18332 -2.8276918 1.1505378 -2.5399232 -4.7214375 -0.17624667 -4.247047 1.1949337 -1.692125 0.5616955 0.83371294 -5.694501 2.8617957 1.1858127 -1.3627884 3.1287355 7.4630656 8.488662 -2.8411515 -3.4471278 -0.8163006 2.5332127 5.8394933 4.02851 -3.649027 -3.3532717 -0.11688517 0.33650145 -2.797383 -4.2072325 -1.6837931 -2.8304944 -2.235568 -3.1651173 2.1914718 2.2275639 -3.3381703 2.7711515 -0.29314694 -3.8532078 1.8520772 2.628584 -6.0642333 -0.6083928 0.55406785 -2.3222814 1.6968591 1.0811876 1.4612317 -4.7402816 -4.1599097 5.0517745 -0.71576905 -0.8892824 -3.3205113 5.694525 -0.50604725 3.754269 6.0560646 -1.9786028 0.92639476 4.8861837 -0.8306804 -1.0330865 1.4910907 1.2186061 2.8457403 0.042655706 -1.1614957
333 -1.9089819 1.3883163 -0.18664987 -0.04564508 -0.6523191 -0.45496097 -4.3169937 -1.8807397 2.3014524 -0.060109027 1.2218509 -2.633738 -6.0047746 -6.281128 4.8228865 5.545374 -2.1226063 0.13308774 0.93794245 -1.9617478 2.4725602 1.1236093 -1.6548657 -1.0612177 0.34235576 0.49574587 3.62645 4.140258 -0.6510346 -0.373034 -0.48863894 2.3255424 0.46534356 0.7788519 2.3922617 -5.628937 0.77510446 4.4601464 -5.3823924 4.7991524 -1.5571567 1.4971168 -8.460294 -4.5800753 1.4050174 0.2724441 4.446439 -5.206058 1.4498817 -4.101389 -5.302992 8.476187 0.9759847 0.18052986 -0.2565012 -1.3796964 6.667824 -2.8914256 -1.1148106 3.050952 -3.5951324 4.0527067 1.758685 -0.20786718 0.47707766 -7.905081 -1.5853823 -0.27778834 0.21650636 3.948018 4.593182 5.205717 -0.20007919 2.5849104 4.0386043 1.4726868 2.2718916 -3.5055888 -5.7148204 -0.5767665 1.1665643 3.4212468 3.2123263 2.9641101 -1.4130859 -0.1264588 2.8996236 -1.1525533 -0.259967 0.7404921 0.98859906 4.19312 1.7958971 1.7245653 -0.24304113 -4.6071196 -0.38176012 -5.127006 -0.598676 0.64508265 1.5618132 3.7001457 -2.6788957 4.2703433 -4.131291 2.138331 -1.9099551 -1.8365873 -5.604244 -0.14179637 7.0876822 2.0247574 -2.9289117 -1.3946003 -7.0754156 0.5417456 0.8243757 -1.8954883 -0.60261244 -3.191315 -3.1377952 2.3144903 6.450552 -1.6832948 -3.962586 2.15963 4.913276 0.98742324
1784 2.7924979 1.9196802 -0.102802165 2.1922836 -1.3679392 4.5053835 5.30033 3.548448 5.5810466 -1.0098972 1.9380168 2.851804 -0.84211946 1.5408815 1.1749778 -1.2794919 1.0191865 -1.980394 0.12036765 2.0389922 3.3088667 -3.578984 0.1301104 1.3773296 -3.3737693 6.048566 0.20410441 -0.37433666 0.0024283838 -2.9945352 0.8969642 1.4276783 -6.540388 4.091371 0.04574956 -1.6982301 -2.9693122 0.20961456 0.6733682 -4.939785 1.261328 -1.5308048 -0.58462155 4.24433 -1.9289224 0.42497692 -7.0941796 8.644049 -1.7943405 -1.9653248 -2.280623 3.0997393 -4.341894 3.989526 6.0088496 -2.2708173 1.3197992 -0.1627404 4.4602227 3.683948 -2.6051183 -0.6632962 1.7498618 -1.6620445 2.8792033 -3.665257 -5.485666 -3.0450232 2.001421 1.3875111 5.046088 -4.5271997 -0.57538307 3.3549857 0.49580914 -2.7179139 -0.6999085 0.12278585 -1.045827 -1.4450508 -1.131888 -1.0238308 7.066628 1.6792357 -4.4438295 2.3633204 -1.8303305 4.143143 -1.6428577 -1.7002102 -3.3826375 -0.8397717 2.2108521 3.7867053 1.0225669 -0.7047704 0.2979647 -1.8231813 -7.5819144 1.046129 0.73509 1.8579075 -1.0040222 1.7066538 1.5407841 6.228506 -1.2506993 2.3102136 2.2601628 2.3375514 -1.5414836 -1.6369753 0.7064183 5.4909153 4.1077337 -2.2996619 -3.1275225 3.1231718 -2.3944914 -2.1437857 -1.624075 5.1103096 -5.2215495 -2.4273615 6.222711 0.7893645 -3.026946 1.3990258
30 3.201324 0.27594987 -2.0793195 3.837372 -4.4451466 0.4207335 0.20567475 0.50346667 -0.9858226 -1.5764843 -3.3727727 0.40144563 2.460377 4.392169 1.4655261 0.26138425 -4.0536513 -1.4618568 3.607738 3.153016 0.30637336 0.6895089 2.2311342 0.22285743 -3.5178611 -5.1239643 -4.285547 2.1543498 -1.7252938 1.755258 -1.3322543 -0.25176823 -4.9783196 -2.5090072 -1.6610018 -1.2553785 -0.96900433 -4.3274517 -1.7093875 -5.5263634 4.3978195 0.7508751 1.0296149 1.2688472 -1.8925467 2.5310628 -4.456683 4.443783 -5.1285176 -1.8113405 -0.49559557 3.2058296 -1.1437122 -0.6808524 3.2911737 -1.9301037 -4.390439 -2.1448157 -0.08971673 2.264601 4.1806107 5.1061816 -0.3730914 0.77672553 2.4198065 -0.38049182 -9.03954 -3.8425555 3.934696 0.33540517 0.21612372 -3.4870546 4.5478754 6.1184 -4.3811245 -1.6281706 4.3685956 3.6770904 -1.7634635 -0.90781814 -0.044947505 -1.5925683 7.8473015 4.8690276 -1.5598022 -1.6938757 -2.8986998 2.0972946 -4.1529756 5.608616 -2.8661776 2.9664812 4.3069315 1.2411071 -1.7676097 1.4059186 -0.62337226 0.8658878 -2.4114 1.4621142 -0.16914707 0.932538 3.5145056 -0.011436078 0.059357367 -0.74245197 -5.285393 2.210055 1.902933 4.372892 -0.93191695 3.1846273 2.238587 4.034971 -2.793484 -0.12344733 -1.4673951 -1.4144871 -0.9758366 1.5509924 -2.8896523 -4.8110614 -2.0788274 -0.74893695 6.127329 2.0756834 0.08830587 -2.9635715
483 2.302899 5.472632 -5.816905 1.672728 8.264957 4.0147696 -1.1465442 -1.0225766 1.6703309 -0.9336845 1.5040876 -7.171557 0.7778371 2.2980728 2.5404134 1.2765539 5.6214967 -1.0601515 -2.6380348 -1.4620038 2.8568807 0.41833723 -4.963705 -4.7405567 4.9224467 1.9307351 -5.4979563 -1.5240499 0.027510162 2.6499898 -3.3392546 1.4562554 -1.8802576 4.7154455 -4.67994 -2.9731476 -0.3167262 -2.1934044 -1.9925625 -0.79225194 3.298804 3.3033488 1.5696111 2.3744905 -0.55571526 -3.3882713 4.453162 -3.6169565 -0.5718726 2.7680554 -4.072975 1.3286566 -2.9614182 3.0843852 0.8281197 -3.1164756 1.6184531 4.652244 -0.16078687 4.694872 4.859991 1.5062572 -0.5814822 -5.616239 2.2582269 5.196164 -1.2684083 0.74019414 -2.0319586 2.2257142 3.703526 0.6868707 0.59694767 -2.9572465 -3.0047843 0.005680035 1.0326837 4.1247888 6.926423 -1.6748655 0.61244506 -2.419536 0.732314 3.0687637 -0.057237964 -0.85242015 4.36219 -1.3071706 1.68865 -4.6868978 -2.1484272 3.3134496 -2.8651671 -2.5058734 -1.8940794 -0.2382824 -1.8087435 1.1060684 -2.3948648 5.380333 -3.0855343 -2.222602 -1.2560447 -0.38419187 -6.356624 0.99515706 -2.9982512 2.2263486 -6.862538 -2.6519349 1.7194734 -4.2335725 -2.408825 -1.4266825 5.9794703 0.20792724 -0.5901363 -3.535719 2.1899178 3.5653455 0.75608575 -2.9640338 -4.395427 -2.42464 -0.19260272 -5.229668 -3.4765916 -3.1290205
1206 -0.84254366 -1.2951976 -1.3157119 -1.3473442 1.7328606 0.098976344 2.372425 -1.8149493 0.46925914 7.436608 0.9296493 1.2371681 4.8684525 -2.0753002 0.41728848 -3.8664806 -3.289275 0.40925008 -0.12581484 -2.0271337 -9.581636 0.9816206 2.0446064 1.8856069 2.4926362 3.2562423 3.8450944 -1.2263274 1.6872162 -0.61928517 0.045474425 4.0067635 -3.1253197 1.128086 -2.467751 -0.060458638 -4.480199 -1.5876235 -5.353668 -0.06716425 1.9195861 0.59734106 1.6183689 1.1488519 -0.77893585 0.6632856 2.1889577 -1.4525956 1.2519933 0.6422781 1.2855265 -5.392841 0.89448917 -0.9762929 -3.6085439 -1.286199 0.6705831 -0.07523105 -2.4119358 -0.26284167 -3.6621726 0.31415436 4.9081125 -5.018334 1.4812357 -2.778381 -2.3952415 0.6148512 3.9164715 -2.0084307 -5.229004 2.1711855 -3.408917 -3.7659216 6.6750836 -2.3947697 -3.411169 4.0174584 1.1695161 -4.955336 4.814445 -1.7400707 -0.657654 0.18264714 0.03940078 1.9133693 0.18435721 2.052001 4.743747 2.2545018 4.412393 -3.8695207 3.2646804 -1.9506487 -7.9293823 1.9199784 -2.1608796 3.547132 0.3362945 0.51986 -0.23435205 4.0210767 -1.3878804 4.4149914 0.8989858 6.3621936 0.99297005 -2.0691645 -7.332303 0.44131258 4.128452 -3.198498 -3.1876886 -0.6309826 1.075202 2.0859253 -5.561371 -0.67567706 2.0440736 -1.5105788 -1.64815 -2.2671788 -2.0042012 -2.3729088 3.558907 -5.9062243 0.95846593 -3.2004457
196 -3.1663282 0.53873324 -0.18577085 0.21657865 -0.3663305 -1.5041087 -0.15209308 -0.7095919 -4.1210594 7.418723 1.7076615 6.7471623 -0.024249693 -6.8109465 -0.63199776 -2.3494883 3.405033 -0.1586323 -3.248241 -2.9505503 5.146172 -5.001979 -5.0886917 -3.4920886 -1.2420914 1.9123392 3.1850626 0.38721615 -3.3818233 -1.6904838 1.9520667 0.096406855 -0.6682919 -0.4423557 2.3109393 2.8646526 6.2726593 2.0982609 2.3848958 -0.45426154 1.7766263 -1.9136187 8.154372 1.8244853 -4.79217 -5.0307965 -1.4720433 1.9874698 -4.4554873 0.934998 -1.4562376 -0.32591137 3.2568398 -4.5094295 -1.6223212 -0.06289596 -2.2607915 -0.6095212 7.3347206 0.6101049 0.63481265 -1.3233757 -0.13123518 -1.4087257 2.3411794 2.9104538 -1.0166936 -1.2923359 -0.9942314 -0.83426243 -0.1582144 -0.12367331 -1.527019 3.0445094 -4.045806 1.5002838 -1.1606483 0.7283362 0.2973587 1.3815233 1.1074858 -0.61182356 2.0687099 0.63797605 -4.842675 -1.4180346 -4.021427 -0.18292308 2.8317559 6.643555 0.8674863 -2.4321208 -3.7449586 -6.072681 2.2228243 -2.5507631 -5.479626 0.1967637 0.99694693 -3.096305 -3.5350494 0.17485633 -3.087029 0.61594224 8.283235 -0.9918984 -2.4335427 0.39047885 -0.16642536 -1.9530815 1.2706404 -3.3838403 -2.0946152 1.8968782 7.484765 -3.549407 5.3134785 1.8931247 2.496727 1.4398794 4.66267 3.4534535 -0.5376596 1.7847385 -2.9253025 1.7697507 -3.3463643 -1.5102007
1517 -0.08716005 0.30509183 -1.6463827 2.8675404 -2.640675 -0.8225764 -0.9416301 2.149731 -0.5871882 4.3206315 -1.091606 -4.166272 -4.4714346 -1.8954134 1.4289134 1.8236208 4.8580594 -3.70606 -0.6433387 -2.0506248 -3.2103548 -0.8955887 2.7232842 3.5660253 -1.4179977 -5.067038 4.114174 4.3567195 -8.880265 1.5212599 1.1378919 -2.1803977 -2.962472 4.761861 -1.7695589 -1.5062484 -3.6233459 -3.9278853 1.1803844 -1.2182169 -3.0952342 8.344905 3.612606 -1.1309235 -1.5365707 3.6837828 -0.5876082 -4.8251467 -0.7613796 -0.89234626 2.8878558 -5.412003 5.081997 -1.7640655 -0.15062822 -4.600755 0.11821119 -3.5207949 1.8242108 -1.2079756 1.1320215 -0.22730492 1.5576394 -0.8305745 2.7840314 -2.7332182 -0.09291234 -3.409806 0.44489747 -3.3909554 -0.6364807 3.1994176 2.0576627 -3.8930137 0.9611853 -4.16306 -5.61419 -2.6937888 2.6899736 -4.507741 3.4147835 3.0550618 -0.65114015 4.8231683 0.91652954 -0.7309722 -0.62742877 -0.12643489 1.5789417 4.022049 -2.9058187 -1.504773 0.16608514 -2.002564 -4.957236 -1.1006777 2.8431327 4.766924 0.37572885 3.9886632 -2.0163474 4.1276503 5.7957106 6.076574 2.861585 1.8241682 7.86324 -2.6533873 -2.0078514 -1.0729322 4.114316 -1.8390027 -7.190336 -0.9272961 -2.0381236 5.774792 -2.6326847 -4.1869793 -0.6400793 -1.9873813 3.379396 -3.536534 3.5266025 -1.2127855 -3.1454234 -1.476903 0.47410244 2.9114134
1843 -5.375197 -0.3233816 0.4665414 2.097934 -1.3573104 4.300939 -2.760219 -0.4774316 -4.028056 1.8412219 0.38029572 2.4114335 -4.775898 0.06426968 -5.272144 -5.3070993 -2.118843 3.8312032 -1.5215412 -5.1524706 -4.0791426 2.3980622 0.35266197 -4.2654934 2.3855333 -1.7736927 0.17534406 0.42641672 -1.1133087 -0.3007948 0.7559808 -2.8320825 0.59810036 1.5058256 0.66936624 -1.9251239 6.317494 -0.5495958 4.73642 1.0989492 2.491274 2.790302 4.015621 8.764577 1.1264993 -3.5839667 -0.11035233 -0.15642948 -0.78333783 -2.9976845 -1.7698394 -2.5556903 2.402104 -3.6694062 3.3181262 5.150254 3.6196198 0.5102352 3.4025407 1.6011072 2.980097 1.815207 4.832823 -6.3488955 8.136233 -0.019952595 -0.59689057 0.6680826 -3.900683 -2.5401592 -1.8239946 -2.6342895 -2.0853453 -1.1758448 -0.35451305 -4.636651 -0.6006512 1.920969 -0.99783325 1.9418606 -4.1677065 5.686724 -0.6337348 -1.0932648 -2.0277863 -2.7150068 -2.4844518 -2.6898837 1.4490503 -0.48522687 2.7938497 1.1310182 1.8761863 1.9233799 -1.9563454 5.93769 -2.646972 1.9611292 -0.4500406 -1.4220921 -3.8594508 1.5359014 -3.1691594 1.3084105 7.9957285 -3.81453 -0.9786017 -1.5090941 -2.3959346 -3.7809134 -0.59346586 -0.7287815 -3.6754863 -1.3330064 3.2352357 -2.3268938 1.2527188 2.6172733 0.99071413 -5.48118 -0.1075627 4.956585 1.1639336 0.048141126 3.1429992 6.4622445 1.480142 2.075719
1356 -1.9414833 0.01917821 3.2472453 3.880568 -5.604299 -4.554369 -4.4557643 -2.6441715 1.4030162 -3.3046494 -0.175711 -2.4472435 4.9561067 -1.4264817 0.45749557 4.941117 -0.869461 -0.15303868 -3.1294923 -1.3115678 2.5824325 6.7852297 1.8668431 -3.1858277 5.8476276 5.61723 3.1948571 -1.686319 -2.330716 4.424287 1.5516398 0.7462598 5.3229175 1.9893653 -0.24946125 -1.2354628 1.0837086 -6.579308 1.0805936 2.2526436 1.6564236 -7.190834 3.4351068 -1.723207 -1.8204232 0.03923905 -0.49269626 1.7827706 -6.2872033 0.15137483 1.5561041 -0.15373099 -1.0128214 -2.6228023 -0.635362 5.1095753 2.0493915 -3.7655127 -3.488223 1.9937553 -6.8950624 2.6207592 -0.79018635 -2.0312383 2.6099622 -2.6073349 -1.6219068 -0.7429402 -5.5485706 3.6503394 3.4159942 3.1845655 -1.2046736 1.0158838 -1.496287 -1.0518553 -3.5012615 -1.5288442 -3.4931428 -4.607506 -3.0210803 1.2977474 -5.2171755 -1.060904 -3.4323337 -1.9830444 0.19623281 0.019132314 -1.1112363 -2.6061692 0.22575177 3.1682394 -1.0268239 1.7848217 -2.2347095 -0.8289005 -3.8029695 -1.9899855 -7.3248506 -0.6612661 4.3323364 -4.9330206 4.901082 -1.0495763 3.3985896 -1.8253701 2.6963446 2.6124587 0.65305555 1.9274262 -5.121646 1.5248718 4.0288982 3.821586 -5.5903955 1.6056131 -2.808765 -2.5736394 3.5556107 -3.3575685 -1.980578 8.387811 -0.286692 5.3229237 -1.7327014 2.906365 -5.3351684 1.0128123
1227 -0.859192 -4.3138676 -1.7194887 -1.360128 -0.16427705 -2.793641 -2.168427 3.7240863 1.509694 1.8009207 3.6187334 -1.0987319 -2.5542674 6.142176 -1.5117244 -7.705844 -3.4504173 3.288567 4.1398015 -0.4705086 2.1748548 1.2865742 -2.0717697 2.3375013 -2.4843795 -2.1493611 -2.9652839 -0.5213615 -3.0773811 0.375495 -4.4938593 -4.0103374 2.660579 -0.9106906 -4.2256174 9.71935 -3.3061414 -0.46468872 0.41089553 1.092909 -5.278313 0.33655453 -1.5729434 4.3690133 3.1214187 2.396727 -2.9744158 2.1081479 3.1105733 0.4047398 -4.968338 -2.5037003 -3.9809408 1.3175498 4.0936885 4.7131486 1.0604109 -2.8013532 1.6064644 -2.5427694 -2.3001745 0.77364165 -2.1056442 4.003546 -0.9071033 -2.2299852 0.53696257 4.384205 0.7553369 -3.0225575 5.946121 -0.43878096 -4.3880134 5.9627233 4.1221128 -2.5016265 4.439447 -0.23355184 -2.6650226 0.025830429 -2.9361625 -5.9910893 -3.8020878 2.8270562 7.18927 -3.8385286 3.3458834 5.8248625 -1.1818932 -0.16191806 -3.204519 0.07496019 -0.6003936 -5.42447 -0.65053236 3.0679815 3.478791 -2.1334734 6.797894 1.2124894 0.026525987 3.5015528 0.5963517 2.912008 1.8491832 0.0066117896 -3.9021578 1.4255562 1.2601662 -2.4807065 -1.4437374 -1.2314653 -0.85621965 3.635635 1.2572464 1.0884757 0.09012018 0.20026816 -1.8944482 4.6826015 -3.3298528 3.6559727 -5.2295833 2.6073895 -2.6715236 -1.2764878 0.7440935 -5.846096
997 -2.5976598 -0.3035145 -4.915807 0.57756495 -1.9840987 1.171064 0.8506184 -3.9641628 -1.3057747 3.6189563 -5.0323024 1.4962246 -2.4259975 -2.1345222 -0.20415322 -1.5797626 1.6964854 0.6505389 -2.655945 -0.40862548 2.2829962 0.45944095 -3.939598 0.7459101 2.1209235 -2.6204114 6.087516 -4.7426186 0.066489935 -2.534893 -0.011141263 2.3898933 0.81380874 -4.727252 2.2713852 -2.0316448 1.9957172 -0.035154264 3.1834018 0.15228648 3.5838852 -0.62621236 2.2055001 -0.5378083 2.3227563 -3.3005228 -0.08037272 3.2933948 -4.191835 -2.638826 -4.200506 0.44291934 5.1839423 2.1196814 0.8312228 3.6799543 1.2551615 -0.16245161 -3.0576043 0.45861432 -0.40184283 0.48821077 5.108893 -4.8982077 3.560513 0.005773408 0.1013892 0.54416126 1.5612953 -3.8135254 1.8522526 -2.4556096 0.40943313 -4.5587487 -5.251743 -0.58946323 -0.07512843 -2.206332 4.303992 7.333495 -0.57008445 2.1931252 0.93769443 0.02503302 0.8686236 1.8844179 -3.7725067 -0.6697029 -2.6355355 -2.5329232 2.1222937 -0.40323815 -1.1447471 5.368257 2.438811 2.2236133 -3.6052077 -1.4963657 0.18121547 -4.0637093 -2.470072 -0.065915 -2.1645174 -3.0585625 8.166445 -0.6584154 -1.0291166 -2.259747 2.0958035 -1.7602108 6.965679 -2.5412178 2.4247267 3.314063 1.952764 -6.1489096 2.9236503 5.3407135 -2.9666796 -4.249136 0.75519174 -1.4256146 2.6010685 0.6768422 0.48670503 0.27920938 -0.93986404 1.5961483
1286 -4.8864107 0.009225275 -0.96805733 -0.093883164 0.33911818 -2.0313745 -0.9173943 0.6011044 -0.69763416 -1.7258877 2.276511 3.794546 3.858867 -2.6563542 -2.2316346 -4.4074774 -1.5602099 -0.3646755 -0.28949097 0.32425627 2.493162 -1.0475019 1.0325835 -0.65242535 0.10810648 1.9785333 -9.804006 -3.4895773 5.8341904 1.4227927 -1.9810512 7.4433446 -1.2825819 2.0948815 -1.244163 1.835419 -1.6672947 1.0300697 -4.168058 -8.106527 1.6236846 0.76733166 0.68892705 1.8012365 0.28661212 2.0883324 -3.4292467 -2.8330698 1.1428206 6.454905 -1.0288225 -3.492948 -2.471997 -2.3887398 -7.8866444 0.34145173 3.4114318 -7.0359516 -1.715069 -0.76793045 1.1604929 -2.6577675 -3.2407331 -0.8248154 -0.8979029 -5.6109653 4.1763635 0.21933576 4.6851034 -3.7747908 0.93948674 -3.9246657 4.729074 -2.7810712 -6.893069 3.1637645 -4.749963 -2.342084 -5.509775 -0.78071284 -0.45698538 3.79585 -0.99825305 -3.9979246 -1.5604099 -0.92598957 -1.6445113 0.6373385 -1.7507458 -0.28188002 2.7447016 -4.7962065 0.9220165 -2.1120927 -1.4599361 0.16445908 4.0950866 -3.2134633 -5.616426 0.9293307 0.2645357 -4.1649065 -4.4247503 -0.6740066 -1.4043096 0.15789004 -4.047809 -1.203007 -0.6473528 2.9697418 -0.9293265 5.861811 -5.314442 -7.348377 1.1184523 -1.1804366 1.7817588 1.8281604 2.634613 2.5645778 3.0616784 3.429922 1.0851754 -0.67378956 4.015539 -4.4396095 0.37453538 0.24622993
23 -3.3735054 -1.0261438 2.30496 2.9123166 -2.4565837 -0.5139816 3.380789 3.296517 3.4383786 -4.2173834 3.1579149 2.868118 -2.7172968 6.410839 0.69740057 0.041209087 3.2329276 0.64146817 2.781852 0.9677838 4.2491603 -2.900466 -0.8843589 4.3637004 -1.6263901 -1.7866312 -7.2919497 -5.26735 -0.6916462 0.4919869 0.074462764 -0.22785766 2.7496333 3.3265169 1.1002892 3.3901784 -3.0945907 -4.951447 -2.3347478 -0.7058014 -3.9665315 1.6697384 1.9282944 -4.8389926 -1.5114444 3.0082195 0.45821008 -4.7192364 4.689222 5.0029674 -0.9905245 -1.8107091 -1.8784391 -1.1781831 -6.4353576 0.17785293 4.05409 2.2750227 5.272094 -2.2156827 -5.015396 -2.296718 -0.74652034 3.1662993 -2.0184124 -2.0379982 0.35386458 4.3479505 3.5921202 -2.1951714 -0.6797249 1.1192952 3.0249743 -0.43274972 -3.871502 -3.603132 -9.326601 -1.3098332 -4.191452 -0.58919996 -1.3098326 -0.31258255 6.8316917 -1.8018234 0.99576217 -0.64429307 1.7868674 4.078929 4.5388384 -2.5047998 -2.5217993 0.882065 -1.9485888 0.14185262 -1.1907394 4.4888525 -0.71466076 4.6189494 -0.21851565 -1.8611832 -1.7543961 5.5486183 -5.731966 -1.6684935 0.33413124 0.79743785 1.2905277 0.63172543 -4.7879586 -0.079408705 2.2683048 2.4426782 2.2686343 -0.4488417 -0.16582382 -1.8963668 5.7866783 4.2460785 1.6854255 -0.1249473 2.91036 3.3015888 5.018784 0.7969196 2.4141097 -1.9904611 4.139788 -0.5362216
562 -9.071497 1.4515064 -5.034741 0.997169 2.378415 -1.6249917 -1.9573191 0.40619406 -3.1471934 -2.4346704 1.3474313 -0.92028314 -3.5881982 -1.611438 -3.8316488 1.3496532 -2.1814775 2.3442578 -1.6625452 -3.1530447 1.9997846 2.4332812 0.42295694 3.9799325 6.4622083 -1.7933401 0.35780436 1.1915685 -0.867959 -3.6104531 4.942642 3.3393996 0.37418613 6.5353403 0.43849045 -1.5277195 3.4841487 4.245146 1.7532312 1.0042725 -1.0695376 -4.4495106 1.837947 -2.00142 -1.1226737 -1.460291 0.86324054 1.6075981 -4.824552 -0.5485333 -0.1751442 -3.4031935 -2.073846 -1.6863353 -1.3263929 7.2694755 -0.26105207 2.8272622 0.15766665 1.6071231 3.657191 0.7274283 3.3826034 1.6616325 7.2909775 -0.4142097 1.1688629 -1.6073744 1.8482391 3.1561887 -1.7190186 -0.0028613438 -3.9649985 -4.978761 -4.0302434 1.4645653 1.0260593 -0.9415728 -1.5753385 2.8533802 4.172247 -0.6546759 0.72697926 1.9863601 -2.5528882 2.9167318 1.4956101 0.124425225 3.7500696 5.258086 7.6033077 -2.4515598 3.3194485 0.53048164 3.5038624 -2.8994222 -0.10929865 2.560344 0.71299297 -9.847979 -2.1361217 3.8944983 -2.4634113 1.0425116 10.213702 1.8303452 -1.4508978 -1.0145102 5.576569 -0.9264527 2.701504 2.8917716 -4.5319 0.64433 -0.25984532 -3.787267 -0.041242573 4.6121917 -2.30787 3.539811 3.466806 -2.4327018 1.0648185 2.0673773 -3.2864223 0.9669816 -1.6647215 -1.8052968
1586 3.3994026 0.8057043 2.3335273 -0.18719159 0.13993569 1.5151753 -1.1223055 -1.634703 -3.4024515 1.322976 3.5626068 -7.8710318 2.344181 -1.3512075 -0.8719528 1.7398814 4.5499344 7.6040034 -0.24867836 3.7481942 -1.6482693 0.7122595 -1.408237 -1.9899458 -2.8020272 2.4034364 -2.977202 0.39435047 4.9374027 -2.3263457 -0.6678062 -4.923594 -2.974454 4.532844 -6.711314 1.2262571 -1.7930194 0.27482405 -2.9960995 -2.3722732 -0.9146411 2.5996997 0.44677213 -1.156666 -1.1513084 4.4294567 1.6478131 -0.6064175 2.825572 -7.226599 -0.51208794 -3.2397342 3.3978395 -1.1374891 -1.7530497 1.4246551 0.28101212 -8.323927 -1.4283881 1.0822991 -0.48402452 6.6293306 -7.9176626 1.8541019 -2.3872347 2.6330132 0.8906995 2.3252954 -0.41129747 0.7564074 -3.0717294 -1.0146574 -1.9776949 -0.9777663 3.371709 5.6814756 -0.3797033 -5.2240295 -3.65948 0.92366326 -1.2244468 1.7518755 6.625959 -2.2345827 -3.219537 -0.4530161 -0.024774263 -2.5759 3.6299968 -1.6424575 4.825794 -4.6533823 -2.7566354 5.7523966 1.1951077 2.630869 -3.3550334 4.178596 -0.2417997 -0.72183895 -1.5255226 -6.7139726 -0.1328894 0.27313727 1.3995562 -0.6748398 -4.827235 2.5940642 3.955994 0.15242408 -0.2717445 -2.6064637 2.9366047 3.33815 1.6827393 -1.9715575 -3.3115106 -1.1867303 2.160308 -2.5674064 0.51718223 1.7904247 -0.5399705 -2.5790045 -3.249658 -2.8309348 4.7828937 6.231896
1410 -4.546114 8.256768 -2.9719892 -3.5912437 4.570263 6.8653154 0.83473814 5.423698 -0.38796133 -2.7019534 -1.3016382 -2.0283327 2.1850612 0.4826839 0.2334798 4.7862334 -1.3263726 -1.4823633 0.76705825 -4.5298862 2.2691646 -1.833653 -1.1846498 -8.9576845 3.9985342 0.5694922 -0.12509942 -4.4663334 0.42573026 -5.904099 -2.7274337 0.36668193 0.30172822 3.3211768 -0.1624752 -3.7054448 2.7963727 -1.9344727 1.7824743 -1.7892579 -0.116343774 -0.41648573 5.510049 -4.8301063 -1.7949659 4.351974 0.045302067 1.8257799 -2.2284544 -2.555557 5.820651 2.6838312 -5.1360483 3.9395723 -1.1788888 -7.901379 -1.0369776 1.369134 -0.4186478 0.73815393 -1.9576013 2.1085892 -5.2572303 2.021252 -2.4422078 1.0850403 -3.156017 2.4758112 0.18906842 -0.09379715 4.6199665 -0.1266389 1.1290883 -0.39356253 0.7536706 0.7542766 -0.49948975 3.0995116 7.069341 0.7446552 0.6480797 -0.19889674 0.6938082 1.0567635 0.53993106 3.3963318 2.9710362 -0.70168185 2.2606714 -5.617284 -1.2258557 -1.2235938 0.6772769 1.1815239 -3.337803 -1.7991462 -2.9495447 0.70275724 -1.2789147 3.2891917 -5.58083 2.0384583 -1.7093351 2.8996136 -2.043744 -2.733043 -0.5951964 1.6538199 2.0011795 -3.5221322 -4.0543175 1.9149152 -2.8826377 -3.9617555 1.8882718 -4.987645 -5.7349877 -1.7542034 -2.3275137 0.19449599 -3.8815432 5.2560816 2.7778878 -0.30255917 4.6119423 2.0160556 4.2720895 3.4672706
313 -4.8043275 0.36659676 1.4833862 5.1990814 -2.6349916 0.15188394 0.95724607 0.24446788 0.25446668 -1.9680083 2.0870352 -0.9941073 1.3263931 1.7734286 0.27528828 1.2435136 5.2382555 2.8160315 -3.5405302 -2.729664 -7.742097 0.24663584 -3.0802436 4.0995226 5.5809445 -0.3682662 -0.99501014 3.2920732 -0.69103295 1.5249878 -0.3947488 -1.8116895 -1.8093107 2.7101738 6.8804846 4.503705 4.900272 3.1705801 1.4424806 2.02919 0.6193437 -4.367107 5.9842186 1.0373278 -2.646153 -5.780562 1.0469387 1.8252245 0.8160286 -3.0435185 -1.3364843 -0.99281144 -1.313088 -4.9120207 -1.74058 -0.87151515 1.7850199 -4.9626184 -3.9233618 2.1294167 1.160498 1.0853745 -0.9187026 -2.5883634 6.9784513 -0.257055 0.78188 1.1234446 -1.1002637 -1.903748 0.7355879 0.58202654 1.4549227 -1.2873721 -5.2169147 5.510199 4.604749 -3.6094387 4.534402 1.2896475 -1.0554419 -1.9278234 -0.65862775 -4.0635767 -1.1696115 0.11385093 -0.51096636 4.499427 -4.436141 0.78873783 1.713444 2.7360482 -1.8938293 -0.31675935 0.09305995 -0.7662213 -1.5317264 2.149025 4.650446 -5.0014224 -2.0674038 3.8730927 -2.3992517 -0.24453767 5.958956 -1.4232689 -1.1817646 0.6336438 0.70209956 -0.6231608 1.4430443 0.22237693 -4.6106234 1.6078846 2.4442613 2.0779207 0.7426882 1.847058 -1.519053 6.3667173 3.9836056 -4.4601865 1.4288076 3.781641 -2.0442853 0.91731215 7.2625656 0.8320054
1352 -4.992445 -0.49585187 0.87138504 1.0751352 -2.4182642 1.3077738 -1.8577596 -0.17746091 1.8405399 1.5692966 -3.5971556 0.8148966 0.5305984 2.0387964 -1.0916914 -2.8839664 -2.5821657 0.6844024 -1.8415992 -2.020327 -0.93750536 4.8279104 -0.105571166 -2.401963 -0.28442508 4.335419 3.2519825 0.85147715 1.2601604 -2.011022 0.8553666 -0.83837247 -1.4297175 0.5505146 2.767449 -0.3053632 5.46448 4.708118 6.0644274 -0.89337456 -0.3140209 0.5092949 2.895336 -2.7018197 0.062582254 -2.446835 4.936757 4.753762 -2.7822337 4.759363 -0.7738839 -4.1120954 4.2041645 -1.1310387 -2.4642825 3.162275 3.410896 1.4526354 1.497818 0.26210088 -0.5059535 0.64782935 -2.4508798 -5.5581884 4.109965 0.9037448 -2.3365045 -6.095147 -1.166941 -0.78215605 5.4004683 -0.39227912 1.2064583 -2.831432 -4.4326186 -1.1563792 2.3236134 -3.5706522 -2.8683257 1.5964019 -0.8086545 4.3104987 3.2992256 -2.0584526 -1.3038032 0.7518431 -1.8547968 -0.8667608 6.3155766 1.6056165 0.6569628 1.6773306 0.00066175516 0.36695728 1.0509969 -2.4888437 0.2448153 -4.9957485 3.6779606 -2.1630898 -0.33608186 -5.2596974 0.93076545 -1.1247722 9.543837 -3.2108097 3.6298802 1.1999227 4.2463512 0.53577274 3.5076692 1.9759438 -1.1476929 0.4289082 5.883978 -3.1382113 3.5633674 1.9770402 -6.886307 -1.1316146 1.8158318 0.4158939 -4.6592674 -0.9311116 -6.444653 0.49406135 0.81424344 -1.2330045
1281 0.676704 -4.281091 3.9027708 -2.758792 -4.368029 -0.6698653 5.5369306 0.3164982 4.0555925 3.9082842 -0.5331497 -1.2494669 -3.850784 -0.28038815 -3.4685888 -1.8616318 -3.655568 2.1480665 -0.35853395 -1.3552823 4.5283184 2.0435855 6.4339657 -3.4621832 -6.3072624 -2.706299 2.3344376 1.5717012 -2.2880497 -0.54744774 2.837225 -5.057038 2.2316742 -2.874826 -3.2976918 -0.53959894 0.27268785 9.042576 -2.7573695 -0.6350868 0.037487287 -1.4675821 -6.9181256 -0.72549236 -0.40873381 2.0802095 4.8532715 4.97092 -2.1332002 -2.3107903 -4.1065717 -1.155599 -2.6627095 6.032009 0.63932353 -0.87898654 -4.135979 4.8015585 1.948182 0.55630124 -4.919672 -3.5209353 -0.94590175 -2.0577192 -0.30298257 -0.22442958 6.230165 -3.777654 -0.030224666 3.2374961 -4.3635817 1.3021039 -3.3930242 2.7616265 -0.5773916 -3.1658857 1.958438 -5.7234674 1.9267328 -1.0960611 6.1504674 7.3755646 -0.94719166 -2.3592064 4.5280666 1.7034975 -0.043264445 -3.6842356 -4.2124047 -0.19080362 -4.4900007 -1.4950734 -3.7680025 -1.3709478 -5.338785 -3.87159 -0.46695876 -3.5125554 -0.093923226 -1.719981 -4.853814 -0.9943087 -0.92032886 3.818303 -2.2057188 0.5198597 1.8183304 0.2464416 0.34064287 3.0271983 5.1991105 4.405563 -0.8917167 3.4875927 -1.5030026 2.8835409 1.1680951 2.6219366 -4.4333096 -2.3515542 2.2103152 -2.5568774 0.82342815 -1.0393243 1.4765906 0.42333525 1.0961256 -2.0288618
1111 1.139591 1.2445737 -5.984303 5.51098 1.8343526 0.8722073 2.6268103 3.9924817 0.23718885 4.472409 -3.0696452 0.47314087 4.464951 1.1137357 -2.8791244 2.2294614 -1.6943179 -1.9871122 -1.2668812 2.7610507 -2.5826619 2.892184 1.5599096 1.5784241 -6.510215 -0.9542686 0.8975736 2.0803607 -6.3388195 0.4994988 1.3035369 0.39054522 -4.0978427 4.6363525 0.18685178 -1.4411154 0.8717381 4.8089967 -1.3430367 -2.3306453 5.418384 -3.3575397 -4.743967 3.9769413 2.7744064 -1.4396648 -5.8704014 3.4331431 -3.0082438 -2.7291927 0.05440672 2.4407663 -1.3460388 -2.3484814 6.225098 -4.469638 -3.5809443 -2.0399122 -2.6537716 4.732982 0.8309477 2.0930128 -2.957394 -2.3536701 -0.6507867 -1.872656 -3.7792826 -2.9468741 1.6469306 -0.54981655 1.0329486 -3.2980058 3.5350347 5.1051736 -0.74429685 -0.20983377 -0.65444934 2.86777 -0.66509336 2.3079526 -5.4070244 -4.197602 4.01433 -0.37243974 -3.3886383 -0.9411619 -3.8211002 -1.0690192 -1.8483983 1.8860562 -0.9497203 0.5306891 5.6359572 2.9100504 3.2724314 6.488711 1.6264967 -0.89316326 -0.23350285 -4.8428426 -0.56082356 -0.40682504 2.0869157 -1.639928 -0.9521355 1.7077715 -3.4029496 4.236287 -1.2289274 0.39936885 -0.8440513 0.96799314 2.3737192 2.2671862 -1.5603136 -1.1601127 -0.5414563 -1.4472977 0.10770371 3.8823512 0.47749594 3.2393034 -1.6733197 -2.4551425 1.2357087 1.7795154 -3.13821 -0.2629756
687 1.2492568 2.1859176 -7.5810685 1.5640217 -3.0598726 -2.5780468 -2.0540164 2.2907753 2.2140148 -4.9832025 0.89808726 1.9933832 3.5279648 2.7732246 4.2274756 0.019686071 -0.3621998 -1.5690744 0.8706247 -1.3651714 -3.9593418 -0.103595145 1.5591276 -2.6447308 2.2782474 -1.1406735 0.6387238 1.106964 -0.22565372 4.176667 -7.952415 0.09036137 2.8945477 2.694932 -2.6610513 2.129827 6.951938 3.0660293 -3.5116897 3.246649 -3.024377 -5.105701 -1.0425901 -1.6844299 6.907204 5.551621 2.8289003 2.60103 -0.7003974 2.47537 -6.6016603 -1.4620752 -1.6462642 5.324036 1.1991231 0.87808496 3.238864 2.259419 3.2234383 -0.7974532 -3.0438728 0.65703315 -5.916713 1.0317913 1.2060244 1.264683 -0.429012 1.623612 -0.28317648 1.280891 3.0799282 4.206805 -1.413183 -5.7833576 5.744949 0.35110295 -3.8395743 0.7651635 -4.1005526 3.9573295 -1.5396702 -1.9938356 -4.66785 1.0048748 2.8018034 1.8485531 -5.4258633 -2.8628879 -5.309539 5.993361 -3.1599617 -4.0117626 -1.0445538 1.8233728 4.521996 1.0212678 5.0784736 -0.010480046 -2.2632155 -3.1662285 3.589253 3.820565 -2.0142503 2.5121877 -0.24144773 3.009479 0.34423074 -6.2571473 3.9902925 -0.6966731 -0.66898066 -1.4466957 -0.67339385 4.62904 1.1024585 2.9859736 1.2639842 -1.1672132 0.5510651 0.8712753 -0.41785446 0.95385486 0.6976888 0.61276877 1.4550098 0.2943802 -0.5562309 -1.2668025
816 -3.8572202 7.403244 0.05569161 0.36023933 -1.9429955 0.16531283 -1.7043549 -0.22043326 3.2589512 2.459946 -1.0200231 2.719145 -3.2167277 2.7848587 -2.5917144 -2.246387 5.0019937 -1.341859 2.2850447 3.0681736 -0.45868182 -1.0676832 -1.2281054 3.4620602 5.7177095 -4.1669674 0.4751301 -2.6575284 -0.6268294 -0.626223 -0.9354244 -5.2087164 0.79467255 -3.270929 0.9698688 2.4007719 -5.211836 0.41319022 -0.05231056 -3.6652646 1.5829011 4.010454 -1.55976 -2.153065 -4.8443594 4.9991803 0.5813939 1.5647451 0.47918725 -1.8003169 -2.8806098 2.5635662 1.8349695 1.5963619 -4.50635 3.3621283 1.6853067 4.019676 -2.600157 -5.3979545 2.318825 -1.3273456 4.9496922 1.573917 -0.6528235 -2.2304888 0.30551094 -2.8508217 -0.80581987 0.59433496 -0.25905216 5.3729053 1.5549012 -3.5973864 2.5426946 -7.399633 -2.8981295 -0.9053616 -0.17750235 -0.9654085 2.347002 3.7786524 1.1988081 -5.49986 -0.087477274 -0.54807264 -5.1415033 -0.013550005 -0.90212744 2.0371351 -0.09504074 3.5580592 2.1002526 1.8590324 4.541411 -4.1443596 -6.484801 5.2149167 3.5504127 1.9422213 -2.1066945 1.7630643 0.91654366 -0.9515838 -4.1190643 -7.682191 -1.6842463 3.676128 0.7466929 -2.3698652 -1.431477 -4.8351145 1.4739671 2.7352028 -2.1683702 -1.396561 -0.035257388 2.8878064 -0.8632771 0.30156136 -5.61226 -1.752638 0.6983031 4.1712103 3.7667208 4.831883 -0.551593 1.1957058
293 -3.8569133 2.2091467 1.7576982 -0.9785872 -1.8403065 -4.42829 -2.0159495 -1.8200166 -0.022335693 -0.38872582 3.7558672 1.742863 -4.097201 5.8591037 -1.419535 -0.32421213 -1.0382941 2.910732 5.674678 2.2945392 -3.131333 6.4916816 3.597108 -1.0342927 -2.208584 -0.17348807 0.19739993 1.8027725 -0.057971828 2.908204 -8.575036 2.0613534 0.1593138 -0.24284965 0.3605396 3.1989343 0.28227714 -0.38680324 -4.742776 -2.9948215 -0.9933757 -3.6393874 4.4111576 1.0326372 -2.5412273 -3.1509926 5.465216 0.73058337 2.3852088 0.12893866 -0.14755957 -4.8793616 -0.918094 -1.656063 8.51122 1.2340894 0.7850898 -0.0070793373 6.5610585 1.3135866 -1.1895103 2.700441 -3.7111645 5.6059594 -5.8178587 -3.249856 1.2723581 -0.306338 3.5965924 -0.40628478 0.4317609 -4.407113 0.21788852 -4.4694805 1.4191477 -0.5670452 2.808115 -5.923598 2.082716 0.5087253 -1.1009879 -1.0742426 -2.1377866 2.9834118 3.7450364 -6.588628 2.7013829 3.7646627 -4.4400578 -1.617559 -3.6950004 -1.1978346 -1.6995171 -1.4801246 0.32002443 -1.4102014 2.4346836 2.3291728 -1.3383201 -2.0657609 3.942451 4.5351114 3.334667 -1.4640472 0.5351947 3.0501053 -1.7880565 1.2988707 3.9589937 -0.660053 2.7278774 -6.276283 -4.4543366 -0.3996898 -1.3764645 2.361395 -1.6569873 -3.7380455 -2.524009 -1.7498602 -1.1387022 6.686795 3.1942215 1.3765248 0.36207098 0.9595572 3.3653457 -4.9496913
720 -2.4972308 5.071236 2.666045 -1.602897 2.0683522 1.1606059 -3.6239839 -3.0972593 1.0868647 -4.171386 -0.6036686 5.624917 -2.2149372 4.433948 2.188499 -4.5871596 -2.3809206 -3.3151846 5.121484 2.3601353 -2.5813022 -1.8109256 4.2690897 -6.5200744 0.19607644 1.0401808 -3.113544 3.5069366 7.5310106 2.1287124 3.2101068 0.9199307 1.0740706 0.55215347 2.9441016 -2.1788528 -5.2174106 1.7104639 -0.54915935 -1.2272816 0.6240215 4.868457 -5.163414 1.3609202 -0.33565438 1.0226976 -4.9015822 -1.0124549 -0.1924962 0.51139116 3.9084857 -0.9912108 2.5700927 3.1737223 1.0058093 6.242539 4.486249 0.2812314 -6.4533076 -4.0145392 -2.0978227 0.1194917 3.9447548 4.048981 -0.11124606 -1.9054816 -1.8691623 -6.0960402 -1.7607844 3.2715113 -0.5047171 2.6931171 8.331314 -2.6549144 1.3330019 -2.7674265 2.7473607 3.3967133 -0.9704967 -2.0558789 0.54795545 1.5945404 0.13939399 -4.338113 2.3905149 1.9799368 4.5880404 4.1751113 1.0592277 -4.4256067 3.3411446 0.8227929 -0.9722249 3.8501952 3.262082 1.3592924 -2.0175307 -0.09061186 2.226537 0.41138235 4.463904 -1.6368786 -1.0947862 -0.31372356 -0.7540773 -2.4198494 -2.4134002 -0.99452955 6.681147 0.9136764 2.4334974 -3.835626 1.7499405 -0.12634432 1.5541828 -3.9295714 -5.225562 -3.224963 -5.8567324 3.6852791 -4.3292737 -1.6975436 -1.9864987 0.11329601 -2.7209237 4.848099 1.2041956 -0.44535372
1635 1.6476313 -2.141789 -0.1473088 1.472073 -4.002746 -5.967016 2.0166376 -2.0236104 1.2581793 -0.22230263 3.532927 -3.6739624 2.3362784 -6.6750937 5.350553 -2.7550988 1.8855971 -2.059992 -1.6107101 -3.8503742 2.2652812 -0.009880056 2.0343404 -1.507752 2.8853083 1.9868385 -3.097853 -0.55557674 -0.4828662 0.9132447 -1.8299404 -2.777447 2.4071598 1.4037529 -2.9032624 -4.1569834 1.1619277 -3.026639 -4.657722 6.9659333 -0.49094847 1.5387074 3.3879051 0.6654325 2.5248437 -0.10747623 0.2135809 3.9934013 1.7172911 -6.149356 -4.46735 -0.021310514 -1.8960979 -1.2252339 -3.6699557 5.8919516 2.8430982 0.019880049 -6.7279234 -0.8416394 -6.184138 2.6833994 2.550256 2.342194 -3.5499768 -2.0465627 -2.1132936 -0.46271348 -3.5028677 -0.5888663 1.9250901 -2.7874289 1.6374644 2.8515413 -1.9629797 0.28291187 -2.3527498 1.3991652 0.47754535 1.8036306 -1.6121886 -4.129847 -2.8854403 -0.31402203 -5.789695 4.237503 0.7203294 -4.545082 1.8206006 -1.8118981 -1.0976462 -1.8516182 1.6361629 -5.5044045 -7.8713326 -3.5008345 -1.0943869 4.982001 0.42467436 -2.4840991 3.8626008 -1.5450367 5.506898 -0.91878706 -2.8440056 -1.3855168 5.659736 -0.6837522 0.035927918 2.309908 -4.0354548 3.490421 3.6593854 2.1592016 -4.4201703 -4.1001816 3.7460237 2.545711 1.0164986 3.2956975 -3.7626195 0.16120271 -2.2834961 3.6699722 -1.7408868 -0.483645 -3.6514294 0.84413457
1895 -2.9303353 9.11905 -5.6503453 -0.03261769 0.10997512 2.811546 4.9563365 -3.0725923 -3.6772118 3.8438082 0.7713433 4.394958 -1.3598045 -0.70228904 -0.13997793 0.044146705 3.0340014 -2.5778697 5.8240676 2.710116 -5.7653112 -2.2993503 4.0708222 -1.1197064 0.4208577 6.4679456 0.22721344 -4.4985623 4.472931 1.6994619 0.16828287 -4.8507442 4.755375 -3.7685366 6.17654 3.177348 -2.9463537 -1.1698602 0.26876566 0.16407175 3.1420557 2.467644 2.3816938 -4.461275 1.7508503 1.62834 3.645657 1.5438516 -1.0300916 3.5337505 1.4102086 -4.234864 -2.2363474 0.9005539 2.3311608 1.5413357 3.648596 -4.887889 2.3061213 -4.9162736 -1.6615279 -3.2561293 0.44199485 1.238761 2.4191256 -5.4804764 -2.5432544 -5.4633145 -3.0830789 0.78657645 1.2395854 -1.5691016 4.6934514 -0.25319752 1.5222768 2.7838109 6.531736 -0.34418544 1.007816 -4.186589 2.3095844 -0.77627885 -0.30259848 -3.535569 1.71091 -2.3815382 -5.04653 0.005240488 1.0802964 -1.10306 3.1638799 3.0542963 5.6388383 2.2870028 1.5294205 -3.4653332 -1.9266505 0.49019596 -2.2292662 -0.9423872 2.2958767 -0.19343007 -4.207076 3.4752018 -4.340349 -5.326556 -0.59825695 -5.175959 -2.9066908 -6.4316635 -1.1677645 -0.42661354 2.5104046 -0.8272404 -4.0505486 -2.4070547 0.9073736 -1.454688 1.1911631 0.7198463 2.461237 -0.3571525 -3.2245045 -3.4535136 -3.9409008 -0.06894644 -4.864975 0.14849417
190 5.0127187 -3.6401193 0.0094218645 1.8444563 -0.81546736 5.7038984 -1.1402828 2.3405108 0.13900733 -3.2010787 2.9389884 -2.2734735 -2.6471822 -1.5317161 -1.0847147 0.61577976 -1.1836432 -3.0203004 -2.404817 3.180982 4.7627997 0.18088476 -5.930764 0.19883375 3.4667249 3.7205727 -4.5964017 -0.42454788 -1.9402012 -1.5571693 3.2842934 0.8441713 5.786249 -3.265773 0.0902251 -0.8037881 4.9941225 4.587408 -0.695602 -3.7000551 5.43372 -0.4981509 -0.41409177 -5.7549944 -1.3304412 -1.3014804 -0.8086278 -2.0103385 4.2987037 -1.2984331 -1.8073078 -1.688475 -2.8186927 3.751901 -0.22826865 -3.1968405 -0.74435765 3.9038398 -3.933725 4.182852 -0.9700692 -3.5174758 1.6715825 -4.5147614 4.616553 -0.64892644 -2.6703842 0.3977847 2.938878 5.4751716 2.5120533 1.5393672 -3.1642175 3.3872373 5.5713854 0.72631556 1.877843 -4.1329317 -5.0727873 1.3057038 -2.8675053 -0.4986955 -1.6420211 3.1066453 3.566006 -0.20871152 2.7844899 0.99323314 0.70518315 -0.34992614 -0.33222663 0.06683387 2.6191542 -0.09412172 0.120187744 -2.3864512 3.683476 -0.84425944 0.09935789 3.1513174 -4.134929 3.307206 -0.7461025 4.853403 -3.708508 1.0507357 -1.2011899 1.1830761 -5.49732 -0.26098907 -0.046781316 1.4835002 1.9650917 -2.3307605 2.9993892 5.885395 1.2264276 2.028246 -1.9115939 -2.417381 4.454077 -3.8745258 8.136537 5.9092655 0.91893554 5.5299964 3.9144795 0.20856792
1857 0.9469659 -1.957811 -0.26973423 1.0326511 -3.8595638 1.9593402 0.6578089 -4.637516 -3.0358853 4.2848907 0.35081652 0.9361311 1.0784979 4.157065 0.2024962 -1.7932281 3.1036167 -1.8541155 1.8173846 5.6149144 -7.160836 0.4507582 5.474927 1.9977638 -2.853269 2.3824494 -5.08714 -3.2024338 -1.6863451 -3.7158315 0.43911573 -9.23266 -0.24700223 -1.5770093 0.6606977 -3.5181317 0.8435592 2.6895967 0.74654984 -4.2863674 3.2261481 0.37232453 -3.5902157 -3.3435981 4.4219456 0.4197027 -4.6507735 4.594571 -1.1175737 0.5172918 3.3102455 2.289063 0.68312764 1.6225516 -0.38131845 4.1545944 1.1611013 -0.8476712 4.285527 1.5244876 -0.88929486 -1.5358857 -0.4884188 -2.4983172 0.8820178 -4.9095707 -9.523066 0.6597316 -1.7018384 -3.631179 1.6849062 -2.5360892 1.145601 5.709489 0.13782558 1.4788083 2.573819 5.985834 -0.47601834 -6.0976973 -6.8283544 1.1678138 3.003097 1.9145939 -3.1114342 2.0576563 -4.951825 2.1487174 -2.8211176 -0.15077493 1.0603997 -1.4539188 -1.9688586 0.9104696 5.4751515 -3.0414011 -4.2114267 -0.7547042 1.0355608 4.366231 -2.535995 2.8302567 -1.1743417 -2.6325696 2.7018578 0.63248545 2.1604235 2.215667 -5.0426707 5.1967683 -6.3488374 2.0115635 2.4522607 3.1794543 -1.6618928 3.745505 1.2425997 -0.598306 2.9328837 0.36121956 1.2246932 5.5525575 1.0587324 1.242927 0.73607874 -1.0301886 1.1109079 -3.370473
1875 -1.3422172 -2.1992548 0.27782866 1.0493761 1.8713806 -2.9251842 0.02233265 0.32875028 2.9393747 -7.579596 1.7038133 -3.2466583 5.0513673 3.392349 -2.387717 0.19555639 1.3281507 1.6263832 -2.1938941 0.44764972 -1.2906667 0.10949001 -3.3237965 -0.9776333 1.8895463 3.2970529 3.6022713 -6.2195864 6.1020455 1.5256901 -3.1768782 1.3784361 2.5101106 3.1628664 -0.008100153 -4.248892 4.229203 -0.34807798 1.1949481 0.12728803 -1.483809 -2.7145028 -0.40762228 -1.1360139 0.4040091 0.77150583 -1.0607159 4.0876713 3.9936194 -2.646922 1.1545231 4.4840903 0.390751 -3.2149231 -4.7601485 0.60609 0.50652784 0.034280784 0.68017244 0.8566705 -5.005851 -0.12041055 8.075535 -1.1916035 2.9081864 2.7670774 7.1656194 -1.8758186 -6.0634236 0.28612038 5.0724306 -0.90923506 0.30444145 3.1905107 2.6955004 -1.1423364 -1.8110297 2.148727 -2.8888175 -5.170477 1.453207 -2.459751 -1.3129631 -1.2582852 -4.186969 -2.0671175 1.6088233 -3.2683246 -0.3708728 2.5421205 -2.452247 -3.342839 -6.271588 0.020240832 1.193002 -0.69291073 5.109916 0.79761195 4.1259074 -0.4402647 3.620327 -3.5739503 2.4483867 -2.5361068 -0.49890885 4.7997274 7.75947 2.4586647 -1.1279986 5.51521 -7.029961 4.277799 -0.026321115 1.3682095 -3.323632 1.7840388 -1.722386 -2.9743493 0.54898477 -4.5935726 -1.9426081 1.0713289 -0.07037473 1.3296776 1.684036 0.91177404 0.80467945 7.202062
1418 -3.3490834 10.22742 -1.1251185 1.0466383 1.0603006 -0.12863639 -1.9618165 -0.028571319 -2.5070927 0.33141533 -2.4196746 2.4885368 -1.3949771 -2.4146214 0.7808222 -1.961658 0.77483165 -3.2792675 1.5924747 4.2939157 -5.3053536 3.390804 -2.3166392 1.1230983 0.47796133 8.112718 2.8870907 -2.9141786 1.6928545 -1.326229 4.5980644 0.7747329 -0.22371623 -1.7936429 0.29021782 1.0214473 -3.6384578 3.5258484 -1.7629299 -1.9831727 2.8722737 4.473909 -1.4189273 -3.9241822 -4.329508 0.51778376 0.67831445 -0.6336422 -0.8151258 -2.7863853 -2.9465616 -1.7374504 -0.56740403 3.5367138 0.37595984 3.8207219 -1.7537307 4.191275 1.2082871 -5.221837 0.080844395 -6.072448 -0.09276959 2.0440521 3.9586754 4.8202662 1.6863668 -6.9167004 -0.15486367 -0.60182637 -5.5178022 0.37172738 3.0099645 -0.6369356 -2.2283616 -1.8978047 -3.9569793 -0.29363516 -1.6586018 -0.7333668 -3.9618094 1.1486291 -1.4567683 -1.2879344 1.4604661 -1.8254768 1.4748913 -0.47904015 0.12475567 -2.6816356 0.046044912 0.10944106 -4.672306 0.32593507 1.0861833 0.23311853 1.3598288 0.25528002 -0.028620575 -0.23002005 1.1828368 -5.437394 -5.05339 3.9326642 -4.671521 -4.861244 -2.4723387 -3.4611754 0.17329645 1.7654047 -4.53693 -2.5473752 -1.025738 6.1552615 1.723313 -0.04437805 -4.827556 -4.2249064 1.7263161 0.18308719 2.146405 1.3228174 -2.1854615 -1.653916 6.1108775 -3.2971706 -3.4148138 3.1795862
740 4.7243543 -1.8024071 -3.5818336 3.8063054 2.5641477 3.3124628 0.9399651 2.3088999 -2.5544703 1.8932862 1.7161111 -3.116767 -6.202666 -6.626055 0.82444936 1.54072 -3.2269511 -1.0825185 3.6048844 2.1949668 6.5202885 0.6639816 -2.1325734 3.0020137 1.1807568 -2.0311906 -4.257958 2.1785476 1.4750879 -1.3317063 -0.36330214 2.1705751 5.7899013 -5.9685264 1.0938827 -1.785892 4.9836583 2.2836058 -2.9311953 -0.33880144 2.0708961 -0.04642384 -3.3552923 -3.9150088 -2.337561 -3.2461941 -6.4276347 0.663547 0.36028564 -2.4766605 -1.0348184 0.33937544 0.44110444 5.2380466 0.8987564 -1.759875 2.769983 2.4030993 -1.832998 -1.1409141 4.5890737 -1.8171511 3.483926 -4.9329596 5.4518423 1.0247265 2.9187126 -2.2776604 3.7095246 1.337907 1.6387142 -0.9643942 -4.7327814 0.71034396 2.5938063 -0.14754756 0.13558912 -2.9405105 -6.4049745 -0.18477626 0.54711443 1.3417492 0.79414487 0.068485364 -1.2914441 -0.009490713 1.8171498 0.6035659 0.2498353 -3.3614848 1.1565014 2.4345372 -3.3068855 4.1178575 -4.003716 -3.5011923 2.21205 -5.1835723 -1.6811934 1.3999054 -2.9996443 1.8832165 4.3858714 3.2276824 -5.14769 -4.653055 -0.558134 -0.9627703 2.056216 -3.4503264 3.5786736 -6.2002115 1.0173293 0.87334603 -2.3815062 0.5182986 2.5717666 -3.0997777 0.69700104 -3.759635 -2.6742759 3.2819343 4.9880376 4.8075223 0.10313137 0.3202509 6.0417633 -1.1340705
81 -0.32299328 3.4478064 0.29199055 3.539398 -2.9868708 3.4341881 -0.3013252 5.974967 -8.383194 2.091016 -6.3222785 3.0738516 1.4756516 0.22961926 0.9501419 -0.24092078 1.6810745 -3.2711368 1.2882903 -3.529367 -6.6227245 0.2848516 0.33257774 1.8371593 1.5871831 3.4131176 8.93029 2.2924666 1.2489187 3.0220752 1.3868403 -2.6504204 -1.6992908 -4.608415 4.6558404 0.08490829 -4.6062107 -1.6154819 1.6659411 1.057024 1.6723868 4.5521946 -0.9013109 -3.951939 3.309077 3.2126367 -2.5005884 0.17837979 -0.76251465 -3.620472 1.5688149 -3.5441477 -1.0903027 -1.5955508 4.940238 0.267034 2.1443822 2.1775277 1.6521341 1.5086051 -3.8658807 0.5979135 -4.621732 3.2824168 -0.24803184 0.67073745 1.9341761 -4.091982 0.5519814 -0.29021874 -2.012639 6.144006 2.5466278 0.57194984 -2.0829403 1.1106442 0.6577517 -0.47495517 -1.2021829 -4.7788124 -5.5147586 4.551257 -4.3278623 -6.3802986 -0.19549464 1.0322742 -0.24966018 -3.3034263 0.5177907 -3.6849084 0.8581986 2.445245 -3.2630084 -0.62616855 3.9645796 1.2925328 -3.0303414 2.821806 0.123129666 -0.24202916 0.6372598 -0.81076777 -1.1321772 -2.3132808 -6.0597763 -5.544181 -0.6052504 -1.4176449 -4.5663133 -4.347807 1.4475746 1.3625126 4.82597 3.535766 -0.5339213 -2.9497273 -1.6620251 -4.360758 -7.653526 -2.455994 0.21846579 -0.53062266 2.5436103 -0.09270461 4.557722 3.6596515 -3.294449 1.1081388
1475 2.777717 2.237597 2.0861187 4.296272 2.111894 -6.777286 -0.5628532 -0.2700307 0.55134606 4.3488264 2.1660805 -1.6379212 4.9029 -0.33579442 5.100493 4.028174 2.8879337 -3.9607615 -1.9768614 -4.75191 1.0497546 -1.2016509 -1.1306959 1.1567137 -2.1471405 -0.12992758 1.519286 -1.2730534 -1.5521089 3.7778156 0.52684313 2.3081884 -0.86099243 -0.6371683 -1.3060496 -4.6517625 -5.590074 -6.071326 0.35410553 -2.2482884 0.94625765 5.5109158 1.4677128 -1.8174163 2.7935371 -2.8009307 6.832834 -1.6748166 -4.39009 3.243922 1.4184177 0.78415877 4.7931967 -0.95656633 -1.0276382 -2.1974416 2.705166 -6.156947 2.5700252 -2.882744 0.9382764 -2.1877813 4.881782 -4.0700445 1.0815533 -5.3805118 -2.084467 -0.41999376 0.3129008 -0.6852613 -0.30370316 7.239879 -3.6496725 -1.0658404 -2.049379 1.9282347 -3.0125291 -2.628145 -2.6588326 1.3388497 -1.1081338 0.65519416 -3.767821 5.2174153 -1.631285 0.33082095 3.897356 6.819892 -3.2699468 3.9842775 1.4127182 1.1644485 -0.7155166 -0.8208378 3.1898057 -3.7884376 5.7911 3.156011 0.5704971 3.0577211 2.7196448 6.315567 1.5216577 -0.07315816 0.59975725 3.2174845 -3.6733353 -1.072233 0.039327953 -2.2123473 2.8694482 -1.1590647 -5.1525807 -4.872752 1.9411439 -0.87808686 -4.264847 -4.7669883 1.149436 -3.7934632 -5.5891566 3.374319 3.9931276 0.7927542 -4.656915 2.8546288 -0.45103014 -1.2315296
