160 64
2 -0.011870397 -0.2736914 0.058680277 0.29287738 0.48500568 0.036434203 -0.21485531 -0.48021904 -0.09183751 -0.14175819 -0.2212051 -0.1647804 -0.5140378 -0.1904954 0.014003534 0.2070221 0.17826357 -0.09296412 -0.16461082 0.09042329 0.062645376 0.51184887 -0.023022491 -0.15424877 -0.32106954 -0.2566775 -0.40502223 0.0648196 -0.15621692 -0.022166884 -0.106085405 -0.44011554 0.034527928 -0.62354225 -0.57296956 0.07347294 0.048806325 -0.18546535 -0.39806154 -0.08830685 0.24249041 0.13903706 -0.17511636 -0.47181937 -0.4131207 -0.15871586 0.13299266 0.219042 0.0058003585 -0.06531085 0.08177968 -0.34618807 0.28133565 0.078250594 -0.21263377 0.057398565 -0.087298326 -0.024523644 0.12409795 0.157021 -0.11163853 -0.28370115 0.7781039 -0.3109992
29 -0.016569804 -0.26812762 0.08137181 0.27585518 0.4756527 0.053860236 -0.21420383 -0.48272157 -0.08530048 -0.15161215 -0.23092818 -0.17747392 -0.53647816 -0.19281182 0.012373051 0.21144792 0.17178777 -0.100971155 -0.15848151 0.07545266 0.0718387 0.5139791 -0.027352605 -0.13384046 -0.29263845 -0.25321457 -0.43465868 0.07207541 -0.1579636 -0.009837522 -0.105935276 -0.4569544 0.034879647 -0.6163671 -0.59883875 0.04249429 0.0420479 -0.17187706 -0.40434408 -0.086288214 0.25690842 0.16231637 -0.17175677 -0.47598347 -0.40797642 -0.1785225 0.11378465 0.2379189 0.01656783 -0.08282831 0.068480544 -0.33237863 0.28170913 0.06823786 -0.17809509 0.04465714 -0.08475181 -0.034702025 0.11820024 0.1580293 -0.11267124 -0.2690314 0.77719027 -0.3188193
106 -0.24455643 0.019018184 0.35313064 -0.013626624 -0.19770066 0.45774627 0.12510441 -0.2006379 -0.0022265262 -0.1827572 0.2677233 0.23682278 0.01653773 -0.3161091 -0.028690584 0.15480077 -0.35822582 0.26886111 0.16571593 -0.16202681 -0.049514927 0.32267687 0.16175447 0.2045739 0.76885104 0.27001637 -0.31978238 0.24658361 -0.027826022 -0.11266338 -0.0038460912 0.1097274 -0.39722008 -0.60946006 -0.40824786 -0.15720166 -0.61300856 -0.11000962 0.046053886 -0.20938306 0.29476565 0.14187425 0.11200589 -0.22756201 0.05139719 -0.47409403 -0.37860993 -0.06129658 -0.013884664 0.24732898 -0.19260347 0.21129782 -0.26129937 0.09341262 0.32642722 -0.53368276 0.08321682 -0.17251864 -0.20303065 -0.22049323 -0.1615081 -0.14309447 0.27697417 0.23046069
124 -0.24943587 0.057118487 0.35561 -0.00907629 -0.21583046 0.4314883 0.111731514 -0.2144462 -0.011016348 -0.16972435 0.28958625 0.20078713 0.00096620736 -0.3009379 -0.023480235 0.15968928 -0.36801234 0.24763212 0.16492371 -0.14239672 -0.09855727 0.34734023 0.1676797 0.18503045 0.7795586 0.2591552 -0.3125952 0.2206179 0.015237392 -0.0939218 -0.009989468 0.09430463 -0.44327396 -0.5790374 -0.39476934 -0.18300074 -0.6008346 -0.17705972 0.08771468 -0.25129342 0.29252848 0.14667708 0.13913225 -0.26109257 0.054504473 -0.47778413 -0.42799842 -0.07471182 -0.019755414 0.29633746 -0.17585456 0.1777353 -0.2461143 0.09455073 0.32278484 -0.5139121 0.07933215 -0.20269229 -0.24244577 -0.20641652 -0.12755412 -0.1386832 0.27841136 0.21962541
91 -0.2731351 0.034776058 0.35000077 -0.022751296 -0.20298928 0.46080434 0.1094368 -0.20741121 -0.029011566 -0.16223407 0.28138825 0.25344342 -0.0074175145 -0.3047391 -0.029456016 0.14740472 -0.3495606 0.24011448 0.17394564 -0.15813771 -0.072895505 0.33140332 0.173287 0.17619309 0.7933408 0.24921623 -0.2971813 0.2192536 -0.020800628 -0.08786158 0.005545116 0.08982612 -0.40126908 -0.61252314 -0.37949535 -0.15975828 -0.6170897 -0.15122299 0.060308024 -0.22057524 0.2902829 0.15317197 0.14723283 -0.23562732 0.057891075 -0.4651103 -0.39997804 -0.07037288 -0.014077621 0.27210987 -0.19074364 0.2046136 -0.23644637 0.08641199 0.30920175 -0.53751534 0.07688253 -0.18333478 -0.21094747 -0.22273433 -0.14377798 -0.14653698 0.2956272 0.23867378
102 -0.26829937 0.020245835 0.3402864 -0.03471049 -0.20989558 0.46815628 0.11872407 -0.2134851 0.009858453 -0.18143754 0.29390416 0.24344116 -0.017779084 -0.3256563 -0.01644911 0.15538834 -0.3697523 0.23829752 0.15573794 -0.13271211 -0.070604146 0.33422187 0.19171105 0.19045873 0.78102195 0.2796365 -0.29680714 0.23376733 -0.016821913 -0.109995924 -0.014253116 0.0863561 -0.42722815 -0.5715452 -0.38011524 -0.15720978 -0.6072881 -0.15034811 0.075451635 -0.22622171 0.28690138 0.15988249 0.13439587 -0.24050085 0.05020752 -0.47034445 -0.4158109 -0.08422053 -0.02200322 0.27245292 -0.1816429 0.1998951 -0.24868645 0.08605574 0.30292094 -0.5155164 0.08664531 -0.19748156 -0.21006757 -0.2064403 -0.13893233 -0.14880054 0.28795278 0.23415239
120 -0.25042564 0.022957213 0.3671441 -0.008768437 -0.21121271 0.45877874 0.12921666 -0.17698441 -0.0037278042 -0.17629145 0.26025295 0.25872615 0.0014820754 -0.30086914 -0.012360579 0.14699858 -0.33792624 0.27098873 0.17534153 -0.13110252 -0.051809426 0.32960665 0.15893565 0.19408551 0.7852345 0.26148063 -0.3253988 0.22778937 -0.034931824 -0.10349571 0.00072173565 0.0983636 -0.405488 -0.61474025 -0.4073888 -0.15322651 -0.6164194 -0.12403521 0.043668885 -0.23288271 0.30222416 0.13400233 0.12888353 -0.23257759 0.051104657 -0.46478713 -0.39050397 -0.04862872 -0.020317774 0.2623521 -0.21144933 0.20648333 -0.23454072 0.10756842 0.32696372 -0.5339409 0.088409476 -0.17502876 -0.19814809 -0.2252935 -0.15516785 -0.13714598 0.2784994 0.23909992
30 -0.029433288 -0.26885232 0.06943068 0.28451055 0.49909574 0.07174401 -0.20703505 -0.48844105 -0.084162384 -0.12801518 -0.22777541 -0.158719 -0.5138999 -0.22702262 0.025775138 0.20903914 0.16346206 -0.086076885 -0.1668281 0.0816539 0.070313215 0.5266368 -0.039460707 -0.15926881 -0.28395566 -0.26553196 -0.42015287 0.049696773 -0.14910625 -0.02647116 -0.114045456 -0.46390682 0.038043015 -0.6346826 -0.5931134 0.07671236 0.03665957 -0.1961457 -0.40316078 -0.076141715 0.23552912 0.14335246 -0.19417167 -0.48135674 -0.40506688 -0.17414351 0.11023437 0.23108363 -0.004033812 -0.06738719 0.096447684 -0.33653244 0.28258038 0.08123389 -0.17351416 0.04441892 -0.05420996 -0.014399188 0.11148156 0.14483818 -0.09014365 -0.26316836 0.7814749 -0.29565126
5 -0.04479579 -0.2793797 0.037939858 0.27504474 0.46762598 0.065838665 -0.20079616 -0.52241206 -0.08745047 -0.12715685 -0.23375933 -0.13787478 -0.52469474 -0.18307495 0.011442927 0.2171325 0.17579387 -0.08532456 -0.13771473 0.05872027 0.10685284 0.5327796 -0.043572526 -0.12890926 -0.29852462 -0.2584898 -0.4120951 0.04513448 -0.16894598 -0.045552563 -0.10177874 -0.4589004 0.042263642 -0.61883265 -0.5846623 0.06060454 0.024097247 -0.2044133 -0.3765414 -0.06916238 0.2551847 0.14277361 -0.19801714 -0.44736415 -0.3885419 -0.1920081 0.12753092 0.21781519 -0.017028414 -0.0790086 0.10016774 -0.31294212 0.31020352 0.106388316 -0.17836744 0.026939457 -0.06653687 -0.0020510317 0.10686058 0.12956366 -0.11572104 -0.30003494 0.8040559 -0.31437972
48 -0.026002256 -0.27296948 0.074361525 0.31523657 0.48465723 0.060189143 -0.18803279 -0.48342466 -0.08129652 -0.15527724 -0.22601672 -0.17140791 -0.5230566 -0.19228742 0.011919241 0.19008148 0.17506991 -0.109582216 -0.14996831 0.06322449 0.08020153 0.50732213 -0.03040263 -0.1601955 -0.28532442 -0.26486468 -0.44626975 0.06588705 -0.14057298 -0.020873956 -0.10044822 -0.44671845 0.020830194 -0.6252994 -0.5659079 0.049886823 0.042491186 -0.18977691 -0.39497447 -0.054412298 0.21997578 0.13508312 -0.17947842 -0.4931193 -0.4299227 -0.20317777 0.11410655 0.2386904 -0.016147723 -0.090147994 0.084292784 -0.33700863 0.3044481 0.07261181 -0.16851716 0.05608534 -0.08791191 -0.030096281 0.098220095 0.1647483 -0.11953949 -0.28769654 0.7784021 -0.3090337
69 -0.03082244 -0.27836108 0.08081058 0.30569354 0.4977127 0.077811 -0.20324278 -0.49919546 -0.07577457 -0.15075105 -0.22623242 -0.14583136 -0.49965945 -0.19357042 0.024200128 0.21792041 0.16482624 -0.09264813 -0.19445279 0.081565924 0.086734526 0.511589 -0.04526189 -0.15073292 -0.30852062 -0.25413334 -0.4330873 0.059932236 -0.16656668 -0.03599974 -0.11889079 -0.45603657 0.049915962 -0.6281552 -0.58124846 0.065737285 0.050947703 -0.20665064 -0.3947513 -0.05894116 0.22641999 0.1651236 -0.16833313 -0.48313463 -0.41802615 -0.20716706 0.10204225 0.23090886 0.0043730144 -0.07765857 0.076273836 -0.34514418 0.28816506 0.083005995 -0.15180719 0.040082376 -0.05451869 -0.009684813 0.113837 0.16109452 -0.09543779 -0.28451118 0.77239865 -0.2911597
52 -0.014712658 -0.28348467 0.06339165 0.26473758 0.49493533 0.042398 -0.21320418 -0.4816137 -0.07561544 -0.15409204 -0.21284682 -0.14946781 -0.51544505 -0.18164113 0.017967215 0.20989121 0.16822273 -0.09727651 -0.18253869 0.08100333 0.100628264 0.51906323 -0.053360607 -0.11854435 -0.307792 -0.25708866 -0.423691 0.053349633 -0.165652 -0.025917307 -0.11419128 -0.45944014 0.06298753 -0.6170513 -0.5981795 0.056872077 0.040202048 -0.19199476 -0.38517845 -0.069367 0.22101459 0.14411114 -0.17433167 -0.4606812 -0.41502368 -0.19173978 0.099932075 0.24196401 0.021184474 -0.073550545 0.05973883 -0.35038382 0.28739452 0.08103855 -0.17244068 0.01548711 -0.07292638 0.0016337804 0.11882308 0.16321571 -0.10669661 -0.2887702 0.80020016 -0.30888078
0 0.0022565147 -0.2818047 0.08681368 0.27982116 0.49185276 0.030285386 -0.23593551 -0.45384187 -0.0656277 -0.14326307 -0.21471813 -0.16415127 -0.51717055 -0.18711472 0.028209964 0.22823824 0.17036077 -0.09615648 -0.17406477 0.10747423 0.07349369 0.5286623 -0.035536025 -0.113970846 -0.31253377 -0.26360252 -0.44265535 0.07547524 -0.18700548 -0.0042553004 -0.104537115 -0.4647813 0.052774027 -0.62408423 -0.5965277 0.059247557 0.030898666 -0.17461143 -0.40495044 -0.08194768 0.25136057 0.1539776 -0.16127081 -0.45719784 -0.41437384 -0.16772486 0.11150713 0.21285698 0.018617596 -0.056385346 0.07728128 -0.37790865 0.27161 0.061757002 -0.196903 0.03640351 -0.066024594 -0.019145966 0.118953794 0.15630794 -0.115203604 -0.26173547 0.7712448 -0.30686864
156 -0.26248693 0.03140821 0.35853413 -0.023621185 -0.20280984 0.45986533 0.11686293 -0.2112763 -0.011627287 -0.15832567 0.26438335 0.26472712 -0.016978757 -0.31892058 -0.03538802 0.17021126 -0.34993136 0.24486393 0.16936351 -0.13856189 -0.059509777 0.3326213 0.17723261 0.18502697 0.7857336 0.24638695 -0.31337294 0.21779263 -0.023644544 -0.109017305 -0.009517951 0.08676276 -0.38737136 -0.612805 -0.39417493 -0.15138906 -0.61906123 -0.121599056 0.050846204 -0.21526049 0.29445693 0.1341363 0.13004872 -0.24208571 0.057466242 -0.4521255 -0.4038345 -0.056136377 -0.00083195104 0.24586849 -0.20703995 0.19509554 -0.24554972 0.1058746 0.31917074 -0.53336143 0.08790073 -0.17542101 -0.19868118 -0.21674074 -0.14991626 -0.14116827 0.29825497 0.22649693
64 -0.020708593 -0.2591712 0.06547578 0.30844957 0.46356705 0.085197315 -0.22606972 -0.5137196 -0.07754021 -0.13646115 -0.23890398 -0.15377358 -0.5217947 -0.18959422 0.010437019 0.2306408 0.18401091 -0.0964256 -0.14435464 0.07379848 0.096783444 0.5453206 -0.029380463 -0.14765711 -0.3059358 -0.24821626 -0.42553207 0.07266565 -0.18686865 -0.040639933 -0.10419997 -0.45326412 0.038854763 -0.6298326 -0.5824542 0.06466325 0.045987472 -0.21117537 -0.3901088 -0.06416334 0.21453397 0.15056092 -0.17542478 -0.47293836 -0.39793116 -0.19207461 0.12154967 0.22981161 -0.023647683 -0.07496877 0.09809285 -0.31835565 0.27393577 0.1196411 -0.17132248 0.051612824 -0.061969552 -0.009365945 0.09980206 0.14635487 -0.12138532 -0.2900986 0.7781556 -0.30930197
18 -0.020386193 -0.2758109 0.06552398 0.28844574 0.49170902 0.06521499 -0.23939796 -0.47542182 -0.0903814 -0.14037445 -0.20459549 -0.17237659 -0.50764036 -0.17093244 0.0043397723 0.2196232 0.16737886 -0.08956059 -0.16253704 0.09954442 0.07619961 0.521136 -0.04096909 -0.12631418 -0.29894546 -0.26872256 -0.4181176 0.06187607 -0.174252 -0.019007051 -0.1159772 -0.46769273 0.04736374 -0.63988787 -0.5973422 0.0586077 0.005886543 -0.16221566 -0.39098498 -0.0727855 0.25815472 0.16401237 -0.17160247 -0.46899742 -0.4010927 -0.18926588 0.12651818 0.22759527 -0.006595941 -0.07568058 0.099748224 -0.35536745 0.28513706 0.077555716 -0.18704146 0.03038229 -0.06304317 -0.01164821 0.12793306 0.14375627 -0.11685448 -0.27763546 0.77115476 -0.3137037
24 -0.03274307 -0.27812636 0.049577624 0.27384812 0.5004051 0.04714974 -0.22042736 -0.48532885 -0.07231685 -0.10235187 -0.21716012 -0.15698789 -0.5258393 -0.21255496 -0.010830407 0.21709745 0.15407377 -0.06819207 -0.1349462 0.09140407 0.08663129 0.5225631 -0.027055504 -0.12824301 -0.2867735 -0.26711366 -0.41392145 0.050014436 -0.17132628 -0.018295107 -0.12086698 -0.44467214 0.022228824 -0.6486104 -0.6032682 0.051035836 0.034740902 -0.18638517 -0.39617324 -0.09893027 0.26704615 0.13211143 -0.17828013 -0.45532203 -0.41338903 -0.16957745 0.114590794 0.19533768 0.015606525 -0.061158817 0.12260615 -0.36152112 0.3010146 0.1030551 -0.20728725 0.010045799 -0.07924357 -0.037183687 0.12146008 0.14287604 -0.10310746 -0.2714021 0.79496944 -0.30239475
114 -0.25168368 0.013836492 0.3487595 -0.02160342 -0.21860981 0.44981983 0.1217734 -0.18040387 -0.015864111 -0.16342714 0.26746967 0.24133734 0.006691339 -0.3033847 -0.05085496 0.1533248 -0.3294914 0.23489152 0.16766645 -0.13460423 -0.052368518 0.31922114 0.18558729 0.19103666 0.7954443 0.25306728 -0.31007317 0.24218935 0.00044936175 -0.10183146 0.006391102 0.10304462 -0.39346814 -0.5944155 -0.40955612 -0.18514825 -0.58882815 -0.13201919 0.064891376 -0.23801841 0.29891533 0.14780389 0.12786981 -0.24240448 0.052285176 -0.47789958 -0.41089723 -0.043244973 -0.013628464 0.26625898 -0.2029133 0.187481 -0.24768066 0.0802503 0.33071816 -0.54931426 0.09421687 -0.19411263 -0.22634086 -0.21444534 -0.16895421 -0.16996075 0.2999163 0.2059506
51 -0.029385427 -0.28000718 0.042528283 0.27039436 0.47536123 0.036342822 -0.2186051 -0.48731863 -0.09342323 -0.1353327 -0.22550216 -0.1700909 -0.5292796 -0.17900021 0.00533884 0.20079155 0.16787031 -0.10704725 -0.14182489 0.052866854 0.09764119 0.524041 -0.02249739 -0.1287479 -0.3170257 -0.24579626 -0.4271998 0.044115398 -0.17181905 -0.013145495 -0.095505185 -0.44324696 0.037496336 -0.6402335 -0.5792027 0.05634595 0.045254458 -0.17529725 -0.37903893 -0.09265089 0.25185886 0.13455896 -0.1744052 -0.45236686 -0.3977379 -0.18629624 0.12696622 0.2156241 0.003282911 -0.08362881 0.080338836 -0.32642943 0.32229465 0.08352681 -0.1787196 0.038712207 -0.10906267 -0.032480527 0.13458902 0.14103171 -0.10307358 -0.28949234 0.79809016 -0.3229713
72 -0.027827911 -0.2954141 0.069972545 0.26694968 0.50020707 0.043364692 -0.21180303 -0.480639 -0.07689643 -0.14309227 -0.2134136 -0.15094985 -0.5120777 -0.20182377 0.020542558 0.19439511 0.14415437 -0.09296591 -0.17706579 0.076467834 0.094238885 0.52647465 -0.048300307 -0.11821948 -0.29290625 -0.26178405 -0.41677266 0.039769284 -0.1766148 -0.02926643 -0.102043904 -0.44868207 0.048156817 -0.6317735 -0.6120196 0.07575774 0.040560033 -0.18628393 -0.39077544 -0.07517244 0.25331575 0.14493474 -0.17027588 -0.4597695 -0.41195592 -0.19522987 0.12759255 0.22099479 0.02163896 -0.059769087 0.105490215 -0.34552056 0.28987727 0.08294791 -0.17454998 0.043827087 -0.067151524 -0.014098268 0.12703396 0.15587114 -0.115534306 -0.28521135 0.77463984 -0.29511464
58 -0.008784362 -0.25576365 0.05814503 0.26919293 0.49852678 0.018798351 -0.20435712 -0.48922163 -0.06419719 -0.17978118 -0.2449352 -0.13775675 -0.5044846 -0.19955176 0.032520473 0.23374146 0.1368621 -0.083442226 -0.18773553 0.07399637 0.093563184 0.5294223 -0.025839482 -0.12165049 -0.3141705 -0.23049214 -0.4246412 0.07356532 -0.17181945 -0.027725069 -0.092466414 -0.44100076 0.05192279 -0.610563 -0.602728 0.07413409 0.03833555 -0.20721754 -0.4009684 -0.09972544 0.24750268 0.14523374 -0.19142884 -0.46319953 -0.40877804 -0.18852319 0.0960532 0.23571391 0.0032857163 -0.06466694 0.054064076 -0.32716525 0.30627942 0.07456177 -0.185168 0.047732584 -0.087144405 -0.00616338 0.108908094 0.14744462 -0.11127307 -0.2711037 0.79082096 -0.3193146
140 -0.25610423 0.0500328 0.355928 -0.018664788 -0.19856842 0.45680878 0.09999056 -0.21573223 -0.014969353 -0.16175969 0.26696807 0.21703905 0.0066869725 -0.31118435 -0.0057111937 0.14560731 -0.34792623 0.26428664 0.15668027 -0.15029174 -0.08718791 0.36382747 0.16165936 0.18846129 0.76476884 0.2516625 -0.31053534 0.22330198 -0.016748369 -0.096397124 -0.01783302 0.103583865 -0.43651953 -0.6018059 -0.40481356 -0.17858127 -0.605169 -0.15419282 0.079968594 -0.25168905 0.29149383 0.14814068 0.14632991 -0.26176018 0.06235449 -0.4790695 -0.40543333 -0.0728951 -0.034722436 0.31118768 -0.18659107 0.196579 -0.22263727 0.11604144 0.32475296 -0.52526456 0.07391406 -0.18494955 -0.21921012 -0.22442353 -0.13161945 -0.14541173 0.2660634 0.2048451
139 -0.24795438 0.016375823 0.34890094 -0.0074556107 -0.20760806 0.45645922 0.13146727 -0.19489627 -0.0142316315 -0.19273703 0.25886756 0.22828485 -0.0062172683 -0.3045525 -0.037601095 0.17784327 -0.33457163 0.25516838 0.19028184 -0.16319609 -0.036866903 0.34256425 0.17874736 0.19568703 0.79904807 0.27349904 -0.32157663 0.22541629 -0.017804613 -0.08721419 0.0033727968 0.095804125 -0.4192598 -0.59557474 -0.41038746 -0.15161636 -0.6001224 -0.1336931 0.055630475 -0.23087539 0.31602594 0.16164912 0.13461663 -0.2540729 0.044804133 -0.45607316 -0.39889476 -0.029158011 -0.00902473 0.2538471 -0.191262 0.19951525 -0.22888507 0.115591325 0.32791814 -0.5505417 0.087003775 -0.17545424 -0.225095 -0.20538247 -0.15611233 -0.13904533 0.29210758 0.21763632
153 -0.23770937 0.024511963 0.36561662 -0.01971213 -0.21097888 0.4565057 0.14102033 -0.18176389 -0.016406277 -0.18074916 0.25736153 0.23772486 -0.0043787407 -0.29977274 -0.035618592 0.16629381 -0.34635225 0.25349098 0.17009579 -0.12862736 -0.047335815 0.33305794 0.18315792 0.19929962 0.795654 0.24968833 -0.3251922 0.24384874 -0.009874169 -0.095462054 -0.0058807204 0.0908767 -0.4150755 -0.5961232 -0.4158495 -0.15684025 -0.60476375 -0.13690668 0.06996549 -0.2180234 0.29499584 0.13151304 0.11786788 -0.25175208 0.05654848 -0.4570365 -0.41388547 -0.051176354 -0.01232773 0.24981137 -0.20826529 0.18210003 -0.26358154 0.08727835 0.330823 -0.53025854 0.08871848 -0.19562083 -0.2099569 -0.2112064 -0.15246822 -0.14268973 0.288097 0.2275352
137 -0.25743842 0.03393683 0.33677906 -0.0312935 -0.20371656 0.45164642 0.11119302 -0.21716097 0.0009685463 -0.18312119 0.28109986 0.2385939 -0.009938875 -0.323081 -0.028669134 0.14050204 -0.37261218 0.2505348 0.16034783 -0.1586396 -0.054985706 0.33650342 0.1777848 0.17599176 0.7870612 0.27098817 -0.31008577 0.23665573 -0.011688029 -0.11284328 -0.025548587 0.09250689 -0.42112684 -0.5993446 -0.38494223 -0.15694925 -0.6093049 -0.13379326 0.05714698 -0.2198787 0.2884169 0.1352541 0.115114376 -0.25326043 0.046518523 -0.47207692 -0.40393886 -0.06886555 -0.00995394 0.27208018 -0.17586279 0.21141353 -0.25828528 0.11371827 0.32458907 -0.5220226 0.09353982 -0.19299874 -0.2170979 -0.20993896 -0.15809967 -0.12934904 0.27579534 0.23896441
13 -0.017108275 -0.25821793 0.07522118 0.29492348 0.5031984 0.029248774 -0.22386545 -0.48205405 -0.058293227 -0.14612126 -0.23407632 -0.16624576 -0.51460534 -0.19408391 -0.0046876636 0.2098838 0.17183128 -0.09273401 -0.15097947 0.106180765 0.09504297 0.5315563 -0.03262905 -0.12623513 -0.28652954 -0.25861928 -0.42182037 0.0605714 -0.17059691 -0.014810993 -0.12130227 -0.45298538 0.023479499 -0.61888254 -0.5861484 0.06832926 0.042156022 -0.16951598 -0.39188567 -0.07836361 0.22724171 0.12977934 -0.16103014 -0.4787028 -0.4121968 -0.17589328 0.11817682 0.20988129 0.018555691 -0.07007664 0.09989945 -0.3555246 0.31010532 0.08919724 -0.1973845 0.056585833 -0.101832755 -0.030608486 0.12616158 0.13814281 -0.11451557 -0.28204277 0.77923894 -0.29907617
31 -0.023790797 -0.27387527 0.0597103 0.27447644 0.50891376 0.029656122 -0.21604763 -0.4525868 -0.062560216 -0.13608095 -0.21283077 -0.15324655 -0.51349384 -0.20242937 0.016623877 0.22723246 0.15636761 -0.07992802 -0.15527229 0.102244295 0.09450567 0.5266033 -0.04363465 -0.11156975 -0.2948195 -0.2714688 -0.42641297 0.06912063 -0.16959493 -0.0068536825 -0.10245841 -0.4555062 0.05855159 -0.63024896 -0.61183923 0.040081292 0.018873608 -0.17199963 -0.3941083 -0.086586595 0.26959926 0.14576182 -0.1709617 -0.4463885 -0.4253625 -0.1693592 0.1125333 0.219543 0.020464394 -0.06464352 0.08951001 -0.3723541 0.29942364 0.052261706 -0.19808123 0.018374758 -0.07359112 -0.026178226 0.14158669 0.1548113 -0.11145869 -0.26321778 0.7769526 -0.30957973
22 -0.024689376 -0.26783895 0.07379537 0.26748458 0.47312793 0.032711234 -0.21455234 -0.5106691 -0.0825912 -0.16111864 -0.23865497 -0.16161063 -0.54504067 -0.1705053 -0.009570996 0.22360517 0.16081771 -0.09325135 -0.15519415 0.060288005 0.09607705 0.524459 -0.0037747456 -0.13056995 -0.3127913 -0.2414807 -0.43525594 0.08066657 -0.1536242 -0.018103601 -0.09751677 -0.44957227 0.038023658 -0.6154389 -0.60235107 0.04543077 0.03497714 -0.18324745 -0.36902907 -0.08610323 0.26110938 0.15608786 -0.18764092 -0.46659467 -0.4123196 -0.18858232 0.1172592 0.21404491 -0.008276023 -0.07627962 0.047392048 -0.3425325 0.30721346 0.067386374 -0.18697709 0.052394293 -0.10414684 -0.022599494 0.11123569 0.11811604 -0.10957673 -0.28195783 0.77824587 -0.3318243
46 -0.039219067 -0.2865435 0.052491583 0.23937996 0.48613966 0.061182544 -0.2247768 -0.5024552 -0.07922949 -0.14829609 -0.21033783 -0.16416143 -0.51511186 -0.18423913 0.0018675786 0.19817093 0.16066098 -0.09930032 -0.1528867 0.061065093 0.11592678 0.5256316 -0.057357907 -0.07746275 -0.29260457 -0.25745335 -0.41303748 0.04454995 -0.18053316 -0.030986967 -0.10761075 -0.4460233 0.03587374 -0.62686044 -0.614053 0.06062913 0.025100263 -0.17555374 -0.35149425 -0.07754888 0.2618211 0.15024489 -0.17408155 -0.4606382 -0.37950596 -0.2157019 0.11505097 0.22712846 0.006209583 -0.07956949 0.09911284 -0.3389255 0.3023137 0.09322215 -0.17205673 0.023237696 -0.06902064 -0.017163578 0.10770067 0.13314503 -0.12413072 -0.31401092 0.81338525 -0.312254
15 -0.0010218393 -0.26689267 0.06793101 0.2960595 0.48201314 0.036457982 -0.21687348 -0.48513827 -0.06984162 -0.15262148 -0.22151776 -0.15580966 -0.50869656 -0.19248524 -0.004366753 0.2280325 0.16205138 -0.0919278 -0.15512633 0.076124474 0.07250139 0.50662977 -0.035493094 -0.1466062 -0.30164942 -0.2416592 -0.4313638 0.08692049 -0.16744395 -0.016672619 -0.117382914 -0.43911207 0.027244067 -0.6361336 -0.5700155 0.059086736 0.036838066 -0.19715811 -0.39993292 -0.08350995 0.21128356 0.13478808 -0.15680255 -0.49825627 -0.40472832 -0.19189051 0.104461074 0.23778416 0.0074708737 -0.066756874 0.0775561 -0.3234382 0.2872769 0.08024162 -0.19597143 0.048883528 -0.08803017 -0.035532303 0.11809011 0.15748383 -0.121792 -0.3010485 0.80075794 -0.30194104
107 -0.24678034 0.020900024 0.36615938 0.003524227 -0.21237504 0.44168547 0.1277481 -0.1845639 -0.0024632146 -0.17441958 0.25442716 0.22124393 0.019128056 -0.28661552 -0.023143126 0.14450066 -0.35585365 0.27663893 0.17131798 -0.13499062 -0.066859856 0.34567225 0.16471572 0.20893393 0.7867877 0.2336402 -0.32182917 0.24643646 0.0065121795 -0.10293077 -0.0069990456 0.106332935 -0.4147349 -0.6094018 -0.4031549 -0.16826762 -0.59411407 -0.14415592 0.059057627 -0.2206731 0.30425382 0.12904584 0.10657853 -0.22969271 0.04704953 -0.47940925 -0.42751998 -0.049959492 -0.027900437 0.26518565 -0.1969219 0.17888194 -0.25284654 0.09043331 0.35643315 -0.5234394 0.078920566 -0.17802879 -0.22151472 -0.23779936 -0.14881353 -0.14175668 0.28326946 0.20992488
143 -0.24711779 0.024271708 0.35122815 -0.008237484 -0.19276586 0.44628227 0.114091165 -0.20306902 -0.009171885 -0.18369022 0.26690468 0.22587587 -0.00029604998 -0.29395193 -0.018802864 0.15307637 -0.35442558 0.24626698 0.15956481 -0.14577803 -0.08566131 0.3606765 0.17194264 0.18044506 0.7682037 0.25511944 -0.32676357 0.21942641 -0.01723575 -0.10054205 -0.0040755416 0.10038771 -0.4179775 -0.6005803 -0.39972082 -0.16181263 -0.59395725 -0.14931686 0.07166313 -0.24107645 0.2938283 0.14441021 0.13364963 -0.2598064 0.034332033 -0.48118442 -0.3954837 -0.059830908 -0.0033826446 0.25803068 -0.19456947 0.18641926 -0.24897544 0.1071975 0.32118365 -0.53775465 0.08162025 -0.18421324 -0.21758485 -0.21472864 -0.14208418 -0.15626094 0.2951543 0.220045
1 -0.015060723 -0.27334374 0.1010736 0.2963613 0.49935484 0.053547677 -0.21487048 -0.4756959 -0.064667344 -0.1540414 -0.2165397 -0.1668601 -0.5139035 -0.18398868 0.012592134 0.21841563 0.16866654 -0.088895924 -0.16859165 0.09568887 0.08978484 0.5338878 -0.035211857 -0.14286187 -0.27587438 -0.2565421 -0.4382067 0.06974518 -0.15308355 -0.012875988 -0.11547684 -0.45649529 0.04377198 -0.64113367 -0.58701205 0.060895868 0.031235706 -0.1738941 -0.39671186 -0.053479534 0.21813081 0.14847325 -0.16368899 -0.4909171 -0.411657 -0.19347525 0.109930225 0.24701531 0.010560904 -0.06391472 0.07981246 -0.3514686 0.28738132 0.07910399 -0.16985627 0.03279269 -0.07925927 -0.019005895 0.12145014 0.16508715 -0.11242117 -0.2767875 0.7785881 -0.29637942
105 -0.27390555 0.033358395 0.34902206 -0.034587756 -0.20763521 0.46606866 0.12140108 -0.2287238 -0.010289803 -0.17159161 0.28695315 0.22495309 -0.009397779 -0.3110016 -0.031808503 0.15098502 -0.36994213 0.23871858 0.13949533 -0.141577 -0.07138628 0.35924095 0.17198665 0.18830028 0.76612556 0.26377118 -0.2995784 0.20512058 -0.011765626 -0.115197964 -0.0027672718 0.081532165 -0.42568213 -0.58821005 -0.38711387 -0.1545778 -0.60657525 -0.13310863 0.07143923 -0.25224164 0.2999897 0.15749672 0.13951372 -0.23277064 0.038407348 -0.46832713 -0.38025227 -0.07511 0.004648243 0.25893635 -0.1953993 0.1901667 -0.24563114 0.09164463 0.30366603 -0.5401309 0.101958096 -0.1983136 -0.23283184 -0.19377597 -0.15121973 -0.1625469 0.2858406 0.23856346
113 -0.28993016 0.020090519 0.33356896 -0.022374628 -0.20568939 0.4507099 0.11443373 -0.20237014 -0.0035500214 -0.15630107 0.27299494 0.23476988 0.012313825 -0.31447387 -0.022798505 0.13750339 -0.37966448 0.2547286 0.1688922 -0.14553241 -0.064998806 0.32798612 0.15755203 0.19517542 0.78144634 0.2522705 -0.32082427 0.2220735 -0.016620424 -0.09826398 -0.015829515 0.08845978 -0.41036692 -0.6010164 -0.36782095 -0.1609682 -0.60214055 -0.11788312 0.064693786 -0.2407664 0.29428816 0.12942185 0.13603002 -0.25331554 0.06171816 -0.45690185 -0.41404918 -0.051294383 0.00494995 0.26713428 -0.20874514 0.19393043 -0.25983527 0.108255945 0.33741108 -0.5521193 0.0895943 -0.20031221 -0.21905045 -0.23040634 -0.16109277 -0.13151392 0.25373593 0.21981864
136 -0.24465746 0.020845389 0.35283336 0.0010585471 -0.20039186 0.43729976 0.14962515 -0.17764357 0.0025330838 -0.17854849 0.253893 0.24421991 0.017686078 -0.30755094 -0.022332676 0.16713385 -0.34581113 0.28452593 0.17871036 -0.15522234 -0.040694248 0.33286506 0.16907531 0.20538507 0.7839409 0.26318145 -0.33119977 0.23364986 -0.02678053 -0.11784808 0.0094680665 0.11734467 -0.4121295 -0.5995962 -0.42781004 -0.15018569 -0.6239991 -0.10536886 0.044293925 -0.20994128 0.28821036 0.13874885 0.11346156 -0.22584423 0.062410492 -0.47127822 -0.39715302 -0.04647794 -0.029599005 0.24467115 -0.20026101 0.20923707 -0.26303786 0.11976655 0.32129395 -0.5386219 0.0919322 -0.16876009 -0.19876744 -0.21583858 -0.15576632 -0.1303395 0.28334016 0.22860438
155 -0.23666866 0.024059478 0.36767724 -0.029246809 -0.22431326 0.44119263 0.12457699 -0.21570429 -0.012361181 -0.15939833 0.26965895 0.2413766 0.03115047 -0.31477207 -0.03700102 0.15632671 -0.35487515 0.2594104 0.17004383 -0.16594663 -0.06302727 0.3285871 0.1539065 0.2068863 0.77187914 0.28553233 -0.30436268 0.23410898 -0.020182 -0.117535494 -0.0019151486 0.100684166 -0.41256225 -0.58985716 -0.39722055 -0.16935576 -0.6119074 -0.12358373 0.07731447 -0.23609637 0.3155023 0.14757471 0.12354547 -0.22076385 0.03842366 -0.4524945 -0.3877735 -0.053034604 -0.0065336158 0.24538788 -0.20178938 0.20764345 -0.24858902 0.10935731 0.34581333 -0.54152006 0.089855105 -0.1694845 -0.23470677 -0.23341747 -0.16604964 -0.13379887 0.2568885 0.22550073
87 -0.2570204 0.012750376 0.36309615 -0.025111526 -0.2125534 0.44446406 0.093010336 -0.19079474 -0.013538948 -0.16247793 0.26528347 0.25996152 -0.0019154109 -0.29988837 -0.037309833 0.1550441 -0.3470028 0.2633518 0.16271916 -0.1325561 -0.05198657 0.35235542 0.1544615 0.18899518 0.77781117 0.2503002 -0.32652086 0.22886953 -0.024666656 -0.109888874 0.011983684 0.08062875 -0.39435756 -0.61887336 -0.4062952 -0.1518316 -0.6091073 -0.1370401 0.03574897 -0.24767216 0.30659702 0.15456189 0.12915543 -0.23717318 0.024741845 -0.45083687 -0.40295056 -0.050321184 -0.01684026 0.27201346 -0.21187897 0.1792598 -0.22621888 0.08359417 0.32893932 -0.5560687 0.10230963 -0.19437715 -0.23172069 -0.1927425 -0.17095758 -0.16216895 0.28985846 0.22419934
77 -0.028387662 -0.27582255 0.08853675 0.30747467 0.47622806 0.041386437 -0.20721798 -0.481519 -0.089633204 -0.13646556 -0.21298257 -0.1526829 -0.5183879 -0.20634724 0.0068164123 0.20545273 0.16752923 -0.109152205 -0.14925899 0.06452115 0.0641426 0.5065111 -0.027363483 -0.16398625 -0.27317497 -0.24316873 -0.45703042 0.07997751 -0.15239789 -0.009188724 -0.10479588 -0.44296584 0.023129849 -0.65359604 -0.58496684 0.052169256 0.030824268 -0.21312268 -0.41188148 -0.08654168 0.23401712 0.13511415 -0.18025205 -0.48787138 -0.43110588 -0.16707464 0.1040021 0.22440165 -0.018881619 -0.06963629 0.08144441 -0.3420336 0.29002187 0.056804035 -0.17174424 0.043816105 -0.080678284 -0.033592254 0.11556304 0.14870411 -0.11676196 -0.26927146 0.7816848 -0.29436395
157 -0.2543318 0.023160998 0.3665167 -0.005404533 -0.21793254 0.44263119 0.14348897 -0.19881342 -0.0045890603 -0.14528093 0.24561574 0.2298796 0.0351405 -0.35463634 -0.03036195 0.16359958 -0.36112937 0.2419219 0.18751481 -0.14326343 -0.08975455 0.3101936 0.1765276 0.19141029 0.780177 0.2528122 -0.34141353 0.20586543 -0.021768298 -0.110718034 -0.037736334 0.11239586 -0.4319363 -0.5906686 -0.39810386 -0.15358774 -0.5986736 -0.1081308 0.0843752 -0.25302812 0.2937617 0.1410279 0.096927546 -0.2627338 0.056047227 -0.44771573 -0.3916151 -0.052375194 -0.022960952 0.2565522 -0.19292356 0.22400837 -0.24847376 0.12637194 0.3530495 -0.54318047 0.08053028 -0.1560414 -0.21086492 -0.23272544 -0.13061501 -0.1391318 0.2725245 0.20477627
81 -0.2756153 0.021068173 0.3711424 -0.018587576 -0.190458 0.44983724 0.1412193 -0.2041932 0.004623235 -0.14399338 0.27781868 0.23815173 0.018847935 -0.3222295 -0.0009204854 0.16650411 -0.3548475 0.25425974 0.18659104 -0.14770325 -0.08389003 0.35004246 0.16756321 0.19760555 0.74752164 0.25098887 -0.33304048 0.21947868 -0.030570839 -0.10410842 -0.018288521 0.09179802 -0.4212853 -0.6005953 -0.38373065 -0.15233143 -0.6186904 -0.12841672 0.06871264 -0.2521556 0.31147403 0.16826983 0.12813942 -0.23953195 0.049473435 -0.4587942 -0.37541732 -0.048198238 -0.014191604 0.26777473 -0.1830779 0.20917529 -0.23623797 0.106068 0.3252775 -0.5444447 0.09905168 -0.18998209 -0.22369982 -0.23309699 -0.13855627 -0.14419106 0.29492137 0.21151833
133 -0.25461552 0.02259403 0.34480968 -0.029273456 -0.19875427 0.46377748 0.113775894 -0.2013712 -0.022467693 -0.16943187 0.2816527 0.2410275 -0.01105693 -0.3045193 -0.011454065 0.14865708 -0.36002785 0.26124048 0.15580592 -0.12481675 -0.0557716 0.33869392 0.17626113 0.18229012 0.77423745 0.26823574 -0.31417575 0.24180126 -0.010128845 -0.105870165 -0.019849097 0.09470873 -0.41783044 -0.61943805 -0.38906533 -0.16120464 -0.60799634 -0.14847913 0.046608824 -0.20667395 0.29683232 0.14882351 0.1189142 -0.23764536 0.047819935 -0.48754853 -0.4077019 -0.055678725 -0.022712905 0.265448 -0.18963118 0.19861302 -0.24601263 0.083410636 0.32733178 -0.5110688 0.08041992 -0.1906015 -0.21088846 -0.20544195 -0.15370864 -0.15593018 0.29206127 0.24315405
93 -0.25226197 0.02021424 0.3482651 -0.029367931 -0.21526581 0.4625058 0.12129756 -0.2163581 0.0029044524 -0.19140275 0.28511804 0.26944694 -0.013709172 -0.31867713 -0.026776297 0.17813343 -0.35514066 0.24351345 0.19750588 -0.14543498 -0.042979963 0.31957358 0.1869749 0.18759158 0.7862924 0.2797527 -0.30245963 0.24157678 -0.02309417 -0.10654948 -0.007741072 0.091525316 -0.41245952 -0.60234916 -0.3798514 -0.14132206 -0.6117088 -0.12850833 0.06531894 -0.22488798 0.30312562 0.15783422 0.1360999 -0.23807937 0.040927745 -0.46018973 -0.37702322 -0.07490887 -0.031822372 0.25344402 -0.17272516 0.21248375 -0.23746839 0.08591454 0.3109531 -0.5232876 0.077514164 -0.16033562 -0.2107254 -0.21416552 -0.14011367 -0.14867276 0.28519407 0.24929349
150 -0.25390828 0.029791353 0.3563794 -0.011559638 -0.20848411 0.45785484 0.11672439 -0.2070974 -0.01340592 -0.16262074 0.25976315 0.21937267 0.015250311 -0.31862473 -0.01881757 0.1526177 -0.35379314 0.25651547 0.16940388 -0.13992515 -0.08616391 0.3381546 0.18009073 0.19679205 0.77782446 0.23719186 -0.3248391 0.22418326 -0.011676399 -0.09553824 -0.02622935 0.09744648 -0.40412262 -0.6102872 -0.3913307 -0.17538916 -0.6072234 -0.14395234 0.067765065 -0.24000885 0.2963378 0.14203785 0.13177353 -0.23994257 0.049926393 -0.47497368 -0.41171902 -0.05866439 -0.019629383 0.2674111 -0.19352102 0.19552606 -0.25346512 0.10053108 0.34160358 -0.53170127 0.08039677 -0.18873337 -0.22361009 -0.23523839 -0.13392548 -0.1427573 0.27922767 0.20697923
147 -0.24363945 0.034147963 0.34068644 -0.005250689 -0.21111496 0.44283321 0.12385104 -0.19896999 -0.0010603748 -0.18467093 0.27058938 0.22032544 0.007625274 -0.29229814 -0.030234508 0.16132985 -0.36007938 0.27109885 0.17872627 -0.15170015 -0.06576306 0.3426856 0.17581943 0.1984999 0.79053277 0.2616719 -0.3170227 0.2220843 0.00030747626 -0.09142144 -0.012342221 0.11740738 -0.42466584 -0.5917652 -0.3857465 -0.16149859 -0.6111143 -0.11909216 0.077851824 -0.21314709 0.29831538 0.140927 0.11232199 -0.23800413 0.05364998 -0.4666681 -0.40847564 -0.054065637 -0.018541021 0.25130206 -0.19006106 0.18197429 -0.2614787 0.12114682 0.34612685 -0.5444363 0.06827153 -0.17702408 -0.23329584 -0.22487187 -0.14280689 -0.12506367 0.2641634 0.22815724
67 -0.009573381 -0.27668333 0.07577428 0.27865857 0.47608474 0.057968594 -0.2074986 -0.48969063 -0.10090234 -0.16346651 -0.2308162 -0.1780486 -0.51711756 -0.1669786 0.021690158 0.23862748 0.1705117 -0.088887185 -0.16438612 0.07462477 0.08791959 0.5152164 -0.014798819 -0.13495332 -0.31179243 -0.2461649 -0.42505002 0.068043694 -0.15927653 -0.022137115 -0.10588102 -0.45060202 0.05789879 -0.6322766 -0.5722098 0.049731426 0.04111249 -0.17576858 -0.39535648 -0.093937755 0.25331447 0.16660373 -0.16257201 -0.47644937 -0.41417304 -0.18041974 0.11413118 0.2508044 0.0035265796 -0.07339425 0.04260775 -0.32628527 0.2822558 0.0873459 -0.1890289 0.046298664 -0.10358361 -0.034156587 0.10929654 0.16342564 -0.1333127 -0.29495504 0.76661956 -0.32491615
34 -0.038183216 -0.28162998 0.075523354 0.28055054 0.47410303 0.05973972 -0.22561838 -0.5012736 -0.08833323 -0.14845893 -0.21877378 -0.15339154 -0.52743906 -0.18135968 -0.00053265353 0.19747311 0.17470956 -0.10393875 -0.15676218 0.071895115 0.10003325 0.51831645 -0.028653435 -0.11586069 -0.30586663 -0.2685966 -0.41304305 0.06526663 -0.17655665 -0.025086962 -0.10586657 -0.43463737 0.042432357 -0.6211083 -0.6027264 0.07194591 0.02988962 -0.18186978 -0.3752767 -0.0639254 0.2595355 0.14832827 -0.17086756 -0.4594414 -0.4111202 -0.20349896 0.117336415 0.21601556 0.012822947 -0.06758969 0.08063781 -0.3455157 0.29362708 0.07525699 -0.1714895 0.032059204 -0.076832876 -0.020103974 0.104207255 0.13435982 -0.11580981 -0.28644663 0.7889213 -0.31673598
57 -0.032301996 -0.28703758 0.06347008 0.27826807 0.477861 0.0299511 -0.21829201 -0.4845102 -0.07698594 -0.13840526 -0.21319908 -0.14815101 -0.5235988 -0.19834673 0.03452736 0.19904716 0.16458943 -0.10265847 -0.17505896 0.09444999 0.105367795 0.5241836 -0.052648153 -0.12327412 -0.31131452 -0.255946 -0.42077193 0.061572764 -0.18117313 -0.022381712 -0.109137714 -0.46094224 0.05884856 -0.6201062 -0.5936861 0.084872 0.04253667 -0.19892882 -0.38891405 -0.07353383 0.2338713 0.12907593 -0.17540365 -0.44286305 -0.39925048 -0.16161673 0.11988283 0.23074044 0.0069105523 -0.061215255 0.07883637 -0.36038476 0.29562908 0.08756338 -0.18534154 0.04330164 -0.051423065 0.0060168034 0.113770075 0.16094519 -0.0956761 -0.29219922 0.79630566 -0.28756946
28 -0.007058069 -0.28188425 0.08229184 0.29125667 0.47988832 0.06558051 -0.2037842 -0.48614442 -0.0677492 -0.16099426 -0.21286875 -0.16189797 -0.51032495 -0.18427381 0.02736044 0.21509725 0.1638752 -0.08698336 -0.16911933 0.06413852 0.08555937 0.52392256 -0.03400368 -0.12423024 -0.29447857 -0.2578364 -0.44758442 0.07081518 -0.1642929 -0.02664044 -0.095986076 -0.44961736 0.030365357 -0.6215623 -0.59340006 0.05231848 0.009513193 -0.19760375 -0.39586553 -0.07680998 0.26155692 0.16365182 -0.17898318 -0.4695267 -0.41528916 -0.19973134 0.11972924 0.23328216 -0.0068941764 -0.08500773 0.07798357 -0.34151855 0.27221212 0.07390344 -0.17822409 0.03242591 -0.060619265 -0.018294705 0.09724961 0.16376317 -0.13744916 -0.29647872 0.7868869 -0.31444478
132 -0.26322863 0.014818029 0.34932235 -0.016344344 -0.21176192 0.45118213 0.102053426 -0.18912742 -0.019398224 -0.17033638 0.25691012 0.23572898 0.0079586 -0.3074987 -0.05088004 0.1359293 -0.35158068 0.25170285 0.178403 -0.13702664 -0.06033383 0.33353692 0.18012992 0.185998 0.79217875 0.23584172 -0.31819883 0.24030186 -0.0041084425 -0.08916979 -0.012002287 0.07975397 -0.39350575 -0.61982995 -0.39681903 -0.17129125 -0.6001394 -0.15154834 0.059161857 -0.23637185 0.30561203 0.12860028 0.12496078 -0.25017843 0.035747826 -0.4636667 -0.40273812 -0.058432907 -0.03587134 0.26951015 -0.19739361 0.18412969 -0.25914901 0.083053045 0.34324917 -0.5433437 0.06814672 -0.18237832 -0.2259358 -0.2252392 -0.14279203 -0.16837586 0.2905354 0.2290968
17 -0.016618261 -0.28179386 0.07525877 0.26894316 0.48835123 0.04239492 -0.22800878 -0.4712974 -0.07078993 -0.1639971 -0.21566375 -0.17225797 -0.5134033 -0.18866052 0.010691513 0.21412465 0.15297608 -0.09750248 -0.18434654 0.077214345 0.08774257 0.529204 -0.025660401 -0.109413266 -0.31835505 -0.2485357 -0.43010482 0.07641031 -0.17685495 -0.014279998 -0.10886314 -0.44643143 0.038407 -0.6184184 -0.61132604 0.062206034 0.021453572 -0.17996334 -0.389652 -0.07789952 0.27107134 0.16207425 -0.18392383 -0.45712638 -0.4023706 -0.18915722 0.11762993 0.21150976 0.014067879 -0.066653654 0.08247278 -0.35063845 0.29017028 0.066595055 -0.18930276 0.020055657 -0.072906695 -0.008701983 0.10800866 0.14558227 -0.10643261 -0.2812234 0.7940792 -0.3064249
99 -0.2646663 0.024825286 0.34839618 -0.031998444 -0.19533293 0.45809087 0.10227937 -0.20010641 -0.005488823 -0.15755527 0.26805794 0.24392644 -0.0077753467 -0.32295665 -0.014201885 0.16129033 -0.3584037 0.25688225 0.17156865 -0.15062068 -0.06092711 0.3467443 0.17105366 0.18748848 0.76314205 0.26522052 -0.34157822 0.23390904 -0.053721603 -0.112411454 -0.006082531 0.073680565 -0.39416873 -0.615356 -0.38516667 -0.15011288 -0.63269156 -0.13039184 0.042034287 -0.2272933 0.2957987 0.1439586 0.15073575 -0.251832 0.056567002 -0.4457477 -0.39839548 -0.060964648 0.0007923172 0.25489214 -0.18955992 0.20618466 -0.24787357 0.10293821 0.32059136 -0.53108287 0.09440614 -0.17999856 -0.21441615 -0.21851888 -0.1487674 -0.13880546 0.28214517 0.21910997
122 -0.26258248 0.029232008 0.36355388 -0.03044227 -0.20305595 0.4652605 0.110656254 -0.21987252 -0.013863707 -0.16092764 0.27908877 0.24504156 0.008527494 -0.32170656 -0.015440638 0.1404889 -0.35498467 0.27494475 0.14856696 -0.13599592 -0.06306458 0.33695838 0.17181209 0.18542153 0.7632466 0.2646444 -0.29851493 0.22952506 -0.01483419 -0.117184095 -0.007059519 0.09472341 -0.40322563 -0.59755415 -0.397369 -0.1705317 -0.6251624 -0.13423005 0.06522745 -0.21238823 0.28860247 0.14673284 0.10327361 -0.2201233 0.055437613 -0.48064545 -0.4009523 -0.05931685 -0.019912591 0.26141015 -0.19510436 0.21285176 -0.24560554 0.105965376 0.31766954 -0.5061095 0.09174869 -0.1720958 -0.20847335 -0.22394188 -0.13836657 -0.13424587 0.28643894 0.24859005
54 -0.024439322 -0.2622887 0.08479605 0.28853428 0.47915402 0.039753724 -0.23280169 -0.4590234 -0.06060923 -0.14268066 -0.20518215 -0.18042773 -0.5245704 -0.18136829 0.010286224 0.222876 0.16667083 -0.0857884 -0.17536925 0.113524795 0.08148458 0.53022003 -0.026325831 -0.12790729 -0.31237262 -0.25747123 -0.42460722 0.073241256 -0.19185342 -0.01608121 -0.117066205 -0.44735122 0.033661958 -0.62065536 -0.60310906 0.055558484 0.01513305 -0.16991544 -0.38823855 -0.07362064 0.24103656 0.14476794 -0.1566364 -0.47728348 -0.418282 -0.17019966 0.11475846 0.21514577 0.018186348 -0.05523899 0.08811431 -0.36562204 0.2833739 0.07700294 -0.2106157 0.044241324 -0.07989125 -0.003907796 0.113999605 0.15893438 -0.114416495 -0.27214324 0.7775877 -0.29550505
125 -0.29196024 0.018361604 0.33790904 -0.03205766 -0.2097797 0.45644596 0.10472946 -0.20844671 -0.011616987 -0.15865907 0.27628118 0.24355489 -0.0039412887 -0.3176544 -0.025108047 0.14756514 -0.35390136 0.23770349 0.14131917 -0.13003209 -0.0707525 0.33956856 0.20031844 0.1779882 0.7862396 0.26191553 -0.309764 0.23131284 -0.009549526 -0.104647875 -0.017704567 0.09630652 -0.4283356 -0.59389395 -0.3963279 -0.15117285 -0.5991533 -0.12285444 0.083666585 -0.2316865 0.27290633 0.13339993 0.11603861 -0.24746096 0.053559184 -0.46402165 -0.4111946 -0.07250006 -0.022996075 0.27352473 -0.19980541 0.2022287 -0.26105705 0.11675726 0.310426 -0.5302296 0.09318672 -0.199756 -0.19842961 -0.20967044 -0.16702393 -0.16134301 0.2873959 0.22702202
117 -0.25333947 0.015727717 0.35211605 -0.014096785 -0.21793707 0.44754523 0.12908012 -0.20142588 -0.005988307 -0.17014538 0.2733268 0.25603485 0.007886037 -0.29821515 -0.025500763 0.16570829 -0.33758804 0.26593295 0.17460187 -0.15893205 -0.05321611 0.34075952 0.16766362 0.1965744 0.783286 0.26844808 -0.31077597 0.2189122 -0.0070284726 -0.113426335 -0.0086279 0.10634668 -0.40740845 -0.6100268 -0.39849967 -0.14493649 -0.59977716 -0.1070099 0.058433373 -0.23008923 0.31752324 0.162209 0.10369497 -0.22180252 0.027696254 -0.46632278 -0.37811056 -0.033736885 -0.0015414759 0.25471705 -0.18072306 0.20524071 -0.23056343 0.11613204 0.32826275 -0.5523297 0.09262046 -0.16926691 -0.21965045 -0.2148502 -0.17973238 -0.13753152 0.27994505 0.22042155
92 -0.26762825 0.040841796 0.35062575 -0.0067812963 -0.20701538 0.4306646 0.10827981 -0.20354696 -0.02795852 -0.16572626 0.2730111 0.2295814 0.015701914 -0.31750944 -0.024266073 0.15483621 -0.35488647 0.2764121 0.19243866 -0.14525512 -0.049812652 0.33385184 0.14614327 0.18910618 0.7759691 0.25912327 -0.33878374 0.23451139 -0.014846502 -0.09919589 -0.012009088 0.098084204 -0.41952834 -0.5973957 -0.39222893 -0.15035518 -0.6064464 -0.12354012 0.06055418 -0.2401831 0.30578578 0.13147284 0.1432635 -0.26809832 0.05899443 -0.45149305 -0.39151716 -0.035868205 -0.018234177 0.28174093 -0.19049612 0.20377794 -0.23198938 0.10372167 0.346597 -0.5299229 0.082908034 -0.17929588 -0.23893891 -0.21999851 -0.16140234 -0.12773019 0.24989462 0.20997979
115 -0.27607766 0.04022732 0.3749491 -0.033058807 -0.21045853 0.45481935 0.10548862 -0.24200761 -0.0371177 -0.15714231 0.2655971 0.25104058 -0.0035050204 -0.32094365 -0.014638206 0.15810941 -0.34908321 0.26641917 0.15161943 -0.160313 -0.073185645 0.34079292 0.15705143 0.19254537 0.7777828 0.25109485 -0.3056047 0.22663085 -0.011219058 -0.10201324 -0.011581678 0.08891031 -0.41048825 -0.5877554 -0.38368338 -0.16356504 -0.6113669 -0.13206388 0.06611769 -0.24387746 0.29764453 0.15083772 0.13892767 -0.23421542 0.04708109 -0.46043354 -0.3944434 -0.050012503 -0.017831296 0.2713646 -0.18614745 0.21276328 -0.2208731 0.10092493 0.31552464 -0.5273141 0.07706386 -0.16839507 -0.21648254 -0.21197872 -0.15626724 -0.1508798 0.27621725 0.2057585
88 -0.29265594 0.013043266 0.3371532 -0.038694665 -0.2177516 0.46145865 0.11230792 -0.2353627 -0.02200261 -0.16275033 0.28159302 0.23750336 0.0053175054 -0.32584926 -0.024957174 0.15600456 -0.37449375 0.24480708 0.13363218 -0.14248705 -0.08396333 0.32695878 0.18571036 0.18120849 0.7807664 0.2514125 -0.28128928 0.21687844 0.00028499853 -0.11054701 -0.026438085 0.105379075 -0.4076666 -0.5900603 -0.376756 -0.17828093 -0.6045419 -0.122979 0.08681692 -0.22373468 0.2937763 0.15108891 0.1235911 -0.22220345 0.05475322 -0.4819923 -0.40857944 -0.07831452 -0.024445822 0.27356756 -0.16991325 0.20144385 -0.2491878 0.103876844 0.34011886 -0.5331325 0.07151792 -0.17598026 -0.2283078 -0.21239984 -0.14834233 -0.14498006 0.26600766 0.22853456
86 -0.23947905 0.010891567 0.3472562 -0.027976403 -0.21890588 0.45297834 0.12826455 -0.1941492 0.019492073 -0.19391625 0.26472268 0.2578584 0.016959524 -0.3212682 -0.032251917 0.1663567 -0.34459645 0.25007585 0.17429075 -0.15317178 -0.058715895 0.33036202 0.19694678 0.19294085 0.7955725 0.27900925 -0.29603913 0.23093076 -0.0074366517 -0.11636499 -0.01363457 0.12200444 -0.42405644 -0.56621814 -0.40229315 -0.13975137 -0.6063289 -0.11827347 0.06909662 -0.23834273 0.30463424 0.16317087 0.110969774 -0.24133995 0.03217657 -0.47177714 -0.3926302 -0.06476933 -0.017894281 0.26704016 -0.18116133 0.2156684 -0.24286884 0.09151723 0.30668345 -0.5505714 0.09901002 -0.17998673 -0.20083557 -0.21163233 -0.15172729 -0.1462743 0.28849867 0.23271303
97 -0.27961257 0.037040524 0.3449102 0.0016039666 -0.22050668 0.44435525 0.12824367 -0.1918494 0.0015873127 -0.16211532 0.25433615 0.22975038 0.003660731 -0.31343928 -0.020794787 0.16853714 -0.3358463 0.23216511 0.15789187 -0.15123601 -0.088657744 0.34489402 0.18840863 0.17993662 0.7901795 0.22382507 -0.32008058 0.19014005 -0.0039840136 -0.08002715 -0.00730076 0.1003001 -0.43189383 -0.5777239 -0.40823674 -0.16538613 -0.6052858 -0.1475721 0.0895108 -0.2545112 0.27648073 0.143839 0.14335921 -0.2505043 0.038587265 -0.4525283 -0.42377248 -0.05844014 -0.011827233 0.27742922 -0.20542814 0.17920026 -0.24452434 0.12886222 0.31868196 -0.54956853 0.09751011 -0.20847966 -0.21716213 -0.21806416 -0.14661059 -0.1393801 0.29693434 0.20025194
76 -0.030693777 -0.28441113 0.078738056 0.2606974 0.47776058 0.0438391 -0.23251031 -0.4799368 -0.067852356 -0.16676411 -0.20192303 -0.16904591 -0.5267085 -0.17214957 -0.006512692 0.22072992 0.15648359 -0.092789814 -0.17492327 0.076102965 0.08477087 0.5103445 -0.043295212 -0.10168268 -0.30043432 -0.2562076 -0.44551608 0.07875693 -0.17373985 -0.007816384 -0.12278066 -0.44755447 0.0566674 -0.63195604 -0.6078108 0.032352097 0.012496698 -0.1751832 -0.37725073 -0.08364602 0.2538534 0.15364915 -0.16694185 -0.46356705 -0.4083311 -0.18811314 0.096941374 0.21900633 0.012665924 -0.07053828 0.050463453 -0.3551057 0.28158262 0.05092973 -0.18631612 0.006544482 -0.09563587 -0.02105425 0.12283085 0.14531296 -0.12177765 -0.29927626 0.7934545 -0.31636405
103 -0.22367974 0.03642829 0.36645392 -0.010751 -0.22343391 0.45239112 0.1350697 -0.17854929 -0.013239507 -0.16343841 0.27589566 0.21625805 0.022985743 -0.29404736 -0.029915363 0.15910229 -0.3415233 0.25375766 0.16404802 -0.1434222 -0.084885016 0.33686602 0.1728299 0.19890013 0.7744458 0.26881662 -0.30543432 0.21376128 -0.024014264 -0.09226016 0.00041921064 0.114890166 -0.42912316 -0.5888187 -0.40632138 -0.17330472 -0.6010556 -0.13774459 0.07929882 -0.24251574 0.29410434 0.14352916 0.12634586 -0.24622175 0.04788024 -0.46997058 -0.40290272 -0.06187788 -0.016021924 0.2582813 -0.20176384 0.19311531 -0.256649 0.10235762 0.33603388 -0.5345046 0.083798 -0.19698644 -0.2281531 -0.22702149 -0.13050473 -0.14648396 0.27573028 0.23771442
60 -0.00029792258 -0.28125086 0.06813775 0.2697248 0.48762256 0.052905973 -0.22198787 -0.5013451 -0.10017815 -0.16827792 -0.22396529 -0.14987408 -0.5095648 -0.18354985 0.02264653 0.23111944 0.17444514 -0.10177382 -0.16520824 0.07038041 0.10131333 0.5204612 -0.03982892 -0.099865995 -0.30213568 -0.26158714 -0.43144926 0.051061835 -0.15455464 -0.04941362 -0.10520413 -0.4665422 0.05496862 -0.6148364 -0.59589136 0.0579 0.05245 -0.20149064 -0.3946406 -0.09885741 0.24253969 0.17207581 -0.16867785 -0.45642138 -0.41983134 -0.19414887 0.11445258 0.23595995 0.015737668 -0.07554586 0.055886827 -0.33657956 0.26766402 0.09262139 -0.16041447 0.04289061 -0.079297714 -0.03214032 0.122327566 0.1462068 -0.1431343 -0.30187583 0.7605658 -0.3212844
16 -0.043625668 -0.2732577 0.045775972 0.29000214 0.48392618 0.067311145 -0.1938087 -0.5134094 -0.076717176 -0.16098168 -0.2233999 -0.1464332 -0.53156614 -0.20558621 0.01145194 0.2093311 0.16772166 -0.093926206 -0.13824776 0.054449603 0.105742194 0.5261283 -0.036279976 -0.12916353 -0.27613613 -0.24612585 -0.4150781 0.068133235 -0.15957616 -0.04499782 -0.11363063 -0.45035693 0.01902155 -0.64289033 -0.56728715 0.050742406 0.050298482 -0.2010202 -0.37994555 -0.09191483 0.23934288 0.14382334 -0.18783428 -0.47296664 -0.4149991 -0.21174732 0.09637554 0.23403166 0.009535169 -0.063631214 0.06958203 -0.30609608 0.32971552 0.11138513 -0.16474834 0.025353428 -0.09004437 -0.032251894 0.11152971 0.1412775 -0.112896204 -0.30661342 0.80299914 -0.29978907
94 -0.26834804 0.027385602 0.34936962 -0.036767513 -0.23476167 0.44772848 0.11348752 -0.2278587 -0.028236348 -0.1664755 0.2675566 0.2668601 -0.0036416391 -0.3113944 -0.02768899 0.15467162 -0.35386094 0.2465662 0.15300734 -0.15080008 -0.069599845 0.3127252 0.18354107 0.18659535 0.8010796 0.26481992 -0.28694198 0.23761164 0.011312936 -0.108164124 -0.0008947457 0.081108406 -0.3971984 -0.6016325 -0.37866354 -0.16911665 -0.60526633 -0.14199525 0.06614958 -0.22426966 0.30306253 0.13151579 0.133754 -0.21023652 0.03674752 -0.46632874 -0.4105518 -0.0586207 -0.0008022554 0.2557496 -0.19943918 0.19901675 -0.23981023 0.09005738 0.32687983 -0.5239969 0.07665168 -0.17446925 -0.22309348 -0.22485633 -0.16101058 -0.15260597 0.27291757 0.22619791
3 -0.010219623 -0.25302747 0.061061163 0.29251313 0.48877773 0.04197569 -0.22611195 -0.49463952 -0.08373949 -0.1704195 -0.22162783 -0.15205923 -0.5104411 -0.20090546 0.01603296 0.22819003 0.1710123 -0.09885026 -0.15994151 0.0737005 0.06407931 0.52656406 -0.019952308 -0.124696106 -0.30869618 -0.25291044 -0.42933714 0.08394524 -0.16130057 -0.017024102 -0.084843695 -0.44227597 0.020557862 -0.61549014 -0.6064823 0.069970235 0.03789881 -0.20795436 -0.39703685 -0.08901516 0.25448483 0.14995189 -0.18667655 -0.47780123 -0.40396872 -0.17722757 0.13896494 0.20725928 0.009890047 -0.07806559 0.088597484 -0.3189085 0.2786008 0.07192874 -0.20031804 0.04459568 -0.0795539 -0.017823711 0.09749873 0.14644104 -0.1452333 -0.27915883 0.78291214 -0.31518513
25 0.007958598 -0.28919476 0.055457663 0.2662309 0.4915584 0.054070696 -0.22018477 -0.47411498 -0.07654137 -0.15819506 -0.22588417 -0.16603416 -0.50097716 -0.18598087 0.024131263 0.23622338 0.15710995 -0.08278579 -0.18261589 0.081074595 0.07344195 0.52321774 -0.037625544 -0.0958741 -0.3316081 -0.26063505 -0.43110487 0.05997951 -0.15699483 -0.03715648 -0.12322312 -0.46082222 0.057042245 -0.61949533 -0.58287334 0.043884106 0.028067984 -0.16561362 -0.40658027 -0.09731228 0.27750948 0.19024484 -0.18300436 -0.4673629 -0.40466496 -0.19063903 0.11085764 0.24512015 0.035083316 -0.08878713 0.061281968 -0.3463136 0.26397806 0.064103745 -0.19150949 0.023831366 -0.091005236 -0.023887375 0.13089809 0.14604324 -0.13273825 -0.29355028 0.76734143 -0.32005963
100 -0.26886186 0.009379604 0.36164308 -0.018104464 -0.20246659 0.47027147 0.1385671 -0.20309542 -0.009160541 -0.16863754 0.29162875 0.264877 -0.022250097 -0.29038692 -0.028684923 0.15872076 -0.34407648 0.24908614 0.15961388 -0.13960125 -0.047656782 0.33525804 0.18558304 0.20918119 0.7862344 0.26525447 -0.30250365 0.21877779 -0.01526647 -0.10032893 0.017264647 0.093300626 -0.4212661 -0.5931534 -0.40121648 -0.15258741 -0.6082595 -0.11370536 0.07314947 -0.21620102 0.29309782 0.16654573 0.11402905 -0.23786448 0.04217677 -0.45632914 -0.40219066 -0.06220219 -0.010020457 0.2618821 -0.20097251 0.17602362 -0.24198343 0.0908074 0.28917193 -0.5511318 0.10065172 -0.1823208 -0.20442027 -0.2061625 -0.15441094 -0.14916046 0.31263992 0.24917299
74 -0.029405564 -0.28425696 0.07144507 0.26854196 0.4846226 0.0502538 -0.20461752 -0.4843979 -0.08254527 -0.15192519 -0.22210577 -0.1541005 -0.51647127 -0.19204153 -0.00011923971 0.22663172 0.15392944 -0.09538463 -0.15816681 0.08592316 0.088875785 0.5245762 -0.032662626 -0.11937456 -0.28734934 -0.2605153 -0.43727815 0.073234975 -0.15650909 -0.019569512 -0.11620354 -0.4531221 0.046893973 -0.6247029 -0.59591466 0.051584058 0.018452914 -0.17533936 -0.38855729 -0.08719329 0.2613298 0.15039746 -0.17880245 -0.476969 -0.41595232 -0.18161418 0.11048613 0.2244443 0.0169189 -0.06670188 0.07311298 -0.34476748 0.3036883 0.06096851 -0.19102374 0.023078784 -0.086105764 -0.031483352 0.12224648 0.13005453 -0.12068966 -0.29448593 0.7917489 -0.3201057
10 -0.0050725574 -0.294855 0.04091327 0.25804076 0.50723827 0.04514699 -0.21967202 -0.45179045 -0.06420899 -0.110705495 -0.21288364 -0.17176698 -0.49367926 -0.1916038 0.0074669803 0.23519492 0.15475827 -0.08642934 -0.17246296 0.100361526 0.06971428 0.51324177 -0.047934286 -0.13076639 -0.31886968 -0.26761454 -0.42492414 0.04427416 -0.14668612 -0.023065398 -0.11324222 -0.45384473 0.06378973 -0.63332224 -0.5950041 0.039184224 0.019323077 -0.1841114 -0.39126262 -0.0743758 0.26011953 0.15073846 -0.19054075 -0.47420502 -0.4041726 -0.16764052 0.10991487 0.22701313 0.027328422 -0.04940413 0.10795764 -0.35842577 0.2860758 0.05227359 -0.2162996 0.012762087 -0.073818654 -0.024592832 0.14761844 0.14320341 -0.105786495 -0.27357158 0.7749789 -0.32493612
116 -0.26237822 0.00794312 0.34927467 -0.03359638 -0.19242425 0.4722845 0.11769089 -0.21552348 -0.008462734 -0.1736844 0.2834592 0.24889296 0.0023199508 -0.31665748 -0.02307216 0.15417102 -0.37721497 0.24393024 0.17178717 -0.1395007 -0.06289551 0.30981362 0.16688903 0.19383395 0.78151035 0.26853156 -0.31484526 0.23614094 -0.027167792 -0.100991905 -0.015229636 0.10393276 -0.4022885 -0.598041 -0.36265868 -0.15760352 -0.6062329 -0.11442035 0.06347643 -0.20650657 0.29795304 0.14041376 0.1211305 -0.24336389 0.058589995 -0.46474385 -0.4016202 -0.062136088 -0.018953294 0.25570995 -0.18083245 0.20986255 -0.24911985 0.090788625 0.33065754 -0.5307875 0.09164967 -0.16541733 -0.21623908 -0.21789399 -0.1531157 -0.14749806 0.2615243 0.23296203
6 -0.026979024 -0.27233964 0.07220155 0.25629485 0.47849372 0.056514822 -0.21397325 -0.5031817 -0.09993596 -0.17383206 -0.21292907 -0.16850612 -0.52840525 -0.1803152 0.027138045 0.21044467 0.18641686 -0.10055171 -0.16858716 0.06181869 0.10556142 0.5296309 -0.03950517 -0.11818574 -0.294731 -0.24605006 -0.42738447 0.06347402 -0.16671778 -0.044337474 -0.08926993 -0.45930713 0.039813038 -0.6024451 -0.60988075 0.054422073 0.015099221 -0.19094537 -0.38674244 -0.078499444 0.27274635 0.16260105 -0.19162735 -0.44230792 -0.39344212 -0.20278001 0.13550784 0.23789777 0.0015315568 -0.07058847 0.058869913 -0.3187352 0.2941379 0.08350287 -0.15656883 0.038592815 -0.06660787 -0.0046807937 0.10066922 0.15163396 -0.13173842 -0.2887083 0.7925207 -0.32159302
9 -0.034101486 -0.28464365 0.06862545 0.25068972 0.4639818 0.034757607 -0.24147485 -0.4883774 -0.06699005 -0.16552004 -0.21288936 -0.15968598 -0.52595085 -0.1808527 0.013067585 0.20925595 0.17149535 -0.1007757 -0.16099043 0.071072735 0.10922418 0.54341716 -0.031601973 -0.0946547 -0.32708585 -0.25368774 -0.43441096 0.06334449 -0.19724105 -0.016282456 -0.08900773 -0.44863808 0.038971674 -0.6153409 -0.61602175 0.055788435 0.0170319 -0.17931165 -0.36172655 -0.0594896 0.27514857 0.1561767 -0.19569914 -0.43502605 -0.3744919 -0.19008109 0.11845295 0.2121576 0.00089020916 -0.0677199 0.08065941 -0.3472407 0.30381477 0.07392924 -0.17777845 0.022019671 -0.06289205 -0.001894817 0.10094267 0.13408852 -0.11031837 -0.28064913 0.7999284 -0.31737554
119 -0.26727793 -0.007263405 0.34710988 -0.03328245 -0.19131833 0.4783903 0.12101445 -0.20887187 -0.022244561 -0.17131461 0.28480104 0.25823727 -0.02513783 -0.30755815 -0.029598746 0.14452253 -0.3676344 0.24573602 0.15002362 -0.121590376 -0.05216032 0.33071792 0.1712034 0.20583668 0.79117936 0.24697915 -0.322582 0.24629308 -0.017346812 -0.09530124 -0.0051743826 0.09517152 -0.40749618 -0.6036287 -0.38517365 -0.15795594 -0.59704095 -0.12502442 0.048278216 -0.22318636 0.29820397 0.15297182 0.11782701 -0.26524332 0.062318407 -0.45128727 -0.40324888 -0.061568122 -0.011605539 0.25173798 -0.2101853 0.18626757 -0.24894553 0.07766937 0.32300505 -0.5377064 0.0875774 -0.18683463 -0.21099733 -0.20021676 -0.16542137 -0.1650606 0.3121676 0.24123423
59 -0.031529594 -0.290524 0.03729202 0.24847415 0.50161546 0.033336535 -0.21152306 -0.46167177 -0.0765673 -0.12835987 -0.21674229 -0.16407405 -0.52278477 -0.19157842 -0.002952583 0.2236212 0.14119932 -0.08849303 -0.1570037 0.07702408 0.07921775 0.5031186 -0.033341344 -0.116372906 -0.33222595 -0.26957458 -0.4056506 0.05274463 -0.1582678 -0.01163392 -0.11786503 -0.4425527 0.072429806 -0.6388411 -0.58285844 0.045912493 0.03888648 -0.16992062 -0.38041466 -0.09152139 0.24985693 0.14082316 -0.19260313 -0.46899956 -0.43192035 -0.19351292 0.09169834 0.22909902 0.018279513 -0.062404443 0.081570275 -0.3390188 0.30658352 0.063521646 -0.19749129 0.0069348654 -0.10228036 -0.024787867 0.13763782 0.14906196 -0.106890306 -0.28678557 0.789643 -0.33137774
101 -0.25616816 0.02943454 0.34288847 -0.00010873645 -0.21697131 0.46230298 0.1333458 -0.17797634 0.007922065 -0.1795077 0.26711625 0.24261627 0.012868221 -0.32164142 -0.01408627 0.15186809 -0.34912962 0.2523313 0.18006623 -0.13462298 -0.086065546 0.33519125 0.20460935 0.196826 0.78523165 0.25535306 -0.32939792 0.214991 -0.009622971 -0.08443851 -0.0077864532 0.09783418 -0.42602822 -0.59420604 -0.4035559 -0.1412353 -0.5965073 -0.12640496 0.082518846 -0.224108 0.2819373 0.13720247 0.10304993 -0.25656158 0.050602704 -0.4515486 -0.40909508 -0.061296735 -0.016603103 0.2698448 -0.20459262 0.19480374 -0.25662193 0.1161312 0.32937604 -0.522777 0.08892172 -0.18766138 -0.2095667 -0.2294929 -0.12861738 -0.13331269 0.2971681 0.2232668
21 -0.014083656 -0.27790225 0.063952826 0.27446437 0.4921469 0.06963451 -0.21794948 -0.5020828 -0.081800826 -0.13683653 -0.2339427 -0.14491805 -0.51405525 -0.19277884 0.005233219 0.23483363 0.15900458 -0.09268971 -0.14778398 0.07512063 0.09260656 0.53740853 -0.0362118 -0.1319877 -0.288977 -0.25718558 -0.42229897 0.05895915 -0.15984152 -0.02052728 -0.102765776 -0.4651665 0.057480466 -0.6388295 -0.5897937 0.06584901 0.050118405 -0.19549431 -0.38329163 -0.07173735 0.22188361 0.15494165 -0.17577879 -0.47542715 -0.4047214 -0.17686467 0.09896827 0.22850317 -0.006611632 -0.069421366 0.08572221 -0.33671483 0.29217148 0.09423346 -0.17215787 0.038644318 -0.06282008 -0.021402681 0.12236396 0.124850474 -0.09815345 -0.28205818 0.7817278 -0.32053614
98 -0.27879378 0.017567916 0.33568126 -0.020522697 -0.21421246 0.45932505 0.12262415 -0.21532331 -0.007553077 -0.16963577 0.27468896 0.23756918 0.007014525 -0.33185518 -0.033250503 0.14584708 -0.36833724 0.24363667 0.15996553 -0.14441518 -0.06911359 0.31731445 0.18018651 0.1829306 0.78995806 0.24807099 -0.31094205 0.22596757 -0.005811446 -0.110216506 -0.029808024 0.0953298 -0.41104618 -0.58838105 -0.37490207 -0.16221036 -0.608985 -0.120174855 0.07017111 -0.21247315 0.2788208 0.13177413 0.12260345 -0.24531703 0.06599904 -0.4580168 -0.40555608 -0.07260502 -0.0033225627 0.26469988 -0.18331039 0.19675112 -0.26530573 0.10521885 0.32986313 -0.5319354 0.07559336 -0.18256517 -0.2062107 -0.22980906 -0.14951347 -0.1261963 0.2714947 0.22638682
130 -0.28417194 0.010957506 0.35988554 -0.022061108 -0.22475567 0.45741805 0.14459994 -0.2265012 -0.0053350986 -0.15666929 0.2940839 0.21738331 0.028338568 -0.30416796 -0.009348495 0.1601411 -0.38161033 0.26170504 0.18298951 -0.16528054 -0.06861314 0.31135958 0.16093697 0.20088078 0.78112036 0.27443373 -0.2870797 0.22112174 -0.0051172185 -0.1143249 -0.007657637 0.099839725 -0.4255597 -0.5679192 -0.36150783 -0.15884459 -0.59956247 -0.12319307 0.0773696 -0.24133332 0.3133669 0.16383503 0.12462101 -0.22237188 0.053741727 -0.4636194 -0.4156849 -0.060126476 -0.028161617 0.26526633 -0.16305813 0.22289799 -0.23634315 0.09377124 0.32593998 -0.5376279 0.08900397 -0.1707275 -0.23847947 -0.21841472 -0.14196444 -0.13974045 0.25036377 0.21487938
37 -0.042409666 -0.27795008 0.050260108 0.27598286 0.50830394 0.07624694 -0.2175737 -0.4989291 -0.06648 -0.14562774 -0.21354888 -0.14965397 -0.49864396 -0.18547848 0.017368056 0.24988241 0.17264636 -0.08218522 -0.16187327 0.080335945 0.10477014 0.5404853 -0.058203883 -0.13221008 -0.29557464 -0.25751838 -0.3997913 0.06549152 -0.16875078 -0.029748235 -0.11587719 -0.45793182 0.05718485 -0.62636954 -0.5902933 0.061210543 0.030154403 -0.19621594 -0.37218425 -0.063597575 0.21466559 0.15148297 -0.16558835 -0.4610269 -0.39184907 -0.20223394 0.10052124 0.2400794 -0.0030441878 -0.064581685 0.082194306 -0.32242534 0.29490054 0.11700303 -0.16873774 0.013791159 -0.05155075 0.005563409 0.11521757 0.16615407 -0.10794481 -0.29562265 0.80793387 -0.30011863
128 -0.25229752 0.036401782 0.36230022 -0.005572692 -0.20420037 0.44765362 0.13102536 -0.20253639 -0.005023689 -0.15620908 0.26685 0.23000729 0.01931069 -0.32661185 -0.0141334925 0.15252393 -0.3457522 0.25887847 0.1880093 -0.14944418 -0.078283705 0.33812082 0.18487144 0.19808154 0.77989393 0.23903322 -0.3209567 0.20896687 -0.014135071 -0.090278216 -0.01703708 0.096747205 -0.4162949 -0.5984861 -0.38541025 -0.15336826 -0.61656266 -0.12970328 0.072222985 -0.22912343 0.29798993 0.1388829 0.1142779 -0.25554356 0.05093624 -0.44926772 -0.41528082 -0.052743554 -0.01964718 0.27029225 -0.19428484 0.19475222 -0.2443152 0.11381595 0.3433513 -0.5429226 0.074459106 -0.17477703 -0.21293657 -0.23321639 -0.1319982 -0.120678976 0.2853855 0.20275109
8 -0.019147104 -0.2745793 0.0714108 0.27467287 0.47713864 0.028792804 -0.22814402 -0.48475128 -0.05932566 -0.13691355 -0.22323859 -0.14885241 -0.53785986 -0.16840337 -0.009204502 0.19702175 0.17262326 -0.11020987 -0.15909854 0.089032054 0.11326213 0.5092302 -0.05327923 -0.10091969 -0.31850514 -0.25810075 -0.44087467 0.07616495 -0.18718585 0.003767593 -0.12254643 -0.4642866 0.047266755 -0.5996455 -0.5966604 0.07077441 0.032580215 -0.19246744 -0.38185465 -0.06044889 0.25236046 0.15064318 -0.17970079 -0.45666435 -0.39751315 -0.17880826 0.11035188 0.20455971 0.010335748 -0.06702365 0.086725645 -0.3649304 0.30471778 0.077463135 -0.19815864 0.030901901 -0.06799738 -0.0100657875 0.11595718 0.13628983 -0.095560566 -0.29029873 0.8027151 -0.30469945
110 -0.23812042 0.04695393 0.37220144 0.0039843256 -0.21154596 0.4483809 0.127631 -0.2027003 -0.013372169 -0.17264256 0.24953471 0.19933805 0.019713921 -0.30723715 -0.025169749 0.16281378 -0.35226053 0.25901538 0.1718376 -0.13535424 -0.08550244 0.3348571 0.16212268 0.18598859 0.777694 0.239307 -0.31975418 0.20869413 -0.003768237 -0.088615514 -0.007647123 0.12534788 -0.4333615 -0.58044523 -0.40676546 -0.17270197 -0.6134756 -0.14674595 0.08911588 -0.24371813 0.29751882 0.14582756 0.11821197 -0.23823637 0.059921797 -0.46716002 -0.40098226 -0.057638828 -0.038569953 0.2862216 -0.18876162 0.19891606 -0.23818664 0.11602702 0.33418623 -0.53387 0.08589993 -0.18362331 -0.23820303 -0.21701264 -0.14205378 -0.13239783 0.25817347 0.21515125
159 -0.24379279 0.02568405 0.36088 -0.03437629 -0.2034625 0.45444375 0.10847231 -0.21715328 -0.015340057 -0.1644129 0.2965664 0.23168017 0.0040907217 -0.309026 -0.0155445635 0.15297519 -0.36837608 0.26394254 0.1460671 -0.14337002 -0.062101014 0.3418549 0.15290585 0.2043738 0.7628385 0.28131005 -0.3019854 0.24796614 -0.026201814 -0.119720526 -0.011072215 0.120786175 -0.4289457 -0.5799209 -0.3834932 -0.17232594 -0.61448514 -0.12584956 0.07210219 -0.24246727 0.30587018 0.1636534 0.13043934 -0.24457212 0.053646546 -0.47377372 -0.3814162 -0.077275835 -0.02060039 0.2620892 -0.181068 0.19908263 -0.24584651 0.09620903 0.3315204 -0.53407246 0.08462815 -0.17837355 -0.22171643 -0.21048322 -0.15082069 -0.13643257 0.26681176 0.22900188
45 -0.02617657 -0.28251642 0.069406755 0.26890212 0.47534448 0.040385265 -0.20154227 -0.49429697 -0.07614906 -0.14094052 -0.22613925 -0.15586175 -0.5221771 -0.18711561 0.004974783 0.21019617 0.16437508 -0.09525146 -0.16762081 0.061373863 0.09426183 0.5193366 -0.037435815 -0.13598074 -0.3098843 -0.25235176 -0.4465379 0.0660601 -0.16541441 -0.024234453 -0.097238675 -0.44801885 0.058343697 -0.62835765 -0.5941752 0.054730166 0.042126726 -0.2010204 -0.37964824 -0.06087553 0.22274461 0.13431661 -0.18634593 -0.47731432 -0.41115302 -0.1838871 0.10829076 0.24300541 -0.0047096824 -0.07889897 0.07705527 -0.3360724 0.28909972 0.064797185 -0.16629319 0.033787776 -0.06352955 -0.015577435 0.10397601 0.15761776 -0.11822576 -0.29112813 0.7851529 -0.32162267
145 -0.27858984 0.03364849 0.35586274 -0.016077505 -0.2205482 0.45551598 0.11964505 -0.19350915 0.0018182002 -0.14700118 0.25110337 0.24883777 0.016451059 -0.31935078 -0.010499915 0.140359 -0.35459718 0.26150215 0.15408626 -0.14618753 -0.086036965 0.3344409 0.18120493 0.18883733 0.77654696 0.23177876 -0.30546463 0.20206483 -0.019139031 -0.1093958 -0.014614258 0.104991935 -0.40572405 -0.6002409 -0.3819841 -0.16529481 -0.6190663 -0.12521704 0.07788017 -0.23052515 0.27604595 0.11621537 0.12167886 -0.21525206 0.046966065 -0.46007663 -0.42110562 -0.074729845 -0.03548386 0.27795497 -0.21398228 0.19711663 -0.2647937 0.123014204 0.33808395 -0.54011613 0.075239055 -0.19851328 -0.19777043 -0.23533702 -0.136092 -0.1440715 0.27451277 0.22995599
39 0.0020948977 -0.26455897 0.07442242 0.284041 0.474136 0.03942321 -0.2229546 -0.48499724 -0.070130594 -0.15230602 -0.22904964 -0.1575856 -0.5238663 -0.1903248 0.0062558935 0.22547776 0.17033984 -0.10199694 -0.16057591 0.07910041 0.08314289 0.50565875 -0.03681039 -0.1410066 -0.31292287 -0.25901026 -0.43090463 0.086238 -0.172843 -0.012830872 -0.12540135 -0.45484707 0.02971581 -0.6289472 -0.5935618 0.0597444 0.055885784 -0.18866038 -0.40021703 -0.064593524 0.22610377 0.14970067 -0.18154712 -0.47888267 -0.39885604 -0.1929691 0.0932146 0.23910803 0.0054026223 -0.072159 0.081283934 -0.34620586 0.29093373 0.09073392 -0.19672161 0.045347895 -0.07728737 -0.019519364 0.12486652 0.15214778 -0.11803191 -0.28563845 0.7783703 -0.29722244
44 -0.020720165 -0.29180416 0.0635219 0.25819212 0.4934722 0.016287507 -0.23737986 -0.45571545 -0.06849386 -0.1297025 -0.207948 -0.15438384 -0.5330702 -0.1812401 -0.0051794914 0.20464411 0.14492656 -0.08837069 -0.16487074 0.0883577 0.07705015 0.5242404 -0.03700619 -0.105325915 -0.30776268 -0.2684077 -0.42696857 0.059562095 -0.18078858 -0.011507968 -0.11160972 -0.4436433 0.055955354 -0.63347363 -0.6042242 0.05842081 0.0048867716 -0.16967613 -0.38909698 -0.09032302 0.27754182 0.14803326 -0.16912739 -0.45274472 -0.42080522 -0.18026547 0.11644381 0.2106259 0.025482599 -0.043797005 0.085384734 -0.3634793 0.30143535 0.053009655 -0.20907232 0.0065780655 -0.098172106 -0.028652286 0.13220651 0.14562155 -0.12387702 -0.27597103 0.78422654 -0.31376708
7 -0.009737562 -0.2600294 0.0762842 0.28278536 0.45403227 0.06277113 -0.23982586 -0.5153671 -0.11110115 -0.1689502 -0.22228165 -0.17885129 -0.526496 -0.16449346 0.019240899 0.22723633 0.1794449 -0.112844884 -0.16731246 0.07788206 0.082922235 0.5224688 -0.009567326 -0.1290832 -0.32797882 -0.24642614 -0.43438882 0.07181303 -0.1792658 -0.024001721 -0.10201941 -0.4481691 0.042032164 -0.6279716 -0.60610574 0.0786401 0.029723607 -0.18716708 -0.3890813 -0.06896239 0.24609278 0.178544 -0.17840858 -0.48343486 -0.3795872 -0.18814883 0.12557137 0.24167474 0.0044751894 -0.074448615 0.05528306 -0.32106563 0.27237362 0.09315263 -0.18146405 0.061590422 -0.080221266 0.0006715236 0.107518606 0.1380741 -0.11885622 -0.2931198 0.78187084 -0.31736153
40 -0.0106110405 -0.2923036 0.07489725 0.26244783 0.4805795 0.021173127 -0.20729636 -0.45685324 -0.07026356 -0.13846368 -0.21414614 -0.15322946 -0.53836584 -0.18768103 0.010358005 0.20718113 0.15178499 -0.08373251 -0.1764862 0.08568901 0.08123998 0.51358694 -0.047216773 -0.08626102 -0.31038034 -0.2529367 -0.44879687 0.06672484 -0.15481019 -0.005230448 -0.12988847 -0.46660075 0.058302075 -0.61084485 -0.5928875 0.047197986 0.022062277 -0.17482159 -0.404623 -0.09565207 0.2563108 0.14763308 -0.17599908 -0.46311945 -0.42386502 -0.16034189 0.105041966 0.2191112 0.030342266 -0.06735551 0.06548008 -0.37413624 0.2704428 0.064303406 -0.20362228 0.006402482 -0.1003209 -0.019040165 0.13306542 0.13705471 -0.10465488 -0.27407295 0.78949624 -0.32616028
149 -0.26174513 0.052529775 0.3454457 -0.007994625 -0.21539715 0.4444779 0.11089071 -0.20218207 -0.007345022 -0.16473535 0.24536799 0.23463258 0.015135238 -0.3229429 -0.019368345 0.14787953 -0.33404565 0.25892088 0.15074593 -0.156589 -0.07662914 0.35039628 0.18521942 0.16389701 0.76766044 0.24190794 -0.31438476 0.209264 -0.0073760706 -0.09543154 -0.025623826 0.0910027 -0.40073553 -0.6084024 -0.39612132 -0.17583103 -0.6208751 -0.1457698 0.06900947 -0.24431853 0.3016817 0.115434565 0.12889284 -0.24078567 0.044314604 -0.47513667 -0.42017275 -0.050133277 -0.021932045 0.27973515 -0.19513121 0.21414322 -0.26099682 0.1325151 0.34825546 -0.52996224 0.07379393 -0.19501452 -0.2247535 -0.23136784 -0.13724913 -0.12799092 0.27560803 0.20071
71 -0.023045633 -0.2811915 0.057756398 0.29016536 0.4866933 0.05227754 -0.23280045 -0.46935275 -0.078959726 -0.13989548 -0.21687648 -0.14812802 -0.52358556 -0.18358 0.0005147451 0.20899822 0.15346831 -0.10214986 -0.13801295 0.08503453 0.087993234 0.5219944 -0.054882642 -0.11762005 -0.2868379 -0.27261928 -0.42625156 0.06388883 -0.17191309 -0.03226507 -0.12439416 -0.46923307 0.057391237 -0.6375197 -0.5881528 0.053903747 0.013138823 -0.19402696 -0.40278336 -0.08946811 0.25924256 0.15799403 -0.16998821 -0.4537627 -0.41720623 -0.17150949 0.10471782 0.21914364 0.0006451894 -0.04498286 0.08550356 -0.35208133 0.29356998 0.079869784 -0.18644482 0.032110326 -0.06589806 -0.03048291 0.14583535 0.13498521 -0.1147183 -0.28097486 0.7728872 -0.29601136
35 -0.023625169 -0.28094348 0.0790921 0.30405828 0.4717282 0.04271902 -0.22189118 -0.4856025 -0.06924214 -0.14683148 -0.20613441 -0.14538996 -0.52791077 -0.18465032 -0.0010706456 0.199983 0.17311092 -0.11398523 -0.13938633 0.07128466 0.106647074 0.52756137 -0.030976566 -0.11546357 -0.29565796 -0.24424192 -0.45958596 0.081448905 -0.1727888 -0.007423825 -0.11494012 -0.4464726 0.035858363 -0.645547 -0.58069336 0.039522663 0.007924268 -0.20738691 -0.3868316 -0.07800363 0.2542459 0.1370441 -0.1787442 -0.46456742 -0.414139 -0.18270947 0.10920978 0.20796677 -0.01615514 -0.068462454 0.08045584 -0.36160254 0.29914662 0.055107355 -0.17743586 0.017174091 -0.07585229 -0.024555925 0.11293454 0.13223094 -0.10834483 -0.2844114 0.7922293 -0.31294304
134 -0.27128085 0.0063445815 0.35038784 -0.022862954 -0.19777012 0.4640305 0.11712924 -0.21394905 -0.012617877 -0.16969398 0.28076077 0.23061405 0.0059719896 -0.3111489 -0.021388987 0.13641798 -0.36144948 0.25682443 0.15960804 -0.1373041 -0.05887642 0.3387914 0.16204612 0.19682491 0.77079195 0.24891686 -0.31662363 0.2370305 -0.0046744514 -0.08796124 -0.009013193 0.08107548 -0.40721104 -0.60188895 -0.3913294 -0.1656732 -0.6097998 -0.14015633 0.06726973 -0.23195764 0.30641407 0.16402327 0.112045005 -0.25006327 0.05462216 -0.4456523 -0.40028042 -0.052263014 -0.018616183 0.26985046 -0.19788575 0.19438547 -0.24368858 0.10299153 0.32185838 -0.5537119 0.08997381 -0.18491445 -0.22546819 -0.21654171 -0.1595405 -0.14146899 0.28809217 0.22594447
141 -0.28348136 0.034096062 0.36559537 -0.0062787877 -0.1894819 0.461346 0.12677997 -0.18704426 -0.030168997 -0.13992694 0.26416114 0.22997835 -0.0011240919 -0.2919937 -0.01022534 0.1398029 -0.35890752 0.2731599 0.16673423 -0.12649582 -0.07037287 0.34624824 0.14413098 0.20241687 0.78017235 0.21563733 -0.33718753 0.2131015 -0.023728948 -0.08775431 -0.0030305793 0.10035621 -0.42913717 -0.60698956 -0.38772243 -0.17408425 -0.6133497 -0.13446209 0.06745663 -0.2542945 0.28680953 0.13148329 0.13944422 -0.25921628 0.06443645 -0.42793494 -0.42582616 -0.05037646 -0.034689266 0.2860282 -0.21726073 0.16339388 -0.23636611 0.11119862 0.3546284 -0.5549412 0.071417086 -0.2113905 -0.21379268 -0.21583593 -0.1590877 -0.16177568 0.2725392 0.21856065
70 -0.024784017 -0.28446585 0.05525326 0.2654865 0.4872662 0.023712335 -0.23838338 -0.4766903 -0.064543165 -0.13734595 -0.21660493 -0.14978272 -0.52739567 -0.17616297 -0.0029806402 0.22080244 0.14713219 -0.08625677 -0.17996413 0.08464315 0.072583124 0.52144057 -0.041947618 -0.113923326 -0.33444968 -0.25520277 -0.41878465 0.06691353 -0.17130503 -0.010266056 -0.12783672 -0.45740095 0.067550555 -0.6343557 -0.59293664 0.04192146 0.021954678 -0.17419234 -0.38615134 -0.07802939 0.26289293 0.15350251 -0.18981068 -0.46339822 -0.40566862 -0.17125565 0.09127405 0.22387946 0.013040654 -0.04797605 0.07763223 -0.35675558 0.29389492 0.06333671 -0.20134147 0.0061234874 -0.09086104 -0.01380489 0.13881516 0.14330605 -0.10077039 -0.26335147 0.7760348 -0.32299438
53 -0.016206505 -0.28858906 0.058073558 0.26455054 0.4977968 0.017290143 -0.21820636 -0.46305054 -0.068289235 -0.16782418 -0.22344153 -0.1615691 -0.5042186 -0.17747568 0.002586964 0.21596442 0.16304427 -0.07880711 -0.16701157 0.08386339 0.07046555 0.5204201 -0.043258194 -0.11920672 -0.30759013 -0.26910642 -0.414951 0.06966028 -0.17550138 -0.030856475 -0.10490104 -0.4476867 0.033673152 -0.63476837 -0.5902537 0.043350056 0.032503583 -0.153544 -0.38016924 -0.078070305 0.246143 0.13633531 -0.16881001 -0.47263002 -0.40980127 -0.20179473 0.11179277 0.23471753 0.008539439 -0.082753666 0.092183456 -0.345975 0.2935355 0.0771806 -0.19062799 0.021479782 -0.10133845 -0.03401094 0.11902462 0.16759023 -0.13996455 -0.29034078 0.7965796 -0.3207712
11 -0.015785385 -0.2672653 0.055208072 0.29107362 0.48995978 0.020425446 -0.22594747 -0.47079214 -0.07459728 -0.13673896 -0.21448885 -0.1540757 -0.5229691 -0.17357239 -0.01701878 0.22405878 0.1722255 -0.111726366 -0.1547798 0.09631501 0.07430871 0.49578598 -0.03934837 -0.13696 -0.3219034 -0.25106698 -0.42661685 0.09176174 -0.1617467 0.00056267757 -0.13024573 -0.45271724 0.053338125 -0.6301983 -0.56321263 0.05725704 0.050616186 -0.18828754 -0.3949242 -0.07259128 0.22330977 0.14379449 -0.16640279 -0.4904967 -0.4169956 -0.17409359 0.11512422 0.230578 -0.00048800078 -0.06963521 0.08301517 -0.3472747 0.30502898 0.06835244 -0.20774332 0.05656273 -0.08208335 -0.026361117 0.13602434 0.15412593 -0.11256832 -0.27850592 0.7672683 -0.31609988
108 -0.2606528 0.039358772 0.3666015 -0.021451302 -0.21249634 0.44807985 0.12270188 -0.21357253 0.0013541767 -0.16101785 0.26440144 0.24350357 0.020607753 -0.32875136 -0.0001519457 0.15554538 -0.36360928 0.25209543 0.17766306 -0.14058357 -0.090966426 0.322557 0.16813321 0.18027262 0.7803904 0.24115078 -0.31976056 0.22767392 -0.01315352 -0.11376343 -0.04025805 0.105829835 -0.41539705 -0.6005897 -0.3586389 -0.15959471 -0.6151699 -0.14070433 0.070625715 -0.24670367 0.30958015 0.13064195 0.11870295 -0.24441971 0.03282661 -0.46189117 -0.40307412 -0.063223116 -0.018526023 0.27608436 -0.16488247 0.21916524 -0.24437432 0.115355 0.35094327 -0.5409275 0.0856503 -0.1834996 -0.21081153 -0.22939534 -0.14311676 -0.11969173 0.25615084 0.19929829
83 -0.26327187 0.016968809 0.353032 -0.017212885 -0.20248647 0.45953953 0.11870121 -0.21966226 -0.02951301 -0.17573951 0.27997583 0.20527652 -0.0013451392 -0.30755162 -0.039080225 0.15753219 -0.35997593 0.24790007 0.15775917 -0.15393054 -0.051119916 0.34714404 0.1741674 0.1939846 0.78264964 0.2517807 -0.30427167 0.23105237 -0.012180145 -0.110642865 -0.020546703 0.093948506 -0.42891577 -0.598732 -0.40744582 -0.17195876 -0.59701663 -0.12784417 0.068959124 -0.22172771 0.3067206 0.14257696 0.12619826 -0.26983994 0.061181333 -0.4731379 -0.42102218 -0.05960059 -0.021124398 0.25870323 -0.1812623 0.18250602 -0.25690204 0.0986887 0.34040207 -0.5333833 0.074291036 -0.18533288 -0.23176706 -0.20949088 -0.15236394 -0.1435572 0.281381 0.19913152
33 -0.012980413 -0.27513838 0.08839752 0.26866844 0.4759124 0.03824597 -0.22168835 -0.47253114 -0.061127484 -0.16946743 -0.21873915 -0.15552005 -0.519271 -0.1783672 0.00077404623 0.22974965 0.15546502 -0.083500475 -0.17255656 0.07582111 0.09181629 0.54153717 -0.021209339 -0.1230542 -0.30925792 -0.2444077 -0.43462017 0.07610209 -0.17242825 -0.017845273 -0.11023349 -0.4525066 0.042724203 -0.62501633 -0.6052716 0.04427204 0.03433745 -0.17196581 -0.39213774 -0.08194394 0.24501882 0.16080323 -0.17754816 -0.46597922 -0.40269637 -0.2012117 0.100540005 0.22741282 0.012257674 -0.06857193 0.06866845 -0.35345322 0.28060234 0.07508778 -0.19574796 0.024004996 -0.07789102 -0.021546131 0.13002938 0.15765446 -0.12469543 -0.2776817 0.78121483 -0.3123067
63 -0.017768728 -0.30193835 0.06078688 0.2572684 0.48785895 0.072755136 -0.20315614 -0.5078345 -0.103225745 -0.14939053 -0.22255038 -0.16778944 -0.49165332 -0.1950846 0.02313205 0.23851089 0.16476443 -0.08618325 -0.1738652 0.06670183 0.08622288 0.5344506 -0.038069356 -0.14172807 -0.3001851 -0.2573144 -0.41225258 0.031554863 -0.1392346 -0.048940793 -0.095504336 -0.45508716 0.058935788 -0.64144456 -0.594842 0.061271403 0.047271103 -0.18512805 -0.38092205 -0.08417148 0.24073692 0.16944188 -0.17510955 -0.48561797 -0.38954815 -0.19916184 0.10921557 0.26134396 0.014179544 -0.07370916 0.0759687 -0.31310603 0.27175468 0.08317348 -0.16594915 0.03625254 -0.06905354 -0.013914341 0.12534615 0.1648408 -0.12206125 -0.30199546 0.7777835 -0.3170127
42 -0.013119437 -0.29026875 0.0653027 0.2727773 0.47546452 0.029807841 -0.19182478 -0.4747741 -0.09124169 -0.16468129 -0.24008383 -0.15994705 -0.52504086 -0.17536706 0.004337918 0.2084646 0.14908655 -0.10944529 -0.16863275 0.057761904 0.084236145 0.5057424 -0.006952068 -0.11515453 -0.32274994 -0.25671554 -0.43814003 0.06999458 -0.15483353 -0.014818812 -0.09379275 -0.4435102 0.051559802 -0.6059585 -0.58593756 0.04492627 0.041214544 -0.17038842 -0.3866343 -0.075012155 0.2604115 0.1526644 -0.18040608 -0.47211108 -0.4238458 -0.19610542 0.12903744 0.24956994 0.014090526 -0.10314039 0.06286728 -0.33296046 0.30296728 0.04185529 -0.18307823 0.043037593 -0.09857059 -0.023479724 0.10964794 0.15041398 -0.1256421 -0.28851014 0.7819119 -0.34007052
127 -0.24554247 0.016908204 0.36140195 -0.0032600097 -0.20118631 0.45192218 0.13407265 -0.20489502 -0.0054329853 -0.16739376 0.27859095 0.23175879 0.0040666107 -0.31916445 -0.02779907 0.15863667 -0.3468577 0.25651604 0.17805608 -0.15194505 -0.055871613 0.3423372 0.1704642 0.1982394 0.7632297 0.25869247 -0.32937548 0.23034272 -0.036379687 -0.10214016 -0.012580221 0.09254172 -0.4249757 -0.6095026 -0.40691173 -0.14418347 -0.61785734 -0.11846934 0.054674916 -0.23171774 0.31503564 0.15363933 0.11876421 -0.262382 0.03808103 -0.45222038 -0.38951343 -0.052897066 -0.011712765 0.2509629 -0.18156642 0.20297448 -0.24584067 0.09780642 0.32439885 -0.53828764 0.086458296 -0.1726337 -0.2164807 -0.22092912 -0.1561618 -0.14442413 0.29222867 0.21379496
66 -0.04355468 -0.2702126 0.06452041 0.29455605 0.47705436 0.05117861 -0.20580553 -0.482769 -0.07532002 -0.15835483 -0.21740435 -0.1528459 -0.5353503 -0.20378049 0.015559943 0.1958252 0.15817757 -0.09426097 -0.14776649 0.07127474 0.07890224 0.53592914 -0.029657807 -0.120147206 -0.28831494 -0.2474104 -0.43113616 0.08093216 -0.17141229 -0.01351555 -0.10180625 -0.43448025 0.023153689 -0.62984544 -0.5995191 0.053602975 0.03511888 -0.18701835 -0.38819912 -0.07900218 0.2613072 0.14703472 -0.18677044 -0.4677705 -0.4165114 -0.2017172 0.111560136 0.21298334 0.006910837 -0.06078651 0.06867196 -0.3351077 0.30846658 0.0770771 -0.17670338 0.024784511 -0.085318804 -0.025081411 0.10875755 0.12799007 -0.10516172 -0.27365595 0.79229605 -0.30826917
129 -0.24867383 0.05150086 0.35763 -0.043097697 -0.23683701 0.44666082 0.1108835 -0.18372576 -0.027054736 -0.1589409 0.2699864 0.24707283 0.024467826 -0.30506673 -0.027527455 0.14333606 -0.36254737 0.2622494 0.15833041 -0.14205524 -0.08707469 0.33413047 0.17612359 0.19031309 0.79597455 0.25292602 -0.30608916 0.21115474 -0.008857829 -0.091514185 -0.010935895 0.11072111 -0.40096492 -0.58367574 -0.35960668 -0.16656572 -0.6121713 -0.14335783 0.07975989 -0.24962035 0.29440734 0.13451254 0.14942244 -0.21946795 0.061774515 -0.46172634 -0.3970523 -0.06356917 -0.005720999 0.26903513 -0.20466682 0.21431805 -0.25998375 0.09310423 0.34424168 -0.53791165 0.09044645 -0.18527868 -0.24395117 -0.21656585 -0.13593028 -0.14468789 0.25852928 0.23125587
123 -0.24501625 0.030163681 0.36497122 -0.021362264 -0.20891088 0.4559699 0.12421951 -0.20099692 -0.010127338 -0.1849416 0.27189818 0.25789532 -0.0070106327 -0.31611168 -0.017531998 0.15677108 -0.35337365 0.275336 0.1587394 -0.13664396 -0.05954732 0.3540785 0.16081479 0.19378555 0.76879925 0.256449 -0.3272413 0.22360972 -0.026608875 -0.10553862 -0.016908048 0.10417515 -0.41189122 -0.6071932 -0.40318304 -0.14585842 -0.6238541 -0.116733454 0.061285857 -0.22184378 0.2892444 0.14420116 0.11063131 -0.24235906 0.060386118 -0.4613054 -0.38604265 -0.05872132 -0.007798005 0.25584567 -0.19865254 0.18954422 -0.25554606 0.11347825 0.32283926 -0.53780293 0.100917846 -0.18510012 -0.21541458 -0.21395345 -0.13981974 -0.11706598 0.2875284 0.24661893
62 -0.024761824 -0.28477952 0.088923484 0.25752908 0.47362098 0.060791433 -0.21618968 -0.4858608 -0.10129705 -0.15818208 -0.22291678 -0.19062991 -0.5290152 -0.17590271 0.025368525 0.2005045 0.18513006 -0.09483251 -0.18620433 0.0720552 0.09606753 0.5234532 -0.047030315 -0.13442655 -0.2963661 -0.2546994 -0.41938236 0.0431183 -0.16228856 -0.023727808 -0.10387944 -0.45063618 0.057807554 -0.6204393 -0.60848725 0.0496444 0.037212722 -0.16462821 -0.38827536 -0.06934135 0.25617427 0.14835864 -0.16974977 -0.45237225 -0.38737854 -0.194098 0.12565741 0.2517463 0.022165122 -0.07364299 0.067021206 -0.3370156 0.2658244 0.09513703 -0.15948722 0.028845299 -0.07749088 -0.011054385 0.11050147 0.18464193 -0.12291326 -0.29069525 0.7816709 -0.30696622
65 -0.03681622 -0.27338094 0.07335036 0.28871873 0.47436583 0.06798655 -0.21470208 -0.48150763 -0.07891081 -0.1286345 -0.22876334 -0.1705954 -0.52833 -0.21066974 0.01606951 0.2280613 0.18051186 -0.080496855 -0.1530231 0.07817121 0.07922542 0.5364361 -0.01746359 -0.15206085 -0.3123642 -0.24907707 -0.41621578 0.07044613 -0.15761335 -0.016002364 -0.09769785 -0.4537613 0.038916647 -0.6275819 -0.5744421 0.061741043 0.059052236 -0.17566739 -0.39515942 -0.08201494 0.26065543 0.1597035 -0.19529547 -0.47283104 -0.40306044 -0.18131723 0.111449815 0.22474876 0.0016983087 -0.068469994 0.088040926 -0.33774558 0.29366812 0.07413758 -0.18742427 0.047212657 -0.07412705 -0.023776243 0.12211515 0.13437754 -0.0947406 -0.26408243 0.7712062 -0.32199198
146 -0.2616396 0.027320724 0.34716988 -0.028857348 -0.22787724 0.4522868 0.1074649 -0.20476434 -0.013545849 -0.17845789 0.26383227 0.22975436 0.022955624 -0.3198496 -0.031381704 0.14580917 -0.3547946 0.25947794 0.14566682 -0.14040871 -0.0646529 0.33996466 0.18185276 0.18160723 0.7752508 0.25366548 -0.2812705 0.23466372 -0.0018123726 -0.12197993 -0.014921303 0.11278998 -0.41811535 -0.5762772 -0.40664038 -0.18377067 -0.6072993 -0.12674604 0.074313335 -0.22459301 0.27486023 0.13802803 0.107604906 -0.23232688 0.06366527 -0.4765957 -0.40638527 -0.07543244 -0.029335424 0.27434418 -0.19120653 0.1957684 -0.26068887 0.12364457 0.33676118 -0.52186716 0.07836333 -0.1850153 -0.2182128 -0.22407871 -0.1441645 -0.12983826 0.26267135 0.23085734
131 -0.26134697 0.031123826 0.36796653 -0.026821932 -0.19776358 0.45060477 0.11675937 -0.20801936 -0.018610338 -0.16429375 0.2614245 0.2385658 0.009305156 -0.30810064 0.00061122904 0.14956114 -0.35992056 0.27440193 0.16598555 -0.14563096 -0.067077145 0.34531295 0.1539727 0.18411762 0.7599993 0.2535147 -0.31386852 0.24063995 -0.021134181 -0.10198076 -0.016502962 0.102361165 -0.40880394 -0.6032385 -0.38337776 -0.17538327 -0.6231129 -0.14321521 0.05626986 -0.23225752 0.29877362 0.13543129 0.12457823 -0.2365093 0.065058865 -0.47428438 -0.41036704 -0.055414695 -0.040391035 0.2789189 -0.18981847 0.20858082 -0.23650752 0.10438666 0.3396033 -0.5332944 0.07504172 -0.17901257 -0.21953064 -0.23023175 -0.13580906 -0.13527958 0.26860535 0.21679728
78 -0.03341146 -0.29207855 0.07231529 0.30107915 0.4715734 0.07636851 -0.22958426 -0.49048457 -0.08900928 -0.11703667 -0.214614 -0.16181089 -0.53962636 -0.20121957 0.019254906 0.19529241 0.17563102 -0.09853556 -0.13725577 0.07253443 0.086855814 0.5396924 -0.037472196 -0.12802291 -0.27369457 -0.266963 -0.43451667 0.06292469 -0.18631469 -0.028635498 -0.09947747 -0.47116664 0.014099315 -0.6430637 -0.5834487 0.064750336 0.018327003 -0.18772955 -0.4019721 -0.07373254 0.27379093 0.15209375 -0.17908378 -0.45724076 -0.40915406 -0.1862356 0.14310434 0.20925806 -0.012992114 -0.06455358 0.12014184 -0.3410961 0.2900337 0.09628244 -0.17295383 0.0372996 -0.05764618 -0.032932866 0.11946373 0.1401964 -0.12564518 -0.27891383 0.7704157 -0.29476866
47 -0.027495809 -0.27422726 0.065992855 0.2656241 0.48058423 0.04613655 -0.21559228 -0.49721384 -0.103938796 -0.1622068 -0.22944808 -0.16709669 -0.53069687 -0.1726053 -0.00050094124 0.21346192 0.16996883 -0.101073556 -0.16866648 0.058672953 0.06174678 0.51116526 -0.028097672 -0.14363489 -0.31874788 -0.24543636 -0.4362074 0.05931577 -0.14332314 -0.026125573 -0.099592865 -0.44893384 0.04464376 -0.62539226 -0.59538114 0.062174592 0.048817564 -0.19127929 -0.3864981 -0.081125475 0.24238753 0.1781771 -0.19078748 -0.4849832 -0.3939653 -0.19233803 0.122735515 0.2388598 0.006539084 -0.068676054 0.052299935 -0.33178344 0.2786098 0.09411168 -0.18076065 0.033242326 -0.08201428 -0.01784152 0.12235536 0.15817037 -0.11708444 -0.27126175 0.77517647 -0.31435814
85 -0.26194522 0.03812286 0.35980892 -0.020801205 -0.21702617 0.4557508 0.11242331 -0.19545312 0.00045685496 -0.17170627 0.28119728 0.24781777 -0.0067109647 -0.29548883 -0.030876372 0.15579133 -0.34239867 0.24724162 0.17945597 -0.13341482 -0.066029154 0.34398904 0.1984808 0.20003077 0.78035426 0.25641614 -0.30963704 0.22990227 0.011955525 -0.09677443 -0.0018893604 0.102593675 -0.4076861 -0.5943849 -0.39720845 -0.16806738 -0.60096025 -0.14535932 0.08427358 -0.23713487 0.28570962 0.15884967 0.12770711 -0.23368403 0.042846307 -0.46339914 -0.40149543 -0.065119974 -0.035614304 0.28201482 -0.19392402 0.18975794 -0.25117102 0.09627273 0.31211758 -0.5463845 0.09279929 -0.18991809 -0.22969282 -0.21350293 -0.13542248 -0.15795201 0.29994318 0.2243674
23 -0.005167522 -0.25515676 0.08302911 0.3259799 0.5072289 0.05708707 -0.19577406 -0.45894608 -0.050972763 -0.16666561 -0.21006909 -0.18097994 -0.49972212 -0.19156417 0.019791944 0.20506687 0.18746582 -0.08422645 -0.1748177 0.10805658 0.065822944 0.5232898 -0.046591997 -0.15391 -0.2725818 -0.2737519 -0.4432016 0.08455137 -0.16015397 -0.02222287 -0.11224368 -0.44870192 0.010685183 -0.6331602 -0.5753332 0.037190977 0.018116508 -0.17828701 -0.41811395 -0.04964994 0.23454842 0.122533515 -0.17310582 -0.49077612 -0.42416334 -0.19466841 0.11498843 0.2224274 0.0065059518 -0.08558554 0.11727389 -0.34251586 0.30399054 0.07862396 -0.18508919 0.058249924 -0.06876577 -0.02291444 0.109310225 0.16674285 -0.12082972 -0.2853589 0.7848475 -0.3014079
4 -0.037063263 -0.2716472 0.07163853 0.28416306 0.46553788 0.06581605 -0.20546278 -0.5343097 -0.099223584 -0.13563764 -0.2377481 -0.14564984 -0.51481634 -0.1791315 0.008014327 0.21568947 0.17465095 -0.0956778 -0.15358587 0.052482285 0.10086623 0.5221312 -0.023785848 -0.16909853 -0.2902799 -0.24126655 -0.4220817 0.05547883 -0.17598732 -0.043408297 -0.09500819 -0.43256393 0.04074209 -0.632337 -0.5954361 0.0899745 0.054451406 -0.22223951 -0.37378785 -0.06084843 0.2159535 0.13283928 -0.17634971 -0.48263013 -0.40546024 -0.20051065 0.11838256 0.22970028 -0.015597741 -0.0680424 0.085790776 -0.31256175 0.29624823 0.11456385 -0.1556571 0.057347696 -0.06842482 -0.011953572 0.091371275 0.15197599 -0.12611668 -0.30475646 0.79423 -0.30220148
80 -0.22341983 0.036585722 0.36709893 -0.0059853806 -0.22671475 0.4517033 0.13911808 -0.16829354 0.003623077 -0.17663 0.2643794 0.2332257 0.00012831265 -0.3074688 -0.024778295 0.16288324 -0.33958155 0.24723487 0.19268265 -0.13949823 -0.075199544 0.34489456 0.17277417 0.20855977 0.7870768 0.26462415 -0.3262289 0.20331141 -0.02737639 -0.09253895 0.0023541194 0.099578716 -0.42888266 -0.58415467 -0.40987068 -0.13946348 -0.6117477 -0.12796749 0.07461211 -0.24649729 0.29164714 0.16055283 0.1169497 -0.24357903 0.04704544 -0.4404987 -0.39485306 -0.047582246 -0.0119684795 0.27005866 -0.20417657 0.19232538 -0.23958373 0.10606506 0.3104363 -0.5403042 0.10820586 -0.18184851 -0.22443 -0.22021197 -0.14201537 -0.13160424 0.28187647 0.23201804
154 -0.25348583 0.04234888 0.351937 -0.020673016 -0.20175236 0.46799076 0.112089336 -0.21527916 0.008791125 -0.18194239 0.2894205 0.23360974 -0.012467675 -0.31374118 -0.021330671 0.15548834 -0.36548573 0.25785092 0.13910939 -0.1192684 -0.0803417 0.35419312 0.18695559 0.18393117 0.7793398 0.25430906 -0.31197295 0.22426194 -0.0050275023 -0.1085623 -0.012083522 0.11829316 -0.4405481 -0.58058536 -0.38923436 -0.15330131 -0.6188541 -0.13795438 0.08742893 -0.22763412 0.27981848 0.15248688 0.12087743 -0.2470923 0.06454455 -0.48343462 -0.4113927 -0.08051628 -0.011191787 0.26768428 -0.19449821 0.18951182 -0.27059028 0.11073516 0.3008019 -0.5172779 0.09227379 -0.18955162 -0.20536445 -0.20529956 -0.13730034 -0.12069101 0.2868976 0.24334444
50 -0.01319896 -0.2674097 0.06415767 0.2748155 0.48896733 0.07516201 -0.20733666 -0.52207804 -0.086211585 -0.17276391 -0.24432293 -0.1516562 -0.5114975 -0.18306024 0.0076177227 0.24883191 0.17207417 -0.08911116 -0.15652288 0.054892972 0.09724693 0.5355973 -0.032858696 -0.13667595 -0.29750338 -0.2518002 -0.41035053 0.07108175 -0.16191241 -0.041109454 -0.11397981 -0.4463348 0.047193844 -0.62342066 -0.5832867 0.05587743 0.038630378 -0.20510527 -0.3888166 -0.088226646 0.2212463 0.15581588 -0.17591874 -0.47734666 -0.3951217 -0.19271006 0.10643053 0.23151854 -0.0054105623 -0.07124738 0.05815816 -0.3020616 0.29231846 0.09806525 -0.16051978 0.04033949 -0.07182413 -0.01911913 0.110766634 0.14549454 -0.12322822 -0.30766737 0.8001385 -0.3238818
95 -0.23187713 0.03720988 0.34637478 -0.009614676 -0.206535 0.44717142 0.13402128 -0.21289627 -0.0059113745 -0.18015069 0.2618651 0.2188917 0.017013676 -0.31795484 -0.008103455 0.15843534 -0.34692532 0.25599572 0.16715206 -0.15193252 -0.0860357 0.3400747 0.18355285 0.19228017 0.7646456 0.26833415 -0.30980214 0.22031789 -0.012027327 -0.08480507 -0.012788215 0.10573715 -0.4344328 -0.59136367 -0.40662324 -0.16738002 -0.61527514 -0.14709191 0.08366434 -0.2326449 0.30120772 0.13562371 0.11807874 -0.2482827 0.055245876 -0.48441526 -0.397226 -0.05673539 -0.033037324 0.27624193 -0.18140332 0.20543055 -0.24492717 0.12206698 0.3125371 -0.5154765 0.08324747 -0.18639083 -0.21008691 -0.22578312 -0.12912992 -0.13605037 0.27405855 0.22717768
111 -0.28469604 0.000558649 0.36173105 -0.018453628 -0.2210195 0.46297693 0.1273957 -0.20190787 -0.005606669 -0.14846776 0.25903505 0.24666446 0.012459242 -0.32516316 -0.013337165 0.16410589 -0.36040336 0.24262753 0.1798802 -0.1508515 -0.060826253 0.32218602 0.1813915 0.19273558 0.77827525 0.24553579 -0.31512752 0.2144187 -0.023226544 -0.12571673 -0.025090823 0.09525303 -0.39843658 -0.59083885 -0.3685806 -0.14702678 -0.60602796 -0.105198056 0.06567606 -0.2375418 0.29634464 0.14504579 0.11870794 -0.22717196 0.040380403 -0.4512303 -0.4100854 -0.054969016 -0.018405193 0.24018943 -0.18604681 0.22305891 -0.24496701 0.12094712 0.3525358 -0.55136496 0.09060757 -0.17019454 -0.21428001 -0.23955752 -0.14105965 -0.14109169 0.27457926 0.19726186
19 -0.030152671 -0.2777635 0.080309175 0.27146316 0.47907552 0.068198636 -0.20552804 -0.4906842 -0.08479837 -0.15816715 -0.21947414 -0.16421832 -0.5283378 -0.19179107 0.008998871 0.20096993 0.1601292 -0.099265985 -0.17050806 0.069984384 0.08951002 0.52815443 -0.020915458 -0.13566835 -0.28883433 -0.2539346 -0.43701723 0.059397936 -0.15467462 -0.025311895 -0.10195099 -0.45165813 0.048386335 -0.61880004 -0.6097143 0.06747517 0.028029978 -0.19871305 -0.38596895 -0.066325985 0.24015626 0.1590675 -0.17891432 -0.47451383 -0.4080242 -0.20340383 0.111408435 0.23629867 0.0065729213 -0.067986004 0.07147172 -0.34206006 0.28353152 0.06914859 -0.16438104 0.026755285 -0.07540172 -0.0067337374 0.09592811 0.155428 -0.098706886 -0.27437696 0.8044969 -0.30969563
55 -0.024108382 -0.28538385 0.07509322 0.27774552 0.5003278 0.06805656 -0.20799795 -0.49401146 -0.07650938 -0.15382078 -0.24498112 -0.1780807 -0.51179737 -0.15470572 0.0048418753 0.21737218 0.17973314 -0.10221172 -0.15591688 0.0770102 0.12022712 0.5149555 -0.042060938 -0.1206742 -0.30438942 -0.25909615 -0.41961223 0.056091603 -0.164673 -0.013966149 -0.11734596 -0.46064937 0.07971589 -0.6027807 -0.58810323 0.047895752 0.028334862 -0.17775752 -0.36719203 -0.05489857 0.21966252 0.15269329 -0.16161148 -0.47493643 -0.39552134 -0.18263777 0.13142754 0.2430853 -0.003137057 -0.08950497 0.08964383 -0.32962352 0.28612062 0.08052018 -0.16599134 0.04112568 -0.070904374 -0.003776418 0.10814514 0.15615392 -0.13079502 -0.3070236 0.78054905 -0.32493952
20 -0.021388056 -0.27620515 0.08287418 0.28683645 0.46885166 0.029392734 -0.22259343 -0.4815573 -0.06906092 -0.15469086 -0.22686034 -0.15751654 -0.52928483 -0.19709826 0.007948658 0.21647099 0.17328998 -0.107834846 -0.16579014 0.08009163 0.10298502 0.5202907 -0.038094368 -0.10288217 -0.30942258 -0.24744333 -0.4434156 0.086779304 -0.18823197 -0.014805593 -0.12436878 -0.45508066 0.036348645 -0.6155441 -0.58799195 0.047915094 0.02660243 -0.186366 -0.40527633 -0.09055153 0.26594618 0.14912754 -0.17181632 -0.45101812 -0.40663067 -0.18116313 0.102794066 0.22194937 0.017702999 -0.06031568 0.071562074 -0.35151714 0.2989372 0.07688235 -0.18354197 0.034159224 -0.07411209 -0.026408818 0.121013165 0.14373624 -0.11204926 -0.2857338 0.78650033 -0.30420697
126 -0.25298658 0.048972342 0.36138678 -0.010878316 -0.19477008 0.44357166 0.11136999 -0.24031413 -0.025916072 -0.15947245 0.2588788 0.19824363 0.0054634777 -0.32614648 -0.014959051 0.16910274 -0.3724665 0.24919584 0.1697922 -0.1566787 -0.09820669 0.3457115 0.15773156 0.18193558 0.7701146 0.24660264 -0.32586485 0.21943924 -0.010832488 -0.097781785 -0.03935168 0.102438234 -0.44269946 -0.6046274 -0.39861533 -0.17568721 -0.59141874 -0.15719226 0.07925124 -0.25139174 0.29587132 0.14106824 0.13000016 -0.27420303 0.045777112 -0.47784364 -0.40567097 -0.05616358 -0.036704145 0.29653484 -0.1577697 0.19790451 -0.22818632 0.114939414 0.35096267 -0.5209008 0.064405724 -0.18354858 -0.22998846 -0.21950386 -0.13815601 -0.14723264 0.26549688 0.19762002
84 -0.25779918 0.005117291 0.35045537 -0.020487359 -0.21890883 0.44614077 0.12022628 -0.17269626 0.00841308 -0.1587445 0.27144793 0.25904915 0.013252197 -0.3164335 -0.043292005 0.14172474 -0.34291837 0.27698088 0.16387974 -0.14837867 -0.04457519 0.33281767 0.17101447 0.2024826 0.7847723 0.24616975 -0.3290414 0.2296937 -0.029483581 -0.10278639 -0.019466193 0.08502149 -0.3968064 -0.60619146 -0.39903393 -0.1418276 -0.6100326 -0.104875065 0.040195886 -0.2147245 0.28422835 0.1424483 0.117352836 -0.25304493 0.050766226 -0.44942814 -0.40236187 -0.05154707 0.0051058694 0.2431286 -0.20882267 0.19748835 -0.27583814 0.086614944 0.32495576 -0.5466415 0.09483917 -0.17517455 -0.1997126 -0.22668001 -0.15648775 -0.12645863 0.28610197 0.23519559
90 -0.24949141 0.045035012 0.3598929 -0.003508968 -0.2151275 0.44745493 0.11343565 -0.20178133 -0.015621722 -0.1766096 0.27182305 0.24115247 -0.0017623358 -0.3136797 -0.027333349 0.15379673 -0.3495032 0.26758137 0.19225737 -0.15485117 -0.056147486 0.32755658 0.16691788 0.18722841 0.7932768 0.25531048 -0.32653925 0.2217787 -0.017354766 -0.08801051 0.0009371286 0.09836404 -0.42548323 -0.60363406 -0.39171532 -0.14655913 -0.6089648 -0.12771432 0.06845466 -0.23030847 0.28740707 0.13191296 0.13522524 -0.2626835 0.056005165 -0.43377942 -0.39139655 -0.062025994 -0.03120329 0.27356002 -0.20726518 0.19674733 -0.2411323 0.10979416 0.33037585 -0.53503317 0.066525556 -0.17749068 -0.22026992 -0.21367408 -0.14273745 -0.13127762 0.26329637 0.2366458
138 -0.29402658 0.02711869 0.33722356 -0.01595749 -0.20541453 0.47277114 0.12035243 -0.23759189 -0.021522334 -0.16660403 0.29499188 0.20299584 -0.0033765575 -0.32839644 -0.024902005 0.14693451 -0.36773422 0.2393202 0.16828531 -0.15935865 -0.07458703 0.34022987 0.17524362 0.17855853 0.78412586 0.25506637 -0.2924326 0.20583342 -0.00094458635 -0.06994987 -0.01708909 0.0706325 -0.42327058 -0.60144645 -0.38057193 -0.16362242 -0.60597587 -0.12674005 0.092111215 -0.22225058 0.30342978 0.1435528 0.12320574 -0.26694041 0.06696224 -0.45341375 -0.41876796 -0.061327584 -0.022022055 0.28098556 -0.18032221 0.1999435 -0.23937581 0.1190362 0.32585105 -0.5309215 0.06845249 -0.19581315 -0.22758141 -0.23461281 -0.13037151 -0.13649085 0.27864516 0.21585722
89 -0.24491978 0.02448611 0.3702885 -0.004547981 -0.1982328 0.4705707 0.13879074 -0.19769432 -0.013340189 -0.17799112 0.28806537 0.24424627 0.001152345 -0.30110574 -0.010119064 0.17342968 -0.35639036 0.2649728 0.20196812 -0.139306 -0.05062796 0.31839317 0.1561321 0.20614266 0.7758148 0.26571134 -0.31829122 0.22612211 -0.028179897 -0.0868705 0.009516036 0.08778017 -0.4182545 -0.59295684 -0.38862273 -0.14764516 -0.616937 -0.13339145 0.056883316 -0.21527117 0.30822667 0.15301068 0.1263221 -0.25709358 0.058396723 -0.43242693 -0.41108727 -0.06349848 -0.025399879 0.26086837 -0.19256341 0.19137408 -0.23686258 0.1008956 0.3358584 -0.5414074 0.08777607 -0.17909239 -0.22510102 -0.21253192 -0.13524239 -0.1325198 0.27742493 0.23963822
43 -0.018185468 -0.26514342 0.09216654 0.29462254 0.49540862 0.04390396 -0.21509185 -0.46316096 -0.06491009 -0.12205474 -0.21180971 -0.16869076 -0.52723354 -0.21204671 0.010941735 0.22180618 0.17538121 -0.087844096 -0.16337125 0.09643377 0.06294109 0.52878743 -0.022575654 -0.16056766 -0.28192565 -0.24760053 -0.4339508 0.081670046 -0.17116708 0.010247076 -0.105156705 -0.43997675 0.017503848 -0.6417744 -0.5961066 0.062159523 0.04031356 -0.17517135 -0.4172532 -0.07956377 0.25183782 0.13799316 -0.16897184 -0.47609785 -0.41499892 -0.17979322 0.11401641 0.21381901 0.013614004 -0.06237401 0.10730027 -0.35494938 0.29821306 0.06306606 -0.19801505 0.040482514 -0.075587004 -0.030914437 0.11841408 0.16519709 -0.114147045 -0.25943995 0.77524817 -0.2938346
109 -0.26181075 0.023289887 0.35882643 -0.030995766 -0.19807129 0.46593666 0.11501307 -0.19932002 -0.01838746 -0.1778074 0.29018214 0.26386908 0.0048501953 -0.2958589 -0.011373078 0.13862291 -0.3508122 0.28694385 0.15529096 -0.14173786 -0.03805033 0.3279252 0.15893582 0.19831567 0.7809109 0.26495236 -0.30298856 0.24199452 -0.021767795 -0.10549656 0.0027816002 0.0998299 -0.40098512 -0.59641665 -0.37770274 -0.15374425 -0.63748837 -0.1289719 0.04502975 -0.19703081 0.2976674 0.14380601 0.1301293 -0.22688654 0.06562334 -0.45364064 -0.410065 -0.06533046 -0.015402704 0.25563896 -0.19450954 0.2031201 -0.25485462 0.08148369 0.31551346 -0.530311 0.08760525 -0.18198106 -0.20372877 -0.21836185 -0.16533712 -0.13335124 0.2714661 0.24304478
152 -0.24188235 0.039905 0.37018284 0.013594643 -0.19754203 0.4407184 0.13704005 -0.22445995 -0.015815571 -0.16860339 0.24660805 0.2185112 0.017192658 -0.33296692 -0.013906859 0.1717788 -0.35456645 0.25253114 0.1950364 -0.16036648 -0.07570945 0.33066696 0.1729748 0.2077733 0.779322 0.24560298 -0.33135098 0.22109184 -0.008027257 -0.09819944 -0.013981278 0.11061262 -0.43265328 -0.60594976 -0.39444533 -0.1430721 -0.6168642 -0.13729069 0.077542365 -0.22814922 0.30753258 0.1332146 0.107707806 -0.24580005 0.04050708 -0.4484572 -0.4018897 -0.055418484 -0.028952315 0.25320324 -0.18323421 0.19266465 -0.24064797 0.12874976 0.35112888 -0.5318318 0.060804 -0.15987714 -0.21655013 -0.24791679 -0.11845334 -0.11544333 0.27951184 0.20842987
56 -0.038630288 -0.25785416 0.062204447 0.3280322 0.492149 0.091630034 -0.21030213 -0.48179334 -0.073449336 -0.1577723 -0.21792667 -0.18258294 -0.5038378 -0.17758252 0.017023819 0.21833272 0.16890243 -0.08550773 -0.15827279 0.08857081 0.07691319 0.5236284 -0.02743141 -0.15611248 -0.30089766 -0.26026753 -0.42472377 0.08350899 -0.18643731 -0.03180744 -0.10975203 -0.4317976 0.029879713 -0.633356 -0.58463544 0.05342237 0.0070294035 -0.19306403 -0.3977662 -0.0707569 0.24294199 0.14320898 -0.15551215 -0.48831806 -0.41436934 -0.1965329 0.12751226 0.2146622 -0.01018543 -0.07574399 0.09540264 -0.3355103 0.28547046 0.08056625 -0.17798628 0.037921436 -0.06474639 -0.020245047 0.09369782 0.16221079 -0.12537293 -0.29991558 0.78588647 -0.3076121
